700548.97787, 3,   0.385,  9.727, -3.001
700548.99777, 3,   0.385,  9.727, -3.001
700549.01764, 3,   0.447,  9.645, -2.419, 4,   0.142,  0.011, -0.016, 5,  -5.753,-44.467, -1.007
700549.03751, 3,   0.249,  9.701, -2.142
700549.05737, 3,   0.103,  9.696, -2.024
700549.07724, 3,   0.234,  9.641, -1.886, 4,   0.003,  0.120,  0.010, 5,  -6.070,-44.295,  0.635
700549.09711, 3,   0.385,  9.552, -1.950
700549.11697, 3,   0.562,  9.827, -2.658
700549.13684, 3,   0.799,  9.643, -2.484, 4,   0.006, -0.026,  0.037
700549.15668, 3,   0.916,  9.564, -2.146
700549.17654, 3,   0.971,  9.684, -2.405
700549.19641, 3,   1.038,  9.435, -2.515, 4,   0.006, -0.030,  0.040, 5,  -6.096,-42.308,  0.214
700549.21628, 3,   0.938,  9.636, -2.862
700549.23614, 3,   0.873,  9.598, -2.953
700549.25601, 3,   0.749,  9.394, -2.623, 4,   0.009,  0.000,  0.027
700549.27591, 3,   0.725,  9.547, -2.800
700549.29578, 3,   0.912,  9.504, -3.060
700549.31564, 3,   0.962,  9.339, -2.955, 4,   0.004, -0.029,  0.021, 5,  -5.865,-44.772,  0.493
700549.33551, 3,   0.849,  9.538, -3.113
700549.35538, 3,   0.873,  9.497, -3.295
700549.37524, 3,   0.833,  9.253, -2.773, 4,   0.003, -0.007,  0.007, 5,  -6.746,-44.730,  0.256
700549.39511, 3,   0.687,  9.569, -2.960
700549.41498, 3,   0.586,  9.631, -3.355
700549.43484, 3,   0.555,  9.392, -2.618, 4,   0.005,  0.029,  0.001, 5,  -6.560,-45.123,  0.154
700549.45471, 3,   0.546,  9.624, -2.261
700549.47458, 3,   0.567,  9.689, -2.958
700549.49445, 3,   0.340,  9.526, -2.582, 4,   0.006,  0.035,  0.010, 5,  -5.423,-45.074, -1.102
700549.51432, 3,   0.457,  9.741, -2.424
700549.53419, 3,   0.438,  9.550, -2.264
700549.55408, 3,   0.368,  9.562, -2.340, 4,   0.005,  0.002,  0.020, 5,  -7.817,-44.334, -0.751
700549.57395, 3,   0.306,  9.641, -2.477
700549.59382, 3,   1.062,  9.203, -2.742
700549.61368, 3,   0.144,  9.586, -2.465, 4,   0.019, -0.013,  0.047, 5,  -6.728,-43.842, -0.694
700549.63355, 3,   0.225,  9.550, -2.721
700549.65342, 3,   0.390,  9.538, -2.914
700549.67328, 3,   0.502,  9.447, -2.883, 4,   0.028, -0.016,  0.070
700549.69312, 3,   0.553,  9.342, -2.716
700549.71299, 3,   0.620,  9.375, -2.974
700549.73285, 3,   0.818,  9.442, -3.427, 4,   0.038, -0.005,  0.089, 5,  -7.982,-45.938,  2.022
700549.75272, 3,   0.895,  9.454, -3.247
700549.77259, 3,   0.971,  9.444, -2.977
700549.79246, 3,   1.007,  9.325, -2.941, 4,   0.038,  0.030,  0.091
700549.81171, 3,   1.445,  9.399, -3.068
700549.83219, 3,   1.658,  9.456, -3.584
700549.85209, 3,   1.895,  9.449, -3.596, 4,   0.035,  0.003,  0.075, 5,  -7.875,-46.214, -0.467
700549.87195, 3,   1.584,  9.418, -3.214
700549.89182, 3,   1.292,  9.356, -2.986
700549.91169, 3,  -1.084,  9.102,  0.639, 4,   0.018,  0.063,  0.035, 5,  -7.111,-44.324,  2.029
700549.93155, 3,   0.273,  9.569, -5.274
700549.95142, 3,   0.414,  9.507, -2.235
700549.97129, 3,   0.038,  9.500, -1.464, 4,   0.019, -0.054,  0.070, 5,  -6.773,-45.015,  0.984
700549.99116, 3,   1.029,  9.124, -3.395
700550.01102, 3,   1.802,  9.205, -3.974
700550.03089, 3,   1.117,  9.657, -3.876, 4,   0.040, -0.128,  0.096, 5,  -8.586,-44.887, -0.104
700550.05076, 3,   0.974,  9.468, -3.505
700550.07062, 3,   2.020,  9.320, -3.527
700550.09049, 3,   1.622,  9.004, -3.553, 4,   0.018,  0.050,  0.073, 5,  -8.365,-45.776,  0.670
700550.11036, 3,   2.051,  8.978, -3.838
700550.13025, 3,   2.039,  9.366, -4.271
700550.15012, 3,   1.132,  9.583, -4.525, 4,   0.015,  0.044,  0.029, 5,  -7.169,-46.162,  0.987
700550.16999, 3,   0.945,  9.260, -4.487
700550.18986, 3,   0.584,  8.492, -3.960
700550.20972, 3,   1.029,  8.705, -3.876, 4,  -0.016,  0.026,  0.007, 5,  -6.068,-44.341,  2.353
700550.22959, 3,   1.170,  9.098, -4.546
700550.24943, 3,   0.713,  9.361, -5.044
700550.26929, 3,   0.680,  9.593, -5.235, 4,  -0.005, -0.046, -0.003, 5,  -8.530,-44.586,  1.239
700550.28916, 3,   1.407,  8.200, -4.994
700550.30903, 3,   2.271,  8.083, -5.853
700550.32889, 3,   2.364,  8.341, -5.748, 4,  -0.032, -0.070, -0.023
700550.34876, 3,   1.488,  9.507, -5.470
700550.36863, 3,   1.579,  9.741, -5.109
700550.38849, 3,   1.651,  8.298, -4.515, 4,  -0.061,  0.118, -0.089, 5,  -6.851,-44.316,  1.160
700550.40836, 3,   1.620,  8.789, -6.073
700550.42826, 3,   1.589,  8.215, -5.252
700550.44813, 3,   0.962,  9.933, -5.872, 4,  -0.064,  0.232, -0.158, 5,  -7.994,-45.158,  0.151
700550.46799, 3,   1.656,  7.334, -3.345
700550.48786, 3,   1.598,  8.569, -7.023
700550.50773, 3,   1.539,  6.820, -6.032, 4,  -0.092,  0.542, -0.216, 5,  -7.452,-46.381,  0.174
700550.52759, 3,  -0.543,  9.545, -8.006
700550.54746, 3,  -0.141,  9.069, -3.852
700550.56733, 3,   0.625,  7.647, -4.764, 4,  -0.103,  0.878, -0.275, 5,  -5.832,-44.994, -2.081
700550.58719, 3,   0.469,  9.399, -6.774
700550.60706, 3,  -1.237, 10.385, -4.173
700550.62693, 3,  -1.012,  7.920, -3.029, 4,  -0.100,  0.511, -0.300, 5,  -4.105,-45.665, -2.641
700550.64679, 3,   0.921, 10.315, -2.060
700550.66666, 3,   1.455, 10.390, -0.744
700550.68653, 3,   1.031, 10.488, -2.027, 4,  -0.115,  0.113, -0.298, 5,  -4.008,-45.609, -3.259
700550.70643, 3,   0.096, 10.167, -1.713
700550.72629, 3,  -2.510,  9.413, -0.988
700550.74616, 3,  -3.771,  9.684, -1.347, 4,  -0.010,  0.402, -0.306, 5,  -2.214,-44.905, -3.087
700550.76603, 3,  -3.467,  8.786, -1.909
700550.78589, 3,  -2.503,  9.796, -2.137
700550.80573, 3,  -1.046, 10.342, -3.013, 4,  -0.025,  0.037, -0.152, 5,  -1.764,-44.116, -1.653
700550.82560, 3,  -0.634,  9.648, -2.036
700550.84546, 3,   0.067,  9.502, -2.489
700550.86533, 3,   0.957, 10.086, -3.240, 4,  -0.048, -0.156, -0.027
700550.88520, 3,   0.663,  9.150, -3.467
700550.90507, 3,   0.096,  8.030, -3.577
700550.92493, 3,   0.124,  9.342, -6.339, 4,   0.029, -0.030, -0.039, 5,  -1.904,-45.096, -3.885
700550.94480, 3,  -0.426,  9.947, -5.592
700550.96467, 3,  -0.421,  9.210, -4.872
700550.98456, 3,   0.000,  6.994, -1.603, 4,  -0.038, -0.235, -0.031, 5,   0.542,-44.841, -1.956
700551.00443, 3,   0.720, 10.861, -6.262
700551.02430, 3,   1.235,  9.425, -4.745
700551.04416, 3,   1.933,  8.425, -5.113, 4,   0.040, -0.490, -0.033, 5,  -1.749,-44.359, -4.460
700551.06403, 3,   1.701,  7.408, -5.140
700551.08390, 3,   2.039,  9.744, -7.236
700551.10377, 3,   1.651,  8.875, -4.812, 4,   0.042, -0.216, -0.105, 5,  -1.732,-44.550, -4.121
700551.12363, 3,   0.713,  8.758, -5.013
700551.14350, 3,   0.708,  8.207, -5.293
700551.16337, 3,  -0.960,  5.829, -5.848, 4,  -0.020,  0.178, -0.179, 5,  -0.360,-44.446, -4.816
700551.18323, 3,  -1.603,  7.585, -6.365
700551.20310, 3,   0.373, 13.378, -5.977
700551.22297, 3,   0.359, 10.241, -1.254, 4,  -0.135,  0.171, -0.187, 5,   0.468,-44.878, -4.128
700551.24283, 3,  -0.019,  5.977, -1.584
700551.26270, 3,  -1.407,  9.447, -2.773
700551.28260, 3,  -1.574, 11.713, -2.809, 4,  -0.045,  0.063, -0.227, 5,   1.434,-46.254, -4.793
700551.30247, 3,  -0.098,  9.988, -2.108
700551.32233, 3,   1.323,  9.945, -1.979
700551.34220, 3,   2.393,  8.889, -0.488, 4,  -0.100,  0.031, -0.199, 5,   3.224,-46.030, -4.805
700551.36207, 3,   0.325, 11.184, -0.457
700551.38190, 3,  -0.498, 11.273, -1.067
700551.40177, 3,  -0.400,  8.183, -1.218, 4,  -0.098,  0.099, -0.254
700551.42164, 3,  -0.782,  8.796, -0.976
700551.44150, 3,  -2.314,  9.521, -1.460
700551.46137, 3,  -3.903, 11.974, -2.151, 4,  -0.065, -0.263, -0.242, 5,   5.130,-46.689, -5.354
700551.48124, 3,  -2.725, 10.571, -2.833
700551.50110, 3,  -1.024,  5.580, -2.843
700551.52097, 3,  -1.919, 11.275, -2.986, 4,  -0.069, -0.637, -0.072
700551.54084, 3,  -1.986, 11.562, -2.271
700551.56074, 3,   0.414,  9.236, -0.273
700551.58060, 3,   1.998,  8.808, -1.019, 4,  -0.077, -0.731,  0.058, 5,   3.749,-45.630, -4.970
700551.60047, 3,   2.099,  9.320, -3.118
700551.62034, 3,   1.869, 10.311, -4.460
700551.64020, 3,   1.366,  9.875, -3.608, 4,   0.066, -0.400,  0.041, 5,   2.359,-45.503, -4.559
700551.66007, 3,  -0.589,  8.983, -2.718
700551.67994, 3,  -1.402, 10.229, -1.440
700551.69980, 3,  -1.158, 10.385, -0.577, 4,  -0.077, -0.114,  0.013, 5,   3.093,-45.589, -4.134
700551.71967, 3,  -1.132, 11.332,  0.713
700551.73954, 3,  -0.804,  8.791, -1.017
700551.75940, 3,   1.256,  8.827, -3.572, 4,  -0.002, -0.307,  0.034, 5,   3.926,-46.307, -5.983
700551.77927, 3,  -0.572, 10.119, -4.034
700551.79914, 3,  -1.338, 10.071, -2.838
700551.81901, 3,  -0.534, 10.447, -1.381, 4,  -0.036, -0.267,  0.062, 5,   2.657,-46.391, -4.147
700551.83887, 3,  -1.448,  6.118, -0.342
700551.85877, 3,  -1.395,  9.923, -3.479
700551.87864, 3,   0.376, 19.023, -0.857, 4,  -0.007, -0.343,  0.118, 5,   1.994,-46.024, -5.737
700551.89850, 3,   1.094,  9.086,  9.054
700551.91834, 3,   3.417,  6.236,  6.226
700551.93824, 3,  -1.981, 10.619, -4.683, 4,   0.063, -0.237,  0.112
700551.95810, 3,  -3.907,  8.270,-11.366
700551.97794, 3,  -2.106,  7.743, -8.798
700551.99781, 3,  -1.637, 11.196, -1.225, 4,   0.092,  0.125,  0.155, 5,  -0.452,-46.631, -4.977
700552.01768, 3,   0.187,  8.356,  2.479
700552.03754, 3,   0.031,  9.631, -2.895
700552.05741, 3,  -0.151,  9.712, -4.999, 4,   0.071,  0.388,  0.157
700552.07728, 3,  -0.581,  9.320, -7.791
700552.09714, 3,  -0.345,  8.250, -6.592
700552.11701, 3,   1.165,  9.705, -4.044, 4,   0.188,  0.860,  0.094, 5,  -0.098,-45.567, -2.982
700552.13691, 3,   0.294,  8.985, -2.797
700552.15677, 3,   0.519,  8.631, -3.068
700552.17664, 3,   0.708, 11.282, -2.737, 4,   0.129,  0.740, -0.048, 5,  -0.757,-45.172, -3.468
700552.19651, 3,  -0.500,  4.967, -2.036
700552.21637, 3,  -2.285,  8.466, -3.836
700552.23624, 3,  -2.634, 15.290, -7.734, 4,   0.229,  0.669, -0.130, 5,   1.779,-44.890, -0.490
700552.25611, 3,  -2.491,  6.901, -1.567
700552.27598, 3,  -3.374,  7.901, -1.335
700552.29584, 3,  -2.118, 11.213, -4.618, 4,   0.073,  0.349, -0.122, 5,   1.199,-46.024, -1.671
700552.31571, 3,  -2.177, 10.100, -6.233
700552.33558, 3,  -2.888,  9.121, -5.621
700552.35544, 3,  -1.043,  8.195, -0.089, 4,   0.043,  0.088, -0.042, 5,   1.489,-46.487, -3.055
700552.37531, 3,   1.792,  9.937, -0.179
700552.39518, 3,   1.338, 10.004, -1.395
700552.41507, 3,   0.768,  8.566, -3.115, 4,   0.008,  0.123,  0.025
700552.43494, 3,   0.849,  9.736, -5.082
700552.45481, 3,   2.668, 10.315, -4.860
700552.47468, 3,   3.321, 10.004, -2.204, 4,   0.041,  0.211, -0.092, 5,   2.423,-44.797, -0.995
700552.49451, 3,   1.560,  4.676, -2.410
700552.51441, 3,   2.039, 11.883, -5.133
700552.53425, 3,   0.474, 13.340, -1.775, 4,  -0.021,  0.299, -0.235, 5,   3.494,-45.798, -1.334
700552.55411, 3,  -0.428,  7.657,  1.519
700552.57398, 3,  -1.156,  9.787, -1.902
700552.59385, 3,  -1.378,  9.945, -5.209, 4,  -0.007, -0.155, -0.319
700552.61371, 3,  -2.276,  9.078, -4.125
700552.63358, 3,  -2.891,  8.456, -4.278
700552.65345, 3,  -2.130,  9.964, -4.175, 4,  -0.071, -0.550, -0.212, 5,   3.700,-45.248, -1.654
700552.67331, 3,  -1.493, 10.373, -3.290
700552.69318, 3,  -1.417,  7.564, -3.159
700552.71308, 3,  -0.883, 10.179, -3.673, 4,  -0.066, -0.481, -0.081, 5,   3.226,-46.156, -2.583
700552.73295, 3,  -1.302,  9.205, -3.860
700552.75281, 3,  -0.732,  6.224, -5.178
700552.77268, 3,  -0.005,  6.262, -7.777, 4,   0.053, -0.302, -0.037, 5,   4.324,-45.462, -1.901
700552.79255, 3,  -0.830,  4.704, -8.770
700552.81241, 3,   0.715, 18.614, -4.503
700552.83228, 3,   0.211,  6.709,  3.867, 4,  -0.156, -0.157, -0.010, 5,   3.763,-45.868, -2.373
700552.85215, 3,   0.285,  8.183, -0.703
700552.87201, 3,  -0.424, 11.670, -6.633
700552.89188, 3,  -0.450, 10.579, -3.249, 4,   0.042, -0.433, -0.053, 5,   3.261,-44.572, -2.312
700552.91175, 3,  -1.103,  8.815, -0.514
700552.93162, 3,  -1.464, 10.942, -3.247
700552.95148, 3,  -1.450,  8.518, -3.281, 4,  -0.043, -0.737,  0.032
700552.97135, 3,   0.333,  9.672, -2.977
700552.99125, 3,   1.156,  8.760, -3.008
700553.01111, 3,   0.529, 11.474, -4.231, 4,  -0.050, -0.831,  0.149, 5,   2.737,-45.660, -3.355
700553.03098, 3,   1.036,  6.121, -3.869
700553.05085, 3,  -0.022,  8.693, -5.606
700553.07071, 3,   0.857, 14.489, -3.565, 4,  -0.044, -0.234,  0.153, 5,   3.241,-45.486, -2.280
700553.09058, 3,   0.866,  6.779,  1.764
700553.11042, 3,   1.524,  4.123,  2.139
700553.13028, 3,  -2.589, 10.571, -9.890, 4,   0.044,  0.123,  0.027
700553.15015, 3,  -2.053,  9.870, -6.154
700553.17002, 3,  -1.677,  6.769, -1.613
700553.18989, 3,  -3.094,  9.983, -4.051, 4,   0.070, -0.221,  0.020, 5,   2.519,-46.219, -1.979
700553.20975, 3,  -2.472, 10.337, -4.848
700553.22962, 3,  -1.888, 11.084, -2.438
700553.24949, 3,  -1.201, 11.620,  0.759, 4,   0.020, -0.362,  0.144
700553.26935, 3,  -2.048,  5.149, -1.627
700553.28925, 3,  -1.431, 13.986, -7.181
700553.30912, 3,  -0.074,  8.246, -3.577, 4,   0.190, -0.353,  0.265, 5,   0.992,-45.798, -2.631
700553.32898, 3,   0.684,  7.851, -2.938
700553.34885, 3,   0.826,  9.279, -4.554
700553.36872, 3,   0.065, 10.277, -5.523, 4,   0.093,  0.165,  0.282, 5,   1.225,-46.126, -1.904
700553.38859, 3,   1.218,  9.978, -2.843
700553.40845, 3,   2.094,  8.648, -1.440
700553.42832, 3,   0.498, 10.650, -4.166, 4,   0.035,  0.441,  0.139, 5,  -0.584,-46.082, -3.360
700553.44819, 3,   0.206, 11.203, -4.144
700553.46805, 3,  -1.730,  6.238, -2.843
700553.48792, 3,  -1.220, 10.052, -5.149, 4,   0.027,  0.294, -0.005, 5,  -0.029,-46.107, -2.080
700553.50779, 3,  -1.747, 14.077, -2.295
700553.52765, 3,  -1.661,  6.939,  0.043
700553.54752, 3,  -0.428,  8.906, -2.773, 4,  -0.069,  0.067,  0.010, 5,   0.302,-45.950, -2.350
700553.56742, 3,  -0.584, 10.323, -4.412
700553.58729, 3,  -2.032,  8.238, -3.556
700553.60715, 3,  -1.323,  6.571, -5.695, 4,   0.043,  0.070,  0.005
700553.62702, 3,  -0.546, 11.230, -5.027
700553.64689, 3,  -0.483, 11.215, -3.623
700553.66675, 3,  -1.440,  6.879, -1.125, 4,  -0.039,  0.275, -0.010, 5,  -0.526,-45.306, -1.909
700553.68659, 3,  -1.613,  3.345, -4.824
700553.70646, 3,   0.641, 24.785, -6.324
700553.72632, 3,  -1.146,  3.240,  3.745, 4,  -0.040,  0.244, -0.041, 5,   1.398,-45.535, -1.178
700553.74619, 3,  -0.692,  4.946, -1.424
700553.76606, 3,  -1.510, 14.584,-10.610
700553.78592, 3,  -1.665,  6.575, -4.872, 4,   0.084,  0.013, -0.085
700553.80579, 3,  -0.218,  6.772, -2.879
700553.82566, 3,  -0.756, 12.297, -3.769
700553.84556, 3,  -0.610, 10.993, -1.699, 4,  -0.079,  0.025, -0.051, 5,   0.488,-46.333, -2.303
700553.86542, 3,  -0.354,  2.309, -1.756
700553.88529, 3,  -0.364, 15.958, -8.463
700553.90516, 3,  -0.610, 11.591, -2.924, 4,  -0.017,  0.098, -0.073, 5,   1.393,-46.758, -2.425
700553.92502, 3,  -0.462,  6.286,  3.001
700553.94489, 3,   0.108,  6.126, -6.071
700553.96476, 3,  -0.995, 13.955, -7.528, 4,   0.002,  0.073, -0.116, 5,  -0.096,-46.284, -3.343
700553.98462, 3,  -1.187,  4.987, -1.015
700554.00449, 3,   0.469,  9.720, -2.678
700554.02436, 3,   0.502, 13.469, -3.261, 4,  -0.112, -0.037, -0.128, 5,   2.417,-44.810, -2.985
700554.04423, 3,  -0.909,  3.606, -2.723
700554.06409, 3,  -1.060, 12.390, -5.427
700554.08396, 3,  -1.000, 11.663, -2.546, 4,  -0.046, -0.121, -0.124, 5,   2.573,-45.476, -2.223
700554.10383, 3,  -0.627,  6.288,  0.522
700554.12369, 3,  -0.794,  9.902, -3.300
700554.14359, 3,  -0.230,  8.619, -5.369, 4,  -0.026, -0.235, -0.124
700554.16346, 3,  -1.302,  8.542, -4.948
700554.18332, 3,  -1.177,  8.940, -3.374
700554.20319, 3,  -0.579,  9.736, -1.074, 4,  -0.070, -0.276, -0.093, 5,   2.536,-46.886, -5.415
700554.22306, 3,  -0.950,  6.719, -3.750
700554.24293, 3,  -0.993, 16.513, -3.173
700554.26279, 3,  -0.199,  8.655, -0.505, 4,  -0.052, -0.324, -0.039, 5,   2.745,-45.979, -4.080
700554.28263, 3,  -0.416,  6.887, -0.866
700554.30250, 3,  -0.194,  8.724, -6.638
700554.32236, 3,  -0.409, 12.067, -5.515, 4,   0.081, -0.483, -0.010
700554.34223, 3,  -1.644,  4.585, -2.898
700554.36210, 3,  -0.529, 13.117, -3.639
700554.38196, 3,   0.407,  3.269, -3.266, 4,  -0.009, -0.442,  0.067, 5,   1.807,-44.633, -4.085
700554.40183, 3,  -0.584, 15.489, -5.008
700554.42173, 3,  -0.182, 10.653, -2.060
700554.44159, 3,  -1.244,  7.755, -0.694, 4,   0.006, -0.313,  0.115, 5,   1.230,-45.741, -3.569
700554.46146, 3,  -1.481, 10.299, -4.802
700554.48133, 3,   0.921, 11.340, -4.453
700554.50120, 3,  -0.574,  9.301, -1.572, 4,   0.071, -0.296,  0.135, 5,   0.687,-43.837, -3.537
700554.52106, 3,  -2.838, 10.327, -5.224
700554.54093, 3,  -1.103,  7.762, -2.850
700554.56080, 3,   0.455, 13.838, -0.931, 4,   0.013, -0.291,  0.171, 5,  -0.267,-46.280, -3.967
700554.58066, 3,   0.404,  6.647,  0.096
700554.60053, 3,   0.242,  7.767, -3.374
700554.62040, 3,   0.270, 11.067, -6.063, 4,   0.110, -0.226,  0.199, 5,  -0.760,-45.364, -2.661
700554.64026, 3,   0.852,  9.698, -4.264
700554.66013, 3,  -1.445,  4.640, -4.006
700554.68000, 3,  -1.218, 11.301, -7.848, 4,   0.130,  0.062,  0.182
700554.69986, 3,  -0.763, 12.845, -2.572
700554.71976, 3,  -0.278,  6.590,  1.091
700554.73963, 3,  -1.127,  9.002, -2.871, 4,  -0.002,  0.206,  0.165, 5,  -1.579,-46.585, -1.770
700554.75950, 3,  -1.082, 11.306, -5.738
700554.77936, 3,  -1.469,  7.121, -1.591
700554.79923, 3,  -0.864,  8.308, -3.328, 4,   0.089,  0.094,  0.111
700554.81910, 3,  -1.866, 11.230, -5.872
700554.83896, 3,  -2.170,  8.023, -4.319
700554.85880, 3,  -0.524, 12.845,  0.677, 4,  -0.006,  0.125,  0.134, 5,  -1.440,-45.924, -2.635
700554.87867, 3,   0.129,  8.913, -1.438
700554.89853, 3,  -1.677,  4.956, -2.582
700554.91840, 3,  -0.591, 16.522, -3.472, 4,   0.033,  0.124,  0.131, 5,  -2.667,-46.272, -2.707
700554.93827, 3,   0.708,  5.590, -1.237
700554.95814, 3,  -0.849,  7.399, -4.137
700554.97800, 3,  -1.598,  6.650, -7.547, 4,   0.038,  0.191,  0.111, 5,  -1.457,-47.028, -1.180
700554.99790, 3,  -1.498, 15.070, -3.958
700555.01777, 3,  -0.493, 10.471,  1.601
700555.03763, 3,   0.072,  6.150,  1.268, 4,  -0.113,  0.243,  0.098, 5,  -1.094,-45.778, -1.183
700555.05750, 3,  -0.414, 10.031, -4.709
700555.07737, 3,   0.017, 10.327, -5.063
700555.09723, 3,   0.079,  3.864, -1.204, 4,   0.044,  0.165,  0.014, 5,  -2.827,-47.061, -2.635
700555.11710, 3,   0.239, 10.057, -6.221
700555.13697, 3,  -1.132, 12.115, -3.096
700555.15684, 3,  -1.153,  9.925,  0.112, 4,  -0.057,  0.249, -0.023, 5,  -2.081,-44.644, -3.366
700555.17670, 3,  -0.234, 10.213, -0.120
700555.19657, 3,  -0.684,  8.124, -3.034
700555.21644, 3,  -1.211,  7.296, -6.461, 4,   0.060,  0.104, -0.081, 5,  -2.751,-46.342, -3.363
700555.23630, 3,  -0.768,  8.987, -7.164
700555.25617, 3,  -0.249, 10.823, -1.986
700555.27607, 3,  -2.020,  7.966, -0.232, 4,  -0.033,  0.147, -0.073, 5,  -1.631,-44.893, -1.678
700555.29593, 3,  -1.799, 11.263, -3.503
700555.31580, 3,  -0.921,  7.432, -3.544
700555.33567, 3,  -0.548, 10.354, -3.228, 4,   0.026, -0.013, -0.083
700555.35554, 3,  -0.883,  9.380, -4.939
700555.37540, 3,  -0.699, 11.232, -4.290
700555.39527, 3,   0.208,  4.735, -0.845, 4,  -0.003,  0.064, -0.043, 5,  -1.039,-45.467, -2.208
700555.41514, 3,  -1.125, 10.689, -3.020
700555.43500, 3,  -0.488, 15.563, -6.578
700555.45487, 3,  -1.292,  2.378,  0.589, 4,   0.002,  0.112, -0.055, 5,  -1.256,-44.885, -1.184
700555.47471, 3,  -1.199, 17.291, -4.073
700555.49457, 3,   0.912,  8.439, -2.134
700555.51444, 3,  -0.507,  9.320, -1.854, 4,   0.006, -0.006, -0.069
700555.53431, 3,  -1.122,  5.264, -5.850
700555.55417, 3,  -0.117, 15.173, -5.910
700555.57407, 3,  -0.845,  9.760, -1.364, 4,  -0.033, -0.064, -0.046, 5,  -0.734,-44.321, -1.630
700555.59394, 3,  -0.048,  4.618,  0.419
700555.61381, 3,  -0.354, 12.361, -5.451
700555.63367, 3,   0.132,  9.062, -1.833, 4,  -0.038, -0.127, -0.048, 5,  -1.233,-45.845, -1.683
700555.65354, 3,  -0.754,  7.219, -5.372
700555.67341, 3,  -0.041, 13.182, -3.288
700555.69327, 3,   0.366, 11.232, -1.472, 4,  -0.077, -0.146, -0.008, 5,  -1.367,-44.998, -2.695
700555.71314, 3,   0.861,  8.688,  1.541
700555.73301, 3,   0.060,  6.482, -2.335
700555.75287, 3,  -0.500, 11.127, -6.810, 4,   0.030, -0.101, -0.031, 5,  -0.742,-44.557, -2.182
700555.77274, 3,  -0.136, 12.294, -4.644
700555.79261, 3,  -0.208,  5.678, -1.555
700555.81247, 3,   0.151, 13.886, -3.087, 4,  -0.025, -0.100, -0.026, 5,   0.284,-44.847, -1.909
700555.83234, 3,   0.158,  7.234, -1.670
700555.85224, 3,  -0.471,  9.744, -3.080
700555.87211, 3,  -0.816,  8.073, -4.628, 4,   0.004, -0.070, -0.043
700555.89197, 3,  -1.503, 10.016, -3.948
700555.91184, 3,  -1.412,  4.714, -3.601
700555.93171, 3,  -0.823, 15.477, -3.393, 4,   0.002, -0.138, -0.001, 5,   0.110,-44.653, -1.501
700555.95157, 3,   0.352, 11.086, -1.189
700555.97144, 3,  -1.993,  3.836,  0.151
700555.99131, 3,  -0.390, 11.763, -3.300, 4,   0.022, -0.137,  0.054, 5,  -0.763,-45.573, -1.903
700556.01117, 3,  -0.979,  7.592, -5.843
700556.03104, 3,  -1.216, 10.296, -5.774
700556.05030, 3,  -0.711, 11.744, -3.333, 4,   0.064, -0.120,  0.119, 5,  -1.752,-45.245, -1.724
700556.07075, 3,  -0.146, 10.892,  0.648
700556.09061, 3,  -0.524,  7.557, -0.129
700556.11048, 3,  -1.330, 10.160, -5.781, 4,   0.014,  0.032,  0.150, 5,  -2.744,-44.580, -1.187
700556.13035, 3,  -0.842,  9.957, -4.805
700556.15024, 3,  -0.694,  9.428, -5.015
700556.17011, 3,   0.208,  7.523, -3.242, 4,   0.030,  0.044,  0.142, 5,  -3.178,-44.775, -3.784
700556.18998, 3,   0.658, 13.055, -1.318
700556.20984, 3,  -0.380,  8.389,  0.237
700556.22971, 3,  -0.936,  9.389, -2.673, 4,  -0.012,  0.174,  0.128, 5,  -4.123,-44.916, -2.643
700556.24958, 3,  -0.359,  6.741, -4.501
700556.26944, 3,  -0.335, 12.357, -5.779
700556.28931, 3,  -0.967,  6.870, -4.365, 4,   0.054,  0.082,  0.066, 5,  -2.989,-44.696, -3.134
700556.30918, 3,  -0.352, 14.694, -2.177
700556.32905, 3,   0.122,  6.597,  1.168
700556.34891, 3,  -0.469,  8.150, -2.816, 4,  -0.075,  0.212,  0.069, 5,  -3.288,-44.221, -1.866
700556.36878, 3,  -0.598, 12.412, -7.253
700556.38865, 3,  -0.890, 10.416, -2.996
700556.40851, 3,  -0.854,  4.515, -0.802, 4,   0.003,  0.155, -0.002
700556.42841, 3,   0.065, 16.053, -2.924
700556.44828, 3,  -0.840,  2.795, -0.392
700556.46814, 3,  -0.091, 16.085, -3.123, 4,  -0.019,  0.208,  0.006, 5,  -3.421,-44.936, -2.553
700556.48801, 3,  -0.723,  6.049, -4.046
700556.50788, 3,  -0.955, 11.813, -3.156
700556.52775, 3,  -1.134,  8.052, -4.235, 4,   0.033,  0.133, -0.054
700556.54761, 3,  -1.053, 13.929, -2.051
700556.56748, 3,  -0.440,  5.487,  1.000
700556.58735, 3,  -0.031,  9.303, -3.556, 4,  -0.026,  0.196, -0.023, 5,  -2.748,-44.806, -1.749
700556.60721, 3,   0.105,  8.966, -3.156
700556.62708, 3,  -2.347, 18.296, -6.176
700556.64695, 3,  -1.589,  4.786, -0.816, 4,  -0.002,  0.194, -0.093, 5,  -3.438,-44.467, -3.397
700556.66678, 3,  -1.500, 14.704, -2.120
700556.68665, 3,  -0.634, 10.088, -0.553
700556.70655, 3,   0.072,  9.246, -0.330, 4,  -0.039,  0.116, -0.097, 5,  -3.178,-43.614, -3.922
700556.72642, 3,   0.330,  8.183, -3.687
700556.74628, 3,   0.663, 13.598, -5.953
700556.76615, 3,  -0.732,  6.738, -4.972, 4,   0.106,  0.065, -0.156, 5,  -0.179,-43.700, -1.913
700556.78602, 3,  -0.017, 13.405, -4.274
700556.80588, 3,  -1.376,  1.072, -3.285
700556.82575, 3,  -0.191, 13.302, -6.906, 4,   0.005,  0.023, -0.193, 5,  -1.392,-43.852, -1.982
700556.84562, 3,  -1.101,  9.657, -2.603
700556.86548, 3,  -0.476,  6.987, -0.775
700556.88535, 3,   0.328, 12.400, -1.869, 4,  -0.149, -0.248, -0.194, 5,  -1.036,-44.479, -2.116
700556.90522, 3,   1.792, 13.591, -1.866
700556.92508, 3,  -0.770,  6.056, -5.346
700556.94495, 3,   1.603,  9.576, -1.079, 4,  -0.002, -0.351, -0.106
700556.96482, 3,  -0.804,  8.581, -4.209
700556.98469, 3,  -1.692,  9.232, -5.597
700557.00458, 3,  -1.321, 14.029, -2.532, 4,   0.013, -0.129, -0.048, 5,  -0.259,-45.207, -2.991
700557.02445, 3,  -0.687,  4.664, -0.134
700557.04432, 3,   0.029, 10.579, -4.101
700557.06418, 3,   1.196,  9.217, -2.132, 4,  -0.039, -0.081, -0.003
700557.08405, 3,  -0.065,  9.748, -2.855
700557.10392, 3,  -1.644, 11.722, -4.900
700557.12378, 3,  -1.515, 11.608, -1.886, 4,  -0.015, -0.092, -0.012, 5,  -0.723,-43.785, -2.292
700557.14365, 3,  -1.175,  6.865, -1.103
700557.16352, 3,  -1.524, 12.656, -3.216
700557.18339, 3,  -0.378, 10.665, -0.605, 4,  -0.028, -0.165,  0.045, 5,   0.572,-45.396, -3.360
700557.20325, 3,  -1.641,  1.079, -2.137
700557.22312, 3,  -0.763, 17.393, -7.040
700557.24299, 3,   0.170,  7.499, -2.347, 4,   0.060, -0.110,  0.092, 5,  -1.292,-44.212, -1.990
700557.26282, 3,  -0.584,  8.073, -2.450
700557.28272, 3,   0.524,  8.667, -4.790
700557.30259, 3,   0.290, 11.715, -3.001, 4,   0.020,  0.089,  0.109, 5,  -0.693,-42.477, -1.163
700557.32245, 3,  -2.508, 11.112, -5.520
700557.34232, 3,  -1.223, 13.244,  0.246
700557.36219, 3,   0.687,  7.140,  1.926, 4,  -0.052,  0.062,  0.074, 5,  -1.776,-43.471, -1.614
700557.38205, 3,  -1.067, 10.849, -1.426
700557.40192, 3,  -0.955,  3.960, -4.374
700557.42179, 3,  -0.175,  6.008, -3.886, 4,   0.092, -0.091,  0.024, 5,   0.534,-42.911, -1.610
700557.44166, 3,  -1.792,  9.868, -5.566
700557.46152, 3,   0.792, 14.986, -2.953
700557.48139, 3,  -0.703,  4.805,  1.256, 4,  -0.042,  0.028,  0.098, 5,  -1.241,-44.168, -2.814
700557.50126, 3,   0.007,  9.143, -3.797
700557.52112, 3,  -0.589, 14.835, -4.515
700557.54099, 3,  -0.495,  6.681,  0.732, 4,  -0.008,  0.228,  0.053, 5,  -0.969,-43.175, -2.477
700557.56086, 3,  -2.481, 19.882, -6.063
700557.58075, 3,   0.301,  3.159,  1.594
700557.60062, 3,  -2.204,  7.461, -4.393, 4,   0.018,  0.208, -0.018
700557.62049, 3,  -0.620, 16.546, -6.367
700557.64036, 3,  -1.137, -2.125,  0.230
700557.66022, 3,   0.215, 14.694, -4.798, 4,   0.028,  0.061, -0.073, 5,  -1.390,-43.707, -2.165
700557.68009, 3,  -0.747, 12.380, -3.068
700557.69996, 3,  -0.625,  7.205, -1.524
700557.71984, 3,  -1.529,  6.382, -3.606, 4,  -0.012, -0.061, -0.080, 5,  -1.468,-44.833, -2.026
700557.73971, 3,  -0.646,  9.184, -6.037
700557.75958, 3,  -1.134, 14.450, -5.092
700557.77944, 3,   1.342, 10.361,  0.340, 4,  -0.030, -0.106, -0.023, 5,  -0.931,-41.844, -2.190
700557.79931, 3,   0.261,  3.979,  1.400
700557.81915, 3,   0.928, 16.142, -4.929
700557.83905, 3,  -1.103, 11.366, -4.376, 4,  -0.003,  0.031, -0.037, 5,  -0.775,-43.379, -2.905
700557.85891, 3,  -0.254,  6.774, -0.206
700557.87878, 3,   0.385, 13.634,  1.802
700557.89865, 3,  -1.065, 10.892, -1.819, 4,  -0.065,  0.040, -0.073, 5,  -0.378,-41.696, -1.190
700557.91851, 3,  -1.766,  5.970, -1.859
700557.93838, 3,  -0.979,  9.303, -4.637
700557.95825, 3,  -1.405,  6.561, -7.808, 4,   0.036, -0.160, -0.114, 5,  -0.723,-43.411, -1.195
700557.97811, 3,   0.330, 13.256, -0.538
700557.99798, 3,   0.199,  5.846, -0.744
700558.01785, 3,   0.242, 11.493, -3.843, 4,  -0.034, -0.170, -0.019, 5,   0.153,-41.635, -3.000
700558.03772, 3,  -1.208, 10.514, -4.087
700558.05758, 3,   0.077,  7.406, -3.379
700558.07745, 3,   0.971, 14.180, -0.680, 4,  -0.002, -0.100,  0.001, 5,  -0.043,-41.972, -2.991
700558.09732, 3,   0.797,  8.205, -0.191
700558.11718, 3,  -0.591,  9.342, -5.271
700558.13708, 3,   0.208, 11.615, -4.223, 4,   0.087, -0.173,  0.009
700558.15695, 3,  -0.701, 11.787, -2.544
700558.17681, 3,  -1.103, 13.330, -4.558
700558.19668, 3,   0.036, 10.923, -2.144, 4,   0.038, -0.077,  0.076, 5,  -0.580,-42.168, -2.567
700558.21655, 3,  -0.234,  3.163,  0.206
700558.23642, 3,  -0.976,  3.345, -3.651
700558.25628, 3,  -1.845,  8.195, -8.284, 4,   0.068,  0.129,  0.032
700558.27615, 3,  -3.620, 10.373,-11.045
700558.29602, 3,  -1.058, 18.195,  0.814
700558.31588, 3,  -0.196, -1.134,  5.377, 4,  -0.266,  0.161,  0.071, 5,  -1.149,-42.513, -2.150
700558.33575, 3,   0.127,  3.769, -1.759
700558.35562, 3,  -0.306, 19.750, -1.644
700558.37548, 3,  -2.539, -4.740,  2.204, 4,  -0.110,  0.033, -0.009, 5,  -0.838,-43.571, -2.640
700558.39535, 3,  -0.467, 13.711, -0.840
700558.41522, 3,  -0.424, 10.452, -4.075
700558.43512, 3,  -1.701, 10.045, -7.724, 4,   0.046, -0.156,  0.025, 5,   0.259,-41.992, -2.748
700558.45495, 3,   0.096,  8.983, -2.259
700558.47482, 3,   1.084,  6.008, -0.967
700558.49469, 3,   1.797, 17.231, -1.986, 4,  -0.086, -0.134,  0.091, 5,  -0.861,-42.645, -3.369
700558.51455, 3,   2.039, 11.598,  0.110
700558.53442, 3,   0.581, -0.153,  0.883
700558.55429, 3,  -0.268, 14.058, -5.219, 4,   0.042,  0.077,  0.029, 5,  -0.711,-43.166, -3.368
700558.57415, 3,  -1.409,  3.537, -3.903
700558.59402, 3,  -0.835, 14.905, -5.922
700558.61389, 3,  -0.287,  8.612, -3.422, 4,   0.092, -0.039,  0.017, 5,  -0.533,-44.371, -2.890
700558.63375, 3,   0.242, 15.077, -2.170
700558.65362, 3,  -0.309,  1.079,  1.316
700558.67349, 3,   0.392, 16.384, -2.213, 4,  -0.002,  0.067,  0.057
700558.69335, 3,  -0.926,  9.959, -3.156
700558.71325, 3,   1.426,  9.787, -0.670
700558.73312, 3,   0.043,  8.514, -0.371, 4,   0.151,  0.100,  0.039, 5,  -2.057,-43.742, -2.051
700558.75299, 3,   1.146, -0.893, -4.635
700558.77285, 3,  -2.046, 18.480,-12.799
700558.79272, 3,  -1.828,  7.341, -5.078, 4,   0.095,  0.257, -0.023
700558.81259, 3,  -1.670, 14.560,  1.326
700558.83245, 3,  -0.586,  6.611,  3.185
700558.85171, 3,   1.596, 20.277,  0.239, 4,  -0.247, -0.118, -0.050, 5,  -0.777,-43.381, -1.585
700558.87219, 3,   0.163, 10.454,  2.015
700558.89205, 3,  -0.433,  5.398, -0.457
700558.91192, 3,  -1.663, 11.663, -5.870, 4,   0.121, -0.244, -0.043, 5,   0.221,-43.219, -3.685
700558.93179, 3,  -0.684,  6.499, -5.487
700558.95166, 3,  -2.170,  5.393, -5.855
700558.97152, 3,  -0.098, 12.022, -4.118, 4,   0.097,  0.143, -0.006, 5,   0.636,-42.690, -2.652
700558.99139, 3,  -3.594, 11.285, -6.233
700559.01129, 3,  -0.459, 13.366, -1.225
700559.03115, 3,  -0.514,  5.293,  3.680, 4,  -0.169,  0.107, -0.029, 5,   0.127,-43.056, -4.446
700559.05102, 3,  -0.081,  7.650, -0.170
700559.07086, 3,  -0.560, 10.777, -1.019
700559.09072, 3,  -2.809,  5.298, -2.036, 4,   0.014, -0.077, -0.077, 5,  -0.702,-43.806, -6.271
700559.11059, 3,  -0.330, 16.762, -3.072
700559.13046, 3,  -0.323,  6.497, -0.957
700559.15033, 3,  -0.768,  5.647, -3.137, 4,   0.038, -0.136, -0.012, 5,  -1.286,-43.300, -4.820
700559.17019, 3,   0.462,  9.801, -4.458
700559.19006, 3,  -0.280,  3.551, -1.378
700559.20993, 3,  -2.469, 13.998, -5.166, 4,   0.029, -0.134,  0.011, 5,  -4.700,-45.522, -4.819
700559.22979, 3,   0.057,  9.239, -2.835
700559.24966, 3,  -0.498, -1.831, -0.651
700559.26953, 3,   0.019, 13.440, -5.867, 4,  -0.028, -0.065,  0.067, 5,  -5.682,-44.502, -4.330
700559.28942, 3,  -1.347,  9.258, -2.742
700559.30929, 3,  -0.409, 14.319, -1.218
700559.32916, 3,   1.476, 11.983,  1.555, 4,  -0.130,  0.050,  0.104
700559.34902, 3,  -1.383,  2.029, -0.799
700559.36889, 3,  -0.081,  9.942, -3.393
700559.38876, 3,   1.043,  5.346, -0.160, 4,   0.060, -0.083,  0.056, 5,  -6.070,-43.990, -3.375
700559.40863, 3,   0.431, 10.146, -3.228
700559.42849, 3,   0.656, 18.343, -8.219
700559.44836, 3,  -0.912,  3.068, -2.034, 4,   0.090,  0.043,  0.118, 5,  -6.253,-43.578, -2.133
700559.46823, 3,   1.170,  8.897, -3.613
700559.48809, 3,   0.696, 14.855, -2.867
700559.50796, 3,  -0.100, 10.399,  0.510, 4,  -0.032,  0.237,  0.069, 5,  -7.983,-43.617, -3.378
700559.52783, 3,   2.235,  8.997, -1.981
700559.54769, 3,   1.067,  7.188, -2.419
700559.56759, 3,   0.467, 10.287, -6.138, 4,   0.138,  0.150, -0.010, 5,  -6.996,-44.316,  0.421
700559.58746, 3,  -1.180,  0.909, -4.085
700559.60733, 3,   0.699, 17.788, -5.264
700559.62719, 3,  -1.120,  7.011, -4.082, 4,   0.038,  0.164, -0.045, 5,  -6.703,-43.813, -0.220
700559.64703, 3,  -0.232,  8.471,  0.993
700559.66693, 3,   0.806,  8.669, -1.388
700559.68676, 3,  -0.909, 13.383, -2.725, 4,  -0.048, -0.100, -0.053, 5,  -5.263,-42.908,  1.039
700559.70663, 3,  -1.196, 13.426, -2.017
700559.72650, 3,   2.067,  4.314,  1.070
700559.74636, 3,  -0.823,  9.334, -1.034, 4,   0.028, -0.048,  0.004, 5,  -2.953,-42.928,  0.534
700559.76623, 3,  -0.014,  5.448, -3.230
700559.78610, 3,  -1.043, 11.450, -5.025
700559.80596, 3,  -0.957, 14.558, -2.962, 4,   0.053,  0.099, -0.012, 5,  -2.698,-42.722,  0.919
700559.82583, 3,  -0.498,  9.856,  0.538
700559.84570, 3,  -1.369,  7.887, -1.804
700559.86560, 3,  -0.249,  9.729, -2.388, 4,  -0.037,  0.082, -0.034
700559.88546, 3,  -0.280, 13.338, -1.330
700559.90533, 3,  -1.156,  6.851, -1.831
700559.92520, 3,  -0.167, 13.481, -1.505, 4,   0.021, -0.100, -0.052, 5,  -2.527,-43.294, -0.465
700559.94506, 3,  -1.254,  7.987, -2.338
700559.96493, 3,  -0.443,  1.912, -2.989
700559.98480, 3,   0.089, 23.392, -6.473, 4,   0.073, -0.043, -0.032, 5,  -0.732,-43.475, -0.468
700560.00466, 3,  -1.239,  4.482, -3.817
700560.02453, 3,  -0.218, 10.928,  0.893
700560.04440, 3,  -0.129, 12.787, -1.172, 4,  -0.077,  0.072,  0.006, 5,  -2.560,-44.034, -0.647
700560.06427, 3,  -0.005, 10.241, -4.113
700560.08413, 3,  -0.701,  7.992, -4.142
700560.10400, 3,   2.216,  5.764,  4.056, 4,   0.042,  0.037, -0.065, 5,  -1.714,-42.760, -0.465
700560.12387, 3,  -1.381, 24.227, -9.179
700560.14376, 3,  -3.362,  8.590, -1.785
700560.16363, 3,  -2.747,  3.704, -3.515, 4,   0.013,  0.020, -0.047, 5,  -0.447,-42.319, -0.464
700560.18350, 3,  -0.945, 11.840, -3.419
700560.20336, 3,  -1.577,  8.078, -0.751
700560.22323, 3,  -0.151, 15.027, -0.361, 4,  -0.044, -0.133, -0.024, 5,  -2.051,-43.477, -1.833
700560.24310, 3,   0.139,  7.174,  2.197
700560.26297, 3,  -0.581,  5.422,  0.703
700560.28283, 3,  -1.744,  2.410, -2.998, 4,   0.077, -0.176,  0.043, 5,  -1.846,-43.958, -0.931
700560.30267, 3,   0.380, 10.617, -7.234
700560.32254, 3,   0.474,  6.250, -3.766
700560.34240, 3,   1.189, 12.952, -4.427, 4,   0.079,  0.047,  0.102, 5,  -2.187,-42.522, -1.019
700560.36227, 3,   0.909, 10.847, -2.264
700560.38214, 3,  -1.146,  9.588, -2.386
700560.40200, 3,  -0.153,  7.174, -0.213, 4,  -0.103,  0.316,  0.008
700560.42187, 3,   0.751,  9.837,  2.295
700560.44177, 3,   0.732, 15.017, -2.838
700560.46163, 3,   0.045,  5.532, -2.051, 4,   0.047,  0.052, -0.100, 5,  -0.182,-42.181, -1.454
700560.48150, 3,  -2.843,  6.784, -6.164
700560.50137, 3,  -2.051, 12.270, -7.947
700560.52124, 3,  -2.053, 10.550, -1.491, 4,   0.013, -0.051, -0.068
700560.54110, 3,   0.849, 10.213, -0.572
700560.56097, 3,   0.024,  8.846,  0.881
700560.58084, 3,   0.256,  7.353, -0.017, 4,  -0.142, -0.020, -0.009, 5,  -0.180,-42.558, -2.242
700560.60070, 3,  -0.739, 13.259, -4.331
700560.62057, 3,  -0.701, 11.337, -3.611
700560.64044, 3,   1.445, 11.706, -2.632, 4,   0.072, -0.051, -0.013, 5,   0.188,-43.178, -1.437
700560.66030, 3,  -0.287, 20.279, -1.543
700560.68017, 3,  -1.522, -3.257,  1.230
700560.70004, 3,  -2.051,  3.103, -5.716, 4,   0.069,  0.080, -0.036, 5,   0.650,-42.159, -1.855
700560.71994, 3,   0.864, 22.095, -8.428
700560.73980, 3,   0.794, 10.749, -0.948
700560.75967, 3,  -0.608,  1.170,  0.163, 4,  -0.052,  0.022, -0.052, 5,   0.034,-45.302, -1.180
700560.77954, 3,   1.189, 11.435, -3.405
700560.79940, 3,  -5.515, 14.431,-11.919
700560.81927, 3,   0.900, 10.459,  2.225, 4,  -0.063, -0.060, -0.115, 5,   0.984,-43.404, -1.976
700560.83911, 3,   0.395,  3.118,  4.577
700560.85900, 3,  -0.823,  9.155, -2.369
700560.87884, 3,  -1.541, 15.556, -6.664, 4,  -0.011, -0.274, -0.082, 5,   0.444,-42.905, -1.913
700560.89871, 3,  -1.050,  8.995, -2.094
700560.91857, 3,  -2.438,  4.822, -3.446
700560.93844, 3,   0.373, 15.781, -1.869, 4,  -0.021, -0.233,  0.019
700560.95831, 3,  -1.775,  6.774, -1.005
700560.97818, 3,  -0.656,  8.413, -0.737
700560.99807, 3,   0.809, 10.172, -0.127, 4,  -0.059, -0.022,  0.074, 5,   0.600,-44.308, -1.726
700561.01794, 3,  -1.500,  3.785, -3.489
700561.03781, 3,   3.266, 31.669, -3.836
700561.05767, 3,  -2.060, -7.076,  1.862, 4,   0.042,  0.096, -0.003
700561.07754, 3,  -1.615,  5.468, -6.068
700561.09741, 3,  -1.826, 19.193, -6.834
700561.11727, 3,  -2.175,  1.302,  0.486, 4,   0.016, -0.013, -0.016, 5,  -0.360,-43.037, -2.611
700561.13714, 3,  -1.146, 13.663, -3.723
700561.15701, 3,   0.641, 10.497,  0.249
700561.17688, 3,  -3.479, 14.142, -4.295, 4,  -0.071, -0.099,  0.049, 5,  -0.552,-42.471, -2.643
700561.19674, 3,   0.100,  8.047,  0.653
700561.21661, 3,  -0.706,  3.800,  0.251
700561.23648, 3,  -1.177, 16.577, -6.181, 4,   0.037, -0.084,  0.077, 5,  -0.687,-43.475, -4.701
700561.25634, 3,   0.646, 11.299, -2.326
700561.27621, 3,   0.060,  3.644, -2.194
700561.29611, 3,   2.694,  9.992, -5.046, 4,   0.042,  0.011,  0.096, 5,  -0.269,-43.660, -2.899
700561.31597, 3,   1.752,  9.744, -1.708
700561.33584, 3,   0.290, 11.447, -2.575
700561.35571, 3,   1.390, 13.311, -3.733, 4,  -0.004,  0.151,  0.029, 5,   1.413,-44.821, -1.180
700561.37558, 3,   0.043,  5.018, -0.665
700561.39544, 3,  -0.251,  1.826, -4.750
700561.41531, 3,   1.070, 18.042, -5.159, 4,   0.060,  0.081, -0.060
700561.43518, 3,  -0.933,  1.402, -2.280
700561.45501, 3,   0.462, 17.953, -5.183
700561.47491, 3,  -0.218,  8.145,  0.660, 4,  -0.065, -0.031, -0.057, 5,  -0.146,-43.640, -1.913
700561.49478, 3,   0.275,  7.959, -2.163
700561.51464, 3,  -1.244, 14.565, -4.439
700561.53448, 3,  -0.766,  2.857,  1.646, 4,  -0.003, -0.213, -0.013, 5,  -1.689,-43.903, -2.357
700561.55435, 3,  -0.739, 15.850, -1.031
700561.57424, 3,   0.680,  6.642, -0.321
700561.59411, 3,   0.581,  9.488, -4.798, 4,   0.023, -0.157,  0.107
700561.61398, 3,   1.048, 10.643, -5.527
700561.63385, 3,  -0.720,  2.977, -3.699
700561.65310, 3,   0.601, 18.370, -3.369, 4,  -0.005,  0.180,  0.087, 5,  -0.488,-43.689, -2.127
700561.67358, 3,  -0.349, 13.050,  0.412
700561.69345, 3,  -0.345,  1.900,  2.941
700561.71331, 3,  -1.285, 11.833, -3.245, 4,  -0.063,  0.146, -0.048, 5,  -0.607,-43.443, -1.244
700561.73318, 3,  -2.180,  5.626, -4.003
700561.75305, 3,   0.254, 16.781, -0.715
700561.77291, 3,  -1.790,  3.132,  2.582, 4,   0.000, -0.242, -0.034, 5,   0.633,-42.836, -1.321
700561.79278, 3,  -2.749, 10.368, -6.169
700561.81265, 3,  -3.060,  9.476, -7.564
700561.83251, 3,  -2.307,  4.508, -2.139, 4,   0.047, -0.171,  0.044, 5,  -1.089,-43.845, -1.187
700561.85238, 3,   0.436, 15.288,  1.469
700561.87228, 3,  -0.481,  8.463,  1.948
700561.89215, 3,  -2.072, 11.060, -4.087, 4,  -0.140,  0.016,  0.148, 5,  -0.420,-43.324, -2.032
700561.91201, 3,  -3.048,  4.874, -5.279
700561.93188, 3,   0.502,  4.219, -1.381
700561.95175, 3,   1.163, 12.242, -3.625, 4,   0.093,  0.058,  0.091
700561.97161, 3,   0.888, 11.311, -0.976
700561.99148, 3,  -1.115,  7.341, -4.685
700562.01135, 3,  -0.837,  9.052, -3.915, 4,   0.060,  0.179,  0.052, 5,  -2.028,-42.050, -2.298
700562.03121, 3,  -1.172,  5.049, -2.819
700562.05108, 3,  -0.072, 17.578, -4.357
700562.07095, 3,   0.794,  7.645,  0.952, 4,  -0.050,  0.029,  0.025, 5,   0.250,-43.108, -2.290
700562.09082, 3,   0.127,  2.623, -0.254
700562.11068, 3,  -0.569, 12.316, -6.054
700562.13055, 3,  -1.048,  9.923, -5.178, 4,   0.068,  0.012,  0.003
700562.15042, 3,  -0.682, 10.868, -2.450
700562.17028, 3,   1.845, 15.340,  0.258
700562.19015, 3,  -0.268,  1.680,  1.816, 4,  -0.114,  0.046,  0.040, 5,  -0.125,-42.001, -2.722
700562.21002, 3,   1.326, 18.642, -4.630
700562.22988, 3,  -0.043,  7.681, -1.036
700562.24975, 3,   0.105, 10.732, -3.273, 4,   0.059,  0.000, -0.019
700562.26962, 3,   1.359, 13.048, -5.111
700562.28949, 3,  -0.414,  1.448, -2.288
700562.30935, 3,  -3.025, -6.176, -9.143, 4,   0.032,  0.022, -0.022, 5,  -0.017,-42.001, -2.148
700562.32922, 3,  -0.060, 22.476,-10.440
700562.34909, 3,   0.433, 39.037, -3.994
700562.36895, 3,   2.520, -3.805, 17.872, 4,  -0.430,  0.071,  0.062, 5,  -1.778,-43.294, -4.520
700562.38882, 3,   3.809,  3.276, -0.481
700562.40869, 3,   2.223, 12.921,  0.794
700562.42858, 3,  -0.124, 18.506, -3.613, 4,   0.145, -0.015, -0.067, 5,  -2.058,-43.571, -4.611
700562.44845, 3,  -1.371,  1.060,  5.561
700562.46832, 3,  -3.381, 11.045,-13.768
700562.48819, 3,  -6.621, 20.763,-15.216, 4,   0.440, -0.067, -0.096, 5,  -1.472,-42.953, -3.987
700562.50805, 3,  -0.081, -6.645, -2.299
700562.52792, 3,  -0.794, 15.934, -0.739
700562.54779, 3,  -0.471, 11.091,  2.625, 4,  -0.208,  0.063,  0.029, 5,  -0.742,-44.591, -2.196
700562.56765, 3,  -0.529, 13.436,  1.467
700562.58752, 3,  -0.928,  6.173,  1.472
700562.60739, 3,   1.936,  9.069,  1.967, 4,   0.010,  0.066,  0.018, 5,  -0.763,-45.360, -5.034
700562.62725, 3,   0.524, 16.790, -2.692
700562.64712, 3,  -1.749,  8.320, -3.683
700562.66699, 3,  -1.866, 10.962, -1.981, 4,   0.158,  0.132, -0.026
700562.68685, 3,  -0.969,  3.034, -3.345
700562.70672, 3,   0.479,  8.057, -2.845
700562.72662, 3,  -0.684,  4.044, -5.530, 4,   0.005, -0.062, -0.018, 5,  -1.082,-46.475, -4.674
700562.74649, 3,  -2.780, 13.431, -8.502
700562.76635, 3,  -1.991, 11.627, -1.122
700562.78619, 3,  -0.292,  7.638,  1.632, 4,  -0.217,  0.078,  0.039
700562.80606, 3,  -0.352, 12.627,  0.491
700562.82592, 3,  -0.988,  5.413,  2.958
700562.84579, 3,  -2.838,  5.968, -2.548, 4,  -0.075,  0.118, -0.023, 5,  -0.446,-44.798, -2.637
700562.86566, 3,   0.019, 12.431, -0.653
700562.88552, 3,  -1.333,  7.291, -2.989
700562.90539, 3,  -1.161,  5.305, -4.417, 4,   0.091, -0.110,  0.005, 5,   0.186,-45.958, -3.560
700562.92526, 3,  -0.163, 13.486, -4.369
700562.94512, 3,  -1.120,  5.645, -1.780
700562.96499, 3,  -0.019, 15.714, -1.046, 4,  -0.050,  0.021,  0.025, 5,  -0.165,-48.430, -3.362
700562.98486, 3,   0.084,  5.812,  1.330
700563.00476, 3,  -0.239,  7.068, -3.371
700563.02462, 3,  -0.613, 10.985, -4.513, 4,   0.046,  0.013,  0.001, 5,  -0.656,-48.080, -3.539
700563.04449, 3,  -1.232,  7.798, -2.788
700563.06436, 3,  -1.570, 17.039, -4.877
700563.08422, 3,  -1.067,  1.591,  0.524, 4,  -0.005,  0.046,  0.006, 5,   0.182,-47.359, -2.629
700563.10409, 3,  -0.897,  5.532, -3.371
700563.12396, 3,  -0.629,  9.887, -5.116
700563.14382, 3,  -0.912,  7.521, -2.125, 4,  -0.017,  0.076,  0.014
700563.16369, 3,  -0.940, 15.077, -3.632
700563.18356, 3,   0.354, 12.447, -1.484
700563.20343, 3,   1.139,  5.726, -0.735, 4,  -0.088,  0.113,  0.015, 5,   0.533,-47.169, -2.629
700563.22329, 3,  -1.314,  6.444, -3.283
700563.24316, 3,   1.101, 10.327, -0.888
700563.26303, 3,   0.373,  9.059, -1.620, 4,   0.021,  0.055, -0.064, 5,   1.189,-48.875, -1.401
700563.28289, 3,   0.500, 12.596, -5.968
700563.30279, 3,  -0.739,  5.195, -5.353
700563.32266, 3,  -0.644,  8.837, -5.451, 4,   0.064, -0.002, -0.076
700563.34252, 3,  -0.364, 10.820, -2.316
700563.36239, 3,   0.548, 13.823, -0.983
700563.38226, 3,   0.395, 14.134, -1.699, 4,  -0.145, -0.027, -0.066, 5,   1.462,-47.797, -1.300
700563.40209, 3,   0.960,  7.403,  1.342
700563.42196, 3,   0.043,  8.303, -0.730
700563.44183, 3,  -1.110, 13.314, -5.087, 4,   0.048, -0.119, -0.097, 5,   1.187,-47.781, -1.476
700563.46170, 3,  -0.325, 10.387, -4.494
700563.48156, 3,  -0.318, 10.038, -5.121
700563.50143, 3,  -0.234,  8.832, -3.592, 4,   0.051, -0.053, -0.011, 5,   1.176,-48.395,  0.369
700563.52130, 3,  -0.565,  7.111, -3.357
700563.54116, 3,  -1.175, 10.737, -4.685
700563.56103, 3,   0.244, 16.350, -1.302, 4,  -0.074,  0.096,  0.016, 5,   2.936,-47.636, -0.888
700563.58093, 3,  -0.641, 13.426,  0.476
700563.60079, 3,  -0.227,  4.910,  0.725
700563.62066, 3,  -0.869,  7.719, -2.969, 4,  -0.018,  0.062, -0.003, 5,  -0.339,-47.252, -0.671
700563.64053, 3,   0.022, 12.522, -5.104
700563.66040, 3,  -0.053, 10.148, -2.759
700563.68026, 3,   1.967,  6.975, -2.735, 4,   0.072, -0.015, -0.031
700563.70013, 3,  -0.258, 11.998, -5.245
700563.72000, 3,  -0.232,  8.566, -2.568
700563.73986, 3,   0.703,  8.782, -0.995, 4,  -0.016, -0.031, -0.032, 5,   0.526,-47.697,  0.464
700563.75973, 3,   0.861, 14.276, -4.053
700563.77960, 3,   1.687, 13.759, -1.177
700563.79946, 3,   0.254,  3.388,  1.589, 4,  -0.042, -0.037, -0.027, 5,   0.249,-46.336, -0.392
700563.81933, 3,   0.782,  4.788, -1.127
700563.83920, 3,  -0.883,  7.073, -6.205
700563.85910, 3,  -0.572, 21.588, -8.102, 4,   0.144, -0.065, -0.069
700563.87896, 3,   0.017,  3.721,  0.467
700563.89883, 3,   0.598,  4.948, -1.369
700563.91870, 3,  -1.297, 15.862, -6.255, 4,  -0.068, -0.020, -0.032, 5,   2.394,-45.314, -0.452
700563.93856, 3,  -1.823, 10.392, -1.948
700563.95843, 3,   0.263,  8.722,  0.904
700563.97827, 3,  -0.230,  9.509, -2.132, 4,  -0.109, -0.130, -0.004, 5,   1.912,-44.839, -1.894
700563.99816, 3,   0.400, 14.752, -0.407
700564.01803, 3,  -0.211,  1.019, -2.678
700564.03787, 3,   0.687, 14.570, -5.436, 4,   0.092, -0.142,  0.040, 5,   1.195,-47.501, -0.630
700564.05773, 3,  -1.098,  9.815, -5.743
700564.07760, 3,   1.000, 15.405, -1.661
700564.09747, 3,   0.330,  3.745,  2.699, 4,  -0.073,  0.060,  0.078, 5,  -0.075,-45.888,  0.244
700564.11734, 3,   0.258,  9.586, -2.359
700564.13720, 3,  -0.620, 15.802, -2.596
700564.15710, 3,  -0.778,  5.513, -1.787, 4,   0.040,  0.019, -0.027, 5,   1.392,-45.129,  0.690
700564.17697, 3,  -0.258, 14.862, -4.637
700564.19683, 3,  -0.335,  4.489, -0.249
700564.21670, 3,  -0.156,  9.078, -3.685, 4,   0.008, -0.119,  0.005, 5,   0.043,-44.260,  0.230
700564.23657, 3,  -0.471, 21.464, -4.161
700564.25643, 3,  -2.237,  6.162, -0.275
700564.27630, 3,   0.364, 11.325, -0.211, 4,  -0.027, -0.062,  0.024, 5,   1.015,-44.832, -0.455
700564.29617, 3,  -1.156,-11.555, -0.407
700564.31604, 3,   0.170, 10.942,-13.417
700564.33590, 3,   0.577, 35.242,-10.028, 4,   0.062,  0.071,  0.069
700564.35577, 3,  -4.369, -3.721,  6.994
700564.37564, 3,  -0.823, 11.766,  2.785
700564.39550, 3,  -2.015, 13.591, -2.223, 4,  -0.263,  0.158,  0.038, 5,  -0.755,-45.293, -0.755
700564.41537, 3,   0.368,  8.294,  1.981
700564.43527, 3,   3.508,  7.513,  9.598
700564.45452, 3,  -3.785,  8.564, -6.059, 4,   0.042, -0.114, -0.030, 5,   0.525,-44.133,  0.093
700564.47500, 3,  -1.041, 25.362,-13.555
700564.49487, 3,  -2.005, -3.606, -1.656
700564.51474, 3,   0.366,  5.898, -2.400, 4,   0.135,  0.036, -0.014
700564.53460, 3,  -1.680, 21.313, -4.049
700564.55447, 3,  -4.522,  7.480,  0.280
700564.57434, 3,  -1.218,  9.174,  1.058, 4,  -0.116, -0.033, -0.049, 5,   2.400,-46.620,  0.842
700564.59420, 3,   0.452, 11.526,  1.086
700564.61407, 3,   0.010,  9.062,  0.467
700564.63394, 3,  -0.122,  6.843, -1.565, 4,   0.087, -0.200, -0.026, 5,   0.166,-44.168, -1.183
700564.65380, 3,  -2.747,  9.002, -6.233
700564.67364, 3,  -2.285, 14.730, -5.913
700564.69351, 3,  -0.538,  5.061, -1.079, 4,   0.144, -0.035,  0.038, 5,   0.499,-44.075, -0.340
700564.71337, 3,   0.419,  8.155, -2.187
700564.73327, 3,   0.074, 16.843, -2.764
700564.75314, 3,  -3.501, -3.604, -2.101, 4,  -0.034,  0.024,  0.052, 5,   0.343,-44.582, -1.364
700564.77301, 3,   2.479, 17.783, -0.933
700564.79287, 3,   0.175,  3.714, -0.787
700564.81274, 3,  -0.629,  5.961, -5.468, 4,   0.018,  0.064,  0.055, 5,  -0.636,-42.668, -0.395
700564.83261, 3,  -0.804, 13.555, -6.406
700564.85247, 3,  -2.041,  6.092, -2.568
700564.87234, 3,  -1.534, 15.412, -1.637, 4,  -0.073,  0.178,  0.020
700564.89221, 3,   0.833,  0.249,  7.116
700564.91207, 3,  -1.759, 11.990, -1.771
700564.93194, 3,  -0.280, 14.300, -1.108, 4,  -0.107, -0.025, -0.020, 5,  -0.415,-43.243, -0.343
700564.95181, 3,  -1.342,  0.799,  0.770
700564.97167, 3,  -1.065, 13.917, -6.518
700564.99154, 3,  -1.070, 13.536, -1.960, 4,  -0.048, -0.192, -0.025, 5,  -1.041,-43.639, -0.999
700565.01144, 3,  -0.873,  6.420,  1.919
700565.03131, 3,   0.249,  3.364, -1.172
700565.05117, 3,  -0.526,  9.387, -3.513, 4,  -0.033, -0.097,  0.010
700565.07104, 3,  -1.500, 19.961, -4.056
700565.09091, 3,  -0.261,  8.093,  1.735
700565.11077, 3,   0.488,  0.077,  0.371, 4,   0.013, -0.000,  0.017, 5,  -0.340,-42.322, -1.189
700565.13064, 3,  -1.333, 16.384, -6.386
700565.15051, 3,  -1.785,  8.413, -2.211
700565.17037, 3,  -1.187, -1.132,  2.005, 4,   0.095,  0.043, -0.021, 5,  -0.180,-43.028, -0.774
700565.19024, 3,  -1.005, 14.163, -6.030
700565.21011, 3,  -2.907,  2.783, -5.946
700565.22998, 3,  -1.579, 15.558, -7.310, 4,   0.119, -0.012,  0.018, 5,   1.842,-42.072, -1.913
700565.24984, 3,  -1.464,  7.487,  1.220
700565.26971, 3,  -0.483, 12.254,  1.110
700565.28961, 3,   0.443, 13.646, -1.359, 4,  -0.101,  0.050,  0.100, 5,  -1.169,-43.454, -2.641
700565.30944, 3,  -0.230, -3.661,  0.558
700565.32931, 3,   1.352, 12.943, -2.615
700565.34918, 3,  -0.524,  6.042, -2.015, 4,   0.108,  0.178,  0.014, 5,  -0.038,-43.011, -1.613
700565.36904, 3,  -0.201, 13.833, -4.728
700565.38891, 3,  -1.663, 14.649, -5.841
700565.40878, 3,  -0.318,  4.467,  1.031, 4,   0.011,  0.053, -0.049
700565.42865, 3,   0.278,  3.422,  0.301
700565.44851, 3,  -0.735, 10.356, -2.958
700565.46838, 3,   0.328, 14.374, -0.431, 4,  -0.040, -0.159, -0.088, 5,  -0.906,-44.791, -2.084
700565.48825, 3,  -0.864,  7.439,  0.282
700565.50811, 3,   0.290,  8.540, -1.574
700565.52798, 3,  -0.991, 10.373, -5.369, 4,   0.034, -0.189, -0.055
700565.54785, 3,  -2.718,  5.728, -2.211
700565.56771, 3,  -0.290,  9.657,  0.385
700565.58761, 3,  -2.230,  8.502,  1.641, 4,  -0.120, -0.184,  0.034, 5,  -1.657,-44.017, -2.477
700565.60748, 3,  -1.342,  4.211, -2.395
700565.62735, 3,  -1.141, 11.682, -4.656
700565.64721, 3,  -1.125,  9.997, -3.558, 4,   0.021, -0.004,  0.096, 5,  -0.356,-45.575, -2.383
700565.66708, 3,  -1.835, 12.852, -3.381
700565.68695, 3,   0.148,  9.602,  0.780
700565.70681, 3,  -1.718,  5.862,  0.541, 4,  -0.093,  0.089,  0.151, 5,  -2.122,-44.189, -2.698
700565.72668, 3,  -0.766, 14.340, -3.470
700565.74655, 3,   0.132,  8.786, -0.943
700565.76641, 3,   0.151, 15.436, -3.553, 4,   0.073,  0.079,  0.142, 5,  -1.149,-45.906, -2.180
700565.78628, 3,   0.507,  8.435, -2.065
700565.80615, 3,   1.488,  7.533, -1.172
700565.82601, 3,   0.840, 10.914, -3.350, 4,   0.064,  0.156,  0.118, 5,  -2.473,-45.950, -2.173
700565.84588, 3,   0.663, 13.302, -0.366
700565.86578, 3,   0.153,  5.838, -0.699
700565.88565, 3,  -0.400, 15.261, -3.156, 4,   0.070,  0.224, -0.006, 5,  -0.610,-47.009, -0.977
700565.90551, 3,   0.294,  6.226, -0.526
700565.92535, 3,  -0.739,  7.097, -0.644
700565.94522, 3,  -0.787, 14.723, -3.223, 4,   0.040,  0.117, -0.109
700565.96508, 3,  -2.216,  3.142, -0.254
700565.98495, 3,  -1.017, 14.584, -3.214
700566.00482, 3,  -0.388,  9.212, -0.167, 4,  -0.011, -0.077, -0.102, 5,  -0.414,-44.684, -1.910
700566.02468, 3,  -0.124, -0.234, -0.433
700566.04455, 3,  -3.115, 10.000, -5.910
700566.06442, 3,  -0.627,  9.653, -3.441, 4,   0.009, -0.031, -0.070
700566.08428, 3,   0.038, 15.238, -2.043
700566.10415, 3,   1.141, 10.571, -0.091
700566.12402, 3,   1.768,  6.798,  2.268, 4,  -0.149, -0.062, -0.003, 5,  -1.059,-45.595, -1.154
700566.14389, 3,   1.335,  7.523,  0.254
700566.16378, 3,   0.969, 14.967, -1.072
700566.18365, 3,  -2.412,  9.255, -3.903, 4,   0.030, -0.163, -0.038, 5,  -3.236,-46.284, -1.224
700566.20352, 3,  -0.962, 13.371, -3.797
700566.22338, 3,  -1.206,  7.691, -1.965
700566.24325, 3,   0.364, 12.182, -0.897, 4,  -0.031, -0.113,  0.054
700566.26312, 3,   0.045,  2.060, -0.622
700566.28298, 3,  -0.747, 14.723, -6.102
700566.30285, 3,  -1.271, 10.780, -1.917, 4,   0.018,  0.061,  0.044, 5,   0.346,-46.046, -0.453
700566.32272, 3,   0.943, 11.069,  0.431
700566.34259, 3,   0.311,  8.076, -1.146
700566.36245, 3,   0.313,  9.564, -1.318, 4,   0.020,  0.065,  0.059, 5,   0.319,-44.603, -0.156
700566.38232, 3,  -1.850,  8.789, -1.814
700566.40219, 3,  -2.089,  7.851, -3.302
700566.42205, 3,  -0.988,  3.094, -1.172, 4,   0.044, -0.052,  0.060, 5,  -0.638,-44.368, -1.698
700566.44195, 3,   0.285, 14.003, -2.204
700566.46182, 3,  -0.730,  6.681, -3.209
700566.48168, 3,   0.885,  9.411, -1.905, 4,  -0.028, -0.063,  0.142, 5,  -0.655,-44.336,  0.819
700566.50155, 3,   0.232,  9.265, -2.596
700566.52142, 3,  -1.342, 11.809, -3.520
700566.54125, 3,  -0.861, 16.635,  0.282, 4,  -0.021,  0.211,  0.154, 5,  -1.387,-43.741, -0.182
700566.56112, 3,   0.969,  4.795,  4.439
700566.58099, 3,  -2.316,  4.453, -0.414
700566.60086, 3,   0.553, 12.782, -0.821, 4,  -0.015,  0.287,  0.065
700566.62072, 3,  -0.254,  5.298, -1.761
700566.64059, 3,  -0.234, 19.042, -5.669
700566.66046, 3,  -0.141,  6.025,  1.747, 4,   0.043,  0.168, -0.011, 5,  -1.173,-44.391, -1.186
700566.68032, 3,   0.117,  5.599, -1.450
700566.70019, 3,  -1.297, 12.708, -4.276
700566.72009, 3,  -0.306,  8.377, -1.151, 4,   0.074,  0.081, -0.035, 5,  -0.769,-43.506, -1.012
700566.73995, 3,  -0.550,  4.671, -1.565
700566.75982, 3,  -0.569, 16.025, -5.401
700566.77969, 3,   1.137, 15.371,  2.295, 4,   0.024,  0.212, -0.034, 5,  -0.839,-43.587,  0.403
700566.79956, 3,  -1.220, -2.249, -0.483
700566.81942, 3,   2.142, 22.119, -4.920
700566.83929, 3,  -1.419,  4.443,  0.134, 4,   0.089,  0.228, -0.102, 5,  -0.688,-42.346, -0.066
700566.85916, 3,  -1.184,  4.338, -4.027
700566.87902, 3,  -2.151, 17.903, -6.006
700566.89889, 3,  -0.340, 10.064,  0.751, 4,   0.006,  0.078, -0.107, 5,   0.264,-42.712, -0.140
700566.91876, 3,   0.184,  6.063,  0.713
700566.93862, 3,  -0.091, 11.883, -5.537
700566.95849, 3,   1.670, 13.314,  3.912, 4,  -0.030,  0.099, -0.117, 5,   2.657,-41.951, -0.461
700566.97836, 3,  -0.988,  7.805, -3.922
700566.99823, 3,   0.938, 15.970, -2.563
700567.01812, 3,  -0.156,  6.386, -0.584, 4,  -0.020,  0.062, -0.146, 5,   1.653,-42.143, -1.543
700567.03799, 3,  -0.684,  7.262, -1.072
700567.05786, 3,  -0.732, 12.038, -3.494
700567.07772, 3,  -0.890, 11.258, -4.929, 4,   0.012, -0.100, -0.163, 5,   0.655,-42.018, -0.812
700567.09759, 3,  -1.046,  4.089, -0.895
700567.11746, 3,   0.275, 17.020, -0.981
700567.13732, 3,  -0.471, 11.069, -0.167, 4,  -0.115, -0.125, -0.084
700567.15719, 3,  -0.627,  3.594,  0.723
700567.17706, 3,   0.184, 12.445, -2.479
700567.19689, 3,  -1.874,  7.183, -2.974, 4,   0.044,  0.118, -0.084, 5,   1.338,-41.258, -0.542
700567.21676, 3,  -2.948,  6.152, -2.603
700567.23663, 3,  -0.579, 15.582, -3.034
700567.25589, 3,  -0.225, -0.122,  0.890, 4,  -0.065,  0.009, -0.057
700567.27636, 3,  -0.218, 14.611, -3.293
700567.29626, 3,  -0.636,  8.952, -0.976
700567.31613, 3,  -0.146, 10.210, -1.105, 4,  -0.064, -0.097, -0.027, 5,   1.788,-41.245, -1.448
700567.33599, 3,  -0.739,  4.015, -1.306
700567.35586, 3,   0.591, 17.247, -2.539
700567.37573, 3,   0.543,  4.956,  6.540, 4,  -0.092, -0.036, -0.009, 5,   2.957,-40.800, -1.060
700567.39559, 3,  -0.294, 14.544, -3.340
700567.41546, 3,  -0.022,  6.767, -1.780
700567.43533, 3,  -0.050,  9.523, -3.632, 4,   0.059, -0.057, -0.070, 5,   4.495,-40.466, -2.019
700567.45520, 3,  -1.304, 14.067, -4.369
700567.47506, 3,  -0.919, 12.043, -2.749
700567.49493, 3,  -0.749,  9.229,  0.213, 4,  -0.017, -0.048, -0.058, 5,   3.955,-39.851, -2.641
700567.51480, 3,  -0.096,  6.836, -0.357
700567.53466, 3,  -0.514, 12.342, -4.807
700567.55453, 3,  -0.833,  9.047, -3.194, 4,   0.066, -0.008, -0.072, 5,   5.345,-40.877, -5.145
700567.57440, 3,  -1.216, 10.902, -2.417
700567.59429, 3,  -2.479,  2.900, -1.577
700567.61416, 3,  -0.711, 18.839, -3.661, 4,   0.021, -0.080, -0.043, 5,   5.547,-42.108, -4.338
700567.63403, 3,  -0.313,  7.399,  0.361
700567.65390, 3,  -0.285,  7.085, -1.184
700567.67372, 3,  -0.364,  2.936, -3.113, 4,   0.038, -0.161,  0.025
700567.69359, 3,   1.158, 19.506, -6.106
700567.71346, 3,  -1.098, -1.409, -1.589
700567.73332, 3,  -1.412, 11.730, -6.542, 4,   0.081,  0.004,  0.052, 5,   4.950,-43.433, -5.717
700567.75319, 3,  -0.543, 17.185, -2.197
700567.77306, 3,  -0.218,  2.302,  3.111
700567.79292, 3,   0.079, 11.194, -2.168, 4,  -0.073,  0.148,  0.050
700567.81279, 3,  -0.218, 12.479, -3.427
700567.83266, 3,   0.481,  9.224,  1.799
700567.85249, 3,  -2.309,  4.216, -5.743, 4,  -0.042,  0.059, -0.041, 5,   4.689,-42.979, -6.264
700567.87239, 3,   1.113, 20.550, -3.297
700567.89226, 3,   1.692,  0.907,  4.967
700567.91213, 3,   1.029,  7.825, -0.847, 4,  -0.063, -0.001, -0.062, 5,   4.639,-42.390, -7.077
700567.93199, 3,  -1.586, 16.295, -5.566
700567.95186, 3,  -1.330,  6.609, -2.498
700567.97173, 3,  -0.199,  6.650, -2.445, 4,   0.023, -0.094, -0.102, 5,   1.279,-44.116, -7.028
700567.99159, 3,  -0.648, 11.335, -4.534
700568.01146, 3,  -0.782, 13.551, -2.170
700568.03133, 3,  -0.759,  5.535,  1.670, 4,  -0.084, -0.111, -0.054, 5,   0.072,-45.552, -7.726
700568.05119, 3,  -0.407,  9.014, -1.589
700568.07106, 3,  -1.472,  8.384, -4.580
700568.09093, 3,  -1.840,  9.165, -5.326, 4,   0.042, -0.224, -0.043, 5,  -0.766,-45.198, -8.415
700568.11080, 3,  -2.194,  7.332, -3.919
700568.13066, 3,  -0.907,  9.392, -1.555
700568.15056, 3,   0.469, 19.164, -0.469, 4,  -0.119, -0.188,  0.074, 5,  -2.525,-45.053, -7.568
700568.17043, 3,   0.376, 10.064,  1.933
700568.19029, 3,   1.622,  4.939,  0.053
700568.21016, 3,  -0.541,  9.818, -4.247, 4,   0.007, -0.088,  0.057, 5,  -2.829,-44.954, -4.247
700568.23003, 3,  -0.502, 18.212, -5.113
700568.24989, 3,  -0.940,  2.376, -1.737
700568.26976, 3,  -0.617, 13.314, -2.943, 4,   0.103, -0.016,  0.043, 5,  -2.574,-46.336, -4.089
700568.28963, 3,  -1.644,  9.772, -3.360
700568.30950, 3,   0.407,  7.564,  1.998
700568.32936, 3,  -1.641, 10.354, -8.619, 4,   0.119, -0.130,  0.017
700568.34923, 3,  -2.256, 11.734, -7.291
700568.36910, 3,  -0.821,  4.238, -2.402
700568.38896, 3,  -0.199, 10.806, -2.477, 4,   0.097, -0.079,  0.076, 5,  -3.004,-43.916, -2.043
700568.40883, 3,  -0.141, 15.438, -1.239
700568.42870, 3,  -1.007,  8.808,  1.558
700568.44859, 3,  -1.175,  1.634, -0.153, 4,   0.011,  0.072,  0.090, 5,  -2.524,-43.488, -2.643
700568.46846, 3,   0.156, 16.499, -4.025
700568.48830, 3,  -0.723, 15.565, -4.831
700568.50816, 3,   1.455,  4.269, -1.548, 4,   0.068,  0.056,  0.083, 5,  -3.136,-42.876, -3.284
700568.52803, 3,   1.476, 10.150, -0.335
700568.54790, 3,   0.244, 13.273, -2.278
700568.56777, 3,  -1.125,  8.006, -1.747, 4,  -0.033,  0.441,  0.012, 5,  -2.049,-43.480, -0.743
700568.58763, 3,  -1.151,  6.903, -2.548
700568.60750, 3,  -1.077, 10.906, -4.475
700568.62737, 3,  -1.192,  2.522,  1.572, 4,   0.008,  0.050, -0.139, 5,  -1.421,-45.108, -1.939
700568.64723, 3,  -2.694, 19.183, -7.107
700568.66710, 3,  -0.311,  9.375, -0.282
700568.68697, 3,  -0.658,  6.595, -1.857, 4,  -0.062, -0.219, -0.061, 5,  -1.225,-43.452, -3.426
700568.70683, 3,  -1.139, 11.002, -6.470
700568.72673, 3,  -1.122,  7.602, -3.039
700568.74660, 3,  -0.115, 14.946, -2.268, 4,   0.037, -0.114, -0.014, 5,  -0.481,-44.016, -2.908
700568.76647, 3,  -1.050,  7.047, -3.817
700568.78633, 3,   0.603, 15.549, -0.861
700568.80620, 3,   1.151,  8.241, -0.246, 4,  -0.016,  0.074, -0.015, 5,   0.098,-42.319, -3.696
700568.82607, 3,   1.251,  5.109, -4.989
700568.84593, 3,   0.916, 10.189, -4.290
700568.86580, 3,  -1.077, 10.442, -1.732, 4,   0.049,  0.003, -0.144
700568.88567, 3,  -1.909,  4.814, -2.955
700568.90553, 3,  -1.187, 14.343, -5.274
700568.92540, 3,   0.337,  9.174, -1.553, 4,  -0.059, -0.254, -0.153, 5,   0.090,-45.476, -3.040
700568.94527, 3,   0.122,  4.618,  0.342
700568.96514, 3,  -0.215, 13.704, -5.111
700568.98500, 3,  -0.881,  7.284,  0.208, 4,  -0.052, -0.309, -0.080, 5,   1.257,-43.384, -3.363
700569.00487, 3,  -1.752,  8.219, -3.857
700569.02477, 3,  -3.419, 13.917, -6.288
700569.04463, 3,  -0.220,  9.789,  1.342, 4,   0.002, -0.224,  0.009, 5,   0.293,-42.703, -3.909
700569.06450, 3,  -0.720,  7.104, -0.988
700569.08437, 3,  -2.321,  2.024, -5.233
700569.10423, 3,  -0.179, 19.734, -5.987, 4,   0.083, -0.217,  0.075, 5,  -0.035,-42.711, -4.123
700569.12410, 3,   0.507,  3.388, -1.639
700569.14394, 3,   1.984,  6.834, -4.345
700569.16380, 3,  -0.481, 18.195, -4.788, 4,   0.011, -0.075,  0.112, 5,  -0.171,-42.453, -3.522
700569.18367, 3,   1.105,  7.265,  0.333
700569.20354, 3,   0.376,  6.640, -1.675
700569.22341, 3,  -0.371,  8.294, -5.111, 4,   0.018, -0.044,  0.010, 5,  -0.104,-44.139, -3.403
700569.24327, 3,   1.866, 14.630,  0.309
700569.26314, 3,  -0.567, 15.249,-10.454
700569.28301, 3,  -2.110, 11.608, -1.919, 4,   0.002, -0.220,  0.013, 5,   0.398,-43.643, -3.102
700569.30290, 3,   0.656,  0.438,  4.831
700569.32277, 3,  -0.404, 14.644, -3.175
700569.34264, 3,  -1.759, 14.060, -2.666, 4,  -0.074, -0.123,  0.021, 5,   0.987,-44.412, -2.208
700569.36250, 3,  -1.369, 10.035, -0.440
700569.38237, 3,  -1.862, -2.302,  0.323
700569.40224, 3,   2.134, 34.502, -7.358, 4,  -0.077, -0.167,  0.076
700569.42211, 3,   3.501, -7.200,  0.450
700569.44197, 3,   0.144,  7.549, -2.460
700569.46184, 3,  -0.651,  8.289, -4.262, 4,  -0.065,  0.044,  0.086, 5,  -1.112,-45.421, -3.275
700569.48171, 3,  -2.314, 16.099, -6.925
700569.50157, 3,  -1.802,  2.646,  0.644
700569.52144, 3,   0.995, 11.646, -0.048, 4,  -0.134, -0.045,  0.087
700569.54131, 3,   1.948, 13.831,  1.924
700569.56117, 3,  -1.527,  5.135, -4.013
700569.58107, 3,   0.038, 12.536, -3.278, 4,   0.024, -0.053,  0.059, 5,  -0.330,-44.423, -2.919
700569.60094, 3,   2.067, -2.369,  1.431
700569.62081, 3,  -0.057, 20.303, -7.064
700569.64067, 3,  -1.656,  7.803, -3.297, 4,   0.018,  0.013,  0.032, 5,   0.574,-44.150, -3.613
700569.66054, 3,  -2.185, 13.596, -2.170
700569.68041, 3,  -0.857,  3.228,  0.225
700569.70027, 3,   2.661, 19.975, -1.084, 4,   0.020,  0.032,  0.042, 5,   0.557,-43.634, -4.816
700569.72014, 3,   0.055,  3.271, -2.527
700569.74001, 3,  -0.668, 13.668, -5.243
700569.75984, 3,  -2.871,  5.326, -3.960, 4,   0.143,  0.089, -0.010, 5,  -1.149,-43.983, -3.638
700569.77971, 3,   0.778, 13.225, -0.057
700569.79958, 3,   1.263,  7.726, -0.304
700569.81944, 3,   0.636, 13.031, -3.230, 4,   0.019, -0.094,  0.009, 5,  -2.119,-46.326, -3.760
700569.83931, 3,   0.943,  7.997, -0.299
700569.85918, 3,  -1.909,  2.008, -2.393
700569.87908, 3,  -1.988, 14.637, -5.128, 4,   0.070,  0.046, -0.049, 5,  -1.726,-45.403, -4.932
700569.89894, 3,  -1.429,  3.132, -0.950
700569.91881, 3,  -0.069, 15.884, -0.510
700569.93868, 3,   0.787,  6.437,  1.263, 4,  -0.098, -0.079, -0.030
700569.95854, 3,  -1.017,  9.794, -1.850
700569.97841, 3,  -0.732,  5.573, -2.034
700569.99828, 3,  -1.263, 27.855, -4.140, 4,   0.044, -0.120, -0.031, 5,   1.030,-47.137, -2.454
700570.01814, 3,   0.469, -8.040,  1.708
700570.03801, 3,   0.871,  7.434, -3.477
700570.05727, 3,   0.065, 14.835, -7.090, 4,   0.054, -0.220, -0.052
700570.07775, 3,  -0.431,  8.765, -1.338
700570.09761, 3,  -0.591,  8.724, -3.166
700570.11748, 3,  -0.014,  8.160, -0.115, 4,   0.009, -0.176, -0.013, 5,  -1.422,-46.310, -2.983
700570.13735, 3,   0.261, 14.264, -0.613
700570.15724, 3,   0.065,  4.857, -2.316
700570.17711, 3,  -0.596, 23.773, -7.104, 4,   0.044, -0.193, -0.004, 5,  -0.793,-46.703, -4.192
700570.19698, 3,  -0.720, -2.766,  2.041
700570.21684, 3,   0.136, 11.344,  0.636
700570.23671, 3,  -0.390, 11.794, -1.708, 4,  -0.103, -0.242,  0.067, 5,  -0.166,-46.918, -2.592
700570.25658, 3,  -1.338,  9.569, -2.429
700570.27644, 3,  -0.318,  3.398, -2.118
700570.29631, 3,   1.012, 20.487, -2.350, 4,   0.014, -0.268,  0.093, 5,  -1.233,-47.278, -2.632
700570.31618, 3,  -1.677, 11.227, -1.618
700570.33605, 3,   0.225,  4.274, -0.134
700570.35588, 3,  -0.258,  7.949, -0.735, 4,  -0.033, -0.050,  0.153, 5,  -1.175,-46.176, -3.659
700570.37578, 3,  -0.196, 16.338, -1.464
700570.39565, 3,  -1.768,  7.633, -2.565
700570.41548, 3,  -0.936,  7.226, -2.398, 4,   0.079,  0.029,  0.082, 5,  -1.546,-46.213, -2.319
700570.43535, 3,  -0.110,  9.677, -2.718
700570.45525, 3,  -1.199, 15.783, -0.105
700570.47511, 3,  -0.134,  3.441, -3.692, 4,   0.053,  0.078,  0.082, 5,  -2.733,-47.514, -2.371
700570.49498, 3,   0.507,  9.444, -3.517
700570.51485, 3,   0.419,  6.240, -1.735
700570.53472, 3,  -0.948, 12.940, -4.455, 4,   0.145,  0.254,  0.024, 5,  -0.127,-46.881, -2.068
700570.55458, 3,  -1.314,  6.753, -1.431
700570.57445, 3,  -1.414,  2.584,  0.318
700570.59432, 3,  -0.282, 13.503, -4.022, 4,  -0.017, -0.018, -0.009
700570.61418, 3,  -2.436, -7.312, -7.499
700570.63405, 3,   2.498, 44.693, -3.271
700570.65392, 3,  -4.082,  4.778, 10.122, 4,  -0.311, -0.145,  0.064, 5,  -0.780,-46.298, -1.683
700570.67378, 3,   0.029,  0.861,  5.027
700570.69365, 3,  -0.775, 19.468, -1.192
700570.71352, 3,  -1.318,  6.870, -2.015, 4,  -0.079, -0.103,  0.034, 5,  -2.699,-44.977, -2.029
700570.73342, 3,  -0.888, 13.385, -4.226
700570.75328, 3,  -0.067,  7.487, -0.038
700570.77315, 3,   0.074,  7.810,  0.586, 4,  -0.041, -0.169,  0.074, 5,  -2.155,-47.935, -2.768
700570.79302, 3,   0.481,  9.765, -0.933
700570.81288, 3,   0.108,-12.857, 15.278
700570.83275, 3,  -3.336, 32.052,-17.511, 4,   0.292, -0.011,  0.004, 5,  -2.100,-45.549, -2.309
700570.85262, 3,  -1.833,  3.288,-13.969
700570.87248, 3,  -0.703, -3.123, -3.242
700570.89235, 3,   1.196, 22.694, -4.408, 4,   0.031,  0.339,  0.028, 5,  -1.112,-47.818, -2.426
700570.91222, 3,  -1.304,  8.944,  6.604
700570.93208, 3,   0.208,  6.652,  1.960
700570.95195, 3,  -1.309,  7.731,  3.053, 4,  -0.035,  0.033, -0.100, 5,  -2.779,-46.352, -4.079
700570.97182, 3,  -0.517, 11.222,  0.756
700570.99169, 3,  -1.314, 15.297, -6.425
700571.01158, 3,  -1.524,  9.363, -4.582, 4,   0.210, -0.452, -0.096, 5,  -2.136,-47.040, -3.362
700571.03145, 3,   0.050,  7.518,  0.507
700571.05129, 3,   1.735, 11.756,  0.577
700571.07115, 3,   1.108,  9.887, -0.634, 4,  -0.085, -0.449,  0.066, 5,  -2.844,-47.745, -1.906
700571.09102, 3,   0.421,  6.453, -3.233
700571.11089, 3,  -0.045, 10.528, -5.405
700571.13075, 3,  -1.065,  9.260, -4.271, 4,  -0.011, -0.197,  0.065
700571.15062, 3,  -0.814, 12.543, -4.159
700571.17049, 3,   0.498,  5.771, -1.854
700571.19035, 3,  -0.002, 14.457, -0.122, 4,  -0.116,  0.278,  0.071, 5,  -3.484,-49.214, -2.591
700571.21022, 3,  -0.601,  9.794, -5.106
700571.23009, 3,  -1.213,  9.330, -2.232
700571.24996, 3,  -1.280,  6.913, -0.778, 4,   0.003,  0.261, -0.007
700571.26982, 3,  -1.326, 14.058, -3.946
700571.28969, 3,  -0.251,  9.574, -1.151
700571.30959, 3,  -0.584,  8.466,  0.711, 4,  -0.036,  0.148, -0.036, 5,  -3.709,-48.041, -3.377
700571.32945, 3,  -0.675,  8.818, -2.096
700571.34932, 3,  -0.383, 17.827, -2.608
700571.36919, 3,   1.847,  3.735,  0.510, 4,  -0.003,  0.040, -0.059, 5,  -2.579,-49.190, -3.484
700571.38905, 3,   0.639,  4.735, -3.252
700571.40892, 3,  -2.096, -2.929, -6.209
700571.42879, 3,  -0.443, 32.090, -7.557, 4,   0.050,  0.050, -0.090, 5,  -3.627,-49.530, -3.461
700571.44866, 3,  -1.230,  2.634,  4.905
700571.46852, 3,  -0.103,  7.932,  2.154
700571.48839, 3,  -0.790,  9.141, -1.929, 4,  -0.162, -0.111, -0.180, 5,  -1.855,-50.058, -2.798
700571.50826, 3,  -0.598, 19.418, -5.279
700571.52812, 3,   0.112,  4.008,  1.029
700571.54799, 3,   0.342,  6.511, -2.623, 4,  -0.045, -0.247, -0.172, 5,  -2.637,-51.175, -3.065
700571.56786, 3,  -1.314, 15.790, -3.601
700571.58775, 3,  -1.464,  7.425,  0.495
700571.60762, 3,   0.491,  8.992,  1.218, 4,  -0.088, -0.317, -0.133, 5,  -1.770,-50.105, -3.827
700571.62749, 3,  -0.182, -2.304,  9.476
700571.64736, 3,  -3.893, 18.786, -6.769
700571.66722, 3,  -0.732, 12.653, -5.669, 4,   0.168, -0.516, -0.132
700571.68709, 3,   0.756,  6.506, -2.280
700571.70693, 3,  -0.493, 10.071, -3.015
700571.72679, 3,  -0.818, 10.959, -2.048, 4,  -0.012, -0.488, -0.003, 5,  -2.202,-50.032, -1.579
700571.74666, 3,  -0.689,  9.765,  0.672
700571.76653, 3,  -0.160,  8.157,  0.062
700571.78639, 3,  -1.974, 14.369, -2.374, 4,   0.050, -0.306, -0.006
700571.80626, 3,  -1.249,  3.462, -0.120
700571.82613, 3,  -0.766, -0.266, -1.917
700571.84599, 3,  -0.165, 21.086, -9.547, 4,   0.115, -0.255,  0.039, 5,  -0.560,-49.927, -0.774
700571.86586, 3,  -1.129,  9.784, -2.460
700571.88576, 3,   0.022, -6.985,  8.425
700571.90563, 3,   0.383,  7.217, -2.582, 4,  -0.168,  0.008,  0.039, 5,   0.261,-50.984, -0.034
700571.92549, 3,  -1.732, 15.592, -5.688
700571.94536, 3,  -1.871,  9.062, -4.147
700571.96523, 3,  -0.780,  7.628, -1.510, 4,  -0.062, -0.237, -0.014, 5,  -2.823,-49.213, -0.468
700571.98509, 3,  -1.582,  6.908,  1.445
700572.00496, 3,  -0.299, 15.769, -1.381
700572.02483, 3,   0.543, 13.101, -0.677, 4,  -0.228, -0.742,  0.078, 5,  -0.848,-49.336, -0.272
700572.04469, 3,   1.974,  5.637,  0.878
700572.06456, 3,   1.510, 11.486,  2.582
700572.08443, 3,  -1.606,  3.711, -6.334, 4,  -0.097, -0.667,  0.134, 5,  -2.139,-47.417, -0.774
700572.10430, 3,  -2.912, 18.068, -8.057
700572.12416, 3,   2.701, -1.933, -0.330
700572.14403, 3,   3.953, 14.816, -1.115, 4,   0.007, -0.265,  0.112, 5,  -2.780,-46.352,  0.269
700572.16393, 3,  -2.402,  3.596, -0.634
700572.18379, 3,  -2.486, 12.890, -0.342
700572.20366, 3,  -1.632, 11.043,  3.005, 4,   0.041,  0.058,  0.006, 5,  -0.900,-46.985,  0.961
700572.22353, 3,   0.194,  8.114, -2.747
700572.24339, 3,   0.050, 10.303, -6.391
700572.26326, 3,  -0.715,  6.803, -2.560, 4,   0.237, -0.179, -0.058, 5,  -2.130,-47.047,  0.270
700572.28313, 3,  -0.857, 17.489, -2.400
700572.30300, 3,  -1.012,  3.522,  1.117
700572.32286, 3,  -0.438, 11.017, -0.725, 4,   0.027, -0.594,  0.011
700572.34273, 3,  -1.196,  6.020, -1.637
700572.36260, 3,   1.158, 13.613, -2.252
700572.38246, 3,   2.055, 11.318,  0.388, 4,   0.079, -0.691,  0.115, 5,  -0.948,-47.021,  0.273
700572.40230, 3,   1.811,  6.272, -0.536
700572.42217, 3,  -0.390, 12.510, -5.216
700572.44203, 3,   0.089,  5.920, -2.166, 4,   0.144, -0.031,  0.060, 5,  -2.042,-47.661,  2.962
700572.46193, 3,  -0.617,  7.322, -2.280
700572.48180, 3,  -0.656, 13.371, -2.422
700572.50166, 3,  -2.314, 12.160,  0.110, 4,  -0.008,  0.068, -0.007, 5,  -1.459,-47.038,  2.365
700572.52153, 3,  -2.953, -2.383, -0.507
700572.54140, 3,  -1.098, 19.217, -1.673
700572.56127, 3,  -0.924,  8.987,  2.764, 4,  -0.059, -0.411,  0.009, 5,  -2.821,-48.218,  1.564
700572.58113, 3,   2.058,  4.448,  1.881
700572.60100, 3,   0.026, 10.052, -3.639
700572.62087, 3,  -0.936, 12.747, -5.815, 4,   0.069, -0.509,  0.032, 5,  -1.683,-46.826,  3.679
700572.64073, 3,  -1.010, 10.971, -2.699
700572.66060, 3,  -0.581,  6.616, -0.388
700572.68047, 3,  -0.227, 13.172,  1.067, 4,  -0.057, -0.295,  0.040
700572.70033, 3,   0.560, 12.708,  2.565
700572.72020, 3,  -0.179,  0.902,  0.179
700572.74010, 3,   0.376, 17.544, -7.368, 4,   0.125, -0.345, -0.030, 5,  -1.173,-47.173,  4.805
700572.75997, 3,  -1.297,  9.181, -1.443
700572.77983, 3,  -0.230,  3.625, -3.001
700572.79970, 3,  -0.122, 28.154, -4.013, 4,   0.092, -0.314, -0.002, 5,  -3.497,-45.990,  3.438
700572.81957, 3,   2.292, -2.347,  1.302
700572.83943, 3,   0.526, 12.799, -2.969
700572.85930, 3,  -0.902,  8.822, -0.234, 4,   0.090, -0.621,  0.015
700572.87917, 3,  -0.718, 11.347, -1.445
700572.89903, 3,  -1.084, 13.062, -3.958
700572.91890, 3,  -0.445,  4.869, -5.427, 4,   0.211, -0.751,  0.074, 5,  -2.661,-45.958,  3.378
700572.93877, 3,   1.338, 21.303, -5.827
700572.95863, 3,   1.079,  4.987,  3.833
700572.97850, 3,   1.986,  7.193,  1.254, 4,   0.035, -0.254,  0.171, 5,  -4.051,-44.247,  5.345
700572.99837, 3,  -0.567, 11.361, -0.816
700573.01827, 3,  -1.716, 11.119, -2.264
700573.03810, 3,  -1.450, 10.476, -2.745, 4,   0.217, -0.062,  0.020, 5,  -2.403,-44.569,  5.890
700573.05797, 3,  -1.634,  7.896, -3.278
700573.07784, 3,  -4.525, 13.524, -4.118
700573.09770, 3,  -1.563,  9.839,  1.065, 4,   0.032, -0.392,  0.109, 5,  -5.023,-43.228,  6.067
700573.11757, 3,   0.170,  4.228,  1.318
700573.13744, 3,   0.840, 20.559, -1.350
700573.15730, 3,  -0.469,  8.375,  0.380, 4,   0.057, -0.487,  0.190, 5,  -5.617,-43.430,  5.234
700573.17717, 3,  -0.055,  7.315, -2.197
700573.19704, 3,   0.720,  7.602, -3.589
700573.21691, 3,   0.175, 14.139, -4.522, 4,   0.189, -0.351,  0.196, 5,  -7.204,-43.584,  5.457
700573.23677, 3,   2.194, 10.421, -2.000
700573.25664, 3,   0.629,  6.260, -0.232
700573.27651, 3,  -0.218,  9.337, -0.763, 4,   0.042, -0.116,  0.116, 5,  -6.657,-41.959,  6.540
700573.29637, 3,  -1.558, 12.452, -2.398
700573.31627, 3,  -2.917,  5.585, -2.529
700573.33614, 3,  -2.417, 11.320, -2.651, 4,   0.077, -0.186,  0.047, 5,  -6.029,-42.882,  6.654
700573.35600, 3,  -2.443, 14.702,  0.385
700573.37587, 3,  -1.694,  6.379,  2.099
700573.39574, 3,  -1.237,  4.912, -0.534, 4,  -0.011, -0.348,  0.137
700573.41561, 3,  -0.141, 11.794, -2.725
700573.43547, 3,  -1.074,  2.761, -3.448
700573.45534, 3,   2.634,  4.314, -4.142, 4,   0.119, -0.390,  0.148, 5,  -8.470,-42.937,  4.308
700573.47521, 3,   4.006, 37.216, -4.458
700573.49507, 3,   4.475,  1.555,  4.867
700573.51494, 3,   4.022,  8.985,  3.020, 4,  -0.156,  0.011,  0.105
700573.53481, 3,   1.826,  6.327,  2.381
700573.55467, 3,  -0.766, 12.306, -4.542
700573.57454, 3,  -3.005, 13.613, -4.293, 4,   0.160,  0.078, -0.069, 5,  -6.586,-42.778,  6.789
700573.59444, 3,  -3.139,  9.576, -0.770
700573.61430, 3,  -4.372,  6.731, -0.311
700573.63417, 3,  -3.843,  9.186, -1.802, 4,   0.007, -0.261, -0.051, 5,  -7.600,-43.169,  7.265
700573.65404, 3,  -3.261,  9.641, -1.455
700573.67388, 3,  -0.246, 12.022,  0.646
700573.69374, 3,  -2.788,  6.307, -0.761, 4,   0.199, -0.708,  0.058, 5,  -8.543,-43.115,  6.235
700573.71361, 3,  -0.680,  7.621, -4.625
700573.73348, 3,   3.209,  7.150, -0.759
700573.75334, 3,   2.603, 10.519, -9.308, 4,   0.433, -0.662,  0.135, 5,  -8.904,-44.516,  8.243
700573.77321, 3,   1.244, 11.174,-14.199
700573.79308, 3,  -0.428, 10.732, -5.302
700573.81294, 3,   1.309, 11.064,  5.451, 4,   0.303,  0.167,  0.089, 5,  -7.594,-42.603,  8.899
700573.83281, 3,  -0.122,  2.302,  3.833
700573.85268, 3,  -1.933, 13.807, -2.367
700573.87254, 3,  -2.266, 12.598, -3.912, 4,   0.200, -0.139, -0.023
700573.89244, 3,  -1.060,  9.485, -4.575
700573.91231, 3,  -2.438, 11.708, -4.003
700573.93218, 3,   0.385, 12.445,  2.053, 4,   0.044, -0.375,  0.098, 5,  -7.710,-42.140, 10.417
700573.95204, 3,  -1.161, 12.936,  1.426
700573.97191, 3,  -3.551,  7.643, -2.089
700573.99178, 3,   0.010, -2.402, -7.679, 4,   0.078, -0.206,  0.078, 5,  -8.200,-43.474,  9.164
700574.01164, 3,  -0.273,  8.870, -8.918
700574.03151, 3,  -0.500, 16.649, -5.140
700574.05138, 3,  -2.144,  8.638, -0.794, 4,  -0.039,  0.062,  0.113
700574.07124, 3,  -0.292,  4.396,  1.053
700574.09111, 3,  -0.754,  9.263, -2.620
700574.11098, 3,  -1.697, 14.338, -6.836, 4,   0.031,  0.092,  0.012, 5,  -5.460,-44.250, 10.428
700574.13085, 3,  -0.227,  8.248, -4.295
700574.15071, 3,  -0.361,  6.336, -1.103
700574.17061, 3,  -0.883, 10.452, -2.532, 4,   0.020, -0.276, -0.022, 5,  -9.738,-42.830, 10.986
700574.19048, 3,  -0.636, 11.627, -1.718
700574.21034, 3,  -0.615, 10.576, -1.187
700574.23021, 3,  -0.136,  4.621, -2.520, 4,   0.022, -0.340, -0.060, 5,  -8.739,-44.939,  9.737
700574.25008, 3,  -0.026,  6.023, -4.659
700574.26994, 3,  -0.663, 15.216, -2.883
700574.28981, 3,   1.177,  9.478,  1.819, 4,  -0.070, -0.402, -0.016, 5,  -8.289,-42.944,  9.946
700574.30968, 3,   2.276, -0.969,  3.771
700574.32955, 3,  -1.479, 11.328, -5.724
700574.34938, 3,  -4.695,  9.964, -8.071, 4,  -0.034, -0.204, -0.029, 5,  -7.652,-44.072, 11.720
700574.36925, 3,  -4.747,  5.080, -6.731
700574.38912, 3,  -0.206, 14.261, -5.358
700574.40898, 3,  -1.960, 10.301,  0.938, 4,  -0.212, -0.053,  0.017
700574.42885, 3,  -1.340, 10.507,  2.709
700574.44875, 3,  -1.531,  7.492, -2.010
700574.46861, 3,  -1.689,  7.341, -3.943, 4,  -0.092, -0.305,  0.002, 5,  -6.319,-45.584, 10.345
700574.48848, 3,   0.100, 14.304, -4.685
700574.50835, 3,   0.550,  9.835, -2.759
700574.52821, 3,  -0.548,  6.095, -2.264, 4,  -0.069, -0.615,  0.058, 5,  -8.887,-44.774,  8.688
700574.54808, 3,  -0.132,  9.966, -3.209
700574.56795, 3,   0.373, 12.347, -2.295
700574.58782, 3,   1.878,  9.813, -0.364, 4,  -0.163, -0.893,  0.050
700574.60768, 3,   1.807,  8.581, -0.529
700574.62755, 3,   1.711, 10.217, -1.962
700574.64742, 3,   3.675, 13.113,  0.742, 4,  -0.035, -0.826,  0.040, 5,  -6.302,-43.881,  9.474
700574.66728, 3,  -1.127,  3.958, -4.049
700574.68715, 3,  -3.424, 12.471, -9.083
700574.70702, 3,  -3.793, 13.043, -6.982, 4,   0.173, -0.349, -0.029, 5,  -6.799,-42.967,  9.694
700574.72688, 3,  -1.742,  6.580,  0.924
700574.74678, 3,  -1.196,  7.439,  1.890
700574.76665, 3,  -2.666, 12.223, -1.271, 4,  -0.078, -0.143,  0.043, 5,  -6.987,-44.785,  9.111
700574.78652, 3,  -3.144, 10.844,  0.129
700574.80638, 3,  -2.314,  8.081, -1.299
700574.82625, 3,  -1.067,  9.208, -3.943, 4,   0.192, -0.794,  0.047, 5,  -7.472,-45.132, 10.426
700574.84612, 3,   0.342, 12.608, -5.664
700574.86598, 3,   1.216, 10.782, -3.154
700574.88585, 3,   1.058,  4.613, -1.304, 4,   0.131, -1.000,  0.148, 5,  -6.311,-44.017, 13.040
700574.90572, 3,   1.417, 11.131, -4.235
700574.92558, 3,   0.390, 17.006, -2.749
700574.94545, 3,  -0.230,  6.284,  0.658, 4,   0.089, -0.479,  0.118
700574.96532, 3,   0.376,  6.774,  0.376
700574.98519, 3,  -0.924, 11.756, -3.214
700575.00505, 3,  -2.608, 11.713, -4.250, 4,   0.160, -0.325,  0.060, 5,  -9.016,-42.784, 10.959
700575.02492, 3,  -2.209,  6.899, -2.015
700575.04479, 3,  -2.773,  7.351, -2.558
700575.06465, 3,  -4.266, 12.593, -3.032, 4,   0.123, -0.491,  0.133
700575.08452, 3,  -1.768,  9.090, -0.098
700575.10439, 3,  -0.960,  0.010, -2.137
700575.12425, 3,   2.280, 19.746, -7.427, 4,   0.163, -0.704,  0.256, 5, -10.068,-44.792, 11.873
700575.14412, 3,   0.414, 12.902, -2.572
700575.16399, 3,   0.572,  7.234,  0.584
700575.18385, 3,   1.914,  8.794, -1.565, 4,   0.126, -0.274,  0.262, 5,  -9.407,-43.619, 13.322
700575.20372, 3,  -0.811,  9.959, -1.663
700575.22359, 3,   0.773, 12.098, -4.013
700575.24346, 3,  -0.321,  5.834, -1.697, 4,   0.143, -0.063,  0.132
700575.26332, 3,  -1.211, 11.785, -0.847
700575.28319, 3,  -2.436, 14.457, -2.003
700575.30306, 3,  -2.467,  3.852,  0.328, 4,   0.019, -0.319,  0.080, 5,  -9.416,-44.176, 11.871
700575.32295, 3,  -1.572,  7.542, -2.082
700575.34282, 3,  -0.558, 18.781, -3.304
700575.36269, 3,  -1.780,  7.944, -0.778, 4,   0.082, -0.654,  0.137, 5, -10.188,-43.250, 13.750
700575.38255, 3,  -0.579,  5.413, -1.283
700575.40242, 3,  -2.455,  9.729, -4.338
700575.42229, 3,  -1.586, 12.601, -5.212, 4,   0.196, -0.575,  0.208, 5,  -9.067,-42.470, 13.942
700575.44216, 3,  -1.201,  8.093, -3.228
700575.46202, 3,   0.211,  8.160, -2.551
700575.48189, 3,   0.170, 11.026, -1.991, 4,   0.135, -0.195,  0.271, 5, -11.934,-42.503, 13.957
700575.50176, 3,  -0.517, 12.670, -0.301
700575.52162, 3,   0.139,  5.319, -1.094
700575.54149, 3,  -0.067, 12.017, -2.465, 4,   0.193, -0.110,  0.216, 5, -10.013,-42.561, 14.493
700575.56136, 3,  -0.572, 12.144, -2.053
700575.58122, 3,  -0.151,  6.762, -1.388
700575.60112, 3,  -0.541,  8.006, -3.261, 4,   0.187, -0.201,  0.207
700575.62099, 3,  -0.330, 10.842, -4.738
700575.64086, 3,  -0.491, 10.323, -2.824
700575.66069, 3,  -0.428,  8.004, -1.553, 4,   0.087, -0.186,  0.210, 5, -12.007,-43.268, 14.520
700575.68059, 3,  -0.141,  8.892, -3.285
700575.70043, 3,  -0.574, 10.394, -3.910
700575.72029, 3,  -0.237, 11.524, -3.321, 4,   0.083,  0.034,  0.186, 5, -13.382,-43.922, 12.999
700575.74016, 3,  -1.280,  5.752, -3.733
700575.76003, 3,  -0.720, 13.333, -3.345
700575.77989, 3,  -1.098, 11.179, -1.153, 4,   0.029,  0.236,  0.175
700575.79976, 3,  -0.656,  7.391, -0.840
700575.81963, 3,  -0.541,  9.504, -2.584
700575.83949, 3,  -0.747,  9.260, -3.350, 4,   0.066,  0.086,  0.119, 5, -13.733,-43.221, 13.316
700575.85875, 3,  -0.696, 10.040, -3.946
700575.87926, 3,  -0.012,  7.482, -2.204
700575.89913, 3,   0.390,  9.380, -3.568, 4,   0.053,  0.061,  0.128, 5, -13.890,-45.029, 12.799
700575.91899, 3,  -0.854, 11.655, -5.207
700575.93886, 3,  -0.263,  9.141, -2.948
700575.95873, 3,  -0.151,  4.944, -2.663, 4,   0.004,  0.153,  0.078, 5, -14.738,-44.556, 13.318
700575.97859, 3,  -1.012, 15.190, -4.661
700575.99846, 3,   0.433, 12.074, -0.885
700576.01833, 3,   0.105,  5.157, -0.208, 4,   0.003,  0.101,  0.043, 5, -14.897,-44.363, 11.690
700576.03819, 3,   0.502, 10.277, -5.456
700576.05806, 3,   0.077, 10.782, -5.724
700576.07793, 3,  -1.385,  9.334, -4.963, 4,   0.135,  0.071, -0.034, 5, -14.107,-46.315, 12.248
700576.09779, 3,  -0.723,  8.028, -3.407
700576.11766, 3,  -2.591,  4.089, -4.245
700576.13753, 3,  -1.201, 20.944, -4.324, 4,   0.013,  0.042, -0.046
700576.15740, 3,  -2.168,  3.931,  0.584
700576.17729, 3,  -1.539,  4.065, -2.620
700576.19716, 3,  -0.969, 13.744, -5.405, 4,   0.011, -0.097, -0.020, 5, -14.146,-49.544, 11.192
700576.21703, 3,  -0.615, 11.335, -1.127
700576.23689, 3,  -1.129,  7.825, -1.450
700576.25676, 3,   0.440,  8.763, -3.159, 4,  -0.035, -0.325,  0.030
700576.27663, 3,  -1.134,  9.497, -3.381
700576.29646, 3,   0.041, 11.117, -2.029
700576.31636, 3,   0.275,  8.552,  0.167, 4,  -0.106, -0.310,  0.107, 5, -14.267,-53.307, 11.676
700576.33623, 3,   1.103, 10.033, -0.998
700576.35607, 3,   0.749, 10.844, -2.036
700576.37593, 3,  -0.251,  6.006, -3.872, 4,  -0.110, -0.111,  0.106, 5, -13.641,-55.067, 11.035
700576.39580, 3,   1.055, 10.426, -0.900
700576.41567, 3,  -1.723, 12.359, -6.927
700576.43553, 3,  -2.450,  7.908, -1.799, 4,  -0.093,  0.130,  0.090, 5, -14.360,-57.356, 12.221
700576.45543, 3,  -0.014,  3.484,  0.165
700576.47530, 3,  -1.017, 12.751, -3.048
700576.49516, 3,  -1.546, 14.374, -3.424, 4,  -0.063,  0.172,  0.082, 5, -13.193,-57.962, 14.720
700576.51503, 3,  -1.670,  5.604, -2.000
700576.53490, 3,  -0.474,  3.946, -3.852
700576.55477, 3,  -0.124, 18.262, -5.676, 4,   0.072,  0.205,  0.055, 5, -14.133,-58.946, 15.419
700576.57463, 3,  -1.718,  4.793, -2.280
700576.59450, 3,  -0.483, 11.560, -2.481
700576.61437, 3,   1.627, 12.541,  0.017, 4,  -0.047,  0.017,  0.018, 5, -15.512,-58.824, 17.932
700576.63423, 3,   1.783,  4.307,  0.689
700576.65410, 3,   2.448, 16.298, -0.859
700576.67397, 3,   0.601,  3.659,  0.206, 4,   0.021, -0.129, -0.031
700576.69383, 3,   0.347, 10.701, -5.566
700576.71370, 3,  -1.019, 12.526, -5.688
700576.73357, 3,  -1.287,  9.648, -2.986, 4,   0.057,  0.069, -0.071, 5, -17.488,-60.046, 24.246
700576.75347, 3,  -1.055,  8.765, -1.510
700576.77333, 3,  -1.043,  6.063, -0.904
700576.79320, 3,  -1.012,  9.906, -1.620, 4,  -0.117, -0.032, -0.082
700576.81307, 3,  -0.546, 18.384, -0.304
700576.83293, 3,  -1.811,  6.224,  0.215
700576.85280, 3,  -1.771,  4.688, -2.673, 4,   0.026, -0.277, -0.060, 5, -16.698,-57.124, 26.093
700576.87267, 3,  -0.648, 13.146, -5.597
700576.89253, 3,  -0.510, 10.717, -3.912
700576.91240, 3,  -0.641,  5.896, -2.819, 4,   0.051, -0.370,  0.021, 5, -17.148,-55.521, 27.432
700576.93227, 3,   1.113, 13.673, -4.582
700576.95213, 3,   0.055,  6.726, -0.108
700576.97200, 3,   0.849, 10.406, -0.876, 4,  -0.008, -0.124,  0.036, 5, -19.582,-53.905, 30.009
700576.99187, 3,   0.323,  8.011, -3.546
700577.01170, 3,   1.015, 16.874, -3.814
700577.03160, 3,   0.452,  5.135,  0.730, 4,   0.051, -0.116,  0.006, 5, -19.292,-48.077, 28.386
700577.05147, 3,  -0.017,  7.064, -2.118
700577.07134, 3,  -1.141, 11.687, -3.211
700577.09120, 3,  -1.244, 12.117, -4.013, 4,   0.001, -0.238, -0.008, 5, -20.122,-47.896, 28.250
700577.11107, 3,  -0.084,  6.456,  0.950
700577.13094, 3,  -0.620,  7.497, -0.098
700577.15080, 3,  -1.943, 13.196, -3.948, 4,  -0.073, -0.443,  0.058, 5, -21.294,-46.869, 27.682
700577.17067, 3,  -1.795, 11.727, -3.111
700577.19054, 3,  -1.555,  3.099, -0.895
700577.21040, 3,  -0.378, 11.385, -2.843, 4,  -0.024, -0.453,  0.146, 5, -21.414,-47.546, 27.112
700577.23027, 3,  -0.502, 17.231, -2.113
700577.25014, 3,  -0.179,  6.020,  0.962
700577.27001, 3,   0.957,  5.817, -0.615, 4,   0.005, -0.218,  0.223, 5, -19.406,-48.051, 28.105
700577.28987, 3,  -0.093, 12.479, -5.621
700577.30977, 3,  -0.507, 11.387, -3.762
700577.32964, 3,  -0.876,  3.005, -0.089, 4,   0.090,  0.224,  0.188
700577.34950, 3,  -2.127,  8.980, -3.802
700577.36937, 3,  -1.854, 16.443, -4.587
700577.38924, 3,  -1.570, 10.698,  0.156, 4,   0.032,  0.377,  0.155, 5, -20.642,-46.431, 26.385
700577.40910, 3,  -0.904,  2.247,  0.234
700577.42897, 3,  -0.502, 12.517, -2.718
700577.44884, 3,  -1.139, 12.794, -2.579, 4,   0.062,  0.224,  0.138, 5, -20.396,-45.586, 24.118
700577.46871, 3,  -0.986,  9.909, -2.180
700577.48857, 3,  -0.517,  9.191, -0.105
700577.50844, 3,   0.402,  7.851, -2.106, 4,   0.075,  0.164,  0.124
700577.52831, 3,   0.404, 10.696, -2.742
700577.54817, 3,   0.347, 10.674, -0.794
700577.56804, 3,   0.383,  8.538, -1.172, 4,   0.064,  0.193,  0.078, 5, -20.639,-47.676, 25.101
700577.58791, 3,  -0.797, 10.488, -3.264
700577.60780, 3,  -0.699, 13.285, -2.273
700577.62767, 3,  -1.340,  0.715,  0.749, 4,   0.018,  0.239,  0.041, 5, -21.921,-48.795, 23.958
700577.64754, 3,  -0.837, 10.205, -5.092
700577.66741, 3,  -1.137, 18.528, -6.197
700577.68730, 3,  -0.907,  6.633, -0.701, 4,   0.019,  0.318,  0.059, 5, -21.432,-51.199, 24.889
700577.70717, 3,  -0.373,  7.095, -0.904
700577.72700, 3,   0.392, 12.203, -1.819
700577.74687, 3,   0.584, 12.148, -0.182, 4,  -0.028,  0.490,  0.025, 5, -19.691,-52.388, 23.044
700577.76674, 3,   0.153,  8.959, -1.417
700577.78661, 3,   0.474, 10.978, -2.096
700577.80647, 3,   0.335,  6.434, -1.036, 4,   0.031,  0.519, -0.065, 5, -19.579,-52.979, 24.625
700577.82634, 3,  -0.055, 10.648, -2.795
700577.84621, 3,  -0.625, 12.541, -2.548
700577.86607, 3,  -1.230,  6.106, -2.156, 4,  -0.041,  0.279, -0.120
700577.88597, 3,  -0.141, 16.108, -2.950
700577.90584, 3,   0.376, 11.445, -0.701
700577.92570, 3,   0.010,  5.805,  1.811, 4,  -0.157,  0.005, -0.096, 5, -20.268,-53.961, 23.703
700577.94557, 3,  -0.670, 10.679, -0.215
700577.96544, 3,   0.301, 10.397, -2.132
700577.98531, 3,  -0.285,  8.224, -4.831, 4,   0.070, -0.062, -0.109, 5, -16.956,-55.307, 27.139
700578.00517, 3,  -0.349,  8.413, -5.798
700578.02504, 3,   0.677, 10.232, -4.989
700578.04491, 3,   0.675,  9.779, -1.792, 4,  -0.008,  0.135, -0.078, 5, -17.430,-54.082, 26.595
700578.06477, 3,  -0.488,  6.173, -0.790
700578.08464, 3,  -0.605, 14.386, -2.912
700578.10451, 3,  -0.952,  4.606, -1.388, 4,  -0.025,  0.175, -0.140, 5, -16.614,-54.254, 27.458
700578.12437, 3,  -0.562, 11.617, -3.795
700578.14424, 3,  -0.502, 12.718, -3.398
700578.16411, 3,  -0.603,  8.717, -0.589, 4,   0.006, -0.108, -0.126, 5, -16.653,-54.446, 28.282
700578.18401, 3,  -0.313, 12.608, -1.048
700578.20387, 3,  -0.045, 12.203, -1.280
700578.22374, 3,  -0.467,  4.489, -1.460, 4,   0.052, -0.196, -0.116, 5, -14.938,-53.178, 31.262
700578.24361, 3,  -0.658,  6.056, -2.668
700578.26347, 3,  -0.589,  7.111, -6.530
700578.28334, 3,  -1.323,  9.732,-10.184, 4,   0.116, -0.235, -0.059, 5, -15.805,-54.099, 30.539
700578.30321, 3,  -0.148, 20.119, -2.254
700578.32307, 3,  -0.242,  7.126,  3.302
700578.34294, 3,   0.055,  3.211,  2.168, 4,  -0.217,  0.017,  0.020, 5, -16.246,-53.589, 30.643
700578.36278, 3,   0.007, 13.397, -1.244
700578.38264, 3,   0.050, 15.297, -0.766
700578.40251, 3,  -0.232,  9.229, -0.668, 4,   0.074,  0.023,  0.005
700578.42238, 3,   0.785,  7.664, -2.991
700578.44225, 3,   0.567,  7.561, -4.496
700578.46214, 3,  -1.146, 10.835, -4.412, 4,   0.062,  0.053, -0.005, 5, -17.424,-50.444, 34.215
700578.48201, 3,  -1.053, 11.000, -2.931
700578.50188, 3,  -0.890, 10.806, -2.130
700578.52174, 3,  -0.031, 10.227, -0.847, 4,  -0.120, -0.000, -0.002
700578.54161, 3,   0.294,  9.007,  0.065
700578.56148, 3,   0.172, 10.426,  0.232
700578.58134, 3,  -0.388, 10.799, -0.132, 4,  -0.086,  0.011, -0.013, 5, -17.061,-48.917, 32.605
700578.60121, 3,  -0.361,  3.740,  0.270
700578.62108, 3,  -0.251, 12.715, -9.181
700578.64095, 3,  -1.665, 18.463,-10.335, 4,   0.212, -0.026, -0.046, 5, -16.585,-48.416, 34.166
700578.66020, 3,  -1.553,  0.761, -1.615
700578.68068, 3,  -0.108,  7.198, -0.931
700578.70055, 3,   1.225, 14.735, -1.464, 4,  -0.103,  0.007,  0.007, 5, -16.739,-46.233, 33.597
700578.72041, 3,  -0.340, 12.335, -1.448
700578.74031, 3,  -0.787,  9.830, -1.498
700578.76018, 3,  -0.309,  5.728, -0.531, 4,   0.067, -0.026, -0.059, 5, -16.722,-45.293, 31.154
700578.78004, 3,  -0.565,  9.669, -3.070
700578.79991, 3,  -1.768, 10.985, -5.640
700578.81978, 3,  -1.481, 11.184, -3.328, 4,   0.126, -0.163, -0.034, 5, -17.166,-46.068, 32.529
700578.83965, 3,  -1.417,  2.532, -1.560
700578.85951, 3,  -0.622, 11.225, -3.728
700578.87938, 3,  -0.017, 16.762, -1.204, 4,  -0.026, -0.070,  0.045, 5, -17.752,-44.853, 31.268
700578.89925, 3,  -0.371,  8.980,  1.139
700578.91911, 3,  -0.048,  6.992, -1.359
700578.93898, 3,   1.129,  8.590, -2.721, 4,  -0.008,  0.081,  0.036
700578.95885, 3,  -0.325, 10.820, -3.240
700578.97871, 3,  -1.452, 10.325, -2.826
700578.99858, 3,  -1.239,  8.018, -2.000, 4,   0.005,  0.127, -0.013, 5, -17.664,-42.337, 29.655
700579.01845, 3,  -1.677,  7.700, -3.453
700579.03835, 3,  -1.661, 11.017, -5.274
700579.05821, 3,  -0.897, 11.308, -4.822, 4,  -0.053, -0.000,  0.010
700579.07805, 3,   0.668, 10.945, -0.711
700579.09792, 3,   0.371,  3.740,  0.268
700579.11778, 3,   0.249, 14.256, -3.647, 4,  -0.090,  0.027,  0.032, 5, -18.654,-42.162, 29.692
700579.13765, 3,  -0.962, 10.950, -2.015
700579.15752, 3,  -0.852,  9.739, -0.634
700579.17738, 3,   0.225,  5.590, -2.716, 4,   0.051,  0.069, -0.022, 5, -19.626,-42.964, 29.282
700579.19725, 3,   0.120,  9.638, -6.446
700579.21712, 3,  -1.486, 10.469, -5.166
700579.23698, 3,  -1.295,  5.611, -2.625, 4,   0.038,  0.011, -0.024, 5, -18.123,-41.803, 28.595
700579.25685, 3,   0.328, 10.761, -2.934
700579.27672, 3,  -0.127,  9.502, -2.457
700579.29658, 3,  -0.962,  8.944, -2.299, 4,  -0.032,  0.002, -0.013, 5, -18.396,-41.095, 28.061
700579.31648, 3,  -0.823, 11.330, -3.068
700579.33635, 3,  -0.048, 11.823, -1.574
700579.35622, 3,   0.117,  8.250,  0.368, 4,  -0.007,  0.008, -0.026, 5, -18.542,-42.104, 26.933
700579.37608, 3,   0.177, 10.052, -2.634
700579.39595, 3,  -0.658,  9.375, -4.295
700579.41582, 3,  -0.404,  8.624, -5.042, 4,   0.106, -0.017, -0.054, 5, -17.465,-39.639, 25.134
700579.43568, 3,  -0.847, 10.359, -6.004
700579.45555, 3,  -1.347,  7.188, -1.627
700579.47542, 3,  -2.900,  7.624, -1.653, 4,  -0.042, -0.056, -0.017, 5, -17.459,-40.898, 25.739
700579.49528, 3,  -0.615, 11.378, -0.455
700579.51515, 3,  -0.014,  8.093, -0.713
700579.53502, 3,  -0.625,  9.519, -1.630, 4,  -0.006, -0.091,  0.024, 5, -18.138,-41.795, 25.488
700579.55489, 3,  -1.034, 10.571, -1.220
700579.57475, 3,  -0.902,  7.164, -3.747
700579.59462, 3,  -0.402,  9.806, -3.312, 4,   0.077,  0.048,  0.035
700579.61452, 3,   0.345, 10.938, -0.522
700579.63438, 3,  -0.426,  8.995, -1.594
700579.65425, 3,  -0.878, 11.610, -5.252, 4,  -0.001,  0.099,  0.023, 5, -18.459,-42.271, 25.652
700579.67412, 3,   0.160,  9.138, -0.385
700579.69398, 3,  -0.340,  7.951, -0.366
700579.71385, 3,   0.227, 10.253, -1.548, 4,  -0.061,  0.024,  0.003, 5, -19.273,-41.937, 24.982
700579.73369, 3,  -0.230,  7.207, -2.142
700579.75356, 3,   0.301, 10.074, -4.709
700579.77342, 3,  -0.818,  8.480, -3.159, 4,   0.022,  0.025, -0.004, 5, -19.205,-42.087, 24.469
700579.79329, 3,  -1.249, 11.921, -3.434
700579.81316, 3,  -1.218,  6.549, -1.967
700579.83302, 3,  -0.301, 12.883, -1.759, 4,  -0.104,  0.039,  0.008, 5, -20.012,-42.877, 25.255
700579.85289, 3,   0.005, 12.553, -2.084
700579.87276, 3,  -0.859,  7.399,  0.849
700579.89265, 3,   0.622,  8.468, -0.541, 4,  -0.066,  0.032,  0.015, 5, -19.727,-42.032, 24.515
700579.91252, 3,  -0.787,  7.662, -2.673
700579.93239, 3,  -0.840, 10.361, -5.137
700579.95226, 3,  -0.519, 10.648, -5.661, 4,   0.087,  0.124, -0.037, 5, -20.673,-43.274, 24.188
700579.97212, 3,  -0.593,  6.554, -3.202
700579.99199, 3,   0.847,  5.008, -0.823
700580.01186, 3,  -0.029, 16.850, -2.637, 4,  -0.107, -0.005, -0.018, 5, -20.349,-43.092, 24.559
700580.03172, 3,   0.433, 15.635, -0.278
700580.05159, 3,  -0.158, -1.328,  1.790
700580.07146, 3,   0.526,  8.973, -2.290, 4,  -0.023, -0.099, -0.050, 5, -21.021,-43.658, 23.793
700580.09132, 3,  -1.041, 18.800, -4.465
700580.11119, 3,  -0.555,  9.071,  0.167
700580.13106, 3,   0.278,  4.824, -1.206, 4,  -0.016, -0.070, -0.009
700580.15092, 3,   0.459, 13.955, -4.142
700580.17082, 3,  -1.216, 12.134, -3.015
700580.19069, 3,  -0.859,  8.341, -1.598, 4,  -0.052, -0.110, -0.003, 5, -20.004,-42.516, 24.886
700580.21056, 3,  -0.481, 10.179, -1.945
700580.23042, 3,  -1.235,  8.782, -0.890
700580.25029, 3,   0.148,  9.547, -1.151, 4,  -0.045, -0.027,  0.035
700580.27016, 3,   0.163, 10.667, -2.783
700580.29002, 3,  -0.991, 11.675, -2.690
700580.30989, 3,  -0.909,  3.599, -1.725, 4,   0.042,  0.134,  0.017, 5, -20.490,-43.761, 23.473
700580.32976, 3,  -0.548, 10.117, -0.301
700580.34962, 3,  -2.024, 16.020, -4.700
700580.36949, 3,  -1.027,  9.392, -0.421, 4,   0.027,  0.085,  0.017, 5, -19.626,-43.008, 24.200
700580.38933, 3,   1.244,  4.128,  1.687
700580.40923, 3,   0.895, 10.672, -1.419
700580.42906, 3,  -0.869, 12.132, -4.384, 4,   0.021, -0.067,  0.009, 5, -20.581,-42.668, 22.850
700580.44893, 3,  -1.338, 10.399, -3.678
700580.46883, 3,  -0.263,  9.160, -1.766
700580.48869, 3,   0.175,  9.610, -0.780, 4,  -0.033, -0.101,  0.002, 5, -18.909,-45.743, 24.757
700580.50856, 3,   0.352, 10.327, -0.012
700580.52843, 3,   0.167,  8.928,  0.924
700580.54829, 3,  -1.524, 12.682, -1.278, 4,  -0.022, -0.002,  0.004, 5, -20.665,-43.994, 24.927
700580.56816, 3,  -2.783,  7.198, -2.276
700580.58803, 3,  -1.708,  6.080, -2.206
700580.60789, 3,  -1.519, 12.105, -2.496, 4,   0.007,  0.052,  0.056, 5, -19.995,-42.085, 24.196
700580.62776, 3,  -1.302, 12.385, -1.476
700580.64763, 3,   0.220,  9.538, -0.017
700580.66750, 3,   0.297,  8.487, -0.622, 4,  -0.075,  0.032,  0.122
700580.68736, 3,  -0.144,  9.243, -1.457
700580.70723, 3,   0.074, 11.230, -4.341
700580.72710, 3,   0.313,  9.332, -3.608, 4,   0.072,  0.156,  0.086, 5, -21.773,-42.001, 23.825
700580.74699, 3,   0.680,  9.308, -3.886
700580.76686, 3,   0.105,  9.181, -3.592
700580.78673, 3,   0.553,  8.899, -0.893, 4,  -0.018,  0.259,  0.052
700580.80659, 3,   0.278,  8.619, -0.086
700580.82646, 3,  -0.840, 10.887, -1.443
700580.84633, 3,  -0.830, 11.852, -0.524, 4,   0.051,  0.107, -0.014, 5, -22.670,-42.213, 22.740
700580.86620, 3,  -0.967,  6.281, -1.945
700580.88606, 3,  -1.053, 10.251, -3.123
700580.90593, 3,   0.026, 14.158, -2.108, 4,   0.033,  0.010,  0.037, 5, -22.865,-42.618, 22.740
700580.92580, 3,   0.007,  8.810,  0.725
700580.94566, 3,   0.816,  7.705,  0.720
700580.96553, 3,   0.258,  9.188, -2.532, 4,  -0.048,  0.042,  0.069, 5, -19.382,-43.964, 27.094
700580.98540, 3,   0.213, 14.099, -3.415
700581.00526, 3,   0.627,  9.138, -0.531
700581.02513, 3,   0.627,  6.855, -1.546, 4,   0.016,  0.186,  0.010, 5, -22.333,-42.255, 22.214
700581.04503, 3,  -0.627,  8.973, -3.620
700581.06486, 3,  -0.644, 11.294, -3.139
700581.08476, 3,  -0.670,  9.392, -1.926, 4,   0.019,  0.266,  0.015, 5, -24.007,-43.387, 23.117
700581.10463, 3,  -0.134,  7.982, -1.840
700581.12447, 3,  -0.888, 11.119, -2.343
700581.14433, 3,   0.416, 10.753, -1.330, 4,  -0.009,  0.184,  0.017, 5, -23.607,-43.454, 22.742
700581.16420, 3,   0.203,  9.153, -0.522
700581.18407, 3,   0.301,  6.633, -3.400
700581.20393, 3,  -0.323, 13.132, -3.690, 4,   0.022,  0.213,  0.013, 5, -22.675,-43.886, 22.057
700581.22380, 3,   0.069, 12.306, -2.039
700581.24367, 3,   0.280,  8.897,  0.237
700581.26353, 3,   1.036,  9.650, -1.780, 4,  -0.027,  0.242,  0.009, 5, -23.802,-42.639, 22.244
700581.28340, 3,   0.033,  9.739, -1.290
700581.30327, 3,   0.294, 11.258, -1.103
700581.32317, 3,  -0.110,  9.071, -1.376, 4,   0.026,  0.180, -0.048
700581.34303, 3,   0.115,  8.308, -2.087
700581.36290, 3,  -0.584, 10.988, -2.314
700581.38277, 3,  -0.062,  9.251, -3.204, 4,   0.012,  0.034, -0.043, 5, -23.630,-42.883, 22.012
700581.40263, 3,  -0.873,  9.940,  0.447
700581.42250, 3,  -0.919, 11.660, -2.778
700581.44237, 3,  -0.445, 11.720, -4.685, 4,   0.004, -0.130, -0.016, 5, -23.256,-42.833, 21.910
700581.46162, 3,  -0.692,  8.128, -0.711
700581.48210, 3,  -0.476,  9.753, -1.261
700581.50197, 3,   1.070, 12.739, -0.986, 4,  -0.014, -0.189,  0.050, 5, -24.434,-42.198, 21.283
700581.52184, 3,   0.141,  5.953, -1.445
700581.54170, 3,   0.694,  8.303, -3.118
700581.56157, 3,   0.945, 12.907, -3.508, 4,   0.059, -0.064,  0.084, 5, -23.132,-44.489, 22.745
700581.58144, 3,   0.342, 11.052, -1.979
700581.60133, 3,   0.514,  8.207, -0.414
700581.62120, 3,   0.919,  9.849, -1.239, 4,  -0.038,  0.038,  0.071, 5, -24.217,-42.433, 23.691
700581.64107, 3,   2.240, 11.799, -1.378
700581.66093, 3,   0.890,  9.456, -2.110
700581.68080, 3,   1.070,  8.454, -0.914, 4,   0.019, -0.036,  0.032, 5, -23.885,-41.440, 23.460
700581.70067, 3,   1.981,  8.959, -2.656
700581.72054, 3,   0.625, 10.665, -1.086
700581.74040, 3,   0.079, 10.660, -0.471, 4,   0.005,  0.023, -0.049, 5, -23.227,-42.279, 22.864
700581.76027, 3,  -0.531,  9.413, -0.572
700581.78011, 3,  -0.388,  9.239, -0.648
700581.79997, 3,   1.933,  7.346, -1.847, 4,   0.001, -0.101, -0.061, 5, -22.371,-41.890, 22.511
700581.81984, 3,   1.976,  9.337, -2.998
700581.83971, 3,   0.634, 11.517, -1.668
700581.85957, 3,  -1.043, 10.574, -2.924, 4,  -0.009, -0.165, -0.056
700581.87944, 3,  -0.562,  9.052,  0.629
700581.89934, 3,  -0.962,  9.026, -1.220
700581.91920, 3,  -1.330, 12.816, -1.775, 4,  -0.059, -0.430, -0.012, 5, -22.977,-42.621, 22.740
700581.93907, 3,  -1.311,  8.928, -0.062
700581.95894, 3,  -1.067,  8.502, -2.900
700581.97881, 3,  -0.273,  9.236, -2.290, 4,  -0.006, -0.732,  0.085, 5, -22.668,-42.598, 23.471
700581.99867, 3,   1.395, 10.598, -2.912
700582.01854, 3,   2.280, 12.436, -1.945
700582.03841, 3,   3.147,  8.882, -0.641, 4,  -0.059, -0.671,  0.144, 5, -20.844,-42.561, 24.196
700582.05827, 3,   2.694,  8.679, -2.240
700582.07814, 3,   1.419,  9.011, -2.204
700582.09801, 3,  -0.077, 11.897, -3.027, 4,   0.021, -0.075,  0.034, 5, -22.348,-42.267, 24.571
700582.11787, 3,  -0.237, 10.277, -1.433
700582.13774, 3,   0.029,  7.600, -2.158
700582.15761, 3,  -0.022,  7.731, -0.407, 4,  -0.006, -0.066,  0.015, 5, -21.466,-41.875, 25.076
700582.17751, 3,  -0.483, 11.316, -2.046
700582.19737, 3,  -0.878, 11.134, -0.325
700582.21724, 3,  -0.357,  9.708, -0.234, 4,   0.020, -0.358,  0.044, 5, -20.670,-39.157, 24.266
700582.23711, 3,  -0.713, 10.272,  0.368
700582.25697, 3,  -0.672,  9.882, -0.175
700582.27684, 3,  -0.749, 11.060, -1.010, 4,   0.057, -0.524,  0.095, 5, -19.092,-42.308, 26.871
700582.29671, 3,  -0.464,  9.720, -0.091
700582.31657, 3,   0.665, 10.153, -0.002
700582.33644, 3,   1.414,  9.516, -1.244, 4,   0.028, -0.476,  0.167, 5, -21.034,-41.455, 28.549
700582.35631, 3,   0.412,  9.533, -2.340
700582.37617, 3,   0.412,  9.842, -1.055
700582.39604, 3,   0.349, 10.002, -1.689, 4,   0.029, -0.011,  0.165
700582.41591, 3,   0.294, 10.057, -0.122
700582.43578, 3,   3.395, 11.136, -8.069
700582.45564, 3,   3.271,  8.755, -0.864, 4,  -0.013,  0.214,  0.133, 5, -22.493,-41.643, 25.818
700582.47554, 3,   2.424,  9.569, -0.242
700582.49538, 3,   0.359,  9.992,  0.586
700582.51524, 3,  -0.287, 11.292, -1.838, 4,   0.034,  0.756, -0.008
700582.53511, 3,  -1.472,  9.966, -2.316
700582.55498, 3,  -0.960,  8.971, -1.134
700582.57484, 3,   0.086,  8.923, -1.828, 4,   0.031,  0.186, -0.001, 5, -22.766,-40.045, 25.476
700582.59471, 3,   0.067, 10.031, -1.630
700582.61458, 3,  -0.194, 10.452, -0.790
700582.63444, 3,   0.007, 10.189, -0.747, 4,  -0.022, -0.100,  0.045, 5, -23.283,-40.001, 24.913
700582.65431, 3,   0.787,  9.875, -1.828
700582.67418, 3,   1.641,  8.971, -3.072
700582.69405, 3,   1.677,  9.320, -3.020, 4,  -0.013, -0.124,  0.050, 5, -21.346,-40.446, 24.861
