701973.61500, 3,  -0.172,  9.665, -2.445
701973.65480, 3,  -0.172,  9.665, -2.445
701973.67463, 3,  -0.172,  9.665, -2.445, 4,  -0.008, -0.021, -0.037
701973.69450, 3,  -0.538,  9.631, -2.900
701973.71437, 3,  -0.486,  9.607, -2.742
701973.73423, 3,  -0.361,  9.619, -2.551, 4,  -0.009, -0.024,  0.029, 5,  21.411,-38.335, 15.541
701973.75410, 3,  -0.170,  9.614, -2.551
701973.77397, 3,  -0.177,  9.629, -2.515
701973.79383, 3,  -0.323,  9.686, -2.503, 4,  -0.004,  0.007,  0.034, 5,  22.464,-38.611, 16.995
701973.81370, 3,  -0.318,  9.693, -2.493
701973.83354, 3,  -0.304,  9.701, -2.383
701973.85341, 3,  -0.345,  9.686, -2.352, 4,  -0.007,  0.007,  0.042, 5,  21.957,-39.375, 17.429
701973.87327, 3,  -0.325,  9.691, -2.410
701973.89314, 3,  -0.383,  9.653, -2.355
701973.91301, 3,  -0.378,  9.741, -2.376, 4,  -0.007,  0.013,  0.057, 5,  23.271,-40.680, 17.639
701973.93290, 3,  -0.335,  9.686, -2.501
701973.95277, 3,  -0.266,  9.650, -2.460
701973.97264, 3,  -0.167,  9.669, -2.465, 4,  -0.009,  0.015,  0.069, 5,  21.393,-40.813, 16.521
701973.99250, 3,  -0.022,  9.629, -2.450
701974.01237, 3,  -0.017,  9.633, -2.434
701974.03224, 3,   0.002,  9.653, -2.510, 4,  -0.007,  0.025,  0.072, 5,  21.404,-40.388, 16.998
701974.05210, 3,  -0.026,  9.650, -2.570
701974.07197, 3,   0.026,  9.655, -2.632
701974.09184, 3,   0.091,  9.643, -2.524, 4,  -0.013, -0.006,  0.071
701974.11168, 3,   0.132,  9.607, -2.486
701974.13154, 3,   0.086,  9.595, -2.654
701974.15141, 3,   0.031,  9.598, -2.737, 4,  -0.017, -0.049,  0.065, 5,  21.407,-40.192, 16.365
701974.17128, 3,   0.297,  9.373, -3.637
701974.19114, 3,   0.234,  9.421, -2.532
701974.21104, 3,   0.098,  9.614, -1.979, 4,  -0.027, -0.054,  0.051
701974.23091, 3,   0.457,  9.550, -2.503
701974.25077, 3,   0.625,  9.701, -2.563
701974.27064, 3,   0.591,  9.607, -2.747, 4,  -0.004, -0.128,  0.034, 5,  20.731,-40.547, 16.273
701974.29051, 3,   0.694,  9.523, -2.503
701974.31038, 3,   0.792,  9.665, -2.096
701974.33024, 3,   0.919,  9.641, -2.177, 4,  -0.011, -0.186, -0.005, 5,  21.388,-41.296, 17.001
701974.35008, 3,   0.804,  9.581, -2.376
701974.36995, 3,   0.486,  9.653, -2.268
701974.38981, 3,  -0.407,  9.799, -2.321, 4,   0.019,  0.028, -0.038, 5,  20.676,-41.473, 16.928
701974.40968, 3,  -1.278,  9.885, -3.063
701974.42955, 3,  -1.330,  9.784, -2.587
701974.44941, 3,  -1.510,  9.851, -1.474, 4,  -0.002,  0.080,  0.012, 5,  20.596,-40.692, 16.713
701974.46928, 3,  -0.816,  9.954, -2.089
701974.48915, 3,  -0.007,  9.588, -2.792
701974.50904, 3,  -0.175,  9.686, -2.297, 4,  -0.001,  0.020,  0.067, 5,  20.627,-40.057, 16.148
701974.52891, 3,   0.045,  9.787, -2.333
701974.54878, 3,   0.378,  9.669, -2.051
701974.56865, 3,   0.644,  9.614, -2.216, 4,  -0.009,  0.035,  0.066
701974.58848, 3,   0.692,  9.693, -2.316
701974.60835, 3,   0.692,  9.624, -2.457
701974.62822, 3,   0.828,  9.626, -2.429, 4,   0.002,  0.019,  0.034, 5,  20.737,-40.309, 15.744
701974.64808, 3,   0.842,  9.672, -2.357
701974.66795, 3,   0.787,  9.607, -2.426
701974.68782, 3,   0.467,  9.645, -2.343, 4,   0.002, -0.018, -0.002, 5,  21.725,-40.094, 17.191
701974.70768, 3,   0.282,  9.708, -2.242
701974.72755, 3,   0.077,  9.667, -2.556
701974.74742, 3,  -0.364,  9.672, -2.701, 4,   0.010,  0.033, -0.016
701974.76728, 3,  -0.873,  9.801, -2.465
701974.78718, 3,  -0.708,  9.794, -2.405
701974.80705, 3,  -0.818,  9.701, -2.766, 4,   0.003,  0.033,  0.022, 5,  20.334,-40.839, 16.998
701974.82689, 3,  -1.046,  9.602, -2.706
701974.84675, 3,  -1.172,  9.818, -2.110
701974.86662, 3,  -0.505,  9.842, -2.276, 4,  -0.005,  0.024,  0.081, 5,  19.525,-40.858, 16.568
701974.88649, 3,   0.038,  9.705, -2.340
701974.90635, 3,  -0.124,  9.693, -2.292
701974.92622, 3,  -0.354,  9.660, -2.898, 4,  -0.007, -0.063,  0.118, 5,  20.041,-41.515, 15.681
701974.94609, 3,  -0.311,  9.641, -2.941
701974.96595, 3,  -0.261,  9.552, -1.969
701974.98582, 3,  -0.493,  9.794, -2.096, 4,  -0.020, -0.014,  0.153, 5,  19.153,-41.115, 16.510
701975.00569, 3,  -0.191,  9.842, -2.462
701975.02555, 3,  -1.189,  9.430, -3.704
701975.04542, 3,  -1.412,  9.612, -3.190, 4,  -0.036, -0.056,  0.211, 5,  19.676,-40.144, 17.136
701975.06532, 3,  -0.172,  9.593, -1.610
701975.08516, 3,   0.409,  9.602, -2.828
701975.10502, 3,   1.251,  9.392, -3.111, 4,  -0.046, -0.244,  0.255
701975.12489, 3,   1.651,  9.239, -2.895
701975.14476, 3,   1.438,  9.624, -2.871
701975.16462, 3,   1.558,  9.528, -2.520, 4,  -0.031,  0.046,  0.202, 5,  18.733,-44.168, 16.817
701975.18449, 3,   1.603,  9.358, -2.857
701975.20436, 3,   0.632,  9.588, -2.788
701975.22422, 3,  -0.026,  9.722, -2.814, 4,  -0.018,  0.165,  0.161, 5,  17.618,-42.197, 15.982
701975.24409, 3,   0.440,  9.507, -2.608
701975.26396, 3,   1.177,  9.241, -2.766
701975.28382, 3,   1.012,  9.614, -2.338, 4,  -0.028, -0.035,  0.167
701975.30369, 3,   1.206,  9.698, -2.644
701975.32353, 3,   1.529,  9.442, -2.788
701975.34340, 3,   1.639,  9.375, -2.864, 4,  -0.024,  0.000,  0.136, 5,  17.137,-42.107, 16.994
701975.36329, 3,   1.438,  9.619, -2.713
701975.38316, 3,   0.909,  9.478, -2.414
701975.40303, 3,   0.675,  9.535, -2.568, 4,  -0.019,  0.108,  0.109, 5,  17.958,-41.614, 18.230
701975.42289, 3,   1.036,  9.442, -3.242
701975.44276, 3,   1.206,  9.232, -3.058
701975.46263, 3,   1.170,  9.354, -2.596, 4,  -0.024,  0.030,  0.100, 5,  17.787,-41.043, 16.566
701975.48249, 3,   1.577,  9.519, -3.328
701975.50236, 3,   2.170,  9.368, -3.584
701975.52223, 3,   2.859,  9.279, -3.544, 4,  -0.034,  0.013,  0.055, 5,  16.714,-41.200, 17.601
701975.54210, 3,   3.022,  8.035, -2.412
701975.56196, 3,   2.912, 10.404, -4.704
701975.58180, 3,   0.323, 10.749, -3.505, 4,  -0.002,  0.222, -0.054, 5,  16.211,-41.846, 15.938
701975.60167, 3,   0.036,  8.215, -2.486
701975.62153, 3,   0.708,  8.569, -2.881
701975.64143, 3,   1.457, 10.241, -4.077, 4,  -0.007,  0.020, -0.044
701975.66130, 3,   0.371,  9.511, -2.469
701975.68116, 3,   0.057,  9.464, -3.982
701975.70103, 3,  -0.115,  8.858, -3.716, 4,   0.034, -0.046, -0.045, 5,  16.187,-42.516, 15.544
701975.72090, 3,  -0.019,  9.449, -4.166
701975.74076, 3,   0.134,  9.468, -3.371
701975.76063, 3,   0.706,  9.588, -3.484, 4,   0.021, -0.092, -0.010
701975.78050, 3,   0.201,  9.633, -3.793
701975.80037, 3,  -0.036,  9.325, -3.290
701975.82020, 3,   0.002,  9.665, -3.872, 4,   0.014, -0.183,  0.017, 5,  15.726,-41.283, 14.471
701975.84007, 3,   0.337,  8.693, -2.362
701975.85994, 3,   1.046,  9.547, -5.149
701975.87980, 3,   1.058,  8.456, -4.525, 4,   0.000, -0.246,  0.041, 5,  17.377,-42.960, 14.998
701975.89967, 3,   0.158,  9.672, -3.312
701975.91954, 3,   1.460,  9.167, -2.749
701975.93943, 3,   1.685,  9.476, -5.709, 4,  -0.005, -0.264,  0.032
701975.95930, 3,   2.091,  9.428, -4.479
701975.97917, 3,   2.632,  8.691, -3.235
701975.99903, 3,   2.745,  8.595, -4.233, 4,   0.047,  0.116, -0.045, 5,  16.696,-41.884, 15.791
701976.01890, 3,   2.304,  8.844, -5.898
701976.03877, 3,   1.385,  8.755, -4.661
701976.05864, 3,   0.763,  8.590, -3.072, 4,   0.060,  0.336, -0.147, 5,  17.638,-41.478, 14.537
701976.07847, 3,   0.883,  9.473, -3.431
701976.09834, 3,   1.251,  9.375, -1.730
701976.11821, 3,   0.526,  8.672, -1.053, 4,   0.122, -0.076, -0.180, 5,  16.609,-41.640, 15.541
701976.13746, 3,   0.821,  9.014, -1.158
701976.15794, 3,   2.087, 10.150, -5.224
701976.17781, 3,   1.204,  9.090, -5.190, 4,   0.168, -0.303, -0.200, 5,  20.644,-43.411, 18.715
701976.19767, 3,  -0.940,  9.485, -4.202
701976.21757, 3,  -1.543,  9.624, -3.953
701976.23744, 3,  -0.287, 10.117, -2.809, 4,  -0.061, -0.368, -0.182, 5,  20.810,-42.537, 17.004
701976.25731, 3,   1.235, 10.495, -1.117
701976.27717, 3,   0.036, 10.705, -1.357
701976.29704, 3,  -1.194, 10.763, -1.146, 4,  -0.026, -0.056, -0.144
701976.31691, 3,  -1.177,  7.040, -2.273
701976.33674, 3,  -1.551,  8.846, -4.908
701976.35661, 3,  -0.627, 10.804, -4.520, 4,  -0.037, -0.100, -0.063, 5,  19.179,-40.147, 13.852
701976.37648, 3,   0.433, 10.382, -2.443
701976.39634, 3,   0.345,  9.239, -0.385
701976.41621, 3,   0.493,  9.354, -1.618, 4,  -0.023, -0.065, -0.045, 5,  20.724,-40.828, 15.848
701976.43608, 3,   0.390,  9.928, -3.434
701976.45594, 3,  -0.151,  7.801, -4.049
701976.47581, 3,  -0.761, 10.148, -5.204, 4,   0.034,  0.091, -0.062
701976.49568, 3,  -0.562,  9.969, -4.637
701976.51558, 3,  -1.077,  9.708, -2.510
701976.53544, 3,  -0.854,  9.744, -3.120, 4,  -0.034, -0.019, -0.046, 5,  21.083,-40.816, 14.819
701976.55531, 3,  -0.201,  9.279, -2.891
701976.57515, 3,   0.548,  9.188, -4.611
701976.59501, 3,   0.711,  9.342, -5.544, 4,  -0.002, -0.126, -0.041, 5,  20.541,-40.829, 14.818
701976.61488, 3,   0.002, 10.210, -4.807
701976.63475, 3,   0.629,  9.337, -1.842
701976.65461, 3,   0.591,  8.698, -1.981, 4,  -0.056, -0.153, -0.055, 5,  21.390,-40.805, 14.095
701976.67448, 3,   0.464,  9.217, -2.938
701976.69435, 3,   1.826,  9.741, -4.805
701976.71421, 3,   1.122, 10.107, -3.879, 4,   0.003,  0.004, -0.091, 5,  21.884,-40.608, 13.560
701976.73408, 3,  -0.565,  8.473, -2.754
701976.75395, 3,  -0.361,  8.739, -2.869
701976.77382, 3,   0.313,  9.854, -1.522, 4,  -0.103, -0.265, -0.092, 5,  21.036,-40.773, 13.753
701976.79371, 3,   1.716, 11.655, -0.744
701976.81355, 3,   1.216,  7.743, -0.337
701976.83342, 3,   0.237,  6.745, -1.603, 4,  -0.025, -0.628, -0.084
701976.85328, 3,  -0.117,  9.294, -4.546
701976.87315, 3,   0.376, 11.938, -6.406
701976.89302, 3,   1.874, 10.150, -5.058, 4,  -0.035, -0.544, -0.080, 5,  22.131,-40.913,  9.874
701976.91288, 3,   1.622,  7.580, -2.847
701976.93275, 3,  -0.522, 11.301, -3.611
701976.95262, 3,  -2.816, 10.095, -3.029, 4,  -0.020, -0.382, -0.117
701976.97248, 3,  -2.780,  9.011, -4.242
701976.99235, 3,  -3.436,  8.186, -4.018
701977.01222, 3,  -4.053,  8.533, -4.125, 4,   0.021, -0.705,  0.022, 5,  23.149,-41.472, 11.432
701977.03209, 3,  -2.871, 10.765, -4.070
701977.05195, 3,  -2.362, 11.244, -2.536
701977.07182, 3,  -1.536,  8.236, -1.450, 4,   0.135, -0.264,  0.215, 5,  22.437,-41.350, 10.468
701977.09169, 3,  -1.046,  7.827, -4.094
701977.11155, 3,  -0.249,  9.588, -6.659
701977.13142, 3,   0.632,  9.665, -6.422, 4,   0.195,  0.560,  0.209, 5,  23.091,-41.568, 10.042
701977.15129, 3,   0.897,  9.964, -4.197
701977.17115, 3,   1.845,  7.289, -0.203
701977.19102, 3,   1.744,  9.476, -1.718, 4,   0.111,  0.747,  0.081, 5,  20.744,-43.488, 12.555
701977.21089, 3,   1.644, 12.223, -3.089
701977.23075, 3,   3.321, 11.048, -1.859
701977.25062, 3,   2.843,  7.229,  0.022, 4,   0.068,  0.831, -0.113, 5,  22.148,-42.795, 13.087
701977.27049, 3,   2.883,  9.488, -2.544
701977.29036, 3,   1.053, 10.059, -5.224
701977.31019, 3,  -1.383, 11.471, -4.214, 4,  -0.018,  0.414, -0.289, 5,  21.362,-42.003, 14.098
701977.33006, 3,  -2.158,  7.174, -0.160
701977.34993, 3,  -1.718,  8.301, -0.211
701977.36982, 3,  -2.163, 11.220, -4.142, 4,   0.011,  0.107, -0.233
701977.38969, 3,  -1.228, 11.380, -4.477
701977.40956, 3,  -3.982,  9.133, -0.794
701977.42942, 3,  -3.974,  9.851, -0.062, 4,  -0.128, -0.140, -0.107, 5,  22.311,-41.066, 13.655
701977.44929, 3,  -2.280,  9.842, -0.895
701977.46916, 3,  -2.347, 10.205, -2.345
701977.48903, 3,  -1.357, 10.227, -3.489, 4,  -0.004, -0.087,  0.026
701977.50889, 3,   1.673, 15.501,  0.194
701977.52876, 3,   1.668,  5.326,  3.362
701977.54863, 3,  -0.383,  8.971, -4.862, 4,   0.079,  0.445,  0.029, 5,  23.015,-41.481, 14.044
701977.56846, 3,  -2.185,  8.660, -8.174
701977.58833, 3,   0.835,  6.992, -4.537
701977.60820, 3,   1.771,  9.277, -2.536, 4,  -0.121, -0.155,  0.017, 5,  23.682,-41.467, 15.024
701977.62806, 3,   1.168, 10.780, -2.065
701977.64796, 3,   0.964,  9.389, -3.943
701977.66783, 3,   1.577,  9.179, -6.631, 4,   0.081, -0.022, -0.120, 5,  22.723,-40.782, 14.104
701977.68769, 3,   2.113,  8.102, -7.341
701977.70756, 3,   1.962,  7.710, -5.262
701977.72743, 3,  -0.462,  9.346, -4.154, 4,  -0.042, -0.088, -0.223, 5,  22.716,-41.153, 15.016
701977.74730, 3,  -0.888,  9.641, -3.106
701977.76716, 3,  -1.787,  9.495, -2.386
701977.78703, 3,  -2.359, 10.232, -2.723, 4,   0.005, -0.877, -0.207, 5,  24.356,-41.449, 14.102
701977.80690, 3,  -0.921, 10.964, -3.008
701977.82673, 3,  -2.158,  6.248, -1.907
701977.84660, 3,  -3.852, 10.990, -6.401, 4,   0.028, -0.690, -0.040, 5,  23.549,-39.766, 13.370
701977.86647, 3,  -1.735, 11.462, -5.039
701977.88633, 3,   0.170,  9.645,  0.584
701977.90620, 3,   0.333,  8.454, -5.233, 4,  -0.001, -0.345,  0.085, 5,  26.520,-42.738, 15.427
701977.92607, 3,   0.321, 12.213, -9.342
701977.94596, 3,   2.218,  6.035, -1.323
701977.96583, 3,   0.364,  9.210, -1.326, 4,  -0.120, -0.160,  0.034, 5,  26.262,-41.396, 11.917
701977.98570, 3,  -2.737,  9.691, -1.283
701978.00557, 3,  -3.027,  9.765, -3.618
701978.02543, 3,  -1.890,  8.308, -5.697, 4,   0.032, -0.478,  0.042
701978.04530, 3,  -1.653,  9.569, -6.631
701978.06514, 3,  -1.163, 10.533, -2.316
701978.08500, 3,   0.555,  9.502, -0.129, 4,   0.000, -0.327,  0.156, 5,  25.513,-40.990, 10.904
701978.10487, 3,   0.256,  6.791, -1.565
701978.12474, 3,   0.211, 10.842, -5.561
701978.14460, 3,   1.799, 10.428, -5.054, 4,   0.080, -0.196,  0.133, 5,  24.191,-42.673,  9.746
701978.16447, 3,   2.572,  8.779, -1.673
701978.18434, 3,   0.718,  9.949, -0.842
701978.20420, 3,  -0.337,  9.969, -0.491, 4,  -0.011, -0.341,  0.049, 5,  23.033,-42.094, 11.008
701978.22410, 3,  -1.000,  9.624, -1.630
701978.24397, 3,  -2.029, 10.134, -2.694
701978.26384, 3,  -2.367,  9.789, -2.682, 4,   0.006, -0.670,  0.140, 5,  23.341,-42.606,  9.019
701978.28370, 3,  -1.823,  8.679, -1.972
701978.30357, 3,  -2.340, 10.555, -2.443
701978.32341, 3,  -2.986, 10.260, -1.809, 4,  -0.020, -0.577,  0.325, 5,  23.106,-43.364,  8.531
701978.34327, 3,  -2.625, 10.887, -1.223
701978.36314, 3,  -2.517,  6.260, -2.099
701978.38301, 3,  -1.809, 10.035, -6.188, 4,   0.201,  0.326,  0.460, 5,  22.527,-42.909, 10.422
701978.40287, 3,   0.278, 10.993, -6.477
701978.42274, 3,   2.345,  7.193, -3.503
701978.44261, 3,   2.094, 10.667, -4.068, 4,   0.108,  1.519,  0.359, 5,  20.114,-43.542, 10.327
701978.46247, 3,   1.388,  9.150, -1.546
701978.48234, 3,   0.648,  8.037, -0.991
701978.50224, 3,  -0.809, 11.079, -2.864, 4,   0.127,  1.685, -0.004, 5,  19.922,-44.353, 13.823
701978.52211, 3,  -1.072,  8.382, -2.201
701978.54194, 3,  -0.567,  8.468, -3.529
701978.56181, 3,  -0.754, 10.904, -3.625, 4,   0.051,  1.043, -0.179
701978.58168, 3,  -0.364,  8.475, -2.032
701978.60154, 3,  -0.395,  8.487, -2.254
701978.62141, 3,  -1.278, 10.277, -5.035, 4,  -0.017,  0.571, -0.248, 5,  19.838,-44.740, 14.632
701978.64128, 3,  -2.486, 13.598, -3.092
701978.66114, 3,  -0.837,  7.468,  1.778
701978.68101, 3,  -1.955, 11.215, -1.888, 4,   0.014,  0.191, -0.216, 5,  20.636,-44.386, 14.841
701978.70088, 3,  -1.795,  9.428, -4.810
701978.72074, 3,  -1.771,  7.856, -7.083
701978.74061, 3,  -1.165,  8.856, -5.637, 4,  -0.001,  0.186, -0.165, 5,  20.500,-42.975, 16.472
701978.76048, 3,  -0.084,  8.791, -3.541
701978.78035, 3,   0.727,  9.100, -2.422
701978.80021, 3,   0.433,  8.944, -2.462, 4,  -0.085,  0.035, -0.146, 5,  19.682,-43.369, 14.784
701978.82008, 3,   0.888, 10.126, -4.333
701978.83995, 3,   1.266,  9.662, -3.745
701978.85981, 3,   1.677,  7.155, -3.455, 4,  -0.066, -0.495, -0.185, 5,  22.787,-43.918, 14.403
701978.87968, 3,   0.897, 12.828, -3.850
701978.89955, 3,   1.089,  7.975,  0.167
701978.91941, 3,  -1.656,  7.657,  1.433, 4,  -0.017, -0.865, -0.148, 5,  21.448,-43.748, 14.195
701978.93928, 3,   0.390, 10.526, -8.372
701978.95915, 3,   1.558, 10.679, -6.662
701978.97902, 3,   0.132,  8.490, -2.752, 4,  -0.043, -0.728, -0.029, 5,  24.231,-43.112, 14.107
701978.99888, 3,  -0.538,  8.528, -2.881
701979.01875, 3,  -0.311, 10.277, -3.467
701979.03862, 3,  -0.756, 10.227, -2.879, 4,  -0.006, -0.325,  0.041, 5,  23.570,-44.608, 13.382
701979.05845, 3,  -0.373,  9.052, -2.778
701979.07835, 3,  -0.278,  7.277, -4.948
701979.09822, 3,  -0.957, 11.502, -6.039, 4,   0.049, -0.037,  0.092
701979.11808, 3,   0.285,  9.392, -1.204
701979.13795, 3,   0.983,  8.356, -1.656
701979.15782, 3,   0.392, 11.021, -3.577, 4,   0.035, -0.134,  0.067, 5,  24.590,-42.773, 12.114
701979.17768, 3,  -0.720,  8.370, -3.556
701979.19755, 3,  -0.818, 10.954, -4.039
701979.21742, 3,  -1.665,  6.798, -2.369, 4,   0.034, -0.176,  0.090
701979.23729, 3,  -2.410, 10.126, -3.415
701979.25715, 3,  -1.984, 11.294, -1.663
701979.27702, 3,  -1.594,  6.020, -0.627, 4,   0.053,  0.123,  0.212, 5,  24.243,-44.154, 13.383
701979.29689, 3,  -0.950, 12.163, -4.546
701979.31672, 3,   0.218, 10.947, -2.541
701979.33659, 3,   1.015,  7.779, -0.270, 4,   0.028,  0.509,  0.218, 5,  23.953,-45.023, 13.629
701979.35646, 3,  -0.033, 10.636, -2.862
701979.37635, 3,  -1.225,  9.703, -1.943
701979.39622, 3,  -1.814,  9.736, -2.304, 4,   0.014,  0.571,  0.106, 5,  24.521,-45.677, 15.565
701979.41609, 3,  -1.515, 10.466, -0.914
701979.43595, 3,  -0.352,  9.897, -1.192
701979.45582, 3,   0.191,  8.093, -2.166, 4,   0.004,  0.673,  0.073, 5,  22.757,-45.055, 14.977
701979.47569, 3,   1.914, 11.995, -3.020
701979.49556, 3,   0.438,  7.607, -1.720
701979.51542, 3,   1.055, 14.434, -3.348, 4,  -0.064,  0.990, -0.058, 5,  23.021,-43.628, 17.065
701979.53468, 3,   2.450,  6.989,  0.285
701979.55516, 3,   3.869,  9.911, -0.304
701979.57499, 3,   3.549, 10.418, -1.565, 4,  -0.014,  0.722, -0.318, 5,  22.818,-44.672, 17.603
701979.59486, 3,   2.489,  8.650, -1.845
701979.61473, 3,   0.292,  4.647, -4.664
701979.63459, 3,  -1.333, 21.107, -5.111, 4,  -0.105, -0.166, -0.521
701979.65449, 3,  -1.172,  4.209,  2.840
701979.67436, 3,  -1.692,  8.557, -0.782
701979.69423, 3,  -2.084,  8.581, -1.630, 4,  -0.067, -1.050, -0.398, 5,  25.851,-42.317, 15.559
701979.71409, 3,  -1.359,  8.260, -4.032
701979.73396, 3,  -1.608, 13.639, -4.810
701979.75383, 3,  -0.701,  8.612, -2.137, 4,  -0.081, -0.813, -0.126
701979.77369, 3,  -1.551,  9.387, -1.510
701979.79356, 3,  -1.170,  8.705, -1.646
701979.81340, 3,  -0.605, 10.765, -2.833, 4,   0.045, -0.510, -0.017, 5,  26.611,-42.444, 13.765
701979.83326, 3,  -0.050, 10.540, -4.544
701979.85313, 3,  -0.136, 10.717, -3.838
701979.87300, 3,  -2.414,  8.133, -0.474, 4,   0.058, -0.239,  0.047, 5,  26.155,-42.538, 13.531
701979.89286, 3,  -1.785, 11.943, -2.424
701979.91273, 3,  -2.407,  2.802, -1.553
701979.93263, 3,  -3.680, 15.967, -6.111, 4,   0.078, -0.184,  0.161, 5,  24.802,-42.775, 13.423
701979.95250, 3,  -0.321,  9.488,  1.563
701979.97236, 3,   0.797,  9.229,  1.651
701979.99223, 3,  -0.294, 10.794, -1.223, 4,   0.079,  0.013,  0.180, 5,  25.375,-41.420, 12.421
701980.01210, 3,   0.416,  8.664, -0.816
701980.03196, 3,  -0.041,  8.071, -2.938
701980.05183, 3,  -0.084, 10.107, -3.991, 4,   0.066,  0.327,  0.126, 5,  24.026,-42.032, 12.944
701980.07167, 3,   1.170,  8.664, -2.893
701980.09153, 3,   0.960, 10.622, -1.149
701980.11140, 3,   1.531, 12.840,  1.050, 4,  -0.114,  0.407,  0.017, 5,  24.075,-44.011, 13.280
701980.13127, 3,   0.467,  5.312,  1.122
701980.15113, 3,   0.625, 11.265, -4.020
701980.17100, 3,  -0.536, 12.780, -3.027, 4,  -0.017, -0.073, -0.109, 5,  23.514,-42.802, 13.284
701980.19087, 3,   0.921, 10.600, -0.830
701980.21074, 3,  -0.538,  6.090, -1.369
701980.23063, 3,  -3.678, 13.249, -2.539, 4,  -0.079, -0.586, -0.034, 5,  24.268,-43.159, 13.956
701980.25050, 3,  -2.630,  8.509,  0.112
701980.27037, 3,  -1.505,  9.734, -0.110
701980.29023, 3,  -1.184, 10.122, -2.993, 4,   0.066, -0.554,  0.140
701980.31007, 3,   0.328,  9.138, -3.434
701980.32994, 3,   0.893,  9.758, -3.496
701980.34980, 3,   1.862, 10.404, -1.467, 4,   0.059,  0.423,  0.153, 5,  23.090,-43.851, 10.474
701980.36967, 3,   0.964,  6.276,  0.179
701980.38954, 3,   1.297, 11.313, -2.996
701980.40940, 3,   1.491, 11.304, -2.510, 4,   0.066,  0.669, -0.015, 5,  22.115,-42.261, 11.818
701980.42927, 3,   2.623,  7.513, -1.067
701980.44914, 3,   1.275,  9.959, -2.594
701980.46901, 3,   1.024,  9.425, -2.599, 4,  -0.009,  0.324, -0.203, 5,  22.763,-44.632, 12.813
701980.48887, 3,   0.218,  8.339, -1.601
701980.50877, 3,  -2.713,  9.253, -2.907
701980.52864, 3,  -3.580,  8.179,  0.921, 4,  -0.098, -0.430, -0.234, 5,  21.382,-43.277, 14.046
701980.54847, 3,  -2.355,  9.729, -2.106
701980.56834, 3,  -1.029, 11.107, -2.666
701980.58821, 3,  -0.744, 10.440, -2.020, 4,  -0.083, -0.839, -0.068, 5,  23.015,-43.814, 13.908
701980.60807, 3,   0.230, 12.840, -1.931
701980.62794, 3,   0.215,  6.023, -0.732
701980.64781, 3,  -1.658, 13.189, -5.384, 4,   0.015, -0.281,  0.040, 5,  25.981,-43.539, 10.478
701980.66767, 3,  -0.175, 11.086, -2.757
701980.68754, 3,  -0.134,  7.222, -1.467
701980.70741, 3,  -0.601, 10.083, -3.417, 4,   0.040, -0.017,  0.074, 5,  22.803,-44.669, 11.012
701980.72728, 3,  -0.756,  7.956, -3.446
701980.74714, 3,   1.177, 19.700, -0.749
701980.76701, 3,   2.020,  0.742,  3.867, 4,   0.059, -0.051,  0.050, 5,  22.566,-45.807, 11.931
701980.78688, 3,  -0.256, 11.907, -4.226
701980.80674, 3,  -1.213, 11.103, -5.255
701980.82661, 3,  -0.826,  7.308, -2.489, 4,   0.094, -0.178,  0.004
701980.84648, 3,  -0.732, 11.352, -2.850
701980.86634, 3,   0.005,  6.528, -1.670
701980.88621, 3,  -0.388, 10.715, -2.053, 4,   0.002, -0.200,  0.044, 5,  22.620,-45.094, 11.249
701980.90608, 3,  -0.299, 12.909, -1.785
701980.92595, 3,   0.845,  8.399, -0.883
701980.94581, 3,   0.170,  9.074, -2.453, 4,   0.070,  0.001,  0.021
701980.96568, 3,  -0.962, 10.091, -3.965
701980.98555, 3,  -1.972,  9.380, -3.228
701981.00541, 3,  -2.398,  9.511, -2.469, 4,  -0.009,  0.201,  0.012, 5,  23.521,-44.563, 13.391
701981.02528, 3,  -2.766,  8.964, -0.629
701981.04515, 3,  -3.075,  9.578,  1.606
701981.06498, 3,  -2.345, 10.081, -5.980, 4,   0.021, -0.005,  0.105, 5,  23.428,-44.609, 13.089
701981.08488, 3,  -0.921, 12.596, -0.876
701981.10475, 3,  -1.003,  9.777,  0.893
701981.12461, 3,  -1.646,  6.430,  0.029, 4,   0.005,  0.105,  0.190, 5,  23.779,-44.930, 14.110
701981.14448, 3,  -1.807, 11.713, -2.910
701981.16435, 3,  -0.916, 10.354, -1.433
701981.18422, 3,   1.314,  8.451, -1.507, 4,   0.033,  0.469,  0.230, 5,  22.049,-44.978, 14.738
701981.20408, 3,   2.314,  9.279, -1.412
701981.22395, 3,   3.041, 10.753, -3.170
701981.24382, 3,   3.369,  9.712, -2.632, 4,   0.018,  0.901,  0.039, 5,  20.471,-45.825, 16.286
701981.26368, 3,   2.493,  8.841, -2.958
701981.28355, 3,   0.285, 10.165, -2.175
701981.30342, 3,  -1.682,  7.801, -0.684, 4,  -0.035,  0.718, -0.192, 5,  22.173,-45.314, 17.014
701981.32325, 3,  -2.084, 10.624, -3.115
701981.34312, 3,  -0.924, 10.483, -3.053
701981.36302, 3,   0.553,  9.485, -1.445, 4,  -0.035, -0.078, -0.202
701981.38288, 3,   0.055,  9.057, -1.661
701981.40275, 3,  -0.005,  9.119, -3.450
701981.42262, 3,  -0.170, 12.340, -4.283, 4,  -0.002, -0.039, -0.163, 5,  22.629,-45.062, 16.431
701981.44249, 3,  -0.062, 10.430,  0.672
701981.46235, 3,   1.330,  8.495,  0.462
701981.48222, 3,   0.818, 10.548, -2.268, 4,   0.020,  0.050, -0.196
701981.50209, 3,   0.529, 10.313, -2.730
701981.52195, 3,  -0.785,  8.777, -2.431
701981.54182, 3,  -2.020,  9.416, -1.563, 4,  -0.022, -0.046, -0.239, 5,  24.457,-45.839, 16.347
701981.56166, 3,  -1.199, 10.308, -2.912
701981.58152, 3,  -1.007,  9.550, -1.976
701981.60139, 3,  -1.266, 10.433, -2.020, 4,  -0.064, -0.406, -0.169, 5,  23.552,-41.664, 15.025
701981.62126, 3,  -2.541,  9.835, -2.264
701981.64112, 3,  -2.015,  9.105, -3.092
701981.66102, 3,  -0.804, 11.115, -3.168, 4,  -0.022, -0.986, -0.056, 5,  24.689,-42.865, 14.828
701981.68089, 3,  -0.201,  6.006, -2.367
701981.70076, 3,   0.005, 12.756, -4.936
701981.72062, 3,   2.075, 11.371, -2.177, 4,   0.010, -0.983,  0.078, 5,  26.202,-42.114, 13.037
701981.74049, 3,   2.701,  7.647,  0.694
701981.76036, 3,   2.101,  9.909, -1.409
701981.78022, 3,   1.874, 10.717, -3.395, 4,   0.111, -0.341,  0.009, 5,  26.332,-42.488, 12.315
701981.80006, 3,   1.266,  9.404, -3.711
701981.81993, 3,   0.861,  9.715, -3.438
701981.83979, 3,  -0.038,  9.112, -1.909, 4,   0.019,  0.021, -0.069, 5,  25.874,-42.833, 12.360
701981.85966, 3,  -1.172,  8.356, -1.787
701981.87953, 3,  -2.367,  9.935, -3.044
701981.89939, 3,  -4.183,  5.530, -2.910, 4,   0.013, -0.254, -0.066, 5,  26.591,-42.813, 11.203
701981.91926, 3,  -5.008, 14.345, -2.723
701981.93916, 3,  -1.175, 10.220, -1.067
701981.95903, 3,  -1.034,  4.841, -1.565, 4,   0.062, -0.298,  0.078, 5,  25.154,-41.423, 11.932
701981.97889, 3,  -4.307, 12.849, -5.812
701981.99876, 3,  -2.800, 11.545, -3.630
701982.01863, 3,  -0.354,  7.368,  0.227, 4,   0.021, -0.224,  0.190
701982.03849, 3,  -0.392, 10.026, -1.275
701982.05833, 3,  -1.168,  9.471, -1.821
701982.07820, 3,  -1.194, 10.581, -1.979, 4,   0.067, -0.074,  0.193, 5,  25.365,-41.858, 11.493
701982.09806, 3,  -0.187,  8.715, -1.785
701982.11793, 3,   0.591,  9.902, -1.864
701982.13780, 3,   1.292,  9.507, -2.249, 4,   0.015,  0.116,  0.178, 5,  24.565,-43.575, 10.677
701982.15767, 3,   0.857,  8.148, -2.276
701982.17753, 3,  -0.483, 10.081, -2.833
701982.19740, 3,  -0.488, 10.102, -1.883, 4,  -0.068,  0.411,  0.078, 5,  23.433,-42.355,  8.765
701982.21727, 3,  -0.981, 10.705, -1.096
701982.23716, 3,  -2.778,  6.422, -0.936
701982.25703, 3,  -3.381, 11.067, -2.613, 4,  -0.052,  0.296,  0.076, 5,  24.284,-42.159, 11.487
701982.27690, 3,  -2.402,  9.681, -0.122
701982.29676, 3,  -1.424,  9.990, -3.604
701982.31660, 3,   0.967, 10.141, -1.357, 4,  -0.035,  0.091,  0.130, 5,  23.807,-41.695, 10.960
701982.33647, 3,   0.782,  8.746, -1.187
701982.35633, 3,   0.309,  8.518, -0.699
701982.37620, 3,  -0.885,  9.155, -3.644, 4,   0.038,  0.378,  0.046, 5,  23.953,-41.457, 13.374
701982.39607, 3,  -0.100,  9.433, -3.833
701982.41594, 3,   0.830,  9.208, -2.941
701982.43580, 3,   0.826,  9.129, -1.553, 4,  -0.044,  0.466, -0.002, 5,  22.705,-41.487, 13.373
701982.45567, 3,   0.921,  9.555, -0.656
701982.47554, 3,  -0.163, 10.459, -1.510
701982.49540, 3,  -0.055, 10.014, -1.553, 4,  -0.020,  0.287, -0.127, 5,  23.373,-41.470, 13.374
701982.51530, 3,   0.165, 12.290, -1.615
701982.53517, 3,   0.617,  6.930,  0.237
701982.55500, 3,   0.220, 10.311, -1.469, 4,  -0.068,  0.005, -0.165
701982.57487, 3,  -0.184, 12.421, -0.254
701982.59474, 3,  -0.230, 11.837,  1.244
701982.61460, 3,   1.704,  8.083,  5.961, 4,  -0.211, -0.392, -0.157, 5,  22.607,-40.453, 13.567
701982.63447, 3,   1.457, 12.215,  3.288
701982.65434, 3,   1.653,  9.645,  0.407
701982.67421, 3,   0.560, 10.516, -3.300, 4,  -0.128, -0.589, -0.176, 5,  26.073,-39.981, 12.648
701982.69407, 3,  -1.484,  9.698, -2.905
701982.71394, 3,  -2.876, 10.191,  0.184
701982.73381, 3,  -0.467,  9.377,  3.376, 4,  -0.212, -0.846, -0.095, 5,  24.721,-40.715,  9.435
701982.75367, 3,  -1.912,  9.322,  2.615
701982.77354, 3,  -2.450,  9.736, -4.295
701982.79344, 3,  -4.080,  9.562, -8.155, 4,   0.130, -1.036, -0.006, 5,  24.457,-40.092,  9.015
701982.81327, 3,  -0.345, 14.462, -5.149
701982.83314, 3,  -0.014,  6.870,  1.254
701982.85301, 3,   0.029,  6.508,  0.885, 4,   0.087, -0.694,  0.095, 5,  23.526,-40.302,  7.132
701982.87287, 3,  -2.075, 13.314, -3.575
701982.89274, 3,  -0.005,  9.875, -3.025
701982.91261, 3,   1.637,  5.137, -1.953, 4,   0.216, -0.665,  0.111, 5,  25.320,-39.897,  7.610
701982.93187, 3,   0.565, 11.143, -6.044
701982.95234, 3,   0.833, 11.833, -3.730
701982.97221, 3,   2.359,  9.741, -0.629, 4,  -0.012, -0.374,  0.089, 5,  23.381,-40.750,  6.836
701982.99208, 3,   2.034, 10.296,  0.469
701983.01194, 3,   1.677, 10.208,  0.584
701983.03181, 3,   1.675, 10.318, -3.142, 4,   0.023, -0.372, -0.071, 5,  23.946,-39.436,  5.087
701983.05168, 3,   1.680,  8.303, -2.264
701983.07151, 3,  -0.646, 10.739, -3.077
701983.09141, 3,  -2.400,  9.447, -1.256, 4,  -0.105, -0.564, -0.114
701983.11128, 3,  -2.529, 10.287, -0.022
701983.13115, 3,  -3.718, 10.181,  1.419
701983.15101, 3,  -2.962, 10.442,  0.821, 4,  -0.016, -1.056, -0.016, 5,  24.741,-39.366,  2.664
701983.17088, 3,  -1.644,  9.315, -1.584
701983.19075, 3,  -1.381,  8.724, -2.266
701983.21061, 3,  -2.297, 10.114, -3.762, 4,   0.081, -0.860,  0.116
701983.23048, 3,  -0.519,  9.739, -1.649
701983.25035, 3,  -0.112,  9.708, -1.625
701983.27021, 3,   0.318, 10.280, -1.019, 4,   0.088, -0.500,  0.141, 5,  22.224,-38.770,  2.319
701983.29008, 3,  -0.357, 10.837, -1.823
701983.30992, 3,   2.285,  8.542, -3.290
701983.32978, 3,   0.436,  5.102, -3.293, 4,   0.170, -0.527,  0.065, 5,  22.687,-41.466,  0.064
701983.34965, 3,  -2.043, 13.208, -7.097
701983.36955, 3,  -0.443, 12.172, -4.991
701983.38942, 3,  -0.041,  9.150,  2.558, 4,  -0.059, -0.737,  0.043, 5,  22.005,-42.032, -1.102
701983.40928, 3,  -1.440,  9.258,  1.077
701983.42915, 3,  -1.251, 10.548, -0.550
701983.44902, 3,  -2.486,  9.040, -2.981, 4,   0.201, -1.041,  0.028, 5,  21.503,-40.633,  0.739
701983.46888, 3,  -2.481,  9.275, -4.659
701983.48875, 3,  -3.316,  9.519, -3.647
701983.50862, 3,  -1.086,  9.607, -3.494, 4,   0.133, -0.662,  0.183, 5,  21.364,-40.823, -2.275
701983.52848, 3,  -1.417, 10.694, -1.168
701983.54835, 3,   0.538,  9.868, -0.158
701983.56819, 3,  -0.112, 10.327, -0.182, 4,   0.166,  0.035,  0.189, 5,  20.859,-41.495, -1.688
701983.58805, 3,   0.093,  8.573, -2.958
701983.60792, 3,  -0.574,  9.846, -5.427
701983.62779, 3,   0.012,  8.798, -4.276, 4,   0.115,  0.461,  0.099
701983.64766, 3,   1.785, 10.002, -3.111
701983.66755, 3,   0.524, 10.921, -0.598
701983.68742, 3,   0.019,  9.832, -0.431, 4,   0.005,  0.783, -0.045, 5,  20.671,-42.029, -0.238
701983.70729, 3,  -1.766,  7.686, -2.096
701983.72715, 3,  -2.855,  9.406, -6.619
701983.74702, 3,  -1.895,  8.420, -4.494, 4,  -0.014,  0.564, -0.139
701983.76689, 3,  -3.474,  8.497, -2.043
701983.78675, 3,  -4.118,  8.430, -2.575
701983.80659, 3,  -5.288,  9.892, -2.218, 4,  -0.055, -0.156, -0.089, 5,  22.319,-42.183,  2.095
701983.82646, 3,  -3.051,  8.131, -3.951
701983.84632, 3,  -1.421, 19.980, -3.699
701983.86619, 3,   0.976,  8.418,  2.367, 4,  -0.012, -0.704, -0.003, 5,  20.142,-42.088,  2.031
701983.88606, 3,   2.551,  8.767, -0.309
701983.90593, 3,   1.804,  8.803, -5.145
701983.92579, 3,   0.636,  8.707, -7.908, 4,   0.215, -0.646,  0.006, 5,  20.670,-42.172,  0.298
701983.94569, 3,  -0.474,  7.006, -5.771
701983.96556, 3,  -0.050,  8.906, -2.792
701983.98542, 3,  -0.414, 10.394, -0.799, 4,  -0.067, -0.352, -0.031, 5,  19.536,-42.709, -2.121
701984.00529, 3,  -1.948,  9.535,  0.349
701984.02516, 3,  -0.400, 11.038, -1.912
701984.04502, 3,  -2.359,  7.080, -2.919, 4,   0.042, -0.483, -0.047, 5,  17.839,-42.844, -2.177
701984.06486, 3,  -4.221,  9.791, -4.745
701984.08473, 3,  -0.656, 11.498, -3.192
701984.10459, 3,  -1.027, 10.880,  1.168, 4,  -0.113, -0.709,  0.058
701984.12446, 3,   1.259,  9.641,  1.771
701984.14433, 3,   0.648,  9.308, -0.093
701984.16420, 3,   0.510, 10.067, -1.656, 4,   0.080, -0.824,  0.017, 5,  18.802,-39.769, -4.607
701984.18406, 3,   1.225, 10.138, -3.546
701984.20393, 3,   1.268, 10.438, -3.039
701984.22383, 3,   1.196,  9.583, -1.165, 4,   0.031, -0.749, -0.055, 5,  18.410,-41.397, -5.531
701984.24369, 3,  -3.036, 13.038, -7.746
701984.26356, 3,  -3.328, 10.569, -5.319
701984.28343, 3,  -0.342,  9.114, -0.584, 4,  -0.169, -1.080,  0.012
701984.30329, 3,  -0.371,  8.545,  2.386
701984.32313, 3,  -0.567, 11.096,  1.797
701984.34300, 3,  -0.859, 10.043, -0.447, 4,   0.019, -1.247,  0.057, 5,  17.105,-41.814, -7.208
701984.36287, 3,   0.144, 10.258, -1.637
701984.38273, 3,   0.469,  7.360, -3.216
701984.40260, 3,  -1.993, 10.497, -6.343, 4,   0.165, -0.657,  0.065, 5,  16.573,-41.689, -6.351
701984.42247, 3,  -1.816, 10.452, -3.362
701984.44233, 3,   0.010, 10.646, -0.680
701984.46220, 3,  -0.859, 10.270,  0.400, 4,   0.121, -0.353,  0.055, 5,  14.236,-42.496, -7.701
701984.48207, 3,  -3.336,  8.712, -1.254
701984.50193, 3,  -4.826,  8.466, -3.364
701984.52183, 3,  -4.293,  9.069, -4.018, 4,   0.272, -0.892,  0.116, 5,  15.601,-43.364, -8.087
701984.54170, 3,  -2.457,  9.531, -3.862
701984.56157, 3,  -0.012,  9.531, -3.429
701984.58140, 3,   2.084, 10.466, -1.893, 4,   0.261, -1.082,  0.237, 5,  13.443,-44.511, -7.895
701984.60127, 3,   2.484, 10.148, -2.261
701984.62114, 3,   1.019, 10.813, -2.974
701984.64100, 3,   1.405,  9.413, -3.553, 4,   0.328, -0.549,  0.140
701984.66087, 3,   2.000,  9.423, -4.018
701984.68074, 3,   1.094,  6.336, -4.793
701984.70061, 3,  -1.038, 10.957, -5.317, 4,   0.184, -0.182,  0.051, 5,  14.693,-46.782, -5.009
701984.72048, 3,   0.459, 13.299, -0.948
701984.74035, 3,  -0.199,  8.779,  1.192
701984.76021, 3,  -3.118,  9.650, -1.189, 4,   0.110, -0.516, -0.029, 5,  11.992,-43.837, -6.926
701984.78008, 3,  -4.460,  9.136, -3.290
701984.79998, 3,  -3.304,  9.272, -2.390
701984.81982, 3,  -3.482,  8.676, -1.443, 4,   0.154, -0.843,  0.135
701984.83968, 3,  -3.661,  9.763, -2.666
701984.85955, 3,  -2.422,  9.136, -4.006
701984.87942, 3,  -0.562,  7.877, -4.312, 4,   0.256, -0.264,  0.264, 5,   9.859,-44.022, -6.297
701984.89928, 3,   0.048,  9.933, -5.355
701984.91915, 3,   0.682, 10.629, -3.757
701984.93902, 3,  -0.450,  7.018, -1.835, 4,   0.209,  0.472,  0.188
701984.95888, 3,  -1.773,  8.669, -5.111
701984.97875, 3,  -1.641, 13.350, -4.443
701984.99862, 3,  -0.558,  7.858,  0.596, 4,   0.094,  0.092,  0.082, 5,  10.373,-44.829, -4.556
701985.01849, 3,  -1.412,  8.696, -0.481
701985.03835, 3,  -0.936, 10.801, -4.348
701985.05822, 3,   0.127,  9.090, -5.331, 4,   0.088, -1.220,  0.053, 5,   9.781,-45.456, -5.383
701985.07806, 3,   0.148,  8.597, -3.584
701985.09795, 3,   0.211, 10.904, -2.876
701985.11782, 3,   0.548,  9.440, -2.529, 4,   0.074, -1.415,  0.139, 5,   9.262,-44.724, -3.772
701985.13769, 3,  -0.175,  9.803, -3.632
701985.15755, 3,  -0.275,  9.466, -4.652
701985.17742, 3,  -0.584,  9.791, -3.197, 4,   0.158, -0.888,  0.218, 5,   6.905,-46.014, -4.424
701985.19729, 3,  -0.120,  8.291, -2.520
701985.21715, 3,  -1.333, 11.375, -2.876
701985.23702, 3,  -0.479, 10.129, -0.998, 4,   0.178, -0.356,  0.267, 5,   5.765,-46.132, -4.649
701985.25689, 3,   1.321,  9.162, -2.240
701985.27676, 3,   0.589,  9.679, -4.199
701985.29662, 3,  -0.287,  9.916, -5.020, 4,   0.194, -0.228,  0.213
701985.31646, 3,  -0.328, 10.059, -3.522
701985.33633, 3,  -0.835,  8.920, -1.962
701985.35619, 3,  -0.177,  9.258, -3.170, 4,   0.112, -0.079,  0.165, 5,   5.467,-45.428, -4.079
701985.37609, 3,  -0.861,  9.636, -3.175
701985.39596, 3,  -0.213, 10.452, -2.912
701985.41582, 3,  -0.639,  6.300, -4.168, 4,   0.137,  0.158,  0.099, 5,   4.573,-45.448, -4.662
701985.43569, 3,  -1.620, 11.062, -5.154
701985.45556, 3,  -2.319, 11.392, -1.007
701985.47542, 3,  -1.259,  8.564,  0.170, 4,   0.067,  0.318,  0.054
701985.49529, 3,  -1.807,  8.983, -2.977
701985.51516, 3,  -1.362,  6.623, -5.831
701985.53503, 3,  -4.472, 20.609, -4.195, 4,   0.046,  0.236,  0.009, 5,   4.224,-47.272, -2.676
701985.55489, 3,  -0.268,  8.882,  5.025
701985.57473, 3,  -0.677,  2.323,  1.548
701985.59460, 3,  -2.922, 12.995, -8.676, 4,   0.264, -0.215, -0.045, 5,   4.056,-46.895, -1.898
701985.61446, 3,  -2.168, 12.352, -7.676
701985.63433, 3,  -2.216,  2.977, -2.345
701985.65423, 3,  -2.099, 11.797, -5.693, 4,   0.117, -0.312,  0.073, 5,   6.551,-46.123, -2.611
701985.67409, 3,  -0.526, 11.780, -1.558
701985.69396, 3,  -0.151,  5.472,  0.852
701985.71383, 3,  -0.191,  9.964, -5.740, 4,   0.209, -0.326,  0.087, 5,   5.507,-47.914,  0.098
701985.73370, 3,   2.041,  8.849, -6.351
701985.75356, 3,   1.156,  6.439, -4.465
701985.77343, 3,   0.421, 12.517, -5.123, 4,   0.140, -0.339,  0.028, 5,   5.246,-47.163, -0.356
701985.79330, 3,   0.041,  6.142, -0.761
701985.81313, 3,   0.010, 13.807,-11.316
701985.83300, 3,   2.024,  9.260, -4.089, 4,  -0.023, -0.279, -0.005
701985.85287, 3,  -0.175,  9.291,  3.395
701985.87273, 3,  -1.474, 13.584,  1.831
701985.89260, 3,  -1.378,  8.394,  1.354, 4,   0.013, -0.406, -0.073, 5,   4.518,-46.170, -1.627
701985.91247, 3,  -2.189,  8.372, -5.582
701985.93233, 3,  -2.431,  8.906, -7.789
701985.95223, 3,  -1.945,  7.793, -4.855, 4,   0.010, -0.683,  0.054, 5,   3.697,-45.004, -0.932
701985.97210, 3,  -1.835,  7.959, -3.204
701985.99197, 3,  -2.699, 10.990, -3.350
701986.01183, 3,   0.907, 12.811, -0.818, 4,  -0.071, -0.921,  0.186
701986.03170, 3,   2.701,  4.140, -1.309
701986.05157, 3,  -0.225, 10.091, -7.667
701986.07140, 3,  -1.053, 13.385, -7.698, 4,   0.137, -0.999,  0.246, 5,   2.692,-45.927, -1.466
701986.09127, 3,   0.636,  8.387, -1.354
701986.11114, 3,   2.213, -1.780, -2.228
701986.13100, 3,  -5.204, 18.834,-10.268, 4,   0.161, -0.729,  0.326, 5,   0.386,-45.662,  0.072
701986.15087, 3,   1.773,  6.650, -2.934
701986.17074, 3,   0.596,  6.020, -2.290
701986.19060, 3,  -0.412, 12.732, -4.877, 4,   0.104,  0.323,  0.342, 5,   1.010,-44.395,  0.084
701986.21047, 3,  -1.129,  6.652, -1.938
701986.23037, 3,  -2.730,  7.140, -3.084
701986.25024, 3,  -4.802, 13.594, -5.386, 4,   0.104,  1.220,  0.227, 5,   0.310,-44.849, -0.606
701986.27010, 3,  -3.991,  7.210, -0.562
701986.28997, 3,  -4.420,  9.674, -1.211
701986.30984, 3,  -5.910, 11.239, -3.936, 4,   0.008,  0.656,  0.126, 5,  -0.323,-45.346, -0.691
701986.32909, 3,  -5.894,  8.662, -3.797
701986.34954, 3,  -4.006,  7.903,  3.814
701986.36941, 3,  -0.500, 11.232, -8.717, 4,  -0.003, -0.652,  0.315
701986.38927, 3,   2.785, 10.081, -4.743
701986.40914, 3,   6.128,  5.803, -3.393
701986.42901, 3,   6.355, 12.000, -4.609, 4,   0.040, -0.317,  0.351, 5,  -1.852,-46.169, -1.483
701986.44887, 3,   5.606, 10.253, -3.929
701986.46874, 3,   5.432,  8.016, -4.592
701986.48861, 3,   2.711,  7.133, -4.872, 4,   0.078,  0.154, -0.008
701986.50848, 3,  -1.050, 11.215, -5.566
701986.52837, 3,  -3.206,  6.755, -4.226
701986.54824, 3,  -6.489, 10.868, -3.527, 4,  -0.058, -0.377, -0.069, 5,  -1.756,-45.953, -0.456
701986.56811, 3,  -5.824,  7.554, -1.050
701986.58794, 3,  -5.279, 10.918, -1.682
701986.60781, 3,  -3.496, 10.473, -1.467, 4,   0.083, -0.775,  0.322, 5,  -2.744,-44.749,  0.455
701986.62768, 3,  -1.718,  9.641, -3.345
701986.64754, 3,  -1.029,  9.648, -4.953
701986.66741, 3,   0.720,  8.741, -5.566, 4,   0.214,  0.200,  0.525, 5,  -4.066,-44.254,  1.714
701986.68728, 3,   1.670,  7.755, -4.417
701986.70714, 3,   1.407,  8.222, -3.450
701986.72701, 3,   1.381,  8.688, -4.223, 4,   0.073,  1.045,  0.345, 5,  -3.600,-45.663,  2.258
701986.74688, 3,   2.115,  8.341, -1.888
701986.76675, 3,   1.531, 13.907, -0.584
701986.78661, 3,   2.216,  6.487, -2.041, 4,   0.046,  1.018,  0.001, 5,  -4.118,-45.000,  1.030
701986.80651, 3,  -0.407,  6.690, -6.288
701986.82635, 3,  -2.733, 16.802, -4.065
701986.84621, 3,  -1.917,  3.190, -2.177, 4,  -0.044,  0.486, -0.213, 5,  -4.361,-45.679,  0.264
701986.86608, 3,  -3.639,  8.987, -4.398
701986.88595, 3,  -4.735,  6.693, -4.991
701986.90581, 3,  -3.415, 10.265, -4.178, 4,  -0.073,  0.107, -0.085, 5,  -5.284,-46.365, -1.094
701986.92568, 3,  -1.747, 10.342, -2.697
701986.94555, 3,  -0.007,  8.148,  0.189
701986.96541, 3,   1.819,  9.344, -6.571, 4,   0.038,  0.370, -0.042, 5,  -3.217,-46.127, -0.459
701986.98528, 3,   2.032, 12.378, -6.437
701987.00515, 3,   2.299,  7.064, -1.914
701987.02502, 3,   2.673, 12.426, -8.021, 4,  -0.045,  0.557, -0.259
701987.04488, 3,   1.579,  7.545, -3.084
701987.06475, 3,   1.943, 11.986, -0.981
701987.08462, 3,   2.548, 10.110,  1.926, 4,  -0.148, -0.081, -0.466, 5,  -2.731,-44.212,  0.403
701987.10448, 3,   0.971,  5.882, -0.512
701987.12435, 3,  -3.137, 10.253, -7.846
701987.14422, 3,  -3.115,  8.669, -5.298, 4,  -0.063, -0.861, -0.460, 5,  -0.847,-45.261, -1.811
701987.16408, 3,  -3.575,  8.286, -3.103
701987.18395, 3,  -3.907,  9.050, -2.455
701987.20382, 3,  -3.115, 10.806, -0.778, 4,  -0.170, -1.301, -0.018
701987.22369, 3,  -0.981, 12.146, -0.699
701987.24355, 3,  -0.799,  8.466, -0.397
701987.26342, 3,  -1.041,  8.418, -6.212, 4,   0.149, -0.739,  0.292, 5,  -2.045,-43.182, -1.918
701987.28329, 3,  -0.818, 10.911, -8.834
701987.30315, 3,   1.168,  5.913, -2.764
701987.32299, 3,   0.225, 10.009, -5.623, 4,   0.067,  0.328,  0.373, 5,  -2.527,-44.449, -0.708
701987.34286, 3,   0.007, 11.122, -2.376
701987.36272, 3,   1.206,  9.227, -0.534
701987.38262, 3,   1.476,  8.614, -2.285, 4,   0.136,  0.755,  0.140, 5,  -5.203,-43.759, -1.816
701987.40249, 3,   0.117,  5.678, -5.405
701987.42235, 3,  -3.730,  9.760, -9.947
701987.44222, 3,  -3.470, 10.031, -3.254, 4,  -0.011,  0.378, -0.056, 5,  -3.835,-45.226, -2.214
701987.46209, 3,  -1.433,  6.219, -1.433
701987.48196, 3,  -1.565, 15.539, -0.005
701987.50182, 3,  -0.280,  7.719,  1.335, 4,  -0.041, -0.198,  0.008, 5,  -4.427,-46.014, -1.186
701987.52169, 3,  -1.333, 11.864, -3.247
701987.54156, 3,   0.244,  5.894, -4.250
701987.56142, 3,  -0.660, 10.490, -9.490, 4,   0.064, -0.177,  0.055
701987.58126, 3,   0.019,  6.075, -3.630
701987.60113, 3,   0.971, 10.497, -2.780
701987.62099, 3,  -0.739, 12.036, -1.740, 4,   0.033,  0.132,  0.039, 5,  -2.454,-46.339, -1.550
701987.64086, 3,  -0.433,  8.538, -3.742
701987.66076, 3,  -0.029, 11.354, -3.599
701987.68062, 3,  -0.620,  5.800, -1.888, 4,   0.098,  0.255, -0.007, 5,  -5.421,-44.991, -1.913
701987.70049, 3,  -4.049, 12.553, -5.542
701987.72036, 3,  -2.922,  9.330, -1.706
701987.74023, 3,  -3.233,  7.568, -0.928, 4,  -0.042, -0.070,  0.048, 5,  -3.961,-46.198,  0.432
701987.76009, 3,  -3.166, 12.723, -2.450
701987.77996, 3,  -1.101,  8.681, -1.137
701987.79983, 3,  -0.395,  9.832, -0.392, 4,  -0.001,  0.022,  0.210, 5,  -5.069,-44.977, -1.836
701987.81969, 3,   1.115,  9.744, -4.113
701987.83953, 3,   1.646,  6.032, -4.317
701987.85940, 3,   0.670,  7.743, -5.046, 4,   0.009,  0.293,  0.148, 5,  -4.350,-45.107, -1.326
701987.87926, 3,   1.835, 11.129, -3.041
701987.89913, 3,   1.862, 10.598, -1.909
701987.91900, 3,   0.081,  7.083, -1.828, 4,  -0.039,  0.342, -0.034, 5,  -4.642,-45.682, -1.051
701987.93886, 3,  -1.921, 10.095, -4.137
701987.95876, 3,  -1.417,  7.092, -2.723
701987.97863, 3,  -1.429, 10.150, -8.636, 4,  -0.013,  0.174, -0.091, 5,  -4.523,-44.719, -2.155
701987.99850, 3,  -0.900, 11.773, -3.709
701988.01836, 3,   0.986, 11.215, -1.816
701988.03823, 3,   1.235,  8.983,  0.876, 4,  -0.103,  0.070, -0.110, 5,  -4.236,-45.805, -2.347
701988.05810, 3,   0.940,  8.952, -1.168
701988.07796, 3,   0.065, 11.251, -3.989
701988.09780, 3,  -0.132,  4.223, -5.515, 4,   0.102, -0.206, -0.220
701988.11767, 3,  -1.673, 10.653, -8.365
701988.13753, 3,  -0.883, 12.634, -3.654
701988.15740, 3,   2.290, 10.521,  2.546, 4,  -0.123, -0.252, -0.076, 5,  -3.348,-45.555, -1.819
701988.17727, 3,   2.055,  5.712,  1.261
701988.19713, 3,  -1.046, 12.098, -5.606
701988.21700, 3,  -1.613,  9.588, -6.449, 4,   0.117, -0.126, -0.106
701988.23690, 3,  -1.831,  3.845, -5.688
701988.25677, 3,  -3.383, 14.544, -1.682
701988.27663, 3,   0.383,  7.827,  0.261, 4,  -0.105, -0.171,  0.061, 5,  -2.628,-45.631, -1.607
701988.29650, 3,  -2.804,  9.586,  0.325
701988.31637, 3,  -3.281, 12.938, -4.546
701988.33620, 3,  -3.747,  2.639, -1.333, 4,   0.101, -0.181,  0.217, 5,  -3.197,-44.937, -2.641
701988.35607, 3,  -3.072, 12.096, -4.728
701988.37594, 3,  -1.070, 11.464, -3.817
701988.39580, 3,   1.431,  6.899, -0.770, 4,   0.095,  0.180,  0.393, 5,  -4.713,-44.965, -3.224
701988.41567, 3,   1.622,  6.497, -4.046
701988.43554, 3,   1.385, 11.014,-10.079
701988.45541, 3,   2.749,  4.994, -4.338, 4,   0.033,  0.682,  0.216, 5,  -4.085,-44.958,  0.562
701988.47527, 3,   4.274,  5.848, -3.616
701988.49514, 3,   2.244, 14.761, -2.414
701988.51504, 3,   4.118, 11.801,  1.278, 4,  -0.105,  0.770, -0.172, 5,  -4.713,-44.968, -1.529
701988.53490, 3,   1.505,  5.712,  0.519
701988.55477, 3,  -3.367, 17.470, -5.549
701988.57461, 3,  -4.010,  5.001, -0.160, 4,   0.027,  0.070, -0.444, 5,  -3.725,-44.067, -3.369
701988.59447, 3,  -5.515,  2.831, -1.304
701988.61434, 3,  -6.700, 13.084, -9.088
701988.63421, 3,  -3.017,  9.787, -2.618, 4,  -0.037, -0.521, -0.097
701988.65407, 3,   0.785,  8.174, -0.266
701988.67394, 3,   1.766, 11.940, -3.185
701988.69381, 3,   1.311, 11.907, -0.553, 4,   0.039,  0.174,  0.099, 5,  -2.415,-44.199, -2.289
701988.71368, 3,   1.534,  4.970, -5.118
701988.73354, 3,   0.306, 14.998, -7.600
701988.75341, 3,   3.144,  8.363,  0.266, 4,  -0.039,  0.404, -0.075
701988.77328, 3,   3.237,  6.853,  1.859
701988.79314, 3,   2.142, 11.565, -4.183
701988.81301, 3,   0.735, 11.550, -7.789, 4,   0.048, -0.044, -0.358, 5,  -1.418,-44.887, -2.295
701988.83291, 3,  -1.242,  5.621, -5.295
701988.85274, 3,  -2.929, 14.759, -4.329
701988.87261, 3,   0.818,  8.971,  2.072, 4,  -0.209, -0.597, -0.251, 5,  -0.827,-42.459, -0.908
701988.89248, 3,  -0.010,  9.413,  1.426
701988.91234, 3,  -1.986, 12.498, -2.998
701988.93221, 3,  -2.249,  5.740, -5.018, 4,   0.065, -0.708, -0.079, 5,  -2.638,-43.536, -2.643
701988.95208, 3,  -3.584, 11.191, -3.115
701988.97195, 3,   0.495, 11.177, -2.680
701988.99181, 3,   1.933,  8.547, -1.122, 4,   0.040, -0.362,  0.238, 5,  -2.069,-44.189, -2.641
701989.01168, 3,   2.101, 10.543, -3.795
701989.03155, 3,  -0.189, 11.509, -3.824
701989.05141, 3,   0.560,  2.699, -3.750, 4,   0.128,  0.421,  0.208, 5,  -2.345,-44.627, -0.462
701989.07128, 3,  -1.857, 13.838, -6.729
701989.09118, 3,  -0.718,  7.643, -1.180
701989.11101, 3,  -0.455,  8.552,  0.445, 4,  -0.043,  0.599,  0.053, 5,  -1.691,-44.695, -3.365
701989.13088, 3,  -1.615, 10.016, -3.348
701989.15075, 3,  -3.391,  9.392, -4.587
701989.17062, 3,  -4.094, 11.289, -5.080, 4,  -0.041,  0.237, -0.019, 5,  -0.510,-44.681, -2.097
701989.19048, 3,  -2.661, 11.454,  0.022
701989.21035, 3,  -1.493,  7.542,  3.415
701989.23022, 3,  -2.857,  9.038, -2.091, 4,   0.034, -0.092,  0.079, 5,  -2.734,-44.208, -1.915
701989.25008, 3,  -2.558, 16.321, -6.346
701989.26995, 3,   0.309,  0.928, -3.441
701989.28982, 3,   1.268, 14.089, -5.956, 4,  -0.007,  0.185,  0.194
701989.30968, 3,   4.240,  9.677, -0.033
701989.32955, 3,   3.400,  6.954,  1.223
701989.34939, 3,   1.161,  9.832, -4.211, 4,   0.051,  0.457, -0.084, 5,  -1.820,-43.716, -0.226
701989.36925, 3,  -0.565,  9.978, -6.355
701989.38915, 3,  -2.699,  3.747, -6.788
701989.40902, 3,  -1.230, 16.278, -2.579, 4,  -0.145,  0.058, -0.194, 5,  -2.782,-44.104, -3.368
701989.42889, 3,   0.457,  3.941,  4.197
701989.44875, 3,   0.313, 15.438, -3.683
701989.46862, 3,   0.555,  9.098, -3.644, 4,   0.036, -0.303, -0.192, 5,  -1.770,-43.333, -1.030
701989.48849, 3,  -0.663,  4.625, -4.429
701989.50835, 3,  -1.378, 17.745, -5.393
701989.52822, 3,  -0.108, 10.069,  1.419, 4,  -0.015, -0.216, -0.065, 5,  -1.674,-44.177, -3.320
701989.54809, 3,  -0.574,  0.787, -1.771
701989.56795, 3,  -3.364, 11.452, -9.696
701989.58782, 3,  -1.268, 11.110, -6.549, 4,  -0.028, -0.291,  0.005, 5,  -0.229,-43.774, -2.074
701989.60766, 3,   0.266, 10.543, -0.239
701989.62752, 3,   2.412, 12.124, -0.223
701989.64739, 3,   1.988,  8.021,  0.129, 4,  -0.024,  0.232,  0.053, 5,  -0.069,-44.138, -1.917
701989.66729, 3,  -1.086,  5.104, -4.929
701989.68716, 3,  -0.244, 13.517, -3.096
701989.70702, 3,  -0.603,  3.912, -0.488, 4,   0.082,  0.053, -0.063, 5,  -1.750,-45.398, -2.284
701989.72628, 3,  -0.780, 14.517, -8.478
701989.74676, 3,   2.247, 10.950, -0.069
701989.76662, 3,   0.696,  2.182, -0.057, 4,  -0.008, -0.093, -0.066, 5,  -0.026,-44.102, -1.991
701989.78649, 3,  -2.601, 17.111, -8.341
701989.80636, 3,   0.426,  5.635, -1.271
701989.82619, 3,  -2.082, 13.831, -1.175, 4,  -0.109, -0.256, -0.028
701989.84606, 3,   0.038, 10.660,  1.366
701989.86593, 3,  -0.634,  6.394, -0.546
701989.88579, 3,  -2.445, 10.720, -9.495, 4,   0.070, -0.124,  0.008, 5,  -1.398,-44.179, -0.551
701989.90566, 3,  -0.404,  8.490, -1.096
701989.92553, 3,   0.084,  7.396, -1.936
701989.94543, 3,   1.218,  9.291, -2.034, 4,   0.005,  0.139,  0.046
701989.96529, 3,  -1.187,  9.059, -2.950
701989.98516, 3,  -0.802,  9.186, -4.587
701990.00503, 3,  -1.304,  7.473, -2.709, 4,  -0.009, -0.033, -0.030, 5,  -0.983,-45.119, -3.123
701990.02489, 3,  -2.905, 11.928, -3.001
701990.04476, 3,  -0.464, 10.481, -3.290
701990.06463, 3,  -0.536,  9.291,  0.924, 4,  -0.037, -0.195,  0.105, 5,  -1.646,-43.179, -1.622
701990.08449, 3,  -1.886,  9.100,  1.424
701990.10433, 3,  -4.046,  9.641, -2.017
701990.12420, 3,  -4.999, 10.859, -7.013, 4,   0.126, -0.253,  0.282, 5,  -2.220,-42.769, -1.494
701990.14406, 3,  -0.325,  9.777, -5.681
701990.16393, 3,   1.790,  5.745, -0.577
701990.18380, 3,   2.745, 12.680, -3.728, 4,  -0.035,  0.216,  0.452, 5,  -3.966,-43.434, -0.842
701990.20367, 3,   2.630, 11.632, -0.239
701990.22353, 3,   2.240,  5.920, -2.977
701990.24343, 3,   0.187, 15.565, -6.439, 4,   0.026,  0.828,  0.154, 5,  -4.045,-43.095, -1.921
701990.26330, 3,  -0.558, -0.079, -1.003
701990.28316, 3,  -1.309, 14.412, -3.537
701990.30303, 3,  -0.089, 10.698, -0.804, 4,   0.032,  0.490, -0.175, 5,  -3.815,-42.809, -1.440
701990.32290, 3,  -0.682,  7.107, -1.936
701990.34276, 3,  -1.268, 10.172, -5.003
701990.36263, 3,  -0.694,  6.501, -0.682, 4,   0.005, -0.002, -0.280
701990.38247, 3,  -1.055, 11.878, -3.147
701990.40234, 3,  -0.766, 10.012, -1.146
701990.42220, 3,  -0.397,  3.613, -0.955, 4,   0.016, -0.360, -0.252, 5,  -1.631,-42.899, -0.162
701990.44207, 3,  -0.936, 15.352, -7.370
701990.46194, 3,   0.703,  7.956, -4.996
701990.48180, 3,   0.218,  8.229,  0.345, 4,  -0.087, -0.437, -0.087
701990.50167, 3,  -0.347,  2.280, -0.742
701990.52157, 3,  -0.603, 12.306, -4.853
701990.54143, 3,   0.323,  7.583, -3.383, 4,  -0.009, -0.224,  0.010, 5,  -2.083,-42.715, -1.141
701990.56130, 3,   1.574, 14.917, -2.355
701990.58117, 3,   2.350,  7.717,  1.799
701990.60103, 3,   0.160, 11.409, -2.792, 4,   0.015,  0.231, -0.052, 5,  -1.071,-43.456, -0.993
701990.62087, 3,  -1.395,  7.080, -3.111
701990.64074, 3,  -3.228,  8.696, -0.232
701990.66061, 3,  -2.204, 14.766, -5.704, 4,   0.015,  0.112, -0.088, 5,  -1.312,-40.620, -1.205
701990.68047, 3,  -1.309,  2.747, -0.711
701990.70034, 3,  -3.144, 11.495, -5.858
701990.72021, 3,  -1.201, 10.146, -3.008, 4,  -0.048, -0.234,  0.041, 5,  -1.016,-42.735, -3.371
701990.74007, 3,  -0.459, 13.630, -0.964
701990.75994, 3,   2.414, 15.967, -2.163
701990.77981, 3,   0.742,  1.287,  2.556, 4,   0.065, -0.136,  0.155, 5,  -1.604,-41.325, -2.260
701990.79967, 3,  -1.682, 11.701, -5.061
701990.81957, 3,  -0.759, 12.519, -5.291
701990.83944, 3,   0.787,  6.382, -1.077, 4,   0.133,  0.053,  0.215, 5,  -2.274,-41.930, -2.069
701990.85931, 3,   2.072, 14.926, -3.616
701990.87914, 3,   3.032,  9.614, -1.792
701990.89901, 3,   3.135,  7.801, -4.027, 4,   0.101,  0.500,  0.077, 5,  -1.329,-42.838, -0.594
701990.91888, 3,  -0.747,  1.366, -4.676
701990.93874, 3,  -2.577, 13.003,-10.126
701990.95861, 3,  -0.823, 16.286, -3.321, 4,  -0.261,  0.522, -0.100, 5,  -1.591,-43.001, -1.189
701990.97848, 3,   1.452,  6.463,  6.910
701990.99834, 3,   1.335,  5.573,  2.051
701991.01821, 3,  -1.244, 13.115, -5.838, 4,  -0.053, -0.135, -0.306
701991.03808, 3,  -2.493, 11.038, -5.403
701991.05794, 3,  -2.876,  5.590,  2.996
701991.07781, 3,  -1.912,  7.760, -0.151, 4,  -0.071, -0.753, -0.118, 5,  -0.175,-43.433, -1.463
701991.09771, 3,  -1.412, 11.754, -5.736
701991.11758, 3,  -0.713, 11.390, -4.594
701991.13741, 3,  -0.495,  8.035, -0.665, 4,  -0.030, -0.572,  0.224, 5,  -0.162,-44.569,  0.494
701991.15728, 3,  -0.249, 14.230,  1.338
701991.17715, 3,   1.438,  5.896,  2.247
701991.19701, 3,   0.361, 12.505, -2.577, 4,   0.161,  0.001,  0.314, 5,  -2.429,-42.155, -1.381
701991.21688, 3,   2.259, 11.404, -4.700
701991.23675, 3,   1.677, -0.225, -2.780
701991.25661, 3,  -1.067, 17.736, -7.195, 4,   0.067,  0.623,  0.169, 5,  -1.506,-42.755, -0.313
701991.27648, 3,   0.931,  5.027,  0.400
701991.29635, 3,  -1.663,  9.172, -2.362
701991.31621, 3,  -3.180, 10.521, -3.931, 4,   0.019,  0.367, -0.060, 5,  -2.284,-44.197, -1.906
701991.33608, 3,  -3.163,  6.138, -1.094
701991.35595, 3,  -2.297, 15.867, -4.795
701991.37582, 3,  -1.728,  6.994,  2.972, 4,  -0.005,  0.055, -0.018, 5,  -2.147,-43.481, -1.137
701991.39568, 3,  -3.328,  9.684, -0.129
701991.41555, 3,  -1.874, 13.132, -2.929
701991.43542, 3,  -0.804, -0.280, -1.644, 4,   0.171,  0.025,  0.080, 5,  -2.849,-43.497, -1.630
701991.45528, 3,  -1.708, 15.963, -8.545
701991.47515, 3,   0.687, 10.131, -3.628
701991.49502, 3,   3.106,  4.123,  1.634, 4,   0.027,  0.237,  0.104, 5,  -2.594,-42.397, -1.920
701991.51488, 3,   1.993, 23.127, -6.202
701991.53475, 3,   2.455, -0.907,  2.067
701991.55462, 3,  -0.254, 12.852, -1.842, 4,   0.000,  0.248, -0.158
701991.57448, 3,  -0.833, 10.308, -1.113
701991.59435, 3,  -1.752,  5.580, -0.684
701991.61422, 3,  -2.524,  8.617, -6.851, 4,   0.040, -0.024, -0.231, 5,  -1.555,-43.083, -1.385
701991.63409, 3,  -1.878,  9.315, -3.290
701991.65392, 3,  -0.569, 12.936, -9.557
701991.67382, 3,   0.797, 12.151, -1.481, 4,  -0.210,  0.034, -0.095, 5,  -1.387,-43.462, -1.910
701991.69369, 3,   1.034,  7.334,  3.970
701991.71355, 3,  -0.672,  7.595,  0.424
701991.73342, 3,  -0.742, 11.347, -4.963, 4,   0.018, -0.141, -0.181, 5,  -1.572,-43.991, -2.260
701991.75329, 3,   0.964, 12.809, -4.582
701991.77315, 3,   2.003,  9.418, -1.287
701991.79302, 3,   1.153,  9.133,  1.658, 4,  -0.019, -0.017, -0.131, 5,  -1.747,-43.800, -4.134
701991.81289, 3,  -0.203,  7.700, -1.297
701991.83275, 3,  -2.130,  9.684, -6.346
701991.85262, 3,  -2.326, 12.519, -4.487, 4,   0.051, -0.058, -0.129, 5,  -1.929,-44.040, -2.061
701991.87249, 3,  -0.787,  5.800, -3.762
701991.89233, 3,  -0.026, 12.443, -6.805
701991.91219, 3,   0.191,  4.647, -1.261, 4,  -0.162, -0.020, -0.022, 5,  -2.007,-43.475, -2.643
701991.93206, 3,  -0.665,  9.248, -2.826
701991.95196, 3,  -0.732, 13.239, -2.240
701991.97182, 3,   2.058, 12.687, -1.314, 4,  -0.169, -0.064, -0.022, 5,  -1.843,-43.941, -4.578
701991.99169, 3,   2.185,  9.234, -0.672
701992.01156, 3,   0.531,  9.531, -1.689
701992.03142, 3,  -1.251, 10.002, -2.582, 4,   0.062, -0.237, -0.086, 5,  -1.865,-43.776, -2.641
701992.05129, 3,  -0.512,  8.657, -4.778
701992.07116, 3,   1.199, 10.612, -6.867
701992.09103, 3,   1.551,  9.090, -3.173, 4,   0.029, -0.213,  0.012
701992.11089, 3,   2.457,  9.947, -1.364
701992.13076, 3,   0.936, 10.830, -0.699
701992.15060, 3,  -0.139, 18.528, -2.345, 4,  -0.007, -0.130, -0.035, 5,  -3.207,-43.507, -1.385
701992.17046, 3,   2.101,  5.568,  1.443
701992.19033, 3,  -1.180,  9.263, -0.881
701992.21020, 3,  -0.682,  9.741, -4.609, 4,   0.163, -0.233,  0.020
701992.23006, 3,  -2.170, 11.019, -4.912
701992.24996, 3,  -1.740, 13.038, -4.862
701992.26983, 3,  -0.294,  6.963, -3.374, 4,   0.006, -0.024,  0.206, 5,  -2.832,-42.644, -0.175
701992.28969, 3,  -0.424,  7.293,  0.079
701992.30956, 3,  -0.299,  9.428, -2.288
701992.32943, 3,  -1.981,  8.772, -1.503, 4,   0.077,  0.261,  0.203, 5,  -3.160,-43.494, -1.660
701992.34930, 3,  -1.720,  8.454, -3.639
701992.36916, 3,   0.799, 21.294, -6.760
701992.38903, 3,   3.544,  5.104, -3.144, 4,   0.061,  0.426,  0.171, 5,  -3.989,-42.818,  0.206
701992.40887, 3,   1.491,  9.277, -1.627
701992.42873, 3,  -0.187,  9.437, -0.964
701992.44860, 3,  -1.405,  7.415, -1.036, 4,   0.096,  0.355, -0.078, 5,  -2.832,-42.787, -0.467
701992.46847, 3,  -1.027, 16.589, -5.994
701992.48833, 3,  -0.081,  3.764, -0.151
701992.50820, 3,   0.357, 11.060, -4.013, 4,   0.000,  0.019, -0.111, 5,  -3.329,-43.127, -1.920
701992.52810, 3,   1.117, 13.385, -4.908
701992.54796, 3,   1.359,  9.741, -0.926
701992.56783, 3,   2.091, 14.651, -0.452, 4,  -0.114, -0.061, -0.123, 5,  -1.714,-44.513, -0.990
701992.58770, 3,   3.025,  4.946,  2.785
701992.60757, 3,   2.625, 12.586, -5.080
701992.62743, 3,   0.558,  9.890, -6.583, 4,   0.068, -0.273, -0.259
701992.64730, 3,  -0.074, 12.266, -6.676
701992.66714, 3,   0.053,  4.810,  1.716
701992.68700, 3,   0.093, 12.792, -2.213, 4,  -0.108, -0.507, -0.170, 5,  -1.196,-42.932, -1.724
701992.70687, 3,   0.672,  9.638, -2.106
701992.72674, 3,  -1.309, 11.998, -1.484
701992.74660, 3,  -1.144, 11.931, -3.838, 4,   0.051, -0.463,  0.005
701992.76647, 3,  -4.226,  5.750, -9.739
701992.78634, 3,  -5.035, 13.972, -7.906
701992.80624, 3,  -2.460,  2.103,  0.120, 4,   0.064,  0.081,  0.180, 5,  -0.014,-42.004, -0.847
701992.82610, 3,  -2.225, 15.860, -0.660
701992.84597, 3,  -0.747, 11.129, -2.768
701992.86584, 3,  -0.960, 10.844, -0.952, 4,   0.062,  0.295,  0.139, 5,  -0.569,-43.155,  0.264
701992.88570, 3,  -1.455,  7.939,  0.696
701992.90557, 3,  -1.292, 13.043, -3.515
701992.92483, 3,  -2.197,  4.769, -3.814, 4,   0.167,  0.125,  0.055, 5,  -0.671,-43.361, -0.418
701992.94527, 3,  -3.532, 15.912, -6.877
701992.96514, 3,  -1.718,  9.325, -2.027
701992.98501, 3,  -2.063,  3.570,  0.388, 4,  -0.039,  0.016,  0.181, 5,  -1.147,-43.214, -0.464
701993.00487, 3,  -1.807, 15.235, -4.635
701993.02474, 3,  -0.038,  9.619, -2.199
701993.04461, 3,   0.160,  6.877, -3.170, 4,   0.003,  0.253,  0.203, 5,  -1.277,-43.158, -1.189
701993.06447, 3,  -0.079, 13.314, -0.790
701993.08434, 3,   2.914,  8.487,  0.775
701993.10424, 3,   1.247, 10.610, -2.285, 4,   0.008,  0.217,  0.047, 5,  -2.080,-44.705, -1.083
701993.12411, 3,   1.144,  8.351, -2.546
701993.14397, 3,   0.433,  5.970, -3.754
701993.16381, 3,  -0.512, 16.534, -4.869, 4,  -0.031, -0.120, -0.067, 5,  -1.471,-43.468,  0.166
701993.18368, 3,   1.646,  7.724,  2.491
701993.20354, 3,   0.438,  7.458,  1.074
701993.22341, 3,  -1.204, 13.603, -3.180, 4,   0.070, -0.133, -0.112, 5,  -1.385,-43.608, -1.187
701993.24328, 3,  -0.347,  4.886, -3.223
701993.26314, 3,  -1.670, 13.517, -6.173
701993.28301, 3,  -0.596,  7.095, -0.689, 4,   0.018,  0.173, -0.061
701993.30288, 3,  -1.144,  3.577, -2.043
701993.32275, 3,  -1.845, 14.993, -9.825
701993.34261, 3,  -0.251,  0.223, -0.361, 4,  -0.097,  0.088, -0.096, 5,  -1.178,-43.941, -0.955
701993.36248, 3,  -0.436, 16.776, -4.321
701993.38238, 3,   1.869, 10.064,  1.192
701993.40224, 3,   0.189,  6.217,  1.771, 4,  -0.098, -0.092, -0.133, 5,  -0.752,-42.834, -3.209
701993.42208, 3,  -1.785, 12.026, -4.422
701993.44195, 3,  -1.244,  1.909, -4.192
701993.46181, 3,  -3.362, 15.922, -5.865, 4,  -0.011, -0.220, -0.067, 5,  -0.311,-43.576, -1.770
701993.48168, 3,   0.548,  5.865, -0.400
701993.50155, 3,  -1.091,  7.095, -0.167
701993.52141, 3,  -1.519, 11.947, -4.745, 4,  -0.015, -0.246,  0.057, 5,  -0.366,-43.765, -2.249
701993.54128, 3,  -0.366,  8.179, -2.931
701993.56115, 3,   0.244, 10.933, -3.084
701993.58102, 3,   2.565, 13.146, -2.508, 4,  -0.074, -0.116,  0.168, 5,  -0.882,-42.932, -0.854
701993.60088, 3,   2.063,  8.451,  0.601
701993.62075, 3,   1.383,  8.404,  0.395
701993.64062, 3,  -0.732, 11.517, -3.931, 4,   0.084,  0.158,  0.056
701993.66048, 3,  -1.503,  3.515, -4.771
701993.68035, 3,   0.225, 16.221, -7.681
701993.70022, 3,   1.493,  2.888,  0.756, 4,   0.004,  0.217,  0.025, 5,  -0.722,-43.787, -1.376
701993.72008, 3,   0.591,  9.313, -3.843
701993.73995, 3,  -0.658, 13.831, -5.719
701993.75982, 3,  -0.715,  8.763, -0.060, 4,  -0.039,  0.062, -0.052, 5,  -1.672,-42.339, -1.534
701993.77968, 3,   1.022, 14.534, -4.680
701993.79955, 3,   0.242,  5.520,  3.013
701993.81942, 3,  -1.400, 10.203, -2.527, 4,  -0.024, -0.242, -0.041
701993.83929, 3,  -0.495, 11.416, -3.180
701993.85915, 3,  -0.428, 11.213, -2.929
701993.87902, 3,   1.457, 12.483, -3.089, 4,  -0.015, -0.221,  0.094, 5,  -1.950,-42.722, -0.511
701993.89889, 3,   2.125,  6.413,  2.503
701993.91875, 3,   0.723, 11.737, -2.498
701993.93859, 3,  -0.593, 12.503, -2.216, 4,   0.104,  0.180,  0.015
701993.95849, 3,  -1.773,  6.305, -3.357
701993.97835, 3,  -1.507, 14.043, -5.781
701993.99822, 3,   0.108,  7.760, -0.696, 4,   0.006,  0.286, -0.002, 5,  -1.166,-43.935, -1.675
701994.01809, 3,  -0.065,  8.035, -1.481
701994.03796, 3,  -1.524, 25.194, -3.254
701994.05782, 3,  -0.167,  1.809,  1.318, 4,   0.047,  0.106, -0.061, 5,  -1.006,-43.672, -2.333
701994.07769, 3,  -2.969, 16.207, -7.147
701994.09756, 3,  -0.292,  6.903, -2.568
701994.11742, 3,  -1.440,  7.183, -2.252, 4,  -0.012, -0.360,  0.010, 5,  -0.783,-42.126, -1.810
701994.13729, 3,  -1.670, 13.139, -5.343
701994.15716, 3,  -0.093,  8.466,  0.584
701994.17702, 3,   1.110, 18.652, -5.011, 4,  -0.018, -0.450,  0.203, 5,  -1.408,-44.608, -1.186
701994.19686, 3,   4.506,  5.877,  0.677
701994.21673, 3,   4.305, 11.591, -1.993
701994.23662, 3,   2.204,  8.365, -3.448, 4,   0.122,  0.169,  0.089, 5,   1.003,-44.409, -0.598
701994.25649, 3,   0.866, -0.273, -3.881
701994.27636, 3,  -2.898, 16.494,-10.181
701994.29623, 3,  -0.416, 11.677,  0.089, 4,  -0.157,  0.480, -0.051, 5,  -0.945,-43.690, -1.913
701994.31609, 3,   0.459,  6.162,  6.513
701994.33596, 3,  -1.412, 14.429, -1.177
701994.35583, 3,  -2.424,  6.461, -3.020, 4,   0.019,  0.121, -0.211
701994.37569, 3,  -4.924, 12.694, -2.599
701994.39556, 3,  -4.104,  7.298,  2.850
701994.41543, 3,  -3.951,  3.570, -4.482, 4,   0.098, -0.408, -0.037, 5,  -1.279,-44.470, -2.357
701994.43529, 3,  -3.245,  9.736, -8.743
701994.45513, 3,  -1.859,  8.085, -5.468
701994.47500, 3,   0.211, 13.787,  0.730, 4,  -0.125, -0.040,  0.260
701994.49486, 3,   2.575,  9.411,  2.594
701994.51473, 3,  -0.132,  9.473,  1.254
701994.53463, 3,  -1.433, 10.825, -8.844, 4,   0.128,  0.598,  0.081, 5,  -0.636,-42.239, -1.189
701994.55450, 3,  -2.797,  7.073, -3.874
701994.57436, 3,  -1.500,  7.767, -0.904
701994.59423, 3,  -1.507,  7.884, -2.266, 4,   0.010,  0.575, -0.054, 5,  -1.051,-42.354, -2.112
701994.61410, 3,  -0.653, 11.249, -4.936
701994.63396, 3,  -0.213,  9.301, -4.601
701994.65383, 3,   0.038,  3.752, -1.797, 4,  -0.081,  0.187, -0.218, 5,  -0.040,-42.712, -3.368
701994.67370, 3,   0.100, 17.334, -2.376
701994.69353, 3,   0.756,  5.078,  0.725
701994.71340, 3,  -1.299,  9.720, -4.250, 4,  -0.063, -0.410, -0.256, 5,   0.111,-42.712, -1.758
701994.73327, 3,  -1.184, 10.538, -5.850
701994.75314, 3,  -1.120,  4.089, -2.747
701994.77301, 3,  -0.904, 16.704, -2.797, 4,  -0.173, -1.025, -0.007, 5,   0.006,-42.673, -2.214
701994.79287, 3,   4.711, 10.229,  2.558
701994.81277, 3,   5.087,  7.851, -0.120
701994.83264, 3,   2.613, 15.486, -3.759, 4,   0.104, -0.436,  0.135
701994.85250, 3,   0.962,  1.527, -2.113
701994.87237, 3,   0.005, 13.247, -5.894
701994.89224, 3,   1.723, 11.060, -1.455, 4,   0.043,  0.410,  0.113, 5,   0.072,-43.466, -3.365
701994.91210, 3,   1.115,  3.003, -0.818
701994.93197, 3,  -0.199,  2.053, -9.141
701994.95184, 3,  -4.494, 16.692, -5.965, 4,  -0.121,  0.332, -0.064, 5,   0.398,-43.413, -3.613
701994.97168, 3,   0.002, 25.163,  0.029
701994.99154, 3,   4.408,  2.575, 13.287
701995.01141, 3,  -2.742, 11.758,  3.180, 4,  -0.067, -0.300, -0.124
701995.03128, 3,  -6.030, 11.782, -3.900
701995.05114, 3,  -6.920,  7.059, -4.654
701995.07101, 3,  -3.867,  6.439,  2.063, 4,   0.329, -0.085,  0.146, 5,  -1.105,-43.449, -3.787
701995.09088, 3,  -4.412, 18.477,-10.792
701995.11077, 3,  -2.989,  4.908, -5.173
701995.13064, 3,  -2.232, 10.634, -6.518, 4,   0.136,  0.202,  0.445, 5,  -0.333,-43.228, -3.052
701995.15051, 3,   0.854,  4.410, -1.938
701995.17038, 3,  -0.385, 12.976, -0.194
701995.19024, 3,   2.134, 11.809, -0.330, 4,   0.004,  0.586,  0.356, 5,  -2.020,-42.047, -3.084
701995.21011, 3,   0.852,  6.374, -1.194
701995.22995, 3,  -0.074, 12.089, -6.276
701995.24981, 3,   0.658,  6.080, -2.345, 4,   0.065,  0.700,  0.076, 5,  -2.625,-44.914, -3.223
701995.26968, 3,   0.730, 13.228, -3.659
701995.28955, 3,   1.981,  8.076, -0.431
701995.30941, 3,   0.976,  5.951, -0.436, 4,   0.022,  0.586, -0.197, 5,  -1.660,-45.605, -2.637
701995.32928, 3,  -0.833,  8.030, -6.765
701995.34915, 3,  -0.567, 11.442, -7.403
701995.36901, 3,   1.036, 10.256, -4.853, 4,  -0.181, -0.085, -0.288
701995.38891, 3,   3.474, 13.175, -1.517
701995.40878, 3,   4.271,  8.887,  4.099
701995.42865, 3,   2.462,  9.751,  3.446, 4,  -0.199, -0.654, -0.300, 5,  -0.395,-46.439, -3.941
701995.44851, 3,   0.495,  9.019, -2.096
701995.46838, 3,  -0.400, 12.503, -3.979
701995.48822, 3,   2.240, 10.770, -3.237, 4,   0.068, -0.259, -0.161, 5,  -0.481,-46.712, -3.745
701995.50808, 3,   1.304,  6.745, -1.675
701995.52795, 3,   0.895, 10.772, -2.713
701995.54782, 3,  -0.208,  9.373, -2.187, 4,  -0.034, -0.169, -0.157
701995.56768, 3,  -0.357, 12.969, -2.520
701995.58755, 3,   0.940, 10.598, -1.335
701995.60742, 3,  -1.692,  6.731, -0.747, 4,  -0.028, -0.563, -0.051, 5,   0.719,-46.779, -3.691
701995.62728, 3,  -3.474, 10.990, -3.264
701995.64715, 3,  -4.132,  8.447, -3.458
701995.66705, 3,  -1.048, 12.873, -5.369, 4,   0.090, -0.263,  0.265, 5,   0.517,-47.688, -2.637
701995.68692, 3,   2.764,  2.797, -3.807
701995.70678, 3,   1.488,  8.143, -4.601
701995.72662, 3,   2.254,  7.200, -2.276, 4,   0.074,  0.566,  0.292, 5,   0.302,-49.614, -2.467
701995.74649, 3,   0.579,  6.257, -3.060
701995.76635, 3,   0.794, 15.517, -6.257
701995.78622, 3,   2.520, 10.404, -1.515, 4,  -0.074,  0.292,  0.031, 5,   0.508,-48.367, -0.830
701995.80609, 3,  -0.438,  9.272,  2.692
701995.82595, 3,  -3.005,  5.748,  0.589
701995.84582, 3,  -1.692,  9.705, -0.948, 4,   0.057, -0.257, -0.049, 5,   1.169,-48.535, -2.194
701995.86569, 3,  -1.981,  9.215, -3.410
701995.88555, 3,  -0.421, 10.287, -5.594
701995.90542, 3,   0.830,  6.949, -5.001, 4,   0.122,  0.022,  0.222, 5,  -0.034,-46.460, -0.630
701995.92529, 3,   2.268,  8.801, -6.085
701995.94516, 3,   3.070,  8.502, -3.781
701995.96505, 3,   2.725, 13.055, -3.659, 4,  -0.081,  0.445,  0.083, 5,  -1.260,-47.739, -0.212
701995.98489, 3,   3.161, 15.056, -1.172
701996.00476, 3,   1.656,  6.910,  4.680
701996.02462, 3,  -0.859, 10.708, -1.816, 4,   0.018,  0.207, -0.225
701996.04449, 3,  -4.214, 11.478, -5.305
701996.06436, 3,  -4.135,  7.363, -4.391
701996.08422, 3,  -2.326, 11.643, -6.305, 4,   0.019,  0.054, -0.086, 5,   0.247,-47.586, -0.026
701996.10409, 3,  -0.907,  6.590, -1.548
701996.12335, 3,  -0.187, 10.883, -2.410
701996.14382, 3,  -1.199, 10.717, -1.496, 4,  -0.076,  0.215, -0.023, 5,   0.450,-46.982, -1.427
701996.16369, 3,  -0.160, 12.392, -0.175
701996.18356, 3,   3.403, 16.424, -1.835
701996.20343, 3,   3.551,  3.855,  1.646, 4,  -0.015, -0.189, -0.051
701996.22329, 3,   2.733, 11.031, -4.556
701996.24316, 3,   2.498, 10.631, -5.381
701996.26303, 3,   2.137,  6.829, -1.524, 4,   0.019, -0.383, -0.107, 5,  -0.133,-47.285,  0.276
701996.28289, 3,   2.618,  9.973, -4.202
701996.30276, 3,   1.687,  9.045, -1.981
701996.32263, 3,   0.742, 11.239, -2.450, 4,  -0.021, -0.062, -0.098, 5,   0.101,-46.524,  0.755
701996.34249, 3,  -1.295,  9.507, -2.735
701996.36236, 3,  -3.185, 12.747, -2.941
701996.38223, 3,  -1.771, 12.885, -2.022, 4,  -0.007, -0.009, -0.049, 5,   0.494,-46.883, -0.452
701996.40210, 3,  -0.663,  7.255,  1.180
701996.42196, 3,  -0.086,  5.372, -3.915
701996.44183, 3,  -3.869, 14.407, -8.430, 4,   0.103, -0.277,  0.056, 5,  -0.105,-46.153,  1.884
701996.46170, 3,  -2.182,  8.052, -2.857
701996.48156, 3,   0.720,  6.049,  0.007
701996.50140, 3,  -0.098, 14.106, -2.544, 4,  -0.027,  0.016,  0.238, 5,  -0.877,-46.251, -0.455
701996.52127, 3,   0.483,  7.315, -1.089
701996.54116, 3,  -0.577,  9.724, -3.561
701996.56103, 3,  -0.421, 13.070,  0.847, 4,   0.030,  0.520,  0.190
701996.58090, 3,   0.696, 12.136, -2.845
701996.60076, 3,   1.900,  8.380, -0.780
701996.62063, 3,   1.323,  7.303, -1.778, 4,   0.042,  0.378, -0.003, 5,  -0.764,-45.786,  0.604
701996.64050, 3,  -0.038,  9.220, -4.790
701996.66037, 3,  -0.414, 13.661, -4.128
701996.68023, 3,   0.589, 10.098, -0.694, 4,  -0.054,  0.177, -0.144, 5,   0.861,-46.596,  0.084
701996.70010, 3,   0.531,  6.307,  1.457
701996.71997, 3,   0.450, 11.742, -3.974
701996.73983, 3,  -0.739,  8.382, -4.939, 4,   0.058,  0.276, -0.220
701996.75967, 3,  -1.706,  9.555, -6.430
701996.77954, 3,  -0.060, 11.560, -2.515
701996.79940, 3,  -0.512,  6.494,  2.465, 4,  -0.139,  0.293, -0.255, 5,   1.546,-45.914,  0.958
701996.81930, 3,   0.060, 14.273, -2.723
701996.83917, 3,   1.024,  9.667, -2.343
701996.85903, 3,  -0.002, 10.758, -4.104, 4,  -0.037,  0.014, -0.352, 5,   2.954,-46.065, -0.874
701996.87890, 3,   1.828,  8.124, -2.618
701996.89877, 3,   1.067,-14.075, -1.314
701996.91864, 3,  -4.058, 15.654,-17.882, 4,  -0.195, -0.399, -0.374, 5,   3.799,-44.807, -1.085
701996.93850, 3,  -1.421, 23.325, -3.685
701996.95837, 3,   7.021, 10.260,  9.263
701996.97824, 3,   3.668, 11.813,  8.432, 4,  -0.457, -0.672, -0.239, 5,   3.487,-44.763, -0.937
701996.99810, 3,  -1.137,  8.767,  3.517
701997.01794, 3,  -3.331,  9.366, -4.125
701997.03781, 3,  -3.869, -9.803,  5.676, 4,   0.353, -0.776, -0.033, 5,   3.545,-44.353, -1.604
701997.05767, 3,  -1.747, 23.572,-16.970
701997.07754, 3,   4.420, 10.394,-10.988
701997.09744, 3,   5.369,  1.488,  0.184, 4,   0.147,  0.200,  0.205
701997.11730, 3,   1.598, 11.297, -7.023
701997.13717, 3,  -1.720, 11.119, -1.285
701997.15704, 3,   0.969, 10.552,  0.469, 4,  -0.017,  0.011, -0.071, 5,   2.213,-43.660, -0.360
701997.17691, 3,   1.170, 14.594, -3.010
701997.19677, 3,   0.031,  8.815,  0.778
701997.21664, 3,  -0.244,  9.947, -2.043, 4,   0.116, -0.507, -0.045
701997.23651, 3,  -1.807,  6.769, -4.424
701997.25637, 3,  -2.177, 10.555, -6.130
701997.27624, 3,  -0.385,  8.966, -3.046, 4,   0.104, -0.161,  0.179, 5,   3.658,-44.914, -0.739
701997.29608, 3,   1.598,  9.815,  0.065
701997.31594, 3,   1.405, 12.227, -1.519
701997.33581, 3,   1.653,  7.358, -2.551, 4,   0.042,  0.041,  0.135, 5,   1.714,-44.104,  0.505
701997.35568, 3,   3.654, 21.514, -4.350
701997.37554, 3,   3.479,  1.534,  2.079
701997.39544, 3,   1.058,  8.435, -1.883, 4,   0.038,  0.234, -0.011, 5,   0.607,-44.131,  0.165
701997.41531, 3,  -0.103,  9.502, -3.989
701997.43518, 3,  -0.682,  3.769, -6.824
701997.45504, 3,  -1.266, 14.948, -5.886, 4,  -0.069,  0.636, -0.157, 5,   2.176,-45.815,  0.575
701997.47491, 3,  -1.357,  5.585,  6.095
701997.49478, 3,  -2.338, 11.694, -2.606
701997.51464, 3,  -1.450,  9.389,  0.701, 4,  -0.171,  0.141, -0.362, 5,   2.625,-43.367, -0.735
701997.53451, 3,  -3.785,  6.384,  0.962
701997.55435, 3,  -4.838, 13.742, -5.317
701997.57421, 3,  -2.043, 13.795, -2.211, 4,  -0.120, -0.534, -0.159, 5,   3.018,-41.931, -0.656
701997.59408, 3,  -1.498,  8.411,  0.467
701997.61395, 3,  -3.620,  6.389,  1.512
701997.63381, 3,  -0.960, 15.671, -3.300, 4,  -0.017, -0.729,  0.102
701997.65368, 3,   4.144,  5.803, -2.768
701997.67358, 3,   7.791, 21.830, -8.894
701997.69345, 3,   8.973,  9.863, -0.151, 4,   0.107, -0.371,  0.183, 5,   1.772,-43.724, -1.221
701997.71331, 3,   6.693,  0.864, -0.443
701997.73318, 3,   0.737, 13.797, -7.949
701997.75305, 3,  -0.184,  0.665, -6.537, 4,   0.233, -0.226, -0.120
701997.77291, 3,  -1.452, 11.177, -6.078
701997.79275, 3,  -2.632,  7.059, -2.599
701997.81262, 3,  -3.180, 15.271, -2.639, 4,  -0.110, -0.473, -0.005, 5,   1.575,-44.481, -1.523
701997.83248, 3,  -2.041,  6.867,  0.857
701997.85235, 3,  -3.716, 15.436,  2.166
701997.87222, 3,  -2.745, 10.098, -0.261, 4,  -0.003, -0.490,  0.242, 5,   0.615,-43.605, -2.638
701997.89209, 3,  -3.589,  0.981,  1.742
701997.91195, 3,  -1.898, 10.737, -4.929
701997.93182, 3,   0.364,  9.629, -6.872, 4,   0.276, -0.202,  0.492
701997.95169, 3,   3.245,  9.509, -5.618
701997.97158, 3,   5.944, 12.701, -4.152
701997.99145, 3,   5.281,  9.033, -1.230, 4,   0.093,  0.431,  0.344, 5,  -0.748,-44.872, -1.910
701998.01132, 3,   2.048,  7.214, -0.675
701998.03118, 3,  -0.964,  9.648, -3.388
701998.05102, 3,  -0.730,  9.858, -2.900, 4,   0.108,  0.347,  0.006, 5,  -0.081,-44.856, -1.483
701998.07089, 3,   0.187, 10.270, -2.867
701998.09075, 3,  -1.010,  9.272, -1.807
701998.11062, 3,  -2.752,  7.762, -2.615, 4,   0.045,  0.234, -0.041, 5,   1.187,-43.604, -1.183
701998.13049, 3,  -3.379, 10.179, -2.118
701998.15036, 3,  -2.151, 15.884, -2.687
701998.17022, 3,  -0.928,  7.552, -1.455, 4,  -0.011, -0.113,  0.047, 5,  -1.733,-44.897, -1.184
701998.19009, 3,  -1.653,  6.260, -1.591
701998.20996, 3,  -1.883,  9.992, -4.862
701998.22982, 3,  -1.524,  8.557, -4.008, 4,   0.066, -0.006,  0.159, 5,  -1.007,-44.739,  0.706
701998.24972, 3,  -0.885, 10.064, -2.230
701998.26959, 3,   1.998, 12.754, -1.627
701998.28945, 3,   3.190, 11.995, -1.407, 4,  -0.011,  0.410,  0.130
701998.30932, 3,   2.515,  6.743, -0.191
701998.32916, 3,   0.979,  7.966, -4.015
701998.34902, 3,   0.354,  9.078, -3.912, 4,   0.019,  0.555, -0.181, 5,  -1.431,-45.134, -0.214
701998.36889, 3,   1.175, 10.301, -2.166
701998.38876, 3,   1.464, 11.974, -0.311
701998.40863, 3,   0.074,  6.492, -1.089, 4,  -0.079,  0.074, -0.451, 5,  -0.095,-45.573, -0.610
701998.42849, 3,  -2.795, 10.100, -3.891
701998.44836, 3,  -3.412, 13.180, -3.489
701998.46823, 3,  -0.079,  8.468, -1.338, 4,  -0.122, -0.788, -0.327, 5,   2.066,-44.945, -0.877
701998.48809, 3,  -0.275,  9.605, -1.304
701998.50796, 3,   0.531,  8.908, -3.970
701998.52783, 3,  -0.474, 12.122, -5.882, 4,   0.013, -1.354,  0.001, 5,   1.956,-45.576, -0.786
701998.54772, 3,   2.065, 14.235, -2.122
701998.56759, 3,   3.936,  7.600, -0.251
701998.58743, 3,   0.962, 16.704, -3.517, 4,   0.130, -0.575,  0.324, 5,   0.409,-44.849,  0.468
701998.60730, 3,   1.840,  1.993, -1.675
701998.62716, 3,  -0.629, 12.246, -7.511
701998.64703, 3,   1.204, 11.890, -5.841, 4,   0.126,  0.426,  0.346, 5,  -0.133,-46.983, -0.441
701998.66690, 3,   2.323,  9.236, -0.225
701998.68676, 3,   1.041,  6.963,  0.636
701998.70663, 3,  -0.215, 12.297, -0.967, 4,   0.062,  0.527,  0.059, 5,  -1.720,-44.531,  1.183
701998.72650, 3,  -2.228, 11.864, -5.113
701998.74636, 3,  -4.250,  7.655, -2.917
701998.76623, 3,  -3.015, 12.902, -2.780, 4,  -0.032, -0.074,  0.064, 5,  -0.439,-45.206,  0.354
701998.78610, 3,  -1.484,  7.729,  0.323
701998.80596, 3,  -0.610,  9.011, -2.752
701998.82583, 3,  -1.421, 13.091, -6.001, 4,   0.061, -0.148,  0.214
701998.84570, 3,   0.215,  8.097, -1.718
701998.86557, 3,   1.311, 12.682, -3.094
701998.88543, 3,   3.357,  8.937, -0.251, 4,   0.005,  0.195,  0.229, 5,  -0.858,-46.175,  0.272
701998.90530, 3,   3.075,  8.155, -2.240
701998.92517, 3,   0.383, 13.316, -3.302
701998.94503, 3,  -0.866,  1.476, -1.563, 4,   0.035,  0.151, -0.023
701998.96490, 3,  -3.290, 12.534, -7.470
701998.98477, 3,  -1.548,  7.647, -0.644
701999.00463, 3,  -2.213,  7.336, -0.450, 4,  -0.088, -0.013,  0.030, 5,  -0.934,-43.452, -0.946
701999.02450, 3,  -2.149, 13.019, -3.922
701999.04437, 3,  -1.598, 10.753, -3.797
701999.06420, 3,  -1.639, 14.319, -1.192, 4,  -0.128,  0.046,  0.144, 5,  -2.338,-44.073, -0.462
701999.08410, 3,  -0.251,  4.410,  4.302
701999.10397, 3,  -0.067, 10.007,  0.306
701999.12384, 3,  -0.577, 11.514, -5.626, 4,   0.155, -0.084,  0.115, 5,  -2.321,-43.390, -1.091
701999.14370, 3,   1.340, 12.433, -5.221
701999.16357, 3,   1.981,  6.226, -1.792
701999.18344, 3,   3.034,  9.756, -4.295, 4,   0.093,  0.146,  0.080, 5,  -4.039,-42.815, -1.099
701999.20330, 3,   3.429, 10.751, -2.991
701999.22317, 3,   2.079, 10.002, -3.503
701999.24304, 3,  -0.981,  8.813, -2.852, 4,   0.033,  0.304, -0.211, 5,  -2.420,-42.783,  1.289
701999.26290, 3,  -2.321, 15.675, -2.130
701999.28277, 3,  -1.216,  1.036,  0.627
701999.30264, 3,  -4.673, 11.636, -4.372, 4,  -0.006, -0.343, -0.237, 5,  -0.464,-42.020,  0.732
701999.32247, 3,  -3.513,  6.190, -2.359
701999.34234, 3,  -3.762, 10.390, -5.764
701999.36221, 3,  -0.811, 13.041, -2.996, 4,  -0.048, -0.743,  0.079
701999.38208, 3,   2.517,  7.291,  0.409
701999.40197, 3,   0.847, 12.890, -1.239
701999.42184, 3,  -1.192,  3.226, -2.780, 4,   0.120, -0.064,  0.203, 5,  -1.491,-42.618,  1.003
701999.44171, 3,  -1.785, 11.033, -4.087
701999.46157, 3,  -1.979,  8.707, -3.592
701999.48144, 3,  -2.132, 11.086, -1.582, 4,   0.070,  0.463,  0.204
701999.50131, 3,  -2.716,  7.817, -1.280
701999.52056, 3,  -3.005,  7.978, -1.790
701999.54104, 3,  -3.281,  8.961, -5.850, 4,   0.050,  0.309,  0.148, 5,  -2.078,-42.722,  2.385
701999.56091, 3,  -2.948, 13.323, -3.692
701999.58078, 3,  -1.158,  7.358,  2.082
701999.60064, 3,  -1.646, 12.634,  0.290, 4,  -0.001,  0.210,  0.189, 5,  -1.717,-42.380,  1.654
701999.62048, 3,  -1.464,  2.575, -2.579
701999.64035, 3,  -2.613,  9.511, -8.064
701999.66021, 3,  -0.201,  7.925, -2.575, 4,   0.038,  0.373,  0.170, 5,  -1.987,-40.643,  3.140
701999.68011, 3,   1.070, 10.102, -2.821
701999.69998, 3,   2.084, 10.404, -1.895
701999.71984, 3,   2.084,  8.803, -0.031, 4,  -0.070,  0.399, -0.024, 5,  -2.531,-41.541, -0.851
701999.73971, 3,   2.134,  6.264, -2.077
701999.75958, 3,  -0.024,  8.384, -4.034
701999.77944, 3,   1.172, 10.957, -1.653, 4,  -0.053, -0.060, -0.245, 5,  -1.349,-42.038, -0.467
701999.79931, 3,  -1.144,  6.293, -0.167
701999.81918, 3,  -2.292, 11.112, -3.527
701999.83905, 3,  -2.625,  4.944, -3.458, 4,  -0.022, -0.500, -0.152, 5,   0.136,-41.283, -2.347
701999.85891, 3,  -2.912, 13.211, -4.755
701999.87875, 3,  -0.864, 10.280, -1.000
701999.89862, 3,  -0.601,  7.698,  0.790, 4,  -0.026, -0.463,  0.152, 5,  -0.629,-43.312, -1.187
701999.91848, 3,  -0.924, 10.772, -2.960
701999.93835, 3,  -1.797,  5.932, -2.359
701999.95822, 3,  -0.790, 13.120, -5.238, 4,   0.097,  0.176,  0.317, 5,  -3.615,-43.515, -1.678
701999.97811, 3,  -0.213,  7.899, -0.938
701999.99798, 3,   1.105, 12.720, -2.606
702000.01785, 3,   0.366,  8.516, -5.063, 4,   0.077,  0.700,  0.236
702000.03772, 3,   1.390,  4.716, -2.410
702000.05758, 3,   0.711, 11.782, -3.618
702000.07745, 3,   1.115, 13.007, -1.967, 4,  -0.046,  0.846, -0.056, 5,  -2.325,-43.486, -1.228
702000.09732, 3,   0.763,  7.858, -2.091
702000.11718, 3,  -3.068,  8.971,  2.548
702000.13702, 3,  -1.400,  9.567, -8.741, 4,  -0.007,  0.434, -0.310, 5,  -2.425,-42.976, -1.497
702000.15689, 3,  -4.989, 14.649,  0.172
702000.17675, 3,  -2.462, 10.579, -1.747
702000.19662, 3,  -2.656,  9.107,  0.684, 4,  -0.028, -0.305, -0.149, 5,  -2.490,-44.823, -1.469
702000.21649, 3,  -1.646,  6.642, -3.309
702000.23635, 3,  -1.141, 10.382, -5.283
702000.25625, 3,   0.768, 11.232, -0.072, 4,  -0.011, -0.309,  0.118, 5,  -3.926,-43.660, -3.517
702000.27612, 3,   6.214,  8.619, -4.092
702000.29599, 3,   6.327,  9.272, -3.730
702000.31585, 3,   6.913, 10.299, -3.900, 4,  -0.048,  0.502, -0.032, 5,  -5.444,-45.937, -2.156
702000.33572, 3,   5.578,  7.461, -2.139
702000.35559, 3,   2.053, 13.228, -4.300
702000.37545, 3,  -0.227, 14.929,  1.414, 4,  -0.145,  0.531, -0.514, 5,  -4.152,-45.563, -2.745
702000.39532, 3,   1.110,  4.977, -1.823
702000.41516, 3,  -2.534, 12.591,  0.541
702000.43502, 3,  -2.962, 12.641,  1.110, 4,  -0.124, -0.532, -0.586, 5,  -2.603,-44.775, -3.505
702000.45489, 3,  -2.139,  9.957,  0.232
702000.47476, 3,  -2.390, 16.424,  1.823
702000.49462, 3,  -2.826,  2.108, -1.811, 4,  -0.002, -1.301, -0.094, 5,  -3.107,-44.595, -4.039
702000.51449, 3,  -4.676, 13.606, -3.441
702000.53439, 3,   0.457, 10.720, -2.938
702000.55426, 3,   1.467,  6.908, -2.369, 4,   0.063, -0.830,  0.587
702000.57412, 3,   2.821, 17.228, -1.680
702000.59399, 3,   2.474, -6.147,  2.271
702000.61386, 3,   1.347, 16.278, -6.564, 4,   0.175,  0.653,  0.594, 5,  -3.758,-43.903, -2.449
702000.63372, 3,   1.247,  5.602, -4.116
702000.65356, 3,   0.902,  6.647, -2.240
702000.67343, 3,   2.551, 14.981, -2.840, 4,   0.038,  1.370,  0.213, 5,  -3.464,-46.353, -1.920
702000.69329, 3,   2.357,  9.868,  3.259
702000.71316, 3,   0.467,  6.437, -1.005
702000.73303, 3,   0.605, 13.462, -1.330, 4,   0.089,  0.943, -0.286, 5,  -5.086,-44.075, -3.027
702000.75289, 3,  -0.634, 13.091, -5.515
702000.77276, 3,  -2.718, 10.411, -3.132
702000.79263, 3,  -2.209, 10.973, -1.907, 4,  -0.055,  0.073, -0.371, 5,  -4.739,-44.337, -2.301
702000.81250, 3,  -0.309,  5.817,  1.345
702000.83239, 3,  -0.629, 13.318, -2.453
702000.85226, 3,   0.617,  7.992, -0.529, 4,  -0.040, -0.402, -0.310, 5,  -2.208,-44.193, -3.218
702000.87213, 3,   1.522, 13.314, -2.185
702000.89199, 3,   1.397, 11.495,  0.170
702000.91186, 3,   2.417,  8.205, -0.311, 4,  -0.088, -0.489, -0.186, 5,  -1.515,-45.514, -2.637
702000.93170, 3,   1.306,  9.617, -0.572
702000.95156, 3,   0.476,  8.684, -1.165
702000.97143, 3,   0.481, 12.565, -3.809, 4,  -0.003, -0.347, -0.125, 5,  -2.538,-44.910, -4.330
702000.99130, 3,   0.955,  8.518, -3.405
702001.01116, 3,   0.837, 11.380,  2.376
702001.03103, 3,   3.202, 10.799, -1.316, 4,  -0.096,  0.059, -0.100, 5,  -1.817,-45.189, -1.747
702001.05090, 3,   2.175,  7.856,  1.247
702001.07077, 3,  -0.981, 11.502, -2.467
702001.09063, 3,  -0.579,  9.799, -1.584, 4,  -0.031, -0.053, -0.223
702001.11053, 3,  -2.101, 11.880, -2.323
702001.13040, 3,  -2.445, 10.595,  1.024
702001.15026, 3,  -4.798, 10.160, -2.623, 4,  -0.032, -0.829, -0.030, 5,  -2.420,-45.438, -3.268
702001.17013, 3,  -4.932, 11.916,  1.046
702001.18997, 3,  -3.123,  6.044,  0.045
702001.20983, 3,  -0.749, 10.756, -3.367, 4,   0.104, -0.741,  0.404
702001.22970, 3,  -1.031, 15.522, -3.589
702001.24957, 3,   1.206,  7.537,  1.151
702001.26944, 3,   1.565,  7.729, -3.706, 4,   0.212,  0.507,  0.618, 5,  -2.231,-45.189, -3.078
702001.28930, 3,   2.565, 10.004, -2.953
702001.30917, 3,   1.070,  5.465, -5.748
702001.32904, 3,   0.412,  9.440, -3.431, 4,   0.138,  1.402,  0.254, 5,  -4.327,-45.900, -3.610
702001.34890, 3,   1.687, 11.806, -0.416
702001.36877, 3,   1.637, 13.350,  1.323
702001.38864, 3,   0.139, 10.327, -0.050, 4,   0.012,  1.006, -0.228, 5,  -2.756,-44.965, -4.610
702001.40853, 3,  -1.670,  7.956,  0.450
702001.42840, 3,  -4.092,  2.912, -2.297
702001.44824, 3,  -3.240,  8.655, -4.932, 4,   0.069,  0.153, -0.379, 5,  -2.264,-46.758, -4.233
702001.46810, 3,  -1.637,  9.497, -4.999
702001.48797, 3,   2.759, 13.747, -1.761
702001.50784, 3,   3.407,  8.396,  2.299, 4,  -0.160, -0.437, -0.253, 5,  -1.077,-45.543, -2.975
702001.52771, 3,   0.330,  9.255,  0.940
702001.54757, 3,   0.842,  9.516, -0.505
702001.56744, 3,  -0.278,  7.463, -2.804, 4,  -0.023, -0.595, -0.216, 5,  -1.239,-44.879, -3.697
702001.58731, 3,   0.158, 12.077, -3.008
702001.60717, 3,  -0.531, 14.632, -1.974
702001.62704, 3,   1.708,  8.176,  4.307, 4,  -0.089, -0.520, -0.057
702001.64691, 3,   0.553,  8.193, -2.871
702001.66677, 3,   1.840, 16.070, -4.302
702001.68664, 3,   2.651,  9.205, -2.020, 4,   0.042,  0.091, -0.036, 5,  -0.438,-45.047, -3.741
702001.70651, 3,   0.144,  6.623, -4.185
702001.72637, 3,  -1.586, 20.408, -5.264
702001.74624, 3,  -0.421,  3.297,  4.640, 4,  -0.048,  0.118, -0.129
702001.76611, 3,  -0.751,  7.542, -1.072
702001.78598, 3,  -0.536, 11.419, -8.073
702001.80584, 3,  -1.862, 10.062, -0.072, 4,   0.072, -0.565, -0.135, 5,   0.247,-44.130, -4.433
702001.82571, 3,  -2.146,  3.850, -3.125
702001.84558, 3,  -0.751, 16.515, -6.099
702001.86544, 3,   2.960, 11.230,  2.089, 4,  -0.046, -0.723,  0.091, 5,   0.740,-42.987, -3.941
702001.88531, 3,   0.814,  7.159,  7.255
702001.90518, 3,  -1.419, 13.845, -4.247
702001.92501, 3,  -1.263,  8.676, -3.606, 4,   0.236, -0.268,  0.231, 5,  -2.077,-46.198, -3.363
702001.94488, 3,  -1.015,  7.571, -0.988
702001.96478, 3,  -0.916, 11.328, -1.819
702001.98464, 3,  -0.730, 12.225, -1.792, 4,   0.105,  0.315,  0.362, 5,  -2.086,-44.902, -2.400
702002.00451, 3,  -0.412,  3.197,  2.149
702002.02438, 3,   2.527, 28.001, -1.019
702002.04425, 3,   0.347, -5.319,  5.073, 4,   0.134,  0.715,  0.210, 5,  -2.254,-45.912, -1.614
702002.06411, 3,  -3.336,  7.332, -2.680
702002.08398, 3,  -1.048,  7.312, -9.710
702002.10385, 3,  -1.673, 16.123, -4.621, 4,  -0.011,  0.926,  0.074, 5,  -1.540,-46.219, -1.283
702002.12371, 3,  -2.649,  8.617, -4.142
702002.14358, 3,  -1.711,  8.033,  3.869
702002.16345, 3,  -0.550, 11.553,  1.376, 4,  -0.161,  0.700, -0.078, 5,  -2.118,-46.236, -3.812
702002.18328, 3,   0.926,  8.255,  3.991
702002.20315, 3,   0.636, 20.815,-11.213
702002.22302, 3,   0.306,  0.955, -1.474, 4,   0.027,  0.532, -0.219, 5,  -0.371,-46.007, -2.919
702002.24288, 3,  -0.866, 13.323,  0.881
702002.26278, 3,   0.368,  6.855, -0.459
702002.28265, 3,  -2.199,  9.500, -2.857, 4,  -0.044, -0.078, -0.342
702002.30252, 3,   0.005,  5.061, -2.388
702002.32238, 3,   0.517, 17.403, -2.788
702002.34225, 3,   0.660,  6.671,  0.132, 4,  -0.097, -0.640, -0.286, 5,   1.183,-47.913, -2.867
702002.36212, 3,  -0.794, 11.119, -2.022
702002.38198, 3,   0.191, 12.488, -0.048
702002.40185, 3,  -0.483,  9.909,  2.560, 4,  -0.020, -0.683, -0.129, 5,   3.079,-46.201, -3.302
702002.42172, 3,   1.823,  9.550, -2.752
702002.44158, 3,   2.386,  9.849, -3.745
702002.46142, 3,   2.161,  8.763, -2.539, 4,   0.023, -0.200, -0.072, 5,   0.642,-47.992, -1.453
702002.48129, 3,   1.527, 10.770,  0.713
702002.50115, 3,   1.117, 10.844, -1.271
702002.52102, 3,   0.309, 15.151,  3.046, 4,  -0.171, -0.220, -0.114, 5,   2.161,-47.708, -2.681
702002.54092, 3,   1.579,  6.173,  7.908
702002.56079, 3,   0.234, 12.797,  2.189
702002.58065, 3,  -0.799,  8.861,  0.275, 4,   0.006, -0.724, -0.046, 5,   2.542,-46.733, -3.156
702002.60052, 3,  -1.223,  7.444, -5.901
702002.62039, 3,  -0.976, 10.519, -3.546
702002.64025, 3,   0.660,-15.261,  2.046, 4,  -0.332, -0.432,  0.211, 5,   1.865,-46.941, -4.085
702002.66012, 3,   0.347, 61.644, -7.202
702002.67999, 3,   7.061,-13.244, 30.028
702002.69985, 3,   2.340, 21.107,  8.538, 4,  -0.155, -0.727,  0.239, 5,  -0.607,-46.288, -4.123
702002.71969, 3,  -3.687,  8.138, -3.020
702002.73956, 3,  -5.231,  9.291,-13.998
702002.75943, 3,  -4.187, 10.538,-12.395, 4,   0.191, -0.131,  0.460, 5,  -0.757,-46.631, -4.005
702002.77929, 3,   0.967,  6.836,  0.598
702002.79916, 3,   1.194, 12.345,  7.875
702002.81903, 3,  -0.378, -1.677, 10.461, 4,   0.104,  0.697,  0.451
702002.83892, 3,   2.850, 12.897, -7.248
702002.85879, 3,   1.218,  3.467, -2.173
702002.87866, 3,   4.644, 11.502, -1.496, 4,   0.316,  1.377,  0.161, 5,  -0.826,-46.292, -4.723
702002.89852, 3,   0.167,  2.118,  3.427
702002.91839, 3,  -1.256, 20.538,-11.682
702002.93826, 3,  -4.877,  3.831,  0.672, 4,   0.126,  1.103, -0.139
702002.95813, 3,   1.852, 12.278, -2.180
702002.97796, 3,  -0.902, 10.787, -1.024
702002.99783, 3,  -1.548,  7.265,  2.634, 4,   0.042,  0.514, -0.249, 5,   0.536,-46.965, -3.844
702003.01770, 3,   2.364,  9.478, -6.559
702003.03756, 3,   0.715, 16.343, -6.932
702003.05743, 3,   0.531,  6.470,  0.225, 4,  -0.018, -0.279, -0.342, 5,   0.653,-47.401, -1.765
702003.07730, 3,   1.905, 10.399, -0.849
702003.09716, 3,  -0.218,  4.056, -0.919
702003.11706, 3,   1.225, 19.746, -4.805, 4,  -0.015, -0.664, -0.361, 5,   1.392,-46.754, -3.777
702003.13693, 3,   2.986,  4.826,  1.747
702003.15679, 3,   1.230,  6.987, -2.163
702003.17666, 3,   1.211, 17.008, -3.505, 4,  -0.008, -0.986, -0.290, 5,   2.556,-46.123, -3.804
702003.19650, 3,   1.775,  3.096,  1.266
702003.21640, 3,   0.854, 11.021, -2.883
702003.23623, 3,   1.371, 14.646, -2.596, 4,  -0.050, -1.210, -0.191, 5,   2.396,-46.930, -3.925
702003.25610, 3,   1.168,  6.276,  1.644
702003.27597, 3,   1.464, 12.077, -0.254
702003.29583, 3,   0.234, 10.174,  0.555, 4,  -0.006, -1.189, -0.085, 5,   0.513,-47.929, -4.324
702003.31570, 3,  -0.751, 10.184, -1.321
702003.33557, 3,   0.010,  9.990, -1.775
702003.35543, 3,  -1.615, 11.682, -0.022, 4,   0.033, -0.825,  0.105
702003.37530, 3,  -1.790,  7.920, -1.917
702003.39520, 3,  -2.843, 10.682,  0.476
702003.41506, 3,  -2.431,  6.894,  0.780, 4,   0.064, -0.512,  0.276, 5,  -1.498,-48.309, -4.807
702003.43493, 3,  -3.371, 14.249,  0.711
702003.45480, 3,  -3.620, 10.588,  0.703
702003.47467, 3,  -2.579,  6.671, -0.397, 4,   0.213,  0.074,  0.455
702003.49450, 3,  -1.400, 11.110, -3.333
702003.51437, 3,   0.668,  8.880, -3.616
702003.53424, 3,   1.809,  9.413, -3.575, 4,   0.169,  0.899,  0.473, 5,  -2.451,-47.438, -1.788
702003.55410, 3,   1.237, 10.162, -2.905
702003.57397, 3,   2.254,  9.830, -1.029
702003.59384, 3,   1.455,  8.294, -1.512, 4,   0.092,  1.222,  0.208, 5,  -4.678,-49.435, -3.358
702003.61370, 3,   1.194, 10.947, -2.517
702003.63357, 3,  -0.577,  5.125, -3.278
702003.65344, 3,  -1.323,  2.524, -3.783, 4,   0.086,  0.555,  0.012, 5,  -3.531,-49.940, -1.906
702003.67330, 3,  -0.569, 23.624, -5.685
702003.69320, 3,   1.089,  4.386,  3.467
702003.71307, 3,   0.957,  9.684,  2.881, 4,  -0.070,  0.096, -0.065, 5,  -1.901,-50.787, -2.623
702003.73294, 3,  -1.948, 11.548, -1.708
702003.75280, 3,  -2.914,  9.605, -2.687
702003.77267, 3,  -2.455,  9.222, -2.168, 4,   0.118,  0.112, -0.008, 5,  -4.321,-51.707, -3.694
702003.79251, 3,  -0.881, 10.519, -3.058
702003.81237, 3,  -1.094,  8.901, -2.010
702003.83224, 3,  -1.283,  9.779, -0.500, 4,  -0.011,  0.382,  0.068, 5,  -1.212,-53.438, -1.743
702003.85211, 3,  -1.237,  8.071, -0.821
702003.87197, 3,  -1.180, 12.258, -1.742
702003.89184, 3,  -0.359, 12.357,  0.720, 4,  -0.041,  0.407,  0.073, 5,  -2.228,-51.280, -0.491
702003.91171, 3,   0.912,  8.408,  1.974
702003.93157, 3,   0.641, 11.241, -0.505
702003.95144, 3,   1.752, 10.213,  2.501, 4,   0.057,  0.402,  0.001, 5,  -2.641,-49.664, -1.411
702003.97134, 3,   0.625,  5.353, -1.876
702003.99121, 3,   1.338, 15.898, -5.850
702004.01107, 3,   2.146,  8.442,  0.433, 4,  -0.059,  0.604, -0.056
702004.03094, 3,   1.304, 10.146,  3.106
702004.05078, 3,   1.168, 10.705,  3.194
702004.07064, 3,   0.852,  9.586,  1.589, 4,  -0.055,  0.538, -0.194, 5,  -1.692,-51.312, -1.027
702004.09051, 3,  -0.433, 11.921, -0.888
702004.11038, 3,  -1.050,  7.210, -0.871
702004.13024, 3,  -0.713,  9.720, -3.314, 4,  -0.097, -0.104, -0.183, 5,  -0.330,-51.900,  1.013
702004.15011, 3,  -0.916, 11.945, -1.804
702004.16998, 3,  -0.780, 11.069,  2.914
702004.18985, 3,   1.046,  9.009,  3.996, 4,  -0.123, -0.336, -0.095, 5,  -1.433,-49.445, -0.259
702004.20971, 3,   0.773, 10.251,  0.325
702004.22958, 3,  -0.050,  9.452, -3.312
702004.24945, 3,  -0.038,  9.404, -4.939, 4,   0.113, -0.143, -0.095, 5,  -0.334,-49.857, -0.291
702004.26934, 3,   2.161,  9.787, -4.678
702004.28921, 3,   0.450,  9.406, -1.713
702004.30905, 3,   1.103, 10.134,  0.172, 4,  -0.080, -0.144, -0.124, 5,   0.009,-50.790, -0.441
702004.32891, 3,  -0.012,  4.534,  0.558
702004.34878, 3,  -0.742,  5.561, -5.939
702004.36865, 3,  -0.144, 20.920, -7.059, 4,  -0.084, -0.402, -0.092
702004.38851, 3,   2.079, 11.409,  3.034
702004.40838, 3,   1.216,  9.380,  6.669
702004.42825, 3,   1.120, 11.787,  4.865, 4,  -0.076, -0.569, -0.137, 5,   0.357,-49.265, -0.870
702004.44812, 3,  -0.256,  9.301,  1.464
702004.46798, 3,  -0.519,  7.009, -1.630
702004.48785, 3,  -0.433, 10.631, -4.053, 4,  -0.001, -0.602, -0.040, 5,   0.742,-49.391, -0.777
702004.50772, 3,   0.529, 10.830, -0.318
702004.52758, 3,   0.045, 11.397,  3.690
702004.54748, 3,  -0.414, 11.440,  4.877, 4,  -0.201, -0.492, -0.019
702004.56732, 3,  -1.141,  9.547,  3.520
702004.58718, 3,  -1.907,  9.356,  0.065
702004.60705, 3,  -1.850, 10.174, -3.099, 4,   0.016, -0.434,  0.059, 5,  -0.708,-51.035, -1.501
702004.62692, 3,  -0.878, 10.674, -3.053
702004.64678, 3,  -0.445,  9.732,  0.194
702004.66663, 3,   0.352,  9.835,  1.596, 4,  -0.092, -0.344,  0.117, 5,  -0.836,-48.444, -1.901
702004.68650, 3,   0.658,  9.729,  0.124
702004.70637, 3,  -0.854,  9.918, -1.685
702004.72623, 3,  -1.405,  9.665, -3.678, 4,   0.088, -0.159,  0.110, 5,  -2.156,-48.134, -0.296
702004.74610, 3,   0.495, 10.091, -3.436
702004.76597, 3,   0.845,  9.299, -1.385
702004.78583, 3,   1.309, 10.296,  0.275, 4,  -0.059, -0.292,  0.098, 5,  -1.813,-48.424, -1.860
702004.80570, 3,   1.601,  9.995, -0.067
702004.82557, 3,   1.484, 10.337, -1.457
702004.84543, 3,   2.768, 10.299, -1.859, 4,  -0.002, -0.217,  0.002, 5,  -1.476,-47.466, -2.185
702004.86530, 3,   1.670, 11.064, -1.630
702004.88517, 3,   1.723, 10.540, -0.053
702004.90504, 3,   1.682,  9.471,  3.163, 4,  -0.151, -0.220, -0.114, 5,  -1.485,-47.829, -2.496
702004.92490, 3,   1.137, 11.512,  3.235
702004.94477, 3,  -1.338, 10.540,  2.094
702004.96464, 3,  -2.283, 10.244,  0.072, 4,  -0.010, -0.165, -0.145, 5,  -1.039,-47.966, -1.663
702004.98450, 3,  -4.341,  9.114, -0.124
702005.00437, 3,  -3.118,  8.368, -0.395
702005.02424, 3,  -1.845,  8.877, -0.766, 4,   0.039, -0.015, -0.009, 5,  -1.221,-47.882, -2.631
702005.04410, 3,  -1.924, 11.469, -4.422
702005.06397, 3,  -1.433, 11.816, -2.907
702005.08381, 3,  -1.567,  7.978, -1.431, 4,   0.040, -0.053,  0.065
702005.10367, 3,  -2.453,  9.404, -1.129
702005.12357, 3,  -1.393,  9.645, -1.500
702005.14344, 3,  -2.788, 11.017, -7.059, 4,   0.079,  0.046,  0.110, 5,  -2.815,-47.775, -1.178
702005.16331, 3,  -2.185,  9.497, -2.333
702005.18317, 3,  -0.593,  8.918, -1.242
702005.20304, 3,   0.359,  8.473, -1.237, 4,   0.094, -0.011,  0.151
702005.22291, 3,  -0.110,  9.538, -0.639
702005.24277, 3,   0.854,  8.497, -0.651
702005.26264, 3,  -0.684,  9.299, -6.185, 4,   0.225,  0.144,  0.091, 5,  -2.798,-47.064, -0.302
702005.28251, 3,  -2.591, 15.192,-11.072
702005.30237, 3,   1.345,  5.477,  3.261
702005.32224, 3,   0.907,  9.660, -4.018, 4,  -0.008, -0.121,  0.139, 5,  -3.061,-48.740,  0.273
702005.34208, 3,   0.091,  8.368,  1.976
702005.36194, 3,  -3.022, 13.787, -5.389
702005.38181, 3,  -0.390,  9.303,  1.615, 4,   0.038,  0.040,  0.131, 5,  -3.558,-47.087,  1.517
702005.40171, 3,   0.182,  9.502, -2.326
702005.42158, 3,   0.254,  8.688, -0.718
702005.44144, 3,  -0.345, 10.643, -4.518, 4,   0.059,  0.230,  0.149, 5,  -3.754,-48.238,  0.572
702005.46131, 3,   0.067,  9.880, -1.182
702005.48118, 3,   1.065,  9.160, -0.086
702005.50104, 3,   1.172,  9.902, -2.000, 4,   0.040,  0.292,  0.112, 5,  -3.784,-47.475,  0.270
702005.52091, 3,   1.239,  9.602, -2.496
702005.54078, 3,   1.381,  9.825, -2.283
702005.56064, 3,   1.546,  9.636, -0.864, 4,   0.031,  0.409,  0.033
702005.58051, 3,   0.909, 10.423, -2.910
702005.60035, 3,   1.462,  9.523, -1.316
702005.62022, 3,   1.469,  9.818, -2.252, 4,   0.020,  0.735, -0.057, 5,  -4.135,-47.096, -0.261
702005.64008, 3,   1.129,  9.519, -1.168
702005.65995, 3,   1.050,  9.954, -1.620
702005.67982, 3,   1.194,  9.909, -2.091, 4,   0.004,  0.510, -0.151, 5,  -2.515,-48.485, -0.105
702005.69971, 3,   1.524,  9.803, -2.063
702005.71958, 3,   0.641,  9.447, -1.072
702005.73945, 3,   0.766,  9.708, -1.979, 4,  -0.018,  0.301, -0.225
702005.75931, 3,   0.689,  9.818, -1.610
702005.77918, 3,  -0.316,  9.875, -1.440
702005.79905, 3,  -0.601,  9.540, -1.795, 4,  -0.017,  0.241, -0.258, 5,  -3.836,-47.800, -0.838
702005.81892, 3,  -0.598,  9.629, -1.242
702005.83878, 3,  -1.117, 10.172, -1.625
702005.85862, 3,  -1.785,  9.686, -0.993, 4,  -0.019,  0.037, -0.228, 5,  -1.335,-47.318, -1.891
702005.87849, 3,  -1.170,  9.839, -2.020
702005.89835, 3,  -0.787,  9.825, -1.620
702005.91822, 3,  -1.129,  9.933, -1.311, 4,  -0.014,  0.010, -0.178, 5,   0.438,-47.742, -1.038
702005.93809, 3,  -1.567,  9.607, -1.239
702005.95795, 3,  -1.256,  9.952, -2.429
702005.97785, 3,  -1.187,  9.851, -1.309, 4,  -0.007,  0.036, -0.126, 5,  -0.139,-47.247,  1.003
702005.99772, 3,  -1.304, 10.024, -1.330
702006.01758, 3,  -1.012,  9.622, -1.342
702006.03745, 3,  -0.318,  9.748, -1.993, 4,  -0.005, -0.044, -0.089, 5,  -1.073,-47.450, -0.304
702006.05732, 3,  -0.565, 10.076, -1.749
702006.07719, 3,  -1.125,  9.846, -0.840
702006.09705, 3,  -0.993,  9.909, -1.637, 4,   0.004,  0.039, -0.079
702006.11631, 3,  -0.735,  9.734, -1.972
702006.13676, 3,  -0.627,  9.779, -1.752
702006.15662, 3,  -0.964,  9.818, -1.050, 4,  -0.005,  0.022, -0.059, 5,   0.450,-47.075, -1.175
702006.17649, 3,  -0.876, 10.184, -1.596
702006.19636, 3,  -0.775,  9.842, -1.457
702006.21622, 3,  -0.876,  9.686, -1.342, 4,  -0.003, -0.011, -0.044, 5,   0.784,-47.829, -1.315
702006.23609, 3,  -0.852,  9.835, -1.708
702006.25599, 3,  -0.816,  9.906, -1.637
702006.27585, 3,  -0.833,  9.806, -1.357, 4,  -0.005,  0.011, -0.030
702006.29572, 3,  -0.653,  9.839, -1.474
702006.31559, 3,  -0.567,  9.904, -1.517
702006.33546, 3,  -0.668,  9.897, -1.527, 4,  -0.002,  0.032, -0.023, 5,   0.294,-47.951,  0.040
702006.35532, 3,  -0.792,  9.837, -1.541
702006.37516, 3,  -0.938,  9.835, -1.558
702006.39503, 3,  -1.003,  9.839, -1.543, 4,  -0.004,  0.017, -0.015, 5,  -0.780,-48.387, -1.848
702006.41489, 3,  -0.943,  9.825, -1.586
702006.43476, 3,  -0.857,  9.827, -1.668
702006.45463, 3,  -0.926,  9.815, -1.658, 4,  -0.005, -0.025,  0.001, 5,  -0.145,-47.710, -1.758
702006.47449, 3,  -0.837,  9.830, -1.728
702006.49436, 3,  -0.701,  9.784, -1.749
702006.51423, 3,  -0.778,  9.791, -1.799, 4,  -0.002, -0.026,  0.010, 5,   1.125,-48.395, -0.499
702006.53409, 3,  -0.802,  9.801, -1.907
702006.55399, 3,  -0.782,  9.751, -1.890
702006.57386, 3,  -0.773,  9.744, -1.912, 4,  -0.001, -0.018,  0.014, 5,   0.516,-48.022, -1.370
702006.59373, 3,  -0.663,  9.756, -2.091
702006.61359, 3,  -0.682,  9.736, -2.244
702006.63343, 3,  -0.761,  9.667, -2.228, 4,   0.000,  0.015,  0.016
702006.65330, 3,  -0.866,  9.696, -2.266
702006.67316, 3,  -1.065,  9.724, -2.101
702006.69303, 3,  -1.050,  9.715, -1.909, 4,   0.001,  0.002,  0.024, 5,   1.782,-47.466, -1.375
702006.71290, 3,  -0.897,  9.712, -2.032
702006.73276, 3,  -0.993,  9.751, -2.065
