700662.64363, 3,   0.421,  9.574, -2.613
700662.66346, 3,   0.421,  9.574, -2.613
700662.68333, 3,   0.208,  9.586, -2.644, 4,  -0.001,  0.007,  0.002, 5,   7.814,-36.183, 28.008
700662.70320, 3,   0.182,  9.564, -2.651
700662.72307, 3,   0.242,  9.571, -2.675
700662.74293, 3,   0.230,  9.574, -2.577, 4,  -0.002,  0.002, -0.005, 5,   8.575,-34.032, 31.102
700662.76280, 3,   0.225,  9.571, -2.579
700662.78267, 3,   0.309,  9.610, -2.615
700662.80253, 3,   0.357,  9.578, -2.608, 4,   0.001, -0.002,  0.003
700662.82240, 3,   0.347,  9.629, -2.713
700662.84227, 3,   0.438,  9.550, -2.603
700662.86216, 3,   0.488,  9.540, -2.596, 4,   0.000,  0.004,  0.008, 5,   8.994,-33.310, 31.441
700662.88203, 3,   0.457,  9.626, -2.754
700662.90190, 3,   0.443,  9.562, -2.740
700662.92177, 3,   0.380,  9.571, -2.680, 4,   0.002,  0.008,  0.003
700662.94163, 3,   0.328,  9.610, -2.661
700662.96150, 3,   0.299,  9.569, -2.646
700662.98137, 3,   0.127,  9.643, -2.711, 4,   0.001,  0.013,  0.003, 5,  10.437,-34.697, 30.286
700663.00123, 3,   0.062,  9.523, -2.448
700663.02110, 3,   0.275,  9.696, -2.510
700663.04097, 3,   0.517,  9.605, -2.436, 4,   0.004,  0.021,  0.020, 5,   9.280,-34.300, 29.309
700663.06083, 3,   0.378,  9.662, -2.639
700663.08070, 3,   0.290,  9.715, -2.611
700663.10057, 3,   0.517,  9.193, -2.182, 4,   0.005,  0.017,  0.028, 5,   8.379,-34.747, 30.035
700663.12044, 3,   0.251,  9.933, -2.603
700663.14030, 3,   0.100,  9.602, -2.185
700663.16020, 3,   0.048,  9.727, -2.699, 4,   0.001, -0.024,  0.026, 5,   9.555,-34.103, 30.037
700663.18007, 3,   0.471,  9.344, -2.515
700663.19993, 3,   0.251,  9.672, -2.613
700663.21980, 3,  -0.074,  9.574, -2.900, 4,   0.007, -0.020,  0.045, 5,   8.850,-35.730, 29.312
700663.23967, 3,   0.151,  9.471, -2.919
700663.25953, 3,   0.330,  9.540, -2.850
700663.27879, 3,   0.330,  9.523, -2.977, 4,   0.009, -0.015,  0.063, 5,   9.303,-35.196, 29.791
700663.29927, 3,   0.744,  9.476, -3.529
700663.31910, 3,   1.007,  9.315, -3.216
700663.33897, 3,   0.950,  9.459, -2.512, 4,   0.004,  0.059,  0.056
700663.35884, 3,   0.407,  9.638, -1.546
700663.37871, 3,   1.493,  9.421, -4.922
700663.39857, 3,   0.926,  9.476, -3.261, 4,   0.024,  0.015,  0.030, 5,   7.680,-34.332, 29.451
700663.41844, 3,   0.632,  9.660, -1.383
700663.43834, 3,   1.096,  9.633, -2.948
700663.45820, 3,   0.926,  9.490, -3.510, 4,   0.003,  0.052,  0.007
700663.47807, 3,   1.055,  9.026, -3.405
700663.49794, 3,  -0.103,  9.846, -1.448
700663.51780, 3,   0.313,  9.779, -1.637, 4,  -0.020,  0.156, -0.012, 5,   8.812,-35.349, 31.154
700663.53767, 3,   0.402,  9.399, -2.532
700663.55754, 3,  -0.218,  9.765, -2.472
700663.57741, 3,   0.306,  9.617, -2.926, 4,   0.024, -0.026,  0.012, 5,   8.376,-35.133, 30.232
700663.59727, 3,   0.677,  9.480, -2.718
700663.61714, 3,   0.577,  9.653, -2.180
700663.63701, 3,   0.703,  9.617, -2.347, 4,   0.001, -0.035,  0.039, 5,   8.218,-34.042, 29.317
700663.65687, 3,   0.871,  9.643, -2.620
700663.67674, 3,   0.849,  9.598, -2.582
700663.69661, 3,   0.828,  9.523, -2.649, 4,   0.009,  0.016,  0.035, 5,   8.003,-35.999, 30.956
700663.71647, 3,   0.845,  9.552, -2.876
700663.73637, 3,   0.897,  9.550, -2.709
700663.75624, 3,   1.015,  9.528, -2.701, 4,   0.000,  0.013,  0.026, 5,   7.526,-35.388, 30.858
700663.77611, 3,   1.103,  9.559, -2.764
700663.79597, 3,   0.950,  9.547, -2.828
700663.81584, 3,   0.833,  9.514, -2.879, 4,  -0.000,  0.005,  0.005, 5,   8.324,-35.463, 30.905
700663.83571, 3,   0.677,  9.638, -3.005
700663.85557, 3,   0.706,  9.452, -2.745
700663.87544, 3,   0.768,  9.519, -2.761, 4,  -0.004, -0.012, -0.009, 5,   8.200,-36.801, 29.951
700663.89531, 3,   0.632,  9.545, -2.879
700663.91517, 3,   0.641,  9.514, -2.941
700663.93504, 3,   0.598,  9.569, -2.646, 4,  -0.008, -0.009, -0.010, 5,   8.168,-36.423, 30.269
700663.95491, 3,   0.648,  9.559, -2.802
700663.97477, 3,   0.723,  9.492, -2.922
700663.99464, 3,   0.711,  9.538, -2.828, 4,  -0.007, -0.007, -0.014
700664.01454, 3,   0.541,  9.559, -2.931
700664.03441, 3,   0.596,  9.504, -2.876
700664.05424, 3,   0.737,  9.514, -2.740, 4,  -0.009,  0.007, -0.017, 5,   7.640,-35.905, 29.898
700664.07411, 3,   0.770,  9.547, -2.639
700664.09398, 3,   0.689,  9.629, -2.704
700664.11384, 3,   0.541,  9.578, -2.783, 4,  -0.011, -0.003, -0.021, 5,  10.085,-36.131, 29.515
700664.13371, 3,   0.464,  9.495, -2.888
700664.15358, 3,   0.601,  9.521, -2.771
700664.17344, 3,   0.773,  9.514, -2.675, 4,  -0.009, -0.022, -0.025, 5,   7.753,-36.812, 31.400
700664.19331, 3,   0.847,  9.576, -2.759
700664.21318, 3,   0.756,  9.636, -2.828
700664.23304, 3,   0.572,  9.535, -2.773, 4,  -0.009, -0.026, -0.031, 5,   8.455,-35.460, 30.627
700664.25291, 3,   0.450,  9.523, -2.752
700664.27278, 3,   0.414,  9.571, -2.745
700664.29268, 3,   0.505,  9.514, -2.685, 4,  -0.011,  0.002, -0.034, 5,   9.105,-34.505, 30.275
700664.31254, 3,   0.536,  9.535, -2.682
700664.33241, 3,   0.526,  9.562, -2.651
700664.35228, 3,   0.467,  9.605, -2.685, 4,  -0.013,  0.001, -0.031, 5,   9.433,-35.387, 30.663
700664.37214, 3,   0.354,  9.595, -2.685
700664.39201, 3,   0.256,  9.595, -2.654
700664.41188, 3,   0.234,  9.581, -2.548, 4,  -0.008, -0.006, -0.028, 5,   9.277,-34.726, 29.895
700664.43174, 3,   0.297,  9.545, -2.804
700664.45161, 3,   0.266,  9.526, -2.879
700664.47148, 3,   0.220,  9.543, -2.740, 4,  -0.000, -0.010, -0.017, 5,   7.472,-35.481, 30.037
700664.49135, 3,   0.239,  9.586, -2.678
700664.51121, 3,   0.323,  9.559, -2.733
700664.53108, 3,   0.402,  9.564, -2.740, 4,  -0.003, -0.007, -0.003
700664.55095, 3,   0.481,  9.555, -2.606
700664.57081, 3,   0.447,  9.586, -2.553
700664.59071, 3,   0.450,  9.612, -2.709, 4,   0.000, -0.000,  0.003, 5,   7.639,-35.863, 28.725
700664.61058, 3,   0.400,  9.576, -2.745
700664.63044, 3,   0.424,  9.605, -2.716
700664.65031, 3,   0.500,  9.605, -2.721, 4,   0.000, -0.003,  0.004, 5,   8.858,-35.448, 30.762
700664.67018, 3,   0.495,  9.545, -2.618
700664.69005, 3,   0.481,  9.535, -2.570
700664.70991, 3,   0.534,  9.569, -2.577, 4,  -0.004,  0.013,  0.008, 5,   8.875,-34.737, 30.380
700664.72978, 3,   0.596,  9.645, -2.649
700664.74965, 3,   0.569,  9.569, -2.687
700664.76951, 3,   0.596,  9.581, -2.682, 4,  -0.001,  0.014,  0.006, 5,   9.575,-35.013, 30.765
700664.78938, 3,   0.524,  9.586, -2.493
700664.80922, 3,   0.524,  9.588, -2.450
700664.82908, 3,   0.522,  9.645, -2.572, 4,   0.000,  0.026,  0.001, 5,   8.202,-34.898, 29.755
700664.84895, 3,   0.625,  9.564, -2.670
700664.86885, 3,   0.579,  9.610, -2.644
700664.88872, 3,   0.366,  9.681, -2.565, 4,   0.003,  0.024,  0.001, 5,   8.205,-34.799, 30.807
700664.90858, 3,   0.325,  9.492, -2.436
700664.92845, 3,   0.510,  9.595, -2.331
700664.94832, 3,   0.670,  9.732, -2.465, 4,  -0.004,  0.012,  0.006, 5,   8.432,-34.509, 29.553
700664.96818, 3,   0.668,  9.605, -2.587
700664.98805, 3,   0.567,  9.583, -2.548
700665.00792, 3,   0.541,  9.555, -2.591, 4,  -0.004, -0.000,  0.005, 5,   8.482,-34.471, 31.335
700665.02778, 3,   0.519,  9.612, -2.579
700665.04765, 3,   0.696,  9.588, -2.587
700665.06752, 3,   0.696,  9.564, -2.680, 4,  -0.002, -0.019,  0.003
700665.08738, 3,   0.565,  9.567, -2.809
700665.10725, 3,   0.431,  9.586, -2.733
700665.12712, 3,   0.316,  9.564, -2.687, 4,   0.002,  0.007, -0.003, 5,   8.701,-34.740, 30.037
700665.14699, 3,   0.304,  9.655, -2.565
700665.16688, 3,   0.278,  9.545, -2.307
700665.18675, 3,   0.684,  9.511, -2.455, 4,   0.006,  0.009,  0.005
700665.20662, 3,   0.462,  9.787, -2.431
700665.22648, 3,   0.258,  9.732, -2.381
700665.24635, 3,   0.234,  9.531, -2.383, 4,   0.008,  0.026,  0.011, 5,   8.037,-36.183, 30.765
700665.26622, 3,   0.361,  9.686, -2.553
700665.28608, 3,   0.345,  9.488, -2.599
700665.30595, 3,   0.218,  9.581, -2.723, 4,   0.009,  0.004,  0.028, 5,   8.632,-35.455, 30.765
700665.32582, 3,   0.227,  9.655, -2.828
700665.34569, 3,   0.440,  9.598, -2.701
700665.36555, 3,   0.251,  9.521, -2.606, 4,   0.011,  0.002,  0.040, 5,   5.783,-36.337, 30.191
700665.38542, 3,   0.194,  9.535, -2.646
700665.40529, 3,   0.627,  9.519, -2.900
700665.42515, 3,   0.751,  9.600, -2.795, 4,   0.016,  0.028,  0.056, 5,  11.090,-37.540, 32.811
700665.44505, 3,   0.689,  9.605, -2.773
700665.46492, 3,   0.694,  9.550, -2.728
700665.48478, 3,   0.852,  9.514, -2.611, 4,   0.013,  0.056,  0.052, 5,   8.189,-35.468, 31.100
700665.50465, 3,   0.689,  9.533, -2.678
700665.52452, 3,   0.873,  9.502, -2.898
700665.54435, 3,   1.400,  9.492, -3.096, 4,   0.020,  0.028,  0.046, 5,   6.853,-35.495, 29.701
700665.56422, 3,   1.120,  9.576, -3.058
700665.58409, 3,   0.751,  9.485, -2.855
700665.60396, 3,   0.436,  9.507, -2.457, 4,   0.005,  0.059,  0.025
700665.62382, 3,   0.696,  9.545, -2.855
700665.64369, 3,   0.687,  9.569, -2.795
700665.66356, 3,   0.663,  9.528, -2.189, 4,   0.007, -0.035,  0.024, 5,   7.841,-35.287, 30.762
700665.68342, 3,   0.586,  9.495, -3.276
700665.70329, 3,   0.739,  9.409, -3.173
700665.72319, 3,   1.019,  9.562, -2.570, 4,   0.004, -0.017,  0.027
700665.74305, 3,   0.916,  9.643, -2.694
700665.76292, 3,   1.082,  9.385, -3.608
700665.78279, 3,   0.560,  9.406, -3.025, 4,  -0.000,  0.038,  0.012, 5,   7.201,-35.829, 31.490
700665.80266, 3,  -0.321,  9.497, -2.704
700665.82252, 3,   0.172,  9.497, -3.503
700665.84239, 3,   0.569,  9.416, -3.080, 4,  -0.004,  0.050,  0.021, 5,   6.697,-36.360, 30.186
700665.86226, 3,   0.479,  9.514, -2.591
700665.88212, 3,   0.749,  9.468, -3.324
700665.90199, 3,   0.778,  9.622, -3.594, 4,   0.011,  0.065,  0.035, 5,   5.547,-36.293, 32.123
700665.92186, 3,   0.962,  9.282, -3.527
700665.94172, 3,   1.460,  9.234, -3.381
700665.96159, 3,   1.840,  9.449, -3.446, 4,   0.006,  0.176,  0.029, 5,   6.396,-35.997, 30.515
700665.98146, 3,   1.010,  9.519, -3.405
700666.00132, 3,   0.055,  9.435, -3.805
700666.02122, 3,   0.392,  9.126, -4.065, 4,   0.009,  0.355, -0.001, 5,   6.055,-35.657, 30.467
700666.04109, 3,   0.687,  8.990, -3.613
700666.06096, 3,   0.759,  9.401, -3.407
700666.08082, 3,   0.869,  9.449, -3.891, 4,  -0.010,  0.177,  0.001
700666.10069, 3,   0.964,  9.217, -5.145
700666.12056, 3,   1.462,  8.571, -4.750
700666.14042, 3,   1.383,  8.691, -4.597, 4,   0.004,  0.076, -0.015, 5,   6.799,-34.076, 31.288
700666.16029, 3,   1.012,  9.361, -4.329
700666.18016, 3,   0.945,  9.368, -4.886
700666.20002, 3,   0.735,  8.660, -5.470, 4,   0.007,  0.189, -0.056, 5,   4.724,-35.121, 30.608
700666.21989, 3,   0.325,  8.985, -5.224
700666.23976, 3,   0.139,  8.971, -4.927
700666.25963, 3,   0.325,  8.899, -4.314, 4,  -0.016,  0.134, -0.079
700666.27946, 3,  -0.074,  9.468, -5.113
700666.29939, 3,  -0.395,  9.002, -4.570
700666.31926, 3,  -0.206,  8.937, -5.377, 4,   0.006, -0.081, -0.071, 5,   4.604,-36.499, 31.006
700666.33909, 3,   0.203,  8.605, -4.271
700666.35896, 3,   0.144,  8.834, -4.905
700666.37883, 3,   1.000,  8.207, -4.274, 4,   0.010, -0.336, -0.043, 5,   6.900,-35.602, 31.387
700666.39869, 3,   3.025,  8.770, -5.465
700666.41856, 3,   4.228,  8.171, -4.269
700666.43843, 3,   3.730, 10.385, -5.436, 4,   0.047, -0.218, -0.087, 5,   6.978,-35.776, 30.037
700666.45830, 3,   1.594,  9.251, -5.965
700666.47816, 3,  -0.507,  8.478, -5.178
700666.49803, 3,  -0.304,  9.552, -4.247, 4,  -0.028,  0.357, -0.213, 5,   6.807,-35.556, 31.931
700666.51790, 3,  -1.665, 10.275, -0.804
700666.53776, 3,  -1.448,  8.487, -1.216
700666.55763, 3,  -2.307, 12.091, -2.154, 4,  -0.069,  0.097, -0.188, 5,   7.797,-36.902, 30.766
700666.57750, 3,  -1.955,  9.241, -2.857
700666.59739, 3,  -1.881,  8.858, -1.541
700666.61726, 3,  -0.057,  8.042, -3.077, 4,  -0.007, -0.199, -0.072
700666.63713, 3,   0.357,  9.921, -2.230
700666.65700, 3,   2.122, 10.557, -2.785
700666.67686, 3,   2.321,  9.825, -1.926, 4,  -0.044, -0.090, -0.007, 5,   7.701,-35.287, 29.350
700666.69673, 3,   1.067,  9.820, -1.278
700666.71660, 3,   0.120, 10.129, -2.139
700666.73646, 3,  -0.756,  9.569, -1.984, 4,   0.008,  0.308, -0.049, 5,   6.532,-35.843, 30.847
700666.75633, 3,  -1.455,  9.741, -2.979
700666.77620, 3,  -1.534, 10.059, -3.417
700666.79606, 3,  -0.890, 10.124, -3.199, 4,  -0.001,  0.317, -0.003
700666.81593, 3,  -0.007,  8.657, -2.340
700666.83580, 3,   0.814,  8.743, -2.364
700666.85566, 3,   1.539, 10.670, -5.102, 4,   0.012,  0.298,  0.026, 5,   6.154,-36.987, 30.763
700666.87556, 3,   1.031, 10.201, -5.501
700666.89543, 3,  -0.081,  7.351, -3.934
700666.91530, 3,   0.151,  8.382, -6.863, 4,   0.096,  0.488, -0.040
700666.93516, 3,   0.201, 10.720, -6.475
700666.95503, 3,  -0.581,  7.966, -3.829
700666.97490, 3,  -0.524,  7.813, -4.494, 4,   0.031,  0.248, -0.078, 5,   4.826,-36.732, 31.252
700666.99476, 3,   0.715,  9.787, -4.817
700667.01463, 3,   1.926, 10.387, -3.876
700667.03450, 3,   2.725,  8.533, -4.319, 4,   0.033,  0.057, -0.096, 5,   5.498,-36.676, 32.646
700667.05436, 3,   1.790,  7.533, -4.577
700667.07420, 3,   0.878,  7.875, -4.826
700667.09407, 3,   1.479,  9.354, -5.489, 4,   0.030,  0.215, -0.196, 5,   5.472,-37.672, 30.865
700667.11393, 3,   1.804, 13.472, -3.764
700667.13380, 3,   0.555,  9.009, -2.362
700667.15370, 3,   0.242,  2.611, -4.420, 4,  -0.039,  0.126, -0.278, 5,   5.502,-36.435, 32.120
700667.17357, 3,   1.139,  5.800, -7.391
700667.19343, 3,  -0.579, 13.842, -5.597
700667.21330, 3,  -2.271, 12.297, -3.795, 4,  -0.015, -0.031, -0.332, 5,   6.416,-37.227, 33.093
700667.23317, 3,  -0.723,  5.446, -3.046
700667.25303, 3,   1.261, 11.263, -4.707
700667.27290, 3,   2.704, 13.321,  0.749, 4,  -0.122, -0.529, -0.274
700667.29277, 3,   2.206,  7.267,  0.550
700667.31263, 3,   1.697,  9.019, -1.086
700667.33250, 3,  -0.376, 12.287, -3.848, 4,  -0.018, -0.422, -0.352, 5,   7.901,-38.326, 31.013
700667.35237, 3,  -1.563,  9.705, -2.503
700667.37224, 3,  -2.771,  9.337, -0.144
700667.39210, 3,  -2.728, 10.528, -0.091, 4,  -0.094, -0.540, -0.317, 5,  12.004,-38.086, 31.062
700667.41197, 3,  -1.955, 10.402, -0.249
700667.43184, 3,  -0.713,  9.492,  0.012
700667.45173, 3,  -1.871,  8.947, -2.053, 4,  -0.052, -1.030, -0.152
700667.47160, 3,  -1.598,  9.808, -3.010
700667.49147, 3,  -1.706,  7.561, -2.541
700667.51133, 3,  -0.141, 13.417, -2.103, 4,  -0.015, -0.936, -0.001, 5,  14.183,-38.229, 30.391
700667.53120, 3,  -1.041,  7.353, -0.354
700667.55107, 3,   0.043,  9.904, -1.898
700667.57094, 3,   0.352, 11.854, -1.350, 4,   0.018, -0.554,  0.067, 5,  14.496,-38.025, 28.404
700667.59080, 3,   0.792,  6.896, -3.544
700667.61067, 3,   0.117, 10.550, -3.785
700667.63054, 3,  -0.041,  9.990, -4.853, 4,   0.120, -0.062,  0.024, 5,  16.153,-37.421, 30.780
700667.65040, 3,  -0.242,  9.035, -1.697
700667.67027, 3,   0.249, 10.863, -1.555
700667.69016, 3,   0.290,  8.624,  0.431, 4,  -0.129, -0.119, -0.001, 5,  14.157,-38.545, 29.521
700667.71003, 3,  -2.087, 10.325,  3.175
700667.72993, 3,   0.361, 11.859, -0.421
700667.74979, 3,  -0.309,  8.485, -2.355, 4,   0.021, -0.438, -0.082, 5,  16.127,-38.455, 28.947
700667.76966, 3,  -3.616,  7.872, -3.410
700667.78953, 3,  -4.778, 10.502, -4.592
700667.80936, 3,  -3.970,  9.485, -4.360, 4,   0.038, -0.700, -0.021
700667.82923, 3,  -2.041,  8.770, -1.713
700667.84910, 3,  -1.105,  9.267, -1.041
700667.86897, 3,  -2.024, 10.148, -3.070, 4,  -0.010, -0.778,  0.141, 5,  18.802,-38.100, 27.884
700667.88883, 3,  -3.398,  8.638, -3.553
700667.90870, 3,  -3.103, 10.385, -5.255
700667.92857, 3,   0.782,  9.715, -4.623, 4,   0.156, -0.341,  0.221, 5,  18.359,-37.589, 28.847
700667.94843, 3,  -0.031,  4.678, -2.596
700667.96830, 3,  -0.641,  9.662, -5.417
700667.98817, 3,   0.055, 12.708, -6.379, 4,   0.117, -0.081,  0.225
700668.00803, 3,   2.036,  8.573, -1.134
700668.02793, 3,  -0.182, 11.251, -2.039
700668.04780, 3,  -0.065,  8.418, -3.137, 4,   0.104, -0.008,  0.159, 5,  15.974,-39.412, 28.621
700668.06767, 3,  -1.175, 10.246, -3.036
700668.08753, 3,  -1.627,  7.322, -4.149
700668.10740, 3,  -3.785, 10.521, -4.120, 4,   0.173, -0.101,  0.109, 5,  18.016,-39.404, 29.240
700668.12727, 3,  -3.422,  8.136, -3.809
700668.14713, 3,  -4.305,  6.530, -2.766
700668.16700, 3,  -3.218, 13.869, -3.458, 4,   0.051, -0.188,  0.234, 5,  16.280,-39.452, 29.242
700668.18687, 3,  -0.153, 11.466, -0.057
700668.20673, 3,  -0.562,  5.102, -0.431
700668.22660, 3,  -1.943, 10.160, -5.669, 4,   0.147,  0.043,  0.347, 5,  16.133,-38.258, 29.622
700668.24647, 3,  -0.041, 11.414, -8.186
700668.26634, 3,   1.134,  7.765, -3.307
700668.28620, 3,   1.407, 10.201, -2.410, 4,   0.151,  0.465,  0.309, 5,  14.778,-38.870, 30.545
700668.30610, 3,   2.359,  7.848, -3.345
700668.32597, 3,   1.735,  9.009, -3.139
700668.34583, 3,   0.357, 10.777, -2.410, 4,   0.061,  0.847,  0.168
700668.36570, 3,   0.419, 11.040, -3.936
700668.38557, 3,  -0.938,  7.664, -4.018
700668.40543, 3,  -0.866, 10.849, -4.465, 4,   0.048,  1.144,  0.001, 5,  10.890,-39.977, 32.674
700668.42530, 3,  -1.713, 10.028, -1.661
700668.44517, 3,  -2.570,  9.923, -1.644
700668.46504, 3,  -2.032,  9.744, -2.960, 4,  -0.017,  1.174, -0.060
700668.48490, 3,  -2.194,  7.841, -4.087
700668.50474, 3,  -2.130,  9.567, -5.123
700668.52464, 3,  -1.909,  9.995, -4.494, 4,   0.035,  0.688, -0.087, 5,   9.477,-39.717, 33.446
700668.54450, 3,  -0.622,  8.645, -3.302
700668.56437, 3,  -0.029,  7.789, -3.544
700668.58424, 3,  -1.342, 10.313, -2.747, 4,  -0.003,  0.451, -0.055, 5,  10.165,-38.852, 36.246
700668.60410, 3,   0.778, 13.070, -5.769
700668.62397, 3,   0.002,  8.229, -7.229
700668.64384, 3,  -1.632,  8.971, -4.790, 4,   0.084,  0.487, -0.078, 5,  10.728,-41.115, 37.306
700668.66370, 3,  -1.340, 12.610, -1.967
700668.68357, 3,  -0.223,  8.119, -0.321
700668.70344, 3,   0.335, 10.911, -2.290, 4,   0.004,  0.579, -0.087, 5,   8.594,-39.554, 33.871
700668.72331, 3,  -0.072,  9.583, -3.223
700668.74317, 3,  -0.474,  7.379, -3.259
700668.76304, 3,  -1.235,  9.459, -4.922, 4,   0.134,  0.709, -0.166, 5,   6.129,-38.425, 35.468
700668.78291, 3,  -1.144, 10.215, -5.611
700668.80277, 3,  -1.017,  8.952, -3.501
700668.82264, 3,  -0.950,  8.648, -3.393, 4,   0.047,  0.864, -0.198, 5,   4.680,-37.424, 35.416
700668.84251, 3,  -0.653,  7.674, -5.159
700668.86237, 3,  -0.641,  8.346, -5.535
700668.88227, 3,  -1.761,  7.391, -4.041, 4,   0.027,  0.535, -0.238, 5,   3.487,-39.159, 36.574
700668.90214, 3,  -1.637,  5.448, -6.032
700668.92201, 3,  -2.326, 29.379, -3.838
700668.94187, 3,   0.471, -1.491, 11.017, 4,  -0.097,  0.254, -0.189, 5,   4.094,-39.383, 34.383
700668.96174, 3,   1.613, -0.392, -3.625
700668.98161, 3,   1.488, 13.591,-16.479
700669.00147, 3,  -0.991,  8.329, -7.604, 4,   0.211,  0.035, -0.264
700669.02134, 3,  -2.606,  6.140, -0.297
700669.04121, 3,  -0.751, 11.203, -3.766
700669.06107, 3,  -0.067, 11.275, -3.216, 4,  -0.204,  0.092, -0.183, 5,   5.992,-38.812, 36.873
700669.08094, 3,   1.869,  8.246, -0.163
700669.10081, 3,   0.670,  8.743, -2.364
700669.12067, 3,  -0.022, 11.347, -4.479, 4,  -0.106, -0.004, -0.195, 5,   5.717,-38.576, 35.947
700669.14054, 3,  -1.481,  6.075, -2.436
700669.16044, 3,  -2.821,  8.885, -3.862
700669.18031, 3,  -2.709, 12.962, -3.187, 4,  -0.123,  0.027, -0.177
700669.20017, 3,  -1.452,  7.501,  0.641
700669.22004, 3,  -0.165,  9.076, -1.115
700669.23991, 3,   0.979,  7.011, -5.633, 4,  -0.115, -0.294, -0.083, 5,   7.419,-40.491, 37.311
700669.25977, 3,  -0.684, 12.572,-10.653
700669.27961, 3,  -0.223,  5.326,  3.113
700669.29951, 3,   0.491,  7.506,  2.871, 4,  -0.198, -0.249, -0.042, 5,   8.742,-40.938, 37.065
700669.31934, 3,   1.285, 11.438, -5.836
700669.33921, 3,   0.134, 10.007, -7.346
700669.35908, 3,  -0.005,  9.717, -6.145, 4,   0.029, -0.435, -0.053, 5,   9.993,-40.475, 35.812
700669.37894, 3,   0.845,  6.843, -2.390
700669.39881, 3,   0.084,  7.336, -6.307
700669.41868, 3,  -0.981, 11.605, -6.288, 4,   0.032, -0.326, -0.001, 5,   9.821,-40.570, 36.305
700669.43855, 3,  -0.263,  8.095, -1.708
700669.45844, 3,   0.218,  8.061, -3.084
700669.47770, 3,   0.627,  9.729, -3.020, 4,   0.006, -0.103,  0.028, 5,  10.803,-40.407, 36.201
700669.49818, 3,  -1.082,  8.181, -3.199
700669.51804, 3,  -1.285,  9.708, -6.059
700669.53791, 3,  -1.744,  7.533, -4.388, 4,   0.093,  0.088,  0.004
700669.55778, 3,  -1.333, 23.368,  1.285
700669.57764, 3,   1.254, -2.070,  3.628
700669.59751, 3,  -1.771,  6.358, -8.396, 4,   0.081,  0.246,  0.021, 5,  11.098,-38.977, 37.706
700669.61738, 3,  -3.759, 10.962,-11.986
700669.63725, 3,  -2.924, 12.318, -3.936
700669.65711, 3,  -2.826,  9.418,  1.316, 4,  -0.001,  0.269,  0.046, 5,   9.967,-38.106, 38.036
700669.67698, 3,   0.299, 11.620, -0.230
700669.69685, 3,   0.062,  7.908, -1.603
700669.71671, 3,  -0.392,  9.059, -3.594, 4,  -0.008,  0.288,  0.086
700669.73661, 3,  -0.407,  9.459, -3.704
700669.75648, 3,  -0.636,  9.861, -3.709
700669.77634, 3,  -0.634,  9.650, -2.374, 4,   0.056,  0.275,  0.030, 5,   8.487,-38.373, 38.419
700669.79621, 3,  -0.684,  9.385, -1.785
700669.81608, 3,  -0.223,  3.692, -7.959
700669.83595, 3,  -0.378, 22.126,-10.256
700669.85581, 3,  -0.900,  1.802,  8.526, 4,   0.020,  0.219, -0.010, 5,   7.542,-36.926, 38.120
700669.87568, 3,   1.091, 11.514, -0.969
700669.89555, 3,   0.881,  9.698, -6.549
700669.91541, 3,  -0.782,  6.578, -5.305, 4,  -0.096,  0.136, -0.014
700669.93528, 3,  -1.333, 10.253, -6.793
700669.95515, 3,  -1.007,  9.861, -4.140
700669.97501, 3,  -1.749,  7.308, -2.410, 4,   0.077,  0.351, -0.086, 5,   7.048,-37.178, 39.481
700669.99488, 3,  -1.146,  9.966, -3.577
700670.01478, 3,  -1.505,  6.796, -3.618
700670.03465, 3,  -2.888, 14.644, -3.470, 4,  -0.049,  0.444, -0.100, 5,   6.339,-35.674, 40.063
700670.05451, 3,  -0.634,  7.157, -0.562
700670.07435, 3,  -1.847,  9.351, -4.597
700670.09422, 3,  -1.053, 14.022, -3.168, 4,  -0.055,  0.148, -0.078, 5,   6.108,-35.536, 38.652
700670.11408, 3,  -0.285,  3.178,  1.685
700670.13395, 3,  -0.940, 10.500, -6.104
700670.15382, 3,  -1.625,  9.969, -6.233, 4,  -0.022,  0.004, -0.043, 5,   6.111,-35.535, 38.023
700670.17368, 3,   0.091,  9.576, -2.053
700670.19355, 3,   0.706,  5.745, -2.347
700670.21342, 3,  -0.160, 13.969, -3.998, 4,  -0.037,  0.080, -0.011, 5,   6.435,-36.810, 39.331
700670.23328, 3,  -0.148,  8.667, -0.163
700670.25315, 3,   1.646,  9.222, -2.213
700670.27302, 3,   0.610,  7.968, -6.219, 4,  -0.024,  0.353, -0.038, 5,   3.738,-36.302, 38.986
700670.29289, 3,  -0.694, 10.440, -5.795
700670.31278, 3,  -1.314,  2.484,  1.943
700670.33265, 3,  -3.434, 14.197, -9.495, 4,   0.063,  0.339, -0.177
700670.35252, 3,  -2.252, 10.878, -3.120
700670.37238, 3,  -1.704,  2.302, -0.146
700670.39225, 3,  -1.572, 15.096, -5.025, 4,  -0.038,  0.189, -0.187, 5,   4.575,-36.717, 37.880
700670.41212, 3,  -0.993, 10.177, -0.924
700670.43198, 3,  -0.940,  8.310, -0.737
700670.45185, 3,  -1.232,  8.770, -5.728, 4,  -0.025, -0.044, -0.126
700670.47172, 3,  -1.577, 11.158, -5.578
700670.49159, 3,  -0.890,  6.863, -0.464
700670.51145, 3,  -1.287,  7.061, -3.192, 4,   0.039, -0.107, -0.071, 5,   6.128,-36.299, 37.245
700670.53132, 3,   0.316, 46.043, -2.139
700670.55119, 3,   1.565,-15.869, 12.524
700670.57105, 3,   1.799,  0.285, -3.051, 4,  -0.082,  0.046,  0.032, 5,   4.662,-36.417, 37.492
700670.59095, 3,   0.536, 15.644,-15.795
700670.61082, 3,  -1.161,  7.028, -9.619
700670.63068, 3,  -3.309,  3.726, -5.929, 4,   0.360, -0.138, -0.147, 5,   6.882,-34.808, 38.026
700670.65055, 3,  -3.881, 11.067, -5.090
700670.67042, 3,  -1.029, 10.155,  0.215
700670.69029, 3,   0.900, 11.110, -2.754, 4,  -0.123,  0.226, -0.068, 5,   6.851,-36.234, 39.479
700670.71015, 3,   0.419,  4.850, -3.505
700670.73002, 3,  -0.591, 12.711, -4.008
700670.74989, 3,  -2.268,  7.722,-15.666, 4,  -0.027, -0.031, -0.053, 5,   5.836,-35.834, 36.955
700670.76975, 3,  -1.251, 23.024, -0.531
700670.78962, 3,  -1.342, -5.527, 16.924
700670.80946, 3,  -0.962, 13.632, -0.904, 4,  -0.287,  0.064,  0.023
700670.82932, 3,   0.718, 13.646, -7.384
700670.84919, 3,  -0.651,  6.595, -2.991
700670.86906, 3,   0.165,  5.944, -3.137, 4,  -0.033, -0.324,  0.033, 5,   8.737,-37.520, 37.941
700670.88895, 3,  -0.290, 11.880, -7.401
700670.90882, 3,   0.067,  5.563, -4.204
700670.92869, 3,   2.096, 18.374,  0.998, 4,   0.007, -0.009,  0.100, 5,   5.948,-36.485, 36.812
700670.94856, 3,   1.649,  2.570,  1.256
700670.96842, 3,   0.191,  7.167, -6.252
700670.98829, 3,  -0.572, 11.124,-10.483, 4,  -0.020,  0.445, -0.003
700671.00816, 3,  -1.912,  9.672, -5.023
700671.02802, 3,  -1.735,  6.776, -0.512
700671.04789, 3,  -1.775, 10.449, -5.197, 4,   0.010,  0.013, -0.144, 5,   6.839,-36.655, 37.595
700671.06776, 3,  -1.890, 12.749, -3.848
700671.08762, 3,  -0.395,  8.045, -0.256
700671.10749, 3,  -0.464,  8.518, -0.785, 4,  -0.041, -0.100, -0.049, 5,   6.839,-36.652, 38.126
700671.12736, 3,  -0.029,  6.437, -5.829
700671.14722, 3,  -2.867, 13.539, -8.480
700671.16712, 3,  -2.268,  7.710, -0.569, 4,   0.134, -0.040, -0.015, 5,   8.031,-35.399, 38.753
700671.18699, 3,  -1.438,  6.542,  2.199
700671.20686, 3,  -1.452, 13.115, -3.800
700671.22672, 3,  -0.787,  6.427, -3.907, 4,  -0.060,  0.282,  0.050, 5,   6.561,-37.094, 36.424
700671.24659, 3,  -0.488,  6.269, -3.671
700671.26646, 3,  -1.687,  6.482, -8.282
700671.28632, 3,  -0.799, 22.569, -2.390, 4,   0.013,  0.123,  0.003, 5,   7.962,-35.962, 37.300
700671.30619, 3,   0.074,  4.357,  5.202
700671.32606, 3,   0.292,  9.937, -1.658
700671.34592, 3,   0.376,  8.686, -6.932, 4,  -0.126,  0.121,  0.032
700671.36579, 3,   0.471, 13.795, -3.529
700671.38566, 3,   0.206,  8.511, -2.412
700671.40553, 3,  -0.349,  8.997, -3.060, 4,   0.017,  0.042, -0.047, 5,   5.020,-34.415, 36.710
700671.42539, 3,  -0.368,  7.609, -1.122
700671.44529, 3,   0.000, 12.256, -2.084
700671.46516, 3,  -1.864,  0.084, -3.587, 4,  -0.039, -0.064, -0.061, 5,   6.235,-33.769, 35.115
700671.48502, 3,  -3.080, 17.453, -8.559
700671.50486, 3,  -0.498,  1.914, -1.641
700671.52476, 3,  -1.584, 12.560, -0.491, 4,   0.115, -0.091, -0.059
700671.54462, 3,  -0.086,  8.042, -3.840
700671.56449, 3,  -1.067,  9.952, -4.805
700671.58433, 3,  -2.508,  3.651, -0.692, 4,  -0.033,  0.228, -0.016, 5,   6.703,-34.613, 36.961
700671.60420, 3,  -2.716, 19.561, -6.841
700671.62406, 3,  -1.632,  8.875, -0.826
700671.64393, 3,  -2.075,  5.456,  0.703, 4,  -0.022,  0.040, -0.070, 5,   4.201,-35.577, 38.013
700671.66380, 3,  -1.256, 15.039, -6.159
700671.68366, 3,  -0.416, 11.703, -3.723
700671.70353, 3,  -0.012,  6.432,  2.130, 4,   0.027, -0.126,  0.045, 5,   4.550,-35.191, 35.306
700671.72340, 3,  -0.967,  5.774, -1.438
700671.74329, 3,  -1.247, 11.050, -5.415
700671.76316, 3,  -0.938, 12.481, -3.915, 4,   0.040,  0.130,  0.066, 5,   6.487,-34.811, 37.251
700671.78303, 3,  -0.629,  5.075,  1.024
700671.80290, 3,  -0.840, 15.618, -7.207
700671.82276, 3,   0.313,  8.715, -1.656, 4,   0.083,  0.228,  0.021, 5,   3.813,-34.874, 36.563
700671.84263, 3,   0.371,  7.664, -1.634
700671.86250, 3,  -0.141, 10.478, -3.266
700671.88236, 3,   0.033,  8.277, -5.489, 4,  -0.015,  0.278, -0.026, 5,   5.548,-32.829, 36.562
700671.90223, 3,   0.045, 11.519, -1.472
700671.92210, 3,  -0.883,  0.885, -4.666
700671.94196, 3,  -0.948, 19.430, -4.381, 4,   0.016,  0.189, -0.125, 5,   3.983,-34.871, 37.053
700671.96183, 3,  -0.960,  6.138, -0.263
700671.98170, 3,  -0.830,  6.331, -1.369
700672.00156, 3,  -1.902, 10.220, -5.487, 4,  -0.052,  0.042, -0.124
700672.02146, 3,  -1.024, 10.483, -2.694
700672.04133, 3,  -0.830,  9.662, -0.955
700672.06120, 3,  -1.326,  9.858, -3.285, 4,  -0.053, -0.018, -0.090, 5,   4.587,-35.718, 36.429
700672.08106, 3,  -0.287, 14.431, -2.175
700672.10093, 3,   1.115,  7.978,  1.907
700672.12080, 3,   1.163,  8.815, -4.747, 4,  -0.075,  0.074, -0.048, 5,   4.788,-34.946, 37.292
700672.14066, 3,  -2.223,  8.698, -4.877
700672.16053, 3,  -1.321,  7.463, -3.159
700672.18040, 3,  -1.019,  6.977, -2.704, 4,   0.054, -0.012, -0.113
700672.20026, 3,  -1.574, 13.819, -5.886
700672.22013, 3,  -0.823, 13.936, -2.615
700672.24000, 3,   0.153,  4.893,  2.369, 4,  -0.043, -0.009, -0.080, 5,   4.729,-35.280, 35.692
700672.25987, 3,  -0.282,  5.166, -4.436
700672.27970, 3,   0.443, 19.571, -5.707
700672.29960, 3,  -0.620,  4.917, -1.352, 4,   0.019, -0.147, -0.079, 5,   5.557,-34.361, 36.566
700672.31950, 3,  -0.768,  2.438, -2.596
700672.33933, 3,  -1.488, 14.087, -8.277
700672.35920, 3,  -1.718, 13.680, -2.678, 4,   0.009, -0.156, -0.047, 5,   6.836,-34.703, 37.245
700672.37907, 3,  -0.213,  6.384,  3.087
700672.39893, 3,  -0.538,  9.464, -4.621
700672.41880, 3,   0.045, 10.928, -4.893, 4,  -0.038, -0.075,  0.030, 5,   6.754,-34.523, 36.569
700672.43867, 3,   0.349, 10.306, -0.081
700672.45853, 3,  -0.849,  7.176, -7.399
700672.47779, 3,  -1.433, 14.615, -4.108, 4,   0.028,  0.051,  0.010, 5,   6.897,-34.085, 36.516
700672.49827, 3,  -0.048,  8.181,  0.632
700672.51814, 3,   0.325,  7.456,  0.098
700672.53800, 3,  -1.318,  9.377, -6.389, 4,  -0.019,  0.013,  0.010
700672.55787, 3,  -0.627, 11.098, -5.628
700672.57774, 3,  -0.971,  9.669, -2.568
700672.59763, 3,   0.057,  2.977, -3.683, 4,   0.068, -0.066, -0.014, 5,   6.898,-33.951, 36.234
700672.61750, 3,  -0.971, 19.525, -3.510
700672.63737, 3,  -0.268,  3.072,  0.340
700672.65723, 3,  -0.395,  7.947, -2.125, 4,  -0.066,  0.114,  0.032, 5,   5.934,-33.398, 36.758
700672.67710, 3,  -0.622, 12.491, -6.083
700672.69697, 3,  -1.369,  8.193, -3.240
700672.71684, 3,  -0.522,  5.149, -1.754, 4,   0.029, -0.026, -0.024
700672.73670, 3,  -1.235, 13.211, -3.900
700672.75657, 3,  -0.742, 11.069, -1.541
700672.77644, 3,  -0.091,  4.247, -0.421, 4,  -0.050,  0.077, -0.001, 5,   5.266,-33.417, 37.379
700672.79630, 3,  -0.469, 14.283, -3.876
700672.81617, 3,   0.639,  6.276, -2.120
700672.83604, 3,  -0.682, 14.077, -3.161, 4,  -0.006, -0.049, -0.036, 5,   6.230,-34.103, 37.292
700672.85590, 3,  -0.237,  6.841, -4.606
700672.87580, 3,  -0.558, 12.845, -1.878
700672.89567, 3,   1.103,  8.968,  0.538, 4,  -0.033,  0.002, -0.038, 5,   7.477,-34.068, 35.252
700672.91554, 3,   0.469,  8.246, -3.429
700672.93540, 3,  -1.620, 14.838, -5.025
700672.95527, 3,  -0.534,  5.405, -3.434, 4,   0.023, -0.113, -0.073, 5,   7.568,-34.068, 35.837
700672.97514, 3,  -2.857,  5.051, -4.728
700672.99500, 3,  -2.594, 17.944, -4.589
700673.01487, 3,  -1.488,  8.456,  2.900, 4,   0.000, -0.095, -0.045, 5,   7.834,-33.922, 34.978
700673.03474, 3,  -0.385,  7.863, -0.134
700673.05460, 3,  -0.732, 10.050, -6.099
700673.07447, 3,  -0.684,  8.329, -5.044, 4,  -0.022, -0.092,  0.038
700673.09431, 3,  -0.727, 11.024,  0.122
700673.11417, 3,  -2.479, 10.126, -5.417, 4,   0.011,  0.040,  0.057, 5,   8.626,-34.044, 36.571
700673.13404, 3,  -0.974, 13.146,  0.837
700673.15391, 3,   0.110,  6.568,  0.361
700673.17381, 3,  -0.160, 11.225, -4.326, 4,  -0.045,  0.033,  0.063, 5,   7.463,-34.694, 36.569
700673.19367, 3,   0.179,  9.775, -3.910
700673.21354, 3,   0.311, 11.170, -2.821
700673.23341, 3,   0.057,  0.447, -2.331, 4,   0.012, -0.116,  0.016, 5,   6.361,-34.386, 37.157
700673.25327, 3,   0.151, 22.330, -0.696
700673.27314, 3,   2.871, -3.575, -0.189
700673.29301, 3,  -0.904, 14.553, -8.066, 4,   0.068, -0.075,  0.003, 5,   8.458,-34.059, 38.268
700673.31287, 3,  -1.371, 11.299, -6.745
700673.33274, 3,  -1.287,  7.128, -2.299
700673.35261, 3,  -1.015,  7.947, -3.462, 4,   0.007, -0.106,  0.004, 5,   7.555,-34.691, 38.699
700673.37248, 3,  -1.699, 12.089, -4.927
700673.39234, 3,  -0.981, 14.319,  0.768
700673.41221, 3,   0.589,  5.604, -7.401, 4,  -0.059, -0.015,  0.057, 5,   7.045,-33.374, 38.019
700673.43208, 3,  -0.007,  6.016,  2.067
700673.45197, 3,  -1.220,  7.626, -5.145
700673.47184, 3,  -2.355, 16.140, -3.312, 4,   0.041, -0.106,  0.036, 5,   5.582,-33.357, 37.575
700673.49171, 3,  -2.206,  5.324, -1.790
700673.51157, 3,  -1.704, 14.907, -2.199
700673.53144, 3,   0.036,  9.775,  1.519, 4,  -0.037, -0.009,  0.147
700673.55131, 3,   0.641,  5.542, -2.137
700673.57118, 3,   0.246, 10.399, -7.561
700673.59104, 3,  -0.208, 12.873, -3.204, 4,   0.102,  0.094,  0.118, 5,   6.084,-32.686, 38.939
700673.61091, 3,  -0.330,  1.886, -0.550
700673.63078, 3,  -1.536, 15.168, -5.858
700673.65064, 3,   0.156,  9.444, -3.316, 4,   0.021,  0.254,  0.072, 5,   6.261,-32.680, 38.744
700673.67051, 3,  -0.735,  3.307, -0.596
700673.69038, 3,  -0.778, 18.609, -7.686
700673.71024, 3,  -0.024,  5.822, -1.467, 4,  -0.016,  0.162,  0.014, 5,   4.462,-31.483, 37.131
700673.73011, 3,  -1.096,  1.749, -0.172
700673.75001, 3,  -1.263, 17.719, -6.497
700673.76988, 3,   0.086,  9.586, -0.739, 4,  -0.055,  0.166, -0.024, 5,   2.954,-33.093, 37.283
700673.78974, 3,   0.203,  8.346,  0.845
700673.80961, 3,  -0.294,  6.741, -2.589
700673.82945, 3,  -1.146, 10.954, -5.106, 4,   0.003, -0.028, -0.062, 5,   2.013,-31.783, 34.521
700673.84931, 3,  -1.098,  1.823, -3.443
700673.86918, 3,  -2.252, 15.982, -2.477
700673.88905, 3,  -0.213,  5.633,  1.996, 4,  -0.052,  0.038, -0.038, 5,   2.979,-32.135, 35.104
700673.90891, 3,  -0.199, 12.634, -2.972
700673.92878, 3,  -0.644,  9.339, -2.534
700673.94865, 3,  -0.711,  6.631, -3.340, 4,   0.021,  0.071, -0.051, 5,   2.911,-32.993, 35.587
700673.96851, 3,  -1.151, 10.717, -4.537
700673.98838, 3,  -1.376, 11.134, -2.326
700674.00825, 3,  -1.493,  8.219, -1.594, 4,  -0.019,  0.111, -0.072, 5,   3.183,-33.037, 35.107
700674.02815, 3,  -1.754, 10.148, -2.589
700674.04801, 3,  -0.823, 10.000, -2.122
700674.06788, 3,  -0.421,  8.765, -2.886, 4,  -0.016,  0.005, -0.067
700674.08775, 3,  -0.835, 10.363, -4.085
700674.10761, 3,  -1.297, 11.232, -3.790
700674.12748, 3,  -0.737,  5.035, -2.462, 4,  -0.019,  0.002, -0.037, 5,   3.529,-31.497, 34.634
700674.14735, 3,  -1.574, 14.857, -0.859
700674.16721, 3,   0.048,  1.862, -0.900
700674.18708, 3,  -0.273, 12.931, -4.439, 4,  -0.020, -0.084, -0.041
700674.20695, 3,   0.122, 11.160, -4.032
700674.22681, 3,  -0.991, 10.035, -5.197
700674.24668, 3,   0.050, 12.586, -0.263, 4,  -0.038, -0.068, -0.011, 5,   4.008,-32.014, 34.819
700674.26655, 3,   0.354,  8.021, -0.668
700674.28642, 3,   0.914,  5.121,  0.617
700674.30631, 3,  -0.553, 15.230,-10.213, 4,   0.025,  0.082, -0.058, 5,   3.830,-32.028, 35.106
700674.32618, 3,  -0.256,  7.832, -1.888
700674.34605, 3,  -2.118,  8.277, -3.668
700674.36591, 3,  -2.548, 15.154, -2.400, 4,  -0.059,  0.120, -0.112, 5,   4.752,-34.084, 34.283
700674.38578, 3,  -0.854,  5.362,  0.316
700674.40565, 3,  -0.720, 11.227, -3.001
700674.42551, 3,  -0.354,  9.878, -3.175, 4,  -0.054, -0.129, -0.112, 5,   6.602,-35.666, 34.108
700674.44538, 3,  -0.081,  9.698, -0.134
700674.46525, 3,  -1.211, 10.272, -2.032
700674.48512, 3,  -1.907, 13.335, -3.785, 4,  -0.013, -0.211, -0.068, 5,   6.462,-35.085, 34.338
700674.50498, 3,  -0.912,  6.609, -1.084
700674.52485, 3,  -1.259,  8.083, -3.293
700674.54472, 3,  -1.764, 13.149, -7.918, 4,   0.055, -0.253, -0.001, 5,   5.368,-34.444, 33.272
700674.56458, 3,  -0.201,  9.078, -1.735
700674.58445, 3,  -0.660,  5.724, -3.046
700674.60435, 3,  -0.467, 17.671, -3.778, 4,  -0.062, -0.044,  0.080
700674.62418, 3,   0.354,  6.779,  1.651
700674.64405, 3,  -0.572,  7.585, -1.608
700674.66392, 3,  -0.672, 10.382, -5.066, 4,   0.003, -0.002, -0.003, 5,   7.033,-34.077, 34.200
700674.68378, 3,  -0.376, 15.001,  0.191
700674.70365, 3,  -1.024, -0.287, -7.384
700674.72352, 3,  -1.333, 23.883, -4.719, 4,   0.041, -0.105, -0.019
700674.74339, 3,   0.601,  4.065,  1.754
700674.76325, 3,  -0.962,  8.413, -1.926
700674.78312, 3,  -0.826, 11.849, -5.963, 4,   0.036, -0.018,  0.001, 5,   5.901,-34.482, 32.895
700674.80299, 3,  -0.878,  6.772, -2.623
700674.82285, 3,  -0.720, 11.634, -1.771
700674.84272, 3,   0.345, 12.368, -2.544, 4,   0.035,  0.000, -0.012, 5,   6.865,-35.214, 32.939
700674.86259, 3,   0.244,  5.848, -0.493
700674.88248, 3,  -1.120,  6.391, -6.729
700674.90235, 3,  -2.460, 14.802, -7.272, 4,   0.140, -0.079, -0.047, 5,   7.515,-34.062, 32.936
700674.92222, 3,  -1.292, -1.070, -2.632
700674.94209, 3,  -0.936, 21.131, -1.424
700674.96195, 3,   1.594,  4.307,  0.371, 4,  -0.091,  0.029,  0.021, 5,   7.085,-35.268, 34.392
700674.98182, 3,  -1.941,  7.525, -5.257
700675.00169, 3,  -1.120,  9.418, -6.032
700675.02155, 3,  -1.426, 14.902, -2.587, 4,   0.019, -0.113, -0.006, 5,   8.339,-34.756, 33.232
700675.04142, 3,  -1.074,  4.537,  0.567
700675.06129, 3,  -1.103, 13.297, -1.125
700675.08115, 3,   0.074,  6.343,  3.015, 4,  -0.043, -0.059,  0.076, 5,   6.580,-36.134, 34.540
700675.10102, 3,  -1.153, 15.929, -7.475
700675.12089, 3,   1.292,  5.362, -0.957
700675.14076, 3,  -0.421, 10.129, -3.745, 4,   0.037,  0.072,  0.036, 5,   7.773,-34.863, 33.290
700675.16062, 3,  -0.804,  9.433, -5.884
700675.18052, 3,  -1.306, 13.893, -1.740
700675.20039, 3,  -0.249,  7.147,  0.749, 4,  -0.049,  0.164, -0.007, 5,   6.830,-36.784, 33.958
700675.22025, 3,   0.031,  8.841, -2.788
700675.24012, 3,   0.026,  8.571, -2.737
700675.25999, 3,  -0.672, 12.148, -4.530, 4,  -0.003, -0.149, -0.092
700675.27985, 3,  -0.948, 10.392, -3.137
700675.29972, 3,  -1.842, 12.878,  0.467
700675.31959, 3,   0.239,  6.580, -0.129, 4,  -0.033, -0.172, -0.037, 5,   7.726,-36.671, 33.673
700675.33946, 3,  -1.972, 13.230, -3.941
700675.35932, 3,  -2.623, 10.591, -4.668
700675.37919, 3,  -1.108,  5.221, -3.991, 4,   0.089, -0.213, -0.044, 5,   8.817,-37.498, 33.778
700675.39903, 3,  -1.842, 11.265, -5.310
700675.41889, 3,  -0.306, 12.201, -0.945
700675.43876, 3,   0.060,  6.401, -0.754, 4,  -0.086, -0.124,  0.087, 5,   9.386,-36.160, 34.541
700675.45866, 3,  -0.907, 10.859, -4.379
700675.47791, 3,  -0.476,  9.918, -2.467
700675.49839, 3,  -0.555,  7.545,  1.314, 4,   0.001, -0.110,  0.066, 5,   9.865,-36.531, 34.790
700675.51826, 3,  -1.041, 13.967, -4.305
700675.53812, 3,   0.773, 10.871,  0.438
700675.55799, 3,  -0.105,  1.606, -1.895, 4,  -0.018,  0.013,  0.077, 5,   9.828,-35.957, 34.734
700675.57786, 3,  -0.711, 13.314, -7.009
700675.59773, 3,  -0.227, 14.008, -3.458
700675.61759, 3,  -0.043,  5.042, -2.381, 4,   0.051, -0.110,  0.012, 5,  10.194,-35.428, 33.679
700675.63746, 3,  -0.735, 14.979, -1.965
700675.65733, 3,  -0.447,  6.882, -0.165
700675.67719, 3,  -0.345,  8.672, -1.725, 4,  -0.012, -0.097,  0.043, 5,  10.033,-35.094, 34.589
700675.69706, 3,  -0.543,  9.674, -5.530
700675.71693, 3,  -1.003, 10.806, -2.276
700675.73682, 3,  -1.290,  9.660, -4.702, 4,   0.067, -0.082,  0.001, 5,   9.178,-35.408, 34.099
700675.75669, 3,  -1.450, 13.070, -2.783
700675.77656, 3,  -0.895,  7.092, -0.766
700675.79643, 3,  -1.948,  9.248,  0.543, 4,  -0.003,  0.012,  0.049
700675.81629, 3,  -2.036,  9.674, -3.635
700675.83616, 3,  -2.254,  5.539, -4.094
700675.85603, 3,  -2.979,  8.356, -6.566, 4,   0.070, -0.048,  0.060, 5,   8.899,-33.943, 34.439
700675.87589, 3,  -0.950, 15.185, -1.950
700675.89576, 3,  -0.419,  4.077,  1.168
700675.91563, 3,  -0.100,  9.851, -2.259, 4,  -0.044,  0.022,  0.164
700675.93549, 3,  -1.421, 12.505, -5.501
700675.95536, 3,  -0.864,  7.662, -4.097
700675.97523, 3,  -1.050, 12.062, -2.134, 4,   0.041,  0.014,  0.144, 5,   8.211,-34.772, 34.154
700675.99509, 3,   0.436,  8.195,  3.295
700676.01496, 3,   0.524, 10.646, -7.076
700676.03486, 3,  -0.031, 11.407, -5.233, 4,   0.043,  0.030,  0.117, 5,   7.689,-34.062, 34.390
700676.05473, 3,  -0.505,  5.580, -4.656
700676.07459, 3,  -1.117, 14.692, -5.228
700676.09446, 3,   0.919, 14.481, -1.283, 4,  -0.012,  0.076,  0.066, 5,   7.574,-33.549, 35.115
700676.11433, 3,   0.357,  6.525,  1.120
700676.13416, 3,  -0.565,  8.497, -2.438
700676.15403, 3,  -0.395, 11.541, -2.173, 4,   0.026,  0.145, -0.001, 5,   7.587,-32.918, 33.850
700676.17390, 3,  -1.472,  4.254, -4.159
700676.19376, 3,  -1.670, 14.778, -2.055
700676.21363, 3,  -1.388,  8.552,  1.780, 4,   0.036,  0.067, -0.034, 5,   6.906,-33.511, 35.405
700676.23350, 3,  -1.663,  8.514, -3.453
700676.25336, 3,  -1.972, 13.854, -3.594
700676.27323, 3,  -0.625,  6.023, -0.187, 4,   0.057, -0.008,  0.001, 5,   7.378,-32.410, 35.838
700676.29310, 3,  -1.194,  6.047, -5.649
700676.31300, 3,  -1.268, 17.169, -3.470
700676.33286, 3,   0.416,  3.223,  0.402, 4,   0.042, -0.007,  0.068
700676.35273, 3,  -2.244,  7.269, -4.877
700676.37260, 3,  -1.845, 14.338, -4.893
700676.39246, 3,  -0.127, -2.381, -1.598, 4,   0.031,  0.124,  0.027, 5,   5.853,-32.541, 34.528
700676.41233, 3,  -1.962, 18.743, -6.762
700676.43220, 3,   1.034, 12.330,  1.393
700676.45206, 3,   0.782,  6.712, -2.036, 4,  -0.068,  0.156,  0.025
700676.47193, 3,  -0.112, 10.158, -3.678
700676.49180, 3,  -0.053, 13.912, -2.426
700676.51167, 3,  -0.053,  7.387, -3.881, 4,   0.100,  0.047, -0.072, 5,   5.891,-32.957, 33.995
700676.53153, 3,  -1.139, 18.322, -5.185
700676.55140, 3,  -0.481, -1.630,  1.388
700676.57127, 3,  -2.075,  9.653, -6.109, 4,   0.110,  0.038, -0.072, 5,   5.576,-33.401, 34.190
700676.59113, 3,  -1.898, 12.644, -8.906
700676.61103, 3,  -1.328,  6.018, -1.522
700676.63090, 3,  -0.971, 10.981, -1.960, 4,  -0.026,  0.070, -0.058, 5,   3.586,-32.726, 30.762
700676.65076, 3,  -0.263, 14.276, -2.505
700676.67063, 3,   0.089,  6.269, -0.330
700676.69050, 3,  -0.615, 11.208, -4.204, 4,  -0.046, -0.058, -0.050, 5,   6.398,-32.668, 34.195
700676.71037, 3,   0.227,  8.858, -1.579
700676.73023, 3,  -1.251,  5.877, -3.534
700676.75010, 3,  -2.472, 13.015, -6.578, 4,   0.038, -0.147, -0.038, 5,   6.282,-33.383, 34.729
700676.76997, 3,  -0.742,  6.092,  1.149
700676.78983, 3,  -0.005, -2.867, -1.072
700676.80970, 3,  -1.682, 16.111,-10.993, 4,  -0.002, -0.021,  0.034, 5,   4.720,-35.558, 33.516
700676.82957, 3,  -1.744,  7.638, -4.046
700676.84940, 3,  -0.517,  9.913,  0.866
700676.86930, 3,   1.819, 16.388,  1.862, 4,  -0.181,  0.199,  0.057, 5,   4.173,-36.241, 33.620
700676.88920, 3,   1.256,  6.152,  2.187
700676.90907, 3,   1.740, 12.201,-15.259
700676.92890, 3,  -0.823,  8.774, -6.075, 4,   0.051,  0.032, -0.106, 5,   7.117,-33.835, 34.389
700676.94877, 3,  -0.790,  6.664, -3.594
700676.96864, 3,  -2.137, 15.587, -0.074
700676.98850, 3,  -1.634,  8.461,  1.376, 4,  -0.123,  0.001, -0.049
700677.00837, 3,  -1.079,  8.877, -4.534
700677.02824, 3,  -1.228, 10.813, -5.362
700677.04810, 3,  -0.282,  8.100,  0.505, 4,  -0.017, -0.114, -0.065, 5,   6.575,-36.229, 34.688
700677.06797, 3,  -0.117, 13.881,  2.606
700677.08784, 3,   1.362,  4.408, -0.189
700677.10770, 3,  -1.529,  9.803, -8.097, 4,   0.079, -0.143, -0.013, 5,   8.012,-35.576, 33.670
700677.12757, 3,  -1.125, 10.368, -7.813
700677.14744, 3,  -0.991, 10.138, -3.989
700677.16734, 3,  -1.213,  7.277, -1.120, 4,   0.044, -0.093,  0.021, 5,   7.437,-35.591, 34.929
700677.18720, 3,  -0.816, 14.362, -0.483
700677.20707, 3,   0.359,  6.004, -1.866
700677.22694, 3,  -1.103,  8.648, -3.505, 4,  -0.018,  0.063,  0.069, 5,   7.382,-36.357, 34.395
700677.24680, 3,  -0.629,  5.939, -4.037
700677.26667, 3,  -0.608, 24.333, -5.221
700677.28654, 3,  -1.017,  2.000, -0.323, 4,   0.016, -0.032,  0.022, 5,   7.732,-36.432, 34.642
700677.30640, 3,  -2.163,  9.464, -4.207
700677.32627, 3,  -0.919,  8.779, -5.212
700677.34614, 3,  -0.531, 15.020, -1.723, 4,  -0.029,  0.031,  0.093
700677.36601, 3,   0.546,  9.442,  3.374
700677.38587, 3,   0.613,  4.247, -1.388
700677.40574, 3,  -0.053, 11.277, -4.810, 4,  -0.022,  0.048,  0.084, 5,   7.115,-36.075, 34.978
700677.42561, 3,  -0.656, 12.455,  1.692
700677.44547, 3,   1.455,  0.400,  2.709
700677.46537, 3,  -0.744, 13.309, -5.949, 4,   0.020,  0.064,  0.019, 5,   6.075,-36.955, 35.847
700677.48524, 3,  -0.234,  7.844, -7.987
700677.50510, 3,  -2.166, 15.290, -6.346
700677.52497, 3,   0.983,  8.841,  0.916, 4,  -0.048,  0.086, -0.015
700677.54484, 3,   0.766,  6.497,  1.003
700677.56471, 3,  -0.045,  8.071, -3.501
700677.58457, 3,  -1.103, 15.829, -4.731, 4,  -0.033,  0.034, -0.058, 5,   5.547,-36.964, 34.001
700677.60444, 3,  -0.500,  4.434, -1.735
700677.62431, 3,  -0.747, 15.013, -2.412
700677.64417, 3,  -0.950,  8.595, -0.495, 4,  -0.019, -0.056, -0.060, 5,   9.424,-39.714, 36.584
700677.66404, 3,  -0.732,  8.504, -1.598
700677.68391, 3,  -1.295,  7.755, -5.008
700677.70377, 3,  -1.775,  8.100, -4.030, 4,   0.084, -0.055, -0.057, 5,   7.358,-35.349, 35.844
700677.72360, 3,  -1.330, 14.575, -5.142
700677.74350, 3,   0.770, 11.000, -1.460
700677.76337, 3,  -1.027, -3.735, -2.252, 4,  -0.037,  0.022,  0.007, 5,   7.185,-36.635, 34.354
700677.78323, 3,  -1.807, 17.370, -8.018
700677.80310, 3,  -2.099, 17.247, -1.955
700677.82297, 3,  -0.849,  0.555,  4.365, 4,  -0.107,  0.002,  0.024, 5,   6.285,-37.383, 33.389
700677.84284, 3,  -0.952, 13.888, -0.883
700677.86270, 3,  -0.711,  8.865, -2.879
700677.88257, 3,  -0.948,  9.969, -2.386, 4,   0.020, -0.057,  0.059, 5,   7.449,-37.054, 34.444
700677.90244, 3,   0.177,  9.069,  0.933
700677.92230, 3,  -0.158, -2.835, -0.971
700677.94217, 3,  -3.628, 18.360,-11.165, 4,   0.110,  0.062,  0.027, 5,   7.260,-37.633, 35.851
700677.96204, 3,  -0.170,  9.997, -3.132
700677.98190, 3,  -0.644,  5.592,  1.850
700678.00177, 3,   1.292,  9.511, -1.730, 4,  -0.128,  0.162,  0.042, 5,   6.953,-37.085, 35.417
700678.02164, 3,   0.275, 13.120, -4.824
700678.04154, 3,  -1.670, 10.954, -3.919
700678.06140, 3,  -1.019, 12.730,  0.952, 4,  -0.050,  0.045, -0.053
700678.08127, 3,  -0.007,  3.281,  2.800
700678.10114, 3,  -1.309, 12.715, -4.719
700678.12100, 3,  -0.928, 10.098, -3.549, 4,   0.067, -0.147, -0.062, 5,   6.795,-38.461, 36.288
700678.14087, 3,  -1.522,  1.405, -3.611
700678.16074, 3,  -1.876, 17.312, -4.755
700678.18060, 3,   0.017, 13.232, -2.029, 4,   0.051, -0.022,  0.005
700678.20047, 3,  -0.457, -0.921, -2.285
700678.22034, 3,  -0.660,  9.564, -3.218
700678.24020, 3,  -0.529,  9.691, -4.013, 4,   0.014,  0.070,  0.033, 5,   7.207,-38.055, 35.701
700678.26007, 3,  -2.699, 15.343, -6.434
700678.27994, 3,  -0.955, 11.177,  2.367
700678.29981, 3,  -0.038,  9.985,  1.984, 4,  -0.087,  0.095,  0.047, 5,   6.796,-37.894, 36.333
700678.31970, 3,  -0.380,  9.382, -1.852
700678.33957, 3,   0.036,  8.657,  2.008
700678.35944, 3,   0.388,  3.221, -6.559, 4,   0.099, -0.020, -0.024, 5,   7.355,-36.981, 37.352
700678.37930, 3,  -1.125, 17.853, -8.597
700678.39917, 3,  -0.191,  9.401, -2.340
700678.41904, 3,  -0.620,  3.776, -1.149, 4,   0.011,  0.068,  0.019, 5,   6.525,-38.808, 37.447
700678.43890, 3,  -0.735, 11.031, -6.470
700678.45877, 3,  -0.672, 12.940, -3.170
700678.47803, 3,   0.404, 13.216, -0.163, 4,  -0.089,  0.060, -0.013, 5,   6.166,-38.991, 36.969
700678.49851, 3,   2.367, 12.139,  3.625
700678.51834, 3,   1.771,  4.647, -0.412
700678.53821, 3,   0.316,  7.353, -7.714, 4,   0.079, -0.132, -0.060
700678.55808, 3,  -1.833, 14.745, -7.990
700678.57794, 3,  -1.182,  1.050, -3.843
700678.59784, 3,  -4.087, 14.883, -5.192, 4,   0.072, -0.030, -0.045, 5,   4.799,-38.412, 36.575
700678.61771, 3,  -1.378,  7.963,  0.397
700678.63757, 3,  -1.232,  4.723, -2.438
700678.65744, 3,  -1.383, 13.905, -5.487, 4,  -0.091,  0.047,  0.017, 5,   7.318,-37.122, 37.689
700678.67731, 3,  -1.103,  6.331,  2.675
700678.69717, 3,  -0.201,  8.964,  1.677
700678.71704, 3,  -0.120, 14.252, -0.610, 4,  -0.059, -0.072,  0.052
700678.73691, 3,  -0.878,  8.045, -3.584
700678.75678, 3,  -0.794,  5.685, -6.348
700678.77664, 3,  -1.058, 14.874, -5.075, 4,   0.095, -0.019,  0.055, 5,   5.896,-36.671, 37.685
700678.79651, 3,  -0.909,  9.899, -0.601
700678.81638, 3,  -0.151, 12.617, -1.409
700678.83624, 3,   1.108,  7.966, -1.976, 4,  -0.037,  0.132,  0.115, 5,   6.306,-36.813, 39.183
700678.85611, 3,  -0.029,  6.401, -3.087
700678.87598, 3,  -0.464, 14.278, -3.623
700678.89587, 3,   0.165,  5.827, -1.091, 4,   0.031,  0.055,  0.003, 5,   6.880,-34.895, 38.023
700678.91574, 3,  -0.845, 14.177, -2.261
700678.93561, 3,  -1.297, 10.679, -1.840
700678.95548, 3,  -1.558,  6.011, -2.922, 4,   0.032,  0.086, -0.021, 5,   6.010,-34.354, 37.781
700678.97534, 3,  -0.500,  8.121, -3.951
700678.99521, 3,  -1.321,  4.451, -3.692
700679.01508, 3,  -1.876, 13.144, -3.496, 4,   0.004,  0.015, -0.038, 5,   5.676,-34.831, 37.587
700679.03494, 3,   0.471,  7.595, -2.965
700679.05481, 3,  -1.168,  9.112, -4.944
700679.07468, 3,  -1.029,  9.133, -3.166, 4,  -0.078,  0.059,  0.013
700679.09454, 3,  -0.811, 10.521,  3.759
700679.11441, 3,  -2.158, 12.665, -0.613
700679.13428, 3,  -1.074, 11.194,  1.984, 4,  -0.123,  0.043,  0.053, 5,   4.959,-35.176, 37.393
700679.15415, 3,   0.165,  7.846, -0.577
700679.17404, 3,  -0.933,  7.870, -2.625
700679.19391, 3,  -0.476,  8.806, -4.728, 4,   0.073,  0.065,  0.021, 5,   5.058,-32.988, 36.124
700679.21378, 3,  -0.811,  6.597, -4.934
700679.23361, 3,  -0.534, 10.574, -5.154
700679.25351, 3,  -0.242, 10.021, -0.804, 4,  -0.039,  0.131, -0.006
700679.27338, 3,  -0.881,  7.528, -0.902
700679.29324, 3,   0.096, 10.397, -1.168
700679.31308, 3,   0.718,  7.305, -0.747, 4,  -0.101,  0.019, -0.059, 5,   4.706,-32.957, 36.549
700679.33295, 3,  -0.656, 13.819, -4.144
700679.35281, 3,   1.656, 12.912, -2.981
700679.37268, 3,   0.725,  3.139,  2.201, 4,  -0.017,  0.123, -0.095, 5,   4.912,-33.374, 37.137
700679.39255, 3,   1.232, 41.578, -2.780
700679.41242, 3,   0.893, -4.561,  7.090
700679.43228, 3,  -2.228, -4.542, -4.912, 4,   0.190, -0.044, -0.214, 5,   6.534,-32.669, 36.279
700679.45215, 3,  -4.948, 20.798,-17.592
700679.47205, 3,  -1.931,  8.736, -4.137
700679.49191, 3,  -2.347,  3.623,  3.738, 4,   0.065, -0.184, -0.052, 5,   5.661,-31.926, 36.560
700679.51178, 3,  -2.938, 13.807, -3.044
700679.53165, 3,  -2.132,  2.922,-15.771
700679.55151, 3,  -1.933, 16.522, -1.979, 4,  -0.060, -0.176,  0.054, 5,   6.633,-32.146, 35.640
700679.57138, 3,   1.854,  2.359, 11.574
700679.59125, 3,   3.285,  8.442,  5.740
700679.61112, 3,  -0.249,  9.897, -8.621, 4,  -0.101, -0.231,  0.191
700679.63098, 3,  -2.299, 13.414, -9.921
700679.65085, 3,   0.033,  2.146,  0.182
700679.67072, 3,  -1.139, 16.156, -3.300, 4,   0.148, -0.055,  0.181, 5,   5.266,-33.035, 34.729
700679.69058, 3,   1.103,  5.247,  0.012
700679.71045, 3,   0.593,  7.803, -2.221
700679.73032, 3,  -0.129, 16.041, -5.513, 4,  -0.054,  0.244,  0.224
700679.75021, 3,   0.471,  5.436, -0.134
700679.77008, 3,  -0.948, 12.964,  0.211
700679.78995, 3,  -0.211,  8.619, -1.450, 4,  -0.013,  0.186,  0.072, 5,   5.247,-32.364, 35.834
700679.80982, 3,  -1.306,  7.774, -1.098
700679.82968, 3,  -1.347,  8.119, -3.106
700679.84955, 3,  -1.369,  8.181, -4.458, 4,   0.066,  0.237, -0.012, 5,   3.635,-32.788, 37.830
700679.86942, 3,  -0.519, 10.806, -2.362
700679.88928, 3,   0.330, 13.007, -0.464
700679.90915, 3,  -0.213,  7.827,  0.105, 4,  -0.048,  0.522, -0.044
700679.92902, 3,  -0.735,  9.299, -1.988
700679.94888, 3,  -2.467, 10.186, -5.169
700679.96875, 3,  -3.092,  8.071, -6.741, 4,   0.068,  0.394, -0.221, 5,   2.271,-32.051, 35.829
700679.98862, 3,  -1.842, 16.041, -5.422
700680.00848, 3,  -0.711,  6.812,  1.548
700680.02838, 3,  -1.364,  8.262,  0.005, 4,  -0.163, -0.009, -0.181, 5,   3.870,-32.307, 35.538
700680.04825, 3,  -0.785, 12.943, -3.537
700680.06812, 3,   0.041,  7.466, -5.137
700680.08798, 3,  -0.826, 14.780, -2.460, 4,  -0.054, -0.355, -0.118, 5,   4.350,-32.094, 35.020
700680.10782, 3,   1.574,  4.195,  8.801
700680.12769, 3,   0.500,  8.827,  0.510
700680.14755, 3,   0.780, -0.010, -5.547, 4,   0.041, -0.292, -0.061, 5,   6.645,-32.661, 34.384
700680.16742, 3,  -1.874,  8.078,-12.089
700680.18729, 3,  -0.883, 17.800, -6.554
700680.20715, 3,   0.780,  6.877,  3.230, 4,  -0.035,  0.020, -0.054, 5,   6.245,-33.389, 36.127
700680.22702, 3,   0.129,  8.138,  0.849
700680.24689, 3,  -0.816, 11.514, -7.434
700680.26675, 3,  -0.380,  9.098, -2.015, 4,  -0.077,  0.072, -0.073
700680.28662, 3,  -1.448, 10.277,  1.058
700680.30649, 3,  -0.653,  9.971,  1.704
700680.32639, 3,  -2.079, 10.890, -3.266, 4,  -0.033, -0.049, -0.069, 5,   5.801,-33.394, 34.138
700680.34625, 3,  -2.575, -2.087, -4.867
700680.36612, 3,  -2.299, 20.059, -4.697
700680.38599, 3,  -0.184,  2.608, -1.242, 4,   0.032, -0.112,  0.006, 5,   5.865,-32.249, 33.803
700680.40585, 3,  -1.046, 16.872, -2.453
700680.42572, 3,   0.203,  6.894,  0.534
700680.44559, 3,  -0.263,  7.056, -1.496, 4,  -0.046, -0.033,  0.122
700680.46545, 3,  -0.189, 11.093, -5.334
700680.48532, 3,   1.412,  8.310,  0.014
700680.50519, 3,  -0.469, 15.953, -8.061, 4,   0.067, -0.072,  0.060, 5,   6.560,-33.049, 35.112
700680.52506, 3,   0.486, 11.146, -1.524
700680.54492, 3,   0.313,  4.520, -2.426
700680.56479, 3,   0.902, 12.476, -5.039, 4,   0.051,  0.058,  0.024, 5,   5.357,-34.966, 34.254
700680.58466, 3,   1.149,  8.664, -1.235
700680.60455, 3,   0.172,  9.284, -2.216
700680.62442, 3,   0.806, 13.931, -5.894, 4,   0.035,  0.107, -0.068, 5,   6.906,-33.369, 36.566
700680.64429, 3,  -0.100,  5.513, -1.314
700680.66415, 3,  -0.476,  7.131, -4.506
700680.68402, 3,  -1.976, 15.115, -5.128, 4,   0.036, -0.010, -0.138, 5,   6.882,-32.996, 34.961
700680.70389, 3,  -1.280,  8.224, -0.603
700680.72376, 3,  -1.938,  9.550, -1.206
700680.74362, 3,  -1.113, 19.633, -2.005, 4,  -0.047, -0.125, -0.065, 5,   7.916,-34.019, 36.185
700680.76349, 3,  -0.936,  0.345, -0.359
700680.78336, 3,  -2.579, 13.902, -5.635
700680.80322, 3,  -1.443,  5.975, -1.610, 4,  -0.005, -0.100, -0.001
700680.82309, 3,  -1.383, 14.316,  0.069
700680.84296, 3,  -0.761, 12.072, -0.854
700680.86282, 3,  -0.055,  6.384, -0.208, 4,  -0.035,  0.063,  0.074, 5,   5.547,-34.833, 36.522
700680.88269, 3,   1.029,  6.812, -9.988
700680.90259, 3,  -0.347, 10.710, -6.116
700680.92243, 3,  -0.196,  9.062, -0.682, 4,   0.044,  0.084,  0.006
700680.94232, 3,   1.431,  8.193, -1.620
700680.96216, 3,  -0.696,  8.973, -6.205
700680.98203, 3,  -0.586, 10.928, -6.820, 4,   0.018,  0.095, -0.016, 5,   6.255,-32.916, 35.112
700681.00189, 3,  -0.830,  9.633, -0.220
700681.02176, 3,  -0.658, 10.162, -0.014
700681.04163, 3,   0.148, 12.971, -1.419, 4,  -0.104, -0.020, -0.023, 5,   6.009,-31.830, 35.109
700681.06149, 3,   0.407,  5.408, -2.065
700681.08136, 3,  -0.057, 10.303, -2.773
700681.10123, 3,  -0.672,  9.184, -2.737, 4,   0.027, -0.054, -0.052, 5,   6.017,-32.851, 35.112
700681.12109, 3,  -2.211, 13.359, -6.836
700681.14096, 3,  -0.725,  9.294, -0.153
700681.16083, 3,  -1.048,  2.247,  1.431, 4,  -0.037, -0.029, -0.013, 5,   5.975,-32.878, 34.486
700681.18073, 3,  -0.969, 13.515, -6.475
700681.20059, 3,  -1.108,  8.636, -1.137
700681.22046, 3,  -0.404,  5.137, -1.029, 4,  -0.071, -0.056, -0.036, 5,   6.889,-34.369, 36.131
700681.24033, 3,  -0.455, 16.745, -3.931
700681.26019, 3,   2.536,  0.141,  1.218
700681.28006, 3,  -0.079, 10.959,  0.596, 4,  -0.081, -0.084, -0.010, 5,   6.027,-33.403, 33.908
700681.29993, 3,  -0.436,  6.145, -0.885
700681.31979, 3,  -0.799, 13.481, -4.238
700681.33966, 3,  -1.694, 11.057, -5.224, 4,   0.036, -0.139, -0.045
700681.35953, 3,  -0.692, 12.239, -2.223
700681.37940, 3,  -0.368,  5.396,  0.864
700681.39926, 3,  -1.086, 10.150, -4.499, 4,  -0.009, -0.079,  0.041, 5,   6.267,-32.381, 34.825
700681.41913, 3,  -1.369, 11.947, -3.668
700681.43900, 3,  -0.873,  5.812, -2.529
700681.45889, 3,  -0.943, 16.403, -1.938, 4,   0.005, -0.011,  0.061
700681.47815, 3,  -0.191,  5.920,  1.965
700681.49863, 3,   0.172, -2.704, -2.307
700681.51849, 3,  -1.326, 19.413, -8.822, 4,   0.056,  0.014,  0.049, 5,   7.463,-34.067, 34.337
700681.53836, 3,  -0.986, -2.299, -3.202
700681.55823, 3,  -0.421, 14.850, -3.345
700681.57810, 3,   0.273, 12.751, -0.572, 4,  -0.087,  0.064,  0.046, 5,   7.191,-34.457, 33.665
700681.59796, 3,  -0.179,  5.788,  0.282
700681.61783, 3,   0.215, 10.964, -4.137
700681.63770, 3,   0.079,  8.952,  2.596, 4,  -0.026, -0.055,  0.005, 5,   7.593,-32.645, 33.664
700681.65756, 3,  -1.034, 17.145, -4.807
700681.67743, 3,   1.431, 12.720, -1.668
700681.69730, 3,  -0.167,  4.515, -0.773, 4,   0.049, -0.078,  0.009, 5,   8.536,-34.416, 33.858
700681.71713, 3,   0.213,  8.463, -5.171
700681.73703, 3,  -2.221, 13.292, -6.681
700681.75690, 3,  -1.548, 10.141, -3.537, 4,   0.084,  0.037, -0.018, 5,   6.532,-32.620, 32.890
700681.77676, 3,  -1.493, 11.677,  0.335
700681.79663, 3,  -0.299,  7.446,  1.036
700681.81650, 3,  -0.881,  4.661, -2.623, 4,  -0.056,  0.036,  0.015, 5,   7.697,-33.913, 32.938
700681.83637, 3,  -1.591, 39.362, -4.020
700681.85623, 3,  -0.720, -7.071,  2.462
700681.87610, 3,  -2.524, 16.436, -3.324, 4,   0.055,  0.039, -0.019, 5,   7.619,-33.351, 34.297
700681.89597, 3,  -1.943, 10.265, -3.793
700681.91583, 3,  -2.075,  8.949, -0.234
700681.93570, 3,  -1.366,  6.587, -1.548, 4,   0.033,  0.048,  0.014, 5,   8.702,-32.843, 32.689
700681.95557, 3,  -0.909, 12.084, -3.376
700681.97543, 3,   1.926, 18.217,-22.923
700681.99530, 3,   0.744, 10.421, -2.137, 4,   0.038,  0.019,  0.036
700682.01517, 3,   0.299,  0.876,  1.515
700682.03507, 3,   0.476, 11.349, -2.082
700682.05493, 3,  -0.191,  8.475, -4.554, 4,   0.038,  0.044,  0.002, 5,   8.246,-33.336, 34.531
700682.07480, 3,  -1.206, 14.713, -8.317
700682.09467, 3,   0.770,  9.093, -0.871
700682.11453, 3,   0.778,  9.892,  0.814, 4,  -0.052,  0.037, -0.030, 5,   7.573,-33.510, 33.583
700682.13440, 3,   1.235, 12.383, -4.300
700682.15427, 3,   0.108,  7.243, -1.486
700682.17413, 3,  -1.606, 11.285, -4.046, 4,   0.041, -0.061, -0.110, 5,   8.701,-34.142, 34.183
700682.19400, 3,  -1.144, 14.343, -1.747
700682.21387, 3,  -1.184, -3.080,  0.708
700682.23373, 3,  -1.943, 18.188, -5.130, 4,   0.022, -0.043, -0.093, 5,   8.107,-32.904, 32.935
700682.25360, 3,  -2.218,  9.985, -3.273
700682.27347, 3,  -1.661,  7.200, -1.907
700682.29334, 3,  -0.945, 13.718, -0.491, 4,  -0.065, -0.015, -0.058, 5,   9.116,-33.537, 33.188
700682.31320, 3,  -0.703,  6.899,  2.182
700682.33310, 3,  -0.809,  5.989, -3.237
700682.35297, 3,  -0.969, 18.221, -3.034, 4,   0.007, -0.191, -0.047, 5,  10.275,-34.647, 33.670
700682.37283, 3,  -0.682,  4.018, -4.793
700682.39270, 3,   0.304, 16.836, -5.056
700682.41257, 3,   0.141, 11.529,  0.129, 4,   0.031, -0.204,  0.012, 5,  10.927,-32.825, 34.848
700682.43243, 3,   0.591,  3.809,  0.888
700682.45230, 3,  -1.921, 11.340, -7.100
700682.47214, 3,  -0.883,  7.959, -4.886, 4,   0.092, -0.142,  0.014, 5,  11.307,-31.839, 35.506
700682.49204, 3,  -0.773, 12.526, -4.566
700682.51190, 3,   1.460, 16.166, -4.298
700682.53177, 3,   0.646,  3.711,  0.534, 4,  -0.031,  0.046,  0.076
700682.55164, 3,   1.036,  9.856, -2.977
700682.57147, 3,  -1.134, 15.118, -2.113
700682.59134, 3,  -0.620,  5.984,  0.060, 4,   0.051, -0.012, -0.012, 5,  10.251,-33.290, 35.844
700682.61124, 3,  -2.448,  7.296, -3.077
700682.63110, 3,   0.304, 14.280, -2.941
700682.65097, 3,  -1.196,  2.283, -5.343, 4,   0.114, -0.125,  0.012, 5,  10.248,-33.290, 36.574
700682.67084, 3,  -1.586, 11.691, -8.176
700682.69071, 3,  -1.630,  6.846, -0.993
700682.71057, 3,  -0.907, 10.737,  1.644, 4,  -0.123, -0.042,  0.100, 5,   8.922,-33.141, 37.833
700682.73044, 3,  -0.897, 12.007, -1.172
700682.75031, 3,   0.333, 11.230, -0.053
700682.77017, 3,  -0.026, 12.632, -6.164, 4,  -0.062, -0.075,  0.116, 5,   9.608,-32.307, 36.954
700682.79004, 3,   0.424,  6.743, -2.546
700682.80991, 3,  -0.754,  9.205, -1.232
700682.82977, 3,   0.816, 10.313, -2.857, 4,   0.052,  0.002,  0.077, 5,   8.813,-31.900, 36.421
700682.84964, 3,  -0.258,  9.306, -3.986
700682.86951, 3,   1.838,  7.856, -6.185
700682.88940, 3,   0.127, 10.339, -6.190, 4,   0.084, -0.057,  0.041, 5,   7.002,-33.284, 37.880
700682.90927, 3,  -1.141, 12.388, -3.802
700682.92914, 3,  -0.481, 11.282, -1.094
700682.94901, 3,   0.364,  6.298, -0.787, 4,  -0.049, -0.015,  0.094, 5,   7.364,-33.118, 35.840
700682.96887, 3,  -0.031,  8.779, -1.969
700682.98874, 3,  -1.723,  2.422, -4.922
700683.00861, 3,  -1.481, 25.189, -7.588, 4,   0.005,  0.111,  0.037, 5,   6.773,-33.240, 35.686
700683.02847, 3,  -1.105,  3.857,  9.904
700683.04834, 3,   0.426, -0.749,  4.446
700683.06821, 3,  -2.252, 16.544, -7.384, 4,  -0.039,  0.086,  0.064
700683.08807, 3,  -1.898,  6.264, -2.264
700683.10794, 3,  -2.036,  3.931, -5.140
700683.12781, 3,  -0.100, 17.018, -3.139, 4,   0.092,  0.010,  0.010, 5,   5.823,-33.920, 33.852
700683.14768, 3,   2.642,  6.195,-13.125
700683.16754, 3,   1.302, 15.606, -5.025
700683.18744, 3,   1.551,  2.752,  2.666, 4,  -0.084,  0.101,  0.086
700683.20731, 3,   1.775, 13.981, -0.696
700683.22717, 3,  -0.706, 17.968, -2.249
700683.24704, 3,   0.849,  8.796,  0.878, 4,   0.002,  0.154, -0.039, 5,   6.883,-34.514, 35.405
700683.26691, 3,   0.194,  1.137, -2.039
700683.28677, 3,  -1.228, 16.147, -8.289
700683.30664, 3,  -2.273,  9.045, -5.573, 4,   0.171, -0.099, -0.139, 5,   6.245,-33.388, 35.846
700683.32651, 3,  -1.902,  7.669, -3.032
700683.34634, 3,  -2.235, 16.726, -1.914
700683.36621, 3,  -0.596,  5.712,  2.579, 4,  -0.125,  0.070, -0.025, 5,   6.775,-34.084, 34.518
700683.38608, 3,  -1.730,  7.547,  1.909
700683.40595, 3,  -2.266, 15.553, -0.974
700683.42581, 3,  -1.283,  2.701, -7.377, 4,   0.101,  0.167, -0.091, 5,   7.217,-32.921, 37.022
700683.44568, 3,  -1.328, 15.852, -6.142
700683.46558, 3,  -0.251,  8.782, -2.577
700683.48544, 3,   1.206,  6.640, -0.897, 4,   0.033, -0.177, -0.027, 5,   6.259,-32.721, 35.112
700683.50531, 3,   0.455, 10.777, -3.867
700683.52518, 3,   0.383, 14.101, -2.737
700683.54504, 3,   0.440,  7.851,  0.045, 4,  -0.066, -0.308,  0.031, 5,   8.072,-33.154, 35.455
700683.56491, 3,   0.194, 14.132, -1.869
700683.58478, 3,   1.847,  8.104, -0.175
700683.60465, 3,   0.672,  9.861,  0.596, 4,  -0.072, -0.166,  0.104
700683.62451, 3,  -0.299, 12.821, -1.582
700683.64438, 3,  -1.311, -4.898, -2.034
700683.66425, 3,  -3.931,  5.125, -9.863, 4,   0.009,  0.099,  0.072, 5,   7.091,-33.023, 33.852
700683.68411, 3,  -3.331, 17.070, -6.473
700683.70398, 3,   0.215,  3.271,  4.168
700683.72385, 3,   0.914, 12.242,  0.577, 4,  -0.276,  0.038,  0.153
700683.74371, 3,  -0.993, 14.225, -0.605
700683.76361, 3,  -0.431,  9.468,  0.234
700683.78348, 3,   0.395, 14.637, -1.756, 4,  -0.020,  0.197,  0.135, 5,   7.585,-33.017, 34.003
700683.80335, 3,   0.976,  3.910,  3.443
700683.82321, 3,  -1.488,  4.944, -2.419
700683.84308, 3,   0.390, 13.139, -3.237, 4,  -0.002,  0.018,  0.043, 5,   7.056,-32.794, 33.081
700683.86295, 3,   0.881,  6.769, -2.594
700683.88281, 3,  -0.127, 15.714, -6.619
700683.90268, 3,   0.249, 10.308, -2.864, 4,   0.052,  0.091, -0.018, 5,   6.326,-33.383, 34.341
700683.92255, 3,  -0.330,  6.080, -0.689
700683.94241, 3,  -2.240, 10.244, -2.364
700683.96228, 3,  -0.876,  8.755,  0.742, 4,  -0.011,  0.132, -0.068, 5,   5.118,-33.890, 35.114
700683.98215, 3,  -2.869,  0.024, -0.383
700684.00201, 3,   0.098, 21.626, -6.841
700684.02188, 3,   0.251,  8.339,  0.290, 4,   0.123,  0.077, -0.025, 5,   8.614,-34.756, 35.846
700684.04178, 3,  -0.254,  5.396,  0.249
700684.06165, 3,  -0.828, 14.032, -2.541
700684.08151, 3,   0.036,  2.711,  0.546, 4,   0.038,  0.053, -0.033, 5,   7.324,-32.552, 35.741
700684.10138, 3,  -1.366, 11.914, -5.001
700684.12125, 3,  -0.110, 13.079, -3.888
700684.14111, 3,   0.156,  5.944,  0.464, 4,   0.032,  0.154, -0.009, 5,   5.566,-33.838, 34.480
700684.16098, 3,  -0.476, 12.708, -2.601
700684.18082, 3,   0.483,  7.951, -2.742
700684.20068, 3,   0.366,  8.227, -1.452, 4,  -0.006,  0.256, -0.079, 5,   4.797,-32.144, 34.819
700684.22055, 3,  -0.206,  8.265, -4.039
700684.24042, 3,  -0.124, 12.773, -0.132
700684.26029, 3,  -0.711, 12.103,  1.445, 4,  -0.065,  0.244, -0.163
700684.28015, 3,   1.988, 24.775,  0.203
700684.30002, 3,  -2.075,-17.539,  4.640
700684.31989, 3,  -4.386, 26.563, -9.839, 4,  -0.025, -0.101, -0.271, 5,   6.238,-33.627, 35.123
700684.33978, 3,  -1.433,  2.824,  0.347
700684.35965, 3,  -0.890, 12.514, -0.232
700684.37952, 3,   1.062, 11.012, -0.854, 4,  -0.146, -0.474, -0.135, 5,   7.518,-33.418, 35.115
700684.39938, 3,   0.696,  7.384,  0.799
700684.41925, 3,  -0.146, 12.653, -0.725
700684.43912, 3,  -1.515,  9.100, -2.917, 4,  -0.011, -0.512, -0.038, 5,   7.979,-34.056, 35.118
700684.45898, 3,  -0.967,  2.673,  0.048
700684.47824, 3,  -0.280, 16.152, -6.035
700684.49872, 3,   1.003, 11.682, -3.405, 4,   0.044, -0.290,  0.118, 5,   9.525,-33.685, 34.392
700684.51859, 3,   2.278,  7.686, -0.345
700684.53845, 3,  -0.747, -1.512, -0.759
700684.55832, 3,  -0.916, 21.923, -4.891, 4,   0.070,  0.275,  0.099, 5,   8.340,-34.756, 33.185
700684.57819, 3,  -1.022,  4.621, -2.364
700684.59805, 3,  -2.443, 11.332, -4.262
700684.61795, 3,  -1.909, 12.196,  0.311, 4,   0.022,  0.240,  0.030, 5,   8.223,-34.041, 34.393
700684.63782, 3,  -1.328,  6.269,  0.828
700684.65768, 3,  -1.397, 11.143, -1.601
700684.67755, 3,  -0.555,  8.351, -2.556, 4,   0.027, -0.256,  0.063, 5,   7.373,-34.560, 33.508
700684.69742, 3,   0.242, 15.288, -2.553
700684.71729, 3,  -0.617, -2.735,  0.275
700684.73715, 3,   0.208, 21.421, -3.300, 4,   0.029,  0.031,  0.153, 5,   7.521,-34.065, 34.775
700684.75702, 3,   2.704,  2.548,  2.984
700684.77689, 3,   1.043, 10.567, -3.678
700684.79675, 3,  -0.534, 11.888, -2.563, 4,   0.016,  0.325,  0.049
700684.81662, 3,  -0.146,  2.948, -1.491
700684.83649, 3,  -0.857, 17.750, -4.762
700684.85635, 3,  -0.529,  8.739, -1.235, 4,  -0.064,  0.139, -0.084, 5,   6.851,-34.131, 35.751
700684.87622, 3,   0.491, 12.981, -0.055
700684.89612, 3,   0.256,  7.947,  2.067
700684.91599, 3,  -1.373,  9.428, -2.410, 4,  -0.081, -0.141, -0.093
700684.93585, 3,  -0.837,  9.124, -2.314
700684.95572, 3,  -1.680,  8.865, -2.357
700684.97559, 3,  -2.048,  8.825, -3.170, 4,   0.018, -0.053, -0.054, 5,   8.223,-34.294, 35.120
700684.99545, 3,  -1.362, 10.746, -2.072
700685.01529, 3,  -0.256, 10.806,  0.270
700685.03516, 3,  -1.158,  5.728, -1.196, 4,  -0.050, -0.013, -0.008, 5,   7.420,-34.067, 33.817
700685.05502, 3,  -2.618, 13.393, -4.508
700685.07489, 3,  -0.194, 10.012, -2.189
700685.09476, 3,  -0.223,  7.171, -1.603, 4,   0.018,  0.018,  0.014, 5,   7.349,-35.402, 35.120
700685.11462, 3,  -0.665,  7.444, -1.362
700685.13449, 3,  -0.936, 12.067, -3.632
700685.15436, 3,  -0.225, 12.857,  0.349, 4,  -0.040,  0.010,  0.019, 5,   7.352,-35.400, 34.489
700685.17423, 3,   0.945,  6.286,  1.625
700685.19412, 3,   0.280, 11.411, -3.498
700685.21399, 3,   0.390,  7.844, -1.297, 4,   0.033, -0.075, -0.011, 5,   7.140,-34.932, 34.248
700685.23386, 3,  -1.101,  8.758, -1.498
700685.25372, 3,  -0.737, 10.581, -4.008
700685.27359, 3,  -1.330, 12.754, -3.312, 4,   0.014, -0.059, -0.022, 5,   7.744,-35.493, 33.670
700685.29346, 3,   0.871, 10.670, -0.086
700685.31332, 3,  -0.352, -4.398,  0.086
700685.33319, 3,   1.161, 23.139, -5.951, 4,  -0.015, -0.051, -0.001
700685.35306, 3,  -1.558,  4.202,  0.251
700685.37293, 3,  -1.208, 11.663, -4.896
700685.39279, 3,  -0.656, 13.768, -1.852, 4,   0.011,  0.050,  0.016, 5,   6.891,-34.218, 34.845
700685.41266, 3,  -0.354,  4.589,  0.053
700685.43253, 3,  -0.586, 17.365, -1.790
700685.45239, 3,   1.500,  9.923,  2.099, 4,  -0.102,  0.026,  0.027
700685.47229, 3,   0.014,  7.298, -0.821
700685.49216, 3,   0.950, 11.084, -1.182
700685.51202, 3,   0.804,  4.697,  1.481, 4,   0.017, -0.128, -0.017, 5,   7.547,-34.731, 34.442
700685.53189, 3,  -0.629, 16.977, -7.207
700685.55176, 3,  -1.342,  2.060, -1.969
700685.57163, 3,  -1.125, 11.320, -3.953, 4,   0.049, -0.167, -0.026, 5,   7.912,-34.247, 33.667
700685.59149, 3,   0.481, 13.211, -1.237
700685.61136, 3,   1.086,  6.662,  0.593
700685.63123, 3,  -0.244,  9.746, -2.209, 4,  -0.015, -0.182,  0.013, 5,   8.229,-34.055, 34.396
700685.65109, 3,  -1.417,  8.839, -2.969
700685.67096, 3,  -0.218, 11.957, -3.730
700685.69083, 3,  -0.749, 13.077, -3.020, 4,   0.079, -0.080,  0.015, 5,   8.394,-34.421, 35.310
700685.71069, 3,  -1.634, -3.970,  0.141
700685.73056, 3,  -0.120, 27.206, -3.759
700685.75043, 3,  -1.364,  3.967,  6.099, 4,  -0.047, -0.074,  0.058, 5,   9.485,-34.019, 35.120
700685.77029, 3,  -0.081,  7.793, -1.548
700685.79019, 3,  -1.189, 12.335, -2.359
700685.81006, 3,  -0.555,  6.599, -0.701, 4,   0.095, -0.079,  0.055, 5,   9.285,-34.314, 34.393
700685.82990, 3,  -0.634, 10.772, -4.070
700685.84976, 3,  -1.024, 14.223, -3.929
700685.86963, 3,  -0.388,  3.075, -0.653, 4,   0.025, -0.028,  0.092, 5,  10.086,-34.764, 35.077
700685.88950, 3,  -0.313, 16.025, -2.747
700685.90936, 3,  -0.553, 10.031,  1.632
700685.92923, 3,   0.574,  5.147,  2.335, 4,  -0.069, -0.033,  0.116, 5,   8.865,-35.454, 34.883
700685.94910, 3,  -0.199, 14.110, -5.037
700685.96896, 3,   0.146,  7.329, -1.598
700685.98883, 3,  -0.349,  9.387, -2.345, 4,   0.080,  0.084,  0.058
700686.00870, 3,  -1.500, 11.038, -3.678
700686.02857, 3,  -2.675,  1.685, -2.087
700686.04846, 3,  -1.132, 14.240, -3.742, 4,  -0.004,  0.102,  0.033, 5,   8.205,-35.193, 36.421
700686.06833, 3,   0.349, 12.215, -0.022
700686.08820, 3,   0.591,  8.162,  0.706
700686.10806, 3,  -0.656,  8.734, -1.060, 4,  -0.054,  0.037,  0.063, 5,   7.350,-35.405, 36.275
700686.12793, 3,  -0.349,  9.880, -2.946
700686.14780, 3,  -0.218,  8.808, -2.778
700686.16766, 3,  -0.754,  9.059, -2.862, 4,   0.073,  0.151,  0.042, 5,   8.533,-34.756, 35.025
700686.18753, 3,  -0.318, 12.091, -2.560
700686.20740, 3,   0.122,  4.872, -2.177
700686.22726, 3,   0.641, 18.133, -2.192, 4,  -0.040,  0.145,  0.013, 5,   7.407,-34.923, 36.571
700686.24713, 3,  -0.567,  6.549,  3.422
700686.26700, 3,  -0.323,  9.576, -0.861
700686.28687, 3,  -0.682,  9.253, -3.446, 4,  -0.012,  0.031, -0.035, 5,   7.321,-35.027, 35.364
700686.30673, 3,  -1.649, 12.163, -5.125
700686.32663, 3,  -0.347,  8.818, -2.005
700686.34650, 3,  -0.517,  9.203, -0.897, 4,   0.005,  0.016, -0.019, 5,   7.603,-34.784, 37.177
700686.36636, 3,  -1.661,  2.137, -2.249
700686.38623, 3,  -0.936, 15.345, -5.446
700686.40610, 3,  -0.407,  8.267,  0.112, 4,  -0.037,  0.002, -0.004, 5,   6.575,-35.381, 34.665
700686.42596, 3,   0.593,  9.633, -0.239
700686.44583, 3,   0.043, 10.296, -2.235
700686.46570, 3,  -0.560,  7.521, -2.548, 4,   0.032,  0.020, -0.010, 5,   6.213,-34.767, 36.282
700686.48557, 3,  -0.684,  9.818, -3.434
700686.50543, 3,   0.172,  9.614, -3.099
700686.52530, 3,   0.065, 10.308, -3.005, 4,   0.048,  0.107, -0.027
700686.54514, 3,  -1.249,  3.738, -3.147
700686.56503, 3,  -1.419, 15.362, -4.312
700686.58490, 3,   0.280, 12.916, -0.309, 4,  -0.014,  0.048, -0.054, 5,   6.702,-34.805, 36.763
700686.60477, 3,  -0.330,  3.226,  0.024
700686.62463, 3,  -0.124,  9.983, -3.266
700686.64450, 3,   0.026,  7.612, -4.704, 4,   0.079, -0.152, -0.086, 5,   6.226,-34.821, 35.851
700686.66437, 3,  -0.589, 11.268, -7.013
700686.68424, 3,  -1.132, 11.124, -3.903
700686.70410, 3,  -1.082,  8.437, -0.928, 4,   0.028,  0.004, -0.064, 5,   8.054,-35.677, 38.026
700686.72397, 3,  -0.751,  7.312, -2.950
700686.74384, 3,  -0.957, 13.381, -3.340
700686.76370, 3,  -1.247, 12.596, -0.940, 4,   0.001,  0.021, -0.045, 5,   8.850,-34.416, 35.760
700686.78357, 3,   0.352,  7.640,  0.902
700686.80344, 3,   0.390,  7.607, -2.352
700686.82330, 3,  -0.893, 11.311, -4.924, 4,   0.066, -0.155, -0.060, 5,   8.600,-35.181, 36.278
700686.84317, 3,   0.014, 10.083, -4.278
700686.86304, 3,   0.514,  9.902, -2.149
700686.88290, 3,  -0.261,  5.432, -0.433, 4,  -0.026, -0.160, -0.037, 5,   9.410,-35.361, 35.802
700686.90280, 3,  -1.146, 12.347, -5.125
700686.92267, 3,  -0.414, 12.696, -1.350
700686.94254, 3,   0.270,  5.657, -1.347, 4,  -0.035, -0.204, -0.013, 5,   9.090,-35.220, 35.115
700686.96240, 3,   0.282,  9.406, -1.108
700686.98227, 3,  -1.507,  7.140, -4.207
700687.00214, 3,  -1.874,  9.535, -6.738, 4,   0.045, -0.266,  0.009, 5,   8.871,-35.173, 35.414
700687.02200, 3,  -2.075,  7.427, -4.910
700687.04187, 3,  -1.369,  8.605, -3.948
700687.06174, 3,  -1.053, 12.969, -1.268, 4,  -0.092, -0.133,  0.115
700687.08160, 3,  -1.146, 12.201,  1.553
700687.10147, 3,  -1.113,  8.437, -1.342
700687.12134, 3,  -0.112, 10.952, -4.506, 4,  -0.003, -0.047,  0.158, 5,   9.929,-35.869, 33.673
700687.14121, 3,   0.263, 10.761, -0.455
700687.16107, 3,  -0.026,  6.887, -2.489
700687.18094, 3,   0.330, 11.849, -4.393, 4,   0.031, -0.063,  0.141
700687.20084, 3,   0.328,  9.636, -3.254
700687.22070, 3,   1.024,  9.940,  0.687
700687.24057, 3,   0.943,  6.678, -0.452, 4,  -0.093,  0.028,  0.139, 5,   9.625,-36.293, 36.142
700687.26044, 3,   1.187, 15.943, -1.450
700687.27969, 3,   0.223,  7.119, -0.447
700687.30017, 3,  -0.340, 12.416, -6.894, 4,   0.046,  0.222,  0.055, 5,   8.185,-35.951, 35.123
700687.32004, 3,  -1.225,  5.853, -3.479
700687.33991, 3,  -2.034,  8.669, -2.424
700687.35977, 3,  -3.963, 11.880, -4.960, 4,  -0.052,  0.363,  0.001, 5,   8.667,-34.818, 37.790
700687.37964, 3,  -3.403, 11.904, -1.893
700687.39951, 3,  -2.218,  5.379,  0.555
700687.41934, 3,  -0.926,  8.124, -0.651, 4,  -0.076, -0.064,  0.018, 5,   6.204,-34.944, 33.353
700687.43921, 3,  -0.261, 10.586, -1.929
700687.45908, 3,   0.299, 12.761, -2.864
700687.47897, 3,   0.608,  6.386, -2.477, 4,   0.122, -0.073,  0.113, 5,   6.219,-34.485, 36.469
700687.49884, 3,   0.443,  8.585, -5.116
700687.51871, 3,   0.397, 10.184, -3.264
700687.53857, 3,   1.084,  9.598, -2.256, 4,   0.040,  0.077,  0.075, 5,   6.389,-34.659, 36.378
700687.55844, 3,   1.239, 11.206,  0.043
700687.57831, 3,   0.749,  4.365, -0.914
700687.59818, 3,   0.067, 14.998, -4.580, 4,  -0.002,  0.173,  0.001
700687.61804, 3,  -0.136, 10.449, -0.251
700687.63791, 3,  -1.393,  9.801, -2.553
700687.65778, 3,  -2.498,  8.863, -0.658, 4,   0.015,  0.358, -0.051, 5,   5.411,-34.311, 37.103
700687.67764, 3,  -1.895,  8.521, -2.182
700687.69751, 3,  -1.414,  9.784, -3.120
700687.71738, 3,  -1.024,  9.665, -3.151, 4,   0.045,  0.101, -0.033
700687.73725, 3,  -0.902, 10.950, -3.623
700687.75715, 3,  -0.952,  3.951, -3.893
700687.77701, 3,  -1.091, 20.602, -5.207, 4,   0.018, -0.090,  0.039, 5,   6.482,-35.106, 36.996
700687.79688, 3,   1.531,  5.781,  2.467
700687.81675, 3,   0.974,  7.887, -1.105
700687.83662, 3,   1.177, 12.244, -3.120, 4,   0.008,  0.066,  0.066, 5,   6.975,-36.079, 36.427
700687.85648, 3,   0.584,  7.174, -3.998
700687.87635, 3,   0.400, 11.340, -5.015
700687.89622, 3,  -0.720,  8.614, -2.230, 4,   0.054,  0.256, -0.031, 5,   4.875,-34.892, 35.840
700687.91608, 3,  -0.469, 12.725, -2.211
700687.93595, 3,   0.275,  3.939, -0.876
700687.95582, 3,   0.129, 14.931, -3.623, 4,  -0.076,  0.146, -0.080, 5,   6.442,-34.340, 35.596
700687.97568, 3,   0.644, 11.660,  1.491
700687.99555, 3,   0.658,  4.616, -1.029
700688.01542, 3,  -0.737, 10.612, -4.991, 4,   0.013,  0.137, -0.129, 5,   6.351,-34.377, 36.708
700688.03529, 3,  -1.541,  8.803, -4.427
700688.05518, 3,  -1.965, 11.354, -1.854
700688.07505, 3,  -1.005,  8.320, -1.967, 4,  -0.035, -0.058, -0.124
700688.09492, 3,  -0.904, 11.864, -1.826
700688.11478, 3,  -0.553,  6.470, -0.833
700688.13465, 3,  -0.483, 11.256, -3.970, 4,  -0.040, -0.329, -0.014, 5,   6.892,-34.274, 36.917
700688.15449, 3,   0.967, 13.546, -2.821
700688.17438, 3,   0.416,  8.131,  0.634
700688.19425, 3,   0.512,  6.939, -1.474, 4,   0.000,  0.006,  0.047, 5,   7.262,-35.654, 37.161
700688.21412, 3,  -0.502, 11.493, -5.125
700688.23395, 3,  -1.194,  9.681, -2.809
700688.25382, 3,  -0.313,  8.514, -2.096, 4,   0.060,  0.162, -0.005
700688.27369, 3,  -0.828,  9.452, -2.381
700688.29356, 3,  -1.720,  5.922, -3.750
700688.31342, 3,   0.002, 12.168, -3.730, 4,  -0.017, -0.006,  0.004, 5,   7.518,-35.732, 36.334
700688.33332, 3,  -0.294, 10.442, -0.845
700688.35319, 3,   0.234, 10.296, -2.457
700688.37305, 3,  -0.091,  9.186, -0.244, 4,   0.001,  0.044,  0.023, 5,   6.842,-34.029, 35.229
700688.39292, 3,  -0.861,  3.393, -2.802
700688.41279, 3,  -1.462, 12.242, -7.901
700688.43265, 3,  -1.082,  9.909, -5.130, 4,   0.149,  0.121, -0.018, 5,   6.232,-33.965, 35.980
700688.45252, 3,  -0.560,  7.659, -2.498
700688.47239, 3,  -1.381,  7.222, -1.993
700688.49226, 3,   0.208, 14.479, -1.778, 4,  -0.063,  0.099, -0.002, 5,   5.824,-36.255, 37.636
700688.51212, 3,  -0.349,  9.021,  1.819
700688.53199, 3,   0.246,  8.940, -0.718
700688.55186, 3,  -0.065, 13.345, -2.307, 4,   0.039,  0.007, -0.010, 5,   6.334,-35.199, 37.828
700688.57172, 3,  -0.613,  7.049, -2.273
700688.59159, 3,  -1.649, 10.641, -4.671
700688.61146, 3,  -0.897, 10.557, -4.683, 4,   0.057, -0.077, -0.000
700688.63135, 3,  -0.663,  9.727, -1.084
700688.65122, 3,  -0.519,  4.106, -0.239
700688.67109, 3,   0.239, 10.832, -4.798, 4,  -0.056, -0.130,  0.059, 5,   5.223,-33.604, 37.445
700688.69096, 3,  -0.770, 13.041, -2.764
700688.71082, 3,  -0.378,  6.626, -2.958
700688.73069, 3,  -0.593, 13.127, -5.104, 4,   0.043, -0.062,  0.085, 5,   5.193,-34.840, 36.566
700688.75056, 3,  -1.316,  1.302, -0.436
700688.77042, 3,  -1.019,  9.971, -3.563
700688.79029, 3,  -0.354, 14.881, -6.159, 4,   0.030,  0.152,  0.104
700688.81016, 3,  -0.670,  9.564, -2.079
700688.83002, 3,  -0.672,  4.331, -0.309
700688.84989, 3,   0.089, 11.110, -2.807, 4,  -0.021,  0.386,  0.091, 5,   4.836,-34.850, 36.520
700688.86976, 3,  -0.646, 12.971, -1.503
700688.88962, 3,   0.486,  8.370,  1.046
700688.90952, 3,   0.392,  7.157, -0.893, 4,  -0.016,  0.384,  0.047
700688.92939, 3,   1.223, 10.995, -3.446
700688.94926, 3,  -0.680,  9.289, -3.362
700688.96912, 3,  -0.290, 12.187, -5.628, 4,   0.027,  0.167, -0.038, 5,   3.981,-34.868, 35.834
700688.98899, 3,  -0.931,  9.296, -2.572
700689.00886, 3,  -1.228,  4.439, -1.335
700689.02872, 3,  -0.184, 10.418, -3.333, 4,  -0.123,  0.022, -0.005, 5,   3.816,-34.740, 37.584
700689.04859, 3,  -1.132, 13.005, -2.137
700689.06843, 3,  -0.299,  7.162, -1.586
700689.08829, 3,   1.228, 13.110, -4.534, 4,  -0.027,  0.208,  0.019, 5,   2.782,-34.898, 35.934
700689.10816, 3,   0.383,  9.980, -1.187
700689.12803, 3,  -0.079,  6.712, -0.660
700689.14790, 3,  -0.380,  8.937, -2.931, 4,  -0.018,  0.524, -0.059, 5,   1.625,-34.929, 37.193
700689.16776, 3,   0.419, 15.936, -2.417
700689.18766, 3,   0.890,  4.443,  0.368
700689.20753, 3,  -0.191,  7.868, -5.090, 4,  -0.023,  0.213, -0.141, 5,   2.177,-36.208, 37.144
700689.22739, 3,  -0.797, 15.321, -4.137
700689.24726, 3,  -0.787,  8.380,  0.407
700689.26713, 3,  -0.201, 10.504, -0.254, 4,  -0.155,  0.024, -0.121
700689.28699, 3,  -1.017,  9.366,  0.333
700689.30686, 3,  -0.955,  8.279, -1.027
700689.32673, 3,  -1.165,  7.817, -2.055, 4,   0.003, -0.250, -0.116, 5,   2.164,-36.807, 36.562
700689.34660, 3,   0.249, 12.081, -5.982
700689.36646, 3,  -0.948, 12.038, -3.934
700689.38633, 3,  -0.447,  2.575, -0.857, 4,   0.035, -0.097, -0.011, 5,   3.128,-35.172, 38.606
700689.40620, 3,  -0.486, 16.834, -5.654
700689.42606, 3,   1.409, 12.175,  1.086
700689.44593, 3,   1.641,  5.570,  3.764, 4,  -0.059,  0.278,  0.034
700689.46580, 3,   0.780, 11.541, -2.673
700689.48569, 3,   0.098,  5.279, -3.800
700689.50556, 3,  -0.916,  9.933, -4.678, 4,   0.169,  0.355, -0.094, 5,   1.823,-35.968, 36.902
700689.52543, 3,   0.072, 12.866, -3.802
700689.54529, 3,  -0.651,  7.573, -0.538
700689.56516, 3,  -0.610,  8.612, -1.625, 4,  -0.067,  0.129, -0.115, 5,   1.563,-36.168, 37.430
700689.58503, 3,   0.268,  9.837, -2.606
700689.60490, 3,  -0.120, 14.077, -2.187
700689.62476, 3,   0.053,  7.731,  1.129, 4,  -0.047, -0.244, -0.092, 5,   2.844,-36.324, 36.569
700689.64463, 3,  -0.244,  9.179, -1.512
700689.66450, 3,  -0.189,  9.820, -3.704
700689.68436, 3,  -0.995,  8.140, -3.776, 4,   0.054, -0.290, -0.058, 5,   2.524,-36.331, 36.223
700689.70423, 3,  -0.620, 10.430, -3.010
700689.72410, 3,   0.342,  9.148, -1.247
700689.74396, 3,  -0.581,  8.882,  0.909, 4,  -0.060, -0.158,  0.034, 5,   4.861,-35.562, 36.913
700689.76386, 3,  -0.172,  6.427, -0.471
700689.78373, 3,  -0.141, 13.079, -5.367
700689.80360, 3,  -0.919, 13.685, -3.522, 4,   0.077,  0.143,  0.041
700689.82346, 3,  -0.471,  7.882,  0.414
700689.84333, 3,  -0.842,  6.705, -0.278
700689.86317, 3,   0.814, 20.741, -1.933, 4,  -0.015,  0.351,  0.036, 5,   4.849,-34.230, 37.244
700689.88303, 3,  -1.969, -3.044,  3.137
700689.90290, 3,  -1.184,  7.595, -5.068
700689.92277, 3,  -0.237, 12.787, -9.511, 4,   0.125,  0.163, -0.040, 5,   1.945,-36.353, 36.079
700689.94263, 3,  -0.201, 11.385, -4.477
700689.96250, 3,  -0.335,  3.764, -0.565
700689.98237, 3,   0.148,  9.717, -3.103, 4,  -0.097,  0.058, -0.010
700690.00223, 3,   0.622, 13.352, -1.723
700690.02210, 3,   0.866, 10.210, -0.043
700690.04197, 3,   0.175, 10.009, -0.912, 4,  -0.051, -0.045, -0.035, 5,   1.521,-35.641, 36.131
700690.06187, 3,   0.158,  6.975, -2.072
700690.08112, 3,  -1.036, 11.084, -3.697
700690.10160, 3,  -2.185, 10.868, -2.886, 4,  -0.006,  0.001, -0.056, 5,   2.699,-34.482, 36.365
700690.12147, 3,  -2.000,  7.724, -2.687
700690.14133, 3,  -0.364, 14.795, -3.288
700690.16120, 3,  -0.194,  8.904,  2.776, 4,  -0.192,  0.065,  0.023, 5,   3.247,-36.313, 35.748
700690.18107, 3,   0.416,  3.517,  1.132
700690.20093, 3,  -0.062, 15.068, -5.353
700690.22080, 3,  -0.696, 10.930, -4.070, 4,   0.021,  0.144,  0.020, 5,   3.096,-36.746, 35.704
700690.24067, 3,  -0.967,  8.961, -3.242
700690.26054, 3,  -0.206,  9.925, -2.405
700690.28040, 3,   0.158,  6.652, -0.854, 4,  -0.067,  0.006,  0.012, 5,   2.863,-35.378, 36.082
700690.30027, 3,   0.397, 11.617, -2.737
700690.32014, 3,   0.218,  9.519, -3.237
700690.34003, 3,   0.524,  8.504, -3.802, 4,   0.017, -0.284,  0.033
700690.35990, 3,   0.668, 12.287, -3.702
700690.37977, 3,   0.026,  6.549, -0.347
700690.39963, 3,   0.617,  8.825, -2.804, 4,   0.010, -0.169,  0.055, 5,   4.276,-36.703, 36.430
700690.41950, 3,  -0.541, 10.938, -2.690
700690.43937, 3,  -0.775,  6.178, -2.170
700690.45924, 3,  -1.084,  9.449, -6.681, 4,   0.070,  0.147,  0.061
700690.47910, 3,  -0.383, 26.836, -1.369
700690.49897, 3,  -2.512, -0.388,  9.758
700690.51884, 3,  -2.491,  8.870, -0.885, 4,  -0.059,  0.350,  0.059, 5,   2.396,-36.053, 36.177
700690.53870, 3,  -0.713, 12.629, -4.152
700690.55857, 3,  -0.692,  8.023, -4.137
700690.57844, 3,  -0.964, 14.651, -5.894, 4,   0.221, -0.054,  0.062, 5,   2.156,-37.053, 36.230
700690.59830, 3,  -0.459,  4.561, -4.116
700690.61820, 3,  -0.737, 13.711, -5.408
700690.63807, 3,   0.986,  6.453, -0.593, 4,   0.072,  0.052,  0.128, 5,   2.853,-35.612, 36.565
700690.65794, 3,   1.524, 11.780, -2.967
700690.67777, 3,   0.950,  8.327, -1.421
700690.69764, 3,   0.842,  8.104, -1.395, 4,   0.133,  0.253,  0.067, 5,   1.534,-35.310, 38.167
700690.71751, 3,   0.491, 10.954,  0.452
700690.73737, 3,  -0.663,  5.788, -7.169
700690.75724, 3,   0.086, 20.449,-13.706, 4,   0.268,  0.274, -0.010, 5,   0.511,-35.379, 37.628
700690.77711, 3,  -1.998,  8.093,  0.718
700690.79697, 3,  -0.952, -0.043,  3.467
700690.81684, 3,  -0.244, 14.206, -2.299, 4,  -0.099,  0.316,  0.007, 5,  -0.464,-35.129, 38.161
700690.83671, 3,  -0.285, 13.299, -2.436
700690.85657, 3,   0.246,  8.870, -0.775
700690.87644, 3,  -1.464,  8.337, -1.067, 4,   0.065,  0.203,  0.047, 5,  -1.700,-34.392, 38.052
700690.89631, 3,  -1.677, 11.474, -4.829
700690.91621, 3,  -2.170,  9.088, -2.560
700690.93607, 3,  -1.029,  9.519, -1.768, 4,   0.045,  0.033,  0.078, 5,  -0.214,-34.029, 38.016
700690.95594, 3,   0.354, 10.753, -3.551
700690.97581, 3,   0.751,  9.698, -3.180
700690.99567, 3,  -0.079, 12.328, -1.591, 4,   0.013,  0.226,  0.150
700691.01554, 3,  -0.581,  2.125, -3.302
700691.03541, 3,  -0.715, 16.118, -6.214
700691.05527, 3,  -0.134, 10.069, -1.218, 4,   0.023,  0.420,  0.141, 5,  -2.045,-34.019, 37.712
700691.07514, 3,   1.062,  7.793,  0.144
700691.09501, 3,   1.101,  8.743, -0.045
700691.11487, 3,   0.156,  9.258, -3.419, 4,   0.030,  0.393,  0.095, 5,  -4.268,-33.929, 39.267
700691.13474, 3,   0.486, 11.749, -5.511
700691.15461, 3,  -0.368,  7.092, -1.352
700691.17448, 3,  -0.665,  7.449, -3.336, 4,   0.074,  0.511,  0.045
700691.19437, 3,  -0.912, 11.672, -4.589
700691.21424, 3,  -1.230,  9.275,  0.120
700691.23411, 3,  -0.692,  5.197, -1.007, 4,  -0.016,  0.594,  0.060, 5,  -5.086,-32.954, 37.848
700691.25397, 3,  -1.259, 18.085, -3.709
700691.27384, 3,  -1.405,  9.377,  2.256
700691.29371, 3,  -1.445,  7.781, -0.086, 4,   0.027,  0.561,  0.064, 5,  -6.664,-33.945, 36.789
700691.31357, 3,  -0.916,  9.272, -3.625
700691.33344, 3,  -0.187,  9.038, -5.745
700691.35331, 3,   0.242,  9.904, -6.975, 4,   0.175,  0.202,  0.075, 5,  -5.833,-32.320, 40.070
700691.37318, 3,   0.301,  9.145, -4.286
700691.39304, 3,   1.785,  7.006, -1.120
700691.41291, 3,   5.374, 13.108, -0.924, 4,  -0.013,  0.609,  0.123, 5,  -7.600,-31.874, 39.302
700691.43278, 3,   4.877,  3.422, -0.826
700691.45264, 3,   3.450, 11.679, -5.106
700691.47248, 3,  -1.778, 14.548, -4.755, 4,   0.206,  2.287, -0.156, 5, -12.206,-32.516, 36.920
700691.49238, 3,  -5.267,  9.318,  1.074
700691.51224, 3,  -6.056, 10.543,  0.244
700691.53211, 3,  -5.544,  8.294, -2.886, 4,   0.158,  1.692, -0.463
700691.55198, 3,  -4.221,  9.310, -6.571
700691.57185, 3,  -3.546, 10.854, -6.386
700691.59171, 3,  -1.694,  7.583, -3.025, 4,   0.155, -0.538, -0.315, 5, -14.276,-34.021, 34.605
700691.61158, 3,   0.565,  5.109, -0.129
700691.63145, 3,   0.864,  5.573, -4.032
700691.65131, 3,   4.073, 13.967, -8.322, 4,   0.061, -0.698, -0.001, 5, -11.751,-32.397, 35.091
700691.67118, 3,   4.467, 22.189,  2.412
700691.69105, 3,   1.771, -0.756,  7.334
700691.71091, 3,   0.242,  8.325, -3.293, 4,   0.052,  0.697,  0.035, 5, -11.267,-32.916, 37.796
700691.73078, 3,  -0.189, 11.191, -6.501
700691.75065, 3,  -0.668, 13.323, -5.372
700691.77055, 3,  -2.084,  8.456, -0.055, 4,   0.124,  0.448, -0.088, 5, -13.466,-33.580, 35.899
700691.79041, 3,  -1.926,  8.904,  1.460
700691.81028, 3,   0.251,  8.798, -1.328
700691.83015, 3,   0.105, 13.737, -1.828, 4,   0.008, -0.006,  0.032, 5, -13.644,-33.014, 36.102
700691.85001, 3,  -0.275,  4.484, -5.807
700691.86988, 3,  -0.089, 13.345, -8.578
700691.88975, 3,   0.436,  8.975, -3.706, 4,   0.108,  0.751,  0.111, 5, -15.756,-32.494, 34.555
700691.90961, 3,   1.706, 10.811,  0.845
700691.92948, 3,   2.460,  7.303,  1.352
700691.94935, 3,   4.936, 11.629, -9.825, 4,   0.099,  1.527, -0.007, 5, -17.754,-32.542, 34.589
700691.96921, 3,   1.945, 12.132, -3.998
700691.98908, 3,  -1.306,  7.545,  0.306
700692.00895, 3,  -5.503,  6.054,  1.230, 4,   0.194,  2.171, -0.331, 5, -20.947,-31.477, 32.298
700692.02882, 3,  -3.963, 24.622, -6.178
700692.04871, 3,  -3.611, -1.287, -1.491
700692.06858, 3,  -1.740, 14.661, -4.673, 4,   0.222,  0.318, -0.400
700692.08845, 3,  -1.292,  8.633, -2.453
700692.10831, 3,   0.282, 10.911, -1.015
700692.12818, 3,  -0.045,  7.509, -2.917, 4,   0.109, -0.334, -0.120, 5, -19.849,-32.590, 33.427
700692.14805, 3,   0.170, -3.283, -3.690
700692.16791, 3,   4.372, 24.658, -3.281
700692.18778, 3,   5.762,  7.872,  2.917, 4,   0.064,  0.722, -0.014
700692.20765, 3,   3.252,  3.819,  1.149
700692.22752, 3,   0.586, 15.668, -1.747
700692.24738, 3,   1.010,  2.378,  0.191, 4,   0.131,  1.979, -0.297, 5, -24.054,-32.832, 29.976
700692.26725, 3,  -1.125, 14.864, -1.062
700692.28712, 3,  -3.766, 12.531,  0.555
700692.30695, 3,  -3.211,  8.301, -0.301, 4,   0.152,  1.289, -0.458, 5, -24.037,-34.097, 27.313
700692.32682, 3,  -2.218, 11.902, -1.115
700692.34672, 3,  -0.871,  6.398, -3.702
700692.36658, 3,  -1.448, 10.863, -5.401, 4,   0.161, -0.208, -0.363, 5, -24.290,-34.109, 27.176
700692.38645, 3,  -0.443, 10.351, -3.367
700692.40632, 3,   1.878,  9.294, -2.663
700692.42618, 3,   3.194,  3.199, -3.649, 4,   0.089, -0.209, -0.131, 5, -22.359,-34.639, 28.529
700692.44605, 3,   4.489, 19.224,-11.354
700692.46592, 3,   2.680, -0.715, -4.566
700692.48579, 3,   1.608, 12.345, -5.999, 4,   0.176,  1.014, -0.205, 5, -23.906,-35.905, 26.245
700692.50565, 3,   0.529, 11.158, -2.390
700692.52552, 3,   0.424, 10.074,  0.756
700692.54539, 3,   0.055, 11.282,  0.500, 4,   0.058,  1.293, -0.426, 5, -24.315,-34.688, 26.546
700692.56525, 3,  -0.950,  7.990, -2.290
700692.58512, 3,  -1.328,  8.313, -6.532
700692.60499, 3,  -2.536, 12.558, -7.329, 4,   0.330,  0.538, -0.567
700692.62488, 3,  -3.582,  5.654, -2.295
700692.64475, 3,  -4.204,  8.672, -3.958
700692.66462, 3,  -2.969, 10.938, -3.513, 4,   0.057,  0.034, -0.430, 5, -23.201,-36.560, 27.617
700692.68449, 3,  -2.948,  6.152, -2.563
700692.70435, 3,  -1.280, 14.591, -2.788
700692.72422, 3,  -0.589,  9.344, -0.845, 4,   0.022, -0.050, -0.178
700692.74409, 3,  -0.715,  9.176, -2.271
700692.76395, 3,  -0.160,  7.241, -4.039
700692.78382, 3,  -0.742,  5.630, -4.843, 4,   0.137,  0.242, -0.095, 5, -21.295,-37.222, 26.614
700692.80369, 3,  -0.043, 16.104, -3.807
700692.82355, 3,   0.471,  8.679,  1.534
700692.84342, 3,   0.251,  6.599, -0.244, 4,   0.029,  0.601, -0.089, 5, -21.622,-37.332, 28.242
700692.86329, 3,   1.507, 10.421, -4.403
700692.88254, 3,   0.333,  8.009, -3.867
700692.90302, 3,   0.950, 13.766, -2.943, 4,   0.042,  0.404, -0.214, 5, -22.603,-37.105, 27.748
700692.92292, 3,  -0.304, 10.574, -0.931
700692.94279, 3,   0.330,  7.387,  0.031
700692.96265, 3,   0.057,  8.894, -5.305, 4,  -0.036,  0.107, -0.223, 5, -23.431,-37.625, 27.309
700692.98252, 3,  -1.038, 11.299, -6.233
700693.00239, 3,  -0.179,  8.329, -2.948
700693.02225, 3,   0.653,  8.734, -2.867, 4,  -0.045,  0.003, -0.143, 5, -23.466,-37.231, 27.219
700693.04212, 3,  -0.244,  9.909, -3.142
700693.06199, 3,   1.096,  7.887, -5.267
700693.08185, 3,  -0.014,  9.689, -6.631, 4,   0.000,  0.273, -0.129, 5, -22.696,-39.468, 27.504
700693.10172, 3,   0.115, 12.218, -3.764
700693.12159, 3,  -0.902,  9.710, -2.027
700693.14143, 3,   0.251,  8.669, -2.673, 4,  -0.041,  0.368, -0.156, 5, -23.839,-38.901, 26.268
700693.16129, 3,  -0.390,  7.956, -2.364
700693.18116, 3,  -2.067, 10.416, -4.666
700693.20106, 3,  -2.146,  9.334, -4.726, 4,   0.073,  0.117, -0.200, 5, -23.143,-39.778, 24.770
700693.22092, 3,  -1.988,  9.985, -3.233
700693.24079, 3,  -2.869, 10.399, -1.407
700693.26066, 3,  -2.780,  4.041, -2.991, 4,   0.024,  0.036, -0.056
700693.28052, 3,  -0.380, 11.981, -5.582
700693.30039, 3,   0.160, 11.543, -2.333
700693.32026, 3,  -0.562, 10.313, -1.395, 4,   0.039,  0.355,  0.075, 5, -24.144,-38.615, 24.182
700693.34013, 3,  -0.053,  8.174, -1.718
700693.35999, 3,  -0.036,  7.293, -3.668
700693.37986, 3,   0.763, 12.677, -5.515, 4,   0.080,  0.800, -0.013, 5, -23.946,-39.746, 24.234
700693.39973, 3,   0.464, 10.574, -3.577
700693.41959, 3,   0.065,  8.975, -2.297
700693.43946, 3,  -1.507,  4.601, -1.395, 4,   0.008,  0.944, -0.139, 5, -22.348,-40.193, 25.499
700693.45933, 3,  -1.218, 12.993, -5.247
700693.47922, 3,  -0.613, 12.232, -3.242
700693.49909, 3,  -0.428,  7.236, -0.584, 4,   0.016,  0.549, -0.258, 5, -26.208,-39.511, 20.547
700693.51896, 3,  -0.646,  8.741, -5.738
700693.53883, 3,  -1.144, 10.035, -4.487
700693.55869, 3,  -1.223,  8.523, -2.771, 4,   0.060,  0.185, -0.270, 5, -25.775,-42.221, 20.418
700693.57856, 3,  -1.256,  9.739, -3.527
700693.59843, 3,  -1.335, 12.943, -4.379
700693.61829, 3,  -0.603,  2.570, -3.996, 4,   0.038,  0.320, -0.196, 5, -25.302,-40.533, 21.281
700693.63816, 3,  -2.290, 21.634, -4.587
700693.65803, 3,   0.290,  9.811,  1.744
700693.67789, 3,   0.158,  5.544,  0.481, 4,  -0.002,  0.475, -0.163, 5, -25.314,-41.063, 21.471
700693.69776, 3,  -0.191,  9.600, -7.590
700693.71763, 3,  -0.797,  9.971, -5.453
700693.73749, 3,  -1.950,  8.739, -2.501, 4,   0.125,  0.432, -0.273, 5, -24.924,-41.241, 23.076
700693.75736, 3,  -1.151, 10.196, -3.905
700693.77726, 3,  -1.144,  6.552, -4.142
700693.79713, 3,  -0.651, 12.110, -3.278, 4,  -0.020,  0.402, -0.271
700693.81699, 3,   0.129, 10.217, -0.299
700693.83686, 3,   0.347, 12.572,  0.558
700693.85673, 3,  -2.371,  0.806, -7.140, 4,   0.011,  0.261, -0.280, 5, -23.941,-41.310, 23.326
700693.87659, 3,  -1.311, 12.974,-10.763
700693.89646, 3,  -0.653,  8.497, -2.393
700693.91633, 3,  -0.433,  9.193,  0.995, 4,  -0.051,  0.212, -0.269
700693.93616, 3,   0.620,  7.717, -1.646
700693.95603, 3,  -0.639,  8.990, -5.776
700693.97590, 3,   1.395, 12.263, -1.694, 4,  -0.089,  0.144, -0.270, 5, -21.567,-42.589, 20.563
700693.99576, 3,   1.519,  8.602,  0.804
700694.01563, 3,   0.981,  8.399, -3.905
700694.03550, 3,   0.062, 10.438, -6.099, 4,  -0.028, -0.102, -0.335, 5, -21.436,-40.726, 19.679
700694.05540, 3,  -0.043,  9.344, -3.403
700694.07526, 3,  -0.598,  9.361, -1.756
700694.09513, 3,  -0.237,  7.049, -1.953, 4,  -0.089, -0.401, -0.316, 5, -21.138,-41.048, 19.299
700694.11500, 3,  -1.567, 10.165, -5.238
700694.13486, 3,  -0.462, 10.787, -3.788
700694.15473, 3,   0.153,  6.461, -2.039, 4,  -0.026, -0.649, -0.179, 5, -19.412,-41.626, 21.196
700694.17460, 3,  -0.237,  9.674, -4.597
700694.19446, 3,  -0.476,  7.978, -5.444
700694.21433, 3,   0.534, 11.316, -4.802, 4,   0.013, -0.393, -0.049, 5, -18.907,-41.090, 20.851
700694.23420, 3,   0.593,  8.222, -2.364
700694.25407, 3,   0.414,  8.731, -3.630
700694.27393, 3,  -0.438, 12.048, -3.343, 4,  -0.050,  0.072, -0.028, 5, -19.313,-41.098, 19.592
700694.29380, 3,   0.187, 10.550, -0.371
700694.31367, 3,   0.541,  8.282, -1.175
700694.33353, 3,  -0.244, 10.174, -2.807, 4,  -0.032, -0.040, -0.073
700694.35343, 3,  -0.845,  8.681, -2.757
700694.37330, 3,  -1.795,  6.793, -5.274
700694.39316, 3,  -1.484,  8.959, -4.470, 4,   0.017, -0.177, -0.080, 5, -19.299,-40.527, 20.129
700694.41303, 3,  -3.527, 11.297, -5.257
700694.43290, 3,  -1.034, 15.321,  0.718
700694.45277, 3,  -0.613,  4.824,  3.197, 4,  -0.133, -0.151,  0.036
700694.47263, 3,   0.079, 11.694, -4.199
700694.49250, 3,  -0.201,  9.416, -3.314
700694.51237, 3,  -1.488,  6.319, -3.879, 4,   0.098, -0.206,  0.024, 5, -18.988,-42.516, 19.559
700694.53223, 3,  -1.900, 12.323, -6.714
700694.55210, 3,  -1.070,  9.588, -2.075
700694.57197, 3,  -1.330,  6.054, -2.623, 4,  -0.010,  0.024,  0.070, 5, -19.862,-41.441, 20.563
700694.59183, 3,  -1.089, 15.651, -2.572
700694.61170, 3,   0.971,  2.615, -3.206
700694.63160, 3,  -0.768, 12.182, -3.467, 4,   0.041, -0.030,  0.081, 5, -20.673,-42.561, 20.561
700694.65147, 3,   0.467,  5.302, -3.616
700694.67133, 3,   0.146, 10.583, -5.762
700694.69117, 3,  -1.213, 12.615, -5.006, 4,   0.033,  0.126,  0.059, 5, -18.668,-42.177, 21.446
700694.71107, 3,  -1.046,  2.359,  0.211
700694.73090, 3,  -2.434, 17.109, -3.039
700694.75077, 3,  -1.034,  8.751,  0.584, 4,  -0.057,  0.102,  0.022, 5, -18.668,-42.090, 20.612
700694.77064, 3,  -0.586,  8.430, -1.364
700694.79050, 3,  -0.902,  8.803, -4.647
700694.81037, 3,  -1.263,  8.260, -5.951, 4,   0.119, -0.136,  0.029, 5, -19.772,-43.398, 21.147
700694.83024, 3,  -2.608,  8.968, -5.035
700694.85010, 3,  -0.294,  7.882, -1.512
700694.86997, 3,   0.007, 11.356, -1.945, 4,  -0.025,  0.298,  0.099, 5, -20.726,-42.647, 19.203
700694.88984, 3,  -0.354,  9.842, -2.316
700694.90974, 3,   0.055,  9.442, -2.034
700694.92960, 3,  -0.684,  8.930, -2.943, 4,   0.030,  0.571, -0.023, 5, -19.853,-45.152, 19.366
700694.94947, 3,  -1.290,  8.138, -4.357
700694.96934, 3,  -2.125,  9.861, -4.049
700694.98920, 3,  -1.895,  7.372, -2.639, 4,  -0.011,  0.492, -0.170
700695.00907, 3,  -1.826, 10.241, -2.173
700695.02894, 3,  -1.170, 12.464, -1.639
700695.04880, 3,  -0.909,  7.655, -1.555, 4,  -0.075,  0.031, -0.197, 5, -19.768,-43.535, 18.976
700695.06867, 3,  -0.778,  9.796, -4.640
700695.08854, 3,   0.325,  6.126, -3.896
700695.10841, 3,  -0.502, 12.067, -1.239, 4,  -0.012, -0.353, -0.174, 5, -19.907,-45.810, 19.321
700695.12827, 3,  -0.304,  1.716, -2.754
700695.14814, 3,  -1.974, 14.902, -8.073
700695.16801, 3,  -0.285,  9.789, -2.768, 4,  -0.009, -0.386, -0.070, 5, -18.129,-43.922, 20.573
700695.18787, 3,  -0.474,  7.150,  0.440
700695.20777, 3,   0.172,  9.787, -5.149
700695.22764, 3,   0.160,  9.638, -3.697, 4,  -0.032, -0.124, -0.015, 5, -16.689,-43.607, 21.013
700695.24750, 3,  -0.120,  6.267, -2.189
700695.26737, 3,  -0.388,  8.497, -2.371
700695.28724, 3,  -1.823, 16.101, -9.086, 4,  -0.023,  0.012, -0.056, 5, -17.584,-43.436, 20.819
700695.30711, 3,   1.077,  9.880,  2.625
700695.32697, 3,   0.065,  6.920,  0.787
700695.34684, 3,   0.634,  9.444, -4.549, 4,  -0.085, -0.164, -0.048, 5, -15.369,-43.811, 21.164
700695.36671, 3,   0.546,  9.904, -5.006
700695.38657, 3,  -0.718,  9.203, -3.338
700695.40644, 3,  -1.440,  7.466, -3.651, 4,   0.031, -0.345, -0.061, 5, -16.963,-43.184, 20.869
700695.42631, 3,  -1.259, 13.809, -4.113
700695.44617, 3,   0.218,  7.377, -1.287
700695.46604, 3,   0.581,  7.937, -3.781, 4,  -0.004, -0.229,  0.032, 5, -14.694,-43.565, 21.304
700695.48591, 3,  -0.060, 11.249, -4.250
700695.50581, 3,  -0.079,  9.617, -2.697
700695.52567, 3,   0.007, 11.639, -2.032, 4,  -0.006, -0.045, -0.005
700695.54554, 3,  -0.596,  4.838, -3.951
700695.56541, 3,  -1.933, 17.769, -6.427
700695.58524, 3,  -0.469,  4.700, -0.526, 4,  -0.006,  0.029, -0.024, 5, -15.891,-42.828, 20.319
700695.60511, 3,  -1.395, 10.698, -1.598
700695.62498, 3,  -1.527,  4.544, -3.068
700695.64484, 3,  -0.969, -2.776, -9.174, 4,   0.020, -0.124, -0.029, 5, -14.693,-43.127, 20.583
700695.66471, 3,  -0.828, 22.428, -7.870
700695.68397, 3,  -0.979,  9.409,  4.661
700695.70444, 3,  -3.075,  9.760,  2.529, 4,  -0.192, -0.142,  0.088, 5, -15.538,-43.677, 22.028
700695.72431, 3,  -0.744,  9.236, -1.421
700695.74418, 3,   0.029, 11.091, -3.520
700695.76404, 3,   0.924,  9.014, -3.163, 4,   0.088, -0.436,  0.162, 5, -15.649,-42.398, 21.983
700695.78394, 3,  -0.397, 11.579, -3.819
700695.80381, 3,   0.378,  3.874, -0.955
700695.82368, 3,  -0.976, -1.507,  2.388, 4,   0.066, -0.079,  0.230, 5, -15.343,-42.287, 21.153
700695.84354, 3,  -0.282, 22.619,-10.763
700695.86341, 3,   0.809, -0.383,  0.270
700695.88328, 3,   1.103, 13.859, -3.525, 4,   0.144,  0.222,  0.129, 5, -16.100,-41.071, 21.928
700695.90314, 3,   2.268, 10.713, -3.773
700695.92301, 3,   0.330,  7.399, -1.086
700695.94288, 3,  -0.165, 13.419, -4.336, 4,   0.047,  0.518, -0.070, 5, -16.615,-40.091, 22.495
700695.96274, 3,  -0.991, 10.519, -1.986
700695.98261, 3,  -1.804,  8.662, -1.323
700696.00248, 3,  -2.367,  6.255, -2.984, 4,   0.091, -0.011, -0.240, 5, -15.567,-40.878, 22.905
700696.02235, 3,  -2.565, 10.504, -9.263
700696.04221, 3,  -2.154,  8.638, -5.977
700696.06211, 3,  -2.539,  8.849, -3.884, 4,   0.064, -0.170, -0.146
700696.08198, 3,  -0.732,  8.198, -1.409
700696.10184, 3,  -1.311,  8.246, -2.335
700696.12171, 3,  -1.486, 13.232, -2.900, 4,  -0.107,  0.009, -0.056, 5, -16.699,-39.702, 19.745
700696.14158, 3,  -1.311,  7.088, -0.971
700696.16144, 3,  -2.232, 13.909, -2.828
700696.18131, 3,  -1.015,  3.876,  0.878, 4,  -0.110, -0.292, -0.051
700696.20118, 3,   0.045, 13.378, -2.785
700696.22105, 3,   2.508,  8.782, -1.062
700696.24091, 3,   0.577, 10.050, -4.381, 4,   0.010, -0.419,  0.080, 5, -16.383,-41.312, 20.280
700696.26078, 3,   1.445,  8.069, -0.971
700696.28065, 3,   0.601,  8.243, -5.487
700696.30051, 3,  -0.481,  8.581, -5.355, 4,   0.108, -0.125,  0.048, 5, -15.535,-41.258, 21.779
700696.32038, 3,  -1.421, 10.461, -6.865
700696.34028, 3,  -0.761,  7.923, -2.757
700696.36014, 3,   0.486, 14.740, -0.699, 4,  -0.074,  0.100,  0.018, 5, -16.022,-41.159, 19.841
