699330.40902, 3,   0.053,  9.588, -2.721
699330.44823, 3,   0.053,  9.588, -2.721, 5,   6.813,-37.651, 35.851
699330.46809, 3,   0.053,  9.588, -2.721, 4,   0.003, -0.029,  0.014, 5,   6.165,-36.955, 36.574
699330.48796, 3,  -0.072,  9.629, -2.632, 4,   0.003, -0.029,  0.014, 5,   8.186,-36.200, 38.756
699330.50783, 3,  -0.093,  9.643, -2.577, 4,   0.003, -0.029,  0.014, 5,   8.186,-36.200, 38.756
699330.52769, 3,  -0.074,  9.626, -2.570, 4,   0.003, -0.024,  0.003, 5,   8.134,-38.332, 36.580
699330.54756, 3,  -0.010,  9.636, -2.613, 4,   0.003, -0.032,  0.004, 5,   8.138,-38.339, 39.485
699330.56743, 3,   0.045,  9.624, -2.529, 4,   0.005, -0.034,  0.007, 5,  10.825,-37.561, 38.763
699330.58729, 3,  -0.014,  9.612, -2.565, 4,   0.005, -0.034,  0.009, 5,   8.151,-37.625, 38.031
699330.60713, 3,  -0.038,  9.636, -2.608, 4,   0.007, -0.032,  0.008, 5,   6.834,-36.945, 38.756
699330.62706, 3,  -0.074,  9.610, -2.579, 4,   0.008, -0.027,  0.009, 5,   8.806,-38.321, 38.762
699330.64693, 3,  -0.043,  9.612, -2.601, 4,   0.007, -0.022,  0.012, 5,   8.803,-38.316, 37.308
699330.66676, 3,  -0.091,  9.619, -2.632, 4,   0.007, -0.022,  0.014, 5,   9.525,-36.171, 40.210
699330.68663, 3,  -0.022,  9.610, -2.668, 4,   0.008, -0.027,  0.015, 5,   6.815,-37.653, 36.577
699330.70650, 3,  -0.041,  9.600, -2.627, 4,   0.008, -0.029,  0.018, 5,   8.183,-36.194, 36.575
699330.72636, 3,  -0.065,  9.636, -2.632, 4,   0.008, -0.023,  0.018, 5,   8.769,-39.743, 37.312
699330.74623, 3,  -0.038,  9.617, -2.668, 4,   0.009, -0.017,  0.019, 5,   8.183,-36.195, 37.302
699330.76610, 3,  -0.033,  9.624, -2.637, 4,   0.011, -0.016,  0.020, 5,   8.833,-36.888, 35.852
699330.78596, 3,   0.002,  9.641, -2.618, 4,   0.012, -0.016,  0.023, 5,   9.523,-36.168, 38.759
699330.80583, 3,  -0.043,  9.624, -2.608, 4,   0.012, -0.018,  0.024, 5,   8.151,-37.625, 38.031
699330.82570, 3,  -0.177,  9.626, -2.623, 4,   0.012, -0.018,  0.024, 5,   8.134,-38.332, 36.580
699330.84556, 3,  -0.187,  9.662, -2.639, 4,   0.012, -0.020,  0.028, 5,   8.870,-35.471, 39.481
699330.86543, 3,  -0.237,  9.610, -2.584, 4,   0.012, -0.016,  0.033, 5,   8.804,-38.319, 38.034
699330.88530, 3,  -0.134,  9.662, -2.546, 4,   0.012, -0.001,  0.040, 5,   7.484,-37.642, 38.029
699330.90516, 3,  -0.086,  9.607, -2.646, 4,   0.012,  0.001,  0.046, 5,   8.168,-36.911, 38.029
699330.92506, 3,  -0.086,  9.629, -2.682, 4,   0.016, -0.006,  0.052, 5,   7.469,-38.353, 38.031
699330.94493, 3,  -0.055,  9.650, -2.680, 4,   0.017, -0.001,  0.057, 5,   8.820,-37.608, 38.033
699330.96477, 3,   0.053,  9.581, -2.692, 4,   0.017,  0.002,  0.062, 5,   9.508,-36.884, 40.211
699330.98463, 3,   0.227,  9.576, -2.819, 4,   0.017, -0.000,  0.066, 5,   6.816,-37.657, 38.029
699331.00450, 3,   0.227,  9.605, -2.541, 4,   0.014,  0.006,  0.066, 5,   7.501,-36.928, 38.028
699331.02437, 3,   0.366,  9.600, -2.855, 4,   0.012,  0.012,  0.062, 5,   9.521,-36.166, 38.031
699331.04423, 3,   0.361,  9.569, -2.706, 4,   0.016,  0.008,  0.057, 5,   8.818,-37.605, 37.306
699331.06410, 3,   0.199,  9.662, -2.625, 4,   0.016,  0.016,  0.056, 5,   7.471,-38.354, 38.759
699331.08397, 3,   0.196,  9.598, -2.740, 4,   0.014,  0.013,  0.048, 5,   7.503,-36.931, 39.481
699331.10383, 3,   0.141,  9.610, -2.634, 4,   0.014,  0.006,  0.047, 5,   8.168,-36.911, 38.029
699331.12370, 3,   0.007,  9.653, -2.690, 4,   0.012,  0.010,  0.047, 5,   7.469,-38.353, 38.031
699331.14357, 3,   0.091,  9.598, -2.551, 4,   0.007, -0.009,  0.041, 5,   7.501,-36.928, 38.028
699331.16344, 3,   0.141,  9.581, -2.625, 4,   0.006, -0.026,  0.041, 5,   8.821,-37.611, 39.485
699331.18330, 3,   0.036,  9.653, -2.716, 4,   0.007, -0.033,  0.042, 5,   7.500,-36.925, 37.302
699331.20320, 3,  -0.215,  9.660, -2.512, 4,   0.011, -0.020,  0.044, 5,   7.484,-37.642, 38.029
699331.22307, 3,  -0.225,  9.653, -2.625, 4,   0.012,  0.007,  0.045, 5,   6.148,-37.671, 37.302
699331.24293, 3,  -0.191,  9.653, -2.713, 4,   0.012,  0.008,  0.053, 5,   8.836,-36.894, 38.031
699331.26280, 3,  -0.010,  9.607, -2.690, 4,   0.009, -0.004,  0.064, 5,   8.786,-39.029, 36.583
699331.28267, 3,   0.141,  9.583, -2.814, 4,   0.005,  0.001,  0.073, 5,   6.818,-37.659, 38.757
699331.30250, 3,   0.074,  9.569, -2.489, 4,   0.002,  0.008,  0.078, 5,   7.501,-36.928, 38.028
699331.32237, 3,   0.089,  9.710, -2.733, 4,   0.005,  0.018,  0.077, 5,   8.183,-36.195, 37.302
699331.34224, 3,   0.330,  9.612, -2.852, 4,   0.012,  0.018,  0.077, 5,   5.501,-36.980, 39.478
699331.36210, 3,   0.412,  9.516, -2.256, 4,   0.016,  0.012,  0.084, 5,   8.185,-36.198, 38.028
699331.38197, 3,   0.648,  9.399, -3.060, 4,   0.011,  0.028,  0.095, 5,   7.535,-35.504, 39.478
699331.40184, 3,   0.534,  9.521, -2.716, 4,   0.023,  0.001,  0.092, 5,   7.503,-36.931, 39.481
699331.42171, 3,   0.287,  9.734, -2.414, 4,   0.019, -0.013,  0.064, 5,   8.136,-38.336, 38.033
699331.44157, 3,   0.754,  9.559, -3.005, 4,   0.014,  0.006,  0.070, 5,   6.851,-36.232, 38.754
699331.46144, 3,   0.586,  9.576, -2.489, 4,   0.013,  0.004,  0.063, 5,   6.136,-38.387, 38.757
699331.48131, 3,   0.708,  9.605, -2.723, 4,   0.007,  0.007,  0.058, 5,   7.469,-38.353, 38.031
699331.50120, 3,   0.823,  9.578, -2.857, 4,   0.012, -0.004,  0.058, 5,   6.851,-36.232, 38.754
699331.52107, 3,   0.548,  9.598, -2.599, 4,   0.013, -0.020,  0.052, 5,   6.151,-37.675, 38.756
699331.54094, 3,   0.730,  9.555, -2.761, 4,   0.008, -0.011,  0.044, 5,   6.834,-36.946, 39.481
699331.56080, 3,   0.773,  9.578, -2.761, 4,   0.008, -0.021,  0.035, 5,   7.506,-36.934, 40.933
699331.58067, 3,   0.708,  9.593, -2.800, 4,   0.008, -0.024,  0.028, 5,   6.148,-37.671, 37.302
699331.60051, 3,   0.857,  9.578, -2.654, 4,   0.006, -0.023,  0.019, 5,   4.831,-36.992, 38.025
699331.62037, 3,   0.773,  9.511, -2.656, 4,   0.003, -0.037,  0.012, 5,   4.831,-36.992, 38.025
699331.64024, 3,   0.507,  9.657, -2.984, 4,   0.003, -0.033,  0.003, 5,   4.831,-36.992, 38.025
699331.66011, 3,   0.522,  9.509, -2.730, 4,   0.008, -0.023, -0.005, 5,   7.486,-37.645, 39.482
699331.67998, 3,   0.371,  9.595, -2.529, 4,   0.003, -0.027, -0.009, 5,   7.471,-38.356, 39.484
699331.69984, 3,  -0.184,  9.330, -2.457, 4,   0.001, -0.033, -0.014, 5,   6.818,-37.659, 38.757
699331.71971, 3,  -0.268, 10.263, -3.869, 4,   0.005, -0.029, -0.018, 5,   6.151,-37.675, 38.756
699331.73958, 3,  -1.172,  9.334, -0.811, 4,  -0.002, -0.048, -0.021, 5,   6.183,-36.247, 38.025
699331.75944, 3,   0.089,  9.720, -3.742, 4,  -0.013,  0.033,  0.014, 5,   6.816,-37.657, 38.029
699331.77934, 3,  -0.045,  9.667, -2.565, 4,   0.018, -0.161,  0.034, 5,   6.183,-36.247, 38.025
699331.79921, 3,  -0.285,  9.552, -1.859, 4,   0.016, -0.087,  0.044, 5,   6.149,-37.674, 38.028
699331.81907, 3,  -0.756,  9.705, -3.546, 4,   0.005,  0.032,  0.047, 5,   6.815,-37.654, 37.303
699331.83894, 3,   0.129,  9.547, -2.697, 4,   0.020, -0.020,  0.061, 5,   6.184,-36.250, 39.478
699331.85881, 3,   0.436,  9.454, -2.228, 4,   0.002, -0.101,  0.091, 5,   7.486,-37.643, 38.757
699331.87868, 3,   0.802,  9.602, -3.324, 4,  -0.005, -0.127,  0.099, 5,   5.498,-36.974, 37.299
699331.89793, 3,   0.648,  9.523, -3.278, 4,   0.019, -0.082,  0.089, 5,   6.816,-37.657, 38.029
699331.91838, 3,   0.256,  9.471, -2.943, 4,   0.020, -0.006,  0.083, 5,   5.484,-37.694, 39.479
699331.93825, 3,   0.909,  9.514, -2.768, 4,   0.005,  0.015,  0.080, 5,   6.183,-36.247, 38.025
699331.95811, 3,   0.830,  9.653, -2.364, 4,  -0.002, -0.017,  0.079, 5,   7.471,-38.356, 39.484
699331.97798, 3,   0.629,  9.732, -2.477, 4,   0.008,  0.007,  0.069, 5,   6.149,-37.674, 38.028
699331.99785, 3,   0.663,  9.564, -3.228, 4,   0.024,  0.033,  0.057, 5,   4.178,-36.293, 37.296
699332.01771, 3,   0.414,  9.686, -2.166, 4,   0.030,  0.024,  0.053, 5,   6.865,-35.516, 38.025
699332.03758, 3,   0.476,  9.602, -1.864, 4,   0.009,  0.034,  0.053, 5,   7.516,-36.212, 37.300
699332.05748, 3,   0.337,  9.657, -2.807, 4,   0.002, -0.006,  0.053, 5,   6.166,-36.960, 38.026
699332.07735, 3,   0.299,  9.607, -2.730, 4,   0.018, -0.020,  0.055, 5,   6.151,-37.675, 38.756
699332.09721, 3,  -0.120,  9.598, -2.802, 4,   0.018,  0.001,  0.053, 5,   5.469,-38.403, 38.756
699332.11708, 3,   0.584,  9.614, -2.625, 4,   0.008,  0.015,  0.056, 5,   6.151,-37.675, 38.756
699332.13695, 3,   0.546,  9.485, -2.508, 4,   0.005, -0.026,  0.066, 5,   6.799,-38.365, 37.305
699332.15681, 3,  -0.325,  9.607, -3.345, 4,   0.008, -0.013,  0.069, 5,   6.149,-37.674, 38.028
699332.17668, 3,  -0.151,  9.567, -3.348, 4,   0.023,  0.011,  0.063, 5,   6.851,-36.234, 39.479
699332.19655, 3,   0.723,  9.509, -2.675, 4,   0.017,  0.001,  0.078, 5,   6.865,-35.516, 38.025
699332.21641, 3,   1.323,  9.583, -3.254, 4,  -0.000, -0.038,  0.090, 5,   6.151,-37.675, 38.756
699332.23628, 3,   1.622,  9.354, -3.278, 4,   0.005, -0.016,  0.083, 5,   4.816,-37.708, 38.754
699332.25612, 3,   0.122,  9.346, -3.156, 4,   0.006,  0.083,  0.068, 5,   7.520,-36.217, 38.754
699332.27598, 3,   0.026,  9.581, -2.893, 4,   0.005,  0.188,  0.053, 5,   3.479,-37.738, 38.023
699332.29585, 3,   0.821,  9.459, -2.718, 4,   0.002,  0.155,  0.059, 5,   4.829,-36.989, 37.299
699332.31572, 3,   1.479,  9.516, -2.962, 4,   0.001,  0.074,  0.068, 5,   6.184,-36.250, 39.478
699332.33558, 3,   1.263,  9.701, -2.871, 4,   0.008,  0.104,  0.056, 5,   6.186,-36.252, 40.204
699332.35548, 3,   0.869,  9.545, -2.900, 4,   0.009,  0.177,  0.037, 5,   4.849,-36.282, 39.476
699332.37535, 3,   0.835,  9.466, -2.603, 4,   0.009,  0.198,  0.033, 5,   4.149,-37.727, 40.204
699332.39522, 3,   0.787,  9.732, -2.094, 4,   0.001,  0.155,  0.036, 5,   5.501,-36.978, 38.753
699332.41508, 3,   0.488,  9.837, -2.623, 4,  -0.002,  0.125,  0.028, 5,   4.161,-37.006, 37.297
699332.43495, 3,   0.668,  9.610, -2.448, 4,   0.009,  0.143,  0.017, 5,   5.481,-37.688, 37.300
699332.45482, 3,   0.761,  9.576, -2.393, 4,   0.007,  0.094,  0.014, 5,   4.178,-36.293, 37.296
699332.47468, 3,   1.189,  9.547, -2.663, 4,   0.001,  0.034,  0.023, 5,   5.518,-36.266, 38.751
699332.49455, 3,   1.663,  9.562, -2.438, 4,   0.003, -0.004,  0.033, 5,   5.481,-37.688, 37.300
699332.51442, 3,   1.074,  9.562, -2.594, 4,   0.002,  0.007,  0.022, 5,   4.800,-38.419, 38.756
699332.53425, 3,   0.775,  9.681, -2.603, 4,   0.008,  0.092,  0.001, 5,   4.832,-36.993, 38.753
699332.55412, 3,   0.479,  9.633, -2.505, 4,   0.008,  0.115, -0.007, 5,   4.851,-36.284, 40.202
699332.57399, 3,   0.416,  9.509, -2.024, 4,   0.006,  0.073, -0.004, 5,   5.504,-36.984, 41.656
699332.59385, 3,   0.438,  9.650, -1.761, 4,   0.001,  0.008,  0.001, 5,   5.515,-36.259, 36.571
699332.61372, 3,   0.500,  9.806, -2.197, 4,   0.005, -0.053,  0.007
699332.63362, 3,   0.024,  9.744, -2.536, 4,   0.023, -0.071,  0.011, 5,   4.813,-37.703, 37.300
699332.65349, 3,   0.605,  9.672, -2.666, 4,   0.036, -0.065,  0.018, 5,   4.865,-35.568, 39.474
699332.67335, 3,   0.792,  9.198, -1.740, 4,   0.030, -0.081,  0.030, 5,   4.849,-36.281, 38.751
699332.69322, 3,   0.558,  9.519, -1.658, 4,   0.014, -0.048,  0.030, 5,   6.186,-36.252, 40.204
699332.71309, 3,   0.426,  9.794, -2.745, 4,   0.019,  0.011,  0.026, 5,   4.846,-36.276, 37.297
699332.73295, 3,   0.991,  9.727, -3.053, 4,   0.052,  0.033,  0.039, 5,   5.486,-37.695, 40.205
699332.75282, 3,   1.211,  9.672, -3.374, 4,   0.062, -0.001,  0.052, 5,   5.518,-36.267, 39.476
699332.77269, 3,   1.070,  9.643, -3.027, 4,   0.051, -0.024,  0.050, 5,   5.534,-35.555, 40.201
699332.79255, 3,   1.038,  9.514, -2.680, 4,   0.027, -0.023,  0.033, 5,   4.163,-37.009, 38.023
699332.81242, 3,   1.000,  9.641, -2.634, 4,   0.007, -0.023,  0.019, 5,   3.481,-37.741, 39.476
699332.83229, 3,   0.325,  9.653, -2.426, 4,   0.002, -0.042,  0.020, 5,   6.200,-35.535, 38.751
699332.85216, 3,   0.022,  9.712, -2.498, 4,   0.003, -0.061,  0.018, 5,   4.164,-37.012, 39.476
699332.87202, 3,   0.005,  9.672, -2.544, 4,   0.007, -0.076,  0.025, 5,   6.168,-36.961, 38.754
699332.89186, 3,  -0.022,  9.674, -2.974, 4,   0.013, -0.093,  0.037, 5,   5.481,-37.688, 37.300
699332.91173, 3,   0.275,  9.598, -3.388, 4,   0.019, -0.098,  0.048, 5,   4.181,-36.298, 38.750
699332.93162, 3,   0.246,  9.528, -3.068, 4,   0.018, -0.079,  0.061, 5,   2.159,-37.057, 38.020
699332.95149, 3,  -0.069,  9.624, -2.778, 4,   0.008, -0.027,  0.073, 5,   4.816,-37.709, 39.479
699332.97136, 3,  -0.462,  9.516, -2.481, 4,   0.002,  0.026,  0.081, 5,   4.800,-38.419, 38.756
699332.99122, 3,   0.136,  9.830, -2.926, 4,   0.005,  0.030,  0.094, 5,   4.852,-36.285, 40.929
699333.01109, 3,   0.964,  9.624, -3.132, 4,   0.017, -0.003,  0.113, 5,   4.865,-35.568, 39.474
699333.03096, 3,   1.113,  9.169, -3.094, 4,   0.025, -0.001,  0.127, 5,   4.132,-38.437, 39.479
699333.05083, 3,   0.641,  9.756, -3.348, 4,   0.020,  0.046,  0.122, 5,   4.150,-37.729, 40.930
699333.07069, 3,   0.859,  9.753, -3.702, 4,   0.019,  0.085,  0.111, 5,   4.849,-36.282, 39.476
699333.09056, 3,   1.168,  9.054, -3.309, 4,   0.022,  0.094,  0.112, 5,   6.850,-36.230, 38.026
699333.11043, 3,   0.916,  9.313, -2.850, 4,   0.011,  0.103,  0.119, 5,   3.481,-37.740, 38.751
699333.13029, 3,   1.036,  9.705, -3.252, 4,   0.005,  0.120,  0.111, 5,   3.481,-37.740, 38.751
699333.15016, 3,   1.519,  9.598, -3.876, 4,   0.018,  0.111,  0.108, 5,   2.812,-37.758, 39.474
699333.17003, 3,   1.869,  8.980, -4.161, 4,   0.034,  0.081,  0.117, 5,   4.866,-35.570, 40.201
699333.18989, 3,   1.898,  8.839, -4.264, 4,   0.027,  0.046,  0.107, 5,   4.800,-38.419, 38.756
699333.20976, 3,   1.735,  9.083, -4.551, 4,   0.012,  0.041,  0.080, 5,   2.180,-36.351, 40.924
699333.22963, 3,   1.326,  8.973, -4.566, 4,   0.006,  0.063,  0.063, 5,   3.514,-36.313, 38.748
699333.24949, 3,   0.797,  9.133, -4.379, 4,   0.002,  0.095,  0.048, 5,   2.829,-37.044, 39.473
699333.26936, 3,   0.663,  9.014, -4.714, 4,   0.002,  0.105,  0.033, 5,   2.814,-37.759, 40.201
699333.28923, 3,   0.213,  8.600, -4.637, 4,   0.008,  0.094,  0.026, 5,   4.198,-35.587, 40.199
699333.30910, 3,  -0.084,  9.507, -5.113, 4,   0.014,  0.078,  0.029, 5,   2.829,-37.042, 38.748
699333.32896, 3,  -0.017,  9.047, -4.276, 4,   0.014,  0.046,  0.034, 5,   3.497,-37.027, 39.474
699333.34883, 3,   0.225,  8.681, -5.051, 4,   0.008,  0.012,  0.047, 5,   2.177,-36.348, 39.471
699333.36870, 3,   0.507,  9.064, -5.329, 4,   0.023,  0.001,  0.064, 5,   4.198,-35.587, 40.199
699333.38856, 3,   0.940,  8.389, -4.551, 4,   0.039, -0.013,  0.067, 5,   5.472,-38.409, 41.660
699333.40843, 3,   1.273,  9.411, -5.484, 4,   0.030, -0.000,  0.066, 5,   1.494,-37.074, 38.747
699333.42830, 3,   1.677,  8.760, -4.245, 4,   0.045,  0.054,  0.068, 5,   2.191,-35.631, 38.017
699333.44816, 3,   1.419,  9.468, -5.736, 4,   0.051,  0.107,  0.055, 5,   1.495,-37.077, 40.198
699333.46803, 3,   1.237,  8.033, -4.065, 4,   0.060,  0.175,  0.036, 5,   1.512,-36.365, 40.196
699333.48793, 3,   1.412,  8.729, -5.585, 4,   0.058,  0.206,  0.019, 5,   2.177,-36.346, 38.747
699333.50780, 3,   1.505,  8.920, -5.489, 4,   0.067,  0.225,  0.012, 5,   2.209,-34.920, 38.742
699333.52763, 3,   1.646,  8.705, -4.714, 4,   0.066,  0.238,  0.002, 5,   0.795,-38.516, 38.748
699333.54750, 3,   1.890,  8.629, -5.293, 4,   0.056,  0.291, -0.019, 5,   0.844,-36.380, 39.468
699333.56737, 3,   1.618,  9.476, -5.496, 4,   0.056,  0.373, -0.036, 5,   1.494,-37.076, 39.471
699333.58723, 3,   1.819,  8.349, -5.233, 4,   0.060,  0.484, -0.063, 5,   0.847,-36.383, 40.921
699333.60710, 3,   1.962,  9.112, -5.731, 4,   0.042,  0.584, -0.086, 5,   0.159,-37.109, 39.470
699333.62697, 3,   1.376,  8.193, -4.221, 4,   0.046,  0.663, -0.103, 5,   0.175,-36.397, 39.468
699333.64683, 3,   1.010, 10.095, -4.843, 4,   0.028,  0.734, -0.143, 5,   0.827,-37.093, 39.470
699333.66670, 3,   0.653,  8.392, -4.216, 4,   0.022,  0.785, -0.174, 5,  -1.175,-37.143, 40.193
699333.68657, 3,   0.486,  9.748, -3.896, 4,   0.006,  0.764, -0.187, 5,  -2.510,-37.175, 40.192
699333.70643, 3,   0.376,  8.841, -5.121, 4,   0.036,  0.688, -0.200, 5,  -2.492,-36.465, 41.643
699333.72630, 3,   0.842,  8.231, -5.915, 4,   0.063,  0.562, -0.213, 5,  -2.480,-35.747, 39.462
699333.74617, 3,   1.670,  6.142, -5.652, 4,   0.117,  0.448, -0.224, 5,  -1.825,-36.447, 40.916
699333.76604, 3,   3.063,  9.555, -6.257, 4,   0.113,  0.368, -0.230, 5,  -2.480,-35.745, 38.737
699333.78593, 3,   3.666, 10.189, -3.996, 4,   0.099,  0.293, -0.243, 5,  -1.193,-37.854, 38.744
699333.80580, 3,   3.180, 11.574, -2.838, 4,   0.019,  0.250, -0.294, 5,  -0.459,-34.984, 38.737
699333.82567, 3,   1.594,  9.775,  0.498, 4,  -0.056,  0.176, -0.380, 5,   0.162,-37.114, 41.649
699333.84550, 3,  -1.297,  9.610,  0.955, 4,  -0.063,  0.107, -0.428, 5,  -1.144,-35.715, 39.464
699333.86537, 3,  -1.345, 10.461, -0.517, 4,  -0.003,  0.023, -0.446, 5,  -1.128,-35.001, 38.736
699333.88524, 3,  -2.218, 11.983, -3.651, 4,   0.085, -0.046, -0.421, 5,   0.194,-35.686, 40.919
699333.90510, 3,  -4.147, 11.789, -5.135, 4,   0.115, -0.038, -0.367, 5,  -0.458,-34.987, 40.189
699333.92497, 3,  -5.104,  8.346, -1.388, 4,   0.044, -0.003, -0.274, 5,  -0.476,-35.696, 38.741
699333.94484, 3,  -3.233,  8.217, -2.484, 4,  -0.067, -0.015, -0.173, 5,   0.876,-34.953, 39.464
699333.96470, 3,  -1.536, 14.381, -1.012, 4,  -0.108, -0.093, -0.091, 5,   0.847,-36.383, 40.921
699333.98457, 3,   0.443, 11.074,  0.768, 4,  -0.080, -0.101, -0.013, 5,   0.844,-36.380, 39.468
699334.00444, 3,   2.034,  6.229,  1.266, 4,  -0.087, -0.065,  0.020, 5,  -0.508,-37.125, 39.468
699334.02431, 3,   3.431,  9.318, -2.166, 4,  -0.026, -0.001,  0.040, 5,  -0.493,-36.409, 38.014
699334.04417, 3,   2.847,  9.894, -4.211, 4,   0.079,  0.061,  0.007, 5,   0.859,-35.664, 38.742
699334.06407, 3,   1.744, 10.071, -3.080, 4,   0.102,  0.109, -0.035, 5,   0.844,-36.378, 38.744
699334.08394, 3,   2.290,  5.592, -3.044, 4,   0.051,  0.056, -0.055, 5,   0.175,-36.395, 38.744
699334.10380, 3,   2.197,  8.971, -3.735, 4,  -0.021, -0.087, -0.072, 5,   0.827,-37.091, 38.745
699334.12367, 3,   1.292, 11.648, -3.159, 4,  -0.039, -0.182, -0.112, 5,   0.175,-36.395, 38.744
699334.14354, 3,   1.610,  9.794, -1.318, 4,  -0.077, -0.243, -0.134, 5,   4.134,-38.438, 40.205
699334.16337, 3,   1.285, 10.548, -0.677, 4,  -0.103, -0.303, -0.129, 5,   0.844,-36.378, 38.744
699334.18324, 3,   0.373,  8.789, -0.991, 4,  -0.074, -0.353, -0.147, 5,   1.492,-37.073, 38.019
699334.20311, 3,   1.278,  8.674, -2.302, 4,  -0.011, -0.413, -0.157, 5,   2.829,-37.042, 38.748
699334.22297, 3,   1.314, 10.722, -5.413, 4,   0.049, -0.431, -0.137, 5,   2.875,-34.898, 37.288
699334.24284, 3,  -0.395, 10.414, -6.229, 4,   0.093, -0.342, -0.132, 5,   2.829,-37.042, 38.748
699334.26271, 3,  -1.931,  7.865, -3.362, 4,   0.061, -0.243, -0.137, 5,   2.193,-35.632, 38.745
699334.28258, 3,  -2.268,  9.267, -3.068, 4,  -0.034, -0.270, -0.125, 5,   3.497,-37.027, 39.474
699334.30244, 3,  -1.295, 10.775, -3.814, 4,  -0.066, -0.386, -0.099, 5,   3.497,-37.027, 39.474
699334.32231, 3,  -0.962,  8.947, -3.565, 4,  -0.052, -0.485, -0.063, 5,   3.497,-37.027, 39.474
699334.34218, 3,   0.459,  8.901, -5.269, 4,  -0.017, -0.530, -0.038, 5,   3.513,-36.311, 38.020
699334.36207, 3,   0.857,  8.179, -5.671, 4,   0.045, -0.568, -0.018, 5,   5.498,-36.974, 37.299
699334.38194, 3,  -0.103,  8.684, -5.035, 4,   0.071, -0.547, -0.000, 5,   3.523,-35.590, 35.115
699334.40181, 3,   0.440,  9.243, -5.355, 4,   0.068, -0.481, -0.003, 5,   4.849,-36.281, 38.751
699334.42167, 3,   2.264,  7.655, -5.451, 4,   0.057, -0.494,  0.004, 5,   6.198,-35.533, 38.023
699334.44154, 3,   1.017,  9.370, -5.970, 4,   0.072, -0.575,  0.002, 5,   5.499,-36.977, 38.025
699334.46141, 3,   0.120,  9.409, -5.291, 4,   0.067, -0.652, -0.004, 5,   7.520,-36.217, 38.754
699334.48125, 3,  -1.424,  7.523, -4.247, 4,   0.029, -0.712, -0.037, 5,   6.166,-36.960, 38.026
699334.50111, 3,   1.127,  8.313, -6.418, 4,  -0.013, -0.764, -0.029, 5,   7.532,-35.498, 37.299
699334.52098, 3,   1.625,  7.365, -5.358, 4,   0.005, -0.836,  0.015, 5,   9.503,-36.876, 37.306
699334.54085, 3,   1.376,  3.233, -5.795, 4,   0.013, -0.765,  0.028, 5,   8.136,-38.336, 38.033
699334.56071, 3,  -1.536, 13.304,-14.091, 4,   0.060, -0.555, -0.004, 5,   9.555,-34.741, 38.754
699334.58058, 3,  -0.756, 11.904, -3.896, 4,   0.116, -0.352, -0.003, 5,   8.855,-36.183, 38.757
699334.60045, 3,   0.651,  7.492, -3.489, 4,  -0.092, -0.171,  0.052, 5,   8.185,-36.198, 38.028
699334.62031, 3,   2.367,  6.571, -0.352, 4,  -0.234, -0.012,  0.056, 5,   8.884,-34.752, 37.299
699334.64021, 3,   1.113, 12.950, -1.718, 4,  -0.190,  0.165, -0.008, 5,   8.820,-37.608, 38.033
699334.66008, 3,  -1.443, 11.045, -1.718, 4,  -0.088,  0.263, -0.060, 5,   7.532,-35.498, 37.299
699334.67995, 3,  -3.491,  7.334, -1.249, 4,   0.027,  0.358, -0.097, 5,   8.151,-37.625, 38.031
699334.69981, 3,  -3.288, 12.567, -3.103, 4,   0.090,  0.258, -0.123, 5,   8.185,-36.198, 38.028
699334.71968, 3,  -1.015, 12.254, -1.627, 4,   0.063,  0.045, -0.105, 5,   7.501,-36.928, 38.028
699334.73955, 3,  -0.256,  8.798, -0.043, 4,  -0.049, -0.049, -0.037, 5,   8.820,-37.608, 38.033
699334.75941, 3,  -0.550,  9.488,  1.759, 4,  -0.136,  0.013,  0.050, 5,   7.503,-36.929, 38.756
699334.77928, 3,  -0.806, 10.930,  0.426, 4,  -0.118,  0.089,  0.055, 5,   7.516,-36.211, 36.574
699334.79915, 3,  -0.179, 10.215, -1.022, 4,  -0.039,  0.142,  0.033, 5,   7.500,-36.923, 36.575
699334.81898, 3,  -0.306, 11.505, -1.496, 4,   0.027,  0.194,  0.028, 5,   8.134,-38.333, 37.306
699334.83885, 3,   0.148,  7.219, -1.625, 4,   0.033,  0.269,  0.041, 5,   6.831,-36.938, 36.575
699334.85872, 3,  -0.167,  9.133, -3.572, 4,   0.011,  0.346,  0.042, 5,   6.831,-36.940, 37.302
699334.87858, 3,  -0.593, 11.230, -3.587, 4,   0.003,  0.434,  0.033, 5,   6.880,-34.801, 37.296
699334.89784, 3,   0.053,  9.358, -0.814, 4,  -0.061,  0.436,  0.020, 5,   7.501,-36.928, 38.028
699334.91835, 3,   1.675,  7.836, -1.204, 4,  -0.135,  0.291,  0.014, 5,   7.552,-34.790, 38.750
699334.93822, 3,   2.139, 15.460, -3.434, 4,  -0.109,  0.076,  0.008, 5,   6.831,-36.938, 36.575
699334.95808, 3,   3.058, 21.667,  1.498, 4,  -0.043, -0.059, -0.029, 5,   7.518,-36.215, 38.026
699334.97795, 3,   1.567, -0.112,  8.518, 4,  -0.075, -0.142, -0.055, 5,   6.146,-37.668, 35.849
699334.99782, 3,  -1.072,  2.331, -1.443, 4,  -0.088, -0.241, -0.136, 5,   6.828,-36.935, 35.124
699335.01768, 3,  -2.146, 14.517,-13.900, 4,   0.216, -0.411, -0.220, 5,   7.535,-35.504, 39.478
699335.03755, 3,  -4.147, 10.079,-10.191, 4,   0.325, -0.553, -0.176, 5,   8.165,-36.905, 35.851
699335.05742, 3,  -2.946,  6.336, -1.127, 4,   0.057, -0.627, -0.088, 5,   8.867,-35.464, 37.302
699335.07728, 3,  -1.948,  9.490,  1.807, 4,  -0.257, -0.629,  0.001, 5,   8.852,-36.179, 37.303
699335.09714, 3,   0.730, 12.194,  1.507, 4,  -0.300, -0.678,  0.037, 5,  10.152,-37.570, 35.855
699335.11697, 3,   1.103, 10.380,  1.452, 4,  -0.164, -0.711,  0.041, 5,   8.833,-36.888, 35.852
699335.13684, 3,   2.118,  8.277,  0.940, 4,  -0.082, -0.597,  0.091, 5,  10.149,-37.567, 34.402
699335.15671, 3,   0.622,  9.693, -3.807, 4,  -0.005, -0.400,  0.092, 5,  10.152,-37.570, 35.855
699335.17657, 3,  -1.402, 11.021, -7.150, 4,   0.156, -0.233,  0.063, 5,  10.852,-36.125, 35.129
699335.19644, 3,  -1.352,  5.157, -6.133, 4,   0.184, -0.155,  0.072, 5,  10.150,-37.569, 35.130
699335.21634, 3,  -1.993,  9.497, -6.616, 4,   0.047, -0.127,  0.103, 5,  10.817,-37.550, 34.404
699335.23621, 3,  -1.536, 11.244, -2.311, 4,  -0.056, -0.101,  0.139, 5,  10.835,-36.838, 35.130
699335.25607, 3,  -0.914,  9.890,  0.914, 4,  -0.129, -0.078,  0.161, 5,  10.867,-35.411, 35.127
699335.27594, 3,   0.440,  9.437, -2.505, 4,  -0.075, -0.084,  0.146, 5,  10.852,-36.125, 35.129
699335.29581, 3,   1.077,  9.095, -5.221, 4,   0.096, -0.057,  0.130, 5,  10.854,-36.127, 35.854
699335.31567, 3,  -1.022,  8.959, -6.073, 4,   0.235,  0.109,  0.127, 5,   8.185,-36.198, 38.028
699335.33554, 3,  -0.543,  8.858, -5.417, 4,   0.257,  0.370,  0.124, 5,   9.520,-36.163, 37.305
699335.35541, 3,   0.912,  8.547, -4.209, 4,   0.205,  0.463,  0.099, 5,   9.488,-37.593, 38.034
699335.37527, 3,   0.577,  7.434, -2.977, 4,   0.138,  0.539,  0.070, 5,   9.520,-36.162, 36.578
699335.39514, 3,   0.428,  6.231, -5.484, 4,   0.127,  0.579,  0.017, 5,   8.183,-36.195, 37.302
699335.41501, 3,  -2.223, 14.582,-11.179, 4,   0.173,  0.586, -0.033, 5,   7.516,-36.212, 37.300
699335.43487, 3,  -0.529,  8.372,  1.373, 4,   0.190,  0.655, -0.059, 5,   6.165,-36.957, 37.300
699335.45471, 3,   0.287,  6.386,  9.093, 4,  -0.186,  0.684, -0.055, 5,   8.215,-34.769, 37.297
699335.47458, 3,   0.024, 13.156,  0.191, 4,  -0.336,  0.503, -0.064, 5,   6.165,-36.955, 36.574
699335.49448, 3,  -0.632, 10.552, -3.711, 4,  -0.002,  0.302, -0.124, 5,   6.146,-37.668, 35.849
699335.51434, 3,  -1.630,  6.767, -4.199, 4,   0.199,  0.291, -0.169, 5,   5.498,-36.974, 37.299
699335.53421, 3,  -3.221,  6.781, -6.867, 4,   0.183,  0.330, -0.163, 5,   5.547,-34.834, 37.292
699335.55408, 3,  -5.408, 12.512, -7.356, 4,   0.129,  0.352, -0.130, 5,   5.547,-34.834, 37.292
699335.57394, 3,  -4.278, 11.072, -0.335, 4,  -0.021,  0.362, -0.075, 5,   6.215,-34.821, 38.020
699335.59381, 3,  -0.986,  8.930,  2.989, 4,  -0.232,  0.288, -0.005, 5,   6.195,-35.527, 35.844
699335.61368, 3,  -1.802,  9.784, -1.235, 4,  -0.218,  0.133,  0.051, 5,   6.799,-38.365, 37.305
699335.63354, 3,  -0.962,  9.397, -4.228, 4,   0.009,  0.115,  0.069, 5,   6.165,-36.957, 37.300
699335.65341, 3,   0.196,  8.171, -6.248, 4,   0.172,  0.195,  0.066, 5,   5.565,-34.123, 38.017
699335.67328, 3,   0.203,  8.109, -7.365, 4,   0.181,  0.305,  0.046, 5,   5.530,-35.545, 36.569
699335.69314, 3,  -0.069,  6.870, -5.637, 4,   0.124,  0.491,  0.039, 5,   4.195,-35.582, 38.020
699335.71301, 3,  -0.287, 10.988, -5.346, 4,   0.016,  0.607,  0.028, 5,   5.565,-34.123, 38.017
699335.73285, 3,   0.483, 15.613, -0.170, 4,  -0.054,  0.594,  0.006, 5,   2.858,-35.611, 37.291
699335.75275, 3,   1.414,  4.333,  3.625, 4,  -0.130,  0.487, -0.005, 5,   4.164,-37.010, 38.751
699335.77258, 3,   1.443,  9.619, -5.001, 4,  -0.076,  0.340, -0.036, 5,   4.196,-35.583, 38.748
699335.79248, 3,   1.271, 12.124, -6.418, 4,   0.194,  0.192, -0.109, 5,   2.844,-36.328, 38.019
699335.81235, 3,   0.330,  6.532, -1.859, 4,   0.204,  0.222, -0.154, 5,   3.546,-34.886, 38.744
699335.83221, 3,  -0.251,  6.243, -3.848, 4,   0.063,  0.267, -0.149, 5,   3.514,-36.314, 39.473
699335.85208, 3,  -0.605, 13.175, -6.339, 4,   0.053,  0.232, -0.162, 5,   4.196,-35.585, 39.473
699335.87195, 3,  -0.404, 10.705, -0.706, 4,   0.031,  0.143, -0.190, 5,   4.849,-36.281, 38.751
699335.89181, 3,   0.455,  8.468,  1.077, 4,  -0.120,  0.114, -0.179
699335.91168, 3,   0.799,  9.937, -2.654, 4,  -0.118, -0.005, -0.167, 5,   2.859,-35.614, 38.017
699335.93155, 3,   0.677,  8.344, -4.683, 4,   0.020, -0.154, -0.189, 5,   6.216,-34.824, 39.473
699335.95141, 3,  -0.751,  9.748, -4.637, 4,   0.060, -0.233, -0.224, 5,   3.525,-35.591, 35.840
699335.97128, 3,  -1.627,  9.287, -3.608, 4,   0.018, -0.251, -0.213, 5,   4.846,-36.275, 36.571
699335.99115, 3,  -1.730, 11.493, -2.993, 4,  -0.066, -0.258, -0.185, 5,   5.530,-35.547, 37.296
699336.01102, 3,  -1.914,  7.949, -1.452, 4,  -0.105, -0.340, -0.169, 5,   6.248,-33.394, 38.017
699336.03088, 3,  -0.701,  8.456, -3.307, 4,  -0.130, -0.463, -0.134, 5,   4.877,-34.846, 35.840
699336.05075, 3,  -0.179, 10.490, -4.144, 4,  -0.086, -0.672, -0.086, 5,   6.181,-36.244, 37.299
699336.07065, 3,  -0.366,  8.987, -0.988, 4,  -0.052, -0.784, -0.059, 5,   8.867,-35.464, 37.302
699336.09048, 3,  -0.907,  6.008, -4.434, 4,  -0.063, -0.731, -0.027, 5,   6.847,-36.224, 35.847
699336.11035, 3,  -0.380, 10.476, -5.724, 4,   0.011, -0.608, -0.002, 5,   8.902,-34.041, 38.023
699336.13022, 3,  -0.857,  9.641, -2.489, 4,   0.034, -0.489,  0.033, 5,   7.532,-35.498, 37.299
699336.15008, 3,   0.225, 10.354, -1.579, 4,  -0.100, -0.343,  0.069, 5,   8.852,-36.179, 37.303
699336.16995, 3,  -0.359, 10.741, -1.201, 4,  -0.107, -0.316,  0.077, 5,   9.534,-35.446, 35.851
699336.18982, 3,   0.141,  8.880, -2.204, 4,  -0.025, -0.291,  0.080, 5,   8.867,-35.463, 36.575
699336.20969, 3,   0.431,  9.756, -4.410, 4,   0.055, -0.273,  0.064, 5,   8.853,-36.182, 38.029
699336.22955, 3,   0.345,  9.069, -3.857, 4,   0.113, -0.255,  0.050, 5,   8.832,-36.887, 35.127
699336.24942, 3,   0.541,  6.664, -3.960, 4,   0.091, -0.211,  0.046, 5,  10.219,-34.720, 37.300
699336.26929, 3,  -0.428,  7.817, -4.953, 4,   0.057, -0.191,  0.044, 5,   8.199,-35.480, 36.574
699336.28915, 3,  -0.861,  8.004, -4.601, 4,   0.051, -0.210,  0.036, 5,   8.215,-34.769, 37.297
699336.30902, 3,  -2.328, -0.211, -5.322, 4,   0.011, -0.287,  0.034, 5,   8.232,-34.053, 36.569
699336.32889, 3,  -1.314, 26.682, -8.215, 4,  -0.020, -0.370,  0.040, 5,  10.187,-36.147, 37.305
699336.34878, 3,   0.641,  6.212,  5.350, 4,  -0.067, -0.466,  0.077, 5,  10.902,-33.986, 35.847
699336.36865, 3,   0.601,  5.561,  5.889, 4,  -0.329, -0.332,  0.151, 5,   8.850,-36.176, 35.851
699336.38852, 3,  -0.438, 16.094, -4.161, 4,  -0.141, -0.233,  0.136, 5,  10.187,-36.145, 36.578
699336.40835, 3,  -1.283,  9.710, -2.457, 4,   0.194, -0.244,  0.085, 5,  10.219,-34.718, 36.574
699336.42822, 3,  -1.639,  6.109, -4.759, 4,   0.194, -0.207,  0.042, 5,   9.532,-35.445, 35.126
699336.44809, 3,  -1.737, 10.744, -7.021, 4,   0.187, -0.101,  0.090, 5,   9.502,-36.873, 35.854
699336.46796, 3,  -1.543,  9.117, -3.666, 4,   0.123, -0.020,  0.111, 5,  10.217,-34.717, 35.847
699336.48782, 3,  -1.421, 10.301, -1.584, 4,  -0.039,  0.066,  0.124, 5,  10.185,-36.143, 35.852
699336.50769, 3,  -1.182,  8.897, -0.474, 4,  -0.109,  0.126,  0.167, 5,   9.550,-34.734, 35.847
699336.52756, 3,  -0.007,  9.093, -2.972, 4,  -0.086,  0.123,  0.180, 5,   9.502,-36.873, 35.854
699336.54742, 3,  -0.596, 10.636, -4.575, 4,  -0.002,  0.090,  0.151, 5,  11.478,-38.258, 39.491
699336.56729, 3,  -0.366, 10.167, -2.757, 4,   0.053,  0.173,  0.128, 5,  10.826,-37.564, 40.215
699336.58716, 3,  -0.371,  5.099, -1.723, 4,   0.023,  0.293,  0.105, 5,   8.199,-35.480, 36.574
699336.60702, 3,  -1.268,  9.358, -4.041, 4,   0.014,  0.392,  0.097, 5,   7.565,-34.071, 37.294
699336.62689, 3,  -1.022, 10.914,  3.639, 4,   0.080,  0.435,  0.083, 5,   7.516,-36.211, 36.574
699336.64679, 3,  -1.007,  9.224, -5.867, 4,   0.045,  0.388,  0.066, 5,   7.567,-34.074, 38.020
699336.66666, 3,  -0.139, 14.886,-10.418, 4,   0.179,  0.280,  0.037, 5,   8.234,-34.058, 38.022
699336.68652, 3,  -1.498,  3.575, -1.720, 4,   0.341,  0.125,  0.007, 5,   6.897,-34.087, 37.294
699336.70639, 3,   0.340,  6.626, -2.335, 4,   0.007,  0.153,  0.004, 5,   8.215,-34.767, 36.571
699336.72626, 3,   0.108, 13.799, -4.276, 4,  -0.053,  0.126,  0.024, 5,   6.848,-36.227, 37.300
699336.74609, 3,  -0.203,  8.899,  0.294, 4,  -0.041,  0.093,  0.050, 5,   7.550,-34.789, 38.022
699336.76596, 3,   0.292,  8.595, -0.318, 4,  -0.116,  0.074,  0.030, 5,   7.550,-34.789, 38.022
699336.78583, 3,  -0.660, 11.648, -3.900, 4,  -0.036, -0.044,  0.012, 5,   5.563,-34.120, 37.291
699336.80569, 3,  -0.995, 11.421, -3.302, 4,   0.093, -0.082, -0.010, 5,   6.897,-34.087, 37.294
699336.82556, 3,  -0.861,  4.534, -2.891, 4,   0.075, -0.038, -0.003, 5,   8.232,-34.053, 36.569
699336.84543, 3,  -1.687,  9.277, -6.133, 4,   0.058,  0.063,  0.024, 5,   6.848,-36.226, 36.574
699336.86529, 3,  -0.696, 18.875, -1.799, 4,   0.058,  0.167,  0.050, 5,   7.565,-34.070, 36.568
699336.88516, 3,  -0.187,  5.245,  3.675, 4,  -0.089,  0.304,  0.072, 5,   6.914,-33.374, 37.292
699336.90503, 3,   0.175,  7.195, -1.742, 4,  -0.146,  0.484,  0.094, 5,   6.882,-34.804, 38.022
699336.92493, 3,  -0.498,  9.724, -7.317, 4,   0.069,  0.447,  0.033, 5,   6.882,-34.804, 38.022
699336.94479, 3,  -0.749,  9.715, -6.494, 4,   0.176,  0.434, -0.026, 5,   6.882,-34.804, 38.022
699336.96466, 3,  -1.563,  9.842, -2.328, 4,   0.074,  0.534, -0.029, 5,   6.213,-34.816, 36.568
699336.98453, 3,  -1.306,  8.844, -0.493, 4,  -0.052,  0.643, -0.019, 5,   5.547,-34.834, 37.292
699337.00439, 3,  -1.184, 11.313, -0.983, 4,  -0.111,  0.592, -0.057, 5,   4.178,-36.293, 37.296
699337.02426, 3,  -0.936, 12.986, -1.809, 4,  -0.061,  0.414, -0.091, 5,   4.849,-36.281, 38.751
699337.04410, 3,  -1.292,  1.859, -3.443, 4,   0.012,  0.194, -0.104, 5,   5.548,-34.837, 38.019
699337.06396, 3,  -1.309, 13.685, -9.160, 4,   0.091, -0.015, -0.102, 5,   4.880,-34.853, 38.019
699337.08383, 3,   0.077, 12.950, -3.340, 4,   0.135, -0.199, -0.080, 5,   5.547,-34.834, 37.292
699337.10370, 3,  -0.605,  7.073,  3.553, 4,  -0.080, -0.257, -0.042, 5,   4.912,-33.423, 37.289
699337.12356, 3,   1.268, 10.390, -1.036, 4,  -0.185, -0.258, -0.002, 5,   6.215,-34.821, 38.020
699337.14343, 3,   0.361,  5.049, -2.735, 4,  -0.002, -0.385, -0.024, 5,   5.548,-34.837, 38.019
699337.16330, 3,  -1.414, 10.624, -9.657, 4,   0.122, -0.351, -0.055, 5,   6.897,-34.087, 37.294
699337.18317, 3,  -0.287,  9.610, -4.506, 4,   0.203, -0.235, -0.052, 5,   6.213,-34.818, 37.294
699337.20303, 3,   0.864,  7.760,  0.900, 4,   0.040, -0.108, -0.008, 5,   5.580,-33.408, 37.289
699337.22293, 3,   0.352,  8.049, -0.787, 4,  -0.131,  0.028,  0.013, 5,   5.580,-33.408, 37.289
699337.24280, 3,  -0.524, 13.926, -5.183, 4,  -0.048,  0.092, -0.014, 5,   4.895,-34.134, 36.565
699337.26266, 3,  -0.579,  4.022, -2.166, 4,   0.071,  0.139, -0.057, 5,   6.197,-35.529, 36.571
699337.28253, 3,  -1.268, 13.089, -4.680, 4,   0.041,  0.180, -0.060, 5,   6.198,-35.533, 38.023
699337.30240, 3,  -0.230, 12.950, -2.055, 4,   0.035,  0.133, -0.049, 5,   5.551,-34.842, 40.198
699337.32226, 3,   0.385,  6.631,  3.541, 4,  -0.038,  0.004, -0.041, 5,   6.213,-34.816, 36.568
699337.34213, 3,   0.878,  9.464, -1.747, 4,  -0.118, -0.078, -0.020, 5,   4.895,-34.135, 37.291
699337.36200, 3,  -0.132,  5.061, -5.783, 4,   0.017, -0.205, -0.030, 5,   6.895,-34.084, 35.841
699337.38183, 3,  -0.431, 16.214, -7.908, 4,   0.144, -0.241, -0.068, 5,   4.228,-34.155, 38.016
699337.40170, 3,  -0.469,  6.882, -1.558, 4,   0.104, -0.225, -0.060, 5,   5.547,-34.833, 36.566
699337.42157, 3,  -0.060,  7.497, -0.239, 4,  -0.118, -0.150, -0.013, 5,   6.213,-34.818, 37.294
699337.44144, 3,  -0.318,  9.784, -2.634, 4,  -0.151, -0.199,  0.012, 5,   5.580,-33.408, 37.289
699337.46130, 3,  -0.328,  9.272, -3.245, 4,  -0.074, -0.232,  0.008, 5,   6.812,-37.650, 35.126
699337.48117, 3,  -0.924,  6.709, -3.888, 4,  -0.053, -0.219, -0.005, 5,   7.565,-34.070, 36.568
699337.50107, 3,  -0.778, 16.379, -4.405, 4,   0.002, -0.196,  0.023, 5,   6.879,-34.798, 35.843
699337.52093, 3,  -0.048,  8.743,  0.469, 4,   0.011, -0.199,  0.064, 5,   7.550,-34.789, 38.022
699337.54080, 3,  -0.282,  8.497, -1.943, 4,  -0.085, -0.189,  0.059, 5,   6.862,-35.510, 35.846
699337.56067, 3,   0.060,  9.600, -3.867, 4,   0.014, -0.177,  0.077, 5,   7.565,-34.071, 37.294
699337.58053, 3,  -0.883,  8.600, -3.762, 4,   0.072, -0.161,  0.081, 5,   8.183,-36.195, 37.302
699337.60040, 3,  -0.849, 11.742, -3.654, 4,   0.066, -0.127,  0.063, 5,   7.549,-34.785, 37.296
699337.62027, 3,  -0.397,  9.712, -1.467, 4,   0.030, -0.094,  0.094, 5,   6.863,-35.512, 36.572
699337.64014, 3,  -0.062,  7.657,  0.514, 4,  -0.037, -0.097,  0.132, 5,   7.565,-34.070, 36.568
699337.66000, 3,  -0.837, 11.081, -3.161, 4,  -0.039, -0.121,  0.135, 5,   6.815,-37.653, 36.577
699337.67987, 3,  -0.337,  4.836, -2.785, 4,   0.034, -0.099,  0.106, 5,   6.848,-36.227, 37.300
699337.69913, 3,  -0.711,  8.633, -4.403, 4,   0.082, -0.064,  0.106, 5,   6.915,-33.377, 38.019
699337.71957, 3,   0.294, 13.886, -3.905, 4,   0.073, -0.000,  0.125, 5,   6.911,-33.369, 35.115
699337.73944, 3,  -0.194,  7.827, -0.431, 4,   0.024,  0.051,  0.128, 5,   7.515,-36.209, 35.847
699337.75931, 3,   0.282,  9.842, -3.192, 4,  -0.028,  0.139,  0.111, 5,   5.580,-33.408, 37.289
699337.77920, 3,  -0.479,  9.296, -3.594, 4,   0.060,  0.154,  0.096, 5,   6.880,-34.801, 37.296
699337.79907, 3,  -0.397,  9.801, -3.017, 4,   0.080,  0.197,  0.062, 5,   4.880,-34.853, 38.019
699337.81894, 3,  -1.211, 10.213, -1.802, 4,   0.062,  0.241,  0.045, 5,   6.180,-36.241, 35.846
699337.83881, 3,  -0.182,  8.875, -1.924, 4,   0.053,  0.266,  0.048, 5,   6.897,-34.087, 37.294
699337.85867, 3,  -1.098,  8.686, -3.151, 4,   0.049,  0.192,  0.037, 5,   5.547,-34.833, 36.566
699337.87854, 3,  -0.388,  8.014, -3.269, 4,   0.067,  0.131,  0.023, 5,   7.567,-34.074, 38.020
699337.89841, 3,  -0.199, 14.556, -3.848, 4,   0.033,  0.099,  0.036, 5,   4.880,-34.853, 38.019
699337.91827, 3,   0.321, 11.775, -0.735, 4,   0.002,  0.101,  0.066, 5,   5.547,-34.833, 36.566
699337.93814, 3,  -0.072,  6.439,  1.697, 4,  -0.060,  0.144,  0.090, 5,   4.208,-34.863, 35.838
699337.95801, 3,  -0.112,  9.607, -4.164, 4,  -0.052,  0.126,  0.057, 5,   4.877,-34.846, 35.840
699337.97787, 3,   0.512,  8.037, -4.305, 4,   0.099,  0.087,  0.037, 5,   6.198,-35.533, 38.023
699337.99771, 3,  -0.167,  8.411, -4.152, 4,   0.091,  0.123,  0.019, 5,   5.563,-34.120, 37.291
699338.01761, 3,  -0.167, 12.476, -4.307, 4,   0.041,  0.222,  0.012, 5,   5.530,-35.545, 36.569
699338.03744, 3,   0.108,  9.406, -1.996, 4,   0.005,  0.282, -0.002, 5,   5.563,-34.120, 37.291
699338.05731, 3,  -0.014,  8.396, -2.216, 4,  -0.048,  0.293, -0.013, 5,   4.210,-34.866, 37.291
699338.07721, 3,  -0.837, 12.512, -3.194, 4,  -0.017,  0.310, -0.031, 5,   4.895,-34.134, 36.565
699338.09708, 3,   0.091,  4.594, -1.869, 4,   0.025,  0.336, -0.079, 5,   4.860,-35.559, 35.843
699338.11694, 3,  -0.629, 12.349, -3.400, 4,   0.007,  0.374, -0.085, 5,   4.257,-32.722, 35.834
699338.13681, 3,  -0.194, 12.519, -1.177, 4,   0.016,  0.402, -0.091, 5,   4.929,-32.712, 38.014
699338.15668, 3,  -0.218,  6.173,  2.654, 4,  -0.033,  0.371, -0.112, 5,   2.843,-36.325, 37.292
699338.17654, 3,  -1.058, 12.476, -6.951, 4,  -0.026,  0.285, -0.126, 5,   4.210,-34.866, 37.291
699338.19641, 3,  -0.859,  8.760, -3.570, 4,   0.126,  0.132, -0.158, 5,   3.593,-32.744, 38.011
699338.21628, 3,  -1.204,  7.332,  0.845, 4,   0.050,  0.071, -0.163, 5,   2.908,-33.472, 37.285
699338.23614, 3,  -0.586, 11.115, -1.620, 4,  -0.096,  0.026, -0.134, 5,   4.260,-32.729, 38.013
699338.25601, 3,  -0.888, 10.205, -1.967, 4,  -0.036, -0.101, -0.116, 5,   4.230,-34.157, 38.744
699338.27588, 3,  -1.139,  9.710, -3.460, 4,   0.005, -0.226, -0.115, 5,   4.243,-33.438, 36.562
699338.29574, 3,  -0.725,  6.717, -3.637, 4,   0.035, -0.281, -0.110, 5,   3.593,-32.744, 38.011
699338.31561, 3,  -1.117,  7.612, -4.664, 4,   0.031, -0.312, -0.071, 5,   4.895,-34.135, 37.291
699338.33548, 3,  -0.735, 15.003, -4.384, 4,   0.022, -0.319, -0.011, 5,   5.548,-34.837, 38.019
699338.35535, 3,   0.002,  8.806,  0.921, 4,  -0.050, -0.264,  0.035, 5,   4.912,-33.423, 37.289
699338.37521, 3,   0.273,  8.313, -1.878, 4,  -0.132, -0.203,  0.048, 5,   6.897,-34.087, 37.294
699338.39508, 3,  -0.885,  7.753, -4.953, 4,   0.009, -0.185,  0.053, 5,   6.247,-33.389, 36.565
699338.41495, 3,  -1.256, 14.307, -5.956, 4,   0.116, -0.137,  0.028, 5,   4.895,-34.135, 37.291
699338.43481, 3,  -1.165,  8.274,  0.849, 4,   0.105, -0.037,  0.023, 5,   5.563,-34.120, 37.291
699338.45468, 3,  -0.072,  6.626, -0.156, 4,  -0.048,  0.115,  0.067, 5,   6.197,-35.529, 36.571
699338.47455, 3,   0.010, 11.474, -5.585, 4,  -0.030,  0.087,  0.051, 5,   4.944,-31.996, 37.286
699338.49441, 3,  -0.780, 12.117, -3.771, 4,   0.094,  0.029,  0.024, 5,   4.245,-33.443, 38.014
699338.51428, 3,  -0.412,  5.090, -2.103, 4,   0.013,  0.079,  0.015, 5,   4.895,-34.134, 36.565
699338.53415, 3,  -0.199, 16.451, -4.939, 4,  -0.034,  0.106,  0.044, 5,   4.912,-33.421, 36.563
699338.55402, 3,   0.857,  7.664,  1.388, 4,  -0.019,  0.067,  0.053, 5,   5.563,-34.120, 37.291
699338.57388, 3,   0.737,  9.248, -0.146, 4,  -0.120,  0.050,  0.035, 5,   5.595,-32.692, 36.562
699338.59375, 3,   0.608,  9.126, -3.936, 4,  -0.020,  0.017,  0.026, 5,   6.230,-34.103, 37.292
699338.61362, 3,  -0.098,  9.215, -5.030, 4,   0.108, -0.027, -0.005, 5,   6.247,-33.389, 36.565
699338.63348, 3,  -0.694, 10.710, -5.247, 4,   0.124, -0.011, -0.037, 5,   4.260,-32.729, 38.013
699338.65338, 3,  -0.483,  7.518, -1.452, 4,   0.057,  0.030, -0.015, 5,   3.574,-33.450, 35.109
699338.67322, 3,  -0.550,  7.549, -0.687, 4,  -0.069,  0.068,  0.012, 5,   4.210,-34.866, 37.291
699338.69308, 3,  -1.127, 12.876, -5.700, 4,  -0.072, -0.000,  0.007, 5,   5.580,-33.408, 37.289
699338.71295, 3,  -1.091,  3.769, -1.244, 4,  -0.011, -0.067, -0.011, 5,   6.245,-33.388, 35.838
699338.73282, 3,  -0.627,  9.014, -1.862, 4,  -0.045, -0.081,  0.017, 5,   6.247,-33.391, 37.291
699338.75268, 3,   0.474, 15.312, -2.489, 4,  -0.056, -0.090,  0.044, 5,   5.565,-34.123, 38.017
699338.77255, 3,  -0.337,  7.702,  1.393, 4,  -0.028, -0.122,  0.056, 5,   5.563,-34.120, 37.291
699338.79242, 3,  -0.254,  9.684, -2.670, 4,  -0.038, -0.056,  0.053, 5,   6.247,-33.389, 36.565
699338.81229, 3,  -0.883,  9.586, -4.860, 4,   0.095, -0.062,  0.030, 5,   4.893,-34.132, 35.838
699338.83215, 3,  -1.211,  9.846, -4.396, 4,   0.138, -0.034,  0.008, 5,   4.910,-33.420, 35.837
699338.85202, 3,  -1.017, 10.327, -3.089, 4,   0.071,  0.028,  0.023, 5,   5.579,-33.405, 35.837
699338.87189, 3,  -0.136,  8.770,  0.091, 4,  -0.013,  0.078,  0.055, 5,   5.548,-34.837, 38.019
699338.89175, 3,  -0.234, 10.062, -1.548, 4,  -0.069,  0.057,  0.070, 5,   5.563,-34.120, 37.291
699338.91162, 3,  -0.359,  4.826, -3.077, 4,  -0.009,  0.023,  0.047, 5,   6.262,-32.677, 37.289
699338.93152, 3,  -1.393, 13.070, -5.238, 4,   0.057,  0.017,  0.042, 5,   4.259,-32.724, 36.560
699338.95138, 3,  -0.416, 12.754, -3.099, 4,   0.104,  0.026,  0.069, 5,   4.893,-34.132, 35.838
699338.97125, 3,  -0.933,  4.979,  1.196, 4,   0.016,  0.090,  0.114, 5,   6.898,-34.090, 38.020
699338.99109, 3,  -0.625,  9.882, -3.936, 4,  -0.038,  0.153,  0.090, 5,   5.530,-35.547, 37.296
699339.01095, 3,  -0.273,  9.600, -4.264, 4,   0.089,  0.133,  0.084, 5,   4.913,-33.426, 38.016
699339.03082, 3,  -0.876, 10.679, -3.312, 4,   0.079,  0.166,  0.066, 5,   3.560,-34.166, 36.562
699339.05069, 3,  -1.759,  9.433, -1.756, 4,   0.036,  0.253,  0.067, 5,   3.543,-34.882, 37.289
699339.07056, 3,  -0.029,  9.114, -1.498, 4,   0.005,  0.307,  0.064, 5,   4.861,-35.562, 37.296
699339.09042, 3,   0.053,  7.736, -0.912, 4,   0.003,  0.253,  0.057, 5,   4.211,-34.869, 38.017
699339.11029, 3,   0.022, 11.983, -3.472, 4,   0.017,  0.213,  0.030, 5,   3.561,-34.171, 38.014
699339.13016, 3,   0.294,  5.267, -3.010, 4,   0.045,  0.213,  0.004, 5,   4.227,-34.151, 36.563
699339.15002, 3,  -0.388, 15.790, -5.413, 4,   0.053,  0.239,  0.009
699339.16989, 3,   0.380,  8.923, -0.378, 4,   0.035,  0.238, -0.002, 5,   3.577,-33.455, 37.286
699339.18976, 3,   1.469,  4.824,  1.984, 4,  -0.103,  0.287, -0.014, 5,   4.213,-34.871, 38.745
699339.20962, 3,   0.699, 14.015, -5.618, 4,  -0.087,  0.277, -0.024, 5,   3.578,-33.458, 38.013
699339.22952, 3,   0.000,  6.185, -2.981, 4,   0.085,  0.220, -0.088, 5,   2.924,-32.758, 37.283
699339.24939, 3,  -0.110, 10.612, -2.623, 4,   0.052,  0.238, -0.112, 5,   2.223,-34.201, 37.286
699339.26922, 3,  -0.593, 10.600, -3.711, 4,   0.034,  0.276, -0.115, 5,   2.892,-34.183, 36.560
699339.28909, 3,  -0.165,  8.573, -3.998, 4,   0.039,  0.228, -0.129
699339.30896, 3,  -0.744, 14.027, -2.690, 4,   0.012,  0.187, -0.140, 5,   4.230,-34.157, 38.744
699339.32883, 3,  -0.893,  3.596, -1.165, 4,  -0.039,  0.160, -0.165, 5,   4.213,-34.872, 39.470
699339.34869, 3,  -0.847, 14.012, -3.687, 4,  -0.080,  0.143, -0.163, 5,   3.580,-33.459, 38.741
699339.36856, 3,  -0.065, 10.828, -1.050, 4,  -0.015,  0.038, -0.147, 5,   2.925,-32.761, 38.010
699339.38843, 3,  -0.337,  8.181, -0.495, 4,  -0.071, -0.076, -0.145, 5,   3.546,-34.888, 39.468
699339.40829, 3,  -0.055,  7.738, -3.290, 4,  -0.045, -0.193, -0.143, 5,   4.230,-34.157, 38.744
699339.42816, 3,  -0.881, 21.052, -4.573, 4,   0.051, -0.319, -0.135, 5,   3.563,-34.174, 39.467
699339.44803, 3,   0.818,  2.969,  1.761, 4,   0.053, -0.343, -0.147, 5,   5.583,-33.414, 39.468
699339.46789, 3,  -1.139, -0.024, -2.926, 4,  -0.063, -0.282, -0.102, 5,   4.898,-34.140, 38.745
699339.48776, 3,  -1.582, 16.039,-11.287, 4,   0.082, -0.348, -0.118, 5,   4.898,-34.140, 38.745
699339.50766, 3,  -0.849, 12.682, -4.362, 4,   0.210, -0.455, -0.080, 5,   6.250,-33.397, 39.470
699339.52753, 3,  -1.314,  2.733,  1.548, 4,  -0.027, -0.360, -0.038, 5,   5.583,-33.414, 39.468
699339.54739, 3,  -0.629, 11.318, -2.594, 4,  -0.169, -0.248,  0.034, 5,   5.566,-34.126, 39.470
699339.56726, 3,  -0.340, 13.699, -3.400, 4,  -0.030, -0.314,  0.053, 5,   6.215,-34.821, 38.020
699339.58713, 3,  -0.677,  7.906, -0.306, 4,  -0.009, -0.315,  0.058, 5,   6.920,-33.383, 40.924
699339.60699, 3,   0.318,  9.138, -1.988, 4,  -0.026, -0.181,  0.083, 5,   6.250,-33.397, 39.470
699339.62683, 3,   0.581,  9.040, -2.522, 4,   0.045, -0.142,  0.105, 5,   4.216,-34.877, 41.649
699339.64670, 3,  -0.206,  9.811, -2.919, 4,   0.068, -0.086,  0.079, 5,   4.230,-34.157, 38.744
699339.66656, 3,   0.213,  9.748, -2.412, 4,   0.060,  0.015,  0.070, 5,   4.247,-33.446, 39.467
699339.68643, 3,  -0.395,  6.133, -2.299, 4,   0.045,  0.114,  0.090, 5,   4.913,-33.426, 38.016
699339.70630, 3,  -1.077, 16.570, -9.480, 4,   0.024,  0.129,  0.075, 5,   5.597,-32.697, 38.014
699339.72616, 3,   0.479,  1.974,  2.457, 4,   0.068,  0.066,  0.037, 5,   6.905,-34.099, 42.380
699339.74603, 3,  -1.005,  2.718,  1.591, 4,  -0.204,  0.035,  0.080, 5,   7.539,-35.510, 42.384
699339.76590, 3,   0.436, 21.858, -6.276, 4,  -0.177,  0.011,  0.099, 5,   9.509,-36.885, 40.938
699339.78580, 3,  -0.983,  7.566,  0.144, 4,   0.042, -0.167,  0.100, 5,   6.253,-33.400, 40.923
699339.80566, 3,  -0.601,  7.576, -1.876, 4,  -0.024, -0.144,  0.078, 5,   3.595,-32.745, 38.739
699339.82553, 3,   0.337, 10.811, -4.391, 4,   0.038, -0.152,  0.091, 5,   4.279,-32.019, 39.464
699339.84540, 3,   0.213,  8.719, -2.711, 4,   0.079, -0.153,  0.090, 5,   4.230,-34.157, 38.744
699339.86526, 3,  -1.117,  9.954, -2.053, 4,   0.024, -0.056,  0.078, 5,   5.568,-34.128, 40.196
699339.88513, 3,   0.268, 10.579, -2.919, 4,   0.009,  0.063,  0.088, 5,   5.582,-33.411, 38.016
699339.90500, 3,  -0.239,  8.313, -2.335, 4,   0.017,  0.103,  0.084, 5,   3.612,-32.034, 39.462
699339.92486, 3,  -0.574, 11.971, -3.316, 4,   0.023,  0.121,  0.053, 5,   3.596,-32.748, 40.190
699339.94473, 3,  -0.242,  5.190, -2.223, 4,   0.033,  0.077,  0.036, 5,   3.563,-34.174, 39.467
699339.96457, 3,  -0.141, 14.036, -5.037, 4,   0.018,  0.039,  0.051, 5,   3.644,-30.608, 39.458
699339.98443, 3,   0.577, 11.316, -1.278, 4,   0.019,  0.004,  0.069, 5,   1.608,-32.082, 38.734
699340.00430, 3,   0.242,  6.587,  0.412, 4,  -0.054,  0.026,  0.069, 5,   2.255,-32.773, 36.557
699340.02417, 3,   0.175,  9.665, -3.477, 4,  -0.034,  0.051,  0.068, 5,   1.608,-32.082, 38.734
699340.04404, 3,   1.003, 10.772, -5.051, 4,   0.093,  0.026,  0.041, 5,   2.911,-33.476, 38.739
699340.06390, 3,  -0.191,  8.157, -3.733, 4,   0.127,  0.088,  0.023, 5,   0.941,-32.100, 39.458
699340.08380, 3,   0.249, 10.071, -3.391, 4,   0.072,  0.220,  0.029, 5,   1.639,-30.653, 38.002
699340.10367, 3,   0.069, 10.236, -3.178, 4,   0.031,  0.316,  0.017, 5,   1.608,-32.082, 38.734
699340.12353, 3,  -1.476, 10.679, -1.809, 4,   0.005,  0.366, -0.004, 5,  -0.397,-32.126, 37.277
699340.14340, 3,  -1.522, -0.105, -3.692, 4,  -0.014,  0.373, -0.046, 5,   0.255,-32.826, 38.007
699340.16327, 3,   0.050, 23.459, -6.693, 4,   0.008,  0.314, -0.054, 5,   0.908,-33.524, 38.008
699340.18313, 3,  -0.069,  7.578,  0.885, 4,   0.013,  0.238, -0.036, 5,   0.255,-32.826, 38.007
699340.20300, 3,  -0.952,  4.046,  1.630, 4,  -0.176,  0.214, -0.020, 5,  -1.730,-32.164, 39.453
699340.22287, 3,  -0.445, 11.952, -4.836, 4,  -0.087,  0.050, -0.049, 5,  -0.380,-31.412, 37.274
699340.24274, 3,   0.098, 10.055, -4.764, 4,   0.108, -0.144, -0.043, 5,  -0.398,-32.123, 35.825
699340.26257, 3,   0.079, 10.062, -3.103, 4,   0.061, -0.147, -0.027, 5,  -0.365,-30.699, 37.273
699340.28244, 3,  -0.376,  8.540, -1.292, 4,  -0.013, -0.076, -0.000, 5,  -0.429,-33.551, 36.554
699340.30231, 3,   0.146, 10.122, -1.991, 4,  -0.067, -0.022,  0.013, 5,  -0.398,-32.123, 35.825
699340.32217, 3,   0.514, 11.454, -2.505, 4,  -0.044, -0.065,  0.014, 5,  -1.033,-30.716, 37.271
699340.34204, 3,  -0.529,  4.857, -1.347, 4,  -0.006, -0.060,  0.006, 5,   0.319,-29.970, 37.273
699340.36194, 3,   0.081,  8.200, -3.204, 4,  -0.010, -0.006,  0.002, 5,  -0.368,-30.695, 35.095
699340.38180, 3,   0.672, 15.510, -4.427, 4,   0.064,  0.006,  0.012, 5,  -0.380,-31.412, 37.274
699340.40167, 3,  -0.022,  6.678,  1.254, 4,   0.025,  0.055,  0.019, 5,   0.204,-34.962, 36.559
699340.42154, 3,   0.177,  6.786, -1.632, 4,  -0.086,  0.156,  0.013, 5,   0.269,-32.108, 35.826
699340.44141, 3,  -0.136, 14.213, -8.188, 4,   0.020,  0.144, -0.013, 5,  -1.082,-32.854, 36.551
699340.46127, 3,  -0.725,  6.358, -2.584, 4,   0.138,  0.164, -0.061, 5,   0.238,-33.536, 36.555
699340.48114, 3,  -0.534,  7.157, -0.134, 4,  -0.013,  0.258, -0.070, 5,  -1.083,-32.852, 35.825
699340.50101, 3,  -0.112, 10.768, -2.264, 4,  -0.070,  0.311, -0.072, 5,  -1.736,-32.153, 35.097
699340.52087, 3,   0.069,  9.720, -2.627, 4,  -0.003,  0.241, -0.091, 5,  -0.432,-33.548, 35.103
699340.54074, 3,  -0.914,  9.672, -2.821, 4,   0.039,  0.165, -0.135, 5,  -1.068,-32.138, 35.098
699340.56061, 3,  -1.632,  6.217, -3.651, 4,   0.034,  0.068, -0.154, 5,  -1.082,-32.855, 37.277
699340.58047, 3,  -1.144, 16.896, -5.537, 4,   0.035, -0.050, -0.131, 5,  -0.398,-32.123, 35.825
699340.60031, 3,  -0.873,  7.841,  1.567, 4,   0.003, -0.194, -0.088, 5,  -2.370,-30.745, 35.817
699340.62018, 3,  -0.632,  8.980, -0.634, 4,  -0.143, -0.303, -0.053, 5,   0.287,-31.396, 37.276
699340.64004, 3,  -0.321, 11.225, -3.048, 4,  -0.072, -0.426, -0.029, 5,   0.267,-32.106, 35.101
699340.65994, 3,  -0.979,  6.908, -2.646, 4,   0.046, -0.497, -0.026, 5,  -0.432,-33.548, 35.103
699340.67981, 3,  -0.962,  9.827, -3.857, 4,   0.068, -0.428, -0.007, 5,   1.601,-32.071, 34.375
699340.69907, 3,  -0.115,  9.205, -4.137, 4,   0.084, -0.323,  0.040, 5,  -0.366,-30.696, 35.820
699340.71954, 3,  -0.093,  9.236, -3.032, 4,   0.039, -0.199,  0.070, 5,   0.267,-32.106, 35.101
699340.73941, 3,  -0.313, 12.665, -1.450, 4,  -0.027, -0.038,  0.070, 5,   0.966,-30.661, 34.369
699340.75928, 3,  -0.220,  3.405, -0.790, 4,  -0.060,  0.105,  0.057, 5,  -0.385,-31.404, 33.644
699340.77914, 3,  -0.062, 14.931, -6.264, 4,  -0.017,  0.197,  0.059, 5,  -0.385,-31.404, 33.644
699340.79901, 3,   0.543, 10.859, -2.321, 4,   0.086,  0.211,  0.048, 5,   0.954,-31.377, 35.823
699340.81888, 3,   1.084,  6.757,  1.072, 4,  -0.009,  0.224,  0.018, 5,   0.919,-32.802, 35.103
699340.83874, 3,   0.278, 10.315, -3.044, 4,  -0.055,  0.245,  0.013, 5,   0.266,-32.104, 34.373
699340.85861, 3,   0.309,  9.808, -3.747, 4,   0.047,  0.159, -0.019, 5,   0.284,-31.392, 35.098
699340.87848, 3,  -0.368,  7.982, -3.321, 4,   0.063,  0.092, -0.068, 5,  -1.082,-32.854, 36.551
699340.89834, 3,  -0.782,  5.444, -5.082, 4,   0.029,  0.041, -0.065, 5,  -0.450,-34.259, 34.377
699340.91818, 3,   0.632, 21.744, -3.630, 4,   0.012, -0.071, -0.049, 5,   0.250,-32.819, 35.103
699340.93808, 3,  -0.526,  3.266,  3.702, 4,  -0.080, -0.197, -0.032, 5,   1.599,-32.068, 32.922
699340.95795, 3,  -0.428,  2.969, -2.108, 4,  -0.221, -0.199, -0.040, 5,   1.569,-33.498, 34.378
699340.97781, 3,   0.881, 14.972, -7.571, 4,  -0.016, -0.325, -0.032, 5,   0.917,-32.800, 34.375
699340.99768, 3,   0.089, 12.768, -3.651, 4,   0.116, -0.363, -0.011, 5,   0.917,-32.799, 33.650
699341.01755, 3,   0.055,  5.929,  0.493, 4,  -0.002, -0.288, -0.000, 5,   0.887,-34.229, 35.106
699341.03741, 3,   1.062,  9.124, -1.350, 4,  -0.082, -0.218,  0.019, 5,   2.269,-32.057, 35.104
699341.05728, 3,   0.617, 10.198, -3.840, 4,  -0.022, -0.270,  0.012, 5,   0.917,-32.799, 33.650
699341.07715, 3,   0.167, 10.694, -3.075, 4,   0.017, -0.241, -0.014, 5,   2.284,-31.342, 34.373
699341.09701, 3,   0.455,  9.363, -2.197, 4,   0.008, -0.213, -0.005, 5,   0.899,-33.508, 32.198
699341.11688, 3,   0.249,  9.827, -2.883, 4,  -0.022, -0.166,  0.007, 5,   2.248,-32.762, 32.199
699341.13675, 3,   0.493, 11.868, -2.170, 4,  -0.020, -0.148,  0.006, 5,   2.199,-34.903, 32.204
699341.15662, 3,  -0.313,  5.771, -0.572, 4,  -0.025, -0.086, -0.010, 5,   1.584,-32.784, 34.377
699341.17648, 3,  -1.000,  5.554, -5.185, 4,  -0.047, -0.048, -0.014, 5,   2.902,-33.463, 32.927
699341.19635, 3,  -0.333, 19.956, -9.224, 4,   0.068, -0.060, -0.011, 5,   2.252,-32.770, 35.106
699341.21625, 3,  -1.656,  5.310,  0.500, 4,   0.152, -0.090, -0.008, 5,   1.601,-32.071, 34.375
699341.23608, 3,   0.517,  8.035, -0.067, 4,  -0.116, -0.039,  0.017, 5,   1.552,-34.209, 33.655
699341.25595, 3,  -0.625, 10.653, -2.828, 4,  -0.120, -0.060,  0.020, 5,   1.584,-32.784, 34.377
699341.27582, 3,  -0.991,  8.858, -3.211, 4,  -0.020, -0.070, -0.014, 5,   2.266,-32.053, 32.924
699341.29568, 3,  -1.618,  9.296, -3.166, 4,   0.024, -0.082, -0.053, 5,   4.239,-33.432, 33.658
699341.31555, 3,   0.110, 10.473, -3.233, 4,   0.042, -0.128, -0.030, 5,   2.919,-32.750, 33.653
699341.33542, 3,  -0.675,  9.952, -2.706, 4,   0.002, -0.220, -0.002, 5,   2.901,-33.458, 31.476
699341.35528, 3,   0.234, 10.643, -1.342, 4,  -0.030, -0.258, -0.002, 5,   4.205,-34.860, 34.386
699341.37515, 3,  -0.347,  5.300, -1.821, 4,  -0.053, -0.279,  0.007, 5,   2.917,-32.748, 32.925
699341.39502, 3,   0.165, 17.602, -5.544, 4,  -0.026, -0.257,  0.033, 5,   4.906,-33.414, 32.932
699341.41489, 3,  -0.438,  8.607,  0.242, 4,   0.039, -0.263,  0.061, 5,   3.621,-31.308, 34.375
699341.43475, 3,   0.029,  8.717, -1.362, 4,  -0.059, -0.194,  0.063, 5,   4.871,-34.837, 32.208
699341.45462, 3,   0.179,  9.538, -2.711, 4,  -0.006, -0.187,  0.070, 5,   5.576,-33.401, 34.384
699341.47449, 3,   0.007,  8.880, -1.938, 4,   0.042, -0.160,  0.064, 5,   4.887,-34.122, 31.482
699341.49435, 3,  -1.847, 10.208, -3.628, 4,   0.036, -0.061,  0.046, 5,   3.554,-34.158, 32.930
699341.51425, 3,  -0.749,  9.366, -3.773, 4,   0.074,  0.005,  0.045, 5,   3.572,-33.447, 33.656
699341.53412, 3,  -0.775,  8.935, -2.606, 4,   0.057, -0.018,  0.055, 5,   4.240,-33.435, 35.110
699341.55395, 3,  -0.744, 14.132, -2.347, 4,   0.002, -0.044,  0.050, 5,   2.904,-33.466, 34.380
699341.57382, 3,  -0.921,  3.027,  0.098, 4,  -0.031, -0.076,  0.042, 5,   4.924,-32.704, 35.110
699341.59369, 3,  -0.273,  6.370, -5.389, 4,  -0.022, -0.076,  0.051, 5,   3.569,-33.443, 32.202
699341.61355, 3,   0.579, 24.713, -6.011, 4,   0.082, -0.134,  0.058, 5,   4.205,-34.860, 34.386
699341.63342, 3,  -0.211,  0.495,  4.295, 4,   0.044, -0.161,  0.072, 5,   3.587,-32.735, 34.380
699341.65329, 3,  -0.845,  5.420, -3.448, 4,  -0.104, -0.117,  0.075, 5,   4.907,-33.415, 33.659
699341.67316, 3,   0.893, 13.038, -6.473, 4,   0.072, -0.251,  0.045, 5,   4.218,-34.137, 30.753
699341.69302, 3,   0.234, 10.734, -2.797, 4,   0.124, -0.262,  0.055, 5,   4.202,-34.854, 32.207
699341.71289, 3,   0.112,  9.308, -0.907, 4,   0.002, -0.122,  0.091, 5,   4.921,-32.700, 32.930
699341.73276, 3,  -0.534,  8.093, -1.895, 4,  -0.030, -0.061,  0.105, 5,   3.537,-34.872, 32.932
699341.75262, 3,   0.026, 13.955, -2.431, 4,  -0.004, -0.076,  0.077, 5,   3.552,-34.154, 31.479
699341.77249, 3,  -0.203,  3.202, -0.871, 4,   0.006, -0.078,  0.051, 5,   4.236,-33.427, 32.204
699341.79239, 3,   0.184, 13.479, -3.991, 4,  -0.006, -0.024,  0.070, 5,   3.586,-32.732, 32.927
699341.81225, 3,   0.349, 12.079, -1.421, 4,   0.050, -0.010,  0.081, 5,   4.204,-34.857, 32.933
699341.83212, 3,   0.395,  8.404, -0.416, 4,  -0.025,  0.017,  0.057, 5,   2.904,-33.466, 34.380
699341.85199, 3,   1.156,  9.574, -0.883, 4,  -0.025,  0.070,  0.047, 5,   3.569,-33.441, 31.477
699341.87186, 3,  -0.067,  6.635, -5.949, 4,   0.042,  0.007,  0.019, 5,   3.555,-34.160, 33.658
699341.89169, 3,   0.419, 13.694, -7.918, 4,   0.100,  0.027, -0.041, 5,   3.554,-34.158, 32.930
699341.91156, 3,  -0.151,  7.930, -2.252, 4,   0.157,  0.015, -0.044, 5,   4.219,-34.140, 32.205
699341.93143, 3,  -0.227,  9.368, -0.352, 4,  -0.067,  0.063, -0.010, 5,   2.901,-33.459, 32.201
699341.95129, 3,  -0.089, 12.744, -1.962, 4,  -0.110,  0.055, -0.024, 5,   3.539,-34.874, 33.659
699341.97116, 3,  -0.759,  3.601, -2.137, 4,  -0.024, -0.034, -0.049, 5,   3.539,-34.874, 33.659
699341.99103, 3,  -1.182, 10.923, -5.283, 4,   0.012, -0.089, -0.064, 5,   3.539,-34.874, 33.659
699342.01089, 3,  -0.376, 13.192, -1.936, 4,   0.073, -0.115, -0.041, 5,   4.890,-34.128, 33.661
699342.03076, 3,  -0.412,  8.629,  1.043, 4,  -0.025, -0.150, -0.000, 5,   3.552,-34.155, 32.204
699342.05063, 3,  -0.199,  9.007, -1.467, 4,  -0.063, -0.160, -0.009, 5,   5.573,-33.395, 32.205
699342.07049, 3,  -1.079, 10.265, -4.144, 4,   0.051, -0.251, -0.014, 5,   6.207,-34.808, 32.936
699342.09039, 3,  -1.022, 11.177, -3.951, 4,   0.116, -0.258, -0.027, 5,   6.226,-34.096, 33.662
699342.11026, 3,  -1.137,  8.444, -1.306, 4,   0.088, -0.248, -0.004, 5,   5.542,-34.827, 33.662
699342.13013, 3,  -0.160,  9.490, -1.737, 4,   0.002, -0.255,  0.050, 5,   5.525,-35.541, 34.390
699342.14999, 3,  -0.373, 10.557, -2.424, 4,  -0.005, -0.327,  0.075, 5,   4.189,-35.571, 33.664
699342.16986, 3,  -0.467,  6.319, -2.142, 4,   0.046, -0.353,  0.072, 5,   4.823,-36.980, 32.941
699342.18973, 3,  -1.151,  7.456, -5.657, 4,   0.079, -0.271,  0.084, 5,   4.205,-34.860, 34.386
699342.20956, 3,  -0.014, 17.293, -6.647, 4,   0.166, -0.150,  0.108, 5,   6.857,-35.504, 32.941
699342.22943, 3,  -0.603,  7.633,  1.108, 4,   0.115, -0.048,  0.144, 5,   5.574,-33.398, 32.932
699342.24930, 3,   0.201,  8.504,  0.014, 4,  -0.064,  0.098,  0.143, 5,   2.869,-34.889, 32.930
699342.26916, 3,  -0.438,  6.018, -3.496, 4,   0.002,  0.107,  0.135, 5,   5.525,-35.539, 33.665
699342.28903, 3,  -0.981, 15.577, -6.059, 4,   0.108,  0.101,  0.084, 5,   6.207,-34.808, 32.936
699342.30890, 3,  -0.952, 10.031, -0.682, 4,   0.137,  0.105,  0.048, 5,   4.904,-33.411, 32.205
699342.32876, 3,   0.115,  3.589,  1.598, 4,  -0.008,  0.148,  0.074, 5,   5.591,-32.687, 34.383
699342.34863, 3,  -0.491, 10.438, -5.436, 4,  -0.045,  0.061,  0.073, 5,   4.855,-35.553, 32.938
699342.36853, 3,  -0.357, 11.390, -4.982, 4,   0.094, -0.078,  0.053, 5,   4.207,-34.862, 35.114
699342.38840, 3,  -1.110,  5.228, -2.728, 4,   0.028, -0.105,  0.040, 5,   4.871,-34.837, 32.208
699342.40826, 3,  -0.062, 16.041, -3.723, 4,  -0.049, -0.039,  0.075
699342.42813, 3,   0.172,  9.937,  1.070, 4,  -0.063, -0.054,  0.108, 5,   4.857,-35.555, 33.665
699342.44800, 3,   0.751,  8.523,  0.242, 4,  -0.137, -0.037,  0.102, 5,   5.591,-32.686, 33.658
699342.46786, 3,   0.139,  9.186, -2.254, 4,  -0.049, -0.039,  0.094, 5,   4.175,-36.288, 35.118
699342.48773, 3,  -0.007,  9.021, -4.510, 4,   0.093, -0.022,  0.064, 5,   5.544,-34.830, 35.115
699342.50760, 3,  -0.538, 10.627, -5.125, 4,   0.154,  0.039,  0.029, 5,   4.889,-34.126, 32.933
699342.52743, 3,   0.593,  9.665, -3.199, 4,   0.116,  0.145,  0.028, 5,   4.889,-34.126, 32.933
699342.54730, 3,   0.400,  4.463,  1.831, 4,   0.007,  0.225,  0.041, 5,   3.522,-35.587, 33.662
699342.56717, 3,  -1.438, 16.869, -6.559, 4,  -0.088,  0.289,  0.020, 5,   4.857,-35.556, 34.390
699342.58703, 3,  -0.696,  4.463, -1.991, 4,   0.009,  0.270, -0.037, 5,   4.857,-35.556, 34.390
699342.60690, 3,  -0.502,  9.887, -0.936, 4,  -0.039,  0.180, -0.035, 5,   3.522,-35.588, 34.387
699342.62677, 3,   0.294, 10.988, -0.663, 4,  -0.092,  0.100, -0.019, 5,   3.539,-34.874, 33.659
699342.64667, 3,   0.357,  8.334, -0.658, 4,  -0.067, -0.037, -0.021, 5,   4.875,-34.845, 35.115
699342.66653, 3,   0.538, 10.014, -3.685, 4,   0.007, -0.094, -0.043, 5,   4.205,-34.860, 34.386
699342.68640, 3,  -0.208,  8.406, -4.104, 4,   0.102, -0.130, -0.060, 5,   5.510,-36.255, 34.392
699342.70627, 3,  -0.330, 10.141, -4.652, 4,   0.105, -0.054, -0.080, 5,   5.510,-36.253, 33.667
699342.72613, 3,  -0.742, 10.002, -4.164, 4,   0.068,  0.029, -0.068, 5,   6.877,-34.796, 35.118
699342.74600, 3,  -0.488,  9.229, -1.634, 4,  -0.016,  0.081, -0.054, 5,   6.177,-36.238, 34.393
699342.76587, 3,  -0.591, 10.337,  0.258, 4,  -0.099,  0.077, -0.053, 5,   4.855,-35.553, 32.938
699342.78573, 3,  -0.720,  6.260, -0.725, 4,  -0.115,  0.065, -0.075, 5,   4.189,-35.573, 34.389
699342.80560, 3,  -0.694,  9.806, -4.032, 4,  -0.044,  0.004, -0.077, 5,   5.510,-36.255, 34.392
699342.82547, 3,  -0.412, 13.476, -3.187, 4,   0.071, -0.068, -0.057, 5,   6.195,-35.527, 35.844
699342.84531, 3,  -0.711,  8.564, -0.514, 4,   0.034, -0.097, -0.041, 5,   4.839,-36.264, 32.213
699342.86517, 3,   0.182,  9.571, -1.871, 4,  -0.033, -0.079, -0.054, 5,   5.528,-35.544, 35.843
699342.88504, 3,  -0.179,  8.755, -2.177, 4,  -0.000, -0.108, -0.040, 5,   6.192,-35.524, 34.392
699342.90491, 3,  -0.373,  9.722, -2.206, 4,  -0.008, -0.086, -0.065, 5,   5.493,-36.966, 33.669
699342.92477, 3,  -0.632,  9.602, -2.936, 4,   0.007, -0.070, -0.079, 5,   8.818,-37.604, 36.580
699342.94467, 3,   0.297, 10.134, -4.168, 4,   0.028, -0.068, -0.072, 5,   7.544,-34.779, 34.390
699342.96454, 3,  -0.019,  8.971, -2.962, 4,   0.039, -0.131, -0.077, 5,   5.544,-34.830, 35.115
699342.98440, 3,   0.165, 10.478, -2.175, 4,  -0.004, -0.126, -0.093, 5,   6.876,-34.795, 34.390
699343.00427, 3,   0.112, 10.256, -2.831, 4,  -0.054, -0.108, -0.087, 5,   7.562,-34.067, 35.117
699343.02414, 3,  -1.038,  5.815, -3.027, 4,  -0.026, -0.127, -0.080, 5,   6.827,-36.934, 34.396
699343.04401, 3,  -0.337, 17.946, -3.955, 4,   0.002, -0.200, -0.070, 5,   8.197,-35.478, 35.847
699343.06387, 3,  -0.287,  6.903, -0.292, 4,  -0.011, -0.257, -0.081, 5,   8.849,-36.174, 35.126
699343.08374, 3,  -0.323,  6.219, -2.323, 4,  -0.077, -0.281, -0.064, 5,   7.495,-36.919, 34.396
699343.10361, 3,  -0.290, 10.222, -4.231, 4,  -0.015, -0.357, -0.069, 5,   6.192,-35.524, 34.392
699343.12347, 3,  -0.309, 11.079, -3.872, 4,   0.045, -0.384, -0.061, 5,   7.529,-35.493, 35.121
699343.14334, 3,  -0.699,  8.471, -1.845, 4,   0.008, -0.362, -0.064, 5,   7.495,-36.917, 33.672
699343.16318, 3,  -1.280,  9.801, -3.503, 4,  -0.030, -0.348, -0.040, 5,   9.532,-35.445, 35.126
699343.18304, 3,  -0.696, 12.156, -2.634, 4,  -0.021, -0.380, -0.037, 5,   8.194,-35.474, 33.670
699343.20291, 3,  -0.907,  3.936, -0.534, 4,  -0.054, -0.426, -0.037, 5,   9.531,-35.442, 33.673
699343.22281, 3,  -0.115, 15.003, -3.616, 4,  -0.081, -0.402, -0.000, 5,   8.847,-36.172, 34.398
699343.24267, 3,   0.469, 10.248, -0.617, 4,  -0.016, -0.396,  0.036, 5,   9.531,-35.443, 34.398
699343.26254, 3,   0.555,  7.269, -0.967, 4,  -0.075, -0.367,  0.023, 5,   9.531,-35.442, 33.673
699343.28241, 3,   0.067, 12.751, -4.257, 4,  -0.028, -0.304,  0.014, 5,   9.515,-36.156, 33.675
699343.30228, 3,   0.852,  3.290,  1.847, 4,   0.056, -0.334,  0.020, 5,  10.199,-35.428, 35.126
699343.32214, 3,   0.103, 13.460, -6.138, 4,  -0.049, -0.277,  0.013, 5,   9.528,-35.437, 32.219
699343.34201, 3,  -0.290,  9.500, -4.099, 4,   0.071, -0.224, -0.013, 5,   9.531,-35.443, 34.398
699343.36188, 3,  -0.960,  7.080, -1.881, 4,   0.029, -0.294,  0.008, 5,  11.517,-36.105, 32.950
699343.38174, 3,  -1.022, 13.201, -3.484, 4,  -0.054, -0.290,  0.011, 5,   8.846,-36.169, 32.945
699343.40161, 3,  -0.450,  2.819, -1.500, 4,  -0.024, -0.402,  0.007, 5,   9.499,-36.868, 33.676
699343.42148, 3,  -1.189, 10.392, -4.365, 4,  -0.041, -0.484,  0.015, 5,  10.849,-36.121, 32.948
699343.44134, 3,  -0.244, 15.860, -2.687, 4,   0.017, -0.524,  0.059, 5,  11.566,-33.965, 32.944
699343.46121, 3,  -0.759,  6.528,  1.507, 4,  -0.027, -0.568,  0.102, 5,  11.531,-35.388, 32.222
699343.48105, 3,   0.084,  9.117, -2.051, 4,  -0.055, -0.524,  0.099, 5,  11.534,-35.393, 33.676
699343.50030, 3,  -0.459, 11.084, -4.896, 4,   0.077, -0.549,  0.130, 5,  12.184,-36.092, 34.402
699343.52081, 3,   0.589, 10.174, -2.307, 4,   0.134, -0.512,  0.112, 5,  11.531,-35.387, 31.497
699343.54068, 3,  -0.105,  8.707, -1.077, 4,   0.080, -0.409,  0.111, 5,  12.230,-33.945, 32.217
699343.56055, 3,   0.349,  7.844, -2.931, 4,   0.053, -0.259,  0.157, 5,  14.200,-35.323, 32.227
699343.58041, 3,  -0.735, 12.443, -4.022, 4,   0.095, -0.244,  0.145, 5,  12.868,-35.362, 34.402
699343.60028, 3,  -1.421,  6.635, -1.950, 4,   0.105, -0.292,  0.112, 5,  12.184,-36.090, 33.678
699343.62015, 3,  -1.328,  8.174, -3.606, 4,   0.027, -0.386,  0.124, 5,  11.519,-36.108, 34.402
699343.64001, 3,   1.285, 16.140, -1.960, 4,   0.044, -0.511,  0.172, 5,  13.522,-36.061, 35.133
699343.65988, 3,  -0.062,  7.037,  1.271, 4,   0.006, -0.602,  0.220, 5,  14.873,-35.315, 35.133
699343.67975, 3,   1.192,  8.581, -1.369, 4,  -0.022, -0.558,  0.199, 5,  12.184,-36.090, 33.678
699343.69961, 3,  -0.823, 10.516, -4.053, 4,   0.107, -0.524,  0.220, 5,  13.553,-34.633, 34.401
699343.71948, 3,  -0.711, 10.160, -4.482, 4,   0.181, -0.437,  0.188, 5,  12.849,-36.070, 32.225
699343.73935, 3,  -0.806,  7.317, -2.209, 4,   0.161, -0.362,  0.184, 5,  12.215,-34.662, 32.945
699343.75922, 3,   0.378,  9.478, -3.139, 4,   0.097, -0.226,  0.238, 5,  14.220,-34.616, 34.402
699343.77908, 3,  -1.182, 10.873, -3.570, 4,   0.062, -0.143,  0.251, 5,  12.215,-34.662, 32.945
699343.79898, 3,  -0.605,  8.566, -2.335, 4,   0.061, -0.059,  0.226, 5,  13.553,-34.631, 33.676
699343.81882, 3,  -0.845,  7.379, -2.819, 4,   0.029, -0.001,  0.228, 5,  12.184,-36.090, 33.678
699343.83868, 3,   0.069, 14.891, -2.144, 4,   0.057,  0.016,  0.240, 5,  11.534,-35.394, 34.401
699343.85855, 3,  -0.546,  8.341,  1.524, 4,   0.039, -0.009,  0.263, 5,  11.551,-34.680, 33.673
699343.87842, 3,  -0.306,  9.669, -1.761, 4,   0.012, -0.009,  0.248, 5,  12.180,-36.082, 30.771
699343.89828, 3,  -0.768,  9.284, -3.534, 4,   0.140, -0.100,  0.234, 5,  11.534,-35.394, 34.401
699343.91815, 3,  -1.464,  8.310, -1.692, 4,   0.183, -0.132,  0.221, 5,  13.524,-36.063, 35.858
699343.93802, 3,  -1.558,  8.155, -3.264, 4,   0.138, -0.114,  0.215, 5,  10.182,-36.139, 33.675
699343.95788, 3,   0.995, 13.007, -3.704, 4,   0.112, -0.083,  0.256, 5,  12.201,-35.379, 35.129
699343.97775, 3,  -0.242,  7.935, -1.429, 4,   0.071, -0.078,  0.282, 5,  11.548,-34.676, 32.219
699343.99762, 3,  -0.505, 10.136, -1.685, 4,  -0.014,  0.013,  0.274, 5,   9.496,-36.862, 31.497
699344.01749, 3,  -0.581,  5.585, -2.958, 4,   0.014,  0.043,  0.240, 5,  12.885,-34.648, 33.675
699344.03735, 3,  -0.048, 14.508, -5.652, 4,   0.082,  0.061,  0.226, 5,   9.496,-36.864, 32.222
699344.05722, 3,   0.536, 10.421, -0.519, 4,   0.096,  0.107,  0.226, 5,  10.866,-35.410, 34.399
699344.07712, 3,   0.153,  6.757,  0.258, 4,  -0.008,  0.211,  0.239, 5,  10.213,-34.711, 32.942
699344.09698, 3,   0.258, 10.571, -4.506, 4,  -0.009,  0.276,  0.227, 5,  10.214,-34.712, 33.670
699344.11685, 3,  -0.196, 10.272, -3.805, 4,   0.104,  0.244,  0.183, 5,   8.862,-35.458, 34.396
699344.13672, 3,  -0.914,  8.255, -2.914, 4,   0.086,  0.282,  0.151, 5,   9.480,-37.581, 32.950
699344.15655, 3,  -0.218, 10.301, -3.237, 4,   0.041,  0.336,  0.145, 5,   8.847,-36.171, 33.673
699344.17642, 3,  -1.225,  8.722, -1.644, 4,   0.019,  0.358,  0.150, 5,   8.881,-34.747, 35.121
699344.19629, 3,  -0.852, 11.464, -0.620, 4,  -0.034,  0.337,  0.150, 5,   9.515,-36.157, 34.399
699344.21615, 3,  -0.881,  3.436,  1.754, 4,  -0.060,  0.311,  0.123, 5,   7.561,-34.064, 33.664
699344.23602, 3,  -1.072, 10.387, -6.190, 4,  -0.014,  0.275,  0.133, 5,   8.192,-35.472, 32.942
699344.25589, 3,  -0.024, 16.408, -4.566, 4,   0.130,  0.224,  0.139, 5,   6.909,-33.368, 34.387
699344.27576, 3,  -0.720,  5.678,  2.512, 4,   0.086,  0.224,  0.139, 5,   8.897,-34.033, 35.120
699344.29562, 3,   0.177,  7.920, -1.199, 4,  -0.093,  0.305,  0.166, 5,   7.564,-34.068, 35.841
699344.31549, 3,   0.605,  9.741, -5.413, 4,   0.016,  0.236,  0.140, 5,   7.564,-34.068, 35.841
699344.33536, 3,  -0.574,  9.007, -4.855, 4,   0.121,  0.238,  0.090, 5,   6.876,-34.795, 34.390
699344.35522, 3,  -0.223,  9.595, -3.199, 4,   0.091,  0.315,  0.083, 5,   6.192,-35.522, 33.667
699344.37512, 3,   0.313, 11.124, -1.165, 4,   0.012,  0.392,  0.088, 5,   6.859,-35.506, 33.669
699344.39499, 3,  -0.340,  9.454,  0.014, 4,  -0.031,  0.397,  0.073, 5,   5.525,-35.541, 34.390
699344.41485, 3,   0.443,  8.131, -1.223, 4,  -0.013,  0.419,  0.030, 5,   4.874,-34.843, 34.387
699344.43472, 3,  -0.596,  6.300, -4.034, 4,   0.045,  0.432, -0.005, 5,   4.190,-35.574, 35.117
699344.45459, 3,  -0.620, 17.776, -7.676, 4,   0.150,  0.430, -0.004, 5,   4.190,-35.574, 35.117
699344.47443, 3,  -0.586,  8.961, -1.180, 4,   0.159,  0.430, -0.031, 5,   4.190,-35.574, 35.117
699344.49429, 3,  -1.129,  9.193, -0.390, 4,  -0.008,  0.465, -0.026, 5,   4.190,-35.574, 35.117
699344.51416, 3,  -1.027,  8.844, -1.050, 4,  -0.022,  0.349, -0.035, 5,   5.559,-34.114, 34.386
699344.53403, 3,   0.146,  9.586, -3.494, 4,   0.003,  0.202, -0.072, 5,   4.190,-35.574, 35.117
699344.55389, 3,  -1.223,  9.413, -3.197, 4,   0.102,  0.138, -0.054, 5,   4.861,-35.561, 36.569
699344.57376, 3,  -0.211, 10.375, -2.388, 4,   0.102,  0.161, -0.033, 5,   4.892,-34.131, 35.114
699344.59363, 3,   0.167,  9.258, -1.417, 4,   0.039,  0.133, -0.038, 5,   4.207,-34.862, 35.114
699344.61349, 3,  -1.000, 10.543, -1.938, 4,   0.023,  0.139, -0.036, 5,   4.208,-34.863, 35.838
699344.63336, 3,  -0.912,  6.221, -3.261, 4,   0.038,  0.173, -0.042, 5,   5.577,-33.403, 35.112
699344.65326, 3,  -0.424, 17.850, -6.733, 4,   0.089,  0.184, -0.027, 5,   3.540,-34.877, 35.112
699344.67312, 3,  -0.364,  9.930,  0.469, 4,   0.106,  0.193, -0.019, 5,   4.893,-34.132, 35.838
699344.69299, 3,   0.340, 10.019,  0.785, 4,  -0.055,  0.241, -0.004, 5,   4.909,-33.418, 35.112
699344.71286, 3,   0.684,  8.040, -0.285, 4,  -0.042,  0.193, -0.005, 5,   3.522,-35.588, 34.387
699344.73273, 3,  -0.237,  7.903, -3.852, 4,   0.066,  0.127, -0.046, 5,   4.892,-34.131, 35.114
699344.75259, 3,  -0.160,  9.689, -5.850, 4,   0.178,  0.150, -0.058, 5,   4.208,-34.863, 35.838
699344.77246, 3,  -1.120,  4.539, -5.226, 4,   0.206,  0.224, -0.047, 5,   3.558,-34.164, 35.835
699344.79230, 3,   0.376, 19.291, -6.456, 4,   0.119,  0.275, -0.052, 5,   3.589,-32.736, 35.107
699344.81216, 3,   0.141,  9.514,  0.909, 4,   0.008,  0.265, -0.068, 5,   3.574,-33.450, 35.109
699344.83203, 3,  -0.151, -2.826,  0.457, 4,  -0.166,  0.341, -0.063, 5,   4.276,-32.013, 37.285
699344.85190, 3,  -0.380, 20.303, -8.093, 4,  -0.074,  0.255, -0.088, 5,   2.237,-33.484, 35.107
699344.87176, 3,   1.292, 11.773, -0.124, 4,   0.127,  0.153, -0.091, 5,   2.908,-33.470, 36.559
699344.89163, 3,  -0.321,  3.826,  1.737, 4,  -0.027,  0.199, -0.038, 5,   2.919,-32.751, 34.378
699344.91150, 3,   0.069, 12.057, -4.451, 4,  -0.039,  0.140, -0.043, 5,   3.557,-34.163, 35.110
699344.93136, 3,   0.258,  8.497, -4.245, 4,   0.111, -0.024, -0.115, 5,   4.254,-32.719, 34.381
699344.95126, 3,   0.098,  9.404, -4.510, 4,   0.080, -0.015, -0.093, 5,   3.592,-32.739, 36.559
699344.97113, 3,  -0.464,  9.954, -3.594, 4,   0.014,  0.056, -0.044, 5,   5.627,-31.264, 35.831
699344.99100, 3,  -0.550, 10.191, -1.606, 4,  -0.060,  0.063, -0.038, 5,   3.621,-31.308, 34.375
699345.01086, 3,  -0.110, 10.571,  0.514, 4,  -0.143,  0.005, -0.019, 5,   2.267,-32.054, 33.652
699345.03073, 3,   0.412,  5.850,  1.149, 4,  -0.148, -0.029, -0.013, 5,   2.904,-33.466, 34.380
699345.05060, 3,  -0.100,  7.394, -1.228, 4,  -0.069, -0.057,  0.003, 5,   4.254,-32.719, 34.381
699345.07046, 3,   1.151, 18.513, -7.545, 4,   0.064, -0.062,  0.012, 5,   4.274,-32.010, 35.832
699345.09034, 3,   0.304,  5.858,  0.864, 4,   0.181, -0.033,  0.008, 5,   3.625,-31.313, 36.554
699345.11021, 3,   0.096,  6.152, -1.957, 4,   0.050,  0.118,  0.050, 5,   3.653,-29.881, 34.372
699345.13004, 3,   1.184, 13.072, -7.956, 4,   0.056,  0.143, -0.004, 5,   2.235,-33.481, 33.655
699345.14991, 3,  -0.335,  7.513, -3.616, 4,   0.172,  0.198, -0.048, 5,   2.269,-32.057, 35.104
699345.16978, 3,  -0.122,  8.827, -1.909, 4,   0.066,  0.360, -0.019, 5,   2.887,-34.178, 34.381
699345.18965, 3,   0.651, 13.350, -2.350, 4,  -0.031,  0.395, -0.040, 5,   2.219,-34.195, 34.381
699345.20951, 3,   0.258, 10.756,  0.022, 4,  -0.006,  0.300, -0.061, 5,   2.905,-33.467, 35.107
699345.22941, 3,   0.625,  4.283,  0.854, 4,   0.007,  0.272, -0.077, 5,   2.917,-32.748, 32.925
699345.24928, 3,  -1.158,  8.294, -5.434, 4,   0.078,  0.270, -0.110, 5,   2.286,-31.343, 35.101
699345.26914, 3,  -0.763, 15.295, -7.528, 4,   0.237,  0.259, -0.112, 5,   2.251,-32.768, 34.378
699345.28901, 3,  -1.153,  7.930, -1.955, 4,   0.222,  0.292, -0.085, 5,   1.601,-32.071, 34.375
699345.30888, 3,  -0.957, 10.382, -3.099, 4,   0.051,  0.338, -0.069, 5,   1.585,-32.785, 35.104
699345.32874, 3,  -1.771,  8.978, -2.802, 4,   0.034,  0.291, -0.077, 5,   1.602,-32.072, 35.103
699345.34861, 3,  -0.742, 10.686, -3.142, 4,   0.019,  0.237, -0.094, 5,   1.602,-32.072, 35.103
699345.36848, 3,  -1.606, 10.153, -0.634, 4,   0.013,  0.232, -0.069, 5,   0.903,-33.516, 35.104
699345.38835, 3,  -0.239,  8.849, -1.754, 4,   0.003,  0.282, -0.031, 5,   0.917,-32.800, 34.375
699345.40821, 3,  -0.206,  8.705, -4.274, 4,   0.046,  0.269, -0.043, 5,   0.934,-32.088, 34.373
699345.42808, 3,  -1.172, 13.306, -4.018, 4,   0.130,  0.256, -0.063, 5,   0.885,-34.227, 34.378
699345.44792, 3,  -0.120,  3.680, -2.902, 4,   0.094,  0.304, -0.063, 5,   1.584,-32.784, 34.377
699345.46778, 3,  -0.294, 15.771, -6.059, 4,   0.030,  0.326, -0.043, 5,   2.252,-32.770, 35.106
699345.48765, 3,  -0.244,  9.322, -0.361, 4,   0.024,  0.308, -0.041, 5,   1.620,-31.360, 35.825
699345.50755, 3,   0.124,  8.703,  2.304, 4,  -0.109,  0.327, -0.033, 5,  -0.418,-32.831, 33.649
699345.52741, 3,   0.775,  8.925, -0.881, 4,  -0.125,  0.260, -0.035, 5,  -1.086,-32.849, 34.372
699345.54728, 3,   0.696,  8.542, -3.730, 4,   0.008,  0.131, -0.087, 5,  -0.400,-32.121, 35.100
699345.56715, 3,   1.290, 10.509, -5.484, 4,   0.108,  0.084, -0.114, 5,   0.868,-34.940, 33.655
699345.58702, 3,   0.424,  8.200, -2.879, 4,   0.106,  0.094, -0.108, 5,  -0.417,-32.834, 35.101
699345.60688, 3,  -0.108,  7.896, -3.360, 4,   0.008,  0.129, -0.105, 5,   0.220,-34.247, 35.831
699345.62675, 3,   0.074,  6.226, -4.525, 4,  -0.050,  0.089, -0.110, 5,   0.269,-32.108, 35.826
699345.64662, 3,  -0.402, 20.523, -5.149, 4,  -0.053,  0.028, -0.131, 5,   0.267,-32.106, 35.101
699345.66648, 3,   0.199,  5.118,  2.352, 4,  -0.096, -0.016, -0.109, 5,  -0.432,-33.548, 35.103
699345.68635, 3,  -0.598,  5.252,  1.158, 4,  -0.250,  0.037, -0.057
699345.70622, 3,   0.428, 12.395, -4.185, 4,  -0.118, -0.055, -0.104, 5,   0.934,-32.086, 33.649
699345.72608, 3,   1.161, 10.074, -3.053, 4,   0.080, -0.213, -0.121, 5,   0.233,-33.531, 34.377
699345.74595, 3,   0.287,  7.030, -2.922, 4,   0.057, -0.211, -0.071, 5,   0.890,-34.232, 36.557
699345.76579, 3,  -0.014, 10.148, -4.599, 4,   0.039, -0.147, -0.081, 5,   2.870,-34.892, 34.383
699345.78565, 3,  -1.350, 11.464, -3.948, 4,   0.028, -0.094, -0.107, 5,   1.537,-34.926, 35.109
699345.80555, 3,   0.091,  8.353, -0.282, 4,  -0.025, -0.042, -0.083, 5,   0.233,-33.530, 33.652
699345.82542, 3,  -0.572,  7.791, -1.608, 4,  -0.102, -0.045, -0.030, 5,   0.867,-34.938, 32.927
699345.84529, 3,  -0.361, 15.226, -2.800, 4,  -0.074, -0.125, -0.035, 5,   1.569,-33.498, 34.378
699345.86515, 3,  -0.057,  3.314, -1.670, 4,  -0.002, -0.197, -0.053, 5,   1.569,-33.496, 33.653
699345.88502, 3,   0.129, 13.393, -4.386, 4,   0.005, -0.147, -0.007, 5,   0.902,-33.513, 33.652
699345.90489, 3,   0.658, 12.270, -1.029, 4,   0.050, -0.138,  0.012, 5,   0.233,-33.531, 34.377
699345.92475, 3,   0.100,  6.547, -2.840, 4,  -0.031, -0.075,  0.008, 5,   0.168,-36.383, 33.659
699345.94462, 3,   0.450, 14.182, -3.855, 4,  -0.003,  0.035,  0.030, 5,   0.217,-34.244, 34.378
699345.96449, 3,  -1.218,  4.941, -0.598, 4,   0.121, -0.033,  0.003, 5,   0.851,-35.654, 34.383
699345.98435, 3,  -0.041, 10.095, -2.792, 4,  -0.085,  0.054, -0.009, 5,   2.217,-34.192, 32.928
699346.00422, 3,  -0.562, 10.868, -5.085, 4,  -0.003,  0.084, -0.018, 5,   1.584,-32.782, 33.652
699346.02409, 3,   0.124,  8.916, -2.175, 4,   0.045,  0.085,  0.006, 5,   0.217,-34.242, 33.653
699346.04395, 3,  -0.735,  7.554, -1.409, 4,   0.001,  0.081,  0.002, 5,   0.885,-34.227, 34.378
699346.06382, 3,  -0.203, 12.105, -2.989, 4,  -0.022,  0.050, -0.021, 5,   0.835,-36.365, 32.932
699346.08369, 3,  -0.526,  6.030, -1.874, 4,  -0.006, -0.001, -0.010, 5,   4.846,-36.275, 36.571
699346.10356, 3,   0.163, 13.405, -3.951, 4,   0.005, -0.027,  0.028, 5,   4.811,-37.700, 35.847
699346.12342, 3,  -0.567, 10.174, -1.620, 4,   0.018, -0.090,  0.017, 5,   0.217,-34.244, 34.378
699346.14329, 3,   0.407,  9.232, -1.232, 4,  -0.034, -0.061,  0.026, 5,   0.851,-35.652, 33.658
699346.16316, 3,   0.211,  8.554, -1.397, 4,  -0.016, -0.066,  0.073, 5,   2.184,-35.619, 32.933
699346.18302, 3,   0.196,  9.923, -3.099, 4,   0.018, -0.090,  0.047, 5,   0.186,-35.674, 35.835
699346.20289, 3,   0.007, 11.454, -4.542, 4,   0.080, -0.082,  0.011, 5,   0.870,-34.943, 35.107
699346.22276, 3,  -0.431,  8.138, -2.378, 4,   0.091,  0.004,  0.042, 5,   0.868,-34.941, 34.380
699346.24262, 3,  -0.409,  7.954, -4.240, 4,   0.053,  0.096,  0.064, 5,   0.217,-34.242, 33.653
699346.26249, 3,   0.294, 10.387, -2.725, 4,   0.061,  0.125,  0.050, 5,   0.905,-33.517, 35.829
699346.28236, 3,   0.144,  5.245, -2.149, 4,   0.044,  0.176,  0.037, 5,   0.200,-34.958, 34.380
699346.30223, 3,  -1.050, 11.746, -5.760, 4,   0.035,  0.267,  0.051, 5,   0.217,-34.242, 33.653
699346.32209, 3,  -0.333, 12.634, -2.902, 4,   0.104,  0.298,  0.047, 5,   0.887,-34.229, 35.106
699346.34196, 3,  -0.943,  7.815, -0.134, 4,   0.019,  0.341,  0.048, 5,  -1.820,-35.718, 34.378
699346.36183, 3,  -0.390, 10.770, -1.481, 4,  -0.022,  0.351,  0.062, 5,  -0.464,-34.976, 35.831
699346.38172, 3,  -0.924,  7.624, -1.874, 4,   0.052,  0.276,  0.039, 5,   0.888,-34.230, 35.831
699346.40159, 3,  -1.005,  9.382, -3.374, 4,   0.078,  0.224, -0.003, 5,  -1.118,-34.276, 34.375
699346.42143, 3,  -0.625, 11.533, -5.042, 4,   0.133,  0.178,  0.002, 5,  -1.131,-34.995, 36.555
699346.44129, 3,  -0.318,  9.925, -2.299, 4,   0.144,  0.202,  0.028, 5,  -0.467,-34.973, 34.378
699346.46116, 3,  -1.254,  7.956, -2.467, 4,   0.058,  0.227,  0.040, 5,  -1.819,-35.719, 35.106
699346.48103, 3,   0.242, 12.881, -1.436, 4,   0.014,  0.226,  0.012, 5,  -1.151,-35.704, 35.107
699346.50028, 3,  -0.589,  6.403, -0.751, 4,  -0.009,  0.252,  0.031, 5,  -1.151,-35.704, 35.107
699346.52076, 3,  -0.256, 16.286, -4.353, 4,  -0.000,  0.314,  0.059, 5,  -2.484,-35.738, 35.831
699346.54063, 3,  -0.294,  7.674, -0.187, 4,   0.086,  0.305,  0.028, 5,  -2.466,-35.027, 36.554
699346.56050, 3,   0.488,  7.018, -3.242, 4,   0.056,  0.387,  0.036, 5,  -1.784,-34.294, 35.826
699346.58036, 3,   0.849,  9.641, -4.508, 4,   0.110,  0.406,  0.007, 5,  -2.454,-34.308, 34.373
699346.60023, 3,  -0.141,  8.952, -3.788, 4,   0.133,  0.452, -0.044, 5,  -1.131,-34.995, 36.555
699346.62010, 3,  -0.909, 25.945, -1.589, 4,   0.069,  0.536, -0.060, 5,  -3.821,-35.770, 35.828
699346.63996, 3,   0.368, -2.960,  4.625, 4,   0.014,  0.607, -0.046, 5,  -3.120,-34.326, 35.100
699346.65986, 3,  -0.376, -0.706, -5.286, 4,  -0.052,  0.563, -0.041, 5,  -5.157,-35.800, 34.373
699346.67973, 3,   0.237, 18.169,-13.046, 4,   0.216,  0.275, -0.145, 5,  -3.821,-35.770, 35.828
699346.69959, 3,   0.467,  3.642, -6.296, 4,   0.325,  0.214, -0.179, 5,  -4.488,-35.785, 35.103
699346.71946, 3,  -0.562,  8.629, -3.429, 4,   0.058,  0.355, -0.091, 5,  -4.437,-33.646, 35.097
699346.73930, 3,  -1.062, 14.144, -0.955, 4,  -0.126,  0.390, -0.098, 5,  -4.439,-33.644, 34.369
699346.75916, 3,  -1.503,  8.645,  2.070, 4,  -0.201,  0.318, -0.154, 5,  -3.104,-33.614, 35.098
699346.77903, 3,  -0.313,  9.957, -1.084, 4,  -0.182,  0.256, -0.105, 5,  -3.819,-35.771, 36.554
699346.79890, 3,  -0.160,  8.882, -2.778, 4,  -0.056, -0.006, -0.109, 5,  -3.807,-35.054, 34.372
699346.81877, 3,   0.656,  8.652, -1.517, 4,   0.024, -0.076, -0.137, 5,  -3.154,-35.753, 35.104
699346.83863, 3,   0.742, 10.761, -2.218, 4,   0.024, -0.083, -0.118, 5,  -4.489,-35.783, 34.375
699346.85850, 3,   0.065, 10.973, -2.029, 4,   0.028,  0.056, -0.093, 5,  -4.472,-35.071, 34.372
699346.87837, 3,  -0.871,  8.258, -2.544, 4,   0.022,  0.221, -0.097, 5,  -4.486,-35.786, 35.828
699346.89823, 3,  -0.881, 16.030,-10.055, 4,   0.023,  0.320, -0.142, 5,  -4.486,-35.786, 35.828
699346.91810, 3,   0.550,  9.894, -0.921, 4,   0.036,  0.321, -0.158, 5,  -4.486,-35.786, 35.828
699346.93800, 3,   0.223,  6.731,  5.975, 4,  -0.174,  0.346, -0.121, 5,  -3.151,-35.756, 36.555
699346.95786, 3,   0.139, 13.476,  0.998, 4,  -0.390,  0.360, -0.123, 5,  -4.489,-35.783, 34.375
699346.97773, 3,   1.273,  9.009, -2.694, 4,  -0.131,  0.325, -0.141, 5,  -4.518,-37.213, 35.831
699346.99760, 3,   0.622,  7.827, -4.752, 4,   0.110,  0.140, -0.165, 5,  -3.854,-37.195, 35.106
699347.01747, 3,   0.433,  9.184, -6.530, 4,   0.211,  0.051, -0.235, 5,  -3.804,-35.057, 35.825
699347.03730, 3,   0.692,  9.622, -5.647, 4,   0.174,  0.060, -0.280, 5,  -5.190,-37.227, 34.377
699347.05717, 3,  -0.672,  8.418, -3.553, 4,   0.064,  0.164, -0.253, 5,  -3.851,-37.198, 36.557
699347.07704, 3,  -0.680,  9.641, -2.156, 4,  -0.074,  0.225, -0.248, 5,  -5.153,-35.805, 36.552
699347.09690, 3,  -0.380,  7.600, -2.386, 4,  -0.114,  0.139, -0.256, 5,  -2.434,-33.598, 35.825
699347.11677, 3,  -1.070, 12.330, -3.427, 4,  -0.076,  0.037, -0.274, 5,  -2.484,-35.738, 35.831
699347.13664, 3,  -0.297,  5.829, -3.159, 4,  -0.011, -0.086, -0.290, 5,  -1.802,-35.007, 35.103
699347.15650, 3,   0.529, 13.713, -4.443, 4,   0.027, -0.200, -0.263, 5,  -3.139,-35.039, 34.373
699347.17637, 3,   0.663, 10.136, -1.022, 4,   0.024, -0.338, -0.242, 5,  -2.483,-35.739, 36.557
699347.19624, 3,   0.428,  9.638, -1.213, 4,  -0.069, -0.346, -0.230, 5,  -1.163,-36.421, 36.560
699347.21610, 3,  -0.053,  9.251, -3.135, 4,  -0.036, -0.338, -0.212, 5,  -0.497,-36.401, 35.110
699347.23600, 3,  -0.165,  9.172, -3.068, 4,   0.001, -0.406, -0.218, 5,  -0.481,-35.689, 35.834
699347.25587, 3,   0.436, 11.978, -3.857, 4,   0.003, -0.419, -0.217, 5,   0.838,-36.369, 35.112
699347.27574, 3,   0.897,  8.085, -1.366, 4,  -0.016, -0.414, -0.182, 5,  -0.496,-36.403, 35.835
699347.29560, 3,   0.292,  9.488, -3.020, 4,  -0.070, -0.390, -0.157, 5,  -0.496,-36.403, 35.835
699347.31547, 3,   0.558, 10.033, -3.438, 4,  -0.016, -0.340, -0.163, 5,   0.824,-37.085, 36.565
699347.33534, 3,   0.074,  6.657, -2.630, 4,   0.006, -0.263, -0.179, 5,   2.136,-37.762, 34.390
699347.35520, 3,  -1.196,  7.779, -5.578, 4,  -0.013, -0.176, -0.184, 5,   1.521,-35.640, 35.837
699347.37507, 3,   0.258, 15.644, -2.807, 4,   0.011, -0.159, -0.169, 5,   2.171,-36.337, 35.115
699347.39491, 3,  -0.584,  8.014,  1.216, 4,  -0.067, -0.270, -0.146, 5,   1.503,-36.351, 34.386
699347.41477, 3,  -0.742,  8.396, -2.381, 4,  -0.157, -0.269, -0.152, 5,   1.552,-34.210, 34.380
699347.43464, 3,  -0.263,  9.411, -2.678, 4,  -0.032, -0.358, -0.146, 5,   3.474,-37.730, 35.120
699347.45451, 3,  -0.562,  8.774, -3.010, 4,   0.018, -0.593, -0.143, 5,   3.490,-37.013, 33.665
699347.47437, 3,   0.017, 10.765, -4.300, 4,   0.012, -0.728, -0.130, 5,   4.225,-34.149, 35.837
699347.49424, 3,   0.093,  9.330, -2.558, 4,   0.011, -0.881, -0.087, 5,   5.542,-34.827, 33.662
699347.51414, 3,   0.084,  8.712, -2.563, 4,  -0.038, -0.965, -0.044, 5,   4.143,-37.717, 35.846
699347.53401, 3,   1.608, 12.055, -3.309, 4,  -0.067, -0.997, -0.016, 5,   5.542,-34.827, 33.662
699347.55387, 3,   0.926,  5.831, -1.881, 4,  -0.041, -0.952, -0.010, 5,   5.492,-36.964, 32.941
699347.57374, 3,  -0.756, 10.160, -4.649, 4,  -0.042, -0.833, -0.011, 5,   6.827,-36.934, 34.396
699347.59361, 3,   2.553, 16.262, -1.740, 4,   0.018, -0.655, -0.000, 5,   8.145,-37.616, 34.399
699347.61347, 3,   0.388,  6.171,  1.689, 4,  -0.038, -0.612,  0.047, 5,   7.494,-36.916, 32.944
699347.63334, 3,   0.203,  8.432, -2.479, 4,  -0.078, -0.348,  0.007, 5,   8.145,-37.616, 34.399
699347.65321, 3,  -0.747, 11.579, -4.520, 4,   0.063, -0.305, -0.016, 5,   7.478,-37.631, 33.673
699347.67307, 3,  -1.065,  9.299, -3.285, 4,   0.117, -0.445, -0.066, 5,   8.145,-37.614, 33.675
699347.69294, 3,  -1.953,  6.765, -3.309, 4,   0.067, -0.466, -0.081, 5,   8.829,-36.882, 32.947
699347.71281, 3,  -1.823,  8.392, -4.714, 4,   0.030, -0.508, -0.032, 5,   8.177,-36.186, 32.944
699347.73265, 3,  -2.130, 10.112, -3.391, 4,   0.014, -0.648,  0.014, 5,  10.165,-36.852, 33.676
699347.75251, 3,  -1.986, 13.515, -0.598, 4,  -0.069, -0.776,  0.046, 5,  10.181,-36.137, 32.947
699347.77238, 3,  -1.953,  3.742,  0.354, 4,  -0.120, -0.866,  0.085, 5,   9.496,-36.864, 32.222
699347.79225, 3,  -1.850, 12.739, -4.542, 4,  -0.059, -0.908,  0.128, 5,  10.165,-36.853, 34.401
699347.81214, 3,   0.342, 13.424, -1.637, 4,   0.101, -0.948,  0.180, 5,  11.484,-37.532, 32.953
699347.83201, 3,   0.404,  6.374,  0.687, 4,   0.068, -0.965,  0.223, 5,  12.146,-37.509, 30.774
699347.85188, 3,  -0.436,  8.021, -2.931, 4,   0.058, -0.767,  0.260, 5,  11.484,-37.532, 32.953
699347.87174, 3,   1.007, 11.861, -5.762, 4,   0.166, -0.688,  0.285, 5,  10.814,-37.544, 32.225
699347.89161, 3,   0.519,  8.980, -2.991, 4,   0.190, -0.655,  0.260, 5,  11.548,-34.676, 32.219
699347.91148, 3,   0.234,  9.382, -3.216, 4,   0.090, -0.544,  0.265, 5,  10.815,-37.547, 32.951
699347.93134, 3,   1.680, 12.467, -3.611, 4,   0.046, -0.403,  0.293, 5,  12.166,-36.801, 32.951
699347.95121, 3,   0.124, 10.665, -0.715, 4,   0.012, -0.406,  0.287, 5,  11.497,-36.812, 30.772
699347.97108, 3,   1.799,  8.968,  0.172, 4,  -0.053, -0.369,  0.252, 5,  12.198,-35.374, 32.948
699347.99095, 3,  -0.778,  5.559, -2.010, 4,  -0.049, -0.341,  0.229, 5,  12.132,-38.223, 32.228
699348.01081, 3,   0.742, 15.836, -4.747, 4,   0.066, -0.287,  0.209, 5,  12.134,-38.226, 32.954
699348.03068, 3,  -0.816,  8.593, -3.496, 4,   0.149, -0.385,  0.211, 5,  11.470,-38.245, 33.682
699348.05052, 3,   0.562,  8.530, -2.972, 4,   0.084, -0.337,  0.190, 5,  11.499,-36.813, 31.500
699348.07038, 3,   1.156,  9.291, -2.713, 4,   0.061, -0.248,  0.209, 5,  11.516,-36.102, 32.224
699348.09028, 3,  -0.940,  9.263, -2.675, 4,   0.014, -0.177,  0.209, 5,  11.467,-38.240, 32.228
699348.11015, 3,  -0.651, 10.521, -2.704, 4,   0.006, -0.094,  0.161, 5,  12.167,-36.804, 34.404
699348.13001, 3,  -0.957,  7.834, -1.960, 4,   0.019, -0.152,  0.152, 5,  11.432,-39.664, 30.780
699348.14988, 3,  -1.933, 11.170, -2.343, 4,   0.024, -0.240,  0.173, 5,  12.164,-36.797, 31.500
699348.16975, 3,  -0.234, 12.670, -1.773, 4,   0.055, -0.390,  0.189, 5,  10.133,-38.278, 34.404
699348.18962, 3,  -0.818,  6.386,  1.256, 4,   0.050, -0.461,  0.198, 5,  11.469,-38.243, 32.954
699348.20948, 3,  -1.680,  7.973, -2.946, 4,   0.030, -0.444,  0.213, 5,  11.481,-37.526, 30.774
699348.22935, 3,   0.785, 17.860, -3.919, 4,   0.151, -0.408,  0.233, 5,  11.482,-37.527, 31.502
699348.24922, 3,  -1.409,  4.750,  0.069, 4,   0.187, -0.406,  0.283, 5,  10.114,-38.986, 32.227
699348.26908, 3,   0.194,  8.449, -4.235, 4,   0.105, -0.277,  0.248, 5,  11.516,-36.101, 31.499
699348.28895, 3,  -0.842, 10.421, -4.166, 4,   0.199, -0.213,  0.271, 5,   9.450,-39.008, 33.681
699348.30882, 3,  -1.177,  7.829, -1.850, 4,   0.182, -0.148,  0.271, 5,  10.802,-38.261, 34.406
699348.32868, 3,  -1.469,  9.686, -4.532, 4,   0.105, -0.034,  0.249, 5,  12.199,-35.376, 33.676
699348.34855, 3,  -0.814, 10.770, -4.350, 4,   0.157,  0.038,  0.256, 5,  10.817,-37.549, 33.679
699348.36845, 3,  -0.175,  8.140, -1.754, 4,   0.146,  0.054,  0.273, 5,  10.147,-37.564, 32.950
699348.38828, 3,  -0.579, 13.385, -1.792, 4,   0.060,  0.096,  0.261, 5,   8.778,-39.018, 32.225
699348.40815, 3,  -1.153,  3.663, -0.723, 4,   0.062,  0.129,  0.243, 5,   8.113,-39.041, 34.402
699348.42802, 3,  -0.163, 11.990, -4.415, 4,   0.100,  0.161,  0.239, 5,  10.117,-38.992, 34.406
699348.44789, 3,  -0.402, 12.988, -3.776, 4,   0.182,  0.145,  0.235, 5,   8.800,-38.312, 35.130
699348.46775, 3,  -0.261,  8.279, -1.285, 4,   0.148,  0.137,  0.239, 5,  10.117,-38.991, 33.681
699348.48762, 3,  -0.002,  7.033, -2.110, 4,   0.088,  0.143,  0.230, 5,   9.467,-38.295, 34.404
699348.50749, 3,  -1.541,  3.778, -4.487, 4,   0.082,  0.109,  0.204, 5,   8.145,-37.616, 34.399
699348.52735, 3,   0.266, 16.350, -3.630, 4,   0.097,  0.105,  0.167, 5,   8.765,-39.735, 33.682
699348.54722, 3,  -1.582,  5.149,  0.421, 4,   0.042,  0.115,  0.206, 5,   8.781,-39.023, 33.679
699348.56709, 3,   0.148, 10.270, -2.675, 4,  -0.050,  0.228,  0.211, 5,   7.480,-37.634, 35.126
699348.58695, 3,  -0.524, 10.490, -4.219, 4,   0.031,  0.137,  0.195, 5,   7.481,-37.636, 35.851
699348.60682, 3,   0.531, 11.131, -2.438, 4,   0.051,  0.159,  0.154, 5,   6.796,-38.361, 35.127
699348.62669, 3,  -0.203,  4.271, -1.247, 4,   0.016,  0.202,  0.158, 5,   6.160,-36.951, 34.395
699348.64655, 3,  -0.251, 14.646, -4.443, 4,   0.027,  0.291,  0.174, 5,   7.478,-37.631, 33.673
699348.66645, 3,  -0.050, 10.662, -0.964, 4,   0.080,  0.298,  0.146, 5,   6.845,-36.223, 35.123
699348.68632, 3,   0.177,  8.767, -1.297, 4,   0.008,  0.360,  0.130, 5,   6.778,-39.073, 34.401
699348.70616, 3,  -0.737,  9.715, -3.340, 4,   0.017,  0.380,  0.124, 5,   4.810,-37.698, 35.123
699348.72602, 3,   0.141,  9.531, -2.443, 4,   0.061,  0.291,  0.084, 5,   6.781,-39.076, 35.854
699348.74589, 3,   0.010,  9.038, -2.139, 4,   0.045,  0.235,  0.052, 5,   6.143,-37.665, 34.396
699348.76576, 3,   0.242, 10.677, -2.596, 4,   0.023,  0.248,  0.069, 5,   4.126,-38.426, 35.123
699348.78562, 3,   0.079,  6.640, -0.160, 4,   0.031,  0.254,  0.074, 5,   4.146,-37.723, 38.025
699348.80549, 3,  -1.122,  9.746, -5.587, 4,   0.025,  0.227,  0.063, 5,   6.133,-38.382, 37.303
699348.82536, 3,  -0.227,  6.559, -4.075, 4,   0.095,  0.222,  0.037, 5,   4.144,-37.718, 36.572
699348.84522, 3,  -0.627,  8.923, -3.852, 4,   0.094,  0.210,  0.052, 5,   4.144,-37.720, 37.299
699348.86509, 3,  -0.560, 13.591, -2.371, 4,   0.019,  0.282,  0.073, 5,   4.094,-39.854, 35.852
699348.88496, 3,  -0.100,  8.839,  0.254, 4,  -0.044,  0.325,  0.068, 5,   4.161,-37.004, 36.571
699348.90483, 3,   0.462, 10.411, -1.007, 4,  -0.069,  0.399,  0.067, 5,   3.461,-38.443, 35.846
699348.92469, 3,  -0.368,  7.200, -2.319, 4,   0.030,  0.353,  0.048
699348.94459, 3,   0.318,  8.928, -5.207, 4,   0.097,  0.304, -0.011, 5,   3.442,-39.156, 35.123
699348.96446, 3,   0.213, 11.074, -4.678, 4,   0.152,  0.292, -0.044, 5,   3.445,-39.159, 36.574
699348.98432, 3,   0.230,  9.777, -3.041, 4,   0.102,  0.346, -0.036, 5,   2.792,-38.460, 35.844
699349.00419, 3,  -0.555, 10.449, -1.641, 4,  -0.022,  0.407, -0.037, 5,   2.806,-37.747, 35.118
699349.02406, 3,  -1.216, 13.457,  0.005, 4,  -0.069,  0.395, -0.066, 5,   2.159,-37.057, 38.020
699349.04389, 3,  -0.239,  3.022, -0.462, 4,  -0.094,  0.325, -0.093, 5,   1.491,-37.068, 36.566
699349.06376, 3,   0.203, 16.118, -3.922, 4,  -0.061,  0.236, -0.082, 5,   3.429,-39.871, 36.577
699349.08363, 3,   0.581,  9.399,  0.234, 4,   0.039,  0.099, -0.079, 5,   2.176,-36.345, 38.019
699349.10349, 3,   0.100,  7.401,  0.146, 4,  -0.030,  0.071, -0.074, 5,   3.447,-39.163, 38.026
699349.12336, 3,   0.481, 11.196, -4.637, 4,   0.041,  0.049, -0.072, 5,   1.460,-38.498, 38.022
699349.14323, 3,  -0.742,  8.449, -5.937, 4,   0.179, -0.021, -0.110, 5,   1.472,-37.781, 35.841
699349.16310, 3,  -0.371,  8.167, -5.865, 4,   0.162,  0.037, -0.129, 5,   2.795,-38.466, 38.023
699349.18296, 3,  -0.732,  8.224, -4.487, 4,   0.091,  0.106, -0.104, 5,   2.159,-37.057, 38.020
699349.20283, 3,  -0.270,  9.902, -2.536, 4,  -0.008,  0.158, -0.072, 5,   3.481,-37.741, 39.476
699349.22270, 3,  -0.392, 10.193, -2.371, 4,  -0.072,  0.142, -0.065, 5,   1.474,-37.784, 37.294
699349.24259, 3,  -0.893,  5.563, -1.271, 4,  -0.039,  0.114, -0.081, 5,   5.420,-40.544, 38.762
699349.26246, 3,  -1.213, 10.861, -5.556, 4,   0.002,  0.101, -0.081, 5,   4.753,-40.562, 40.213
699349.28233, 3,  -0.601, 16.240, -5.465, 4,   0.107,  0.035, -0.072, 5,   6.122,-39.105, 40.936
699349.30158, 3,  -0.416,  4.417,  1.797, 4,   0.046,  0.008, -0.035, 5,   0.761,-39.944, 39.478
699349.32206, 3,  -0.670, 11.375, -2.955, 4,  -0.070,  0.054, -0.011, 5,   2.095,-39.912, 39.481
699349.34193, 3,  -0.665,  9.799, -4.034, 4,   0.029, -0.055, -0.032, 5,   2.095,-39.912, 39.481
699349.36176, 3,  -0.665,  7.222, -3.781, 4,   0.039, -0.089, -0.032, 5,   2.095,-39.912, 39.481
699349.38163, 3,  -1.127, 10.284, -4.175, 4,   0.024, -0.068, -0.007, 5,   2.161,-37.059, 38.748
699349.40150, 3,   0.522, 12.421, -2.101, 4,  -0.004, -0.053,  0.004, 5,   2.129,-38.484, 38.751
699349.42137, 3,   0.132,  8.071,  0.849, 4,  -0.085, -0.022,  0.037, 5,   2.777,-39.177, 37.299
699349.44123, 3,   0.038, 13.196, -0.919, 4,  -0.129,  0.054,  0.046, 5,   2.158,-37.054, 37.294
699349.46110, 3,   0.395,  4.637, -1.833, 4,  -0.036,  0.066,  0.013, 5,   2.161,-37.059, 38.748
699349.48097, 3,   0.170, 12.055, -5.365, 4,   0.038,  0.090,  0.022, 5,   0.809,-37.804, 38.019
699349.50083, 3,   1.072, 12.074, -4.164, 4,   0.095,  0.081,  0.013, 5,   2.161,-37.059, 38.748
699349.52073, 3,   1.249,  6.504,  2.713, 4,   0.018,  0.136,  0.004, 5,   2.161,-37.059, 38.748
699349.54060, 3,   0.960,  8.932, -5.252, 4,  -0.056,  0.265,  0.014, 5,   2.162,-37.062, 40.199
699349.56046, 3,   1.194,  9.562, -3.623, 4,   0.033,  0.278, -0.047, 5,   0.160,-37.111, 40.196
699349.58033, 3,  -0.491,  6.104, -2.457, 4,   0.088,  0.275, -0.097, 5,   1.462,-38.499, 38.750
699349.60020, 3,  -0.136, 11.620, -4.771, 4,  -0.004,  0.298, -0.119, 5,   2.193,-35.634, 39.470
699349.62007, 3,  -0.294,  9.669, -2.694, 4,   0.025,  0.187, -0.130, 5,   1.524,-35.646, 38.016
699349.63993, 3,  -0.373,  9.346, -0.440, 4,  -0.028,  0.078, -0.121, 5,   1.523,-35.643, 37.289
699349.65980, 3,  -1.496,  5.405, -1.060, 4,  -0.075,  0.012, -0.152, 5,   1.543,-34.937, 39.465
699349.67964, 3,  -1.376, 11.230, -4.812, 4,  -0.010, -0.083, -0.145, 5,   3.546,-34.888, 39.468
699349.69950, 3,  -1.117, 13.823, -3.388, 4,   0.072, -0.189, -0.113, 5,   2.161,-37.061, 39.473
699349.71937, 3,  -0.818,  8.511, -0.849, 4,   0.002, -0.276, -0.075, 5,   2.846,-36.330, 38.747
699349.73924, 3,  -0.376,  8.609, -0.682, 4,  -0.060, -0.246, -0.033, 5,   2.191,-35.631, 38.017
699349.75910, 3,  -0.581,  8.260, -3.419, 4,  -0.010, -0.262, -0.010, 5,   2.878,-34.903, 38.742
699349.77897, 3,  -0.814, 11.301, -4.412, 4,   0.042, -0.231, -0.020, 5,   3.529,-35.600, 39.471
699349.79887, 3,  -1.395,  8.844, -2.960, 4,   0.074, -0.150, -0.000, 5,   4.863,-35.565, 38.022
699349.81874, 3,  -0.814, 10.344, -2.713, 4,   0.040, -0.022,  0.042, 5,   3.560,-34.167, 37.288
699349.83860, 3,  -0.560,  9.327, -1.699, 4,   0.009,  0.001,  0.064, 5,   2.878,-34.903, 38.742
699349.85847, 3,  -0.708,  9.583, -0.316, 4,  -0.036,  0.034,  0.070, 5,   4.181,-36.299, 39.474
699349.87834, 3,  -0.988,  5.803, -3.534, 4,  -0.038,  0.068,  0.072, 5,   3.549,-34.891, 40.921
699349.89820, 3,  -0.371, 15.943, -5.374, 4,   0.062,  0.076,  0.086, 5,   3.580,-33.461, 39.465
699349.91807, 3,   0.136,  8.865, -1.149, 4,   0.104,  0.030,  0.096, 5,   3.563,-34.174, 39.467
699349.93794, 3,   1.065,  9.086, -1.534, 4,  -0.015,  0.107,  0.106, 5,   2.861,-35.616, 38.745
699349.95780, 3,   0.613,  9.602, -2.010, 4,   0.005,  0.128,  0.113, 5,   2.924,-32.758, 37.283
699349.97767, 3,  -0.572,  0.876, -4.240, 4,   0.042,  0.100,  0.069, 5,   1.543,-34.935, 38.741
699349.99751, 3,   0.002, 20.652, -5.793, 4,   0.078,  0.101,  0.047, 5,   3.563,-34.174, 39.467
699350.01737, 3,  -0.208,  5.331, -0.211, 4,   0.102,  0.076,  0.061, 5,   3.563,-34.172, 38.742
699350.03724, 3,  -0.495,  7.588, -2.831, 4,  -0.032,  0.176,  0.079, 5,   2.911,-33.478, 39.464
699350.05711, 3,  -0.763, 15.199, -4.577, 4,   0.022,  0.115,  0.062, 5,   2.242,-33.492, 38.011
699350.07697, 3,  -0.878,  1.909, -1.603, 4,   0.044,  0.071,  0.044, 5,   1.576,-33.510, 39.462
699350.09687, 3,  -0.412, 14.568, -4.970, 4,  -0.028,  0.151,  0.075, 5,   2.895,-34.189, 38.741
699350.11674, 3,  -0.534,  9.456, -1.744, 4,   0.038,  0.145,  0.089, 5,   2.243,-33.493, 38.739
699350.13661, 3,  -0.680,  6.765, -0.787, 4,  -0.042,  0.193,  0.092, 5,   4.262,-32.732, 39.465
699350.15647, 3,   0.318, 11.959, -3.467, 4,  -0.038,  0.252,  0.103, 5,   2.208,-34.918, 38.014
699350.17634, 3,  -0.916,  8.332, -2.350, 4,   0.035,  0.250,  0.083, 5,   1.559,-34.222, 39.464
699350.19621, 3,  -0.412, 10.452, -3.513, 4,   0.014,  0.358,  0.066, 5,  -0.394,-32.132, 39.456
699350.21607, 3,   0.019,  9.779, -3.053, 4,   0.014,  0.423,  0.063, 5,   0.241,-33.543, 39.461
699350.23594, 3,  -0.237, 11.079, -1.567, 4,  -0.005,  0.493,  0.068, 5,   0.859,-35.666, 39.467
699350.25581, 3,  -0.029,  9.380, -2.043, 4,  -0.033,  0.542,  0.053, 5,   0.911,-33.528, 40.187
699350.27567, 3,  -0.184,  9.121, -2.455, 4,  -0.041,  0.553,  0.008, 5,   0.243,-33.545, 40.187
699350.29551, 3,  -0.931,  7.356, -2.441, 4,   0.042,  0.547, -0.011, 5,  -0.459,-34.985, 39.462
699350.31541, 3,  -0.285, 14.917, -2.670, 4,  -0.009,  0.528, -0.004, 5,  -0.443,-34.270, 38.736
699350.33528, 3,  -0.639,  8.935, -0.201, 4,  -0.010,  0.476, -0.036, 5,  -0.395,-32.129, 38.004
699350.35511, 3,   0.189,  8.916, -1.809, 4,  -0.036,  0.476, -0.029, 5,  -2.463,-35.033, 38.734
699350.37501, 3,   0.876,  9.526, -3.429, 4,   0.016,  0.386, -0.057, 5,  -0.412,-32.841, 38.005
699350.39488, 3,  -0.105,  7.963, -2.501, 4,   0.066,  0.360, -0.107, 5,  -1.747,-32.875, 38.730
699350.41474, 3,   0.285,  8.834, -3.429, 4,   0.055,  0.393, -0.120, 5,  -3.116,-34.334, 38.004
699350.43461, 3,   0.400, 10.349, -4.604, 4,   0.061,  0.407, -0.130, 5,  -0.429,-33.553, 37.280
699350.45448, 3,  -0.065,  9.442, -3.546, 4,   0.077,  0.362, -0.152, 5,  -3.082,-32.910, 39.453
699350.47434, 3,   0.122,  9.057, -3.472, 4,   0.025,  0.344, -0.197, 5,  -1.750,-32.869, 36.549
699350.49421, 3,   0.084,  6.231, -2.055, 4,  -0.024,  0.304, -0.218, 5,  -2.415,-32.890, 38.002
699350.51408, 3,  -0.450, 14.620, -3.991, 4,  -0.034,  0.243, -0.198, 5,  -2.399,-32.178, 38.000
699350.53394, 3,   0.419, 10.122, -0.672, 4,  -0.033,  0.126, -0.223, 5,  -1.714,-31.448, 38.725
699350.55381, 3,  -0.103,  7.439, -1.481, 4,  -0.064,  0.056, -0.225, 5,  -3.069,-32.191, 37.273
699350.57368, 3,  -0.256,  9.255, -3.434, 4,  -0.017, -0.066, -0.226, 5,  -2.432,-33.600, 36.551
699350.59355, 3,  -0.045,  9.263, -4.032, 4,   0.030, -0.156, -0.261, 5,  -1.765,-33.585, 37.277
699350.61341, 3,  -1.510, 10.232, -1.610, 4,   0.014, -0.153, -0.242, 5,  -1.096,-33.572, 38.005
699350.63328, 3,  -0.495, 10.588, -1.271, 4,  -0.042, -0.097, -0.204, 5,  -1.096,-33.572, 38.005
699350.65315, 3,  -0.560,  9.593, -1.412, 4,  -0.059, -0.116, -0.184, 5,  -0.378,-31.415, 38.000
699350.67301, 3,  -1.228, 11.119, -2.355, 4,  -0.044, -0.160, -0.192, 5,  -1.114,-34.282, 37.280
699350.69288, 3,  -1.132,  6.446, -2.685, 4,  -0.027, -0.218, -0.189, 5,  -1.082,-32.854, 36.551
699350.71275, 3,   0.081, 15.690, -3.848, 4,  -0.013, -0.264, -0.140, 5,   0.255,-32.826, 38.007
699350.73261, 3,  -0.270,  8.789, -0.596, 4,  -0.019, -0.351, -0.088, 5,   0.941,-32.098, 38.733
