705728.29946, 3,  -0.177,  9.825, -1.615
705728.34128, 3,  -0.177,  9.825, -1.615, 5,   0.533,-46.971, -5.536
705728.36115, 3,  -0.177,  9.825, -1.615, 4,   0.011,  0.018,  0.069, 5,   1.216,-46.240, -5.536
705728.38101, 3,  -0.239,  9.820, -1.680, 4,   0.011,  0.018,  0.069, 5,   0.500,-48.398, -5.531
705728.40088, 3,  -0.424,  9.818, -1.718, 4,   0.011,  0.018,  0.069, 5,  -0.154,-47.696, -7.712
705728.42075, 3,  -0.519,  9.820, -1.570, 4,   0.004, -0.021, -0.008, 5,  -0.105,-45.557, -7.718
705728.44061, 3,  -0.634,  9.823, -1.498, 4,   0.001, -0.020, -0.005, 5,   0.516,-47.681, -6.985
705728.46045, 3,  -0.739,  9.825, -1.491, 4,   0.000, -0.022, -0.001, 5,   0.516,-47.681, -6.985
705728.48032, 3,  -0.837,  9.854, -1.402, 4,   0.001, -0.030,  0.004, 5,  -0.806,-46.999, -7.716
705728.50018, 3,  -0.979,  9.842, -1.493, 4,   0.001, -0.016,  0.015, 5,  -0.166,-48.416, -4.803
705728.52005, 3,  -0.957,  9.832, -1.708, 4,   0.004,  0.003,  0.025, 5,  -0.165,-48.418, -4.079
705728.53992, 3,  -0.806,  9.823, -1.641, 4,   0.005,  0.001,  0.037, 5,   1.187,-47.670, -4.079
705728.55982, 3,  -0.567,  9.820, -1.646, 4,   0.000, -0.007,  0.051, 5,   0.481,-49.106, -7.709
705728.57965, 3,  -0.507,  9.827, -1.778, 4,  -0.001, -0.013,  0.062, 5,  -2.139,-47.034, -6.267
705728.59952, 3,  -0.715,  9.823, -1.706, 4,   0.001, -0.014,  0.068, 5,  -2.158,-47.743, -7.716
705728.61939, 3,  -0.680,  9.811, -1.706, 4,   0.004,  0.002,  0.074, 5,  -0.122,-46.269, -7.716
705728.63925, 3,  -0.440,  9.796, -1.792, 4,   0.006,  0.018,  0.081, 5,   0.548,-46.254, -6.990
705728.65912, 3,  -0.115,  9.820, -1.713, 4,   0.009,  0.029,  0.089, 5,  -1.476,-47.012, -8.443
705728.67899, 3,  -0.033,  9.808, -1.603, 4,   0.006,  0.029,  0.093, 5,  -0.819,-47.713, -6.987
705728.69885, 3,   0.108,  9.806, -1.807, 4,   0.005,  0.019,  0.095, 5,   0.533,-46.971, -5.536
705728.71869, 3,   0.854,  9.626, -2.757, 4,   0.005,  0.015,  0.093, 5,   1.201,-46.956, -4.807
705728.73856, 3,   0.636,  9.624, -1.716, 4,   0.001,  0.004,  0.085, 5,   1.866,-46.939, -5.533
705728.75842, 3,   0.203,  9.856, -1.225, 4,  -0.010,  0.002,  0.069, 5,  -1.472,-47.017, -6.992
705728.77829, 3,   0.426,  9.799, -2.041, 4,  -0.005, -0.019,  0.063, 5,  -2.159,-47.740, -8.441
705728.79816, 3,   0.333,  9.758, -2.096, 4,   0.012, -0.041,  0.058, 5,  -1.439,-45.590, -6.995
705728.81803, 3,   0.483,  9.765, -1.835, 4,   0.011, -0.030,  0.040
705728.83789, 3,   0.857,  9.739, -2.101, 4,  -0.002, -0.036,  0.031, 5,  -1.488,-47.729, -6.989
705728.85776, 3,   0.311,  9.820, -1.673, 4,  -0.012, -0.068,  0.023, 5,  -2.139,-47.034, -6.267
705728.87763, 3,   0.105,  9.846, -1.534, 4,  -0.022, -0.051, -0.002, 5,  -1.489,-47.728, -7.715
705728.89749, 3,   0.077,  9.689, -5.082, 4,  -0.023, -0.065, -0.015, 5,  -0.183,-49.129, -4.802
705728.91736, 3,  -2.244,  9.734, -1.524, 4,  -0.016, -0.101, -0.014, 5,  -0.117,-46.275, -4.810
705728.93723, 3,  -1.589,  9.813, -1.165, 4,  -0.070,  0.130, -0.004, 5,   0.519,-47.685, -4.805
705728.95709, 3,  -0.775,  9.734, -1.309, 4,  -0.099,  0.107,  0.019, 5,  -0.822,-47.707, -9.166
705728.97696, 3,  -1.091,  9.959, -1.924, 4,  -0.066, -0.054,  0.026, 5,  -0.804,-47.000, -6.990
705728.99683, 3,  -0.345,  9.617, -2.998, 4,  -0.034, -0.038,  0.041, 5,  -0.774,-45.569, -8.444
705729.01666, 3,  -0.407,  9.830, -3.494, 4,  -0.007, -0.088,  0.069, 5,  -0.803,-47.002, -6.264
705729.03653, 3,   0.048,  9.741, -3.094, 4,  -0.017, -0.108,  0.067, 5,  -1.476,-47.012, -8.443
705729.05640, 3,  -0.378,  9.980, -2.749, 4,  -0.039, -0.116,  0.067, 5,  -2.139,-47.034, -6.267
705729.07626, 3,  -0.881, 10.169, -2.804, 4,  -0.049, -0.043,  0.064, 5,  -0.822,-47.708, -8.438
705729.09613, 3,  -0.869,  9.734, -2.005, 4,  -0.032,  0.004,  0.063, 5,  -0.119,-46.274, -5.537
705729.11600, 3,  -0.818,  9.856, -1.328, 4,  -0.024, -0.032,  0.073, 5,  -2.122,-46.320, -6.268
705729.13590, 3,  -1.807,  9.605, -0.390, 4,  -0.012, -0.112,  0.085, 5,  -2.155,-47.746, -6.264
705729.15573, 3,  -1.816,  9.622,  0.079, 4,   0.006, -0.174,  0.096, 5,  -0.134,-46.989, -4.808
705729.17560, 3,  -0.031,  9.404,  0.507, 4,   0.049, -0.270,  0.119, 5,  -1.454,-46.304, -6.267
705729.19547, 3,   1.062,  9.394,  1.187, 4,   0.103, -0.399,  0.141, 5,  -3.476,-47.066, -6.995
705729.21533, 3,   0.376,  8.540,  1.503, 4,   0.171, -0.382,  0.145, 5,  -2.811,-47.043, -9.172
705729.23520, 3,  -0.026, 12.440, -9.172, 4,   0.263, -0.270,  0.133, 5,  -2.155,-47.746, -6.264
705729.25507, 3,  -1.402,  9.942, -3.941, 4,   0.371, -0.158,  0.120, 5,  -3.458,-46.355, -5.544
705729.27493, 3,  -0.658,  9.038, -4.381, 4,   0.271,  0.024,  0.122, 5,  -1.469,-47.021, -4.811
705729.29477, 3,   0.706,  8.356, -0.586, 4,   0.125,  0.089,  0.131, 5,  -2.150,-47.755, -2.632
705729.31464, 3,   0.991, 10.720, -3.099, 4,   0.068, -0.041,  0.155, 5,  -1.469,-47.021, -4.811
705729.33450, 3,   1.402,  9.614,  0.160, 4,   0.037, -0.226,  0.155, 5,  -4.175,-48.511, -5.539
705729.35437, 3,   2.551,  9.870,  0.141, 4,  -0.026, -0.355,  0.148, 5,  -2.820,-47.766, -4.810
705729.37424, 3,   2.584,  9.516,  0.100, 4,  -0.008, -0.426,  0.135, 5,  -4.823,-47.813, -5.540
705729.39411, 3,   2.981,  9.906, -1.685, 4,   0.040, -0.399,  0.098, 5,  -4.175,-48.511, -5.539
705729.41400, 3,   3.118,  9.851, -1.005, 4,   0.088, -0.334,  0.046, 5,  -4.106,-45.662, -3.368
705729.43384, 3,   2.065,  9.696, -0.993, 4,   0.090, -0.284, -0.004, 5,  -3.490,-47.781, -5.539
705729.45371, 3,   0.835, 10.062, -2.941, 4,   0.093, -0.281, -0.052, 5,  -2.835,-48.482, -4.083
705729.47357, 3,  -0.089,  9.358, -1.857, 4,   0.098, -0.378, -0.089, 5,  -4.124,-46.371, -4.817
705729.49344, 3,  -0.775, 10.052, -2.606, 4,   0.043, -0.454, -0.097, 5,  -4.807,-47.102, -4.816
705729.51331, 3,  -1.187,  9.516, -2.072, 4,   0.018, -0.559, -0.098, 5,  -3.490,-47.781, -5.539
705729.53317, 3,  -1.287,  9.332, -1.685, 4,  -0.028, -0.637, -0.075, 5,  -4.805,-47.105, -3.365
705729.55304, 3,  -1.287,  9.930, -1.826, 4,  -0.049, -0.671, -0.049, 5,  -4.156,-47.798, -4.813
705729.57288, 3,  -1.003, 10.091, -1.723, 4,  -0.057, -0.669, -0.023, 5,  -3.473,-47.070, -4.814
705729.59274, 3,  -0.577,  9.712, -1.352, 4,  -0.052, -0.591,  0.008, 5,  -4.143,-47.083, -6.270
705729.61261, 3,  -0.991,  9.768, -0.864, 4,  -0.040, -0.478,  0.026, 5,  -3.508,-48.492, -6.990
705729.63248, 3,  -1.505, 10.236, -1.723, 4,  -0.012, -0.362,  0.034, 5,  -4.158,-47.797, -5.540
705729.65235, 3,  -1.790,  9.923, -2.158, 4,   0.029, -0.289,  0.048, 5,  -3.523,-49.207, -6.262
705729.67221, 3,  -1.510,  9.564, -1.804, 4,   0.051, -0.247,  0.074, 5,  -5.460,-46.404, -5.547
705729.69208, 3,  -1.283,  9.686, -1.553, 4,   0.049, -0.191,  0.101, 5,  -4.840,-48.528, -5.539
705729.71195, 3,  -1.268, 10.024, -1.921, 4,   0.045, -0.141,  0.133, 5,  -4.840,-48.528, -5.539
705729.73181, 3,  -1.239,  9.930, -1.548, 4,   0.055, -0.096,  0.161, 5,  -4.840,-48.528, -5.539
705729.75168, 3,  -1.153,  9.650, -1.486, 4,   0.065, -0.018,  0.188, 5,  -4.175,-48.509, -6.265
705729.77155, 3,  -0.699,  9.760, -1.732, 4,   0.067,  0.036,  0.212, 5,  -5.475,-47.119, -4.817
705729.79141, 3,  -0.280,  9.760, -1.931, 4,   0.081,  0.033,  0.234, 5,  -4.823,-47.813, -5.540
705729.81128, 3,  -0.524,  9.689, -1.668, 4,   0.089,  0.057,  0.250, 5,  -4.156,-47.798, -4.813
705729.83115, 3,  -0.711,  9.796, -2.154, 4,   0.097,  0.113,  0.260, 5,  -5.508,-48.543, -6.267
705729.85098, 3,  -0.074,  9.665, -1.570, 4,   0.106,  0.108,  0.271, 5,  -5.522,-49.260, -4.086
705729.87085, 3,   0.620,  9.758, -2.108, 4,   0.111,  0.079,  0.288, 5,  -7.492,-47.884, -3.366
705729.89072, 3,   1.496,  9.511, -2.922, 4,   0.122,  0.048,  0.294, 5,  -5.458,-46.405, -4.819
705729.91058, 3,   1.955,  9.210, -2.668, 4,   0.132,  0.018,  0.287, 5,  -6.810,-47.151, -4.820
705729.93045, 3,   2.323,  9.421, -3.170, 4,   0.127,  0.070,  0.271, 5,  -6.192,-49.274, -4.813
705729.95032, 3,   3.551,  8.552, -3.185, 4,   0.122,  0.132,  0.247, 5,  -6.190,-49.275, -4.088
705729.97019, 3,   3.113, 10.543, -4.470, 4,   0.111,  0.169,  0.210, 5,  -7.494,-47.881, -4.817
705729.99005, 3,   2.847,  9.153, -2.192, 4,   0.089,  0.262,  0.164, 5,  -6.812,-47.150, -5.548
705730.00992, 3,   2.041,  9.648, -3.293, 4,   0.059,  0.394,  0.115, 5,  -6.857,-49.294, -3.363
705730.02979, 3,   0.694,  9.835, -1.898, 4,   0.055,  0.502,  0.073, 5,  -8.177,-48.611, -4.092
705730.04965, 3,   0.553,  9.952, -2.108, 4,   0.066,  0.533,  0.040, 5,  -6.841,-48.579, -4.091
705730.06952, 3,   0.057,  9.447, -1.807, 4,   0.065,  0.445,  0.034, 5,  -6.172,-48.567, -2.637
705730.08939, 3,   0.230,  9.643, -2.991, 4,   0.079,  0.271,  0.031, 5,  -3.517,-49.217, -1.904
705730.10925, 3,   0.254,  9.492, -3.022, 4,   0.092,  0.114,  0.034, 5,  -4.883,-50.676, -1.903
705730.12909, 3,   0.129,  9.444, -2.225, 4,   0.071,  0.059,  0.047, 5,  -8.162,-47.896, -4.819
705730.14896, 3,   0.261,  9.550, -1.981, 4,   0.042,  0.040,  0.064, 5,  -8.177,-48.611, -4.092
705730.16882, 3,   0.603,  9.947, -2.950, 4,   0.035,  0.011,  0.073, 5,  -9.528,-49.356, -4.092
705730.18869, 3,   0.904,  9.602, -2.615, 4,   0.046,  0.015,  0.079, 5,  -8.145,-47.186, -3.371
705730.20856, 3,   0.854,  9.500, -2.773, 4,   0.040,  0.092,  0.075, 5,  -8.827,-47.914, -4.095
705730.22843, 3,   0.926,  9.691, -2.809, 4,   0.042,  0.188,  0.067, 5,  -7.477,-47.171, -3.369
705730.24829, 3,   1.012,  9.679, -2.824, 4,   0.048,  0.259,  0.067, 5,  -8.194,-49.326, -3.365
705730.26813, 3,   0.986,  9.617, -3.151, 4,   0.050,  0.311,  0.070, 5,  -8.148,-47.182, -5.550
705730.28803, 3,   0.948,  9.351, -2.926, 4,   0.056,  0.322,  0.068, 5,  -6.824,-47.865, -4.092
705730.30789, 3,   1.125,  9.569, -2.946, 4,   0.057,  0.316,  0.061, 5,  -8.160,-47.899, -3.368
705730.32776, 3,   1.555,  9.648, -2.802, 4,   0.060,  0.281,  0.047, 5,  -6.841,-48.581, -3.365
705730.34763, 3,   1.665,  9.631, -2.697, 4,   0.053,  0.245,  0.040, 5,  -7.492,-47.884, -3.366
705730.36749, 3,   1.192,  9.112, -2.644, 4,   0.060,  0.219,  0.028, 5,  -6.157,-47.849, -4.091
705730.38736, 3,   0.818,  9.811, -2.611, 4,   0.067,  0.210,  0.015, 5,  -8.194,-49.324, -4.091
705730.40720, 3,   0.945,  9.562, -2.067, 4,   0.067,  0.183,  0.004, 5,  -6.824,-47.865, -4.092
705730.42706, 3,   1.295,  9.782, -2.558, 4,   0.062,  0.140, -0.002, 5,  -8.177,-48.613, -3.366
705730.44693, 3,   1.366,  8.640, -1.919, 4,   0.077,  0.088, -0.004, 5,  -8.844,-48.630, -3.368
705730.46680, 3,   1.598,  9.794, -3.407, 4,   0.095,  0.067, -0.010, 5,  -6.873,-50.011, -2.635
705730.48667, 3,   0.845,  9.971, -4.575, 4,   0.106,  0.083, -0.023, 5,  -7.523,-49.315, -1.910
705730.50653, 3,   1.553,  9.095, -1.898, 4,   0.110,  0.178, -0.038, 5,  -8.176,-48.616, -2.640
705730.52640, 3,   1.137,  9.210, -1.768, 4,   0.062,  0.259, -0.032, 5,  -8.812,-47.202, -4.099
705730.54624, 3,   0.928, 10.301, -2.163, 4,   0.018,  0.259, -0.031, 5,  -7.526,-49.309, -4.089
705730.56613, 3,   1.172,  9.212, -2.182, 4,   0.024,  0.241, -0.038, 5,  -9.462,-46.504, -3.374
705730.58600, 3,   0.469,  8.722, -2.950, 4,   0.022,  0.327, -0.032, 5,  -8.827,-47.916, -3.369
705730.60587, 3,   1.113,  9.567, -4.125, 4,   0.049,  0.388, -0.035, 5,  -8.211,-50.040, -3.363
705730.62573, 3,   0.861,  9.174, -2.929, 4,   0.048,  0.304, -0.043, 5,  -6.874,-50.006, -4.088
705730.64560, 3,   0.833,  8.705, -3.594, 4,   0.051,  0.246, -0.049, 5,  -5.557,-50.684, -5.536
705730.66547, 3,   0.057,  8.719, -5.920, 4,   0.062,  0.252, -0.047, 5,  -7.509,-48.598, -3.365
705730.68533, 3,   0.436, 11.744, -5.767, 4,   0.065,  0.287, -0.052, 5,  -7.542,-50.023, -4.088
705730.70517, 3,   2.027,  8.724, -0.313, 4,   0.023,  0.268, -0.047, 5,  -6.824,-47.865, -4.092
705730.72504, 3,   1.046,  9.763, -2.161, 4,  -0.082,  0.240, -0.025, 5,  -5.489,-47.833, -4.089
705730.74429, 3,   0.919, 10.016, -2.422, 4,  -0.031,  0.274, -0.047, 5,  -4.868,-49.965, -1.176
705730.76477, 3,   1.359, 10.327, -1.460, 4,  -0.004,  0.306, -0.070, 5,  -5.489,-47.833, -4.089
705730.78464, 3,   1.840,  9.756, -2.055, 4,   0.009,  0.279, -0.058, 5,  -5.522,-49.260, -4.086
705730.80451, 3,   1.438,  9.636, -1.955, 4,   0.021,  0.167, -0.068, 5,  -4.819,-47.821, -2.635
705730.82437, 3,   0.952,  9.803, -2.438, 4,   0.053,  0.213, -0.081, 5,  -5.539,-49.974, -4.085
705730.84421, 3,   0.211,  9.155, -3.766, 4,   0.065,  0.228, -0.102, 5,  -6.190,-49.277, -3.362
705730.86411, 3,   0.151,  9.569, -2.981, 4,   0.078,  0.208, -0.104, 5,  -4.852,-49.248, -2.632
705730.88397, 3,   0.153,  8.655, -2.587, 4,   0.059,  0.130, -0.096, 5,  -6.186,-49.284, -0.456
705730.90384, 3,  -0.416,  9.488, -3.919, 4,   0.038,  0.003, -0.086, 5,  -4.189,-49.228, -3.358
705730.92371, 3,  -0.120,  8.911, -3.027, 4,   0.056, -0.116, -0.080, 5,  -4.837,-48.532, -3.360
705730.94357, 3,   0.512,  8.944, -4.458, 4,   0.061, -0.198, -0.065, 5,  -4.170,-48.518, -2.634
705730.96344, 3,   0.072,  8.590, -4.271, 4,   0.079, -0.261, -0.043, 5,  -4.836,-48.535, -2.634
705730.98328, 3,   0.029, 10.000, -5.102, 4,   0.084, -0.297, -0.053, 5,  -4.152,-47.806, -1.909
705731.00314, 3,   0.900,  8.798, -3.943, 4,   0.078, -0.357, -0.037, 5,  -4.851,-49.249, -1.906
705731.02301, 3,   1.941,  9.198, -2.441, 4,   0.044, -0.439, -0.031, 5,  -4.169,-48.521, -1.180
705731.04288, 3,   3.362,  8.207,  0.768, 4,   0.033, -0.490, -0.042, 5,  -2.863,-49.919,  0.278
705731.06275, 3,   2.510,  9.624,-11.938, 4,   0.087, -0.412, -0.089, 5,  -4.199,-49.951,  0.275
705731.08261, 3,   1.385, 10.493, -4.862, 4,   0.243, -0.275, -0.131, 5,  -3.481,-47.795,  0.272
705731.10248, 3,   1.141,  7.844, -4.731, 4,   0.294, -0.105, -0.174, 5,  -4.218,-50.661, -1.175
705731.12232, 3,  -0.342,  8.004, -5.133, 4,   0.177, -0.064, -0.174, 5,  -4.202,-49.948, -1.176
705731.14221, 3,  -1.302, 10.414, -7.097, 4,   0.224, -0.109, -0.219, 5,  -3.500,-48.506, -1.178
705731.16208, 3,  -0.187,  7.231,  1.395, 4,   0.196, -0.075, -0.225, 5,  -2.831,-48.491, -0.452
705731.18195, 3,  -0.543,  8.880, -4.831, 4,   0.121, -0.107, -0.178, 5,  -3.546,-50.648,  0.278
705731.20181, 3,  -0.117,  8.138, -2.362, 4,   0.192, -0.245, -0.168, 5,  -2.861,-49.922,  1.730
705731.22168, 3,   0.380, 11.476, -5.523, 4,   0.215, -0.239, -0.151, 5,  -2.863,-49.921,  1.004
705731.24155, 3,   0.991, 10.952, -3.903, 4,   0.202, -0.138, -0.115, 5,  -3.499,-48.508, -0.453
705731.26138, 3,   1.498, 10.490, -0.591, 4,   0.127,  0.040, -0.092, 5,  -3.532,-49.934, -0.450
705731.28125, 3,   2.154,  9.854, -0.684, 4,   0.037,  0.282, -0.079, 5,  -1.492,-48.463,  1.729
705731.30112, 3,   1.725,  9.437,  1.103, 4,  -0.020,  0.441, -0.078, 5,  -1.529,-49.886, -0.447
705731.32099, 3,   0.962, 11.155, -1.249, 4,  -0.017,  0.602, -0.106, 5,  -2.846,-49.205,  0.276
705731.34085, 3,   0.897, 10.816, -3.175, 4,   0.037,  0.623, -0.135, 5,  -0.157,-48.431,  1.732
705731.36072, 3,  -0.127, 10.093, -3.642, 4,   0.060,  0.515, -0.145, 5,  -1.530,-49.884, -1.172
705731.38059, 3,  -0.120, 10.251, -3.771, 4,   0.026,  0.320, -0.153, 5,  -2.847,-49.203, -0.450
705731.40042, 3,   1.230,  9.124, -2.615, 4,  -0.061,  0.059, -0.145, 5,  -3.534,-49.933, -1.175
705731.42032, 3,   0.998,  9.861, -2.364, 4,  -0.150, -0.124, -0.129, 5,  -1.514,-49.170, -1.173
705731.44019, 3,  -0.117,  9.349, -1.775, 4,  -0.199, -0.156, -0.123, 5,  -1.529,-49.886, -0.447
705731.46005, 3,  -2.008,  9.808, -1.266, 4,  -0.204, -0.123, -0.126, 5,  -1.534,-49.878, -3.352
705731.47992, 3,  -3.821,  9.753, -1.926, 4,  -0.169, -0.152, -0.125, 5,  -0.845,-49.152, -1.900
705731.49979, 3,  -3.855,  8.987, -2.905, 4,  -0.109, -0.236, -0.095, 5,  -1.497,-48.457, -1.175
705731.51965, 3,  -4.008,  9.715, -3.103, 4,  -0.070, -0.290, -0.040, 5,  -1.515,-49.167, -2.628
705731.53949, 3,  -3.778,  9.913, -3.797, 4,  -0.054, -0.262,  0.040, 5,  -1.515,-49.167, -2.628
705731.55936, 3,  -3.135,  8.573, -2.998, 4,  -0.049, -0.178,  0.128, 5,  -1.515,-49.167, -2.628
705731.57922, 3,  -1.826,  9.890, -3.788, 4,  -0.050, -0.104,  0.211, 5,  -1.515,-49.167, -2.628
705731.59909, 3,   0.526,  9.109, -4.223, 4,  -0.040, -0.069,  0.263, 5,  -1.514,-49.170, -1.173
705731.61896, 3,   2.448,  9.440, -3.989, 4,  -0.037, -0.008,  0.294, 5,  -2.867,-49.913, -2.628
705731.63883, 3,   2.757,  9.222, -4.219, 4,  -0.013,  0.151,  0.284, 5,  -3.484,-47.791, -1.907
705731.65866, 3,   2.278,  8.868, -4.747, 4,  -0.012,  0.367,  0.254, 5,  -1.547,-50.594, -2.625
705731.67853, 3,   2.005,  8.774, -5.051, 4,  -0.012,  0.485,  0.207, 5,  -2.199,-49.899, -1.173
705731.69840, 3,   1.048,  8.889, -4.132, 4,  -0.028,  0.500,  0.152, 5,  -2.214,-50.612, -1.172
705731.71829, 3,   0.943,  8.248, -0.837, 4,  -0.059,  0.486,  0.097, 5,  -1.530,-49.883, -1.900
705731.73816, 3,   1.524,  8.174, -6.032, 4,  -0.070,  0.391,  0.068, 5,  -2.866,-49.915, -1.901
705731.75803, 3,  -0.792, 13.079, -7.975, 4,   0.007,  0.212,  0.050, 5,  -4.204,-49.945, -2.631
705731.77789, 3,  -0.445,  9.184, -3.185, 4,   0.105,  0.175,  0.036, 5,  -2.165,-48.471, -1.904
705731.79776, 3,  -0.117,  7.674, -2.764, 4,  -0.031,  0.122,  0.067, 5,  -2.882,-50.626, -2.626
705731.81763, 3,   0.622,  7.870, -4.116, 4,  -0.057, -0.204,  0.074, 5,  -2.232,-51.321, -2.623
705731.83746, 3,   0.682,  9.138, -3.647, 4,  -0.020, -0.383,  0.072, 5,  -3.551,-50.642, -2.628
705731.85733, 3,   1.046, 11.344, -5.841, 4,   0.027, -0.358,  0.090, 5,  -2.864,-49.918, -0.449
705731.87720, 3,   0.756,  9.535, -3.261, 4,   0.053, -0.185,  0.107, 5,  -3.534,-49.933, -1.175
705731.89707, 3,   0.806,  8.413, -3.697, 4,   0.028,  0.097,  0.092, 5,  -4.166,-48.524,  0.272
705731.91693, 3,   0.012,  7.935, -1.854, 4,   0.032,  0.344,  0.075, 5,  -3.517,-49.219, -1.176
705731.93680, 3,  -0.849,  9.720, -4.331, 4,   0.062,  0.596,  0.064, 5,  -2.165,-48.471, -1.904
705731.95664, 3,  -0.558, 10.560, -4.685, 4,   0.095,  0.805,  0.047, 5,  -2.197,-49.901, -0.449
705731.97650, 3,   1.098, 10.083, -3.460, 4,   0.095,  0.939,  0.032, 5,  -4.868,-49.965, -1.176
705731.99640, 3,   1.316,  9.650, -1.457, 4,   0.043,  1.036,  0.030, 5,  -2.867,-49.913, -2.628
705732.01627, 3,   0.136,  8.351, -1.909, 4,   0.023,  1.163,  0.017
705732.03613, 3,   0.313,  9.514, -7.131, 4,   0.040,  1.218, -0.023, 5,  -2.847,-49.203, -0.450
705732.05600, 3,   0.682, 10.373, -2.979, 4,   0.103,  1.106, -0.067, 5,  -2.832,-48.488, -1.904
705732.07587, 3,   1.706,  8.186, -0.395, 4,   0.079,  1.058, -0.078, 5,  -2.199,-49.898, -1.901
705732.09573, 3,   1.153,  8.480, -2.651, 4,  -0.006,  0.896, -0.092, 5,  -1.498,-48.454, -2.629
705732.11557, 3,   1.697,  9.672, -1.630, 4,   0.050,  0.691, -0.135, 5,  -0.864,-49.864, -2.625
705732.13544, 3,   4.587, 10.272, -1.883, 4,   0.079,  0.709, -0.157, 5,  -2.850,-49.199, -2.629
705732.15531, 3,   3.149,  7.236, -3.671, 4,   0.136,  0.756, -0.163, 5,   1.172,-48.389, -2.625
705732.17517, 3,   1.012, 11.091, -5.121, 4,   0.209,  0.879, -0.206, 5,   0.458,-50.548, -1.167
705732.19504, 3,   0.780, 12.069, -5.702, 4,   0.252,  0.884, -0.301, 5,  -0.198,-49.846, -3.349
705732.21491, 3,   0.199,  8.705, -2.618, 4,   0.180,  0.739, -0.365, 5,   1.822,-49.086, -2.621
705732.23477, 3,   0.715,  7.887, -1.268, 4,   0.068,  0.508, -0.401, 5,  -0.198,-49.846, -3.349
705732.25461, 3,   0.148,  9.992, -2.606, 4,   0.022,  0.211, -0.424, 5,   2.492,-49.071, -1.895
705732.27448, 3,  -0.636,  9.930, -3.436, 4,   0.077,  0.019, -0.410, 5,   2.458,-50.496, -2.618
705732.29437, 3,  -0.213,  9.631, -4.577, 4,   0.115, -0.101, -0.381, 5,   3.140,-49.763, -3.345
705732.31424, 3,  -1.062,  8.703, -2.991, 4,   0.071, -0.223, -0.387, 5,   4.462,-50.447, -2.614
705732.33411, 3,   0.859,  9.696, -1.637, 4,  -0.015, -0.277, -0.362, 5,   3.824,-49.034, -3.345
705732.35397, 3,   1.917, 10.181, -1.333, 4,  -0.051, -0.191, -0.296, 5,   5.144,-49.716, -3.342
705732.37384, 3,  -0.739, 10.014, -1.189, 4,  -0.027,  0.086, -0.273, 5,   3.127,-50.479, -2.617
705732.39368, 3,  -0.747,  9.528, -3.984, 4,   0.031,  0.292, -0.302, 5,   4.427,-51.868, -4.062
705732.41355, 3,  -0.847,  9.021, -5.326, 4,   0.111,  0.317, -0.308, 5,   3.760,-51.889, -2.611
705732.43341, 3,  -2.149,  8.600, -6.482, 4,   0.125,  0.256, -0.288, 5,   4.463,-50.449, -1.888
705732.45328, 3,  -0.569, 10.411, -6.171, 4,   0.066,  0.036, -0.266, 5,   4.478,-49.738, -1.161
705732.47315, 3,   0.278,  8.980, -2.969, 4,  -0.028, -0.322, -0.235, 5,   5.147,-49.722, -1.161
705732.49302, 3,   0.790,  9.243, -2.603, 4,  -0.104, -0.670, -0.223, 5,   4.478,-49.736, -1.889
705732.51288, 3,  -0.424,  9.849, -3.711, 4,  -0.079, -0.867, -0.231, 5,   3.810,-49.754, -1.163
705732.53272, 3,  -0.098,  8.272, -5.042, 4,  -0.004, -0.929, -0.211, 5,   5.782,-51.129, -1.883
705732.55259, 3,  -0.440,  8.351, -3.324, 4,   0.059, -0.929, -0.161, 5,   5.164,-49.007, -1.891
705732.57248, 3,  -1.335,  8.722, -3.228, 4,   0.040, -0.824, -0.126, 5,   5.150,-49.725,  0.290
705732.59235, 3,  -2.005, 14.654, -1.419, 4,  -0.018, -0.730, -0.097, 5,   4.495,-49.023, -1.163
705732.61222, 3,  -1.412, 12.115, -2.577, 4,  -0.033, -0.691, -0.037, 5,   5.830,-48.990, -1.889
705732.63208, 3,  -2.668, 10.856, -1.890, 4,  -0.059, -0.763,  0.056, 5,   5.180,-48.294, -1.892
705732.65195, 3,  -3.762,  9.588, -0.828, 4,   0.012, -0.818,  0.072, 5,   3.812,-49.756, -0.438
705732.67179, 3,  -1.316,  7.456, -1.618, 4,   0.023, -1.063,  0.120, 5,   4.495,-49.023, -1.163
705732.69165, 3,   1.929,  7.518, -3.800, 4,   0.051, -1.302,  0.239, 5,   2.478,-49.789,  0.285
705732.71152, 3,   6.130,  5.611, -6.564, 4,   0.088, -1.256,  0.344, 5,   3.159,-49.052, -2.620
705732.73139, 3,   6.772,  6.217, -5.738, 4,   0.064, -0.850,  0.360, 5,   2.475,-49.786, -1.166
705732.75126, 3,   6.879,  6.272, -5.288, 4,   0.006,  0.039,  0.277, 5,   2.478,-49.791,  1.012
705732.77112, 3,   4.159, 11.773, -7.231, 4,  -0.067,  1.106,  0.183, 5,   2.492,-49.072, -1.167
705732.79099, 3,   1.914, 15.431, -1.900, 4,  -0.111,  2.128,  0.021, 5,   3.145,-49.771, -0.439
705732.81086, 3,  -1.184,  5.147,  5.008, 4,  -0.155,  2.828, -0.157, 5,   3.128,-50.482, -1.163
705732.83069, 3,  -4.391,  9.480,  0.069, 4,  -0.206,  2.865, -0.257, 5,   4.478,-49.738, -1.161
705732.85059, 3,  -5.803, 13.548, -0.177, 4,   0.038,  2.410, -0.344, 5,   5.197,-47.581, -1.166
705732.87046, 3,  -3.312,  9.090, -5.494, 4,   0.232,  1.916, -0.351, 5,   5.830,-48.991, -1.161
705732.89032, 3,  -1.869,  7.006,-10.105, 4,   0.331,  1.204, -0.354, 5,   7.800,-50.369, -1.155
705732.91019, 3,   1.141, 10.287, -9.284, 4,   0.312,  0.744, -0.357, 5,   7.152,-49.677,  0.293
705732.93006, 3,   1.412, 10.622, -5.195, 4,   0.112,  0.430, -0.396, 5,   9.155,-49.628,  0.298
705732.94989, 3,  -1.108,  8.437,  0.567, 4,  -0.133,  0.123, -0.431, 5,   8.519,-48.215, -0.433
705732.96976, 3,  -0.940,  9.227,  0.658, 4,  -0.191, -0.180, -0.409, 5,   8.499,-48.923, -2.611
705732.98963, 3,  -1.653,  9.911, -4.178, 4,  -0.044, -0.512, -0.396, 5,   9.200,-47.478, -3.339
705733.00949, 3,  -3.209,  9.851, -7.260, 4,   0.148, -0.507, -0.409, 5,  11.900,-45.984, -4.066
705733.02936, 3,  -4.644,  7.786, -8.229, 4,   0.211, -0.429, -0.378, 5,  11.218,-46.716, -3.339
705733.04923, 3,  -2.989,  8.416, -5.235, 4,   0.121, -0.511, -0.332, 5,  13.214,-46.658, -7.693
705733.06910, 3,  -1.706,  9.270, -2.943, 4,  -0.044, -0.274, -0.213, 5,  12.532,-47.389, -6.966
705733.08896, 3,  -3.474, 10.327, -1.271, 4,  -0.136, -0.173, -0.136, 5,  11.847,-48.119, -6.966
705733.10880, 3,  -2.780, 10.684, -3.525, 4,  -0.099,  0.033, -0.087, 5,  11.168,-48.853, -4.784
705733.12867, 3,  -1.385, 10.354, -6.233, 4,   0.004,  0.007, -0.064, 5,   9.814,-49.599, -4.785
705733.14856, 3,  -2.742,  7.798, -4.123, 4,   0.078, -0.211, -0.031, 5,  10.469,-50.296, -4.057
705733.16843, 3,  -2.146,  6.585, -2.508, 4,   0.050, -0.354, -0.035, 5,  10.504,-48.875, -1.881
705733.18830, 3,  -4.829,  6.121, -4.534, 4,   0.084, -0.610,  0.002, 5,   9.149,-49.619, -3.334
705733.20816, 3,  -3.582, 12.258, -9.354, 4,   0.203, -0.990,  0.054, 5,  10.503,-48.874, -2.608
705733.22803, 3,   1.866,  9.019,-10.043, 4,   0.287, -1.446,  0.109, 5,   8.499,-48.923, -2.611
705733.24787, 3,   3.472,  7.181, -4.470, 4,   0.172, -1.539,  0.229, 5,  10.454,-51.013, -2.602
705733.26773, 3,   3.850,  8.389,  1.515, 4,   0.064, -1.132,  0.309, 5,  11.075,-53.140, -1.141
705733.28760, 3,   4.558, 10.897, -1.172, 4,   0.028, -0.751,  0.300, 5,   9.105,-51.764, -0.423
705733.30747, 3,   2.747, 12.096, -6.264, 4,   0.164, -0.604,  0.179, 5,   6.497,-48.975, -1.160
705733.32734, 3,  -0.311,  6.494, -4.714, 4,   0.319, -0.417,  0.092, 5,   6.467,-50.403, -0.432
705733.34720, 3,  -4.240, 12.744, -3.259, 4,   0.188, -0.397,  0.098, 5,   6.468,-50.404,  0.294
705733.36704, 3,   5.987,  7.908,  3.204, 4,   0.009, -0.748,  0.130, 5,   6.467,-50.403, -0.432
705733.38691, 3,   7.669,  9.531, -0.433, 4,  -0.189, -1.357,  0.212, 5,   6.467,-50.403, -0.432
705733.40677, 3,   1.421, 12.340, -5.999, 4,  -0.079, -1.498,  0.223, 5,   6.465,-50.401, -1.157
705733.42667, 3,  -0.821,  8.358, -4.381, 4,   0.125, -1.034,  0.144, 5,   5.182,-48.297, -0.439
705733.44654, 3,  -2.292,  8.351, -4.159, 4,   0.040, -0.479,  0.234, 5,   4.495,-49.023, -1.163
705733.46640, 3,  -1.972,  9.978, -5.300, 4,  -0.076, -0.030,  0.293, 5,   7.169,-48.962,  0.291
705733.48627, 3,  -2.524, 11.364, -1.845, 4,  -0.134,  0.378,  0.343, 5,   7.182,-48.247, -1.161
705733.50614, 3,  -1.314, 11.218,  0.780, 4,  -0.211,  0.731,  0.346, 5,   4.495,-49.023, -1.163
705733.52597, 3,  -2.201,  7.628, -1.965, 4,  -0.177,  1.049,  0.328, 5,   5.846,-48.276, -2.617
705733.54584, 3,  -4.561,  6.676, -7.030, 4,   0.051,  1.326,  0.283, 5,   3.844,-48.326, -1.894
705733.56571, 3,  -4.857,  6.552, -8.966, 4,   0.279,  1.631,  0.246, 5,   6.499,-48.976, -0.435
705733.58558, 3,  -1.500,  6.932, -6.023, 4,   0.288,  1.714,  0.228, 5,   5.849,-48.280, -0.438
705733.60544, 3,   0.526,  7.557, -3.403, 4,   0.120,  1.493,  0.230, 5,   4.463,-50.449, -1.888
705733.62531, 3,   1.316, 12.220, -1.122, 4,   0.024,  1.230,  0.202, 5,   5.164,-49.008, -1.163
705733.64518, 3,  -0.404,  5.817,  0.337, 4,   0.042,  1.026,  0.135, 5,   5.864,-47.565, -1.164
705733.66501, 3,   0.026,  9.418, -3.692, 4,   0.034,  0.735,  0.070, 5,   5.199,-47.583, -0.441
705733.68488, 3,   2.295, 12.144, -5.470, 4,   0.099,  0.427,  0.018, 5,   4.498,-49.026,  0.288
705733.70475, 3,   3.058, 11.438, -1.180, 4,   0.024,  0.387,  0.058, 5,   4.495,-49.022, -1.891
705733.72464, 3,   0.407, 10.615,  0.294, 4,  -0.159,  0.562,  0.046, 5,   3.828,-49.042, -0.439
705733.74451, 3,  -2.977, 10.210, -0.280, 4,  -0.188,  0.877, -0.023, 5,   3.827,-49.040, -1.164
705733.76438, 3,  -3.352,  8.648, -1.096, 4,  -0.112,  1.158, -0.063, 5,   5.180,-48.294, -1.892
705733.78424, 3,  -1.828,  8.904, -4.254, 4,  -0.017,  1.270, -0.093, 5,   5.879,-46.852, -1.167
705733.80408, 3,  -2.075,  9.409, -7.956, 4,   0.087,  1.418, -0.117, 5,   5.862,-47.562, -2.618
705733.82395, 3,  -2.046, 10.839, -9.500, 4,   0.137,  1.727, -0.135, 5,   6.514,-48.262, -1.161
705733.84381, 3,  -2.247, 10.313, -4.439, 4,   0.055,  2.041, -0.172, 5,   7.182,-48.247, -1.161
705733.86368, 3,  -3.309,  9.172,  0.943, 4,  -0.138,  2.179, -0.212, 5,   7.182,-48.247, -1.161
705733.88355, 3,  -3.805, 13.218,  2.833, 4,  -0.224,  2.069, -0.289, 5,   8.517,-48.213, -1.158
705733.90342, 3,  -3.357,  5.733, -1.187, 4,  -0.068,  1.775, -0.328, 5,   9.171,-48.912, -0.430
705733.92328, 3,  -3.721, 13.632,-11.608, 4,   0.221,  1.325, -0.359, 5,   9.138,-50.339, -0.427
705733.94312, 3,  -5.159,  7.985,-10.588, 4,   0.446,  0.742, -0.407, 5,   9.169,-48.909, -1.883
705733.96299, 3,  -4.628,  6.619, -1.496, 4,   0.243, -0.014, -0.379, 5,   9.853,-48.181, -1.157
705733.98285, 3,  -3.068,  1.835, -2.261, 4,  -0.001, -0.853, -0.291, 5,   9.186,-48.198, -1.157
705734.00275, 3,   0.493, 11.787, -8.234, 4,  -0.007, -1.675, -0.195, 5,   9.169,-48.909, -1.883
705734.02262, 3,   6.879, 10.483, -4.551, 4,   0.209, -2.069, -0.086, 5,   9.869,-47.467, -1.158
705734.04248, 3,  11.555,  9.942, -3.108, 4,   0.109, -1.888,  0.041, 5,   7.866,-47.516, -1.161
705734.06235, 3,   8.207,  8.325, -2.314, 4,   0.060, -1.033,  0.107, 5,   8.536,-47.501, -0.435
705734.08222, 3,   2.491,  8.715, -4.367, 4,   0.103,  0.095,  0.028, 5,   7.185,-48.250,  0.290
705734.10205, 3,   1.395,  7.810, -4.625, 4,   0.112,  0.998, -0.106, 5,   7.869,-47.520,  1.016
705734.12192, 3,  -0.904,  9.526, -1.335, 4,   0.024,  1.391, -0.211, 5,   8.549,-46.785, -1.891
705734.14179, 3,  -2.400, 13.728, -2.881, 4,  -0.154,  1.320, -0.279, 5,   9.885,-46.754, -1.161
705734.16166, 3,  -2.369, 11.263, -3.513, 4,  -0.199,  0.893, -0.294, 5,  11.174,-48.863, -0.427
705734.18152, 3,  -4.747,  9.942, -2.383, 4,  -0.195,  0.284, -0.280, 5,  11.838,-48.845, -1.152
705734.20139, 3,  -7.073,  9.186, -0.340, 4,  -0.232, -0.423, -0.267, 5,  11.206,-47.433, -1.883
705734.22123, 3,  -4.472,  9.736,  0.012, 4,  -0.239, -1.116, -0.185, 5,  11.206,-47.433, -1.883
705734.24109, 3,  -2.130,  6.884, -0.983, 4,  -0.184, -1.754,  0.002, 5,  10.538,-47.450, -1.157
705734.26096, 3,  -2.151, 10.076, -4.740, 4,  -0.045, -2.064,  0.205, 5,   9.203,-47.482, -1.886
705734.28086, 3,   0.976,  7.717, -5.293, 4,   0.120, -2.074,  0.329, 5,   9.218,-46.770, -1.889
705734.30072, 3,   3.187,  4.570, -6.872, 4,   0.153, -1.873,  0.483, 5,   7.150,-49.675, -0.433
705734.32059, 3,   4.353, 13.874, -9.806, 4,   0.189, -1.330,  0.600, 5,   6.516,-48.264, -0.436
705734.34046, 3,   6.733,  8.394, -4.833, 4,   0.178, -0.377,  0.636, 5,   7.846,-48.224, -3.340
705734.36029, 3,   4.558,  7.628, -2.558, 4,   0.031,  0.640,  0.657, 5,   5.180,-48.296, -1.164
705734.38016, 3,  -0.555,  9.959, -3.400, 4,  -0.004,  1.464,  0.550, 5,   5.197,-47.580, -1.894
705734.40003, 3,  -0.199, 11.419, -3.048, 4,   0.094,  1.993,  0.335, 5,   5.864,-47.563, -1.892
705734.41990, 3,  -3.070, 10.615, -5.310, 4,   0.123,  2.020,  0.180, 5,   6.532,-47.549, -0.438
705734.43976, 3,  -4.527,  8.937, -3.254, 4,   0.182,  1.979,  0.096, 5,   7.849,-48.228, -1.888
705734.45963, 3,  -5.994, 10.945, -2.869, 4,   0.164,  1.904, -0.005, 5,   5.215,-46.872,  0.282
705734.47950, 3,  -7.451,  8.899, -1.938, 4,   0.139,  1.668, -0.065, 5,   7.231,-46.106, -1.167
705734.49936, 3,  -3.972, 10.868, -2.560, 4,   0.152,  1.422, -0.035, 5,   7.217,-46.825,  1.012
705734.51920, 3,  -2.812, 13.737, -1.486, 4,   0.133,  1.170,  0.051, 5,   7.166,-48.958, -1.888
705734.53907, 3,  -2.646, 10.938,  1.094, 4,   0.108,  1.081,  0.101, 5,   6.531,-47.548, -1.163
705734.55893, 3,  -2.209,  8.368, -0.517, 4,   0.070,  0.957,  0.147, 5,   7.202,-47.537,  1.015
705734.57883, 3,   1.144,  9.502, -2.907, 4,   0.126,  0.899,  0.178, 5,   6.583,-45.412,  0.282
705734.59870, 3,   1.730,  9.392, -2.919, 4,   0.198,  0.850,  0.150, 5,   6.549,-46.838,  0.285
705734.61856, 3,   2.608, 11.392, -2.218, 4,   0.165,  0.924,  0.102, 5,   5.898,-46.140, -0.444
705734.63843, 3,   2.493,  8.863, -1.369, 4,   0.112,  1.125,  0.080, 5,   6.529,-47.545, -2.617
705734.65827, 3,   0.491,  8.298, -0.512, 4,   0.078,  1.225,  0.028, 5,   6.529,-47.545, -2.617
705734.67813, 3,  -1.168,  8.483, -1.285, 4,   0.083,  1.207, -0.100, 5,   6.529,-47.545, -2.617
705734.69800, 3,  -1.577, 14.043, -3.821, 4,   0.119,  1.025, -0.178, 5,   7.217,-46.823,  0.285
705734.71787, 3,   0.620, 12.002, -3.202, 4,   0.161,  0.731, -0.186, 5,   7.214,-46.820, -1.166
705734.73774, 3,  -3.034,  9.902,  0.759, 4,   0.125,  0.355, -0.154, 5,   6.580,-45.407, -1.897
705734.75760, 3,  -3.704,  7.525, -0.603, 4,   0.072, -0.019, -0.145, 5,   6.580,-45.407, -1.897
705734.77747, 3,   0.613, 10.404, -4.290, 4,   0.083, -0.582, -0.120, 5,   9.203,-47.484, -1.158
705734.79731, 3,   5.042,  5.750, -3.202, 4,   0.187, -0.978, -0.009, 5,   5.867,-47.568,  0.287
705734.81717, 3,   6.872,  9.145, -5.422, 4,   0.158, -0.983,  0.113, 5,   6.531,-47.546, -1.891
705734.83704, 3,   5.487, 15.374, -2.441, 4,   0.141, -0.617,  0.147, 5,   5.879,-46.851, -1.895
705734.85694, 3,   6.552,  5.255,  0.156, 4,   0.045,  0.058,  0.163, 5,   5.147,-49.721, -1.889
705734.87680, 3,   4.786, 13.862, -0.493, 4,  -0.040,  0.504,  0.148, 5,   5.231,-46.156, -0.446
705734.89667, 3,   2.142, 10.332, -0.081, 4,   0.039,  1.061,  0.025, 5,   6.531,-47.548, -1.163
705734.91654, 3,  -1.842, 14.283, -1.613, 4,   0.048,  1.499, -0.053, 5,   7.182,-48.245, -1.889
705734.93637, 3,  -4.467,  6.760,  0.888, 4,   0.087,  1.571, -0.136, 5,   6.532,-47.549, -0.438
705734.95624, 3,  -4.281, 11.091, -3.582, 4,   0.065,  1.303, -0.183, 5,   7.199,-47.533, -1.163
705734.97611, 3,  -4.860,  9.657, -3.144, 4,   0.111,  0.838, -0.217, 5,   7.831,-48.940, -2.612
705734.99598, 3,  -4.197,  9.681, -3.106, 4,   0.164,  0.647, -0.123, 5,   7.164,-48.956, -2.614
705735.01584, 3,  -1.771,  9.751, -3.565, 4,   0.144,  0.426, -0.005, 5,   8.498,-48.920, -3.337
705735.03571, 3,  -0.424,  9.375, -1.539, 4,   0.154,  0.384,  0.043, 5,   8.517,-48.213, -1.158
705735.05558, 3,   1.531,  7.829, -0.938, 4,   0.138,  0.792,  0.036, 5,   7.849,-48.230, -1.160
705735.07541, 3,   1.689, 14.809,  0.967, 4,   0.169,  1.275,  0.047, 5,   8.501,-48.926, -1.157
705735.09528, 3,   4.154,  7.860,  0.167, 4,   0.239,  1.802, -0.010, 5,   7.864,-47.513, -2.615
705735.11515, 3,   3.496, 12.943, -2.670, 4,   0.283,  2.042, -0.087, 5,   9.186,-48.196, -1.884
705735.13501, 3,   0.471, 10.134, -2.472, 4,   0.397,  2.348, -0.250
705735.15491, 3,  -1.718, 11.072, -2.266, 4,   0.327,  2.524, -0.392, 5,  11.858,-48.135,  0.298
705735.17478, 3,  -3.869, 10.753, -1.900, 4,   0.200,  2.320, -0.475, 5,  11.855,-48.131, -1.881
705735.19461, 3,  -3.005,  8.140,  0.122, 4,   0.086,  1.921, -0.542, 5,  12.526,-48.120,  0.299
705735.21448, 3,   0.380, 13.144, -1.390, 4,   0.037,  1.363, -0.519
705735.23435, 3,   1.290,  3.613,  0.194, 4,   0.133,  0.830, -0.504, 5,  14.526,-48.068, -1.149
705735.25422, 3,   0.024, 12.711, -5.046, 4,   0.200,  0.544, -0.549, 5,  13.193,-48.102, -0.426
705735.27408, 3,   1.615,  7.269, -4.819, 4,   0.266,  0.371, -0.516, 5,  11.206,-47.435, -1.155
705735.29395, 3,   1.783, 11.320, -6.078, 4,   0.265,  0.215, -0.534, 5,  13.211,-47.389,  0.299
705735.31382, 3,   2.441, 10.181, -2.008, 4,   0.232,  0.012, -0.574, 5,  12.526,-48.120,  0.299
705735.33307, 3,   4.013,  7.391, -3.367, 4,   0.186, -0.010, -0.589, 5,  13.177,-48.817,  1.028
705735.35355, 3,   0.220,  6.860, -3.376, 4,   0.281,  0.023, -0.602, 5,  14.496,-49.500,  1.031
705735.37339, 3,  -1.070, 12.206, -7.561, 4,   0.431,  0.205, -0.675, 5,  14.534,-48.080,  3.934
705735.39325, 3,   0.443,  6.638, -3.754, 4,   0.378,  0.245, -0.696, 5,  15.221,-47.351,  4.660
705735.41312, 3,   2.553, 11.605, -3.202, 4,   0.258,  0.248, -0.593, 5,  15.189,-48.779,  5.389
705735.43302, 3,   0.718,  7.798,  0.639, 4,   0.156,  0.351, -0.586, 5,  16.559,-47.324,  6.841
705735.45288, 3,  -0.108, 13.263, -0.981, 4,   0.114,  0.542, -0.635, 5,  17.259,-45.883,  7.564
705735.47275, 3,  -1.060,  7.277, -0.957, 4,   0.176,  0.579, -0.712, 5,  17.227,-47.311,  8.295
705735.49259, 3,  -2.125, 10.222, -5.637, 4,   0.221,  0.383, -0.734, 5,  17.909,-46.584,  8.293
705735.51245, 3,  -3.623,  8.638, -5.049, 4,   0.285,  0.014, -0.736, 5,  19.913,-46.535,  8.296
705735.53232, 3,  -4.664,  8.652, -3.450, 4,   0.180, -0.498, -0.701, 5,  18.579,-46.568,  9.021
705735.55219, 3,  -1.574, 10.600, -4.168, 4,   0.026, -1.183, -0.603, 5,  19.930,-45.819,  7.568
705735.57206, 3,   0.127,  7.356, -0.718, 4,  -0.062, -1.734, -0.416, 5,  20.598,-45.804,  8.296
705735.59192, 3,   2.491, 11.349, -2.993, 4,  -0.126, -2.009, -0.251, 5,  19.897,-47.246,  7.573
705735.61179, 3,   4.530,  6.118, -3.931, 4,  -0.055, -1.992, -0.153, 5,  21.246,-46.495,  6.119
705735.63166, 3,   2.563,  8.633, -5.322, 4,   0.055, -1.471, -0.065, 5,  21.881,-47.906,  6.125
705735.65149, 3,   2.077, 11.124, -6.891, 4,   0.114, -0.708, -0.042, 5,  21.898,-47.192,  6.123
705735.67136, 3,   2.400,  8.418, -2.546, 4,   0.076, -0.037, -0.027, 5,  21.249,-46.500,  7.571
705735.69123, 3,   1.641, 10.210, -2.089, 4,  -0.054,  0.434, -0.013, 5,  20.598,-45.802,  7.570
705735.71112, 3,  -1.072,  9.906, -1.455, 4,  -0.072,  0.623, -0.060, 5,  21.950,-45.058,  7.570
705735.73099, 3,  -1.799,  8.932, -1.161, 4,  -0.082,  0.487, -0.145, 5,  21.266,-45.787,  8.296
705735.75086, 3,  -3.259, 11.124, -3.297, 4,  -0.089,  0.130, -0.167, 5,  21.249,-46.501,  8.298
705735.77073, 3,  -2.682, 10.933, -2.357, 4,  -0.045, -0.341, -0.147, 5,  22.585,-46.471,  9.027
705735.79056, 3,  -1.594,  8.763, -2.496, 4,  -0.078, -0.792, -0.067, 5,  22.598,-45.750,  6.847
705735.81043, 3,  -2.917,  6.676, -2.199, 4,  -0.071, -1.049,  0.032, 5,  21.884,-47.913,  8.304
705735.83030, 3,  -5.484, 11.713, -5.032, 4,  -0.013, -0.959,  0.098, 5,  21.931,-45.767,  6.845
705735.85016, 3,  -2.862,  8.956, -3.472, 4,   0.040, -0.595,  0.178, 5,  22.614,-45.035,  5.392
705735.87003, 3,  -0.086,  9.892, -1.074, 4,   0.028, -0.148,  0.342, 5,  21.878,-47.902,  3.946
705735.88990, 3,  -0.792,  7.789, -0.706, 4,   0.029,  0.369,  0.426, 5,  20.578,-46.512,  6.119
705735.90976, 3,  -1.175,  7.772, -4.365, 4,   0.111,  0.905,  0.393, 5,  21.899,-47.194,  6.850
705735.92960, 3,  -1.041, 10.177, -7.580, 4,   0.237,  1.350,  0.305, 5,  22.566,-47.177,  6.851
705735.94947, 3,  -0.861,  8.576, -5.331, 4,   0.255,  1.672,  0.258, 5,  19.881,-47.960,  7.574
705735.96933, 3,  -2.498, 10.921, -1.859, 4,   0.121,  1.802,  0.196, 5,  19.214,-47.977,  8.299
705735.98920, 3,  -2.113,  6.269,  0.313, 4,  -0.004,  1.736,  0.079, 5,  20.581,-46.518,  8.298
705736.00910, 3,  -1.943, 10.634, -4.190, 4,  -0.013,  1.424, -0.005, 5,  20.569,-47.234,  9.753
705736.02896, 3,  -1.038, 10.672, -4.946, 4,   0.093,  0.966, -0.090, 5,  19.250,-46.555, 10.474
705736.04883, 3,  -0.301,  8.944, -1.969, 4,   0.099,  0.585, -0.123, 5,  18.579,-46.568,  9.021
705736.06867, 3,   0.407,  8.952, -3.115, 4,   0.004,  0.273, -0.122, 5,  19.917,-46.539, 10.475
705736.08854, 3,   0.610,  9.301, -2.977, 4,   0.026,  0.057, -0.119, 5,  19.897,-47.247,  8.299
705736.10840, 3,   0.938, 11.203, -4.965, 4,   0.089, -0.035, -0.117, 5,  17.909,-46.584,  8.293
705736.12827, 3,   1.546,  8.317, -3.991, 4,   0.112,  0.011, -0.102, 5,  19.218,-47.983, 11.203
705736.14814, 3,   1.079,  8.822, -2.230, 4,   0.066,  0.113, -0.106, 5,  19.218,-47.981, 10.478
705736.16800, 3,   1.510,  7.033, -3.805, 4,   0.009,  0.207, -0.150, 5,  19.917,-46.541, 11.200
705736.18787, 3,   1.041, 13.223, -3.003, 4,   0.006,  0.283, -0.167, 5,  19.904,-47.255, 11.931
705736.20771, 3,   2.048, 10.988, -0.278, 4,  -0.028,  0.290, -0.197, 5,  20.570,-47.235, 10.480
705736.22757, 3,   1.692, 13.263, -0.036, 4,  -0.103,  0.243, -0.220, 5,  19.885,-47.968, 11.205
705736.24744, 3,  -0.550,  7.540, -0.268, 4,  -0.048,  0.177, -0.289, 5,  18.616,-45.145, 10.471
705736.26731, 3,  -2.400,  7.267, -6.051, 4,   0.049,  0.090, -0.371, 5,  21.921,-46.492, 11.203
705736.28720, 3,  -3.848,  7.219, -8.932, 4,   0.167, -0.082, -0.401, 5,  21.906,-47.203, 10.481
705736.30707, 3,  -2.630,  8.246, -7.181, 4,   0.125, -0.240, -0.323, 5,  21.938,-45.776, 10.477
705736.32694, 3,  -2.211,  8.851, -2.445, 4,  -0.082, -0.424, -0.200, 5,  19.232,-47.264,  9.024
705736.34677, 3,  -1.237, 10.330, -1.563, 4,  -0.255, -0.419, -0.086, 5,  21.234,-47.212,  7.574
705736.36664, 3,  -1.551, 11.940,  1.237, 4,  -0.248, -0.142,  0.006, 5,  19.913,-46.535,  8.296
705736.38651, 3,  -1.859,  8.193, -0.438, 4,  -0.153,  0.263,  0.035, 5,  20.586,-46.523, 10.477
705736.40638, 3,  -1.194, 10.832, -7.396, 4,   0.039,  0.615,  0.024, 5,  21.271,-45.792, 10.475
705736.42624, 3,  -0.794,  6.987, -8.341, 4,   0.243,  0.909,  0.003, 5,  21.269,-45.790,  9.749
705736.44611, 3,  -1.608,  9.878, -7.796, 4,   0.203,  1.179, -0.037, 5,  22.572,-47.186, 10.483
705736.46598, 3,  -2.508,  7.076, -4.130, 4,   0.070,  1.332, -0.076, 5,  24.545,-48.570, 12.668
705736.48584, 3,  -2.694, 11.672, -2.084, 4,  -0.090,  1.263, -0.111, 5,  20.621,-45.099, 11.926
705736.50568, 3,  -1.187,  9.861,  1.479, 4,  -0.173,  0.923, -0.189, 5,  22.638,-44.336, 11.928
705736.52555, 3,  -0.519, 13.151, -1.024, 4,  -0.193,  0.487, -0.223, 5,  21.922,-46.494, 11.931
705736.54541, 3,   0.117,  9.126, -2.804, 4,  -0.061,  0.149, -0.247, 5,  20.605,-45.815, 12.654
705736.56528, 3,   0.802,  8.892, -6.930, 4,   0.090,  0.007, -0.249, 5,  22.607,-45.766, 12.657
705736.58518, 3,   1.555,  9.519, -5.764, 4,   0.164, -0.052, -0.257, 5,  22.639,-44.341, 13.380
705736.60505, 3,   2.491,  9.586, -3.771, 4,   0.089, -0.024, -0.271, 5,  22.577,-47.195, 14.114
705736.62491, 3,   4.448,  9.011, -1.137, 4,  -0.039,  0.094, -0.269, 5,  20.572,-47.238, 11.932
705736.64475, 3,   2.431,  8.906, -3.352, 4,  -0.054,  0.164, -0.311, 5,  21.257,-46.512, 12.656
705736.66462, 3,  -1.151,  7.786, -3.515, 4,  -0.016,  0.153, -0.442, 5,  23.940,-45.729, 11.205
705736.68448, 3,  -1.450, 15.477, -1.586, 4,   0.015, -0.004, -0.515, 5,  23.291,-45.033, 11.931
705736.70435, 3,   1.316,  8.389, -1.180, 4,  -0.061, -0.332, -0.503, 5,  23.293,-45.036, 12.657
705736.72422, 3,  -1.565,  7.222, -4.709, 4,  -0.045, -0.389, -0.428, 5,  24.594,-46.432, 13.388
705736.74408, 3,  -4.417, 10.638, -4.891, 4,   0.046, -0.361, -0.431, 5,  24.626,-45.001, 11.932
705736.76395, 3,  -4.128,  6.434, -3.252, 4,  -0.006, -0.643, -0.467, 5,  25.960,-44.968, 11.206
705736.78379, 3,  -1.302, 11.308, -2.881, 4,  -0.114, -0.787, -0.326, 5,  25.975,-44.254, 11.205
705736.80365, 3,   0.560,  9.679, -4.568, 4,  -0.114, -0.810, -0.142, 5,  25.293,-44.984, 11.206
705736.82352, 3,  -0.677,  7.679, -3.948, 4,  -0.142, -0.759, -0.045, 5,  25.259,-46.410, 10.484
705736.84339, 3,  -0.476, 10.983, -0.203, 4,  -0.159, -0.737, -0.020, 5,  27.293,-44.933,  9.758
705736.86328, 3,   1.180,  8.952, -0.036, 4,  -0.220, -0.868,  0.032, 5,  27.957,-44.913,  8.307
705736.88315, 3,   0.739, 12.029, -5.173, 4,  -0.137, -0.766,  0.100, 5,  27.277,-45.645,  9.760
705736.90302, 3,   1.452, 14.326, -7.317, 4,   0.031, -0.500,  0.114, 5,  25.290,-44.980,  9.029
705736.92286, 3,   3.984,  1.103,  0.651, 4,   0.082, -0.250,  0.107, 5,  25.320,-43.552,  8.299
705736.94272, 3,  -2.347,  6.595, -6.154, 4,  -0.056, -0.044,  0.115, 5,  25.954,-44.957,  6.850
705736.96259, 3,  -3.929, 11.715, -5.657, 4,   0.071,  0.252,  0.025, 5,  26.608,-45.659,  9.032
705736.98246, 3,  -3.465,  9.937, -3.465, 4,   0.053,  0.175, -0.026, 5,  25.974,-44.250,  9.753
705737.00232, 3,  -1.261,  9.851, -0.120, 4,  -0.050,  0.070,  0.003, 5,  25.974,-44.250,  9.753
705737.02219, 3,  -2.977,  8.583, -0.739, 4,  -0.054,  0.102,  0.065, 5,  25.975,-44.254, 11.205
705737.04206, 3,  -3.896,  9.208, -2.529, 4,   0.034,  0.110,  0.102, 5,  27.293,-44.933,  9.758
705737.06189, 3,  -4.202,  7.939, -4.494, 4,   0.147, -0.121,  0.061, 5,  25.957,-44.963,  9.029
705737.08176, 3,  -4.463,  8.777, -8.877, 4,   0.211, -0.318,  0.096, 5,  25.323,-43.555,  9.752
705737.10163, 3,  -0.687, 13.120, -5.798, 4,   0.238, -0.290,  0.228, 5,  25.293,-44.983, 10.481
705737.12149, 3,   2.077,  6.307,  1.735, 4,   0.109, -0.083,  0.362, 5,  25.305,-44.266,  9.027
705737.14139, 3,   2.395, 13.847, -1.094, 4,  -0.077,  0.191,  0.411, 5,  25.310,-44.272, 11.932
705737.16126, 3,   3.149,  9.760, -0.849, 4,   0.001,  0.474,  0.332, 5,  24.637,-44.281,  9.026
705737.18113, 3,   1.586,  9.456, -3.934, 4,   0.103,  0.557,  0.251, 5,  24.625,-45.000, 11.205
705737.20096, 3,   1.268,  9.925, -5.279, 4,   0.175,  0.563,  0.142, 5,  23.940,-45.729, 11.205
705737.22083, 3,   1.697,  7.088, -1.926, 4,   0.114,  0.485,  0.026, 5,  23.273,-45.743, 10.480
705737.24070, 3,  -0.660, -0.390, -2.240, 4,  -0.018,  0.389, -0.021, 5,  23.956,-45.016, 11.203
705737.26056, 3,  -3.711, 10.548, -4.290, 4,  -0.070,  0.202, -0.074, 5,  23.940,-45.728, 10.480
705737.28043, 3,  -0.560, 22.612, -1.682, 4,  -0.193, -0.035, -0.052, 5,  23.322,-43.605, 11.200
705737.30030, 3,   5.147, 14.749,  6.121, 4,  -0.415, -0.231,  0.058, 5,  25.258,-46.408,  9.758
705737.32016, 3,   1.452,  8.614,  2.804, 4,  -0.395, -0.060,  0.129, 5,  23.988,-43.590, 11.200
705737.34000, 3,  -4.647,  8.078, -6.293, 4,  -0.099,  0.367, -0.023, 5,  23.308,-44.322, 12.656
705737.35987, 3,  -5.092,  6.406,-12.493, 4,   0.232,  0.559, -0.178, 5,  24.626,-45.001, 11.932
705737.37973, 3,  -3.819,  8.734, -8.758, 4,   0.229,  0.483, -0.135, 5,  25.279,-45.702, 12.662
705737.39960, 3,  -2.029,  7.188, -3.482, 4,  -0.054,  0.370, -0.023, 5,  25.943,-45.680, 11.208
705737.41947, 3,  -1.306, 15.934,  0.601, 4,  -0.308,  0.325,  0.006, 5,  25.296,-44.989, 12.660
705737.43937, 3,   6.087, -9.224, 16.621, 4,  -0.259,  0.344, -0.014, 5,  23.973,-44.304, 11.929
705737.45923, 3,  -4.168, 17.192,-11.895, 4,  -0.214,  0.318, -0.032, 5,  24.640,-44.286, 11.203
705737.47910, 3,  -2.611,  1.201, -6.126, 4,   0.562,  0.485, -0.152, 5,  23.991,-43.594, 12.654
705737.49894, 3,  -7.683, 13.452,-19.791, 4,   0.500, -0.151, -0.242, 5,  23.975,-44.308, 13.382
705737.51880, 3,  -3.077, 10.009, -8.990, 4,   0.413, -0.091, -0.170, 5,  24.609,-45.714, 11.934
705737.53867, 3,   0.074,  2.314,  6.068, 4,  -0.079, -0.120,  0.092, 5,  25.310,-44.272, 11.932
705737.55854, 3,   0.715, 11.911,  0.993, 4,  -0.359, -0.138,  0.186, 5,  24.008,-42.882, 13.379
705737.57840, 3,   0.397, 11.665, -4.987, 4,  -0.117, -0.217,  0.109, 5,  23.975,-44.308, 13.382
705737.59827, 3,   0.660,  9.322, -2.467, 4,   0.174, -0.291,  0.114, 5,  23.973,-44.304, 11.929
705737.61814, 3,   0.452, 12.682, -6.949, 4,   0.261, -0.118,  0.120, 5,  23.956,-45.016, 11.203
705737.63797, 3,   1.228,  8.875, -3.498, 4,   0.241,  0.251,  0.059, 5,  23.956,-45.016, 11.203
705737.65784, 3,   2.599,  8.095, -1.216, 4,   0.174,  0.508,  0.074, 5,  23.956,-45.016, 11.203
705737.67771, 3,   0.160,  6.671, -1.216, 4,   0.032,  0.562,  0.017, 5,  23.956,-45.016, 11.203
705737.69757, 3,   0.366, 12.737, -4.262, 4,   0.038,  0.500, -0.076, 5,  23.325,-43.611, 13.380
705737.71747, 3,   0.971, 12.945, -1.591, 4,   0.051,  0.274, -0.122, 5,  21.989,-43.645, 13.377
705737.73734, 3,   2.934,  7.052,  3.884, 4,  -0.055,  0.036, -0.131, 5,  25.345,-42.850, 13.382
705737.75721, 3,   0.830,  8.224, -2.223, 4,  -0.136, -0.129, -0.173, 5,  22.639,-44.341, 13.380
705737.77704, 3,  -1.278,  7.731, -7.750, 4,   0.042, -0.180, -0.249, 5,  23.973,-44.304, 11.929
705737.79691, 3,  -2.230,  9.880,-10.528, 4,   0.167, -0.143, -0.238, 5,  23.975,-44.308, 13.382
705737.81678, 3,  -1.421, 10.047, -2.192, 4,   0.027, -0.062, -0.181, 5,  23.959,-45.023, 13.383
705737.83664, 3,   0.232, 12.318,  2.572, 4,  -0.247, -0.009, -0.112, 5,  23.990,-43.591, 11.928
705737.85651, 3,   0.933,  9.478,  3.340, 4,  -0.359, -0.047, -0.087, 5,  23.975,-44.308, 13.382
705737.87638, 3,   0.246,  9.267, -1.165, 4,  -0.191, -0.109, -0.130, 5,  25.328,-43.562, 12.657
705737.89624, 3,  -3.118,  7.114, -9.590, 4,   0.097, -0.116, -0.203, 5,  24.658,-43.575, 11.929
705737.91608, 3,  -3.924,  9.992,-10.488, 4,   0.242, -0.074, -0.198, 5,  24.628,-45.004, 12.659
705737.93595, 3,  -2.548,  7.109, -2.486, 4,   0.143,  0.011, -0.114, 5,  26.631,-44.957, 13.388
705737.95581, 3,  -1.783, 11.852,  3.673, 4,  -0.202,  0.046, -0.040, 5,  25.328,-43.562, 12.657
705737.97568, 3,  -1.359, 10.055,  3.714, 4,  -0.322, -0.029, -0.012, 5,  25.296,-44.989, 12.660
705737.99555, 3,  -1.273,  9.098, -2.292, 4,  -0.183, -0.130, -0.019, 5,  24.641,-44.287, 11.931
705738.01545, 3,  -0.505, 11.014, -8.289, 4,   0.100, -0.157, -0.038, 5,  24.625,-45.000, 11.205
705738.03531, 3,  -0.139,  8.497, -8.284, 4,   0.249,  0.007, -0.019, 5,  24.660,-43.579, 13.382
705738.05515, 3,  -1.165,  8.813, -3.711, 4,   0.114,  0.329,  0.015, 5,  25.328,-43.564, 13.383
705738.07502, 3,   0.081,  5.946, -0.337, 4,  -0.070,  0.541, -0.007, 5,  25.330,-43.565, 14.110
705738.09488, 3,  -0.773, 12.452, -0.787, 4,  -0.194,  0.531, -0.068, 5,  25.330,-43.565, 14.110
705738.11475, 3,   0.780, 10.591, -0.660, 4,  -0.129,  0.420, -0.134, 5,  24.628,-45.004, 12.659
705738.13462, 3,   0.280,  9.045, -4.554, 4,  -0.055,  0.290, -0.181, 5,  24.626,-45.001, 11.932
705738.15448, 3,  -1.019, 13.256, -5.063, 4,   0.049,  0.178, -0.253, 5,  25.311,-44.276, 13.385
705738.17435, 3,  -1.299,  3.884, -3.398, 4,   0.044,  0.091, -0.307, 5,  26.012,-42.831, 12.656
705738.19419, 3,  -2.003, 12.316, -4.573, 4,  -0.073, -0.033, -0.289, 5,  27.362,-42.088, 13.382
705738.21405, 3,  -0.342,  9.588, -3.881, 4,  -0.037, -0.274, -0.289, 5,  24.692,-42.151, 12.651
705738.23392, 3,   0.507,  8.853, -2.142, 4,  -0.107, -0.547, -0.247, 5,  27.362,-42.088, 13.382
705738.25379, 3,   1.218,  9.081, -2.110, 4,  -0.139, -0.731, -0.178, 5,  26.727,-40.671, 11.925
705738.27365, 3,  -0.136,  8.633, -3.510, 4,  -0.120, -0.906, -0.129, 5,  27.312,-44.223, 11.935
705738.29355, 3,   0.864, 10.528, -3.783, 4,  -0.018, -1.028, -0.107, 5,  26.660,-43.524, 11.205
705738.31342, 3,   2.125,  8.837, -4.848, 4,   0.029, -1.025, -0.057, 5,  26.692,-42.096, 10.475
705738.33326, 3,   1.211, 10.035, -5.293, 4,  -0.001, -0.795, -0.004, 5,  28.009,-42.775,  9.755
705738.35312, 3,   0.050, 11.955, -1.199, 4,  -0.033, -0.483,  0.004, 5,  28.043,-41.351, 11.201
705738.37299, 3,   0.512,  7.889,  2.778, 4,  -0.139, -0.224,  0.014, 5,  26.677,-42.809, 10.478
705738.39286, 3,   0.029,  9.035, -1.965, 4,  -0.098, -0.145,  0.002, 5,  28.026,-42.064, 10.478
705738.41272, 3,  -1.957,  9.026, -7.009, 4,   0.108, -0.202, -0.048
705738.43259, 3,  -2.632,  9.377, -4.266, 4,   0.199, -0.252, -0.051, 5,  28.059,-40.637, 11.200
705738.45246, 3,  -2.405,  8.765, -1.113, 4,   0.105, -0.281,  0.009, 5,  28.661,-43.472,  9.756
705738.47232, 3,  -3.582,  9.854, -1.766, 4,  -0.013, -0.335,  0.067, 5,  28.021,-42.058,  7.573
705738.49216, 3,  -1.536, 15.635, -2.876, 4,   0.040, -0.424,  0.109, 5,  27.341,-42.790,  9.027
705738.51203, 3,  -0.500,  7.901, -0.888, 4,   0.071, -0.472,  0.216, 5,  29.346,-42.743,  9.756
705738.53189, 3,   1.445, 10.782, -2.993, 4,   0.062, -0.374,  0.293, 5,  27.356,-42.078,  9.024
705738.55176, 3,   0.902,  5.551, -2.663, 4,   0.166, -0.043,  0.294, 5,  26.657,-43.520,  9.027
705738.57166, 3,  -0.971, 10.808, -6.559, 4,   0.183,  0.389,  0.273, 5,  26.674,-42.805,  9.026
705738.59153, 3,  -1.756,  8.203, -5.137, 4,   0.200,  0.744,  0.210, 5,  26.643,-44.235, 10.481
705738.61139, 3,  -2.457, 11.172, -3.783, 4,   0.106,  0.893,  0.148, 5,  26.642,-44.234,  9.755
705738.63123, 3,  -0.562,  9.775,  1.524, 4,  -0.026,  0.807,  0.070, 5,  26.677,-42.809, 10.478
705738.65110, 3,  -0.689,  5.781,  0.885, 4,  -0.109,  0.591,  0.008, 5,  25.974,-44.250,  9.753
705738.67096, 3,  -4.829,  9.990, -4.417, 4,  -0.043,  0.325, -0.067, 5,  26.660,-43.524, 11.205
705738.69083, 3,  -3.415, 13.196, -6.963, 4,   0.130,  0.094, -0.148, 5,  25.992,-43.539, 10.478
705738.71070, 3,  -2.486,  6.178, -2.355, 4,   0.100, -0.081, -0.093, 5,  26.007,-42.824,  9.750
705738.73056, 3,  -4.199,  7.932, -1.452, 4,  -0.054, -0.165, -0.009, 5,  26.021,-42.110,  9.021
705738.75043, 3,  -2.211, 12.538, -3.003, 4,  -0.074, -0.195,  0.054, 5,  26.007,-42.824,  9.750
705738.77030, 3,  -0.323,  6.549,  0.440, 4,  -0.046, -0.203,  0.130, 5,  26.630,-44.952, 11.935
705738.79013, 3,  -0.110, 11.017, -3.099, 4,  -0.071, -0.134,  0.181, 5,  26.007,-42.824,  9.750
705738.81000, 3,   0.424,  6.963, -5.874, 4,   0.034, -0.019,  0.144, 5,  25.293,-44.984, 11.206
705738.82987, 3,   1.555, 12.651, -5.271, 4,   0.103,  0.134,  0.141, 5,  26.025,-42.116, 11.926
705738.84974, 3,   3.872,  5.389, -4.032, 4,   0.029,  0.287,  0.135, 5,  25.308,-44.269, 10.480
705738.86963, 3,   3.489, 13.675, -4.606, 4,  -0.063,  0.394,  0.068, 5,  25.993,-43.542, 11.931
705738.88950, 3,   5.013,  9.947, -1.108, 4,  -0.072,  0.436, -0.035, 5,  26.660,-43.524, 11.205
705738.90934, 3,   3.304,  8.571, -1.816, 4,  -0.193,  0.375, -0.150, 5,  25.995,-43.546, 12.657
705738.92920, 3,  -0.007,  9.715, -4.410, 4,  -0.170,  0.208, -0.301, 5,  24.657,-43.573, 11.201
705738.94907, 3,  -2.077,  6.580, -4.960, 4,  -0.063, -0.121, -0.431, 5,  25.993,-43.542, 11.931
705738.96894, 3,  -3.639,  7.317, -4.144, 4,  -0.052, -0.501, -0.451, 5,  28.062,-40.642, 12.654
705738.98880, 3,  -2.802, 16.458, -5.161, 4,  -0.085, -0.791, -0.398, 5,  26.707,-41.380,  9.747
705739.00867, 3,   1.311, 11.232,  0.782, 4,  -0.176, -1.041, -0.272, 5,  27.339,-42.789,  8.301
705739.02854, 3,  -0.986,  5.506,  2.960, 4,  -0.226, -1.212, -0.120, 5,  29.346,-42.743,  9.756
705739.04837, 3,  -3.446, 10.694, -3.824, 4,  -0.079, -1.151, -0.046, 5,  28.708,-41.330,  9.024
705739.06824, 3,  -6.820,  7.186, -6.532, 4,   0.219, -1.008, -0.027, 5,  28.021,-42.058,  7.573
705739.08811, 3,  -3.096,  6.530, -4.829, 4,   0.298, -0.768,  0.092, 5,  27.971,-44.194,  6.853
705739.10797, 3,  -1.182, 13.034, -1.211, 4,   0.252, -0.319,  0.284, 5,  28.036,-41.341,  6.845
705739.12784, 3,   1.074,  8.284,  0.983, 4,   0.125,  0.205,  0.442, 5,  30.009,-42.722,  7.579
705739.14774, 3,  -1.819, 11.380, -3.750, 4,   0.088,  0.592,  0.423, 5,  27.339,-42.789,  8.301
705739.16761, 3,  -3.252, 11.976, -4.410, 4,   0.220,  0.817,  0.307, 5,  28.024,-42.062,  9.752
705739.18747, 3,  -4.372,  5.102, -3.068, 4,   0.218,  0.949,  0.245, 5,  28.706,-41.328,  8.298
705739.20731, 3,  -4.508, 10.318, -3.281, 4,   0.101,  0.951,  0.195, 5,  28.026,-42.065, 11.203
705739.22718, 3,  -4.688,  9.538, -1.505, 4,   0.095,  0.725,  0.113, 5,  28.694,-42.047, 10.478
705739.24704, 3,  -2.005,  9.880, -0.658, 4,  -0.022,  0.469,  0.133, 5,  25.992,-43.539, 10.478
705739.26691, 3,  -0.117, 11.907, -1.137, 4,   0.013,  0.186,  0.197, 5,  25.989,-43.536,  9.026
705739.28678, 3,   0.854,  8.143, -2.304, 4,   0.059, -0.004,  0.213, 5,  26.659,-43.521,  9.753
705739.30664, 3,  -0.593,  8.863, -4.778, 4,   0.088, -0.008,  0.202, 5,  26.692,-42.096, 10.475
705739.32651, 3,   0.194,  6.798, -6.925, 4,   0.119,  0.103,  0.190, 5,  25.974,-44.250,  9.753
705739.34635, 3,   1.103, 10.416, -3.836, 4,   0.064,  0.240,  0.156, 5,  27.293,-44.933,  9.758
705739.36621, 3,   3.211, 12.273, -0.084, 4,  -0.067,  0.398,  0.155, 5,  24.622,-44.995,  9.027
705739.38608, 3,   1.955,  8.688,  0.648, 4,  -0.154,  0.482,  0.111, 5,  23.970,-44.299,  9.750
705739.40595, 3,  -0.010,  9.112, -1.957, 4,  -0.106,  0.486, -0.025, 5,  23.305,-44.316, 10.477
705739.42582, 3,  -0.751,  9.925, -7.444, 4,   0.051,  0.395, -0.172, 5,  25.293,-44.984, 11.206
705739.44571, 3,  -2.395,  1.945, -6.508, 4,   0.090,  0.249, -0.207, 5,  24.692,-42.151, 12.651
705739.46558, 3,  -1.847, 14.596, -5.176, 4,  -0.040,  0.062, -0.224, 5,  25.307,-44.267,  9.753
705739.48542, 3,  -0.290,  9.710, -0.153, 4,  -0.150, -0.178, -0.229, 5,  25.308,-44.270, 11.205
705739.50528, 3,   1.254, 10.509,  2.984, 4,  -0.319, -0.375, -0.140, 5,  25.325,-43.556, 10.478
705739.52515, 3,   1.017,  9.509, -2.032, 4,  -0.241, -0.564, -0.131, 5,  25.307,-44.267,  9.753
705739.54502, 3,   1.527,  9.870, -6.439, 4,  -0.038, -0.602, -0.180, 5,  26.628,-44.949, 10.483
705739.56488, 3,   1.192,  5.551, -4.723, 4,   0.095, -0.545, -0.146, 5,  26.659,-43.521,  9.753
705739.58475, 3,   1.024, 11.416, -5.300, 4,   0.029, -0.322, -0.101, 5,  27.341,-42.790,  9.027
705739.60462, 3,   1.058, 13.429, -1.228, 4,  -0.021, -0.103, -0.101, 5,  26.678,-42.812, 11.931
705739.62445, 3,   0.452,  8.449,  1.168, 4,  -0.105, -0.007, -0.123, 5,  28.629,-44.899,  9.760
705739.64432, 3,  -1.749,  9.124, -4.554, 4,  -0.123, -0.081, -0.195, 5,  31.970,-44.823, 11.945
705739.66419, 3,  -3.503,  8.327, -6.386, 4,   0.064, -0.152, -0.256, 5,  27.293,-44.933,  9.758
705739.68406, 3,  -4.635,  6.487, -4.357, 4,   0.077, -0.145, -0.213, 5,  27.356,-42.078,  9.024
705739.70392, 3,  -3.960, 16.082, -2.742, 4,  -0.068, -0.104, -0.142, 5,  27.975,-44.202,  9.758
705739.72382, 3,   0.318, 10.591,  2.572, 4,  -0.193, -0.179, -0.037, 5,  27.321,-43.498,  6.850
705739.74369, 3,  -0.711,  6.963,  3.491, 4,  -0.242, -0.316,  0.042, 5,  26.701,-41.371,  6.116
705739.76352, 3,  -4.015,  8.877, -6.363, 4,  -0.094, -0.393,  0.021, 5,  27.321,-43.498,  6.850
705739.78339, 3,  -4.886, 10.933, -9.401, 4,   0.194, -0.482, -0.024, 5,  27.351,-42.068,  5.392
705739.80326, 3,  -1.038,  4.898, -2.414, 4,   0.225, -0.512,  0.129, 5,  28.006,-42.770,  7.576
705739.82312, 3,  -0.033, 12.096, -3.022, 4,   0.005, -0.459,  0.283, 5,  28.036,-41.341,  6.845
705739.84299, 3,   2.503, 10.292,  0.079, 4,  -0.050, -0.316,  0.355, 5,  28.654,-43.462,  5.399
705739.86286, 3,   1.981, 10.899, -1.893, 4,   0.012, -0.151,  0.382, 5,  27.303,-44.209,  6.125
705739.88272, 3,   0.909,  9.404, -5.731, 4,   0.139,  0.090,  0.322, 5,  26.656,-43.517,  7.574
705739.90259, 3,   0.445,  9.930, -3.137, 4,   0.207,  0.356,  0.238, 5,  28.641,-44.182,  8.305
705739.92185, 3,   0.038,  3.501, -2.328, 4,   0.136,  0.574,  0.196, 5,  25.938,-45.673,  7.578
705739.94229, 3,  -1.122, 14.319, -4.874, 4,   0.037,  0.665,  0.124, 5,  25.288,-44.977,  7.576
705739.96216, 3,   1.309,  8.674,  1.417, 4,   0.073,  0.625,  0.056, 5,  24.669,-42.853,  8.296
705739.98203, 3,   0.890,  8.183, -2.063, 4,  -0.021,  0.437,  0.013, 5,  24.654,-43.568,  9.024
705740.00193, 3,  -1.378,  9.633, -5.549, 4,   0.049,  0.315, -0.115, 5,  25.320,-43.550,  7.573
705740.02179, 3,  -2.271, 10.296, -3.635, 4,   0.120,  0.223, -0.189, 5,  26.004,-42.821,  8.298
705740.04166, 3,  -1.340,  7.348, -1.426, 4,  -0.016,  0.052, -0.167, 5,  25.970,-44.247,  8.301
705740.06150, 3,  -1.687, 14.788, -0.074, 4,  -0.147, -0.164, -0.131, 5,  25.969,-44.243,  6.848
705740.08136, 3,  -0.220,  8.688,  2.934, 4,  -0.159, -0.294, -0.067, 5,  26.671,-42.799,  6.847
705740.10123, 3,  -2.261, 10.402, -2.307, 4,  -0.148, -0.400, -0.029, 5,  26.636,-44.223,  5.397
705740.12110, 3,  -3.575,  8.162, -5.408, 4,   0.039, -0.411, -0.056, 5,  26.653,-43.510,  5.396
705740.14096, 3,  -2.115,  8.420, -4.994, 4,   0.123, -0.360,  0.029, 5,  26.669,-42.798,  6.120
705740.16083, 3,  -1.409,  8.152, -5.070, 4,   0.051, -0.314,  0.148, 5,  24.651,-43.562,  6.845
705740.18070, 3,  -1.713, 12.835, -4.013, 4,  -0.016, -0.269,  0.217, 5,  25.349,-42.117,  5.389
705740.20053, 3,   1.641,  8.272, -1.718, 4,  -0.013, -0.137,  0.266, 5,  26.656,-43.517,  7.574
705740.22040, 3,   1.694,  8.353, -6.386, 4,  -0.026,  0.072,  0.265, 5,  25.969,-44.243,  6.848
705740.24027, 3,  -1.615,  7.406, -8.183, 4,   0.106,  0.424,  0.170, 5,  25.304,-44.264,  8.301
705740.26014, 3,  -2.740,  6.190, -4.817, 4,   0.152,  0.755,  0.092, 5,  25.970,-44.246,  7.574
705740.28000, 3,   0.081, 12.074, -2.804, 4,   0.026,  0.827, -0.001, 5,  26.639,-44.231,  8.302
705740.29990, 3,   1.223, 12.577,  0.160, 4,  -0.095,  0.679, -0.045, 5,  26.640,-44.232,  9.029
705740.31977, 3,  -0.562,  6.257,  2.718, 4,  -0.118,  0.458, -0.086, 5,  25.970,-44.247,  8.301
705740.33960, 3,  -4.032,  9.217, -3.606, 4,  -0.033,  0.161, -0.228, 5,  26.625,-44.946,  9.030
705740.35947, 3,  -5.884, 11.548, -6.260, 4,   0.158, -0.160, -0.327, 5,  27.306,-44.215,  8.304
705740.37934, 3,  -3.898,  9.121, -2.335, 4,   0.177, -0.428, -0.234, 5,  28.006,-42.770,  7.576
705740.39920, 3,  -0.744, 10.002, -1.448, 4,   0.022, -0.532, -0.049, 5,  27.290,-44.930,  8.305
705740.41907, 3,   0.565,  8.612, -1.486, 4,  -0.052, -0.499,  0.123, 5,  27.940,-45.625,  8.308
705740.43894, 3,  -0.658, -4.551, -4.814, 4,  -0.010, -0.426,  0.192, 5,  28.558,-47.745,  6.862
705740.45880, 3,  -1.790, 26.512,-10.442, 4,   0.067, -0.317,  0.163, 5,  28.642,-44.183,  9.032
705740.47864, 3,   4.216,  9.588,  4.874, 4,   0.059, -0.158,  0.185, 5,  27.974,-44.200,  9.032
705740.49851, 3,   4.307, 11.230,  7.408, 4,  -0.335,  0.090,  0.285, 5,  29.974,-44.145,  6.856
705740.51838, 3,   2.299, 11.431, -0.983, 4,  -0.210,  0.290,  0.181, 5,  28.592,-46.321,  7.584
705740.53824, 3,  -2.024,  9.260, -7.150, 4,   0.230,  0.328,  0.012, 5,  27.245,-47.072,  9.764
705740.55811, 3,  -2.020,  5.848, -7.832, 4,   0.403,  0.202, -0.114, 5,  27.957,-44.913,  8.307
705740.57801, 3,  -0.787, 13.055, -1.017, 4,   0.291,  0.097, -0.107, 5,  27.957,-44.913,  8.307
705740.59787, 3,  -4.104, -0.948, -5.635, 4,   0.115,  0.006, -0.020, 5,  27.957,-44.913,  8.307
705740.61774, 3,  -3.450, 21.318,-11.481, 4,   0.045, -0.116, -0.030, 5,  27.255,-46.352,  6.856
705740.63758, 3,   1.874,  6.611, -2.103, 4,   0.368, -0.145, -0.051, 5,  27.940,-45.625,  8.308
705740.65744, 3,   0.132, 10.287,  0.254, 4,   0.002,  0.143,  0.034, 5,  27.924,-46.339,  8.310
705740.67731, 3,  -1.833,  8.585, -3.496, 4,  -0.040,  0.371, -0.079, 5,  27.957,-44.913,  8.307
705740.69718, 3,  -2.986,  4.912, -6.097, 4,   0.022,  0.263, -0.195, 5,  29.962,-44.865,  9.036
705740.71704, 3,  -1.881, 12.246, -4.755, 4,   0.068,  0.035, -0.220, 5,  30.629,-44.847,  7.584
705740.73691, 3,   0.964,  8.987, -0.129, 4,  -0.008, -0.134, -0.162, 5,  29.961,-44.864,  8.310
705740.75675, 3,  -1.038,  0.091, -1.582, 4,  -0.120, -0.214, -0.080, 5,  29.295,-44.882,  9.035
705740.77661, 3,  -4.027, 14.477, -6.638, 4,  -0.057, -0.281, -0.106, 5,  31.297,-44.830,  7.585
705740.79648, 3,  -1.649, 12.239, -2.036, 4,   0.054, -0.253, -0.098, 5,  30.615,-45.564,  9.764
705740.81635, 3,  -1.424,  7.760,  1.228, 4,  -0.118, -0.115,  0.035, 5,  29.964,-44.867,  9.763
705740.83622, 3,  -2.611, 15.857,  1.584, 4,  -0.198,  0.056,  0.100, 5,  29.977,-44.151,  9.035
705740.85608, 3,  -1.926,  4.860,  3.367, 4,  -0.105,  0.238,  0.135, 5,  29.961,-44.864,  8.310
705740.87598, 3,  -3.912,  9.942, -5.377, 4,  -0.020,  0.262,  0.115, 5,  28.595,-46.326,  9.763
705740.89585, 3,  -2.060, 10.930, -6.245, 4,   0.241,  0.233,  0.029, 5,  29.314,-44.171, 10.486
705740.91568, 3,  -1.151,  0.120, -5.154, 4,   0.242,  0.186,  0.075, 5,  28.627,-44.897,  9.033
705740.93555, 3,  -1.141, 16.216, -9.301, 4,   0.056,  0.204,  0.115, 5,  29.945,-45.578,  9.038
705740.95542, 3,   3.400, 11.529,  0.179, 4,   0.060,  0.208,  0.097, 5,  29.295,-44.882,  9.035
705740.97528, 3,   1.364,  5.056,  2.788, 4,  -0.193,  0.215,  0.108, 5,  28.615,-45.616, 11.940
705740.99515, 3,   0.354, 13.713, -5.389, 4,  -0.188,  0.188,  0.017, 5,  28.630,-44.901, 10.486
705741.01502, 3,  -1.170,  8.511, -5.216, 4,   0.064,  0.011, -0.115, 5,  29.300,-44.888, 11.940
705741.03489, 3,  -1.656,  8.911, -4.082, 4,   0.046, -0.181, -0.120, 5,  27.278,-45.648, 11.211
705741.05472, 3,   0.447, 11.861, -2.654, 4,   0.004, -0.343, -0.104, 5,  28.645,-44.188, 11.209
705741.07459, 3,   2.802,  6.726,  0.402, 4,  -0.062, -0.402, -0.023, 5,  27.995,-43.494, 11.935
705741.09446, 3,  -0.120,  7.959, -3.654, 4,  -0.107, -0.368,  0.002, 5,  28.011,-42.778, 11.206
705741.11432, 3,  -2.422, 16.209, -5.618, 4,   0.034, -0.286, -0.067, 5,  28.014,-42.784, 13.387
705741.13419, 3,  -0.081,  2.063, -1.357, 4,   0.108, -0.201, -0.078, 5,  27.359,-42.082, 11.201
705741.15409, 3,  -2.060, 11.481, -3.726, 4,  -0.041, -0.115, -0.010, 5,  28.677,-42.758,  9.755
705741.17395, 3,  -0.033,  8.380, -3.242, 4,   0.007, -0.026,  0.004, 5,  28.024,-42.062,  9.752
705741.19379, 3,  -1.665, 12.881, -2.371, 4,   0.002,  0.014,  0.058, 5,  26.645,-44.238, 11.934
705741.21366, 3,   1.038, 11.653,  0.050, 4,  -0.017,  0.064,  0.057, 5,  27.994,-43.491, 10.483
705741.23352, 3,   1.105,  4.369,  0.301, 4,  -0.032,  0.075,  0.075, 5,  26.659,-43.521,  9.753
705741.25339, 3,  -2.359, -3.058,-11.454, 4,   0.021,  0.110,  0.043, 5,  28.644,-44.185,  9.758
705741.27326, 3,  -6.229, 16.470,-10.753, 4,   0.166,  0.163, -0.046, 5,  25.992,-43.539, 10.478
705741.29312, 3,  -0.491, 10.543,  4.111, 4,  -0.079,  0.317,  0.028, 5,  26.677,-42.810, 11.203
705741.31299, 3,   3.051,  7.650, 10.248, 4,  -0.585,  0.272,  0.195, 5,  24.654,-43.568,  9.024
705741.33286, 3,  -0.065, 13.948,  3.175, 4,  -0.605,  0.046,  0.133, 5,  26.674,-42.805,  9.026
705741.35270, 3,  -2.008,  8.767, -5.068, 4,  -0.151,  0.028,  0.013, 5,  25.322,-43.553,  9.026
705741.37256, 3,  -4.671, 12.074, -8.238, 4,   0.186,  0.018, -0.079, 5,  26.657,-43.520,  9.027
705741.39243, 3,   0.179, 11.452,  9.856, 4,   0.164,  0.084,  0.008, 5,  25.990,-43.538,  9.752
705741.41230, 3,  -2.166,  1.905, -1.675, 4,  -0.144,  0.034,  0.128, 5,  26.675,-42.807,  9.752
705741.43219, 3,  -1.220, 18.575,-10.830, 4,  -0.112, -0.134,  0.013, 5,  25.975,-44.252, 10.480
705741.45206, 3,  -0.091,  5.460, -5.436, 4,   0.379, -0.360,  0.015, 5,  25.290,-44.980,  9.029
705741.47193, 3,  -0.562, 10.153, -4.810, 4,   0.164, -0.167,  0.170, 5,  25.342,-42.842, 10.477
705741.49176, 3,   1.950, 13.340, -5.288, 4,   0.100,  0.046,  0.184, 5,  25.288,-44.978,  8.302
705741.51163, 3,   2.326,  5.434, -0.639, 4,   0.040,  0.123,  0.164, 5,  24.672,-42.856,  9.749
705741.53150, 3,   0.419,  8.411, -4.463, 4,  -0.041,  0.172,  0.122, 5,  24.672,-42.856,  9.749
705741.55136, 3,  -0.517, 13.890, -5.291, 4,   0.070,  0.196,  0.021, 5,  24.673,-42.857, 10.475
705741.57123, 3,   1.306,  6.824, -3.467, 4,   0.119,  0.180, -0.018, 5,  24.603,-45.706,  8.302
705741.59110, 3,  -0.294, 12.014, -4.065, 4,   0.040,  0.167, -0.059, 5,  23.987,-43.587,  9.749
705741.61093, 3,  -0.203,  9.516,  0.227, 4,  -0.005,  0.167, -0.078
705741.63080, 3,  -0.244, 10.875, -1.029, 4,  -0.072,  0.074, -0.078, 5,  25.323,-43.555,  9.752
705741.65067, 3,  -1.029,  8.499, -2.627, 4,  -0.040, -0.058, -0.148, 5,  25.276,-45.695, 10.483
705741.67054, 3,  -2.651,  8.387, -3.747, 4,   0.043, -0.137, -0.151, 5,  25.293,-44.983, 10.481
705741.69040, 3,  -2.168, 12.213, -3.022, 4,   0.060, -0.176, -0.137, 5,  26.628,-44.949, 10.483
705741.71027, 3,  -1.005,  8.777,  0.988, 4,  -0.015, -0.146, -0.060, 5,  26.610,-45.660,  9.758
705741.73017, 3,  -1.381,  8.480, -1.627, 4,  -0.071, -0.130,  0.025, 5,  25.276,-45.695, 10.483
705741.75003, 3,  -1.503, 10.191, -3.020, 4,  -0.007, -0.116,  0.001, 5,  25.957,-44.963,  9.029
705741.76987, 3,  -1.823,  7.174, -3.446, 4,   0.100, -0.063,  0.014, 5,  25.259,-46.410, 10.484
705741.78974, 3,  -2.008, 12.211, -3.142, 4,   0.050,  0.025,  0.068, 5,  25.293,-44.983, 10.481
705741.80960, 3,   0.323,  9.856, -3.044, 4,   0.024,  0.090,  0.095, 5,  25.258,-46.408,  9.758
705741.82947, 3,  -0.187, 12.000, -1.948, 4,  -0.043,  0.167,  0.123, 5,  24.608,-45.711, 10.481
705741.84934, 3,  -0.237, 10.426, -0.127, 4,  -0.029,  0.244,  0.108, 5,  25.960,-44.966, 10.481
705741.86921, 3,  -1.814,  9.071, -1.067, 4,  -0.051,  0.288,  0.051, 5,  23.938,-45.726,  9.753
705741.88907, 3,  -2.020,  8.325, -4.922, 4,   0.015,  0.290,  0.025, 5,  25.294,-44.986, 11.934
705741.90891, 3,  -1.505,  7.858, -6.001, 4,   0.098,  0.237, -0.032, 5,  25.244,-47.124, 11.212
705741.92878, 3,   0.550, 12.962, -3.494, 4,   0.078,  0.193, -0.020, 5,  25.259,-46.410, 10.484
705741.94864, 3,   0.383,  4.597,  1.936, 4,  -0.081,  0.177,  0.004, 5,  23.943,-45.734, 12.659
705741.96851, 3,  -1.182, 10.007, -3.142, 4,  -0.156,  0.175, -0.064, 5,  26.613,-45.665, 11.937
705741.98838, 3,  -1.311,  8.090, -4.566, 4,   0.018,  0.113, -0.144, 5,  25.975,-44.254, 11.205
705742.00827, 3,  -1.417, 12.804, -4.350, 4,   0.053,  0.059, -0.163, 5,  25.293,-44.983, 10.481
705742.02814, 3,   0.218,  9.064, -1.261, 4,  -0.010,  0.008, -0.150, 5,  26.660,-43.524, 11.205
705742.04801, 3,  -0.498,  6.286,  2.804, 4,  -0.107, -0.065, -0.135, 5,  25.291,-44.981,  9.755
705742.06784, 3,  -1.799,  9.648, -4.867, 4,  -0.078, -0.134, -0.164, 5,  26.628,-44.951, 11.208
705742.08771, 3,  -1.237,  8.849, -4.910, 4,   0.098, -0.201, -0.197, 5,  27.977,-44.203, 10.484
705742.10758, 3,  -1.479, 12.177, -3.838, 4,   0.106, -0.193, -0.117, 5,  27.977,-44.203, 10.484
705742.12744, 3,   2.268, 15.836, -2.232, 4,   0.000, -0.108, -0.057, 5,  27.330,-43.513, 12.660
705742.14731, 3,   1.086,  4.123,  1.950, 4,  -0.054, -0.007, -0.010, 5,  27.943,-45.628,  9.761
705742.16718, 3,  -1.728, 10.820, -6.059, 4,  -0.076,  0.031, -0.043, 5,  27.962,-44.919, 11.211
705742.18705, 3,  -1.902, 10.299, -4.465, 4,   0.123,  0.023, -0.113, 5,  28.648,-44.193, 12.663
705742.20688, 3,  -0.081,  6.068, -1.108, 4,   0.044, -0.026, -0.075, 5,  26.591,-46.373,  9.033
705742.22675, 3,  -0.665, 13.586, -3.730, 4,  -0.104, -0.053, -0.043, 5,  27.310,-44.220, 10.483
705742.24662, 3,   0.524,  9.918, -0.146, 4,  -0.076, -0.107, -0.015, 5,  24.686,-42.142,  9.019
705742.26648, 3,   0.974,  9.571, -2.706, 4,  -0.103, -0.191, -0.013, 5,  26.625,-44.946,  9.030
705742.28635, 3,   0.452,  8.212, -4.233, 4,  -0.041, -0.235, -0.076, 5,  27.979,-44.206, 11.937
705742.30625, 3,   0.615,  6.702, -1.405, 4,  -0.005, -0.202, -0.085, 5,  27.962,-44.917, 10.486
705742.32611, 3,  -0.187, 12.019, -1.295, 4,  -0.077, -0.170, -0.087, 5,  27.310,-44.220, 10.483
705742.34595, 3,   0.957, 12.368, -1.692, 4,  -0.074, -0.222, -0.087, 5,  26.625,-44.946,  9.030
705742.36582, 3,   0.115, 10.906, -0.445, 4,  -0.011, -0.328, -0.076, 5,  27.977,-44.203, 10.484
705742.38567, 3,  -2.015,  5.432, -4.831, 4,   0.007, -0.383, -0.101, 5,  27.309,-44.218,  9.756
705742.40554, 3,  -3.056, 10.117, -7.356, 4,   0.126, -0.393, -0.118, 5,  28.008,-42.773,  9.029
705742.42540, 3,  -3.271,  6.504, -1.697, 4,   0.148, -0.343, -0.045, 5,  28.658,-43.469,  8.304
705742.44527, 3,  -1.649, 12.849, -3.290, 4,  -0.070, -0.291,  0.090, 5,  27.972,-44.199,  8.305
705742.46514, 3,  -0.301,  9.208, -0.220, 4,  -0.068, -0.234,  0.196, 5,  27.972,-44.199,  8.305
705742.48497, 3,   0.536,  9.985,  0.060, 4,  -0.055, -0.132,  0.239, 5,  27.324,-43.504,  9.029
705742.50484, 3,  -1.505, 13.309, -5.001, 4,   0.017,  0.122,  0.227, 5,  27.272,-45.638,  6.854
705742.52471, 3,  -0.706,  3.436, -2.350, 4,   0.149,  0.354,  0.201, 5,  27.322,-43.501,  7.576
705742.54458, 3,  -1.038,  9.119, -2.883, 4,   0.111,  0.488,  0.189, 5,  27.293,-44.933,  9.758
705742.56444, 3,  -1.067, 11.210, -4.472, 4,   0.089,  0.599,  0.140, 5,  27.307,-44.217,  9.030
705742.58434, 3,  -0.199,  9.181, -2.161, 4,   0.087,  0.543,  0.059, 5,  26.642,-44.234,  9.755
705742.60421, 3,  -0.301, 12.316, -0.048, 4,  -0.012,  0.422,  0.015, 5,  27.327,-43.507, 10.481
705742.62404, 3,  -0.625,  7.157, -3.738, 4,  -0.072,  0.262, -0.059, 5,  26.659,-43.521,  9.753
705742.64391, 3,  -1.189,  3.403, -2.716, 4,   0.000,  0.133, -0.119, 5,  25.276,-45.697, 11.208
705742.66378, 3,  -2.177, 11.806, -5.602, 4,  -0.005,  0.036, -0.122, 5,  26.640,-44.232,  9.029
705742.68364, 3,  -1.072, 16.010, -0.727, 4,  -0.049, -0.047, -0.091, 5,  25.339,-42.839,  9.024
705742.70351, 3,  -0.541,  1.926,  1.871, 4,  -0.171, -0.125, -0.070, 5,  25.356,-42.128,  9.747
705742.72338, 3,  -1.216, 15.821, -4.276, 4,  -0.233, -0.208, -0.067, 5,  26.009,-42.825, 10.477
705742.74324, 3,  -0.218,  6.992, -5.398, 4,   0.100, -0.233, -0.089, 5,  25.342,-42.842, 10.477
705742.76311, 3,   0.632, 12.648, -4.056, 4,   0.051, -0.124, -0.031, 5,  27.306,-44.214,  7.578
705742.78295, 3,   1.417, 10.832,  1.524, 4,   0.018, -0.020,  0.020, 5,  25.970,-44.246,  7.574
705742.80281, 3,   0.811,  4.731, -2.132, 4,  -0.101,  0.008, -0.018, 5,  29.250,-47.026, 11.218
705742.82268, 3,  -0.223, 16.417, -7.135, 4,  -0.061, -0.009, -0.092, 5,  29.930,-46.294,  9.766
705742.84255, 3,   1.326,  7.604, -4.403, 4,   0.127, -0.074, -0.108, 5,  29.912,-47.003,  8.316
705742.86245, 3,   0.165,  8.119, -1.998, 4,  -0.017, -0.048, -0.103, 5,  27.290,-44.930,  8.305
705742.88231, 3,  -0.390, 14.034, -0.586, 4,  -0.104,  0.020, -0.109, 5,  27.975,-44.202,  9.758
705742.90218, 3,  -0.670,  4.384, -2.824, 4,  -0.128, -0.032, -0.156, 5,  25.305,-44.266,  9.027
705742.92202, 3,  -3.671, 17.463, -4.159, 4,  -0.081, -0.097, -0.227, 5,  28.625,-44.896,  8.307
705742.94188, 3,  -0.311,  2.687,  0.751, 4,  -0.024, -0.126, -0.196, 5,  27.304,-44.211,  6.851
705742.96175, 3,  -1.639, 18.786, -3.472, 4,  -0.131, -0.198, -0.165, 5,  28.639,-44.177,  6.853
705742.98162, 3,  -0.098,  9.129,  1.883, 4,  -0.018, -0.173, -0.125, 5,  26.657,-43.520,  9.027
705743.00148, 3,  -2.082,  6.705, -1.606, 4,  -0.072, -0.270, -0.084, 5,  27.957,-44.911,  7.581
705743.02135, 3,  -4.429, 10.301, -8.882, 4,   0.082, -0.366, -0.124, 5,  28.658,-43.468,  7.578
705743.04122, 3,  -2.393,  1.369, -3.948, 4,   0.232, -0.565, -0.100, 5,  29.308,-44.162,  6.854
705743.06105, 3,  -1.524, 17.561, -8.248, 4,   0.076, -0.676,  0.025, 5,  28.658,-43.468,  7.578
705743.08092, 3,   3.807,  7.573,  0.502, 4,   0.038, -0.724,  0.139, 5,  27.972,-44.199,  8.305
705743.10079, 3,   2.072,  7.401,  1.237, 4,  -0.138, -0.729,  0.241, 5,  27.966,-44.188,  3.947
705743.12066, 3,   1.462, 12.634, -6.968, 4,  -0.059, -0.604,  0.245, 5,  27.986,-43.480,  6.125
705743.14052, 3,  -0.359,  9.796, -4.180, 4,   0.188, -0.468,  0.161, 5,  27.271,-45.634,  5.402
705743.16042, 3,   0.995,  8.873, -3.130, 4,   0.127, -0.263,  0.201, 5,  28.638,-44.176,  6.126
705743.18029, 3,   1.809,  9.973, -2.993, 4,   0.060, -0.046,  0.223, 5,  27.287,-44.923,  6.126
705743.20015, 3,   0.605,  6.922, -0.572, 4,   0.059,  0.138,  0.262, 5,  27.255,-46.352,  6.856
705743.21999, 3,  -1.235, 13.108, -3.087, 4,   0.038,  0.266,  0.214, 5,  26.637,-44.226,  6.850
705743.23986, 3,  -1.115, 10.717, -0.115, 4,   0.106,  0.311,  0.131, 5,  27.238,-47.063,  6.133
705743.25972, 3,  -1.764, 11.655, -1.773, 4,   0.043,  0.292,  0.109, 5,  27.290,-44.928,  7.579
705743.27959, 3,  -4.245, 10.361, -4.154, 4,   0.048,  0.206,  0.092, 5,  27.306,-44.214,  7.578
705743.29946, 3,  -2.113,  8.983,  0.031, 4,   0.064,  0.127,  0.111, 5,  25.269,-45.685,  6.125
705743.31932, 3,  -2.768,  5.664,  0.687, 4,   0.007,  0.025,  0.126, 5,  26.622,-44.940,  6.851
705743.33919, 3,  -3.927, 10.591, -4.826, 4,   0.002,  0.012,  0.128, 5,  27.290,-44.930,  8.305
705743.35903, 3,  -3.891,  4.673, -5.554, 4,   0.174,  0.055,  0.156, 5,  26.590,-46.371,  8.307
705743.37890, 3,  -3.247, 11.883, -5.343, 4,   0.143,  0.190,  0.213, 5,  23.918,-46.436,  7.576
705743.39876, 3,   0.203, 11.486, -1.804, 4,   0.075,  0.415,  0.265, 5,  25.255,-46.404,  7.579
705743.41863, 3,   0.275,  9.796,  2.644, 4,  -0.063,  0.573,  0.293, 5,  23.936,-45.724,  9.027
705743.43853, 3,  -0.952,  8.550, -0.890, 4,  -0.112,  0.684,  0.210, 5,  24.637,-44.281,  9.026
705743.45839, 3,  -3.283,  6.714, -2.869, 4,   0.033,  0.686,  0.093, 5,  24.637,-44.281,  9.026
705743.47826, 3,  -2.926, 14.216, -6.470, 4,   0.164,  0.607, -0.014, 5,  24.637,-44.281,  9.026
705743.49810, 3,  -0.967, 10.481, -3.180, 4,   0.115,  0.467, -0.023, 5,  25.325,-43.558, 11.203
705743.51796, 3,  -0.328,  7.037,  1.395, 4,  -0.065,  0.312,  0.023, 5,  25.308,-44.269, 10.480
705743.53783, 3,  -0.112, 11.174,  0.273, 4,  -0.144,  0.086,  0.004, 5,  26.642,-44.234,  9.755
705743.55770, 3,  -1.711,  7.214, -3.558, 4,  -0.061, -0.057, -0.035, 5,  23.988,-43.590, 11.200
705743.57756, 3,  -2.173, 14.632, -5.877, 4,   0.076, -0.146, -0.038, 5,  25.293,-44.983, 10.481
705743.59743, 3,   0.452,  5.121, -1.005, 4,   0.126, -0.169,  0.008, 5,  25.293,-44.983, 10.481
705743.61730, 3,   1.094, 12.199, -2.448, 4,  -0.020, -0.069,  0.104, 5,  26.628,-44.951, 11.208
705743.63713, 3,   1.754,  9.184, -2.663, 4,   0.024,  0.035,  0.074, 5,  26.677,-42.810, 11.203
705743.65700, 3,   1.304,  7.370, -3.319, 4,   0.046,  0.107,  0.009, 5,  24.673,-42.859, 11.200
705743.67687, 3,   2.120, 10.438, -6.939, 4,   0.105,  0.155, -0.034, 5,  26.692,-42.097, 11.200
705743.69674, 3,   2.070, 12.854, -1.862, 4,   0.120,  0.118, -0.145, 5,  24.640,-44.284, 10.478
705743.71660, 3,   1.749,  7.442, -0.603, 4,  -0.044,  0.091, -0.158, 5,  24.641,-44.287, 11.931
705743.73650, 3,  -0.455, 13.151, -0.529, 4,  -0.137, -0.047, -0.202, 5,  25.325,-43.556, 10.478
705743.75637, 3,  -1.328,  2.797, -0.041, 4,  -0.032, -0.182, -0.308, 5,  25.308,-44.270, 11.205
705743.77620, 3,  -2.419,  8.818, -9.782, 4,   0.013, -0.321, -0.318, 5,  25.307,-44.267,  9.753
705743.79607, 3,  -2.773, 14.936, -5.523, 4,   0.182, -0.402, -0.316, 5,  26.692,-42.096, 10.475
705743.81594, 3,   1.376,  4.817,  0.766, 4,   0.006, -0.318, -0.183, 5,  26.007,-42.824,  9.750
705743.83580, 3,   0.495, 12.069, -1.646, 4,  -0.241, -0.286, -0.048, 5,  25.323,-43.555,  9.752
705743.85567, 3,  -1.433, 11.170, -0.383, 4,  -0.120, -0.226, -0.089, 5,  28.023,-42.061,  9.026
705743.87554, 3,  -2.096,  5.618, -3.489, 4,  -0.073, -0.230, -0.112, 5,  25.986,-43.530,  6.847
705743.89541, 3,  -3.355, 21.064, -1.577, 4,  -0.045, -0.350, -0.082, 5,  26.035,-41.389,  6.841
705743.91524, 3,   1.740,  0.407,  2.544, 4,  -0.018, -0.474, -0.029, 5,  25.351,-42.120,  6.842
705743.93511, 3,  -1.560, 11.337, -4.960, 4,  -0.125, -0.582,  0.087, 5,  27.339,-42.789,  8.301
705743.95498, 3,  -1.105, 13.354, -4.515, 4,   0.185, -0.550,  0.087, 5,  26.688,-42.090,  7.570
705743.97484, 3,   0.256,  4.630, -0.105, 4,   0.198, -0.354,  0.155, 5,  25.349,-42.119,  6.116
705743.99471, 3,  -0.770, 12.201, -7.915, 4,   0.078, -0.016,  0.251, 5,  26.036,-41.394,  8.293
705744.01461, 3,  -1.694, 11.825, -5.044, 4,   0.194,  0.257,  0.229, 5,  26.669,-42.796,  5.394
705744.03447, 3,  -0.203,  6.310, -1.675, 4,   0.111,  0.507,  0.273, 5,  26.001,-42.815,  6.119
705744.05434, 3,  -1.586,  1.986, -2.192, 4,  -0.041,  0.632,  0.227, 5,  27.988,-43.481,  6.851
705744.07418, 3,  -4.099, 12.529, -3.422, 4,  -0.032,  0.664,  0.097, 5,  26.637,-44.226,  6.850
705744.09404, 3,  -2.819, 12.469, -3.190, 4,  -0.059,  0.606,  0.048, 5,  26.003,-42.816,  6.845
705744.11391, 3,  -1.565, 14.467,  1.785, 4,  -0.112,  0.444,  0.056, 5,  25.969,-44.243,  6.848
705744.13378, 3,  -1.213,  5.094,  2.599, 4,  -0.181,  0.279,  0.054, 5,  25.970,-44.247,  8.301
705744.15364, 3,  -3.541, 10.772, -1.029, 4,  -0.148,  0.174,  0.043, 5,  25.272,-45.689,  7.578
705744.17351, 3,  -3.092,  6.449, -3.549, 4,   0.075,  0.135, -0.030, 5,  25.301,-44.258,  6.122
705744.19338, 3,  -1.799,  9.509,  1.737, 4,   0.109,  0.129,  0.023, 5,  25.954,-44.957,  6.850
705744.21322, 3,  -0.383, 12.687, -7.490, 4,   0.072,  0.172,  0.084, 5,  25.320,-43.550,  7.573
705744.23308, 3,   1.697, 11.861, -3.455, 4,   0.053,  0.217,  0.108, 5,  25.290,-44.980,  9.029
705744.25295, 3,   3.257,  6.267, -2.654, 4,   0.100,  0.274,  0.117, 5,  23.955,-45.013,  9.752
705744.27282, 3,   3.020, 12.270, -6.279, 4,   0.033,  0.387,  0.006, 5,  25.304,-44.263,  7.574
705744.29271, 3,   2.000,  3.242, -1.656, 4,   0.073,  0.487, -0.109, 5,  25.323,-43.555,  9.752
705744.31258, 3,  -0.715, 15.896, -4.434, 4,  -0.061,  0.400, -0.223, 5,  24.657,-43.573, 11.201
705744.33245, 3,   0.280, 10.837, -2.271, 4,  -0.051,  0.166, -0.323, 5,  25.308,-44.269, 10.480
705744.35228, 3,   0.424,  7.942, -1.350, 4,  -0.110, -0.230, -0.345, 5,  25.972,-44.249,  9.027
705744.37215, 3,  -1.488,  7.234, -4.298, 4,  -0.127, -0.639, -0.362, 5,  26.624,-44.945,  8.304
705744.39202, 3,  -3.151, 10.162, -1.641, 4,  -0.057, -0.925, -0.344, 5,  26.656,-43.518,  8.301
705744.41188, 3,  -0.450, 11.782, -0.390, 4,  -0.093, -1.112, -0.218, 5,  26.605,-45.653,  6.853
705744.43175, 3,   0.000, 17.171,  0.402, 4,  -0.110, -1.129, -0.042, 5,  27.303,-44.209,  6.125
705744.45162, 3,   2.182,  4.063,  0.419, 4,  -0.056, -0.862,  0.131, 5,  25.935,-45.668,  6.125
705744.47149, 3,  -1.816,  7.602, -6.183, 4,   0.062, -0.473,  0.212, 5,  26.605,-45.653,  6.853
705744.49135, 3,  -2.410, 14.687, -8.545, 4,   0.283,  0.035,  0.173, 5,  25.967,-44.241,  6.122
705744.51119, 3,   1.333,  2.850, -0.230, 4,   0.263,  0.415,  0.202, 5,  27.254,-46.350,  6.129
705744.53106, 3,   0.792, 13.792, -2.414, 4,  -0.006,  0.659,  0.229, 5,  27.969,-44.193,  6.126
705744.55092, 3,   2.316, 11.454, -2.036, 4,  -0.039,  0.701,  0.151, 5,  26.625,-44.946,  9.030
705744.57079, 3,   1.945,  7.262, -5.090, 4,  -0.023,  0.496,  0.015, 5,  27.924,-46.338,  7.584
705744.59069, 3,  -2.740, 11.837, -3.111, 4,  -0.034,  0.266, -0.136, 5,  27.957,-44.911,  7.581
705744.61055, 3,  -3.101,  3.592,  1.314, 4,  -0.076,  0.063, -0.209, 5,  26.604,-45.651,  6.126
705744.63042, 3,  -3.750, 13.321, -0.668, 4,  -0.233, -0.230, -0.184, 5,  27.988,-43.481,  6.851
705744.65026, 3,  -2.108, 11.849, -1.180, 4,  -0.139, -0.492, -0.126, 5,  27.957,-44.911,  7.581
705744.67012, 3,  -2.101,  7.853, -1.244, 4,  -0.016, -0.572, -0.002, 5,  27.257,-46.355,  7.582
705744.68999, 3,  -2.685,  7.693, -4.996, 4,   0.078, -0.474,  0.053, 5,  27.922,-46.335,  6.857
705744.70925, 3,  -2.867,  8.540, -5.011, 4,   0.186, -0.192,  0.122, 5,  27.937,-45.619,  6.129
705744.72973, 3,  -0.249,  8.901, -3.833, 4,   0.136,  0.055,  0.201, 5,  27.303,-44.209,  6.125
705744.74959, 3,   3.130, 13.060, -1.773, 4,   0.029,  0.217,  0.263, 5,  27.959,-44.914,  9.033
705744.76943, 3,   3.733,  8.487, -0.024, 4,  -0.016,  0.403,  0.262, 5,  28.624,-44.891,  6.854
705744.78930, 3,  -0.041,  7.674, -2.536, 4,  -0.034,  0.596,  0.144, 5,  28.593,-46.324,  9.036
705744.80916, 3,  -4.089, 13.177, -4.348, 4,   0.059,  0.657, -0.019
705744.82903, 3,  -3.486, 10.586, -0.749, 4,   0.073,  0.546, -0.103, 5,  27.924,-46.338,  7.584
705744.84890, 3,  -3.005, 11.490, -1.845, 4,  -0.026,  0.287, -0.115, 5,  28.625,-44.894,  7.581
705744.86879, 3,  -2.465, 11.486, -1.079, 4,  -0.066,  0.048, -0.085, 5,  28.607,-45.604,  6.856
705744.88866, 3,  -3.046,  4.276, -0.744, 4,  -0.018, -0.119, -0.042, 5,  28.592,-46.323,  8.310
705744.90853, 3,  -3.762, 15.496, -4.695, 4,   0.010, -0.156, -0.056, 5,  28.009,-42.775,  9.755
705744.92836, 3,  -0.598,  4.061, -1.426, 4,   0.119, -0.114,  0.021, 5,  29.323,-43.448,  6.126
705744.94823, 3,  -0.122,  9.593, -3.606, 4,   0.023, -0.092,  0.091, 5,  29.277,-45.593,  8.310
705744.96810, 3,   0.993,  9.913, -3.943, 4,   0.084,  0.026,  0.123, 5,  29.327,-43.456,  9.032
705744.98797, 3,   1.091, 10.540, -4.099, 4,   0.101,  0.123,  0.128, 5,  28.673,-42.751,  6.850
705745.00783, 3,   0.833,  9.476, -2.486, 4,   0.051,  0.216,  0.070, 5,  28.642,-44.183,  9.032
705745.02770, 3,   0.110,  2.168,  0.120, 4,  -0.020,  0.246,  0.040, 5,  28.658,-43.469,  8.304
705745.04757, 3,  -0.914, 16.384, -6.619, 4,  -0.049,  0.196, -0.034, 5,  27.974,-44.200,  9.032
705745.06743, 3,   2.280, 10.265, -1.436, 4,   0.059,  0.070, -0.097, 5,  28.642,-44.183,  9.032
705745.08727, 3,   0.998,  4.408, -0.471, 4,  -0.072, -0.005, -0.065, 5,  28.677,-42.758,  9.755
705745.10714, 3,  -1.067, 10.473, -3.929, 4,  -0.106, -0.019, -0.130, 5,  27.991,-43.488,  9.030
705745.12700, 3,  -0.007,  6.078, -5.379, 4,   0.006, -0.046, -0.197, 5,  29.330,-43.459, 10.484
705745.14687, 3,   0.301, 13.955, -5.374, 4,  -0.032, -0.107, -0.170, 5,  28.629,-44.899,  9.760
705745.16677, 3,   2.292,  9.823,  0.495, 4,  -0.110, -0.124, -0.136, 5,  29.980,-44.156, 11.212
705745.18663, 3,   1.744,  8.849,  1.503, 4,  -0.279, -0.119, -0.113, 5,  27.975,-44.202,  9.758
705745.20650, 3,   0.814, 10.710, -2.285, 4,  -0.247, -0.236, -0.157, 5,  27.322,-43.501,  7.576
705745.22634, 3,  -2.692,  9.339, -0.347, 4,  -0.079, -0.322, -0.228, 5,  27.989,-43.486,  8.304
705745.24620, 3,  -4.542,  7.212, -3.479, 4,  -0.037, -0.397, -0.228, 5,  28.639,-44.177,  6.853
705745.26607, 3,  -4.728, 16.302, -3.068, 4,   0.020, -0.488, -0.170, 5,  27.339,-42.787,  7.574
705745.28594, 3,  -0.352,  7.088,  1.737, 4,   0.015, -0.512, -0.030, 5,  28.638,-44.176,  6.126
705745.30581, 3,  -2.134,  7.982, -1.232, 4,  -0.088, -0.544,  0.134, 5,  28.656,-43.465,  6.851
705745.32567, 3,  -3.963, 13.979, -5.377, 4,   0.077, -0.454,  0.137, 5,  27.954,-44.907,  6.128
705745.34554, 3,  -1.651,  4.812, -3.249, 4,   0.229, -0.281,  0.192, 5,  26.622,-44.940,  6.851
705745.36538, 3,  -0.840, 15.443, -4.309, 4,   0.115, -0.066,  0.296, 5,  27.969,-44.193,  6.126
705745.38524, 3,   1.172,  5.171,  2.424, 4,   0.068,  0.140,  0.353, 5,  27.921,-46.333,  6.131
705745.40511, 3,  -0.306,  9.681, -3.197, 4,   0.013,  0.243,  0.342, 5,  27.322,-43.501,  7.576
705745.42498, 3,  -0.914, 12.744, -6.968, 4,   0.158,  0.376,  0.212, 5,  26.625,-44.946,  9.030
705745.44487, 3,   0.400,  2.926, -3.261, 4,   0.266,  0.491,  0.146, 5,  25.285,-44.972,  6.123
705745.46474, 3,  -1.266, 11.021, -5.207, 4,   0.100,  0.557,  0.103, 5,  25.957,-44.963,  9.029
705745.48461, 3,   0.275, 10.452, -1.247, 4,   0.066,  0.554,  0.028, 5,  25.938,-45.674,  8.304
705745.50444, 3,   0.136,  6.403, -1.890, 4,  -0.049,  0.449, -0.009, 5,  26.625,-44.946,  9.030
705745.52431, 3,  -1.756, 11.730, -3.218, 4,  -0.088,  0.270, -0.087, 5,  25.302,-44.260,  6.848
705745.54418, 3,  -2.142,  5.312, -1.050, 4,  -0.005,  0.155, -0.128, 5,  24.635,-44.279,  8.299
705745.56405, 3,  -4.183, 14.515, -3.970, 4,  -0.070,  0.031, -0.118, 5,  26.656,-43.517,  7.574
705745.58391, 3,  -2.010, 12.206, -0.974, 4,  -0.066, -0.060, -0.103, 5,  25.970,-44.247,  8.301
705745.60378, 3,  -0.598,  7.303,  3.125, 4,  -0.140, -0.132,  0.018, 5,  25.954,-44.957,  6.850
705745.62365, 3,  -1.318, 10.454, -1.543, 4,  -0.145, -0.207,  0.072, 5,  26.639,-44.229,  7.576
705745.64351, 3,  -1.232,  9.758, -3.876, 4,   0.053, -0.153,  0.068, 5,  27.306,-44.214,  7.578
705745.66335, 3,  -1.031,  8.456, -7.612, 4,   0.155, -0.063,  0.102, 5,  25.987,-43.533,  7.573
705745.68322, 3,  -0.605, 14.510, -4.661, 4,   0.188,  0.074,  0.124, 5,  26.640,-44.232,  9.029
705745.70308, 3,   3.967,  5.417,  0.821, 4,   0.037,  0.238,  0.173, 5,  25.255,-46.405,  8.305
705745.72295, 3,   2.802,  9.038, -1.474, 4,  -0.144,  0.224,  0.180, 5,  26.624,-44.943,  7.578
705745.74285, 3,   0.986, 14.702, -4.702, 4,  -0.033,  0.243,  0.010, 5,  25.954,-44.957,  6.850
705745.76271, 3,   0.790,  5.281, -2.177, 4,   0.060,  0.164, -0.113, 5,  25.960,-44.966, 10.481
705745.78258, 3,  -0.352, 11.727, -5.338, 4,   0.009,  0.059, -0.168, 5,  26.607,-45.657,  8.305
705745.80242, 3,  -1.488,  9.236, -1.500, 4,  -0.027, -0.013, -0.203, 5,  25.955,-44.962,  8.302
705745.82229, 3,  -0.751,  7.312, -0.160, 4,  -0.121, -0.098, -0.183, 5,  26.642,-44.234,  9.755
705745.84215, 3,  -2.003,  7.829, -3.659, 4,  -0.090, -0.291, -0.192, 5,  28.627,-44.897,  9.033
705745.86202, 3,  -2.429,  8.028, -4.290, 4,   0.020, -0.364, -0.179, 5,  28.625,-44.894,  7.581
705745.88189, 3,  -1.295, 14.314, -6.059, 4,   0.010, -0.418, -0.140, 5,  26.622,-44.940,  6.851
705745.90175, 3,   0.026,  9.344,  1.309, 4,  -0.068, -0.465, -0.043, 5,  27.322,-43.503,  8.302
705745.92162, 3,  -1.007,  7.210,  2.835, 4,  -0.144, -0.493,  0.075, 5,  27.289,-44.925,  6.853
705745.94146, 3,  -1.613, 13.153, -1.945, 4,  -0.099, -0.548,  0.073, 5,  26.653,-43.512,  6.122
705745.96132, 3,  -3.453,  4.544, -2.228, 4,   0.122, -0.593,  0.078, 5,  25.955,-44.960,  7.576
705745.98119, 3,  -3.503,  9.571, -4.508, 4,   0.185, -0.565,  0.164, 5,  27.304,-44.211,  6.851
705746.00106, 3,   0.675, 11.141, -4.546, 4,   0.227, -0.457,  0.269, 5,  27.892,-47.766,  8.315
705746.02095, 3,   2.450, 10.737, -2.524, 4,   0.172, -0.248,  0.444, 5,  28.577,-47.034,  7.587
705746.04082, 3,   4.417, 11.687, -0.522, 4,   0.098,  0.022,  0.444, 5,  24.634,-44.275,  6.847
705746.06069, 3,   1.826,  6.011, -1.239, 4,   0.089,  0.364,  0.394, 5,  24.600,-45.699,  5.397
705746.08056, 3,  -0.349, 14.761, -7.829, 4,   0.158,  0.674,  0.310, 5,  25.954,-44.957,  6.850
705746.10039, 3,   0.084, 10.734, -3.647, 4,   0.244,  0.806,  0.178, 5,  25.922,-46.388,  8.305
705746.12026, 3,  -0.342,  6.982,  2.993, 4,   0.020,  0.874,  0.151, 5,  24.602,-45.702,  6.850
705746.14013, 3,   2.611,  4.058, -4.144, 4,  -0.136,  0.778,  0.075, 5,  24.620,-44.994,  8.301
705746.15999, 3,   0.333, 17.039, -7.509, 4,   0.022,  0.624, -0.046, 5,  23.970,-44.299,  9.750
705746.17986, 3,  -0.553,  6.573, -5.013, 4,   0.092,  0.697, -0.135, 5,  25.272,-45.689,  7.578
705746.19973, 3,  -0.694,  9.966,  0.139, 4,  -0.054,  0.744, -0.147, 5,  21.916,-46.486,  8.299
705746.21959, 3,  -2.000,  9.212, -0.479, 4,  -0.114,  0.753, -0.189, 5,  24.635,-44.279,  8.299
705746.23943, 3,  -3.860,  9.389, -2.771, 4,  -0.109,  0.595, -0.194, 5,  23.970,-44.299,  9.750
705746.25930, 3,  -4.728, 10.906, -3.989, 4,   0.018,  0.453, -0.332, 5,  25.943,-45.679, 10.483
705746.27916, 3,  -4.692, -1.630, -0.443, 4,   0.049,  0.233, -0.334, 5,  25.943,-45.679, 10.483
705746.29906, 3,  -4.601, 18.686, -6.145, 4,  -0.015,  0.090, -0.279, 5,  25.943,-45.679, 10.483
705746.31893, 3,  -2.711,  5.647, -0.526, 4,   0.049, -0.091, -0.207, 5,  23.289,-45.030, 10.478
705746.33880, 3,  -1.943,  9.744,  0.127, 4,  -0.134, -0.297, -0.073, 5,  27.975,-44.202,  9.758
705746.35866, 3,   0.069, 10.701, -3.943, 4,  -0.071, -0.457, -0.063, 5,  26.613,-45.665, 11.937
705746.37850, 3,   1.082,  4.568, -2.290, 4,   0.026, -0.467,  0.024, 5,  27.277,-45.645,  9.760
705746.39837, 3,   2.201, 13.134, -6.516, 4,   0.035, -0.297,  0.061, 5,  27.959,-44.914,  9.033
705746.41823, 3,   3.795,  7.552, -2.106, 4,   0.078, -0.062,  0.054, 5,  26.608,-45.659,  9.032
705746.43810, 3,   2.139, 11.088, -0.976, 4,  -0.027,  0.164,  0.050, 5,  25.974,-44.250,  9.753
705746.45797, 3,   1.079, 11.222, -3.891, 4,  -0.068,  0.303, -0.073, 5,  26.628,-44.949, 10.483
705746.47783, 3,   1.570,  6.827, -1.644, 4,  -0.017,  0.256, -0.201, 5,  27.293,-44.933,  9.758
705746.49770, 3,  -0.225,  8.394, -3.728, 4,  -0.061,  0.099, -0.256, 5,  26.628,-44.951, 11.208
705746.51754, 3,   0.304, 14.175, -4.451, 4,  -0.079, -0.097, -0.301, 5,  27.260,-46.359,  9.761
705746.53740, 3,   0.325,  9.322,  0.859, 4,  -0.071, -0.284, -0.316, 5,  25.940,-45.676,  9.030
705746.55727, 3,   1.283,  9.732, -3.831, 4,  -0.193, -0.487, -0.306, 5,  25.955,-44.962,  8.302
705746.57714, 3,  -1.208, 13.029, -3.154, 4,  -0.074, -0.720, -0.290, 5,  30.600,-46.281, 11.217
705746.59703, 3,  -2.072,  6.221, -2.194, 4,   0.006, -0.898, -0.201, 5,  30.580,-46.988,  8.316
705746.61690, 3,  -0.656, 14.252, -4.637, 4,  -0.051, -1.051, -0.112, 5,  29.930,-46.294,  9.766
705746.63677, 3,   1.898,  3.783,  0.139, 4,   0.045, -1.051,  0.054, 5,  26.639,-44.229,  7.576
705746.65664, 3,   1.065,  8.442, -3.453, 4,  -0.015, -0.891,  0.196, 5,  27.289,-44.925,  6.853
705746.67647, 3,   0.641, 13.472, -8.124, 4,   0.122, -0.527,  0.221, 5,  28.658,-43.468,  7.578
705746.69634, 3,   1.941,  7.643, -0.579, 4,   0.181, -0.110,  0.265, 5,  26.672,-42.802,  7.573
705746.71621, 3,   0.309, 12.055, -1.551, 4,   0.029,  0.311,  0.299, 5,  26.624,-44.943,  7.578
705746.73607, 3,   1.421, 10.962,  1.486, 4,  -0.021,  0.706,  0.269, 5,  26.672,-42.804,  8.299
705746.75594, 3,  -1.244,  7.439, -0.747, 4,  -0.007,  0.878,  0.162, 5,  26.669,-42.796,  5.394
705746.77581, 3,  -4.266, 11.275, -3.709, 4,   0.006,  0.913, -0.013, 5,  27.975,-44.202,  9.758
705746.79564, 3,  -4.778,  4.905, -2.682, 4,   0.092,  0.758, -0.151, 5,  28.658,-43.468,  7.578
705746.81551, 3,  -5.231, 13.948, -1.342, 4,  -0.020,  0.459, -0.165, 5,  27.988,-43.481,  6.851
705746.83538, 3,  -3.953,  9.543, -0.179, 4,  -0.094,  0.139, -0.109, 5,  29.344,-42.741,  9.030
705746.85524, 3,  -4.869,  8.621, -0.780, 4,  -0.116, -0.191, -0.025, 5,  26.671,-42.799,  6.847
705746.87514, 3,  -4.747,  9.576, -4.147, 4,  -0.004, -0.385, -0.004, 5,  26.688,-42.090,  7.570
705746.89501, 3,  -3.261,  6.719, -6.537, 4,   0.137, -0.406,  0.107, 5,  26.637,-44.226,  6.850
705746.91488, 3,  -0.861, 13.333, -2.840, 4,   0.122, -0.289,  0.210, 5,  26.004,-42.821,  8.298
705746.93474, 3,   2.690,  7.147,  1.359, 4,   0.005, -0.052,  0.326, 5,  25.969,-44.243,  6.848
705746.95458, 3,   2.113,  8.590, -2.393, 4,  -0.072,  0.191,  0.384, 5,  26.006,-42.822,  9.024
705746.97445, 3,   2.010, 13.192, -4.965, 4,   0.065,  0.393,  0.262, 5,  25.337,-42.836,  7.571
705746.99431, 3,   0.639,  3.041, -3.599, 4,   0.137,  0.546,  0.152, 5,  24.635,-44.278,  7.573
705747.01418, 3,  -0.134, 15.596, -4.429, 4,   0.048,  0.641,  0.075, 5,  25.304,-44.264,  8.301
705747.03405, 3,   0.830,  9.009,  0.244, 4,   0.012,  0.651, -0.023, 5,  25.308,-44.269, 10.480
705747.05391, 3,  -0.524,  8.404, -1.007, 4,  -0.137,  0.625, -0.059, 5,  24.005,-42.876, 11.198
705747.07378, 3,  -1.007, 12.103, -3.371, 4,  -0.065,  0.409, -0.185, 5,  25.989,-43.536,  9.026
705747.09362, 3,  -1.833,  5.307, -1.627, 4,   0.037,  0.174, -0.250, 5,  26.007,-42.824,  9.750
705747.11348, 3,  -3.338, 12.452, -6.839, 4,  -0.012, -0.051, -0.240, 5,  26.004,-42.819,  7.571
705747.13335, 3,  -2.276, 13.850, -1.570, 4,  -0.008, -0.234, -0.244, 5,  26.706,-41.379,  9.021
705747.15322, 3,  -1.950,  7.607,  0.747, 4,  -0.136, -0.347, -0.107, 5,  26.688,-42.091,  8.296
705747.17312, 3,  -0.156, 10.311, -1.058, 4,  -0.193, -0.510, -0.026, 5,  26.019,-42.108,  8.295
705747.19298, 3,   1.352, 10.643, -4.762, 4,  -0.018, -0.620, -0.009, 5,  25.352,-42.125,  8.295
705747.21285, 3,   2.749,  8.978, -7.446, 4,   0.073, -0.578,  0.072, 5,  24.684,-42.139,  7.567
705747.23269, 3,   3.867, 14.457, -4.187, 4,   0.094, -0.396,  0.095, 5,  26.004,-42.819,  7.571
705747.25255, 3,   7.042, -0.404,  2.788, 4,  -0.006, -0.068,  0.141, 5,  26.689,-42.093,  9.023
705747.27242, 3,   2.888,  9.669, -6.267, 4,  -0.100,  0.212,  0.089, 5,  26.003,-42.816,  6.845
705747.29229, 3,  -0.474, 12.914, -6.741, 4,   0.115,  0.333, -0.167, 5,  26.672,-42.802,  7.573
705747.31215, 3,  -0.895,  5.001, -2.345, 4,   0.094,  0.193, -0.328, 5,  25.987,-43.533,  7.573
705747.33202, 3,  -2.338, 13.397, -0.988, 4,  -0.112,  0.041, -0.357, 5,  27.322,-43.501,  7.576
705747.35189, 3,  -3.008,  7.770, -0.041, 4,  -0.169, -0.087, -0.324, 5,  26.639,-44.231,  8.302
705747.37175, 3,  -3.309,  9.337, -5.645, 4,  -0.151, -0.323, -0.279, 5,  28.020,-42.055,  6.847
705747.39159, 3,  -3.446, 10.318, -1.299, 4,  -0.034, -0.560, -0.263, 5,  27.304,-44.211,  6.851
705747.41146, 3,  -0.603,  2.462,  0.665, 4,  -0.055, -0.627, -0.156, 5,  27.368,-41.356,  6.117
705747.43132, 3,  -0.699, 15.383, -4.546, 4,  -0.118, -0.594, -0.038, 5,  26.033,-41.386,  5.388
705747.45122, 3,   1.488,  7.088, -0.830, 4,  -0.012, -0.496,  0.050, 5,  26.671,-42.799,  6.847
705747.47109, 3,   1.397,  7.487, -1.546, 4,  -0.037, -0.487,  0.120, 5,  27.319,-43.495,  5.397
705747.49096, 3,  -0.359, 11.584, -3.558, 4,   0.010, -0.490,  0.097, 5,  26.656,-43.517,  7.574
705747.51082, 3,  -0.254,  4.302, -3.044, 4,   0.119, -0.399,  0.084, 5,  26.620,-44.937,  5.399
705747.53066, 3,  -1.352, 12.885, -5.130, 4,   0.079, -0.280,  0.111, 5,  27.303,-44.208,  5.399
705747.55053, 3,   0.237, 10.737,  1.055, 4,   0.084, -0.136,  0.129, 5,  26.622,-44.940,  6.851
705747.57039, 3,   0.158,  8.949,  1.278, 4,   0.005,  0.023,  0.185, 5,  26.619,-44.936,  4.672
705747.59026, 3,  -1.582, 10.758, -2.685, 4,   0.007,  0.183,  0.158, 5,  26.636,-44.223,  5.397
705747.61013, 3,  -3.283,  4.673, -2.611, 4,   0.158,  0.405,  0.095, 5,  26.620,-44.939,  6.125
705747.62999, 3,  -3.443, 14.063, -4.975, 4,   0.185,  0.590,  0.043, 5,  25.954,-44.957,  6.850
705747.64986, 3,  -1.869, 12.160, -1.125, 4,   0.161,  0.643,  0.036, 5,  26.624,-44.943,  7.578
705747.66970, 3,  -1.397,  7.712,  1.218, 4,   0.017,  0.533,  0.061, 5,  25.288,-44.978,  8.302
705747.68956, 3,  -3.508,  6.374, -6.087, 4,  -0.024,  0.200,  0.006, 5,  27.986,-43.480,  6.125
705747.70943, 3,  -4.400, 10.378, -6.578, 4,   0.103, -0.076, -0.032, 5,  26.622,-44.940,  6.851
705747.72933, 3,  -3.072, 12.364, -2.390, 4,   0.128, -0.196,  0.031, 5,  26.624,-44.943,  7.578
705747.74920, 3,   0.364, 12.239,  0.189, 4,  -0.099, -0.217,  0.158, 5,  27.292,-44.931,  9.032
705747.76906, 3,   1.156,  8.176,  2.666, 4,  -0.189, -0.149,  0.273, 5,  25.272,-45.689,  7.578
705747.78890, 3,   0.622, 10.844, -3.874, 4,  -0.094, -0.083,  0.257, 5,  24.634,-44.275,  6.847
705747.80880, 3,   0.412, 12.756, -5.539, 4,   0.117,  0.072,  0.194, 5,  23.967,-44.295,  7.571
705747.82863, 3,   1.070,  3.307, -3.482, 4,   0.150,  0.259,  0.177, 5,  25.920,-46.384,  6.853
705747.84850, 3,  -0.912, 11.045, -4.228, 4,   0.032,  0.463,  0.147, 5,  25.938,-45.673,  7.578
705747.86837, 3,   0.404, 10.682, -2.955, 4,   0.065,  0.607,  0.089, 5,  24.571,-47.131,  7.581
705747.88823, 3,   1.235, 13.043,  0.172, 4,  -0.051,  0.565,  0.034, 5,  24.586,-46.420,  8.304
705747.90810, 3,  -0.062, 11.088, -0.845, 4,  -0.093,  0.447, -0.081, 5,  24.586,-46.420,  8.304
705747.92797, 3,  -1.352,  8.332, -1.795, 4,  -0.068,  0.332, -0.186, 5,  25.273,-45.692,  9.030
705747.94780, 3,  -3.101, 10.629, -4.953, 4,   0.053,  0.147, -0.279, 5,  26.576,-47.086,  9.036
705747.96767, 3,  -3.032,  7.920, -4.319, 4,   0.081, -0.054, -0.249, 5,  27.290,-44.928,  7.579
705747.98754, 3,  -1.912,  9.366, -1.778, 4,  -0.016, -0.266, -0.187, 5,  26.607,-45.657,  8.305
705748.00740, 3,   0.775,  7.348, -1.627, 4,  -0.106, -0.432, -0.137
705748.02730, 3,   1.943, 11.871, -5.073, 4,  -0.063, -0.553, -0.064, 5,  27.939,-45.621,  6.856
705748.04717, 3,   1.443, 12.211, -3.738, 4,   0.040, -0.544, -0.075, 5,  26.608,-45.659,  9.032
705748.06704, 3,  -0.366,  7.430, -0.888, 4,   0.017, -0.415, -0.062, 5,  27.274,-45.642,  8.307
705748.08690, 3,  -1.165,  9.117, -1.981, 4,  -0.037, -0.339, -0.059, 5,  26.607,-45.657,  8.305
705748.10674, 3,  -1.340,  8.128, -2.261, 4,   0.020, -0.278, -0.120, 5,  27.307,-44.217,  9.030
705748.12661, 3,  -0.194,  6.956, -7.451, 4,   0.040, -0.236, -0.067, 5,  28.609,-45.609,  8.308
705748.14647, 3,  -1.278, 10.947, -2.017, 4,   0.093, -0.138, -0.041, 5,  26.639,-44.231,  8.302
705748.16634, 3,  -1.012,  9.784, -0.251, 4,   0.002,  0.103,  0.019, 5,  26.639,-44.231,  8.302
705748.18621, 3,  -1.608,  8.593, -0.735, 4,  -0.090,  0.235,  0.025, 5,  27.959,-44.914,  9.033
705748.20607, 3,  -2.544, 10.174, -2.063, 4,  -0.024,  0.218, -0.068, 5,  25.972,-44.249,  9.027
705748.22594, 3,  -2.685,  3.754, -4.305, 4,   0.010,  0.141, -0.104, 5,  27.274,-45.641,  7.581
705748.24578, 3,  -2.572, 13.362, -4.503, 4,   0.026,  0.052, -0.101, 5,  27.956,-44.908,  6.854
705748.26564, 3,  -0.077,  5.410, -1.598, 4,   0.021, -0.013, -0.069, 5,  28.609,-45.609,  8.308
705748.28551, 3,  -0.818,  9.232, -2.623, 4,  -0.104, -0.066,  0.006, 5,  25.987,-43.533,  7.573
705748.30541, 3,  -0.215, 12.306, -1.285, 4,  -0.050, -0.165, -0.021, 5,  27.989,-43.484,  7.578
705748.32528, 3,  -1.098,  4.817,  0.888, 4,  -0.059, -0.207, -0.035, 5,  27.957,-44.911,  7.581
705748.34514, 3,  -2.711, 13.845, -4.762, 4,  -0.081, -0.247, -0.020, 5,  27.937,-45.619,  6.129
705748.36501, 3,  -0.349, 10.177, -2.893, 4,   0.046, -0.267, -0.009, 5,  27.969,-44.193,  6.126
705748.38488, 3,  -0.737,  7.892,  0.742, 4,   0.016, -0.187,  0.095, 5,  28.624,-44.891,  6.854
705748.40471, 3,   1.127,  9.165, -1.771, 4,  -0.035, -0.076,  0.146, 5,  26.656,-43.517,  7.574
705748.42458, 3,  -0.467,  8.791, -2.015, 4,   0.051,  0.075,  0.114, 5,  26.637,-44.226,  6.850
705748.44445, 3,  -0.878, 13.450, -7.104, 4,   0.109,  0.273,  0.113, 5,  24.652,-43.567,  8.298
705748.46431, 3,   1.981,  9.418, -2.800, 4,   0.127,  0.354,  0.087, 5,  25.955,-44.960,  7.576
705748.48418, 3,   2.144,  6.930, -0.692, 4,  -0.004,  0.411,  0.087, 5,  26.624,-44.943,  7.578
705748.50405, 3,   0.962, 10.024, -4.700, 4,  -0.094,  0.360, -0.002, 5,  25.255,-46.404,  7.579
705748.52391, 3,  -1.412, 12.790, -2.280, 4,  -0.015,  0.215, -0.134, 5,  26.587,-46.365,  6.128
705748.54375, 3,  -2.194,  3.551, -1.017, 4,  -0.055, -0.029, -0.191, 5,  25.320,-43.552,  8.299
705748.56362, 3,  -4.881, 17.417, -4.506, 4,  -0.106, -0.334, -0.203, 5,  27.304,-44.211,  6.851
705748.58348, 3,  -2.338,  7.229, -0.995, 4,  -0.002, -0.605, -0.126, 5,  26.657,-43.520,  9.027
705748.60338, 3,  -2.280,  8.523, -0.378, 4,  -0.106, -0.825,  0.028, 5,  26.590,-46.370,  7.581
705748.62325, 3,  -0.462, 13.874, -2.350, 4,  -0.038, -0.886,  0.126, 5,  26.620,-44.939,  6.125
