705606.80588, 3,  -0.067,  9.825, -1.641
705606.84796, 3,  -0.067,  9.825, -1.641, 5,  12.018,-43.216, 31.517
705606.86780, 3,  -0.067,  9.825, -1.641, 4,   0.006, -0.024,  0.040, 5,  10.684,-43.250, 32.240
705606.88766, 3,  -0.112,  9.825, -1.582, 4,   0.006, -0.024,  0.040, 5,  12.703,-42.493, 32.967
705606.90753, 3,  -0.010,  9.820, -1.668, 4,   0.006, -0.024,  0.040, 5,  12.703,-42.493, 32.967
705606.92740, 3,   0.043,  9.830, -1.517, 4,   0.005,  0.013,  0.019, 5,  11.337,-43.951, 32.970
705606.94726, 3,   0.132,  9.846, -1.390, 4,   0.001,  0.014,  0.018, 5,  10.670,-43.968, 33.696
705606.96716, 3,   0.167,  9.823, -1.579, 4,   0.001,  0.012,  0.015, 5,  12.688,-43.205, 32.970
705606.98700, 3,   0.134,  9.808, -1.670, 4,   0.004,  0.007,  0.012, 5,  14.694,-43.161, 35.153
705607.00686, 3,   0.041,  9.827, -1.529, 4,   0.004,  0.014,  0.008, 5,  14.694,-43.161, 35.153
705607.02673, 3,  -0.062,  9.827, -1.481, 4,   0.002,  0.031,  0.003, 5,  14.694,-43.161, 35.153
705607.04660, 3,  -0.045,  9.827, -1.570, 4,   0.001,  0.026,  0.001, 5,  12.053,-41.797, 34.416
705607.06647, 3,  -0.069,  9.830, -1.534, 4,   0.001,  0.007,  0.001, 5,  11.368,-42.520, 31.514
705607.08633, 3,  -0.117,  9.825, -1.488, 4,   0.001, -0.004,  0.001, 5,  10.669,-43.967, 32.968
705607.10620, 3,  -0.081,  9.837, -1.448, 4,   0.000, -0.002,  0.001, 5,  10.016,-43.266, 32.239
705607.12607, 3,  -0.077,  9.830, -1.527, 4,   0.000, -0.003,  0.001, 5,  11.334,-43.945, 30.791
705607.14590, 3,  -0.189,  9.823, -1.558, 4,   0.002, -0.005,  0.003, 5,  12.050,-41.789, 31.512
705607.16577, 3,  -0.213,  9.837, -1.536, 4,   0.002, -0.003,  0.004, 5,  10.684,-43.250, 32.240
705607.18564, 3,  -0.170,  9.825, -1.505, 4,   0.001, -0.004,  0.004, 5,  12.653,-44.629, 32.246
705607.20550, 3,  -0.077,  9.827, -1.433, 4,   0.000, -0.007,  0.008, 5,  12.686,-43.202, 32.243
705607.22537, 3,  -0.098,  9.832, -1.409, 4,   0.000, -0.010,  0.012, 5,  11.990,-44.653, 35.876
705607.24527, 3,  -0.029,  9.825, -1.658, 4,   0.001, -0.010,  0.013, 5,  12.035,-42.508, 32.965
705607.26510, 3,   0.031,  9.808, -1.572, 4,   0.002, -0.018,  0.013, 5,  12.703,-42.493, 32.967
705607.28497, 3,   0.053,  9.849, -1.457, 4,   0.002, -0.010,  0.013, 5,  11.354,-43.237, 32.968
705607.30484, 3,   0.057,  9.839, -1.500, 4,   0.001, -0.003,  0.012
705607.32470, 3,   0.108,  9.820, -1.493, 4,   0.004,  0.001,  0.010, 5,  11.337,-43.951, 32.970
705607.34457, 3,   0.053,  9.823, -1.548, 4,   0.004,  0.003,  0.009, 5,  12.671,-43.919, 32.971
705607.36444, 3,   0.208,  9.823, -1.708, 4,   0.006,  0.011,  0.004, 5,  11.388,-41.812, 33.691
705607.38431, 3,   0.378,  9.818, -1.685, 4,   0.005,  0.019,  0.002, 5,  14.008,-43.887, 33.702
705607.40417, 3,   0.316,  9.878, -1.417, 4,   0.000,  0.008, -0.004, 5,  12.672,-43.922, 34.424
705607.42401, 3,   0.299,  9.823, -1.622, 4,  -0.002, -0.015, -0.012, 5,  14.008,-43.887, 33.702
705607.44388, 3,   0.163,  9.823, -1.701, 4,   0.000, -0.040, -0.018, 5,  12.035,-42.508, 32.965
705607.46374, 3,   0.055,  9.837, -1.845, 4,   0.000, -0.041, -0.026, 5,  12.018,-43.216, 31.517
705607.48361, 3,   0.112,  9.815, -1.560, 4,  -0.004, -0.047, -0.035, 5,  11.337,-43.951, 32.970
705607.50348, 3,   0.318,  9.844, -1.421, 4,  -0.012, -0.091, -0.037, 5,  12.701,-42.488, 31.516
705607.52337, 3,   0.266,  9.835, -1.407, 4,  -0.015, -0.116, -0.038, 5,  11.986,-44.647, 32.971
705607.54324, 3,  -0.098,  9.811, -1.515, 4,  -0.011, -0.065, -0.048, 5,  13.338,-43.900, 32.246
705607.56311, 3,  -0.163,  9.818, -1.716, 4,  -0.006,  0.019, -0.058, 5,  12.668,-43.913, 30.792
705607.58294, 3,  -0.182,  9.837, -1.524, 4,  -0.004,  0.059, -0.058, 5,  12.688,-43.205, 32.970
705607.60281, 3,   1.165,  8.987, -4.168, 4,  -0.007,  0.073, -0.056, 5,  14.693,-43.158, 33.701
705607.62268, 3,  -0.699, 10.196, -0.282, 4,  -0.015,  0.081, -0.063, 5,  11.351,-43.231, 30.789
705607.64255, 3,  -0.455,  9.832, -1.859, 4,  -0.034,  0.150, -0.065, 5,  12.018,-43.216, 31.517
705607.66241, 3,   0.175,  9.538, -2.666, 4,  -0.004,  0.013, -0.059, 5,  11.969,-45.358, 32.246
705607.68228, 3,  -0.024,  9.870, -0.835, 4,  -0.010, -0.068, -0.057, 5,  13.339,-43.903, 32.973
705607.70215, 3,   0.481, 10.093, -1.426, 4,  -0.026, -0.021, -0.069, 5,  11.353,-43.234, 32.242
705607.72198, 3,   0.885,  9.693, -2.867, 4,  -0.012, -0.066, -0.078, 5,  11.984,-44.644, 32.245
705607.74185, 3,  -0.122,  9.581, -2.450, 4,  -0.020, -0.110, -0.081, 5,  13.351,-43.181, 30.067
705607.76172, 3,  -0.928, 10.155, -0.474, 4,  -0.040, -0.062, -0.100, 5,  13.341,-43.906, 34.425
705607.78158, 3,  -0.565,  9.897, -0.469, 4,  -0.062, -0.031, -0.104, 5,  12.691,-43.210, 35.150
705607.80145, 3,  -0.514,  9.600, -1.445, 4,  -0.054, -0.148, -0.093, 5,  14.725,-41.733, 34.421
705607.82135, 3,  -0.703,  9.904, -2.189, 4,  -0.029, -0.226, -0.087, 5,  14.037,-42.455, 31.519
705607.84121, 3,  -1.206,  9.837, -1.835, 4,  -0.023, -0.119, -0.084, 5,  13.356,-43.188, 32.971
705607.86105, 3,  -1.570,  9.435, -1.517, 4,  -0.029, -0.008, -0.080, 5,  14.018,-43.164, 30.069
705607.88092, 3,  -0.330,  9.526, -2.235, 4,  -0.024, -0.027, -0.069, 5,  14.053,-41.740, 31.517
705607.90079, 3,  -1.299,  9.610, -1.713, 4,  -0.010, -0.076, -0.042, 5,  12.685,-43.199, 30.791
705607.92065, 3,  -1.362,  9.770, -1.933, 4,  -0.001, -0.053, -0.038, 5,  13.370,-42.473, 32.242
705607.94052, 3,  -1.283,  9.899, -1.761, 4,   0.005,  0.046, -0.032, 5,  17.351,-43.813, 36.610
705607.96039, 3,  -0.859,  9.669, -1.383, 4,   0.007,  0.008, -0.010, 5,  17.300,-45.950, 35.889
705607.98025, 3,  -0.828,  9.605, -2.020, 4,   0.012, -0.019,  0.012, 5,  13.373,-42.477, 33.696
705608.00012, 3,  -1.199,  9.808, -2.355, 4,   0.018,  0.025,  0.012, 5,  14.038,-42.459, 32.970
705608.01996, 3,  -1.172,  9.753, -1.472, 4,   0.013,  0.070,  0.015, 5,  14.052,-41.739, 30.789
705608.03982, 3,  -1.117,  9.779, -1.206, 4,   0.004,  0.077,  0.039, 5,  14.023,-43.172, 32.973
705608.05969, 3,  -1.132,  9.811, -1.809, 4,   0.005,  0.053,  0.051, 5,  12.669,-43.915, 31.520
705608.07956, 3,  -0.579,  9.701, -2.106, 4,   0.018,  0.061,  0.056, 5,  13.338,-43.900, 32.246
705608.09945, 3,   0.474,  9.605, -2.168, 4,   0.024,  0.078,  0.065, 5,  12.718,-41.774, 31.514
705608.11932, 3,   0.818,  9.741, -2.271, 4,   0.016,  0.077,  0.068, 5,  13.336,-43.896, 30.794
705608.13919, 3,   0.725,  9.772, -2.209, 4,   0.006,  0.081,  0.058, 5,  14.038,-42.459, 32.970
705608.15902, 3,   0.031,  9.693, -1.584, 4,  -0.001,  0.075,  0.041, 5,  14.008,-43.889, 34.427
705608.17889, 3,   0.270,  9.531, -2.154, 4,  -0.005,  0.095,  0.023, 5,  13.371,-42.476, 32.968
705608.19876, 3,   0.010,  9.708, -2.584, 4,   0.001,  0.105,  0.008, 5,  13.373,-42.477, 33.696
705608.21863, 3,   0.079, 10.227, -2.249, 4,   0.007,  0.088, -0.015, 5,  12.701,-42.490, 32.240
705608.23849, 3,   0.792,  9.674, -1.072, 4,   0.005,  0.059, -0.029, 5,  12.003,-43.935, 32.970
705608.25836, 3,   0.835,  9.736, -1.254, 4,  -0.006,  0.019, -0.031, 5,  14.038,-42.459, 32.970
705608.27823, 3,   0.565,  9.949, -2.139, 4,   0.010,  0.017, -0.053, 5,  13.351,-43.181, 30.067
705608.29809, 3,   0.424,  9.758, -2.110, 4,   0.024,  0.047, -0.079, 5,  12.669,-43.916, 32.245
705608.31793, 3,   0.548,  9.820, -1.225, 4,   0.012,  0.070, -0.092, 5,  12.671,-43.919, 32.971
705608.33780, 3,   0.615,  9.942, -1.065, 4,  -0.008,  0.073, -0.109, 5,  14.024,-43.173, 33.701
705608.35766, 3,   0.299,  9.933, -1.388, 4,  -0.016,  0.113, -0.126, 5,  14.023,-43.172, 32.973
705608.37753, 3,  -0.022,  9.861, -1.340, 4,  -0.011,  0.166, -0.144, 5,  12.001,-43.932, 32.243
705608.39743, 3,  -0.840,  9.483, -1.826, 4,  -0.013,  0.179, -0.157, 5,  12.688,-43.205, 32.970
705608.41730, 3,  -1.567,  9.736, -0.960, 4,  -0.023,  0.157, -0.161, 5,  13.368,-42.470, 30.789
705608.43716, 3,  -1.574, 10.016,  0.184, 4,  -0.040,  0.112, -0.156, 5,  15.359,-43.140, 32.974
705608.45700, 3,  -1.687, 10.435, -1.574, 4,  -0.046, -0.013, -0.135, 5,  13.370,-42.473, 32.242
705608.47687, 3,  -1.390, 10.050, -1.223, 4,  -0.010, -0.137, -0.109, 5,  12.686,-43.202, 32.243
705608.49673, 3,  -1.196,  9.610, -0.160, 4,  -0.004, -0.207, -0.086, 5,  15.375,-42.427, 32.971
705608.51660, 3,  -1.505,  9.868, -0.866, 4,  -0.022, -0.247, -0.065, 5,  16.043,-42.413, 34.425
705608.53647, 3,  -1.601, 10.047, -1.287, 4,  -0.011, -0.258, -0.048, 5,  14.024,-43.173, 33.701
705608.55633, 3,  -0.778,  9.906, -1.091, 4,  -0.004, -0.246, -0.025, 5,  14.070,-41.026, 31.516
705608.57620, 3,  -0.335,  9.983, -1.122, 4,  -0.015, -0.220, -0.003, 5,  14.702,-42.436, 30.066
705608.59604, 3,  -1.153,  9.923, -1.393, 4,  -0.020, -0.121, -0.001, 5,  15.392,-41.713, 32.970
705608.61590, 3,  -1.979,  9.689, -0.998, 4,  -0.016,  0.011,  0.001, 5,  14.037,-42.455, 31.519
705608.63577, 3,  -2.419,  9.815, -0.840, 4,  -0.011,  0.096,  0.019, 5,  15.356,-43.134, 30.795
705608.65564, 3,  -2.462,  9.925, -1.115, 4,  -0.008,  0.111,  0.041, 5,  14.037,-42.455, 31.519
705608.67553, 3,  -2.553,  9.851, -1.472, 4,   0.002,  0.090,  0.062, 5,  14.670,-43.863, 30.070
705608.69540, 3,  -2.620,  9.519, -1.582, 4,   0.017,  0.073,  0.096, 5,  14.676,-43.872, 33.702
705608.71527, 3,  -1.953,  9.858, -1.574, 4,   0.022,  0.023,  0.142, 5,  16.042,-42.410, 32.973
705608.73514, 3,  -1.196,  9.720, -1.563, 4,   0.020, -0.025,  0.185, 5,  13.387,-41.757, 31.516
705608.75497, 3,  -0.617,  6.982, -0.677, 4,   0.023, -0.026,  0.207, 5,  14.021,-43.169, 32.246
705608.77484, 3,  -0.811, 12.017, -5.755, 4,   0.037,  0.030,  0.217, 5,  13.370,-42.471, 31.517
705608.79471, 3,   0.043,  9.205, -0.380, 4,   0.088,  0.134,  0.201, 5,  12.686,-43.202, 32.243
705608.81457, 3,   1.072,  8.959, -0.538, 4,   0.062,  0.168,  0.229, 5,  11.353,-43.234, 32.242
705608.83444, 3,   0.663, 10.808, -2.981, 4,   0.028,  0.182,  0.232, 5,  12.018,-43.217, 32.242
705608.85431, 3,   0.103, 10.236, -2.144, 4,   0.050,  0.202,  0.205, 5,  14.038,-42.459, 32.970
705608.87417, 3,   0.292,  9.241, -1.768, 4,   0.044,  0.161,  0.168, 5,  14.008,-43.889, 34.427
705608.89401, 3,   0.244,  9.172, -2.039, 4,   0.044,  0.112,  0.150, 5,  13.339,-43.903, 32.973
705608.91388, 3,  -0.060, 10.476, -3.618, 4,   0.064,  0.095,  0.147, 5,  14.676,-43.872, 33.702
705608.93374, 3,   0.232,  9.284, -2.572, 4,   0.075,  0.066,  0.133, 5,  12.021,-43.224, 34.421
705608.95364, 3,   0.629,  8.901, -1.345, 4,   0.048,  0.059,  0.129, 5,  11.322,-44.667, 34.424
705608.97351, 3,   0.653,  9.172, -1.515, 4,   0.043,  0.074,  0.124, 5,  11.356,-43.240, 34.421
705608.99338, 3,   0.534, 11.308, -4.769, 4,   0.046,  0.100,  0.104, 5,  12.688,-43.205, 32.970
705609.01324, 3,   0.656,  9.562, -1.723, 4,   0.072,  0.161,  0.089, 5,  12.701,-42.490, 32.240
705609.03311, 3,  -0.309,  8.937, -0.924, 4,   0.020,  0.248,  0.087, 5,  11.336,-43.947, 31.519
705609.05295, 3,  -0.354,  9.425, -2.965, 4,   0.013,  0.262,  0.058, 5,  12.656,-44.635, 34.425
705609.07281, 3,  -0.108,  9.983, -2.871, 4,   0.043,  0.228,  0.040, 5,  11.356,-43.239, 33.696
705609.09268, 3,   0.019, 10.105, -2.974, 4,   0.054,  0.266,  0.053, 5,  12.036,-42.509, 33.693
705609.11255, 3,  -0.316,  9.578, -1.737, 4,   0.038,  0.284,  0.058, 5,  10.002,-43.985, 33.694
705609.13241, 3,  -0.787,  8.853, -0.983, 4,   0.026,  0.251,  0.048, 5,  10.033,-42.557, 32.962
705609.15228, 3,  -0.696,  9.717, -2.826, 4,   0.011,  0.199,  0.045, 5,  10.033,-42.557, 32.962
705609.17215, 3,  -0.330, 10.375, -2.520, 4,   0.034,  0.078,  0.054, 5,   8.014,-43.318, 32.962
705609.19198, 3,  -0.074, 10.294, -1.845, 4,   0.038,  0.007,  0.068, 5,  11.392,-41.818, 36.595
705609.21185, 3,  -0.060,  9.133, -0.902, 4,   0.021, -0.013,  0.075, 5,  10.719,-41.827, 33.690
705609.23172, 3,   0.311,  9.882, -2.094, 4,   0.011, -0.063,  0.073, 5,   9.334,-44.000, 32.967
705609.25162, 3,   0.988,  9.578, -2.431, 4,   0.039, -0.129,  0.076, 5,   9.349,-43.282, 31.514
705609.27148, 3,   1.484, 10.016, -2.694, 4,   0.045, -0.096,  0.080, 5,  10.033,-42.557, 32.962
705609.29135, 3,   1.335,  9.406, -2.393, 4,   0.056, -0.013,  0.056, 5,  10.049,-41.843, 32.961
705609.31119, 3,   1.055,  8.834, -2.546, 4,   0.039,  0.147,  0.034, 5,  10.670,-43.968, 33.696
705609.33108, 3,   0.285,  9.459, -3.434, 4,   0.039,  0.270,  0.002, 5,   8.015,-43.320, 33.690
705609.35092, 3,   0.000,  9.945, -3.529, 4,   0.032,  0.371, -0.021, 5,  10.719,-41.829, 34.415
705609.37079, 3,   0.172,  9.756, -2.993, 4,   0.018,  0.411, -0.023, 5,   9.352,-43.289, 34.418
705609.39065, 3,   0.196,  9.605, -2.491, 4,  -0.006,  0.398, -0.031, 5,   8.699,-42.590, 33.688
705609.41052, 3,  -0.297,  9.701, -2.965, 4,  -0.017,  0.426, -0.053, 5,   8.669,-44.020, 35.146
705609.43039, 3,  -0.754,  9.509, -2.328, 4,  -0.006,  0.461, -0.070, 5,   6.685,-43.358, 36.592
705609.45025, 3,  -1.591, 13.199, -2.888, 4,   0.012,  0.453, -0.059, 5,   9.387,-41.866, 35.866
705609.47012, 3,  -1.919, 14.225,  0.668, 4,   0.012,  0.392, -0.047, 5,   7.315,-44.765, 34.416
705609.48996, 3,   0.234, 12.806,  2.544, 4,  -0.001,  0.332, -0.026, 5,   8.047,-41.895, 34.410
705609.50982, 3,   0.955,  9.160,  4.676, 4,  -0.016,  0.227,  0.004, 5,   8.014,-43.318, 32.962
705609.52972, 3,  -0.852,  8.679, -0.799, 4,   0.057,  0.114,  0.048, 5,   8.684,-43.304, 34.416
705609.54959, 3,  -1.608,  7.896, -2.010, 4,   0.205,  0.069,  0.003, 5,   8.698,-42.589, 32.961
705609.56946, 3,  -1.790,  9.624, -5.604, 4,   0.292,  0.146,  0.003, 5,   8.032,-42.610, 35.139
705609.58932, 3,  -1.728,  8.227, -7.109, 4,   0.316,  0.270,  0.065, 5,   8.051,-41.898, 35.863
705609.60919, 3,  -1.378,  9.976, -5.525, 4,   0.247,  0.210,  0.101, 5,   7.385,-41.916, 36.588
705609.62903, 3,   0.727,  9.198, -2.871, 4,   0.114,  0.077,  0.108, 5,   6.046,-41.942, 33.682
705609.64889, 3,   1.924, 10.091, -1.649, 4,   0.015, -0.037,  0.124, 5,   5.362,-42.673, 33.682
705609.66876, 3,   1.376, 10.098, -1.699, 4,   0.043, -0.032,  0.107, 5,   6.729,-41.211, 33.682
705609.68863, 3,   1.158,  8.798, -1.720, 4,   0.122,  0.139,  0.068, 5,   6.049,-41.946, 35.860
705609.70849, 3,   1.539,  8.585, -4.685, 4,   0.221,  0.274,  0.028, 5,   7.402,-41.202, 36.586
705609.72836, 3,   1.113,  7.970, -6.140, 4,   0.283,  0.375, -0.016, 5,   8.067,-41.183, 35.861
705609.74823, 3,   0.531,  8.557, -5.937, 4,   0.260,  0.475, -0.049, 5,   6.065,-41.232, 35.858
705609.76809, 3,   0.067, 10.031, -3.539, 4,   0.167,  0.535, -0.067, 5,   6.766,-39.790, 36.583
705609.78793, 3,   0.211, 10.825, -2.522, 4,   0.075,  0.571, -0.067, 5,   4.745,-40.550, 35.130
705609.80780, 3,  -0.584, 10.780, -1.043, 4,   0.034,  0.537, -0.073, 5,   6.050,-41.949, 37.312
705609.82770, 3,  -1.675, 10.646, -1.953, 4,   0.048,  0.447, -0.087, 5,   4.031,-42.715, 38.037
705609.84756, 3,  -2.560, 11.280, -1.754, 4,   0.103,  0.273, -0.097, 5,   5.400,-41.251, 36.583
705609.86743, 3,  -1.644,  8.612, -0.773, 4,   0.148,  0.113, -0.089, 5,   6.049,-41.946, 35.860
705609.88730, 3,  -0.938,  7.504, -2.611, 4,   0.177,  0.039, -0.045, 5,   4.732,-41.267, 37.309
705609.90716, 3,  -1.015,  8.296, -2.955, 4,   0.219,  0.004, -0.008, 5,   4.749,-40.553, 36.581
705609.92700, 3,  -1.285, 10.007, -3.683, 4,   0.241,  0.012,  0.031, 5,   6.084,-40.521, 36.583
705609.94687, 3,  -0.278,  9.782, -2.984, 4,   0.221,  0.019,  0.073, 5,   5.417,-40.538, 36.581
705609.96673, 3,   1.357,  9.787, -3.754, 4,   0.177, -0.004,  0.102, 5,   6.084,-40.523, 37.309
705609.98660, 3,   1.400,  9.174, -2.541, 4,   0.158, -0.071,  0.120, 5,   4.066,-41.289, 38.762
705610.00647, 3,   1.373,  9.433, -2.390, 4,   0.134, -0.062,  0.108, 5,   5.420,-40.544, 38.762
705610.02633, 3,   1.823,  9.310, -3.893, 4,   0.133,  0.011,  0.080, 5,   4.752,-40.561, 39.487
705610.04620, 3,   2.151,  8.473, -3.850, 4,   0.137,  0.123,  0.062, 5,   4.767,-39.845, 38.760
705610.06607, 3,   2.043,  9.543, -4.003, 4,   0.134,  0.238,  0.034, 5,   4.752,-40.559, 38.762
705610.08590, 3,   1.551, 10.100, -3.494, 4,   0.105,  0.311, -0.004, 5,   4.767,-39.847, 39.485
705610.10580, 3,   1.773, 10.076, -2.158, 4,   0.064,  0.331, -0.047, 5,   4.768,-39.848, 40.211
705610.12567, 3,   1.886,  9.452, -2.422, 4,   0.034,  0.331, -0.082, 5,   4.099,-39.862, 38.759
705610.14554, 3,   1.560,  9.246, -2.474, 4,   0.045,  0.310, -0.112, 5,   4.083,-40.576, 38.760
705610.16540, 3,   0.864,  9.234, -3.304, 4,   0.078,  0.285, -0.156, 5,   4.784,-39.134, 39.482
705610.18527, 3,   0.361,  9.303, -2.115, 4,   0.105,  0.263, -0.187, 5,   4.782,-39.131, 38.029
705610.20514, 3,   0.373,  9.631, -2.429, 4,   0.114,  0.277, -0.205, 5,   4.799,-38.417, 38.028
705610.22497, 3,   0.565,  9.382, -3.211, 4,   0.136,  0.317, -0.206, 5,   4.099,-39.864, 39.484
705610.24484, 3,   0.603,  8.382, -3.788, 4,   0.171,  0.360, -0.218, 5,   6.119,-39.102, 39.484
705610.26471, 3,   0.450,  8.724, -4.056, 4,   0.213,  0.455, -0.230, 5,   2.780,-39.182, 38.753
705610.28457, 3,   0.940, 16.343,-14.290, 4,   0.229,  0.549, -0.250, 5,   2.798,-38.470, 40.202
705610.30444, 3,   0.318, 12.337, -5.123, 4,   0.238,  0.639, -0.289, 5,   4.085,-40.579, 40.211
705610.32431, 3,  -0.773,  6.836,  4.266, 4,  -0.067,  0.790, -0.289, 5,   3.429,-39.873, 37.303
705610.34418, 3,   0.893,  5.819,  6.913, 4,  -0.340,  0.507, -0.229, 5,   4.083,-40.578, 39.485
705610.36404, 3,   0.761, 13.531,  0.022, 4,  -0.327,  0.240, -0.186, 5,   4.097,-39.861, 38.031
705610.38391, 3,   0.450, 12.297, -2.122, 4,  -0.021,  0.215, -0.217, 5,   4.115,-39.149, 38.756
705610.40378, 3,  -1.098,  8.657, -5.214, 4,   0.164,  0.388, -0.268, 5,   3.416,-40.591, 38.759
705610.42364, 3,  -2.144,  7.786, -3.750, 4,   0.208,  0.369, -0.294, 5,   2.095,-39.911, 38.756
705610.44351, 3,  -1.857,  9.858, -3.221, 4,   0.114,  0.263, -0.250, 5,   4.112,-39.145, 37.302
705610.46338, 3,  -1.189, 10.088, -2.630, 4,  -0.011,  0.039, -0.187, 5,   4.115,-39.149, 38.756
705610.48324, 3,  -0.297,  8.499, -1.823, 4,  -0.037, -0.176, -0.140, 5,   4.765,-39.844, 38.033
705610.50308, 3,  -1.285,  9.863, -3.860, 4,   0.011, -0.382, -0.133, 5,   4.132,-38.435, 38.754
705610.52295, 3,  -1.077, 10.105, -5.075, 4,   0.101, -0.476, -0.144
705610.54281, 3,  -0.864, 12.012, -4.434, 4,   0.117, -0.512, -0.122, 5,   6.136,-38.388, 39.482
705610.56268, 3,   0.273,  9.057, -0.816, 4,   0.062, -0.566, -0.069, 5,   5.418,-40.543, 38.034
705610.58255, 3,   0.648,  8.499, -1.161, 4,  -0.046, -0.636, -0.026, 5,   8.072,-41.193, 39.493
705610.60241, 3,   1.388,  8.296, -1.955, 4,  -0.048, -0.672, -0.018, 5,   9.392,-41.875, 39.497
705610.62228, 3,   2.264,  9.516, -3.403, 4,   0.021, -0.571, -0.021, 5,  10.043,-42.574, 40.225
705610.64215, 3,   0.706,  9.763, -4.219, 4,   0.072, -0.360, -0.036, 5,   6.735,-41.222, 38.039
705610.66199, 3,  -1.072, 10.131, -3.187, 4,   0.065, -0.081, -0.071, 5,   6.735,-41.222, 38.039
705610.68188, 3,  -1.443,  9.435, -1.574, 4,   0.018,  0.083, -0.095, 5,   6.735,-41.222, 38.039
705610.70175, 3,  -2.012,  9.504, -1.314, 4,  -0.018,  0.103, -0.062, 5,   6.735,-41.222, 38.039
705610.72162, 3,  -2.905,  9.318, -2.359, 4,   0.000,  0.026, -0.021, 5,   6.786,-39.084, 38.760
705610.74148, 3,  -2.005,  9.693, -2.993, 4,   0.034, -0.120,  0.002, 5,   7.452,-39.067, 38.033
705610.76135, 3,  -1.058, 10.026, -2.764, 4,   0.049, -0.286,  0.051, 5,   8.105,-39.767, 40.216
705610.78122, 3,  -0.333, 10.100, -2.802, 4,   0.035, -0.384,  0.111, 5,   6.136,-38.387, 38.757
705610.80108, 3,   1.256,  8.686, -2.869, 4,   0.022, -0.378,  0.147, 5,   6.802,-38.371, 39.484
705610.82092, 3,   2.407,  8.643, -3.190, 4,   0.013, -0.273,  0.175, 5,   5.452,-39.119, 39.482
705610.84079, 3,   2.307,  9.516, -4.518, 4,   0.015, -0.042,  0.169, 5,   6.755,-40.514, 40.216
705610.86065, 3,   2.912, 10.251, -3.857, 4,   0.020,  0.309,  0.135, 5,   6.750,-40.504, 36.584
705610.88052, 3,   2.249,  9.157, -2.216, 4,   0.024,  0.708,  0.089, 5,   7.454,-39.069, 38.760
705610.90039, 3,   1.931,  7.602, -2.295, 4,  -0.006,  1.131,  0.020, 5,   5.469,-38.403, 38.756
705610.92026, 3,   0.826,  8.064, -4.496, 4,   0.027,  1.463, -0.073, 5,   4.799,-38.417, 38.028
705610.94012, 3,  -0.601, 11.442, -3.896, 4,   0.090,  1.615, -0.144, 5,   4.132,-38.437, 39.479
705610.95999, 3,   0.598,  9.023, -0.359, 4,   0.090,  1.502, -0.180, 5,   3.479,-37.738, 38.023
705610.97986, 3,   0.498,  9.590, -1.436, 4,   0.045,  1.103, -0.198, 5,   2.129,-38.486, 39.476
705610.99972, 3,  -0.421,  9.468, -4.503, 4,   0.120,  0.623, -0.268, 5,   0.795,-38.516, 38.748
705611.01959, 3,   0.871,  8.219, -6.930, 4,   0.200,  0.243, -0.319, 5,   2.127,-38.483, 38.023
705611.03946, 3,   0.845,  9.289, -8.990, 4,   0.198, -0.033, -0.337, 5,   1.443,-39.212, 38.023
705611.05932, 3,   0.330,  9.830, -6.812, 4,   0.127, -0.154, -0.357, 5,   2.124,-38.477, 35.844
705611.07919, 3,  -0.735, 10.832, -2.256, 4,  -0.022, -0.236, -0.362, 5,   3.479,-37.738, 38.023
705611.09906, 3,  -2.845,  6.875, -0.474, 4,  -0.131, -0.437, -0.345, 5,   3.462,-38.446, 37.299
705611.11889, 3,  -5.312,  9.614, -2.216, 4,  -0.096, -0.622, -0.330, 5,   2.110,-39.197, 38.025
705611.13876, 3,  -4.154, 10.129, -5.286, 4,   0.084, -0.665, -0.319, 5,   6.149,-37.674, 38.028
705611.15863, 3,  -4.439,  9.722, -4.970, 4,   0.171, -0.738, -0.266, 5,   4.097,-39.861, 38.031
705611.17850, 3,  -1.773,  8.057, -4.187, 4,   0.155, -0.697, -0.180, 5,   6.802,-38.370, 38.759
705611.19836, 3,  -0.859,  9.756, -2.931, 4,   0.106, -0.608, -0.080, 5,   6.119,-39.101, 38.759
705611.21823, 3,  -1.780, 10.100, -2.032, 4,   0.089, -0.424, -0.036, 5,   6.168,-36.961, 38.754
705611.23749, 3,   0.878, 10.493, -2.381, 4,   0.061, -0.253, -0.015, 5,   6.834,-36.945, 38.756
705611.25796, 3,   1.261,  8.301, -2.508, 4,   0.057, -0.119,  0.017, 5,   6.802,-38.371, 39.484
705611.27783, 3,  -0.165,  8.693, -2.886, 4,   0.083,  0.081,  0.019, 5,   7.474,-38.359, 40.936
705611.29770, 3,   0.213,  8.928, -7.293, 4,   0.153,  0.284, -0.040, 5,   6.837,-36.951, 41.660
705611.31756, 3,  -0.998, 10.469, -7.229, 4,   0.197,  0.426, -0.100, 5,   6.816,-37.657, 38.029
705611.33743, 3,  -0.136,  8.404, -4.477, 4,   0.123,  0.579, -0.100, 5,   6.168,-36.963, 39.479
705611.35730, 3,  -0.313, 10.686, -1.362, 4,  -0.044,  0.665, -0.095, 5,   6.837,-36.949, 40.933
705611.37716, 3,  -1.567, 10.418, -0.974, 4,  -0.112,  0.625, -0.119, 5,   5.518,-36.266, 38.751
705611.39703, 3,  -1.888,  8.932, -1.697, 4,  -0.082,  0.450, -0.139, 5,   5.486,-37.695, 40.205
705611.41687, 3,  -1.596,  9.954, -3.702, 4,  -0.016,  0.195, -0.152, 5,   5.452,-39.119, 39.482
705611.43673, 3,  -3.027,  8.983, -1.486, 4,   0.013, -0.005, -0.159, 5,   6.789,-39.088, 40.938
705611.45660, 3,  -1.732,  9.263, -3.151, 4,   0.006, -0.134, -0.115, 5,   6.151,-37.675, 38.756
705611.47647, 3,  -1.168,  9.916, -2.280, 4,  -0.022, -0.213, -0.053, 5,   5.502,-36.981, 40.204
705611.49634, 3,   0.766,  8.999, -2.606, 4,  -0.063, -0.153, -0.029, 5,   7.486,-37.645, 39.482
705611.51620, 3,   1.584,  7.987, -5.544, 4,  -0.085,  0.080, -0.005, 5,   6.122,-39.105, 40.936
705611.53610, 3,   0.400, 11.340, -7.018, 4,  -0.052,  0.397,  0.006, 5,   4.135,-38.440, 40.932
705611.55594, 3,  -2.929,  9.973, -2.668, 4,  -0.021,  0.559, -0.036, 5,   4.819,-37.712, 40.932
705611.57580, 3,  -0.036,  9.217, -1.086, 4,  -0.129,  0.543, -0.123, 5,   5.501,-36.978, 38.753
705611.59567, 3,   0.452,  9.165, -2.857, 4,  -0.161,  0.426, -0.137, 5,   3.468,-38.455, 40.930
705611.61554, 3,  -1.249,  8.729, -5.233, 4,  -0.066,  0.292, -0.107, 5,   5.536,-35.556, 40.927
705611.63540, 3,  -1.299,  8.990, -7.023, 4,  -0.006,  0.211, -0.139, 5,   5.472,-38.408, 40.933
705611.65527, 3,  -1.484,  8.423, -5.693, 4,  -0.059,  0.157, -0.173, 5,   2.846,-36.331, 39.471
705611.67514, 3,  -2.625,  8.365, -2.268, 4,  -0.154,  0.070, -0.161, 5,   4.831,-36.992, 38.025
705611.69497, 3,  -2.209,  8.786, -2.149, 4,  -0.214, -0.102, -0.147, 5,   5.482,-37.691, 38.026
705611.71484, 3,  -1.036,  9.511, -2.934, 4,  -0.189, -0.330, -0.101, 5,   5.467,-38.402, 38.028
705611.73471, 3,  -0.368, 10.366, -5.235, 4,  -0.114, -0.539, -0.071, 5,   6.168,-36.961, 38.754
705611.75458, 3,  -1.295,  9.691, -4.704, 4,  -0.078, -0.683, -0.080, 5,   6.818,-37.659, 38.757
705611.77444, 3,  -1.311,  8.619, -3.367, 4,  -0.090, -0.741, -0.090, 5,   7.486,-37.643, 38.757
705611.79431, 3,  -2.328, 10.277, -2.579, 4,  -0.115, -0.774, -0.062, 5,   6.166,-36.960, 38.026
705611.81421, 3,  -1.345,  7.968, -1.462, 4,  -0.090, -0.817, -0.038, 5,   8.183,-36.194, 36.575
705611.83404, 3,  -2.166, 10.146, -3.651, 4,  -0.050, -0.873, -0.027, 5,   8.134,-38.333, 37.306
705611.85391, 3,  -0.251, 10.973, -5.145, 4,   0.044, -0.856, -0.001, 5,   9.471,-38.301, 37.309
705611.87378, 3,  -0.120,  5.712, -3.221, 4,   0.071, -0.746,  0.064, 5,   7.468,-38.348, 36.578
705611.89364, 3,  -1.929, 10.555, -4.326, 4,   0.006, -0.539,  0.117, 5,   8.801,-38.313, 35.855
705611.91351, 3,  -1.627, 12.368, -1.496, 4,  -0.004, -0.351,  0.118, 5,  10.106,-39.714, 38.040
705611.93338, 3,   0.313,  9.186,  1.010, 4,  -0.067, -0.274,  0.123, 5,  10.136,-38.281, 35.857
705611.95324, 3,   1.189,  9.578, -1.917, 4,  -0.060, -0.261,  0.145, 5,   8.835,-36.891, 37.305
705611.97311, 3,  -1.184, 10.016, -3.757, 4,   0.075, -0.158,  0.125, 5,   9.471,-38.301, 37.309
705611.99295, 3,  -1.433,  7.619, -4.293, 4,   0.149, -0.011,  0.074, 5,  10.118,-38.994, 35.133
705612.01282, 3,  -2.347,  8.748, -5.322, 4,   0.130,  0.062,  0.063, 5,   8.786,-39.029, 36.583
705612.03268, 3,  -2.405, 10.040, -3.692, 4,   0.088,  0.102,  0.096, 5,   8.800,-38.312, 35.130
705612.05255, 3,  -1.886,  9.588, -1.256, 4,   0.002,  0.094,  0.140, 5,   9.486,-37.590, 37.308
705612.07242, 3,  -0.512, 10.229, -1.359, 4,  -0.065,  0.013,  0.169, 5,   8.131,-38.329, 35.129
705612.09228, 3,  -0.646,  9.796, -1.819, 4,  -0.034, -0.087,  0.166, 5,   7.478,-37.631, 33.673
705612.11218, 3,  -1.328,  8.952, -3.931, 4,   0.050, -0.113,  0.162, 5,   8.786,-39.029, 36.583
705612.13205, 3,  -1.912,  8.832, -4.613, 4,   0.123, -0.044,  0.140, 5,   8.817,-37.602, 35.854
705612.15188, 3,  -1.833,  7.545, -3.044, 4,   0.145,  0.097,  0.147, 5,   7.449,-39.061, 35.854
705612.17175, 3,  -1.048, 10.002, -5.255, 4,   0.120,  0.250,  0.167, 5,   5.481,-37.688, 37.300
705612.19162, 3,  -0.323,  7.415, -5.068, 4,   0.138,  0.487,  0.169, 5,   6.116,-39.095, 36.578
705612.21148, 3,   0.048,  8.806, -5.774, 4,   0.101,  0.810,  0.148, 5,   6.099,-39.807, 36.581
705612.23135, 3,   0.203, 13.278, -4.494, 4,   0.066,  1.148,  0.098, 5,   6.802,-38.370, 38.759
705612.25122, 3,  -0.057,  9.868, -0.304, 4,   0.004,  1.497,  0.043, 5,   4.797,-38.414, 37.302
705612.27109, 3,  -0.632,  9.449, -0.629, 4,  -0.087,  1.715, -0.007, 5,   4.144,-37.720, 37.299
705612.29092, 3,  -2.350,  9.557, -2.333, 4,  -0.012,  1.714, -0.086, 5,   3.477,-37.735, 37.297
705612.31079, 3,  -3.773,  8.334, -3.261, 4,   0.093,  1.585, -0.173, 5,   1.509,-36.360, 38.017
705612.33066, 3,  -5.896,  8.435, -4.405, 4,   0.139,  1.287, -0.227, 5,   1.439,-39.204, 35.120
705612.35052, 3,  -5.599,  9.299, -3.927, 4,   0.139,  0.935, -0.224, 5,   0.824,-37.086, 37.291
705612.37040, 3,  -5.463,  9.602, -2.290, 4,   0.082,  0.604, -0.156, 5,  -0.528,-37.833, 37.291
705612.39029, 3,  -5.716, 10.851, -0.347, 4,  -0.022,  0.371, -0.054, 5,   1.459,-38.493, 36.569
705612.41016, 3,  -5.628,  9.112,  0.407, 4,  -0.077,  0.262,  0.023, 5,   0.137,-37.814, 35.840
705612.43003, 3,  -4.896,  9.732, -1.795, 4,  -0.054,  0.251,  0.092, 5,   0.172,-36.389, 36.563
705612.44986, 3,  -2.709,  9.509, -3.252, 4,   0.035,  0.356,  0.180, 5,   0.157,-37.106, 38.017
705612.46973, 3,  -0.479, 10.222, -2.175, 4,   0.060,  0.537,  0.245, 5,  -2.480,-35.745, 38.737
705612.48960, 3,   2.256,  7.583, -1.787, 4,   0.004,  0.799,  0.299, 5,  -1.846,-37.154, 38.013
705612.50947, 3,   3.159, 10.428, -2.455, 4,  -0.049,  1.192,  0.313, 5,  -3.163,-36.478, 39.462
705612.52933, 3,   2.687, 13.280, -1.462, 4,  -0.043,  1.620,  0.263, 5,  -4.530,-37.935, 38.739
705612.54920, 3,   2.910, 10.074,  1.304, 4,  -0.078,  1.901,  0.157, 5,  -4.498,-36.507, 38.008
705612.56907, 3,   3.056,  9.059, -0.012, 4,  -0.114,  1.945,  0.057, 5,  -7.857,-37.297, 37.277
705612.58890, 3,   2.568, 10.689, -3.233, 4,  -0.020,  1.844, -0.056, 5,  -6.520,-37.263, 36.552
705612.60877, 3,   0.888,  8.739, -3.077, 4,   0.094,  1.670, -0.180, 5,  -9.859,-37.346, 37.274
705612.62864, 3,  -0.857,  9.550, -2.821, 4,   0.095,  1.350, -0.289, 5,  -9.810,-35.205, 36.542
705612.64850, 3,  -0.876,  8.894, -2.340, 4,   0.055,  0.907, -0.371, 5,  -9.193,-37.325, 35.098
705612.66837, 3,  -2.405,  9.377, -2.087, 4,   0.017,  0.392, -0.381, 5, -11.198,-37.372, 34.366
705612.68827, 3,  -1.094, 10.593, -4.329, 4,   0.009, -0.129, -0.357, 5, -11.850,-36.676, 34.364
705612.70813, 3,  -0.641,  9.610, -5.013, 4,   0.012, -0.613, -0.316, 5, -11.798,-34.538, 35.811
705612.72800, 3,  -1.381,  8.770, -3.166, 4,  -0.056, -0.984, -0.252, 5, -13.136,-34.567, 34.355
705612.74784, 3,   0.385,  7.511, -4.099, 4,  -0.175, -1.193, -0.172, 5, -11.766,-33.112, 35.808
705612.76771, 3,   1.988,  9.100, -5.537, 4,  -0.085, -1.126, -0.112, 5, -11.801,-34.535, 34.358
705612.78757, 3,   2.601, 12.553, -5.494, 4,   0.086, -0.865, -0.114, 5,  -8.447,-33.739, 32.909
705612.80744, 3,   1.357,  5.238, -1.362, 4,   0.120, -0.625, -0.122, 5,  -7.127,-34.421, 33.641
705612.82731, 3,  -1.316, 11.576, -4.164, 4,   0.038, -0.213, -0.118, 5,  -7.176,-36.562, 33.647
705612.84717, 3,   0.318, 10.701, -3.630, 4,   0.061,  0.097, -0.146, 5,  -5.841,-36.528, 33.649
705612.86704, 3,   1.797,  9.047, -2.252, 4,   0.024,  0.263, -0.129, 5,  -5.190,-37.227, 34.377
705612.88688, 3,  -0.194,  9.272, -1.259, 4,  -0.022,  0.365, -0.124, 5,  -6.525,-37.259, 34.373
705612.90674, 3,  -1.103, 10.280, -2.515, 4,  -0.001,  0.444, -0.174, 5,  -5.841,-36.528, 33.649
705612.92661, 3,  -1.424,  9.988, -3.312, 4,   0.027,  0.469, -0.217, 5,  -4.556,-38.629, 32.202
705612.94648, 3,  -2.690, 10.945, -2.383, 4,   0.013,  0.443, -0.207, 5,  -5.890,-38.666, 33.653
705612.96637, 3,  -3.008,  8.282,  0.273, 4,  -0.037,  0.424, -0.174, 5,  -5.206,-37.941, 34.378
705612.98624, 3,  -3.010,  9.851, -0.976, 4,  -0.092,  0.369, -0.131, 5,  -6.526,-37.256, 32.921
705613.00611, 3,  -3.058,  9.540, -2.352, 4,  -0.034,  0.295, -0.100, 5,  -6.557,-38.683, 33.652
705613.02598, 3,  -1.634,  9.112, -3.517, 4,   0.006,  0.337, -0.078, 5,  -5.908,-39.378, 32.927
705613.04581, 3,  -1.469, 10.772, -3.269, 4,  -0.010,  0.432, -0.047, 5,  -5.890,-38.667, 34.378
705613.06568, 3,   0.153,  8.971, -1.737, 4,  -0.045,  0.608,  0.017, 5,  -7.881,-37.999, 32.195
705613.08555, 3,   1.232, 10.682, -2.000, 4,  -0.109,  0.803,  0.047, 5,  -8.546,-38.019, 32.919
705613.10541, 3,   0.526, 10.622, -0.720, 4,  -0.136,  0.987,  0.036, 5,  -7.863,-37.288, 32.919
705613.12528, 3,   0.804,  6.544, -0.498, 4,  -0.145,  1.170, -0.003, 5, -10.599,-40.202, 32.196
705613.14515, 3,  -0.345, 11.462, -4.896, 4,  -0.106,  1.293, -0.054, 5,  -9.880,-38.052, 33.646
705613.16501, 3,  -0.558, 10.323, -4.601, 4,  -0.026,  1.358, -0.142, 5, -11.201,-37.366, 32.187
705613.18485, 3,  -1.125,  8.459, -2.532, 4,  -0.073,  1.380, -0.206, 5, -11.887,-38.097, 32.188
705613.20472, 3,  -1.316, 10.117, -3.051, 4,  -0.155,  1.269, -0.263, 5, -11.267,-40.218, 32.195
705613.22458, 3,  -1.565, 11.347, -4.257, 4,  -0.172,  1.038, -0.301, 5, -12.521,-36.684, 30.731
705613.24448, 3,  -1.074,  8.650, -0.658, 4,  -0.180,  0.768, -0.279, 5, -11.891,-38.089, 28.557
705613.26435, 3,   0.311,  9.325, -0.266, 4,  -0.215,  0.382, -0.250, 5, -12.540,-37.395, 30.008
705613.28422, 3,   0.670,  9.452, -0.902, 4,  -0.159, -0.013, -0.244, 5, -13.927,-39.563, 28.557
705613.30408, 3,   2.242,  8.274, -3.604, 4,  -0.039, -0.335, -0.262, 5,  -9.267,-40.164, 30.022
705613.32395, 3,   1.838,  9.662, -5.058, 4,   0.053, -0.561, -0.293, 5, -10.551,-38.062, 30.737
705613.34379, 3,   1.046,  8.428, -4.709, 4,   0.088, -0.653, -0.312, 5, -10.548,-38.068, 32.916
705613.36365, 3,  -0.091,  1.029, -3.817, 4,   0.056, -0.636, -0.300, 5, -10.565,-38.776, 32.191
705613.38352, 3,   1.558, 18.994, -9.772, 4,   0.016, -0.696, -0.294, 5,  -8.578,-39.444, 32.922
705613.40339, 3,  -2.139, 13.948, -0.321, 4,   0.012, -0.769, -0.268, 5,  -8.580,-39.439, 31.471
705613.42325, 3,   1.785,  3.467,  5.819, 4,  -0.183, -0.669, -0.206, 5,  -5.928,-40.085, 30.751
705613.44312, 3,  -0.263,  9.791, -0.986, 4,  -0.272, -0.709, -0.268, 5,  -5.273,-40.787, 32.207
705613.46299, 3,  -2.948, 12.409, -4.152, 4,  -0.011, -0.622, -0.284, 5,  -6.593,-40.103, 31.477
705613.48282, 3,  -1.546,  6.611, -2.623, 4,   0.090, -0.498, -0.301, 5,  -5.241,-39.359, 31.477
705613.50269, 3,  -2.264,  9.114, -3.970, 4,   0.016, -0.437, -0.266, 5,  -4.604,-40.773, 32.935
705613.52256, 3,  -3.352, 11.024, -3.819, 4,   0.002, -0.324, -0.208, 5,  -3.923,-40.042, 32.933
705613.54245, 3,  -2.498,  9.200, -0.725, 4,  -0.065, -0.215, -0.129, 5,  -3.256,-40.022, 31.483
705613.56232, 3,  -2.175,  9.763, -0.759, 4,  -0.136, -0.236, -0.071, 5,  -3.925,-40.038, 31.482
705613.58219, 3,  -3.142, 10.024, -1.340, 4,  -0.106, -0.264, -0.046, 5,  -3.288,-41.451, 32.211
705613.60206, 3,  -3.479,  8.837, -0.969, 4,  -0.034, -0.202, -0.013, 5,  -5.258,-40.073, 32.205
705613.62189, 3,  -2.613,  9.971, -3.022, 4,   0.016, -0.136,  0.019, 5,  -4.605,-40.770, 32.208
705613.64176, 3,  -2.015,  9.141, -4.032, 4,   0.061, -0.009,  0.041, 5,  -3.925,-40.038, 31.482
705613.66163, 3,  -1.036, 10.466, -3.833, 4,   0.070,  0.188,  0.085, 5,  -5.260,-40.070, 30.753
705613.68149, 3,   0.462, 10.162, -2.201, 4,   0.033,  0.402,  0.120, 5,  -4.605,-40.768, 31.483
705613.70136, 3,   1.239, 10.174, -0.802, 4,  -0.043,  0.639,  0.128, 5,  -4.590,-40.054, 31.482
705613.72123, 3,   1.228, 10.292, -1.546, 4,  -0.081,  0.814,  0.106
705613.74109, 3,   1.960,  7.875, -2.082, 4,  -0.054,  0.845,  0.057, 5,  -6.593,-40.105, 32.202
705613.76096, 3,   1.271,  4.936, -2.852, 4,  -0.018,  0.751, -0.024, 5,  -5.942,-40.800, 31.480
705613.78080, 3,  -1.017, 10.265, -7.710, 4,   0.011,  0.595, -0.111, 5,  -5.307,-42.212, 31.485
705613.80066, 3,  -0.218, 10.782, -4.776, 4,   0.094,  0.432, -0.168, 5,  -3.287,-41.454, 32.938
705613.82056, 3,  -0.711,  7.104, -1.761, 4,  -0.043,  0.237, -0.234, 5,  -7.295,-41.545, 30.753
705613.84043, 3,  -1.792, 11.411, -4.245, 4,  -0.156,  0.041, -0.236, 5,  -6.609,-40.817, 31.479
705613.86030, 3,  -3.194,  8.499, -2.972, 4,  -0.060, -0.136, -0.245, 5,  -5.290,-41.498, 31.483
705613.88016, 3,  -2.764,  9.270, -2.386, 4,  -0.046, -0.428, -0.260, 5,  -3.958,-41.463, 30.757
705613.90003, 3,  -1.900, 10.832, -4.458, 4,   0.006, -0.748, -0.249, 5,  -4.623,-41.479, 30.757
705613.91990, 3,  -3.101,  9.964, -2.965, 4,   0.067, -0.901, -0.189, 5,  -5.258,-40.071, 31.480
705613.93973, 3,  -3.015,  9.787, -1.400, 4,   0.055, -0.893, -0.112, 5,  -3.943,-40.749, 30.031
705613.95960, 3,  -2.747,  7.631, -1.493, 4,   0.045, -0.901, -0.064, 5,  -3.943,-40.749, 30.031
705613.97947, 3,  -2.491,  9.925, -2.292, 4,   0.072, -0.900, -0.025, 5,  -3.943,-40.749, 30.031
705613.99933, 3,  -1.462,  9.124, -1.283, 4,   0.108, -0.784,  0.034, 5,  -1.936,-40.704, 32.211
705614.01920, 3,  -0.335,  6.530, -1.716, 4,   0.095, -0.600,  0.158, 5,  -2.637,-42.146, 31.490
705614.03907, 3,  -0.761, 11.572, -3.857, 4,   0.079, -0.444,  0.205, 5,  -2.600,-40.726, 33.665
705614.05893, 3,   1.247, 11.167, -1.335, 4,   0.081, -0.270,  0.221, 5,  -2.603,-40.721, 32.211
705614.07877, 3,   1.249,  9.641,  1.235, 4,  -0.021, -0.125,  0.263, 5,  -3.287,-41.454, 32.938
705614.09864, 3,  -0.656, 10.476,  0.957, 4,  -0.074, -0.032,  0.267, 5,  -2.600,-40.726, 33.665
705614.11854, 3,  -1.768, 10.342, -1.053, 4,  -0.013, -0.014,  0.223, 5,  -3.304,-42.168, 32.939
705614.13840, 3,  -2.496, 10.301, -3.051, 4,   0.066, -0.147,  0.169, 5,  -3.252,-40.031, 35.115
705614.15827, 3,  -2.862,  9.813, -3.568, 4,   0.110, -0.223,  0.172, 5,  -3.937,-40.758, 33.662
705614.17814, 3,  -1.326,  9.705, -3.716, 4,   0.095, -0.142,  0.232, 5,  -4.602,-40.776, 34.387
705614.19800, 3,  -1.022,  8.975, -2.572, 4,   0.065, -0.020,  0.294, 5,  -5.928,-40.085, 30.751
705614.21784, 3,   0.041,  9.157, -1.957, 4,   0.037,  0.125,  0.317, 5,  -5.289,-41.502, 32.935
705614.23771, 3,  -0.988,  9.351, -2.584, 4,   0.048,  0.263,  0.304, 5,  -5.238,-39.366, 34.381
705614.25757, 3,  -0.294, 10.160, -3.386, 4,   0.098,  0.437,  0.271, 5,  -5.270,-40.793, 34.386
705614.27744, 3,  -0.060,  7.277, -2.871, 4,   0.126,  0.598,  0.244, 5,  -6.590,-40.109, 33.656
705614.29731, 3,  -0.809,  8.605, -3.766, 4,   0.095,  0.777,  0.241, 5,  -6.592,-40.108, 32.928
705614.31717, 3,  -1.364, 12.546, -3.470, 4,   0.088,  0.916,  0.205, 5,  -5.927,-40.088, 32.204
705614.33704, 3,  -0.584,  8.624,  0.395, 4,   0.031,  1.009,  0.168, 5,  -8.577,-39.447, 34.375
705614.35691, 3,  -0.663,  9.275, -0.368, 4,  -0.066,  1.031,  0.172, 5,  -9.244,-39.461, 33.650
705614.37674, 3,  -1.524, 11.859, -1.493, 4,  -0.007,  1.012,  0.131, 5,  -9.897,-38.762, 32.919
705614.39664, 3,  -1.397,  8.466, -0.845, 4,   0.076,  1.000,  0.074, 5,  -9.883,-38.048, 32.191
705614.41651, 3,  -2.273,  9.138, -3.245, 4,   0.100,  0.923,  0.035, 5, -10.548,-38.068, 32.916
705614.43638, 3,  -2.766,  9.760, -5.264, 4,   0.143,  0.890,  0.015, 5, -10.550,-38.063, 31.465
705614.45624, 3,  -1.531,  9.935, -4.092, 4,   0.138,  0.878,  0.029, 5, -11.900,-38.811, 32.916
705614.47611, 3,  -0.878,  9.890, -2.424, 4,   0.049,  0.873,  0.045, 5, -11.919,-39.520, 31.467
705614.49598, 3,   0.036, 10.303, -1.433, 4,  -0.040,  0.861,  0.054, 5, -11.899,-38.812, 33.644
705614.51584, 3,  -0.385,  8.416, -1.007, 4,  -0.044,  0.819,  0.052, 5, -11.885,-38.100, 32.915
705614.53568, 3,  -0.615, 13.969, -3.647, 4,   0.006,  0.794,  0.004, 5, -12.585,-39.537, 31.465
705614.55555, 3,   0.022,  5.243, -2.314, 4,   0.071,  0.791, -0.041, 5, -13.889,-38.148, 32.912
705614.57541, 3,  -0.938,  9.854, -4.362, 4,   0.042,  0.838, -0.052, 5, -12.589,-39.534, 30.013
705614.59528, 3,  -1.424, 11.308, -2.704, 4,   0.053,  0.836, -0.087, 5, -12.553,-38.112, 31.462
705614.61515, 3,  -0.711,  7.691, -0.239, 4,  -0.020,  0.823, -0.104, 5, -15.224,-38.177, 32.182
705614.63501, 3,  -0.373, 11.624, -1.199, 4,  -0.085,  0.758, -0.100, 5, -15.227,-38.173, 30.005
705614.65488, 3,  -1.060, 10.380, -1.012, 4,  -0.029,  0.696, -0.120, 5, -15.239,-38.887, 31.459
705614.67475, 3,  -0.969,  8.774, -2.046, 4,   0.005,  0.658, -0.147, 5, -15.875,-37.479, 31.454
705614.69462, 3,  -1.110, 10.258, -3.974, 4,   0.051,  0.582, -0.178, 5, -14.587,-39.584, 31.462
705614.71448, 3,  -0.964,  9.698, -3.582, 4,   0.101,  0.537, -0.181, 5, -15.242,-38.882, 29.279
705614.73435, 3,  -1.065,  8.930, -2.812, 4,   0.070,  0.543, -0.167, 5, -17.882,-37.524, 29.999
705614.75422, 3,  -0.995,  9.899, -2.139, 4,   0.028,  0.548, -0.158, 5, -15.944,-40.326, 29.282
705614.77408, 3,  -0.876,  8.614, -1.864, 4,   0.009,  0.521, -0.148, 5, -17.947,-40.375, 29.279
705614.79395, 3,  -1.058, 11.213, -2.682, 4,   0.009,  0.474, -0.156, 5, -15.962,-41.037, 27.832
705614.81382, 3,  -0.318,  7.466, -3.156, 4,   0.034,  0.417, -0.180, 5, -15.898,-38.185, 27.824
705614.83365, 3,   1.101, 13.481, -4.302, 4,   0.056,  0.395, -0.169, 5, -16.597,-39.626, 27.827
705614.85352, 3,   1.838, 10.356, -0.708, 4,   0.045,  0.336, -0.184, 5, -16.562,-38.203, 29.276
705614.87339, 3,   2.292,  8.040, -1.675, 4,  -0.043,  0.364, -0.200, 5, -14.594,-39.577, 27.831
705614.89325, 3,   2.134, 11.926, -4.357, 4,  -0.020,  0.443, -0.235, 5, -15.912,-38.898, 28.551
705614.91312, 3,   2.247,  8.466, -1.256, 4,   0.033,  0.430, -0.306, 5, -15.279,-40.306, 27.832
705614.93299, 3,  -0.936,  9.559, -3.099, 4,  -0.041,  0.333, -0.377, 5, -14.610,-40.286, 27.106
705614.95282, 3,  -1.740,  8.894, -2.785, 4,  -0.021,  0.358, -0.438, 5, -15.947,-40.323, 27.831
705614.97272, 3,  -2.524, 10.081, -1.790, 4,  -0.021,  0.186, -0.445, 5, -15.901,-38.179, 25.644
705614.99259, 3,  -3.261,  9.751, -2.235, 4,  -0.050, -0.079, -0.424, 5, -15.982,-41.743, 25.653
705615.01246, 3,  -5.264,  9.066, -4.458, 4,  -0.033, -0.171, -0.385, 5, -15.280,-40.302, 26.379
705615.03232, 3,  -4.838, 11.007, -3.678, 4,   0.004, -0.119, -0.327, 5, -13.281,-40.250, 24.930
705615.05219, 3,  -3.192,  5.532, -1.613, 4,  -0.034, -0.197, -0.249, 5, -11.957,-40.939, 27.840
705615.07206, 3,  -5.257, 10.189, -3.934, 4,  -0.094, -0.347, -0.139, 5, -13.947,-40.269, 26.382
705615.09192, 3,  -0.529, 12.206, -1.529, 4,  -0.035, -0.450, -0.062, 5, -13.309,-41.681, 27.110
705615.11176, 3,  -0.840,  8.104,  0.622, 4,  -0.034, -0.659,  0.037, 5, -13.962,-40.984, 26.384
705615.13163, 3,   0.194, 10.897, -3.147, 4,  -0.016, -0.511,  0.112, 5, -13.947,-40.269, 26.382
705615.15149, 3,   1.888, 10.311, -3.580, 4,   0.127, -0.201,  0.128, 5, -13.260,-39.542, 27.104
705615.17136, 3,   1.464,  8.432, -2.804, 4,   0.149, -0.041,  0.117, 5, -13.928,-39.558, 27.104
705615.19123, 3,   1.529, 10.332, -2.864, 4,   0.098,  0.216,  0.078, 5, -13.943,-40.276, 28.560
705615.21110, 3,   1.089,  9.016, -1.914, 4,   0.064,  0.376,  0.043, 5, -14.626,-41.003, 27.835
705615.23096, 3,   0.916, 10.239, -2.249, 4,   0.007,  0.445,  0.013, 5, -13.943,-40.276, 28.560
705615.25086, 3,   1.854,  9.945, -1.371, 4,  -0.020,  0.381, -0.036, 5, -13.947,-40.269, 26.382
705615.27070, 3,   1.232,  9.681, -2.055, 4,  -0.044,  0.250, -0.073, 5, -15.962,-41.037, 27.832
705615.29056, 3,   1.426, 11.572, -1.450, 4,  -0.040,  0.206, -0.119, 5, -14.594,-39.574, 27.103
705615.31043, 3,  -0.488,  5.975, -0.878, 4,  -0.062,  0.141, -0.150, 5, -13.260,-39.545, 27.832
705615.33030, 3,  -2.230, 13.247, -4.740, 4,  -0.079,  0.153, -0.183, 5, -15.962,-41.034, 27.104
705615.35016, 3,  -1.814,  9.973, -1.072, 4,  -0.023,  0.125, -0.198, 5, -14.626,-41.000, 27.107
705615.37003, 3,  -2.773,  6.891, -2.122, 4,  -0.109,  0.023, -0.170, 5, -15.314,-41.727, 25.655
705615.38990, 3,  -2.371, 11.146, -4.367, 4,  -0.085,  0.061, -0.147, 5, -15.929,-39.612, 28.552
705615.40973, 3,  -2.232,  7.473, -2.907, 4,  -0.018, -0.032, -0.128, 5, -15.962,-41.037, 27.832
705615.42960, 3,  -1.831, 12.029, -3.929, 4,  -0.043, -0.135, -0.098, 5, -14.610,-40.286, 27.106
705615.44947, 3,  -1.790,  8.600, -2.929, 4,  -0.017, -0.091, -0.078, 5, -14.644,-41.711, 26.384
705615.46933, 3,  -1.452, 10.493, -3.209, 4,  -0.020,  0.003, -0.026, 5, -15.279,-40.306, 27.832
705615.48920, 3,  -0.170,  8.368, -2.871, 4,   0.017,  0.081,  0.003, 5, -13.979,-41.696, 26.385
705615.50907, 3,   0.041,  8.428, -3.606, 4,   0.032,  0.107,  0.008, 5, -12.608,-40.239, 27.109
705615.52894, 3,  -0.359, 12.866, -3.596, 4,   0.042,  0.144, -0.031, 5, -13.945,-40.274, 27.835
705615.54883, 3,   0.486,  6.099, -1.481, 4,   0.035,  0.179, -0.056, 5, -13.309,-41.684, 27.838
705615.56867, 3,  -0.179,  9.763, -2.965, 4,  -0.016,  0.197, -0.057, 5, -12.608,-40.239, 27.109
705615.58854, 3,  -0.146, 12.287, -2.749, 4,   0.016,  0.186, -0.076, 5, -13.976,-41.702, 28.563
705615.60840, 3,   0.567, 10.715, -0.311, 4,  -0.022,  0.114, -0.107, 5, -12.622,-40.958, 28.563
705615.62827, 3,   0.000,  8.952, -0.474, 4,  -0.089,  0.068, -0.101, 5, -12.624,-40.956, 27.838
705615.64814, 3,  -1.469,  9.701, -2.615, 4,  -0.044,  0.053, -0.106, 5, -12.642,-41.664, 26.387
705615.66800, 3,  -2.225,  9.933, -4.097, 4,   0.045, -0.055, -0.168, 5, -12.593,-39.525, 26.381
705615.68787, 3,  -2.244,  7.719, -3.264, 4,   0.067, -0.126, -0.173, 5, -11.353,-43.777, 28.572
705615.70774, 3,  -2.209,  9.835, -2.701, 4,   0.015, -0.132, -0.114, 5, -12.622,-40.958, 28.563
705615.72757, 3,  -0.694,  8.715, -2.170, 4,  -0.011, -0.103, -0.063, 5, -11.273,-40.208, 27.838
705615.74744, 3,   0.979, 10.284, -4.403, 4,  -0.027, -0.090, -0.015, 5,  -9.987,-42.314, 27.118
705615.76731, 3,   1.421, 11.146, -3.218, 4,  -0.004, -0.069, -0.015, 5, -11.273,-40.208, 27.838
705615.78718, 3,   1.342,  7.305, -1.503, 4,  -0.050,  0.004, -0.046, 5, -11.975,-41.647, 26.389
705615.80704, 3,  -0.359, 12.115, -1.594, 4,  -0.079,  0.122, -0.079, 5, -10.637,-41.617, 27.115
705615.82694, 3,  -1.606, 11.694, -0.696, 4,  -0.052,  0.133, -0.135, 5, -11.324,-42.345, 26.390
705615.84681, 3,  -1.673,  6.705, -1.165, 4,  -0.067,  0.047, -0.172, 5, -10.637,-41.617, 27.115
705615.86664, 3,  -2.039, 12.371, -3.695, 4,  -0.035, -0.041, -0.169, 5, -12.657,-42.383, 27.841
705615.88651, 3,  -2.110,  9.126, -1.876, 4,   0.038, -0.103, -0.136, 5, -11.322,-42.346, 27.115
705615.90638, 3,  -3.008,  8.078, -3.321, 4,  -0.006, -0.176, -0.109, 5,  -9.970,-41.603, 27.844
705615.92624, 3,  -1.864, 13.436, -5.405, 4,   0.006, -0.197, -0.085, 5, -10.657,-42.328, 25.664
705615.94611, 3,  -1.108,  7.212, -0.330, 4,   0.050, -0.167, -0.001, 5, -11.305,-41.632, 27.113
705615.96598, 3,  -1.859,  9.229, -1.290, 4,  -0.061, -0.054,  0.064, 5, -11.324,-42.345, 26.390
705615.98584, 3,  -2.577, 10.280, -2.742, 4,  -0.016,  0.006,  0.048, 5,  -9.338,-43.008, 25.668
705616.00571, 3,  -2.556,  8.913, -2.053, 4,   0.054,  0.020,  0.029, 5, -10.637,-41.620, 27.843
705616.02555, 3,  -1.469,  6.561, -3.446, 4,   0.048,  0.029,  0.058, 5, -10.622,-40.903, 26.389
705616.04542, 3,  -0.806, 11.617, -4.774, 4,   0.083,  0.084,  0.091, 5, -12.592,-39.526, 27.106
705616.06528, 3,   0.081, 11.048, -1.955, 4,   0.104,  0.161,  0.115, 5, -10.605,-40.193, 27.840
705616.08515, 3,   1.295,  8.631, -1.103, 4,  -0.001,  0.301,  0.126, 5, -11.307,-41.631, 26.389
705616.10502, 3,   1.771, 11.763, -2.950, 4,  -0.031,  0.419,  0.098, 5, -11.324,-42.345, 26.390
705616.12491, 3,   1.172,  8.183, -2.254, 4,   0.037,  0.480,  0.046, 5, -11.339,-43.060, 27.116
705616.14478, 3,   1.017,  9.361, -3.355, 4,   0.011,  0.445, -0.031, 5, -11.356,-43.771, 26.395
705616.16462, 3,  -0.081,  9.497, -3.472, 4,   0.005,  0.394, -0.103, 5, -12.660,-42.377, 25.661
705616.18448, 3,  -0.871,  9.839, -1.677, 4,  -0.032,  0.328, -0.126, 5, -11.975,-41.647, 26.389
705616.20435, 3,  -0.486,  9.193, -1.378, 4,  -0.092,  0.212, -0.142, 5, -11.310,-41.628, 24.936
705616.22361, 3,  -1.012, 10.272, -2.888, 4,  -0.100,  0.031, -0.161, 5, -12.012,-43.073, 24.939
705616.24408, 3,  -2.405, 10.548, -2.390, 4,  -0.066, -0.125, -0.183, 5, -11.960,-40.933, 25.659
705616.26395, 3,  -3.285,  6.882, -2.445, 4,  -0.050, -0.311, -0.174, 5, -10.640,-41.614, 25.662
705616.28382, 3,  -3.343, 12.806, -4.577, 4,  -0.037, -0.468, -0.142, 5,  -9.973,-41.597, 25.664
705616.30365, 3,  -1.694,  9.918, -0.900, 4,  -0.006, -0.554, -0.079, 5, -10.658,-42.325, 24.213
705616.32352, 3,  -1.649,  8.081, -0.744, 4,  -0.070, -0.553,  0.021, 5, -11.992,-42.361, 26.390
705616.34339, 3,  -1.957,  9.169, -2.948, 4,  -0.024, -0.518,  0.062, 5, -11.343,-43.054, 24.213
705616.36326, 3,  -2.244,  9.327, -3.058, 4,   0.108, -0.498,  0.084, 5,  -9.323,-42.293, 24.942
705616.38312, 3,  -1.321,  7.980, -3.170, 4,   0.116, -0.397,  0.107, 5, -10.670,-43.045, 27.118
705616.40302, 3,  -2.828, 10.787, -3.728, 4,   0.111, -0.222,  0.145, 5, -11.307,-41.631, 26.389
705616.42289, 3,  -1.431,  7.961, -1.608, 4,   0.117, -0.009,  0.201, 5, -11.340,-43.059, 26.392
705616.44275, 3,  -1.814,  9.184, -0.660, 4,   0.056,  0.167,  0.250, 5, -11.339,-43.060, 27.116
705616.46259, 3,  -2.005, 11.012, -0.904, 4,   0.046,  0.343,  0.254, 5, -11.990,-42.363, 27.115
705616.48246, 3,  -1.283,  7.784, -2.563, 4,   0.094,  0.471,  0.221, 5, -12.642,-41.664, 26.387
705616.50232, 3,  -1.457, 10.605, -3.285, 4,   0.127,  0.579,  0.230, 5, -12.640,-41.666, 27.112
705616.52219, 3,  -0.024, 11.622, -2.931, 4,   0.148,  0.711,  0.225, 5, -13.309,-41.681, 27.110
705616.54206, 3,  -0.055,  9.150, -0.266, 4,   0.086,  0.801,  0.205, 5, -13.994,-42.415, 27.840
705616.56193, 3,  -0.677,  9.368, -1.543, 4,   0.017,  0.929,  0.186, 5, -13.358,-43.822, 27.116
705616.58179, 3,  -1.555,  8.973, -2.876, 4,   0.037,  0.982,  0.122, 5, -15.294,-41.020, 27.834
705616.60166, 3,  -1.620,  9.011, -3.472, 4,   0.076,  0.904,  0.053, 5, -14.696,-43.849, 24.937
705616.62150, 3,  -1.541, 10.909, -3.436, 4,   0.057,  0.827,  0.019, 5, -15.347,-43.155, 25.658
705616.64136, 3,  -0.744,  8.798, -1.754, 4,   0.001,  0.803,  0.025, 5, -15.950,-40.317, 25.650
705616.66123, 3,  -0.692,  9.861, -1.015, 4,  -0.063,  0.807,  0.040, 5, -16.650,-41.757, 24.928
705616.68113, 3,  -0.306,  9.823, -2.177, 4,  -0.049,  0.764,  0.028, 5, -17.352,-43.202, 24.930
705616.70099, 3,  -0.718,  7.545, -2.256, 4,  -0.013,  0.702, -0.029, 5, -15.349,-43.153, 24.933
705616.72086, 3,  -0.184,  8.313, -3.896, 4,   0.006,  0.651, -0.052, 5, -17.352,-43.202, 24.930
705616.74073, 3,  -0.132, 12.507, -3.852, 4,   0.045,  0.577, -0.078, 5, -17.987,-41.789, 24.199
705616.76056, 3,   0.799,  6.028, -1.761, 4,   0.027,  0.488, -0.119, 5, -16.684,-43.184, 24.205
705616.78043, 3,   0.656, 11.091, -4.609, 4,  -0.039,  0.460, -0.130, 5, -17.368,-43.913, 24.207
705616.80030, 3,   1.113, 10.303, -2.180, 4,   0.005,  0.420, -0.167, 5, -17.355,-43.198, 22.751
705616.82016, 3,   0.759,  9.114, -1.395, 4,  -0.056,  0.376, -0.212, 5, -16.670,-42.467, 22.751
705616.84003, 3,  -0.033, 10.134, -2.742, 4,  -0.085,  0.325, -0.266, 5, -16.687,-43.178, 22.025
705616.85990, 3,  -0.165,  8.581, -2.807, 4,  -0.033,  0.219, -0.304, 5, -16.052,-44.592, 22.757
705616.87977, 3,  -0.574,  4.951, -1.972, 4,  -0.035,  0.105, -0.324, 5, -16.034,-43.880, 23.480
705616.89960, 3,  -1.385,  9.358, -4.494, 4,  -0.033, -0.040, -0.343, 5, -15.367,-43.861, 22.757
705616.91947, 3,  -1.711, 11.842, -3.587, 4,  -0.037, -0.239, -0.368
705616.93934, 3,   1.096,  6.286, -0.251, 4,  -0.125, -0.350, -0.301, 5, -14.732,-45.271, 22.762
705616.95920, 3,   0.627, 15.360, -1.687, 4,  -0.221, -0.402, -0.209, 5, -12.761,-46.652, 23.492
705616.97910, 3,   0.014,  9.846,  0.280, 4,  -0.172, -0.418, -0.206, 5, -12.776,-47.368, 24.222
705616.99897, 3,  -1.043,  8.956, -0.723, 4,  -0.187, -0.422, -0.211, 5, -11.424,-46.622, 24.948
705617.01883, 3,  -2.977, 10.418, -3.190, 4,  -0.085, -0.494, -0.219, 5, -12.695,-43.799, 23.486
705617.03870, 3,  -4.637, 10.040, -3.065, 4,   0.018, -0.589, -0.203, 5, -12.695,-43.799, 23.486
705617.05854, 3,  -3.501,  8.830, -2.063, 4,   0.000, -0.632, -0.148, 5, -12.695,-43.799, 23.486
705617.07840, 3,  -2.424, 10.306, -1.445, 4,  -0.048, -0.606, -0.043, 5, -13.362,-43.816, 24.213
705617.09827, 3,  -0.421,  9.933, -1.079, 4,  -0.052, -0.510,  0.072, 5, -12.044,-44.498, 24.217
705617.11814, 3,  -0.900,  8.660, -1.986, 4,  -0.027, -0.412,  0.130, 5, -14.018,-43.117, 22.757
705617.13801, 3,  -0.347, 12.656, -1.802, 4,   0.026, -0.262,  0.142, 5, -12.711,-44.514, 24.216
705617.15787, 3,  -0.876,  5.008, -1.306, 4,   0.045, -0.049,  0.120, 5, -12.727,-45.227, 24.217
705617.17774, 3,  -1.584,  8.456,  0.098, 4,   0.033,  0.138,  0.108, 5, -11.360,-43.765, 23.488
705617.19761, 3,  -3.769, 11.110, -4.499, 4,   0.087,  0.238,  0.111, 5, -12.729,-45.226, 23.489
705617.21744, 3,  -0.754, 10.940, -2.847, 4,   0.109,  0.340,  0.124, 5, -12.695,-43.799, 23.486
705617.23731, 3,  -0.019,  9.770, -1.335, 4,   0.095,  0.381,  0.134, 5, -14.015,-43.120, 24.210
705617.25721, 3,  -0.182,  9.842, -0.476, 4,   0.056,  0.499,  0.159, 5, -14.697,-43.846, 23.483
705617.27707, 3,  -0.577,  9.050, -3.178, 4,   0.084,  0.603,  0.098, 5, -14.664,-42.422, 24.933
705617.29694, 3,  -1.137,  9.930, -5.204, 4,   0.128,  0.671,  0.015, 5, -13.330,-42.390, 24.934
705617.31681, 3,  -2.438,  8.794, -2.745, 4,   0.121,  0.761, -0.008, 5, -14.665,-42.419, 23.479
705617.33667, 3,  -2.371,  8.839, -2.221, 4,   0.029,  0.862,  0.008, 5, -16.684,-43.184, 24.205
705617.35651, 3,  -2.278, 11.280, -2.522, 4,  -0.021,  0.811, -0.004, 5, -15.349,-43.153, 24.933
705617.37638, 3,  -2.402,  5.202, -0.519, 4,  -0.032,  0.720, -0.018, 5, -15.349,-43.153, 24.933
705617.39625, 3,  -1.455,  8.487, -4.015, 4,  -0.055,  0.599, -0.002, 5, -16.718,-44.609, 23.482
705617.41611, 3,  -1.098, 15.785, -4.836, 4,   0.017,  0.402, -0.014, 5, -15.334,-42.436, 23.477
705617.43598, 3,  -0.328,  7.382,  0.163, 4,   0.016,  0.285, -0.016, 5, -16.702,-43.890, 22.028
705617.45585, 3,   0.510, 11.215, -1.701, 4,  -0.115,  0.288,  0.013, 5, -16.653,-41.753, 22.749
705617.47571, 3,  -0.249,  8.404, -1.062, 4,  -0.039,  0.238, -0.010, 5, -17.339,-42.484, 22.749
705617.49558, 3,   0.452, 11.019, -3.613, 4,   0.026,  0.155, -0.047, 5, -18.703,-43.945, 24.205
705617.51542, 3,   1.505,  9.351, -4.881, 4,   0.076,  0.068, -0.093, 5, -15.298,-41.011, 24.202
705617.53528, 3,   2.608,  6.614, -3.771, 4,   0.068,  0.070, -0.100, 5, -17.352,-43.201, 24.203
705617.55518, 3,   1.567, 11.632, -3.541, 4,   0.018,  0.150, -0.101, 5, -17.369,-43.912, 23.479
705617.57505, 3,   1.407,  7.557,  0.572, 4,  -0.023,  0.226, -0.154, 5, -16.699,-43.896, 24.208
705617.59491, 3,   1.000,  6.985, -0.967, 4,  -0.098,  0.252, -0.212, 5, -16.035,-43.878, 22.755
705617.61478, 3,  -0.151,  9.973, -2.651, 4,  -0.033,  0.160, -0.258, 5, -16.037,-43.874, 21.303
705617.63465, 3,  -1.230, 12.787, -3.340, 4,   0.033,  0.036, -0.317, 5, -16.020,-43.166, 22.752
705617.65448, 3,  -0.179,  8.894, -0.603, 4,   0.012, -0.031, -0.335, 5, -15.384,-44.572, 22.031
705617.67435, 3,  -0.983,  9.078, -0.431, 4,  -0.066, -0.069, -0.283, 5, -15.384,-44.572, 22.031
705617.69422, 3,  -1.871, 11.024, -3.510, 4,  -0.028, -0.127, -0.277, 5, -14.732,-45.271, 22.762
705617.71409, 3,  -1.900,  8.320, -3.369, 4,   0.034, -0.299, -0.305, 5, -14.731,-45.273, 23.486
705617.73395, 3,  -1.957, 11.299, -3.577, 4,   0.024, -0.419, -0.266, 5, -14.734,-45.267, 21.309
705617.75382, 3,  -0.940,  8.789, -1.120, 4,  -0.007, -0.516, -0.191, 5, -12.015,-43.068, 22.760
705617.77369, 3,  -1.192,  8.212, -2.419, 4,  -0.045, -0.529, -0.114, 5, -13.399,-45.239, 22.763
705617.79355, 3,  -2.634, 12.553, -5.137, 4,   0.005, -0.558, -0.082, 5, -12.697,-43.797, 22.762
705617.81339, 3,  -1.029,  7.114, -1.134, 4,   0.067, -0.510, -0.071, 5, -12.064,-45.207, 22.766
705617.83329, 3,  -1.689,  7.152, -2.082, 4,  -0.015, -0.450, -0.003, 5, -12.729,-45.226, 23.489
705617.85315, 3,  -1.962, 14.357, -3.788, 4,   0.020, -0.327,  0.042, 5, -13.399,-45.236, 22.035
705617.87302, 3,  -0.462,  7.411,  0.108, 4,   0.059, -0.174,  0.070, 5, -12.029,-43.782, 23.488
705617.89289, 3,  -0.505,  9.279, -1.838, 4,   0.000,  0.001,  0.124, 5, -12.743,-45.943, 24.945
705617.91276, 3,  -0.447, 10.256, -2.752, 4,   0.060,  0.140,  0.134, 5, -12.711,-44.514, 24.216
705617.93262, 3,  -0.916,  9.102, -3.326, 4,   0.110,  0.223,  0.092, 5, -13.379,-44.530, 24.214
705617.95246, 3,  -0.261, 11.371, -2.209, 4,   0.084,  0.337,  0.061, 5, -12.743,-45.943, 24.945
705617.97233, 3,  -1.094,  8.346, -1.862, 4,   0.040,  0.489,  0.068, 5, -13.364,-43.814, 23.485
705617.99219, 3,  -1.400, 12.412, -3.135, 4,  -0.008,  0.656,  0.065, 5, -14.696,-43.849, 24.937
705618.01206, 3,  -1.716,  8.322, -2.022, 4,   0.018,  0.679,  0.025, 5, -12.729,-45.226, 23.489
705618.03193, 3,  -1.172, 11.040, -3.135, 4,  -0.012,  0.706, -0.003, 5, -13.379,-44.530, 24.214
705618.05179, 3,  -1.058,  5.621, -3.635, 4,  -0.010,  0.736, -0.024, 5, -14.050,-44.543, 22.762
705618.07166, 3,  -1.979, 14.445, -2.520, 4,  -0.027,  0.740, -0.065, 5, -14.682,-43.134, 23.480
705618.09153, 3,  -1.560,  7.547,  0.866, 4,  -0.068,  0.693, -0.090, 5, -14.699,-43.842, 22.031
705618.11139, 3,  -1.426,  9.165, -0.211, 4,  -0.154,  0.634, -0.084, 5, -15.401,-45.285, 22.032
705618.13126, 3,  -1.117, 10.837, -2.969, 4,  -0.066,  0.465, -0.118, 5, -15.384,-44.576, 22.758
705618.15113, 3,  -1.713,  8.550, -3.955, 4,   0.038,  0.263, -0.137, 5, -15.387,-44.568, 19.852
705618.17099, 3,  -1.012,  9.399, -3.570, 4,   0.043,  0.129, -0.168, 5, -16.039,-43.872, 20.576
705618.19086, 3,  -0.809,  9.547, -1.752, 4,   0.029,  0.009, -0.153, 5, -14.684,-43.129, 22.028
705618.21073, 3,  -1.486,  7.755, -2.575, 4,  -0.031,  0.007, -0.125, 5, -15.388,-44.566, 19.127
705618.23060, 3,  -0.900, 10.394, -4.716, 4,  -0.046, -0.052, -0.117, 5, -16.084,-46.016, 22.032
705618.25046, 3,   0.199, 10.962, -2.931, 4,  -0.020, -0.153, -0.113, 5, -15.367,-43.858, 22.029
705618.27030, 3,   1.067,  5.915, -1.637, 4,  -0.055, -0.191, -0.093, 5, -14.732,-45.268, 22.034
705618.29017, 3,   0.648, 11.672, -4.408, 4,  -0.078, -0.153, -0.089, 5, -12.715,-44.507, 21.310
705618.31003, 3,   1.318, 12.187, -3.072, 4,  -0.002, -0.118, -0.118, 5, -13.379,-44.530, 24.214
705618.32990, 3,   2.331,  8.703,  0.115, 4,  -0.037, -0.103, -0.136, 5, -14.751,-45.979, 20.584
705618.34977, 3,   1.720,  5.604, -1.898, 4,  -0.090, -0.082, -0.154, 5, -14.716,-44.556, 22.032
705618.36963, 3,   0.974, 10.832, -6.705, 4,  -0.026, -0.154, -0.227, 5, -12.730,-45.224, 22.765
705618.38950, 3,   0.325, 10.402, -3.974, 4,   0.059, -0.356, -0.294, 5, -14.732,-45.268, 22.034
705618.40937, 3,   0.278, 10.241, -1.062, 4,  -0.063, -0.483, -0.295, 5, -12.714,-44.508, 22.035
705618.42923, 3,  -0.098, 10.337, -0.179, 4,  -0.191, -0.588, -0.262, 5, -12.047,-44.495, 22.765
705618.44910, 3,  -1.137,  8.066, -0.782, 4,  -0.184, -0.742, -0.253, 5, -12.746,-45.935, 22.038
705618.46897, 3,  -2.115, 10.227, -2.345, 4,  -0.125, -0.907, -0.242, 5, -11.378,-44.475, 22.037
705618.48884, 3,  -2.340, 10.942, -1.184, 4,  -0.049, -1.096, -0.235, 5, -10.060,-45.155, 22.041
705618.50870, 3,  -2.704,  6.619, -1.228, 4,  -0.034, -1.264, -0.159, 5,  -8.725,-45.126, 22.771
705618.52857, 3,  -3.388, 13.340, -4.092, 4,  -0.001, -1.314, -0.079, 5, -10.043,-44.446, 22.768
705618.54844, 3,  -1.208,  8.796, -1.156, 4,   0.099, -1.275,  0.023, 5, -10.059,-45.160, 23.494
705618.56827, 3,  -1.117,  8.715, -1.158, 4,   0.056, -1.162,  0.146, 5,  -9.392,-45.142, 22.771
705618.58814, 3,  -1.491,  9.681, -2.871, 4,   0.079, -0.975,  0.202, 5,  -8.737,-45.844, 24.225
705618.60801, 3,  -1.560,  9.497, -2.862, 4,   0.170, -0.775,  0.221, 5,  -8.055,-45.114, 24.951
705618.62787, 3,  -0.897,  9.598, -3.328, 4,   0.194, -0.477,  0.261, 5,  -8.737,-45.845, 24.951
705618.64774, 3,   0.428,  9.906, -1.266, 4,   0.183, -0.113,  0.290, 5,  -9.354,-43.721, 25.671
705618.66761, 3,  -1.216,  7.614, -0.167, 4,   0.139,  0.271,  0.311, 5, -10.707,-44.466, 24.219
705618.68750, 3,  -2.278, 11.498, -2.364, 4,   0.122,  0.592,  0.285, 5, -10.707,-44.466, 24.219
705618.70734, 3,  -0.988, 11.646, -2.804, 4,   0.172,  0.697,  0.200, 5, -10.022,-43.738, 25.670
705618.72721, 3,  -0.244,  6.525, -0.988, 4,   0.126,  0.714,  0.189, 5,  -9.370,-44.435, 25.673
705618.74708, 3,  -2.252, 11.330, -2.941, 4,   0.064,  0.758,  0.183, 5, -11.375,-44.482, 24.944
705618.76694, 3,  -2.910,  9.710, -1.842, 4,   0.068,  0.768,  0.148, 5, -12.027,-43.785, 24.942
705618.78681, 3,  -2.998, 10.406, -0.581, 4,  -0.001,  0.714,  0.136, 5, -12.714,-44.511, 22.763
705618.80668, 3,  -2.441,  9.521, -1.297, 4,  -0.029,  0.546,  0.134, 5, -12.013,-43.069, 23.485
705618.82654, 3,  -1.890,  9.538, -2.754, 4,   0.007,  0.380,  0.141, 5, -11.998,-42.351, 22.031
705618.84638, 3,  -1.452,  9.397, -3.943, 4,   0.038,  0.239,  0.120, 5, -13.982,-41.692, 24.207
705618.86625, 3,  -1.658,  9.772, -4.702, 4,   0.060,  0.196,  0.113, 5, -12.662,-42.374, 24.210
705618.88611, 3,  -0.211,  8.803, -3.319, 4,   0.050,  0.241,  0.124, 5, -13.333,-42.386, 22.755
705618.90598, 3,  -0.084,  9.287, -2.390, 4,   0.002,  0.307,  0.134, 5, -15.384,-44.576, 22.758
705618.92585, 3,  -0.601,  9.380, -3.494, 4,  -0.017,  0.408,  0.129, 5, -14.034,-43.826, 22.032
705618.94571, 3,  -0.270,  7.088, -2.654, 4,   0.001,  0.544,  0.069, 5, -13.347,-43.103, 24.210
705618.96558, 3,  -1.156,  7.329, -4.175, 4,   0.015,  0.626,  0.042, 5, -15.367,-43.858, 22.029
705618.98548, 3,  -1.921, 12.833, -4.094, 4,   0.035,  0.679,  0.010, 5, -13.365,-43.810, 22.032
705619.00531, 3,  -1.065,  9.674, -0.790, 4,   0.000,  0.640, -0.020, 5, -15.335,-42.435, 22.752
705619.02518, 3,  -0.766, 11.033,  0.345, 4,  -0.118,  0.592, -0.024, 5, -13.365,-43.813, 22.760
705619.04505, 3,  -0.816,  8.325, -0.215, 4,  -0.128,  0.500, -0.041, 5, -14.050,-44.543, 22.762
705619.06492, 3,  -1.182, 11.938, -2.302, 4,  -0.049,  0.321, -0.069, 5, -14.650,-41.704, 22.752
705619.08478, 3,  -2.472,  7.545, -4.041, 4,   0.051,  0.133, -0.104, 5, -14.037,-43.823, 20.581
705619.10465, 3,  -2.864,  9.617, -5.039, 4,   0.075,  0.020, -0.102, 5, -14.032,-43.831, 23.485
705619.12452, 3,  -1.883,  9.476, -3.958, 4,   0.078,  0.008, -0.069, 5, -14.066,-45.258, 23.488
705619.14435, 3,  -1.481,  9.294, -2.142, 4,   0.009,  0.012, -0.015, 5, -14.034,-43.826, 22.032
705619.16422, 3,  -0.852, 11.603, -2.319, 4,  -0.066,  0.041,  0.017, 5, -13.333,-42.383, 22.028
705619.18409, 3,   0.156,  7.023, -1.931, 4,  -0.067,  0.014,  0.032, 5, -14.699,-43.845, 22.758
705619.20395, 3,   1.321, 12.971, -3.580, 4,  -0.027, -0.003,  0.039, 5, -13.333,-42.383, 22.028
705619.22382, 3,   1.941,  8.760, -0.761, 4,   0.009, -0.037,  0.015, 5, -14.018,-43.117, 22.757
705619.24369, 3,   1.335,  9.813, -1.603, 4,  -0.043, -0.016, -0.009, 5, -15.382,-44.577, 23.483
705619.26359, 3,   0.148, 10.801, -2.065, 4,   0.011, -0.016, -0.062, 5, -15.367,-43.858, 22.029
705619.28345, 3,  -0.201,  8.023, -1.917, 4,   0.055, -0.075, -0.113, 5, -14.050,-44.540, 22.034
705619.30329, 3,  -0.421, 10.229, -4.400, 4,   0.031, -0.071, -0.146, 5, -14.015,-43.120, 24.210
705619.32316, 3,  -0.677,  9.959, -3.027, 4,   0.054, -0.062, -0.142, 5, -12.048,-44.490, 21.312
705619.34302, 3,  -0.804,  9.009, -1.756, 4,  -0.007, -0.009, -0.120, 5, -13.414,-45.953, 22.765
705619.36289, 3,  -2.276, 11.347, -2.450, 4,  -0.081, -0.008, -0.126, 5, -12.648,-41.656, 22.755
705619.38276, 3,  -2.618, 10.045,  0.019, 4,  -0.090, -0.060, -0.135, 5, -12.698,-43.793, 21.309
705619.40262, 3,  -2.819,  6.051, -1.251, 4,  -0.129, -0.107, -0.113, 5, -12.682,-43.082, 22.031
705619.42249, 3,  -2.510, 12.883, -3.618, 4,  -0.065, -0.174, -0.089, 5, -14.749,-45.981, 21.310
705619.44236, 3,  -1.603, 10.670, -1.570, 4,   0.033, -0.191, -0.052, 5, -12.714,-44.508, 22.035
705619.46219, 3,  -0.610,  9.399, -1.728, 4,  -0.024, -0.087,  0.009, 5, -13.400,-45.235, 21.310
705619.48206, 3,   0.115,  9.811, -3.027, 4,  -0.023,  0.028,  0.031, 5, -11.380,-44.473, 21.312
705619.50193, 3,  -0.651, 10.232, -2.701, 4,   0.035,  0.089,  0.023, 5, -12.717,-44.504, 19.856
705619.52179, 3,  -1.184,  7.344, -2.072, 4,   0.013,  0.166,  0.002, 5, -14.053,-44.537, 20.583
705619.54169, 3,  -0.663,  9.765, -3.427, 4,  -0.001,  0.194, -0.024, 5, -13.382,-44.524, 22.034
705619.56156, 3,  -0.591, 11.088, -3.080, 4,   0.032,  0.186, -0.035, 5, -14.052,-44.539, 21.309
705619.58143, 3,  -0.546,  7.906, -1.828, 4,   0.005,  0.195, -0.036, 5, -13.414,-45.953, 22.765
705619.60126, 3,   0.330, 12.352, -2.639, 4,  -0.034,  0.185, -0.049, 5, -12.048,-44.490, 21.312
705619.62113, 3,  -0.715,  4.769, -0.268, 4,  -0.007,  0.156, -0.080, 5, -14.717,-44.554, 21.307
705619.64100, 3,  -1.072, 10.617, -4.020, 4,  -0.038,  0.150, -0.093, 5, -13.431,-46.663, 22.038
705619.66086, 3,  -0.574, 12.160, -4.123, 4,   0.044,  0.052, -0.134, 5, -12.079,-45.918, 22.040
705619.68073, 3,   0.488,  6.698, -1.357, 4,   0.038, -0.066, -0.126, 5, -13.385,-44.521, 20.583
705619.70060, 3,   0.658,  9.837, -3.745, 4,  -0.050, -0.135, -0.115, 5, -14.050,-44.543, 22.762
705619.72046, 3,   0.854, 11.017, -3.474, 4,  -0.006, -0.239, -0.152, 5, -13.432,-46.661, 21.313
705619.74030, 3,   0.431,  7.963, -1.338, 4,  -0.008, -0.314, -0.165, 5, -12.097,-46.629, 21.317
705619.76017, 3,   0.010,  9.495, -2.764, 4,  -0.055, -0.351, -0.173, 5, -12.730,-45.224, 22.765
705619.78003, 3,  -0.546,  9.057, -3.462, 4,  -0.026, -0.418, -0.203, 5, -12.744,-45.940, 23.491
705619.79990, 3,  -0.603,  9.622, -3.166, 4,   0.006, -0.483, -0.194, 5, -12.714,-44.511, 22.763
705619.81977, 3,  -0.428,  9.004, -2.419, 4,  -0.017, -0.503, -0.164, 5, -11.378,-44.475, 22.037
705619.83967, 3,  -0.663, 12.555, -2.185, 4,  -0.056, -0.500, -0.148, 5, -11.409,-45.906, 23.492
705619.85953, 3,  -0.402,  9.916, -0.132, 4,  -0.072, -0.520, -0.115, 5, -11.426,-46.619, 23.494
705619.87940, 3,  -1.041,  9.880, -1.445, 4,  -0.089, -0.561, -0.087, 5, -12.094,-46.635, 23.494
705619.89927, 3,  -2.273,  9.342, -2.290, 4,  -0.026, -0.633, -0.089, 5,  -9.390,-45.143, 23.495
705619.91910, 3,  -2.144,  8.492, -2.189, 4,   0.037, -0.704, -0.085, 5, -11.409,-45.906, 23.492
705619.93897, 3,  -1.878, 10.772, -3.893, 4,   0.031, -0.710, -0.037, 5, -10.010,-43.021, 23.488
705619.95884, 3,  -1.012,  9.294, -1.091, 4,   0.034, -0.635,  0.030, 5, -10.043,-44.446, 22.768
705619.97870, 3,  -1.187,  8.973, -1.074, 4,  -0.020, -0.510,  0.079, 5, -10.043,-44.446, 22.768
705619.99857, 3,  -1.352, 10.471, -1.472, 4,  -0.013, -0.417,  0.106, 5, -10.043,-44.446, 22.768
705620.01844, 3,  -0.684,  9.126, -2.718, 4,   0.046, -0.367,  0.122, 5,  -9.372,-44.432, 24.222
705620.03827, 3,  -0.931, 12.737, -3.503, 4,   0.084, -0.362,  0.125, 5,  -8.722,-45.131, 24.950
705620.05814, 3,  -0.373,  8.605, -1.419, 4,   0.108, -0.294,  0.114, 5,  -8.041,-44.397, 22.771
705620.07801, 3,  -1.137,  7.511, -2.110, 4,   0.039, -0.217,  0.119, 5, -10.071,-45.879, 25.674
705620.09787, 3,  -1.893, 11.490, -4.369, 4,   0.086, -0.113,  0.113, 5,  -9.355,-43.718, 24.220
705620.11777, 3,  -0.223,  8.533, -1.335, 4,   0.112, -0.035,  0.125
705620.13764, 3,  -1.113,  9.835, -4.319, 4,   0.034,  0.035,  0.137, 5,  -9.355,-43.718, 24.220
705620.15751, 3,  -0.010, 13.015, -2.548, 4,   0.059,  0.099,  0.118, 5, -10.074,-45.874, 23.495
705620.17737, 3,  -1.378,  6.879,  0.610, 4,   0.029,  0.147,  0.101, 5,  -8.771,-47.272, 24.954
705620.19724, 3,  -3.094, 10.557, -0.148, 4,  -0.067,  0.213,  0.072, 5,  -8.751,-46.561, 26.405
705620.21708, 3,  -3.941,  8.361, -1.835, 4,   0.026,  0.169,  0.025, 5, -10.672,-43.044, 26.393
705620.23694, 3,  -3.127,  9.452, -3.762, 4,   0.094,  0.083,  0.028, 5, -10.709,-44.464, 23.491
705620.25681, 3,  -3.278, 10.107, -3.919, 4,   0.150,  0.063,  0.065, 5, -10.025,-43.733, 23.491
705620.27668, 3,  -2.596, 10.263, -2.429, 4,   0.115,  0.143,  0.108, 5, -11.392,-45.195, 24.945
705620.29654, 3,  -2.089,  7.695, -2.034, 4,   0.033,  0.262,  0.145, 5, -10.707,-44.466, 24.219
705620.31641, 3,  -1.728, 11.375, -1.225, 4,  -0.002,  0.361,  0.163, 5, -11.343,-43.054, 24.213
705620.33628, 3,  -1.862, 11.641, -1.627, 4,  -0.017,  0.427,  0.172, 5, -11.394,-45.192, 23.491
705620.35611, 3,  -0.950,  8.372, -0.636, 4,  -0.032,  0.480,  0.161, 5, -10.690,-43.752, 24.217
705620.37598, 3,  -0.684,  9.856, -2.311, 4,  -0.010,  0.460,  0.142, 5, -11.995,-42.357, 24.211
705620.39585, 3,  -0.766,  7.662, -3.041, 4,   0.057,  0.434,  0.114, 5, -12.044,-44.498, 24.217
705620.41575, 3,  -0.538,  9.344, -4.501, 4,   0.068,  0.367,  0.069, 5, -12.694,-43.800, 24.214
705620.43561, 3,   0.211, 11.122, -3.151, 4,   0.049,  0.320,  0.039, 5, -13.365,-43.813, 22.760
705620.45548, 3,   1.429,  7.545, -1.172, 4,  -0.033,  0.305,  0.034, 5, -12.697,-43.797, 22.762
705620.47535, 3,   1.529, 10.107, -2.795, 4,  -0.109,  0.255,  0.018, 5, -12.665,-42.371, 22.757
705620.49521, 3,   0.493, 11.069, -2.512, 4,  -0.070,  0.133, -0.041, 5, -14.049,-44.545, 23.486
705620.51505, 3,  -0.467,  5.905, -2.225, 4,  -0.054,  0.018, -0.118, 5, -13.362,-43.816, 24.213
705620.53492, 3,  -0.914,  9.523, -3.522, 4,  -0.068, -0.140, -0.148, 5, -14.015,-43.121, 24.936
705620.55478, 3,  -1.517, 14.151, -2.532, 4,  -0.018, -0.264, -0.157, 5, -12.045,-44.496, 23.489
705620.57465, 3,  -0.507,  8.121, -0.361, 4,  -0.039, -0.356, -0.125, 5, -10.709,-44.464, 23.491
705620.59452, 3,   0.285,  8.947, -1.613, 4,  -0.110, -0.408, -0.090, 5, -12.029,-43.782, 23.488
705620.61438, 3,  -0.653,  9.787, -2.692, 4,  -0.018, -0.489, -0.091, 5, -12.047,-44.495, 22.765
705620.63425, 3,  -1.381, 10.189, -3.060, 4,   0.060, -0.580, -0.100, 5, -11.359,-43.767, 24.216
705620.65409, 3,  -1.517,  8.583, -3.108, 4,   0.055, -0.548, -0.101, 5, -10.025,-43.733, 23.491
705620.67396, 3,  -1.452,  9.832, -2.273, 4,   0.034, -0.483, -0.048, 5, -10.739,-45.892, 24.222
705620.69385, 3,  -1.414,  9.827, -1.311, 4,   0.020, -0.372, -0.001, 5, -12.079,-45.921, 22.768
705620.71372, 3,  -1.484,  8.181, -1.785, 4,  -0.005, -0.269,  0.019, 5, -12.027,-43.785, 24.942
705620.73359, 3,  -1.369,  9.813, -3.946, 4,   0.026, -0.191,  0.017, 5, -10.707,-44.466, 24.219
705620.75345, 3,  -0.826,  8.272, -4.006, 4,   0.086, -0.137,  0.029, 5, -10.040,-44.450, 24.947
705620.77332, 3,  -1.062, 12.029, -3.300, 4,   0.064, -0.010,  0.051, 5, -12.061,-45.212, 24.945
705620.79319, 3,  -0.031,  7.688, -0.019, 4,   0.007,  0.129,  0.062, 5, -10.707,-44.467, 24.945
705620.81302, 3,  -1.302, 11.112, -1.787, 4,  -0.068,  0.202,  0.061, 5, -11.345,-43.053, 23.485
705620.83289, 3,  -0.833, 10.038, -2.142, 4,  -0.005,  0.183,  0.025, 5, -10.042,-44.447, 23.492
705620.85276, 3,  -1.479,  7.576, -3.644, 4,   0.034,  0.079, -0.010, 5, -10.724,-45.180, 24.947
705620.87262, 3,  -2.113, 11.883, -5.712, 4,   0.065,  0.018, -0.047, 5, -11.392,-45.195, 24.945
705620.89249, 3,  -1.828,  8.959, -1.613, 4,   0.079, -0.013, -0.034, 5,  -9.357,-43.716, 23.492
705620.91236, 3,  -1.414,  6.755, -0.211, 4,  -0.055,  0.002,  0.015, 5, -12.042,-44.501, 25.668
705620.93223, 3,  -2.675, 11.227, -2.986, 4,  -0.083, -0.073,  0.012, 5, -10.738,-45.895, 25.673
705620.95209, 3,  -1.507, 10.835, -2.005, 4,   0.017, -0.189, -0.014, 5, -12.094,-46.635, 23.494
705620.97196, 3,  -0.998,  5.281, -1.450, 4,   0.002, -0.264,  0.030, 5, -10.707,-44.466, 24.219
705620.99183, 3,  -1.854, 15.135, -5.798, 4,   0.015, -0.247,  0.061, 5, -10.707,-44.467, 24.945
705621.01108, 3,  -0.079,  7.214,  0.170, 4,   0.075, -0.165,  0.074, 5, -10.040,-44.449, 24.220
705621.03156, 3,  -1.711, 11.727, -0.146, 4,  -0.048, -0.025,  0.129, 5, -10.690,-43.752, 24.217
705621.05143, 3,  -0.790,  8.518, -1.991, 4,  -0.048,  0.090,  0.122, 5, -10.707,-44.466, 24.219
705621.07129, 3,  -0.672,  8.906, -2.855, 4,   0.034,  0.122,  0.091, 5, -10.693,-43.748, 22.765
705621.09116, 3,  -2.328,  9.835, -3.472, 4,   0.065,  0.138,  0.047, 5, -12.042,-44.501, 25.668
705621.11100, 3,  -1.637,  8.585, -3.293, 4,   0.053,  0.230,  0.046, 5, -11.993,-42.360, 25.662
705621.13086, 3,  -0.502, 10.399, -1.998, 4,  -0.004,  0.267,  0.065, 5, -11.343,-43.056, 24.939
705621.15073, 3,  -0.653,  8.016, -0.038, 4,  -0.056,  0.254,  0.090, 5, -12.708,-44.519, 26.395
705621.17060, 3,   0.122, 11.895, -2.874, 4,  -0.115,  0.179,  0.068, 5, -11.392,-45.195, 24.945
705621.19047, 3,  -0.306,  8.368, -2.907, 4,  -0.059,  0.001,  0.013, 5, -11.359,-43.767, 24.216
705621.21033, 3,   0.225, 10.457, -1.704, 4,  -0.017, -0.123, -0.001, 5, -10.690,-43.753, 24.944
705621.23020, 3,  -0.211, 12.132, -2.280, 4,  -0.026, -0.222, -0.001, 5, -10.692,-43.750, 23.489
705621.25007, 3,   0.012, 10.198, -0.223, 4,  -0.017, -0.270, -0.014, 5, -12.044,-44.499, 24.944
705621.26993, 3,  -0.632,  6.968, -0.242, 4,  -0.012, -0.373, -0.036, 5, -11.372,-44.485, 26.396
705621.28980, 3,  -1.565,  8.449, -3.917, 4,   0.039, -0.416, -0.047, 5, -10.008,-43.024, 24.942
705621.30967, 3,  -2.103, 11.610, -5.082, 4,   0.123, -0.417, -0.086, 5, -10.690,-43.753, 24.944
705621.32953, 3,  -1.440,  9.844, -2.314, 4,   0.094, -0.333, -0.046, 5, -12.012,-43.073, 24.939
705621.34940, 3,  -0.249,  9.808,  0.072, 4,  -0.007, -0.168,  0.030, 5, -12.061,-45.212, 24.945
705621.36927, 3,  -2.216,  7.935, -0.132, 4,  -0.056, -0.051,  0.061, 5, -11.342,-43.057, 25.664
705621.38913, 3,  -0.914, 13.929, -2.735, 4,  -0.002,  0.014,  0.034, 5, -11.359,-43.767, 24.216
705621.40900, 3,  -0.900,  5.597, -2.536, 4,   0.078, -0.013, -0.018, 5, -11.310,-41.628, 24.936
705621.42884, 3,  -1.443, 11.766, -5.224, 4,   0.086,  0.073,  0.031, 5, -10.724,-45.180, 24.947
705621.44870, 3,  -1.070, 12.294, -2.345, 4,   0.114,  0.191,  0.047, 5, -12.041,-44.502, 26.396
705621.46857, 3,  -0.739,  8.258, -0.124, 4,   0.029,  0.248,  0.051, 5, -11.345,-43.053, 23.485
705621.48844, 3,  -0.933, 10.428, -1.926, 4,  -0.048,  0.163,  0.031, 5, -12.679,-43.088, 24.211
705621.50831, 3,  -1.091,  8.116, -3.647, 4,   0.028,  0.031,  0.006, 5, -11.343,-43.054, 24.213
705621.52817, 3,  -0.407,  8.810, -5.853, 4,   0.072, -0.143, -0.013, 5, -12.695,-43.799, 23.486
705621.54807, 3,  -0.129,  9.701, -5.216, 4,   0.100, -0.237, -0.021, 5, -11.996,-42.355, 23.483
705621.56791, 3,   0.041,  8.014, -1.620, 4,   0.070, -0.192, -0.015, 5, -12.012,-43.073, 24.939
705621.58777, 3,  -1.170,  9.758, -3.290, 4,  -0.001, -0.071, -0.024, 5, -10.643,-41.609, 23.483
705621.60764, 3,  -1.098, 11.785, -2.917, 4,   0.006,  0.003, -0.041, 5, -11.310,-41.628, 24.936
705621.62751, 3,  -1.682,  5.377, -1.383, 4,   0.021,  0.025, -0.062, 5, -11.293,-40.915, 24.934
705621.64737, 3,  -1.132, 11.220, -3.185, 4,  -0.007, -0.022, -0.068, 5,  -9.993,-42.307, 23.486
705621.66724, 3,  -2.309, 12.541, -1.613, 4,   0.078, -0.075, -0.073, 5, -11.327,-42.342, 24.937
705621.68711, 3,  -1.541,  8.940, -0.759, 4,   0.046, -0.054, -0.031, 5, -11.327,-42.342, 24.937
705621.70698, 3,  -2.658, 10.933, -1.929, 4,  -0.010, -0.131, -0.007, 5, -11.343,-43.054, 24.213
705621.72681, 3,  -3.907,  8.758,  0.278, 4,   0.021, -0.233, -0.013, 5, -10.672,-43.044, 26.393
705621.74668, 3,  -3.697,  9.234, -2.024, 4,   0.001, -0.327,  0.012, 5, -11.327,-42.340, 24.211
705621.76655, 3,  -2.766,  9.547, -3.391, 4,   0.023, -0.374,  0.072, 5,  -9.323,-42.293, 24.942
705621.78641, 3,  -1.278,  9.940, -1.651, 4,   0.038, -0.334,  0.162, 5, -10.658,-42.325, 24.213
705621.80628, 3,  -0.091,  9.533, -1.347, 4,  -0.002, -0.245,  0.238, 5, -10.657,-42.328, 25.664
705621.82615, 3,   0.019, 11.100, -1.443, 4,  -0.002, -0.118,  0.269, 5, -11.995,-42.357, 24.211
705621.84604, 3,   0.337,  7.073, -1.687, 4,   0.034,  0.013,  0.243, 5,  -9.988,-42.313, 26.393
705621.86588, 3,   0.479,  8.375, -3.876, 4,   0.053,  0.102,  0.214, 5, -12.010,-43.074, 25.664
705621.88575, 3,  -0.579, 12.837, -5.480, 4,   0.111,  0.189,  0.177, 5, -11.357,-43.770, 25.667
705621.90561, 3,   0.282,  7.592, -1.551, 4,   0.103,  0.366,  0.164, 5, -12.677,-43.091, 25.662
705621.92548, 3,  -0.433, 10.461, -1.771, 4,  -0.032,  0.459,  0.157, 5, -11.307,-41.631, 26.389
705621.94535, 3,  -0.864, 10.196, -1.586, 4,  -0.050,  0.491,  0.106, 5, -11.995,-42.358, 24.937
705621.96521, 3,  -2.043,  8.564, -0.672, 4,  -0.037,  0.384,  0.051, 5, -12.645,-41.661, 24.934
705621.98508, 3,  -2.716,  9.957, -2.596, 4,  -0.027,  0.240,  0.008, 5, -11.992,-42.361, 26.390
705622.00495, 3,  -2.771,  9.112, -1.333, 4,   0.017,  0.088,  0.015, 5, -11.308,-41.629, 25.661
705622.02479, 3,  -1.491, 10.308, -1.177, 4,  -0.001, -0.024,  0.067, 5, -12.662,-42.375, 24.936
705622.04465, 3,  -0.869,  9.698, -2.682, 4,  -0.016, -0.126,  0.092, 5, -13.327,-42.393, 26.387
705622.06452, 3,   0.586, 11.019, -1.945, 4,  -0.006, -0.142,  0.114, 5, -13.330,-42.390, 24.934
705622.08439, 3,   1.297,  8.861, -1.412, 4,  -0.011, -0.080,  0.139, 5, -13.313,-41.675, 24.207
705622.10425, 3,   1.888, 12.053, -3.788, 4,  -0.011,  0.070,  0.142, 5, -13.995,-42.410, 26.387
705622.12415, 3,   1.859, 10.303, -2.874, 4,   0.004,  0.248,  0.095, 5, -12.694,-43.802, 24.940
705622.14402, 3,   1.842,  7.406, -0.407, 4,  -0.060,  0.394,  0.050, 5, -12.012,-43.071, 24.213
705622.16388, 3,  -1.424, 11.131, -2.070, 4,  -0.078,  0.436, -0.012, 5, -14.696,-43.848, 24.211
705622.18372, 3,  -3.529,  9.009, -2.201, 4,  -0.031,  0.373, -0.096, 5, -12.646,-41.658, 23.480
705622.20359, 3,  -3.467,  9.260, -2.527, 4,  -0.061,  0.188, -0.163, 5, -14.000,-42.404, 23.480
705622.22345, 3,  -4.726, 10.493, -3.254, 4,  -0.049,  0.036, -0.130, 5, -14.680,-43.135, 24.208
705622.24332, 3,  -2.565,  9.241, -2.579, 4,  -0.001, -0.058, -0.051, 5, -12.663,-42.372, 23.482
705622.26319, 3,  -2.649,  8.322, -2.634, 4,  -0.002, -0.182,  0.002, 5, -13.315,-41.673, 23.479
705622.28306, 3,  -1.137, 10.138, -3.754, 4,   0.028, -0.222,  0.056, 5, -13.365,-43.810, 22.032
705622.30292, 3,  -0.668,  6.420, -3.252, 4,   0.072, -0.154,  0.062, 5, -13.297,-40.962, 24.205
705622.32276, 3,   0.084,  8.846, -3.300, 4,   0.075, -0.008,  0.107, 5, -14.001,-42.400, 22.028
705622.34263, 3,  -0.385, 13.048, -2.615, 4,   0.071,  0.163,  0.123, 5, -12.663,-42.372, 23.482
705622.36251, 3,   0.526,  7.322, -0.038, 4,   0.035,  0.340,  0.109, 5, -13.327,-42.393, 26.387
705622.38238, 3,   0.957, 10.512, -2.871, 4,  -0.027,  0.458,  0.106, 5, -13.330,-42.389, 24.208
705622.40228, 3,   0.560, 10.538, -3.628, 4,   0.060,  0.489,  0.054, 5, -14.000,-42.404, 23.480
705622.42215, 3,  -0.507,  8.078, -2.381, 4,   0.094,  0.461, -0.031, 5, -14.017,-43.118, 23.482
705622.44201, 3,  -1.730,  9.557, -2.821, 4,   0.049,  0.452, -0.090, 5, -14.647,-41.708, 24.931
705622.46188, 3,  -2.472, 10.325, -2.936, 4,   0.048,  0.439, -0.104, 5, -14.682,-43.134, 23.480
705622.48172, 3,  -1.771,  9.234, -1.929, 4,   0.035,  0.371, -0.091, 5, -14.680,-43.135, 24.208
705622.50158, 3,  -2.386,  9.100, -2.180, 4,  -0.012,  0.196, -0.092, 5, -13.330,-42.390, 24.934
705622.52145, 3,  -2.000,  9.648, -3.228, 4,  -0.006,  0.050, -0.103, 5, -14.000,-42.404, 23.480
705622.54132, 3,  -1.058,  7.784, -3.290, 4,   0.018, -0.049, -0.071, 5, -13.312,-41.678, 25.658
705622.56118, 3,  -1.082, 12.467, -3.297, 4,   0.034, -0.053, -0.020, 5, -13.997,-42.409, 25.659
705622.58105, 3,   0.368,  8.571, -1.357, 4,   0.031,  0.013,  0.001, 5, -13.364,-43.814, 23.485
705622.60092, 3,   1.132, 10.203, -2.189, 4,  -0.028,  0.088,  0.032, 5, -13.315,-41.673, 23.479
705622.62078, 3,   1.232,  9.208, -2.419, 4,  -0.006,  0.177,  0.030, 5, -12.694,-43.802, 24.940
705622.64062, 3,   1.244, 10.399, -3.836, 4,   0.022,  0.248, -0.019, 5, -14.000,-42.404, 23.480
705622.66049, 3,   0.215, 10.459, -2.194, 4,   0.029,  0.262, -0.097, 5, -13.968,-40.976, 22.752
705622.68036, 3,  -1.149,  8.430, -1.507, 4,  -0.018,  0.288, -0.130, 5, -13.333,-42.383, 22.028
705622.70025, 3,  -0.826, 11.928, -3.199, 4,  -0.054,  0.290, -0.148, 5, -12.695,-43.799, 23.486
705622.72012, 3,  -1.838,  6.664, -1.407, 4,  -0.006,  0.161, -0.167, 5, -13.313,-41.675, 24.207
705622.73999, 3,  -3.486, 10.028, -3.661, 4,  -0.021,  0.045, -0.180, 5, -14.034,-43.829, 22.760
705622.75985, 3,  -1.833,  8.040, -3.778, 4,   0.013, -0.088, -0.178, 5, -12.630,-40.945, 23.479
705622.77972, 3,  -2.575, 13.486, -2.491, 4,  -0.024, -0.214, -0.136, 5, -13.333,-42.386, 22.755
705622.79956, 3,  -0.553,  9.330,  0.301, 4,  -0.095, -0.250, -0.080, 5, -12.695,-43.799, 23.486
705622.81942, 3,  -0.112, 10.641, -0.502, 4,  -0.154, -0.278, -0.004, 5, -13.333,-42.386, 22.755
705622.83929, 3,  -0.502,  9.442, -2.036, 4,  -0.028, -0.325,  0.007, 5, -14.682,-43.134, 23.480
705622.85916, 3,  -1.074,  8.339, -3.769, 4,   0.072, -0.363, -0.027, 5, -12.013,-43.069, 23.485
705622.87902, 3,  -1.283,  9.172, -4.896, 4,   0.116, -0.350, -0.059, 5, -12.013,-43.069, 23.485
705622.89889, 3,  -0.663, 10.993, -3.781, 4,   0.112, -0.253, -0.027, 5, -12.013,-43.069, 23.485
705622.91876, 3,   1.177,  9.042, -0.706, 4,   0.017, -0.101,  0.036, 5, -12.746,-45.938, 22.766
705622.93859, 3,  -0.436, 11.914, -1.572, 4,  -0.081, -0.000,  0.050, 5, -12.663,-42.372, 23.482
705622.95846, 3,  -0.761,  9.313, -0.936, 4,  -0.046,  0.019,  0.007, 5, -12.694,-43.800, 24.214
705622.97836, 3,  -1.280,  5.592, -3.788, 4,  -0.005,  0.008, -0.026, 5, -12.694,-43.800, 24.214
705622.99823, 3,  -2.800, 13.371, -5.776, 4,   0.065, -0.036, -0.054, 5, -10.643,-41.609, 23.483
705623.01809, 3,  -2.299,  8.394, -0.491, 4,   0.092, -0.009, -0.051, 5, -12.030,-43.781, 22.763
705623.03796, 3,  -1.424,  9.186,  0.132, 4,  -0.071,  0.058,  0.009, 5, -13.333,-42.386, 22.755
705623.05783, 3,  -1.024, 10.335, -3.041, 4,  -0.052,  0.086,  0.037, 5, -12.682,-43.085, 22.758
705623.07769, 3,  -0.830, 10.179, -4.120, 4,   0.068,  0.057,  0.026, 5, -12.680,-43.086, 23.483
705623.09753, 3,  -1.251, 10.208, -3.860, 4,   0.109,  0.045,  0.012, 5, -13.348,-43.102, 23.482
705623.11740, 3,  -1.826,  8.935, -2.254, 4,   0.071,  0.103,  0.003, 5, -12.041,-44.502, 26.396
705623.13726, 3,  -2.773,  8.758, -1.335, 4,   0.020,  0.172,  0.014, 5, -12.013,-43.069, 23.485
705623.15713, 3,  -2.797, 10.851, -2.072, 4,   0.001,  0.210,  0.023, 5, -12.682,-43.085, 22.758
705623.17700, 3,  -1.610, 10.172, -1.622, 4,   0.026,  0.166,  0.043, 5, -14.680,-43.135, 24.208
705623.19687, 3,  -1.113,  8.739, -2.948, 4,   0.045,  0.127,  0.064, 5, -14.015,-43.120, 24.210
705623.21670, 3,  -0.787,  9.980, -4.190, 4,   0.098,  0.128,  0.080, 5, -14.030,-43.834, 24.939
705623.23657, 3,  -0.225, 10.672, -2.477, 4,   0.115,  0.168,  0.084, 5, -13.347,-43.103, 24.210
705623.25644, 3,  -0.132,  8.104,  0.627, 4,   0.040,  0.265,  0.092, 5, -14.648,-41.705, 23.477
705623.27633, 3,   0.318, 10.935, -1.677, 4,  -0.045,  0.343,  0.084, 5, -14.664,-42.422, 24.933
705623.29620, 3,   1.297,  9.267, -2.479, 4,   0.015,  0.338,  0.051, 5, -14.680,-43.137, 24.934
705623.31607, 3,   1.127,  6.918, -3.788, 4,   0.059,  0.292,  0.003
705623.33593, 3,   0.522, 10.643, -5.386, 4,   0.070,  0.278, -0.053, 5, -13.998,-42.407, 24.934
705623.35580, 3,   0.117,  9.839, -3.209, 4,   0.066,  0.263, -0.109, 5, -13.329,-42.392, 25.659
705623.37567, 3,  -1.472,  9.430, -1.668, 4,  -0.043,  0.300, -0.131, 5, -12.057,-45.215, 26.398
705623.39550, 3,  -1.641, 11.227, -2.254, 4,  -0.114,  0.300, -0.144, 5, -13.344,-43.108, 26.389
705623.41537, 3,  -1.074,  7.071, -1.335, 4,  -0.083,  0.217, -0.170, 5, -14.018,-43.114, 22.029
705623.43524, 3,  -2.654,  9.564, -3.544, 4,  -0.067,  0.051, -0.168, 5, -14.017,-43.118, 23.482
705623.45510, 3,  -2.402, 12.175, -5.482, 4,   0.009, -0.110, -0.173, 5, -13.348,-43.102, 23.482
705623.47497, 3,  -0.878,  6.279, -0.835, 4,   0.027, -0.253, -0.142, 5, -13.998,-42.406, 24.208
705623.49484, 3,  -1.773, 10.260, -2.694, 4,  -0.074, -0.313, -0.078, 5, -12.665,-42.371, 22.757
705623.51471, 3,  -1.608,  9.284, -1.900, 4,  -0.041, -0.340, -0.062, 5, -14.000,-42.404, 23.480
705623.53454, 3,  -1.517,  9.444, -1.519, 4,  -0.039, -0.405, -0.049, 5, -12.680,-43.086, 23.483
705623.55444, 3,  -1.574, 10.624, -2.608, 4,  -0.038, -0.410, -0.016, 5, -13.985,-41.685, 22.026
705623.57431, 3,  -0.646,  9.681, -2.931, 4,   0.016, -0.354,  0.020, 5, -12.677,-43.091, 25.662
705623.59417, 3,   0.713, 10.768, -2.264, 4,   0.033, -0.224,  0.056, 5, -13.330,-42.389, 24.208
705623.61404, 3,  -0.921,  7.954, -1.218, 4,   0.028, -0.076,  0.067, 5, -13.333,-42.386, 22.755
705623.63391, 3,  -1.151, 10.835, -3.051, 4,   0.012,  0.102,  0.034, 5, -12.662,-42.374, 24.210
705623.65377, 3,  -0.792,  7.726, -3.857, 4,   0.059,  0.190,  0.010, 5, -13.362,-43.817, 24.939
705623.67364, 3,  -1.060, 11.670, -3.797, 4,   0.062,  0.283,  0.020, 5, -12.712,-44.513, 23.488
705623.69348, 3,  -0.861,  7.248, -1.701, 4,   0.012,  0.348,  0.021, 5, -12.694,-43.800, 24.214
705623.71334, 3,  -1.151, 12.103, -1.871, 4,  -0.072,  0.361,  0.012, 5, -13.365,-43.813, 22.760
705623.73321, 3,  -1.615, 10.138, -1.546, 4,  -0.062,  0.309, -0.004, 5, -13.313,-41.675, 24.207
705623.75308, 3,  -1.419,  8.191, -0.747, 4,  -0.078,  0.232, -0.005, 5, -13.332,-42.387, 23.480
705623.77295, 3,  -2.130, 10.744, -2.412, 4,  -0.051,  0.122, -0.021, 5, -14.684,-43.132, 22.755
705623.79281, 3,  -2.481,  8.372, -2.879, 4,   0.020,  0.069, -0.027, 5, -14.030,-43.832, 24.213
705623.81268, 3,  -1.043, 10.416, -3.795, 4,   0.033,  0.029, -0.015, 5, -15.352,-43.149, 22.754
705623.83258, 3,  -1.866,  9.490, -2.835, 4,   0.035,  0.009,  0.003, 5, -14.030,-43.832, 24.213
705623.85241, 3,  -1.565,  9.880, -2.680, 4,  -0.001,  0.090,  0.034, 5, -12.714,-44.511, 22.763
705623.87228, 3,  -0.928,  7.358, -3.161, 4,  -0.039,  0.157,  0.034, 5, -15.366,-43.863, 23.482
705623.89215, 3,  -0.440, 12.053, -3.654, 4,  -0.027,  0.184,  0.041, 5, -14.717,-44.554, 21.307
705623.91201, 3,   0.103,  8.880, -1.347, 4,  -0.035,  0.215,  0.042, 5, -14.648,-41.705, 23.477
705623.93188, 3,   0.749, 11.076, -2.747, 4,  -0.088,  0.246,  0.028, 5, -14.699,-43.842, 22.031
705623.95175, 3,   1.275, 11.447, -2.378, 4,  -0.046,  0.263, -0.001, 5, -14.067,-45.256, 22.763
705623.97161, 3,   0.213,  7.597, -0.828, 4,  -0.033,  0.284, -0.046, 5, -15.367,-43.861, 22.757
705623.99145, 3,  -0.258,  8.636, -2.362, 4,  -0.048,  0.256, -0.113, 5, -14.682,-43.134, 23.480
705624.01132, 3,  -0.730,  9.624, -5.432, 4,   0.033,  0.178, -0.176, 5, -14.682,-43.134, 23.480
705624.03119, 3,  -1.225,  9.162, -5.025, 4,   0.081,  0.095, -0.194, 5, -14.684,-43.129, 22.028
705624.05105, 3,  -1.859,  8.985, -2.747, 4,   0.016,  0.048, -0.181, 5, -14.018,-43.114, 22.029
705624.07092, 3,  -1.649, 12.065, -0.876, 4,  -0.089,  0.019, -0.164, 5, -13.351,-43.095, 21.304
705624.09079, 3,  -2.319,  5.063, -0.502, 4,  -0.142, -0.040, -0.165, 5, -14.697,-43.846, 23.483
705624.11065, 3,  -1.519, 11.792, -3.931, 4,  -0.120, -0.154, -0.154, 5, -14.697,-43.846, 23.483
705624.13055, 3,  -1.500, 10.409, -3.266, 4,   0.006, -0.289, -0.137, 5, -14.702,-43.839, 20.580
705624.15039, 3,  -0.627,  8.030, -1.790, 4,  -0.013, -0.363, -0.101, 5, -14.697,-43.846, 23.483
705624.17025, 3,  -0.108, 12.036, -3.747, 4,  -0.052, -0.401, -0.074, 5, -13.414,-45.953, 22.765
705624.19012, 3,   1.271,  7.753, -1.218, 4,   0.000, -0.383, -0.047, 5, -13.365,-43.813, 22.760
705624.20999, 3,   0.457,  8.059, -2.419, 4,  -0.060, -0.350, -0.051, 5, -14.050,-44.540, 22.034
705624.22985, 3,   0.211, 11.009, -4.912, 4,  -0.020, -0.300, -0.089, 5, -12.712,-44.513, 23.488
705624.24972, 3,   0.507,  9.765, -3.498, 4,   0.033, -0.258, -0.129, 5, -12.730,-45.224, 22.765
705624.26959, 3,  -1.208,  8.523, -2.228, 4,  -0.021, -0.209, -0.128, 5, -12.694,-43.800, 24.214
705624.28946, 3,  -1.938, 11.450, -1.015, 4,  -0.071, -0.120, -0.136, 5, -13.429,-46.667, 23.491
705624.30929, 3,  -2.321,  5.695, -0.861, 4,  -0.083, -0.059, -0.137, 5, -13.397,-45.241, 23.488
705624.32916, 3,  -3.168, 12.086, -3.288, 4,  -0.073, -0.071, -0.117, 5, -10.710,-44.463, 22.766
705624.34903, 3,  -2.127, 12.943, -2.130, 4,   0.007, -0.134, -0.100, 5, -10.709,-44.464, 23.491
705624.36889, 3,  -1.426,  8.069, -0.108, 4,  -0.031, -0.185, -0.063, 5, -12.030,-43.777, 22.035
705624.38876, 3,  -2.012,  9.150, -2.606, 4,  -0.059, -0.214, -0.038, 5, -12.030,-43.777, 22.035
705624.40866, 3,  -2.747,  8.444, -3.226, 4,   0.040, -0.267, -0.040, 5, -10.727,-45.172, 22.040
705624.42852, 3,  -1.778,  9.413, -2.594, 4,   0.068, -0.305, -0.036, 5, -10.709,-44.464, 23.491
705624.44839, 3,  -1.137,  9.485, -3.460, 4,   0.029, -0.302,  0.010, 5, -10.027,-43.732, 22.766
705624.46823, 3,  -0.084, 10.452, -2.673, 4,   0.013, -0.220,  0.061, 5, -11.995,-42.357, 24.211
705624.48809, 3,  -1.062, 10.177, -1.656, 4,  -0.012, -0.149,  0.078, 5, -10.675,-43.039, 24.214
705624.50796, 3,  -0.605, 11.131, -0.976, 4,  -0.051, -0.088,  0.059, 5, -11.377,-44.479, 23.489
705624.52783, 3,  -1.498,  5.224, -0.282, 4,  -0.048, -0.081,  0.030, 5, -12.714,-44.511, 22.763
705624.54770, 3,  -2.548, 11.174, -4.290, 4,  -0.016, -0.102,  0.018, 5, -11.377,-44.479, 23.489
705624.56756, 3,  -1.780, 11.024, -3.986, 4,   0.090, -0.145,  0.013, 5, -10.710,-44.463, 22.766
705624.58743, 3,  -0.232,  8.081, -1.541, 4,   0.053, -0.125,  0.057, 5, -11.345,-43.053, 23.485
705624.60727, 3,  -0.486,  9.059, -2.943, 4,  -0.023, -0.098,  0.092, 5, -10.707,-44.466, 24.219
705624.62713, 3,  -0.586, 10.490, -4.164, 4,   0.002, -0.081,  0.073, 5, -12.711,-44.516, 24.942
705624.64700, 3,   0.352,  9.648, -2.749, 4,   0.010, -0.088,  0.047, 5, -11.343,-43.054, 24.213
705624.66687, 3,   0.488,  9.784, -0.797, 4,  -0.041, -0.075,  0.031, 5, -10.008,-43.022, 24.216
705624.68673, 3,   1.132,  7.475, -2.008, 4,  -0.067, -0.051,  0.019, 5, -12.694,-43.800, 24.214
705624.70663, 3,  -0.675, 10.607, -4.257, 4,  -0.024, -0.081, -0.031, 5, -10.042,-44.447, 23.492
705624.72650, 3,  -0.378, 10.210, -3.857, 4,   0.035, -0.170, -0.091, 5, -12.013,-43.069, 23.485
705624.74636, 3,  -0.723,  7.549, -1.924, 4,  -0.001, -0.291, -0.118, 5, -10.692,-43.750, 23.489
705624.76620, 3,  -2.802, 11.270, -2.816, 4,  -0.045, -0.363, -0.107, 5, -10.042,-44.447, 23.492
705624.78607, 3,  -1.273, 12.077, -2.228, 4,  -0.049, -0.412, -0.085, 5, -10.693,-43.748, 22.765
705624.80593, 3,  -1.199,  9.397, -0.014, 4,  -0.079, -0.561, -0.053, 5, -10.690,-43.753, 24.944
705624.82580, 3,  -1.833,  9.342, -0.424, 4,  -0.101, -0.693, -0.019, 5, -10.692,-43.750, 23.489
705624.84567, 3,  -2.465, 10.507, -2.718, 4,  -0.017, -0.793, -0.019, 5,  -8.672,-42.993, 25.668
705624.86554, 3,  -2.426,  9.569, -1.811, 4,   0.077, -0.883, -0.009, 5,  -8.690,-43.701, 23.492
705624.88540, 3,  -2.343,  9.040, -1.943, 4,   0.111, -0.880,  0.061, 5,  -9.991,-42.308, 24.214
705624.90527, 3,  -1.278,  8.906, -3.276, 4,   0.126, -0.802,  0.134, 5,  -8.052,-45.117, 26.404
705624.92511, 3,  -2.225, 10.339, -3.616, 4,   0.163, -0.715,  0.179, 5,  -8.655,-42.279, 25.667
705624.94497, 3,  -0.895, 10.603, -2.974, 4,   0.175, -0.576,  0.206, 5,  -8.636,-41.566, 26.393
705624.96484, 3,  -1.228,  7.238, -2.256, 4,   0.145, -0.372,  0.243, 5,  -9.370,-44.435, 25.673
705624.98474, 3,  -1.845, 11.567, -2.747, 4,   0.148, -0.074,  0.268, 5, -10.007,-43.025, 25.667
705625.00460, 3,  -1.974,  8.992, -1.421, 4,   0.169,  0.197,  0.279, 5,  -9.988,-42.313, 26.393
705625.02447, 3,  -1.670,  8.765, -1.366, 4,   0.133,  0.383,  0.285, 5, -12.022,-43.790, 27.119
705625.04434, 3,  -1.656,  9.842, -2.883, 4,   0.138,  0.493,  0.274, 5, -10.657,-42.328, 25.664
705625.06421, 3,  -1.895,  9.198, -2.986, 4,   0.175,  0.608,  0.252, 5, -11.993,-42.360, 25.662
705625.08404, 3,  -1.833,  9.456, -2.831, 4,   0.156,  0.696,  0.228, 5, -11.992,-42.361, 26.390
705625.10391, 3,  -1.752,  7.822, -1.563, 4,   0.111,  0.802,  0.228, 5, -10.654,-42.334, 27.844
705625.12378, 3,  -2.067, 12.438, -2.132, 4,   0.049,  0.866,  0.213, 5, -11.342,-43.057, 25.664
705625.14364, 3,  -1.211, 10.134, -0.098, 4,   0.034,  0.854,  0.181, 5, -13.310,-41.679, 26.385
705625.16351, 3,  -1.412,  7.100, -0.474, 4,  -0.006,  0.792,  0.148, 5, -14.696,-43.849, 24.937
705625.18338, 3,  -0.646,  8.224, -3.788, 4,   0.034,  0.687,  0.113, 5, -14.630,-40.996, 24.930
705625.20324, 3,  -1.481, 13.570, -4.247, 4,   0.128,  0.599,  0.072, 5, -14.664,-42.421, 24.207
705625.22308, 3,  -1.132,  6.260, -1.948, 4,   0.100,  0.586,  0.054, 5, -15.315,-41.724, 24.203
705625.24295, 3,  -0.316, 10.952, -3.462, 4,  -0.022,  0.573,  0.047, 5, -15.317,-41.722, 23.476
705625.26284, 3,  -0.574,  8.705, -2.127, 4,   0.002,  0.482,  0.024, 5, -13.982,-41.693, 24.933
705625.28271, 3,  -0.199,  9.057, -2.857, 4,  -0.027,  0.391, -0.013, 5, -14.648,-41.705, 23.477
705625.30258, 3,   0.208, 11.763, -3.515, 4,  -0.031,  0.288, -0.064, 5, -14.684,-43.129, 22.028
705625.32244, 3,   0.220,  7.911, -1.153, 4,  -0.018,  0.218, -0.076, 5, -15.332,-42.438, 24.205
705625.34231, 3,  -0.290,  8.188, -2.388, 4,  -0.056,  0.195, -0.087, 5, -15.334,-42.436, 23.477
705625.36218, 3,  -0.079, 12.510, -4.254, 4,  -0.012,  0.118, -0.123, 5, -14.664,-42.422, 24.933
705625.38202, 3,  -0.141,  4.953, -2.221, 4,   0.021,  0.057, -0.157, 5, -15.997,-42.459, 26.382
705625.40188, 3,  -0.366, 11.809, -5.291, 4,  -0.034, -0.014, -0.144, 5, -14.680,-43.135, 24.208
705625.42175, 3,  -0.017, 12.727, -3.156, 4,  -0.005, -0.088, -0.152, 5, -13.998,-42.407, 24.934
705625.44162, 3,   0.560,  7.781,  0.098, 4,  -0.088, -0.170, -0.140, 5, -13.313,-41.675, 24.207
705625.46148, 3,  -0.301, 10.464, -0.301, 4,  -0.202, -0.270, -0.129, 5, -14.684,-43.132, 22.755
705625.48135, 3,  -0.940,  8.992, -1.505, 4,  -0.137, -0.399, -0.179, 5, -13.332,-42.387, 23.480
705625.50122, 3,  -0.708, 10.440, -3.441, 4,  -0.074, -0.609, -0.220, 5, -13.332,-42.387, 23.480
705625.52105, 3,  -0.172,  8.719, -3.264, 4,  -0.007, -0.743, -0.209, 5, -12.695,-43.799, 23.486
705625.54092, 3,  -1.239,  9.205, -3.226, 4,  -0.008, -0.766, -0.152, 5, -13.312,-41.678, 25.658
705625.56082, 3,  -1.993,  8.803, -2.410, 4,  -0.007, -0.740, -0.114, 5, -11.310,-41.626, 24.210
705625.58068, 3,  -1.986, 10.677, -3.027, 4,  -0.035, -0.727, -0.084, 5, -11.327,-42.340, 24.211
705625.60055, 3,  -2.469,  7.167, -2.051, 4,  -0.026, -0.686, -0.048, 5, -10.641,-41.611, 24.211
705625.62042, 3,  -2.668, 11.715, -2.144, 4,  -0.005, -0.647,  0.009, 5, -10.674,-43.042, 25.665
705625.64029, 3,  -2.548, 11.005, -1.350, 4,   0.018, -0.592,  0.053, 5, -10.640,-41.614, 25.662
705625.66015, 3,  -1.764,  9.339, -0.333, 4,   0.017, -0.476,  0.113, 5,  -9.291,-40.863, 23.485
705625.67999, 3,  -1.591, 12.438, -1.787, 4,   0.050, -0.343,  0.173, 5, -10.643,-41.609, 23.483
705625.69986, 3,  -1.831,  7.557, -1.852, 4,   0.130, -0.189,  0.190, 5, -10.643,-41.609, 23.483
705625.71972, 3,  -2.690,  8.437, -3.044, 4,   0.158, -0.041,  0.179, 5, -10.672,-43.044, 26.393
705625.73959, 3,  -2.182, 10.457, -3.888, 4,   0.208,  0.132,  0.184, 5, -10.672,-43.044, 26.393
705625.75946, 3,  -0.687,  8.650, -2.096, 4,   0.199,  0.326,  0.225, 5, -10.672,-43.044, 26.393
705625.77932, 3,  -1.708,  9.655, -1.771, 4,   0.100,  0.535,  0.230, 5, -11.961,-40.932, 24.934
705625.79858, 3,  -1.637, 10.768, -1.062, 4,   0.057,  0.713,  0.200, 5, -12.007,-43.077, 27.116
705625.81906, 3,  -1.912,  5.678, -1.254, 4,   0.032,  0.792,  0.170, 5, -12.645,-41.661, 24.934
705625.83892, 3,  -2.063, 14.512, -3.855, 4,   0.044,  0.797,  0.144, 5, -12.642,-41.664, 26.387
705625.85879, 3,  -0.476,  9.849, -1.888, 4,   0.081,  0.712,  0.107, 5, -13.933,-39.554, 24.927
705625.87866, 3,  -0.505,  9.705, -0.526, 4,  -0.015,  0.665,  0.126, 5, -13.933,-39.552, 24.200
705625.89853, 3,  -0.644, 10.528, -2.869, 4,  -0.026,  0.667,  0.091, 5, -15.919,-38.885, 23.466
705625.91839, 3,  -1.452, 10.540, -2.922, 4,   0.032,  0.630,  0.036, 5, -14.581,-38.855, 24.924
705625.93826, 3,  -2.110,  8.030, -2.216, 4,   0.049,  0.560, -0.024, 5, -15.967,-41.029, 24.927
705625.95813, 3,  -1.965,  9.428, -4.487, 4,   0.028,  0.485, -0.048, 5, -15.970,-41.025, 22.748
705625.97796, 3,  -0.416, 10.031, -2.989, 4,   0.035,  0.402, -0.042, 5, -16.634,-41.043, 24.200
705625.99783, 3,  -1.072,  8.868, -0.203, 4,  -0.022,  0.287, -0.038, 5, -15.955,-40.311, 22.746
705626.01770, 3,  -0.215, 11.062, -1.821, 4,  -0.090,  0.172, -0.058, 5, -16.605,-39.613, 22.743
705626.03756, 3,   1.350,  6.992, -2.352, 4,  -0.063,  0.034, -0.075, 5, -16.620,-40.327, 23.471
705626.05743, 3,   1.192, 12.163, -3.800, 4,  -0.020, -0.070, -0.080, 5, -15.953,-40.312, 23.471
705626.07730, 3,   1.105,  9.497, -2.991, 4,   0.004, -0.156, -0.114, 5, -15.968,-41.026, 23.473
705626.09716, 3,   1.371, 11.208, -0.833, 4,  -0.057, -0.228, -0.148, 5, -15.283,-40.298, 24.927
705626.11703, 3,   0.548,  9.806, -0.701, 4,  -0.067, -0.280, -0.153, 5, -16.618,-40.329, 24.199
705626.13690, 3,  -1.244, 10.047, -3.879, 4,  -0.043, -0.374, -0.181, 5, -15.302,-41.005, 22.021
705626.15676, 3,  -1.582,  9.265, -3.388, 4,  -0.004, -0.499, -0.244, 5, -13.982,-41.693, 24.933
705626.17663, 3,  -2.299,  9.863, -2.249, 4,  -0.012, -0.589, -0.227, 5, -13.950,-40.266, 24.930
705626.19650, 3,  -1.285,  9.677, -3.065, 4,  -0.041, -0.586, -0.159, 5, -14.682,-43.134, 23.480
705626.21637, 3,  -2.209,  9.839, -2.874, 4,  -0.038, -0.594, -0.118, 5, -13.983,-41.690, 23.479
705626.23623, 3,  -1.974, 10.241, -1.567, 4,  -0.015, -0.586, -0.091, 5, -13.298,-40.961, 23.477
705626.25610, 3,  -1.364,  6.432, -1.792, 4,  -0.020, -0.558, -0.049, 5, -13.330,-42.390, 24.934
705626.27597, 3,  -1.601, 12.079, -4.073, 4,   0.021, -0.465,  0.004, 5, -13.300,-40.959, 22.752
705626.29580, 3,  -0.802,  9.545, -2.740, 4,   0.079, -0.366,  0.054, 5, -11.946,-40.216, 24.207
705626.31567, 3,  -0.053, 10.548, -0.897, 4,   0.016, -0.250,  0.089, 5, -11.961,-40.932, 24.934
705626.33554, 3,  -0.888,  9.392, -0.550, 4,  -0.012, -0.099,  0.106, 5, -12.613,-40.234, 24.931
705626.35540, 3,  -2.173,  9.583, -1.945, 4,   0.016,  0.028,  0.093, 5, -11.946,-40.216, 24.207
705626.37527, 3,  -2.768, 10.390, -3.462, 4,   0.056,  0.106,  0.048, 5, -11.308,-41.629, 25.661
705626.39514, 3,  -2.316,  9.701, -2.144, 4,   0.090,  0.195,  0.056, 5, -13.297,-40.962, 24.205
705626.41504, 3,  -1.854, 10.366, -1.469, 4,   0.064,  0.326,  0.101, 5, -13.312,-41.678, 25.658
705626.43487, 3,  -2.503,  9.638, -2.089, 4,   0.044,  0.425,  0.113, 5, -12.628,-40.947, 24.207
705626.45474, 3,  -2.039, 10.445, -1.905, 4,   0.042,  0.482,  0.089, 5, -14.645,-41.710, 25.656
705626.47461, 3,  -0.933,  7.624, -2.398, 4,   0.035,  0.476,  0.086, 5, -13.965,-40.979, 24.205
705626.49447, 3,  -1.653, 11.797, -3.285, 4,   0.049,  0.463,  0.084, 5, -13.313,-41.676, 24.933
705626.51434, 3,  -1.120,  8.353, -1.362, 4,   0.054,  0.453,  0.073, 5, -11.339,-43.060, 27.116
705626.53421, 3,  -1.651, 10.143, -1.405, 4,  -0.020,  0.432,  0.069
705626.55407, 3,  -1.232, 10.890, -2.132, 4,  -0.001,  0.403,  0.051, 5, -12.708,-44.519, 26.395
705626.57394, 3,  -1.335,  6.949, -1.285, 4,   0.034,  0.339,  0.040, 5, -11.357,-43.770, 25.667
705626.59378, 3,  -1.998,  9.559, -4.080, 4,   0.028,  0.339,  0.013, 5, -15.334,-42.436, 23.477
705626.61364, 3,  -1.474, 10.280, -4.771, 4,   0.084,  0.353, -0.018, 5, -15.955,-40.311, 22.746
705626.63351, 3,  -1.141,  9.169, -2.266, 4,   0.067,  0.419, -0.005, 5, -17.303,-41.058, 23.471
705626.65338, 3,  -1.998,  9.990, -2.721, 4,  -0.017,  0.504,  0.010, 5, -15.935,-39.603, 24.922
705626.67324, 3,  -0.562, 12.486, -2.958, 4,  -0.034,  0.520, -0.025, 5, -15.285,-40.295, 23.473
705626.69314, 3,  -0.189,  6.406, -1.196, 4,  -0.051,  0.450, -0.037, 5, -14.633,-40.991, 22.751
705626.71301, 3,   0.380, 12.912, -4.037, 4,  -0.081,  0.367, -0.056
705626.73288, 3,   1.565,  9.188, -2.060, 4,  -0.039,  0.245, -0.103, 5, -14.633,-40.991, 22.751
705626.75271, 3,   1.259,  9.442, -2.280, 4,  -0.094,  0.151, -0.115, 5, -15.352,-43.146, 22.026
705626.77258, 3,   0.495, 10.531, -3.601, 4,  -0.087,  0.036, -0.158, 5, -13.985,-41.685, 22.026
705626.79245, 3,   0.713,  8.511, -2.125, 4,  -0.059, -0.096, -0.220, 5, -14.648,-41.705, 23.477
705626.81231, 3,  -0.232,  8.710, -1.816, 4,  -0.106, -0.245, -0.256, 5, -14.650,-41.704, 22.752
705626.83218, 3,  -1.235, 10.296, -3.343, 4,  -0.107, -0.378, -0.272, 5, -14.017,-43.118, 23.482
705626.85205, 3,  -0.964, 10.076, -2.323, 4,  -0.094, -0.540, -0.282, 5, -15.352,-43.149, 22.754
705626.87191, 3,  -1.613,  8.760, -0.632, 4,  -0.125, -0.678, -0.244, 5, -14.667,-42.415, 22.026
705626.89178, 3,  -2.211, 11.488, -2.378, 4,  -0.142, -0.774, -0.207, 5, -12.665,-42.368, 22.029
705626.91162, 3,  -1.929,  6.834, -1.271, 4,  -0.104, -0.872, -0.184, 5, -14.015,-43.120, 24.210
705626.93148, 3,  -1.687, 11.560, -1.574, 4,  -0.073, -0.891, -0.118, 5, -12.682,-43.085, 22.758
705626.95135, 3,  -0.562, 10.720, -3.281, 4,  -0.022, -0.870, -0.051, 5, -14.018,-43.117, 22.757
705626.97122, 3,   0.103,  9.576, -2.814, 4,   0.015, -0.814, -0.002, 5, -12.650,-41.652, 21.303
705626.99112, 3,  -0.560,  9.921, -3.874, 4,   0.033, -0.740,  0.021, 5, -12.694,-43.802, 24.940
705627.01098, 3,  -1.443,  9.736, -2.553, 4,   0.059, -0.594,  0.046, 5, -11.978,-41.643, 24.210
705627.03085, 3,  -1.725,  7.691, -1.323, 4,   0.027, -0.455,  0.054, 5, -10.658,-42.325, 24.213
705627.05069, 3,  -2.701, 11.002, -3.041, 4,   0.000, -0.351,  0.075, 5, -10.022,-43.738, 25.670
705627.07055, 3,  -2.541,  9.119, -2.565, 4,   0.051, -0.288,  0.091, 5, -11.996,-42.355, 23.483
705627.09042, 3,  -2.785,  9.220, -1.857, 4,   0.064, -0.264,  0.126, 5, -10.677,-43.037, 23.486
705627.11029, 3,  -1.957, 11.198, -1.383, 4,   0.057, -0.175,  0.174, 5, -10.675,-43.039, 24.214
705627.13015, 3,  -2.910,  6.284, -1.785, 4,   0.065, -0.051,  0.192, 5, -10.675,-43.040, 24.940
