705469.10747, 3,   1.426,  9.425, -2.835
705469.14596, 3,   1.426,  9.425, -2.835, 5,  19.061,-55.124, 14.853
705469.16583, 3,   1.426,  9.425, -2.835, 4,  -0.006,  0.006,  0.021, 5,  19.041,-55.832, 12.677
705469.18566, 3,   1.500,  9.368, -2.981, 4,  -0.006,  0.006,  0.021, 5,  17.073,-54.457, 14.124
705469.20553, 3,   1.584,  9.380, -3.149, 4,  -0.006,  0.006,  0.021, 5,  21.701,-56.491, 17.041
705469.22540, 3,   1.496,  9.358, -3.137, 4,   0.000, -0.004,  0.014, 5,  20.366,-56.523, 17.039
705469.24527, 3,   1.311,  9.418, -3.001, 4,   0.000, -0.005,  0.008, 5,  20.364,-56.522, 16.313
705469.26513, 3,   1.316,  9.406, -3.039, 4,   0.000, -0.018,  0.001, 5,  21.001,-57.932, 16.316
705469.28500, 3,   1.498,  9.394, -3.051, 4,   0.001, -0.029, -0.003, 5,  21.033,-56.505, 16.313
705469.30487, 3,   1.488,  9.416, -2.943, 4,   0.002, -0.031, -0.005, 5,  21.701,-56.494, 17.767
705469.32473, 3,   1.414,  9.416, -2.821, 4,   0.001, -0.027, -0.012, 5,  21.066,-55.078, 16.310
705469.34460, 3,   1.417,  9.433, -2.922, 4,   0.002, -0.026, -0.018, 5,  21.686,-57.207, 17.769
705469.36447, 3,   1.345,  9.437, -3.025, 4,   0.009, -0.024, -0.020, 5,  21.733,-55.063, 16.312
705469.38433, 3,   1.213,  9.452, -2.867, 4,   0.012, -0.010, -0.026, 5,  21.034,-56.509, 17.766
705469.40359, 3,   1.211,  9.464, -2.826, 4,   0.010, -0.003, -0.031, 5,  21.700,-56.490, 16.315
705469.42407, 3,   1.347,  9.456, -2.962, 4,   0.010, -0.008, -0.030, 5,  20.383,-55.809, 17.038
705469.44390, 3,   1.290,  9.454, -2.917, 4,   0.013, -0.010, -0.031, 5,  21.066,-55.078, 16.310
705469.46377, 3,   1.539,  9.662, -3.293, 4,   0.013, -0.009, -0.038, 5,  21.735,-55.064, 17.038
705469.48364, 3,   0.268, 10.014, -2.278, 4,   0.010, -0.007, -0.043, 5,  21.068,-55.083, 17.763
705469.50351, 3,   1.192,  9.507, -3.592, 4,   0.002,  0.024, -0.045, 5,  23.068,-55.029, 16.315
705469.52337, 3,   0.768,  9.504, -2.931, 4,   0.016, -0.027, -0.042, 5,  21.698,-56.488, 15.588
705469.54324, 3,   1.036,  9.502, -2.759, 4,   0.018, -0.008, -0.038, 5,  21.669,-57.918, 17.044
705469.56311, 3,   1.488,  9.471, -3.178, 4,   0.012, -0.031, -0.040, 5,  21.733,-55.063, 16.312
705469.58297, 3,   1.567,  9.354, -3.297, 4,   0.018, -0.053, -0.035, 5,  22.401,-55.051, 17.766
705469.60281, 3,   0.306,  9.624, -2.352, 4,   0.016,  0.014, -0.043, 5,  21.718,-55.777, 17.039
705469.62271, 3,   0.895,  9.593, -3.228, 4,   0.016,  0.090, -0.056, 5,  22.386,-55.765, 18.492
705469.64257, 3,   1.041,  9.351, -3.592, 4,   0.027,  0.052, -0.047, 5,  22.385,-55.760, 17.041
705469.66244, 3,   0.952,  9.346, -2.965, 4,   0.028, -0.009, -0.032, 5,  21.065,-55.077, 15.584
705469.68231, 3,   0.479,  9.569, -2.462, 4,   0.009, -0.016, -0.035, 5,  21.719,-55.782, 18.491
705469.70217, 3,   0.727,  9.500, -3.015, 4,   0.000, -0.013, -0.036, 5,  23.004,-57.884, 17.047
705469.72201, 3,   1.383,  9.265, -3.721, 4,   0.017,  0.006, -0.021, 5,  22.417,-54.332, 16.312
705469.74188, 3,   1.041,  9.437, -3.044, 4,   0.024, -0.008, -0.015, 5,  23.051,-55.742, 16.316
705469.76174, 3,   0.974,  9.459, -2.529, 4,   0.006, -0.008, -0.025, 5,  21.684,-57.202, 16.316
705469.78161, 3,   1.113,  9.377, -3.247, 4,   0.000, -0.020, -0.021, 5,  23.718,-55.727, 16.316
705469.80148, 3,   0.416,  9.399, -3.628, 4,   0.012, -0.066, -0.018, 5,  23.070,-55.031, 17.041
705469.82135, 3,  -0.057,  9.545, -3.295, 4,   0.016, -0.063, -0.018, 5,  22.401,-55.048, 17.039
705469.84121, 3,  -0.081,  9.547, -3.036, 4,   0.002, -0.082, -0.010, 5,  22.365,-56.471, 15.590
705469.86105, 3,  -0.579,  9.480, -3.706, 4,  -0.006, -0.147,  0.012, 5,  22.366,-56.473, 16.316
705469.88092, 3,  -0.943,  9.476, -3.891, 4,  -0.005, -0.169,  0.037, 5,  22.383,-55.759, 16.315
705469.90081, 3,  -0.995,  9.464, -3.783, 4,  -0.015, -0.180,  0.063, 5,  22.415,-54.329, 14.857
705469.92068, 3,  -0.811,  9.531, -3.795, 4,  -0.035, -0.164,  0.098, 5,  22.385,-55.760, 17.041
705469.94055, 3,  -1.304,  9.418, -3.864, 4,  -0.050, -0.149,  0.133, 5,  21.017,-57.217, 16.315
705469.96041, 3,  -1.022,  9.318, -3.752, 4,  -0.059, -0.127,  0.173, 5,  24.976,-59.267, 17.781
705469.98028, 3,  -0.467,  9.411, -3.101, 4,  -0.068, -0.129,  0.221
705470.00012, 3,   0.029,  9.614, -3.288, 4,  -0.070, -0.092,  0.254, 5,  21.750,-54.349, 16.310
705470.01998, 3,   1.117,  9.444, -3.237, 4,  -0.060, -0.065,  0.280, 5,  20.416,-54.385, 17.761
705470.03985, 3,   1.845,  9.212, -2.981, 4,  -0.052, -0.020,  0.310, 5,  21.082,-54.361, 14.854
705470.05972, 3,   2.309,  9.272, -2.809, 4,  -0.059,  0.040,  0.315, 5,  21.048,-55.789, 15.585
705470.07959, 3,   2.103,  9.442, -2.228, 4,  -0.066,  0.108,  0.299, 5,  21.698,-56.487, 14.861
705470.09945, 3,   2.448,  9.363, -2.005, 4,  -0.068,  0.167,  0.284, 5,  21.033,-56.505, 16.313
705470.11932, 3,   2.766,  9.401, -2.130, 4,  -0.059,  0.168,  0.276, 5,  20.361,-56.517, 14.134
705470.13919, 3,   3.130,  9.468, -2.493, 4,  -0.040,  0.153,  0.257, 5,  19.696,-56.538, 16.312
705470.15902, 3,   3.039,  9.313, -2.441, 4,  -0.027,  0.149,  0.236, 5,  19.046,-55.840, 16.309
705470.17892, 3,   2.266,  9.239, -2.524, 4,  -0.031,  0.103,  0.214, 5,  19.048,-55.841, 17.035
705470.19879, 3,   2.099,  9.418, -2.881, 4,  -0.039,  0.042,  0.188, 5,  18.375,-55.852, 14.130
705470.21865, 3,   2.185,  9.380, -2.759, 4,  -0.045, -0.013,  0.173, 5,  18.376,-55.855, 15.582
705470.23852, 3,   2.216,  9.248, -2.711, 4,  -0.049, -0.024,  0.163, 5,  18.996,-57.977, 14.859
705470.25839, 3,   1.998,  9.373, -3.202, 4,  -0.048, -0.015,  0.151, 5,  19.728,-55.110, 15.582
705470.27822, 3,   1.304,  9.255, -3.726, 4,  -0.039,  0.008,  0.145, 5,  18.343,-57.278, 14.133
705470.29809, 3,   0.964,  9.114, -3.455, 4,  -0.035,  0.042,  0.144, 5,  19.061,-55.125, 15.581
705470.31796, 3,   0.936,  9.411, -3.410, 4,  -0.045,  0.061,  0.145, 5,  18.358,-56.566, 14.131
705470.33783, 3,   0.531,  9.299, -4.202, 4,  -0.051,  0.039,  0.151, 5,  17.007,-57.310, 14.130
705470.35769, 3,   0.754,  8.940, -4.496, 4,  -0.052,  0.001,  0.168, 5,  19.044,-55.838, 15.582
705470.37756, 3,   0.885,  9.167, -3.812, 4,  -0.066, -0.002,  0.197, 5,  19.041,-55.832, 12.677
705470.39743, 3,   0.407,  9.272, -4.164, 4,  -0.090,  0.039,  0.208, 5,  18.391,-55.139, 14.128
705470.41726, 3,   0.507,  8.992, -4.489, 4,  -0.098,  0.073,  0.212, 5,  19.008,-57.256, 11.954
705470.43713, 3,   1.199,  9.023, -3.144, 4,  -0.105,  0.091,  0.243, 5,  17.688,-56.580, 12.677
705470.45700, 3,   2.015,  9.299, -3.386, 4,  -0.116,  0.112,  0.279, 5,  18.356,-56.563, 12.679
705470.47689, 3,   2.345,  9.090, -3.785, 4,  -0.095,  0.185,  0.290, 5,  18.356,-56.564, 13.405
705470.49676, 3,   2.615,  9.016, -3.273, 4,  -0.067,  0.257,  0.284, 5,  18.355,-56.560, 11.952
705470.51663, 3,   2.486,  8.851, -3.984, 4,  -0.052,  0.320,  0.288, 5,  17.688,-56.581, 13.403
705470.53649, 3,   3.864,  8.952, -3.522, 4,  -0.038,  0.376,  0.285, 5,  17.673,-57.292, 12.679
705470.55633, 3,   4.422,  8.734, -3.056, 4,  -0.044,  0.356,  0.261, 5,  16.322,-58.038, 12.677
705470.57620, 3,   4.970,  9.260, -2.627, 4,  -0.048,  0.367,  0.232, 5,  17.021,-56.595, 12.675
705470.59606, 3,   4.606,  9.007, -2.938, 4,  -0.029,  0.477,  0.199, 5,  16.341,-57.327, 14.128
705470.61593, 3,   3.742,  8.806, -3.161, 4,   0.000,  0.592,  0.151, 5,  14.987,-58.070, 12.675
705470.63580, 3,   3.575,  8.428, -3.199, 4,   0.020,  0.675,  0.104, 5,  14.333,-57.368, 11.218
705470.65567, 3,   2.809,  8.600, -3.675, 4,   0.022,  0.663,  0.076, 5,  14.304,-58.803, 14.130
705470.67553, 3,   2.436,  9.296, -3.797, 4,   0.024,  0.587,  0.052, 5,  13.684,-56.679, 14.124
705470.69537, 3,   2.142,  9.165, -3.458, 4,   0.013,  0.493,  0.032, 5,  13.000,-57.405, 12.671
705470.71524, 3,   2.357,  8.064, -2.749, 4,  -0.006,  0.425,  0.035, 5,  13.637,-58.820, 14.854
705470.73510, 3,   3.120,  8.236, -2.902, 4,  -0.013,  0.366,  0.036, 5,  14.351,-56.662, 13.397
705470.75500, 3,   3.582, 10.459, -4.463, 4,   0.001,  0.350,  0.034, 5,  13.004,-57.410, 14.848
705470.77487, 3,   2.321,  9.473, -2.967, 4,   0.045,  0.442,  0.031, 5,  15.022,-56.648, 14.850
705470.79473, 3,   2.000,  8.449, -3.288, 4,   0.040,  0.582,  0.008, 5,  14.337,-57.376, 14.125
705470.81460, 3,   1.933,  9.263, -2.666, 4,   0.027,  0.625, -0.003, 5,  13.640,-58.824, 17.035
705470.83444, 3,   2.192, 10.091, -2.902, 4,   0.021,  0.614,  0.007, 5,  13.637,-58.821, 15.582
705470.85430, 3,   2.402,  9.696, -2.369, 4,   0.018,  0.641,  0.013, 5,  12.286,-59.569, 15.581
705470.87417, 3,   2.768,  8.748, -2.816, 4,   0.027,  0.686,  0.021, 5,  13.005,-57.413, 16.302
705470.89404, 3,   2.144,  8.703, -2.029, 4,   0.046,  0.697,  0.028, 5,  13.670,-57.394, 15.578
705470.91391, 3,   2.680,  8.901, -2.716, 4,   0.053,  0.678,  0.024, 5,  11.667,-57.443, 15.573
705470.93377, 3,   3.563,  9.930, -2.898, 4,   0.046,  0.613,  0.015, 5,  12.337,-57.430, 16.301
705470.95364, 3,   3.532,  9.320, -2.390, 4,   0.054,  0.540,  0.023, 5,  12.338,-57.434, 17.754
705470.97348, 3,   3.422,  8.535, -1.720, 4,   0.050,  0.531,  0.018, 5,  11.002,-57.460, 15.573
705470.99334, 3,   3.443,  8.841, -1.842, 4,   0.045,  0.566, -0.008, 5,  12.370,-56.007, 17.751
705471.01321, 3,   3.041,  8.164, -1.333, 4,   0.050,  0.615, -0.029, 5,  10.320,-58.192, 17.026
705471.03308, 3,   4.396, 10.780, -3.144, 4,   0.060,  0.623, -0.047, 5,  11.707,-56.027, 19.926
705471.05297, 3,   4.271,  9.181, -1.472, 4,   0.109,  0.658, -0.056, 5,  11.673,-57.452, 19.205
705471.07284, 3,   4.975,  9.674, -2.802, 4,   0.093,  0.730, -0.086, 5,  11.688,-56.740, 19.203
705471.09271, 3,   4.049,  8.353, -1.342, 4,   0.116,  0.779, -0.124, 5,  10.939,-60.320, 17.760
705471.11254, 3,   3.733,  9.057, -1.027, 4,   0.137,  0.834, -0.170, 5,  10.356,-56.773, 19.926
705471.13241, 3,   3.788,  8.597, -0.854, 4,   0.166,  0.825, -0.195, 5,  11.656,-58.167, 19.206
705471.15228, 3,   4.611,  8.502, -1.486, 4,   0.191,  0.813, -0.223, 5,  10.324,-58.200, 19.930
705471.17215, 3,   5.393,  9.406, -3.628, 4,   0.235,  0.811, -0.258, 5,  11.688,-56.740, 19.203
705471.19201, 3,   3.508,  8.712, -1.711, 4,   0.269,  0.858, -0.295, 5,  11.691,-56.744, 21.382
705471.21188, 3,   3.180,  8.169, -0.912, 4,   0.259,  0.946, -0.341, 5,  11.024,-56.760, 20.656
705471.23175, 3,   3.529,  8.901, -0.919, 4,   0.253,  0.929, -0.368, 5,  11.061,-55.339, 22.832
705471.25158, 3,   3.570,  8.676, -1.584, 4,   0.305,  0.896, -0.382, 5,  12.361,-56.731, 22.108
705471.27145, 3,   4.793,  9.287, -2.484, 4,   0.365,  0.873, -0.409, 5,  13.049,-56.006, 24.289
705471.29132, 3,   5.204,  9.107, -3.209, 4,   0.408,  0.827, -0.401, 5,  12.379,-56.021, 23.560
705471.31118, 3,   2.955,  9.344, -2.864, 4,   0.430,  0.772, -0.433, 5,  14.368,-56.688, 24.292
705471.33108, 3,   1.811,  8.672, -1.098, 4,   0.415,  0.667, -0.509, 5,  14.418,-54.547, 24.287
705471.35095, 3,   4.108,  8.420, -1.926, 4,   0.385,  0.463, -0.560, 5,  14.384,-55.974, 24.290
705471.37081, 3,   1.852,  8.696, -2.244, 4,   0.382,  0.189, -0.561, 5,  13.753,-54.567, 26.466
705471.39065, 3,  -0.402,  9.775, -3.750, 4,   0.384, -0.052, -0.565, 5,  15.088,-54.533, 25.740
705471.41052, 3,  -3.089, 10.287, -2.541, 4,   0.371, -0.310, -0.541, 5,  16.423,-54.501, 25.742
705471.43038, 3,  -4.171, 11.392, -4.367, 4,   0.330, -0.599, -0.468, 5,  17.076,-55.202, 27.197
705471.45025, 3,  -2.886, 15.309, -4.089, 4,   0.243, -1.006, -0.388, 5,  18.393,-55.881, 26.477
705471.47012, 3,  -3.958,  9.696,  0.639, 4,   0.117, -1.306, -0.277, 5,  19.746,-55.138, 27.202
705471.48999, 3,  -3.046,  5.848, -0.476, 4,  -0.006, -1.328, -0.134, 5,  19.092,-54.434, 25.021
705471.50985, 3,   0.440,  9.062, -5.140, 4,  -0.020, -1.271, -0.045, 5,  20.430,-54.405, 26.477
705471.52969, 3,   3.147, 11.105, -6.757, 4,   0.039, -1.245,  0.032, 5,  19.725,-55.846, 25.026
705471.54956, 3,   5.456,  9.514, -2.532, 4,  -0.007, -0.770,  0.109, 5,  21.111,-53.673, 25.021
705471.56942, 3,   6.001,  9.531, -0.366, 4,  -0.118, -0.053,  0.181, 5,  20.410,-55.116, 25.026
705471.58929, 3,   3.058, 10.875, -1.204, 4,  -0.144,  0.571,  0.114, 5,  19.742,-55.132, 24.298
705471.60919, 3,   1.153,  7.942, -1.704, 4,  -0.045,  1.015, -0.002, 5,  19.759,-54.419, 25.023
705471.62905, 3,   1.419,  8.736, -3.522, 4,   0.027,  1.197, -0.018, 5,  18.439,-53.738, 25.018
705471.64889, 3,   0.601,  9.382, -4.743, 4,   0.071,  1.067,  0.009, 5,  19.109,-53.723, 25.743
705471.66876, 3,   0.761,  9.176, -4.731, 4,   0.053,  0.783, -0.008, 5,  18.410,-55.168, 26.476
705471.68862, 3,   1.704,  8.880, -3.324, 4,  -0.006,  0.404, -0.019, 5,  17.758,-54.471, 26.472
705471.70849, 3,   1.488,  9.602, -1.211, 4,  -0.078,  0.143, -0.002, 5,  17.107,-53.773, 26.468
705471.72836, 3,   1.589,  8.411, -0.873, 4,  -0.109,  0.026,  0.010, 5,  16.438,-53.789, 25.739
705471.74823, 3,   1.594,  9.552, -4.324, 4,  -0.100, -0.002,  0.002, 5,  16.393,-55.934, 27.925
705471.76806, 3,   1.345,  9.657, -3.685, 4,  -0.033,  0.013,  0.023, 5,  17.093,-54.491, 27.924
705471.78796, 3,   1.031,  8.581, -0.998, 4,  -0.037,  0.299,  0.053, 5,  17.075,-55.200, 26.472
705471.80780, 3,   2.362, 10.691, -3.979, 4,  -0.046,  0.524,  0.061, 5,  17.790,-53.044, 26.468
705471.82766, 3,   1.589,  9.418, -2.142, 4,  -0.005,  0.595,  0.039, 5,  17.760,-54.472, 27.197
705471.84753, 3,   2.685,  8.887, -3.321, 4,  -0.008,  0.687,  0.031, 5,  16.440,-53.790, 26.466
705471.86740, 3,   2.505,  8.995, -2.620, 4,   0.012,  0.687,  0.043, 5,  17.107,-53.773, 26.468
705471.88726, 3,   1.874, 10.026, -2.568, 4,   0.011,  0.720,  0.023, 5,  16.441,-53.792, 27.191
705471.90713, 3,   1.500, 10.313, -2.156, 4,   0.005,  0.709, -0.007, 5,  18.460,-53.029, 27.194
705471.92700, 3,   2.812,  9.930, -3.958, 4,   0.010,  0.541, -0.010, 5,  16.443,-53.796, 28.644
705471.94686, 3,   1.574,  9.160, -0.653, 4,  -0.015,  0.309, -0.018, 5,  15.125,-53.114, 28.641
705471.96673, 3,   1.488,  6.894, -0.041, 4,  -0.044,  0.152, -0.045, 5,  16.457,-53.076, 26.465
705471.98660, 3,   2.690,  9.471, -4.087, 4,  -0.063,  0.034, -0.059, 5,  15.106,-53.827, 27.917
705472.00647, 3,   0.893, 11.734, -2.127, 4,   0.002, -0.029, -0.029, 5,  17.792,-53.046, 27.193
705472.02633, 3,   2.048,  6.702, -1.689, 4,  -0.001,  0.157,  0.021, 5,  16.409,-55.219, 27.196
705472.04620, 3,   2.177,  3.845, -3.412, 4,  -0.052,  0.186,  0.035, 5,  15.790,-53.093, 27.190
705472.06604, 3,   2.639, 14.833, -5.815, 4,  -0.020,  0.227,  0.043, 5,  15.775,-53.812, 28.644
705472.08590, 3,   6.219,  8.332, -0.239, 4,   0.116,  0.521, -0.048, 5,  15.776,-53.815, 30.098
705472.10577, 3,   4.274,  9.480, -1.120, 4,  -0.093,  0.840, -0.122, 5,  15.123,-53.113, 27.916
705472.12564, 3,   4.900,  7.614, -2.943, 4,   0.039,  0.795, -0.084, 5,  14.488,-51.704, 28.636
705472.14550, 3,   3.649,  9.071, -1.555, 4,   0.125,  0.805, -0.190, 5,  15.775,-53.812, 28.644
705472.16537, 3,   3.915,  8.853, -4.360, 4,   0.231,  0.687, -0.269, 5,  13.789,-53.148, 29.366
705472.18527, 3,   2.694,  8.645, -2.216, 4,   0.258,  0.492, -0.301, 5,  15.143,-52.403, 29.366
705472.20510, 3,   2.082,  9.830, -1.680, 4,   0.244,  0.257, -0.333, 5,  16.493,-51.657, 29.366
705472.22497, 3,   0.888,  9.696, -2.505, 4,   0.221, -0.060, -0.365, 5,  16.510,-50.945, 29.364
705472.24484, 3,   1.342, 10.227, -3.618, 4,   0.185, -0.374, -0.387, 5,  17.159,-51.639, 28.641
705472.26470, 3,   1.165,  7.595,  0.519, 4,   0.132, -0.705, -0.370, 5,  18.512,-50.896, 29.369
705472.28457, 3,  -0.132, 11.029, -0.014, 4,   0.023, -0.908, -0.326, 5,  19.148,-52.306, 29.372
705472.30444, 3,   0.065, 10.727, -0.407, 4,   0.009, -1.022, -0.268, 5,  17.809,-52.333, 27.191
705472.32431, 3,   0.979,  8.315, -1.613, 4,   0.007, -1.024, -0.233, 5,  21.167,-51.543, 29.373
705472.34415, 3,   1.445,  9.385, -3.970, 4,   0.031, -0.947, -0.159, 5,  19.194,-50.160, 27.187
705472.36401, 3,   1.031, 10.153, -3.867, 4,   0.044, -0.729, -0.106, 5,  19.827,-51.573, 27.921
705472.38388, 3,  -0.256, 10.507, -2.797, 4,  -0.028, -0.438, -0.090, 5,  19.173,-50.868, 25.012
705472.40375, 3,  -0.105, 11.000, -0.840, 4,  -0.133, -0.295, -0.071, 5,  21.182,-50.829, 28.645
705472.42361, 3,  -1.137, 11.196, -1.579, 4,  -0.197, -0.319, -0.036, 5,  19.827,-51.570, 27.193
705472.44348, 3,   0.110,  7.485, -0.041, 4,  -0.184, -0.435, -0.001, 5,  19.839,-50.853, 25.014
705472.46332, 3,   2.347,  8.810, -4.948, 4,  -0.164, -0.589,  0.040, 5,  20.526,-50.125, 25.737
705472.48321, 3,   2.496, 11.210, -5.559, 4,  -0.107, -0.758,  0.058, 5,  21.176,-50.819, 25.015
705472.50308, 3,   2.943,  8.892, -2.965, 4,  -0.095, -0.780,  0.065, 5,  21.211,-49.397, 26.463
705472.52295, 3,   2.747,  7.628, -0.737, 4,  -0.177, -0.697,  0.050, 5,  21.194,-50.108, 25.737
705472.54282, 3,   1.740,  8.975, -2.084, 4,  -0.154, -0.367,  0.025, 5,  20.493,-51.550, 25.742
705472.56268, 3,   2.534, 11.143, -2.355, 4,  -0.072, -0.042,  0.003, 5,  22.527,-50.073, 24.289
705472.58255, 3,   4.410,  8.820, -3.659, 4,   0.002,  0.059,  0.010, 5,  21.178,-50.821, 25.740
705472.60239, 3,   3.675,  9.997, -5.762, 4,   0.028,  0.151,  0.012, 5,  20.525,-50.124, 25.012
705472.62225, 3,   2.867,  8.358, -1.754, 4,   0.060,  0.254, -0.037, 5,  21.193,-50.107, 25.012
705472.64212, 3,   0.897,  8.284, -2.020, 4,  -0.028,  0.207, -0.107, 5,  20.528,-50.127, 26.465
705472.66199, 3,  -0.156,  7.815, -3.561, 4,  -0.026,  0.138, -0.150, 5,  21.875,-49.377, 24.286
705472.68185, 3,  -2.728,  9.409, -4.800, 4,   0.006,  0.050, -0.152, 5,  21.860,-50.092, 25.014
705472.70172, 3,  -0.873,  8.925, -1.421, 4,  -0.016, -0.102, -0.124, 5,  21.860,-50.092, 25.014
705472.72159, 3,  -1.165, 10.193, -7.088, 4,  -0.077, -0.066, -0.063, 5,  21.860,-50.092, 25.014
705472.74145, 3,  -2.197,  8.279, -1.175, 4,  -0.037,  0.089, -0.054, 5,  21.860,-50.092, 25.014
705472.76132, 3,  -0.421,  9.543, -5.896, 4,  -0.033,  0.216, -0.037, 5,  21.848,-50.809, 27.194
705472.78119, 3,   1.443,  8.576, -1.682, 4,  -0.033,  0.228,  0.035, 5,  20.508,-50.836, 25.015
705472.80105, 3,   2.288, 10.684, -1.570, 4,  -0.028,  0.400,  0.086, 5,  21.909,-47.952, 25.009
705472.82092, 3,   1.661, 11.923, -0.924, 4,  -0.027,  0.642,  0.052, 5,  19.839,-50.851, 24.287
705472.84079, 3,   2.752, 10.064, -3.419, 4,   0.059,  0.843,  0.020, 5,  20.529,-50.128, 27.190
705472.86066, 3,   2.845, 11.163, -2.780, 4,   0.142,  0.838,  0.006, 5,  20.578,-47.992, 27.913
705472.88052, 3,   2.256,  9.866, -0.189, 4,   0.182,  0.746, -0.056, 5,  20.560,-48.700, 26.462
705472.90036, 3,   1.689,  6.554, -3.082, 4,   0.143,  0.530, -0.154, 5,  19.193,-50.159, 26.462
705472.92023, 3,   3.199, 12.601, -4.513, 4,   0.191,  0.273, -0.195, 5,  20.541,-49.413, 25.735
705472.94009, 3,   2.835, 12.864, -0.725, 4,   0.224,  0.171, -0.207, 5,  20.593,-47.273, 26.459
705472.95996, 3,   1.122,  9.351,  1.878, 4,   0.119,  0.061, -0.233, 5,  20.593,-47.273, 26.459
705472.97983, 3,   0.737,  9.373, -1.048, 4,   0.078, -0.088, -0.264, 5,  18.575,-48.041, 27.910
705472.99969, 3,   0.634,  8.674, -3.482, 4,   0.164, -0.146, -0.283, 5,  19.923,-47.289, 25.729
705473.01956, 3,  -0.096, 10.349, -4.800, 4,   0.233, -0.206, -0.280, 5,  20.592,-47.272, 25.731
705473.03943, 3,  -0.581,  9.978, -4.723, 4,   0.247, -0.225, -0.258, 5,  21.913,-47.957, 27.187
705473.05929, 3,  -0.931,  9.873, -3.955, 4,   0.191, -0.318, -0.239, 5,  20.595,-47.275, 27.184
705473.07916, 3,  -1.144,  8.791, -3.154, 4,   0.123, -0.538, -0.213, 5,  23.311,-45.067, 25.729
705473.09903, 3,  -0.146,  9.590, -4.683, 4,   0.092, -0.801, -0.169, 5,  23.265,-47.209, 27.188
705473.11890, 3,  -0.340,  9.543, -4.199, 4,   0.111, -1.003, -0.131, 5,  26.604,-47.131, 27.921
705473.13876, 3,  -0.912,  9.724, -4.003, 4,   0.104, -1.054, -0.090, 5,  25.885,-49.289, 27.924
705473.15860, 3,   0.735,  8.949, -2.422, 4,   0.083, -1.115, -0.037, 5,  27.254,-47.827, 27.196
705473.17847, 3,   0.002,  9.191, -2.099, 4,   0.067, -1.148,  0.020
705473.19833, 3,   0.952,  8.978, -4.269, 4,   0.104, -1.080,  0.056, 5,  25.316,-45.021, 26.460
705473.21820, 3,   1.766, 10.533, -1.330, 4,   0.139, -0.970,  0.097, 5,  24.646,-45.035, 25.731
705473.23807, 3,   4.496,  6.032,  0.323, 4,   0.130, -0.878,  0.152, 5,  24.596,-47.173, 25.012
705473.25793, 3,   6.023,  8.975, -7.473, 4,   0.057, -0.819,  0.161, 5,  24.629,-45.747, 25.732
705473.27780, 3,   5.690, 11.923, -6.626, 4,   0.159, -0.735,  0.062, 5,  25.980,-45.001, 25.008
705473.29767, 3,   5.104,  9.483, -3.460, 4,   0.138, -0.357,  0.014, 5,  24.660,-44.318, 24.278
705473.31750, 3,   5.106,  6.688, -3.745, 4,   0.020,  0.036, -0.032, 5,  25.966,-45.717, 26.462
705473.33740, 3,   3.979, 10.079, -4.427, 4,  -0.022,  0.300, -0.131, 5,  23.962,-45.766, 26.459
705473.35727, 3,   2.524, 11.457, -1.730, 4,  -0.027,  0.471, -0.252, 5,  25.981,-45.003, 25.732
705473.37714, 3,   1.491, 11.174, -1.429, 4,  -0.079,  0.630, -0.335, 5,  25.331,-44.307, 26.459
705473.39700, 3,  -0.845,  9.689,  0.837, 4,  -0.072,  0.731, -0.387, 5,  24.661,-44.321, 25.729
705473.41687, 3,  -2.340,  7.834, -0.529, 4,  -0.118,  0.742, -0.421, 5,  25.996,-44.289, 25.731
705473.43671, 3,  -3.630,  9.100,  0.278, 4,  -0.114,  0.536, -0.453, 5,  25.365,-42.880, 26.456
705473.45657, 3,  -3.053,  9.636, -2.570, 4,  -0.046,  0.164, -0.428, 5,  26.015,-43.578, 26.457
705473.47644, 3,   0.153,  9.571, -3.343, 4,   0.007, -0.302, -0.363, 5,  26.701,-42.851, 27.910
705473.49631, 3,   2.850, 10.093, -5.568, 4,   0.043, -0.652, -0.290, 5,  25.365,-42.880, 26.456
705473.51617, 3,   0.890, 10.169, -5.023, 4,   0.034, -0.725, -0.231, 5,  27.367,-42.831, 26.459
705473.53604, 3,  -1.003,  9.227, -3.333, 4,   0.029, -0.495, -0.235, 5,  26.680,-43.558, 25.006
705473.55591, 3,  -0.658,  8.136, -2.491, 4,  -0.001, -0.181, -0.282, 5,  28.047,-42.101, 25.729
705473.57574, 3,  -1.524, 11.435, -3.187, 4,   0.006, -0.015, -0.302, 5,  27.396,-41.400, 24.275
705473.59561, 3,  -2.405,  9.102, -1.208, 4,   0.040,  0.031, -0.280, 5,  27.379,-42.114, 24.277
705473.61551, 3,  -0.132, 10.203, -2.551, 4,   0.033, -0.020, -0.238, 5,  26.057,-41.429, 22.820
705473.63537, 3,  -1.108,  8.806, -2.424, 4,   0.028, -0.222, -0.202, 5,  28.029,-42.809, 23.553
705473.65524, 3,  -2.369, 10.007, -3.017, 4,   0.020, -0.422, -0.192, 5,  28.711,-42.078, 22.826
705473.67511, 3,  -1.718, 10.143, -1.675, 4,   0.001, -0.659, -0.162, 5,  28.728,-41.360, 22.096
705473.69498, 3,  -2.469, 10.241, -0.632, 4,  -0.049, -0.911, -0.109, 5,  30.064,-41.333, 23.552
705473.71484, 3,  -0.187,  7.990, -2.613, 4,  -0.072, -1.032, -0.065, 5,  28.058,-41.376, 21.371
705473.73468, 3,   1.685, 10.004, -3.790, 4,  -0.040, -1.063, -0.020, 5,  30.077,-40.610, 19.919
705473.75455, 3,   1.646, 10.619, -3.505, 4,  -0.010, -0.845,  0.029, 5,  30.060,-41.325, 20.648
705473.77441, 3,  -0.074, 10.615, -0.888, 4,  -0.045, -0.479,  0.024, 5,  30.696,-42.737, 20.653
705473.79428, 3,  -0.354, 10.114, -0.213, 4,  -0.079, -0.225, -0.004, 5,  28.674,-43.495, 19.199
705473.81415, 3,   0.029,  8.533, -2.711, 4,  -0.052, -0.251, -0.014, 5,  29.344,-43.483, 20.653
705473.83401, 3,  -1.390, 10.526, -4.530, 4,   0.013, -0.418, -0.003, 5,  29.376,-42.055, 19.920
705473.85388, 3,  -0.696,  8.349, -6.066, 4,   0.056, -0.518, -0.015, 5,  30.727,-41.307, 19.196
705473.87372, 3,   0.519,  8.806, -5.353, 4,   0.009, -0.589, -0.019, 5,  28.723,-41.354, 19.193
705473.89358, 3,  -0.744,  9.339, -2.199, 4,  -0.070, -0.594, -0.015, 5,  31.410,-40.575, 18.468
705473.91348, 3,  -1.859,  8.932, -1.328, 4,  -0.115, -0.547,  0.021, 5,  30.025,-42.747, 18.472
705473.93335, 3,  -0.747,  9.358, -3.223, 4,  -0.074, -0.645,  0.042, 5,  30.006,-43.460, 17.749
705473.95322, 3,  -1.290,  9.801, -5.094, 4,   0.032, -0.815,  0.020, 5,  30.025,-42.747, 18.472
705473.97308, 3,  -0.869,  8.315, -3.943, 4,   0.089, -0.851,  0.015, 5,  30.707,-42.018, 17.744
705473.99292, 3,  -0.869,  9.299, -3.115, 4,   0.068, -0.749,  0.057, 5,  30.690,-42.726, 16.295
705474.01279, 3,   0.280, 10.012, -1.015, 4,   0.017, -0.658,  0.096, 5,  30.052,-41.313, 15.564
705474.03265, 3,   1.924,  9.990, -0.330, 4,  -0.018, -0.614,  0.104, 5,  30.721,-41.298, 15.564
705474.05252, 3,   0.816, 10.009, -0.476, 4,  -0.031, -0.572,  0.108, 5,  32.722,-41.248, 14.841
705474.07239, 3,   0.292, 11.825, -1.232, 4,   0.004, -0.514,  0.074, 5,  30.020,-42.738, 14.841
705474.09225, 3,   1.457,  9.835, -0.400, 4,   0.023, -0.520,  0.043, 5,  30.704,-42.010, 14.838
705474.11212, 3,   0.955,  9.028, -0.909, 4,  -0.010, -0.528,  0.064, 5,  31.357,-42.708, 15.570
705474.13196, 3,  -0.950, 11.237, -2.577, 4,  -0.011, -0.501,  0.059, 5,  30.702,-42.009, 14.113
705474.15182, 3,  -1.261, 10.667, -1.866, 4,   0.009, -0.504,  0.045, 5,  30.670,-43.436, 14.117
705474.17169, 3,  -2.063,  9.433, -0.256, 4,  -0.045, -0.550,  0.045, 5,  30.701,-42.007, 13.387
705474.19159, 3,  -3.142, 10.064, -0.636, 4,  -0.089, -0.603,  0.082, 5,  32.054,-41.261, 14.114
705474.21146, 3,  -1.685,  8.547, -1.766, 4,  -0.041, -0.676,  0.126, 5,  33.356,-42.653, 12.668
705474.23132, 3,  -0.160,  9.952, -4.049, 4,   0.035, -0.674,  0.158, 5,  29.347,-42.744, 10.483
705474.25116, 3,  -0.505,  9.504, -4.223, 4,   0.109, -0.490,  0.175, 5,  29.347,-42.744, 10.483
705474.27103, 3,  -0.273, 10.227, -3.398, 4,   0.122, -0.235,  0.179, 5,  29.967,-44.872, 11.942
705474.29089, 3,   0.541,  6.973, -1.878, 4,   0.079, -0.123,  0.196, 5,  29.330,-43.460, 11.209
705474.31076, 3,   0.493,  3.989, -4.391, 4,   0.042, -0.097,  0.213, 5,  29.314,-44.173, 11.211
705474.33063, 3,  -0.601, 11.732, -6.135, 4,   0.053, -0.090,  0.172, 5,  29.347,-42.744, 10.483
705474.35049, 3,   0.148, 12.936, -0.759, 4,   0.027, -0.038,  0.101, 5,  27.997,-43.498, 13.388
705474.37036, 3,   2.266, 11.368,  3.147, 4,  -0.136, -0.047,  0.131, 5,  27.992,-43.489,  9.756
705474.39020, 3,   2.680, 10.528,  2.594, 4,  -0.198, -0.141,  0.156, 5,  28.662,-43.474, 10.483
705474.41006, 3,   1.481,  9.768, -0.907, 4,  -0.079, -0.204,  0.119, 5,  28.644,-44.185,  9.758
705474.42993, 3,   1.730,  9.660, -5.061, 4,   0.046, -0.335,  0.009, 5,  29.347,-42.744, 10.483
705474.44980, 3,   0.115, 10.638, -3.750, 4,   0.078, -0.564, -0.043, 5,  28.630,-44.902, 11.211
705474.46969, 3,  -0.565,  9.337, -0.811, 4,  -0.065, -0.709, -0.037, 5,  27.991,-43.488,  9.030
705474.48956, 3,  -0.988, 10.265,  0.096, 4,  -0.199, -0.766,  0.006, 5,  29.991,-43.433,  6.854
705474.50943, 3,  -2.400, 10.370, -0.026, 4,  -0.195, -0.922, -0.003, 5,  28.641,-44.182,  8.305
705474.52927, 3,  -2.675,  9.117, -1.886, 4,  -0.123, -1.099, -0.034, 5,  27.971,-44.194,  6.853
705474.54913, 3,  -3.972,  8.935, -3.580, 4,  -0.039, -1.077, -0.004, 5,  29.974,-44.145,  6.856
705474.56900, 3,  -4.616,  7.411, -2.898, 4,   0.020, -0.861,  0.056, 5,  28.638,-44.176,  6.126
705474.58826, 3,  -4.097,  8.978, -3.362, 4,   0.031, -0.639,  0.119, 5,  29.340,-42.734,  6.125
705474.60873, 3,  -2.232, 10.347, -3.278, 4,   0.067, -0.503,  0.192, 5,  29.306,-44.160,  6.128
705474.62860, 3,   0.792,  9.961, -1.618, 4,   0.105, -0.421,  0.251, 5,  29.340,-42.732,  5.399
705474.64847, 3,   1.199, 10.789, -2.333, 4,   0.128, -0.292,  0.274, 5,  28.639,-44.177,  6.853
705474.66833, 3,  -0.584,  9.334, -1.754, 4,   0.202, -0.135,  0.245, 5,  29.308,-44.162,  6.854
705474.68817, 3,  -1.096,  9.203, -5.235, 4,   0.264, -0.009,  0.197, 5,  29.323,-43.448,  6.126
705474.70804, 3,  -1.586,  9.543, -4.561, 4,   0.292,  0.074,  0.150, 5,  27.307,-44.217,  9.030
705474.72790, 3,  -1.960,  8.119, -2.386, 4,   0.250,  0.188,  0.142, 5,  28.625,-44.894,  7.581
705474.74777, 3,  -1.137,  9.411, -1.878, 4,   0.158,  0.326,  0.202, 5,  26.672,-42.802,  7.573
705474.76767, 3,  -0.452, 10.904, -1.424, 4,   0.133,  0.410,  0.221, 5,  26.657,-43.520,  9.027
705474.78693, 3,  -0.172,  9.251, -0.486, 4,   0.119,  0.393,  0.203, 5,  28.011,-42.776, 10.481
705474.80740, 3,  -1.172,  8.966, -2.402, 4,   0.112,  0.366,  0.188, 5,  27.994,-43.491, 10.483
705474.82724, 3,  -1.302,  9.885, -4.211, 4,   0.165,  0.417,  0.195, 5,  27.975,-44.202,  9.758
705474.84711, 3,  -0.072, 10.593, -2.426, 4,   0.166,  0.480,  0.175, 5,  25.308,-44.269, 10.480
705474.86697, 3,   1.481, 10.100,  1.201, 4,   0.086,  0.544,  0.173, 5,  25.960,-44.968, 11.206
705474.88684, 3,  -0.086,  6.446,  0.773, 4,   0.032,  0.698,  0.174, 5,  27.296,-44.937, 11.937
705474.90671, 3,  -1.232, 10.981, -4.625, 4,   0.100,  0.841,  0.115, 5,  25.961,-44.969, 11.934
705474.92657, 3,  -0.811,  8.899, -8.571, 4,   0.314,  0.961,  0.050, 5,  26.646,-44.241, 12.660
705474.94644, 3,   0.424, 11.378, -6.686, 4,   0.287,  1.081,  0.063, 5,  25.311,-44.276, 13.385
705474.96628, 3,  -1.711, 10.382, -0.816, 4,   0.119,  1.207,  0.061, 5,  24.644,-44.293, 14.110
705474.98614, 3,  -2.493, 10.500,  1.931, 4,  -0.101,  1.262,  0.025, 5,  24.660,-43.579, 13.382
705475.00601, 3,  -1.850,  8.588,  0.610, 4,  -0.154,  1.086,  0.009, 5,  25.311,-44.276, 13.385
705475.02588, 3,  -1.225, 10.014, -3.436, 4,  -0.050,  0.814,  0.002, 5,  25.313,-44.278, 14.111
705475.04578, 3,  -0.636,  9.631, -3.982, 4,   0.086,  0.656,  0.021, 5,  24.643,-44.290, 12.657
705475.06564, 3,  -0.560, 10.179, -3.005, 4,   0.081,  0.595,  0.040, 5,  24.646,-44.295, 14.835
705475.08551, 3,  -1.161, 10.323, -2.228, 4,   0.004,  0.593,  0.030, 5,  23.260,-46.466, 14.113
705475.10535, 3,  -0.476, 10.081, -1.697, 4,  -0.040,  0.576,  0.019, 5,  25.330,-43.565, 14.110
705475.12521, 3,  -0.407,  8.650, -1.268, 4,  -0.049,  0.504,  0.026, 5,  23.296,-45.041, 14.835
705475.14508, 3,   0.179, 10.083, -2.120, 4,  -0.049,  0.436,  0.019, 5,  22.626,-45.056, 14.108
705475.16495, 3,   0.541, 10.500, -3.233, 4,  -0.010,  0.414,  0.025, 5,  23.296,-45.042, 15.562
705475.18481, 3,   0.436,  8.925, -1.352, 4,   0.015,  0.465,  0.020, 5,  23.994,-43.599, 14.832
705475.20468, 3,   1.027, 10.361, -3.084, 4,   0.000,  0.509, -0.015, 5,  23.929,-46.454, 15.565
705475.22452, 3,   0.809,  9.358, -3.036, 4,   0.020,  0.537, -0.037, 5,  22.627,-45.058, 14.833
705475.24438, 3,   1.371,  9.531, -3.029, 4,   0.009,  0.560, -0.048, 5,  23.331,-43.619, 17.012
705475.26425, 3,   2.350,  9.279, -3.403, 4,  -0.010,  0.559, -0.079, 5,  23.299,-45.049, 17.741
705475.28412, 3,   2.158,  8.423, -1.563, 4,  -0.028,  0.541, -0.102, 5,  23.311,-44.328, 15.561
705475.30398, 3,   1.309, 10.856, -2.902, 4,  -0.043,  0.525, -0.147, 5,  25.304,-45.003, 18.469
705475.32385, 3,   0.203,  9.452, -1.799, 4,  -0.029,  0.421, -0.197, 5,  24.649,-44.299, 17.015
705475.34375, 3,   0.311,  9.878, -2.718, 4,  -0.029,  0.199, -0.245, 5,  23.981,-44.319, 17.740
705475.36362, 3,   1.450, 10.007, -3.245, 4,  -0.010, -0.098, -0.274, 5,  25.284,-45.709, 16.293
705475.38345, 3,   1.496,  8.339, -3.156, 4,   0.006, -0.375, -0.273, 5,  24.599,-46.439, 16.293
705475.40332, 3,   0.727,  7.942, -3.297, 4,  -0.005, -0.504, -0.264, 5,  25.317,-44.287, 17.743
705475.42319, 3,   0.555,  9.681, -3.790, 4,   0.001, -0.578, -0.277, 5,  26.001,-43.555, 17.015
705475.44305, 3,  -0.469, 10.792, -2.634, 4,  -0.002, -0.705, -0.266, 5,  26.634,-44.960, 14.839
705475.46292, 3,  -0.971,  9.038, -1.909, 4,  -0.031, -0.791, -0.247, 5,  26.633,-44.958, 14.114
705475.48279, 3,  -3.829,  8.308, -3.723, 4,  -0.038, -0.913, -0.263, 5,  26.683,-42.821, 15.562
705475.50262, 3,  -3.206, 11.048, -4.544, 4,  -0.017, -1.025, -0.269, 5,  27.333,-43.518, 14.838
705475.52249, 3,  -3.434,  9.851, -1.455, 4,  -0.013, -1.234, -0.196, 5,  28.014,-42.784, 13.387
705475.54236, 3,  -3.257,  9.078, -2.039, 4,  -0.072, -1.346, -0.089, 5,  27.980,-44.211, 13.390
705475.56222, 3,  -1.926,  9.973, -2.673, 4,  -0.057, -1.355,  0.010, 5,  29.300,-44.888, 11.940
705475.58209, 3,  -0.723,  8.966, -3.797, 4,   0.010, -1.413,  0.075, 5,  28.014,-42.783, 12.660
705475.60196, 3,   2.431, 10.653, -4.111, 4,   0.040, -1.534,  0.131, 5,  27.995,-43.494, 11.935
705475.62186, 3,   3.534,  8.731, -4.063, 4,   0.061, -1.574,  0.169, 5,  27.296,-44.937, 11.937
705475.64169, 3,   2.733,  9.021, -3.785, 4,   0.046, -1.438,  0.158, 5,  27.310,-44.220, 10.483
705475.66156, 3,   2.043, 10.000, -2.529, 4,   0.045, -1.204,  0.114, 5,  26.639,-44.231,  8.302
705475.68143, 3,   0.993,  9.112, -2.027, 4,   0.024, -1.021,  0.095, 5,  28.627,-44.897,  9.033
705475.70129, 3,   1.005, 10.557, -2.445, 4,   0.007, -0.955,  0.068, 5,  27.322,-43.503,  8.302
705475.72116, 3,   0.495,  9.578, -2.139, 4,   0.015, -0.940,  0.050, 5,  28.641,-44.180,  7.579
705475.74103, 3,   0.737, 10.138, -2.295, 4,   0.002, -0.868,  0.047, 5,  27.303,-44.209,  6.125
705475.76089, 3,   0.491,  9.425, -1.149, 4,  -0.022, -0.738,  0.056, 5,  28.609,-45.607,  7.582
705475.78073, 3,   0.574, 10.225, -1.146, 4,  -0.065, -0.647,  0.048, 5,  27.957,-44.911,  7.581
705475.80060, 3,   0.392, 10.074, -1.338, 4,  -0.063, -0.624,  0.040, 5,  28.674,-42.754,  7.576
705475.82046, 3,  -0.995,  9.241, -1.606, 4,  -0.045, -0.588,  0.028, 5,  27.954,-44.905,  5.402
705475.84033, 3,  -3.261,  9.971, -2.383, 4,  -0.027, -0.471,  0.006, 5,  27.937,-45.618,  5.403
705475.86020, 3,  -3.369,  9.854, -2.371, 4,  -0.005, -0.350,  0.004, 5,  27.299,-44.205,  3.946
705475.88006, 3,  -2.563, 10.705, -2.493, 4,  -0.005, -0.329,  0.045, 5,  27.301,-44.206,  4.672
705475.89993, 3,  -3.269,  7.834, -1.682, 4,  -0.005, -0.349,  0.097, 5,  28.603,-45.596,  3.224
705475.91980, 3,  -3.714,  9.464, -2.893, 4,   0.023, -0.412,  0.156, 5,  28.619,-44.884,  3.223
705475.93967, 3,  -2.352, 10.753, -2.539, 4,   0.090, -0.538,  0.218, 5,  25.249,-46.393,  3.221
705475.95953, 3,   0.158,  9.744, -1.778, 4,   0.100, -0.670,  0.272, 5,  27.271,-45.636,  6.128
705475.97940, 3,   1.472, 10.363, -2.283, 4,   0.071, -0.759,  0.282, 5,  26.617,-44.933,  3.220
705475.99927, 3,   0.586,  9.212, -1.926, 4,   0.100, -0.718,  0.280, 5,  26.601,-45.647,  3.947
705476.01913, 3,   0.873,  8.652, -3.223, 4,   0.142, -0.510,  0.267, 5,  23.288,-44.290, -0.418
705476.03900, 3,   0.270,  9.440, -3.963, 4,   0.180, -0.231,  0.241, 5,  25.266,-45.679,  3.220
705476.05884, 3,  -0.952,  9.559, -2.520, 4,   0.194,  0.059,  0.207, 5,  25.282,-44.966,  3.218
705476.07870, 3,  -0.371,  9.918, -3.589, 4,   0.160,  0.333,  0.181, 5,  25.964,-44.237,  3.943
705476.09857, 3,   1.117, 10.064, -3.881, 4,   0.145,  0.595,  0.177, 5,  25.916,-46.378,  3.947
705476.11844, 3,   0.105,  9.344, -2.706, 4,   0.134,  0.822,  0.167, 5,  25.932,-45.663,  3.946
705476.13830, 3,  -1.917,  9.569, -2.335, 4,   0.101,  0.957,  0.108, 5,  25.951,-44.952,  4.671
705476.15817, 3,  -1.165, 10.215, -3.036, 4,   0.099,  0.915,  0.069, 5,  24.551,-47.841,  6.129
705476.17801, 3,  -0.768,  9.444, -2.847, 4,   0.082,  0.728,  0.054, 5,  24.585,-46.416,  6.851
705476.19791, 3,  -1.115,  8.059, -2.510, 4,   0.044,  0.527,  0.056, 5,  25.887,-47.807,  5.405
705476.21777, 3,  -1.275,  9.339, -3.001, 4,   0.018,  0.298,  0.040, 5,  25.887,-47.807,  5.405
705476.23764, 3,  -1.857, 10.012, -2.285, 4,   0.012,  0.085,  0.037, 5,  25.887,-47.807,  5.405
705476.25751, 3,  -0.976,  8.710, -2.151, 4,   0.004, -0.060,  0.040, 5,  25.966,-44.238,  4.669
705476.27737, 3,  -2.082,  9.476, -3.647, 4,   0.016, -0.107,  0.051, 5,  25.252,-46.399,  6.126
705476.29724, 3,  -3.013, 10.655, -4.116, 4,   0.079, -0.063,  0.067, 5,  27.190,-49.205,  6.863
705476.31708, 3,  -2.673,  7.985, -3.812, 4,   0.093,  0.020,  0.086, 5,  27.843,-49.904,  7.593
705476.33694, 3,  -2.699,  8.607, -3.860, 4,   0.066,  0.105,  0.123, 5,  27.875,-48.479,  8.316
705476.35681, 3,  -2.627, 10.954, -3.199, 4,   0.068,  0.239,  0.174
705476.37668, 3,  -1.921, 10.244, -1.053, 4,   0.038,  0.394,  0.212, 5,  24.567,-47.124,  4.675
705476.39654, 3,  -0.526, 11.397, -1.223, 4,   0.007,  0.507,  0.245, 5,  24.583,-46.414,  6.125
705476.41641, 3,   0.385,  8.980, -1.907, 4,   0.054,  0.564,  0.263, 5,  23.251,-46.452,  8.302
705476.43628, 3,   0.203,  9.648, -3.836, 4,   0.127,  0.642,  0.245, 5,  23.268,-45.737,  7.574
705476.45615, 3,   0.132,  8.968, -3.910, 4,   0.178,  0.747,  0.221, 5,  23.251,-46.452,  8.302
705476.47601, 3,   0.725,  9.179, -3.728, 4,   0.150,  0.792,  0.206, 5,  21.902,-47.200,  9.029
705476.49588, 3,   1.546,  9.203, -1.706, 4,   0.076,  0.751,  0.181, 5,  22.537,-48.611,  9.760
705476.51575, 3,   1.948,  9.598, -0.529, 4,   0.013,  0.696,  0.161, 5,  20.554,-47.951, 11.206
705476.53561, 3,   0.680, 10.950, -1.000, 4,  -0.011,  0.647,  0.104, 5,  21.904,-47.202,  9.755
705476.55548, 3,   0.498,  9.160, -1.572, 4,   0.005,  0.576,  0.061, 5,  21.919,-46.489,  9.752
705476.57535, 3,   0.567,  9.878, -2.613, 4,   0.020,  0.515,  0.032, 5,  22.572,-47.186, 10.483
705476.59521, 3,  -0.560,  8.873, -3.467, 4,   0.035,  0.498,  0.012, 5,  22.556,-47.900, 10.484
705476.61505, 3,  -0.529, 10.495, -3.963, 4,   0.018,  0.522, -0.003, 5,  22.588,-46.475, 11.205
705476.63492, 3,  -0.459,  9.882, -2.950, 4,  -0.004,  0.525, -0.009, 5,  22.571,-47.185,  9.756
705476.65478, 3,  -0.132, 10.064, -2.264, 4,  -0.046,  0.543, -0.014, 5,  21.889,-47.917, 10.483
705476.67465, 3,   0.498, 10.174, -2.431, 4,  -0.049,  0.603, -0.029, 5,  20.538,-48.665, 11.935
705476.69452, 3,   1.103, 11.124, -2.383, 4,  -0.024,  0.675, -0.041, 5,  21.872,-48.631, 11.209
705476.71438, 3,  -0.117,  6.386, -2.725, 4,   0.002,  0.797, -0.058, 5,  22.574,-47.189, 11.935
705476.73425, 3,  -1.180, 10.229, -5.472, 4,   0.046,  0.916, -0.090, 5,  22.591,-46.480, 12.659
705476.75409, 3,  -0.864,  9.224, -3.924, 4,   0.106,  0.965, -0.103, 5,  21.223,-47.935, 11.934
705476.77399, 3,  -0.617,  9.959, -1.637, 4,   0.050,  0.929, -0.104, 5,  21.242,-47.224, 12.659
705476.79385, 3,   0.120, 10.512, -1.785, 4,  -0.024,  0.846, -0.126, 5,  21.924,-46.497, 12.657
705476.81372, 3,  -0.531,  7.858, -1.706, 4,  -0.023,  0.695, -0.140, 5,  21.909,-47.209, 12.660
705476.83359, 3,  -0.086, 10.624, -3.257, 4,   0.023,  0.530, -0.135, 5,  22.610,-45.770, 14.835
705476.85345, 3,   0.146,  9.569, -3.331, 4,   0.072,  0.381, -0.131, 5,  22.577,-47.195, 14.114
705476.87332, 3,  -0.665,  8.952, -2.974, 4,   0.049,  0.255, -0.134, 5,  21.927,-46.501, 14.835
705476.89316, 3,   0.239,  9.727, -3.958, 4,   0.037,  0.122, -0.157, 5,  22.545,-48.624, 14.842
705476.91302, 3,   0.692,  9.887, -3.101, 4,   0.034,  0.009, -0.156, 5,  21.927,-46.501, 14.835
705476.93289, 3,   2.051, 10.091, -2.417, 4,   0.005, -0.062, -0.137, 5,  21.944,-45.787, 14.833
705476.95276, 3,   1.627,  8.004, -1.354, 4,  -0.010, -0.102, -0.133, 5,  22.609,-45.769, 14.110
705476.97262, 3,   1.950,  6.753, -2.682, 4,  -0.006, -0.109, -0.153, 5,  22.643,-44.344, 14.832
705476.99249, 3,  -0.089, 11.976, -4.874, 4,   0.034, -0.123, -0.180, 5,  23.279,-45.755, 15.564
705477.01236, 3,   0.136, 11.828, -2.914, 4,   0.064, -0.181, -0.184, 5,  22.578,-47.198, 15.567
705477.03219, 3,  -1.074,  8.174, -0.445, 4,  -0.034, -0.250, -0.198, 5,  22.592,-46.483, 14.111
705477.05209, 3,  -0.424,  9.878, -1.859, 4,  -0.092, -0.284, -0.222, 5,  23.975,-44.308, 13.382
705477.07196, 3,  -0.610,  9.600, -1.565, 4,  -0.029, -0.302, -0.198, 5,  23.280,-45.757, 16.290
705477.09183, 3,  -1.381,  7.037, -3.759, 4,   0.004, -0.275, -0.156, 5,  24.596,-46.434, 14.114
705477.11169, 3,  -0.491, 11.440, -6.032, 4,   0.048, -0.240, -0.139, 5,  25.282,-45.708, 15.567
705477.13156, 3,  -0.500,  9.626, -2.321, 4,   0.066, -0.168, -0.120, 5,  25.917,-47.118, 15.572
705477.15143, 3,   0.407, 10.504, -1.196, 4,  -0.045, -0.031, -0.087, 5,  24.648,-44.298, 16.289
705477.17126, 3,   0.541,  9.564, -1.598, 4,  -0.076,  0.036, -0.076, 5,  23.993,-43.597, 14.107
705477.19113, 3,   1.797, 10.691, -3.570, 4,  -0.029,  0.024, -0.082, 5,  23.259,-46.465, 13.387
705477.21100, 3,   0.948,  9.645, -3.601, 4,   0.020,  0.017, -0.092, 5,  25.298,-44.992, 14.113
705477.23086, 3,   1.831,  8.873, -3.132, 4,   0.002,  0.009, -0.119, 5,  25.981,-44.263, 14.836
705477.25073, 3,   0.936, 10.289, -2.438, 4,  -0.050, -0.065, -0.157, 5,  25.299,-44.994, 14.838
705477.27060, 3,   0.428,  9.516, -2.395, 4,  -0.061, -0.202, -0.178, 5,  23.961,-45.024, 14.110
705477.29047, 3,  -0.201,  7.396, -3.151, 4,  -0.063, -0.375, -0.194, 5,  25.330,-43.565, 14.110
705477.31030, 3,  -0.443, 10.832, -3.855, 4,  -0.048, -0.576, -0.198, 5,  23.291,-45.033, 11.931
705477.33017, 3,  -0.574,  9.567, -3.790, 4,  -0.023, -0.764, -0.197, 5,  25.995,-43.546, 12.657
705477.35007, 3,  -0.613, 10.851, -3.015, 4,  -0.083, -0.872, -0.179, 5,  27.298,-44.940, 12.663
705477.36993, 3,  -0.318,  9.188, -2.221, 4,  -0.096, -0.941, -0.135, 5,  27.328,-43.510, 11.934
705477.38980, 3,  -1.055,  9.543, -1.689, 4,  -0.128, -1.034, -0.097, 5,  25.943,-45.680, 11.208
705477.40967, 3,  -0.330, 10.461, -2.259, 4,  -0.106, -1.069, -0.075, 5,  27.945,-45.630, 10.487
705477.42953, 3,  -0.031, 11.198, -1.950, 4,  -0.083, -1.127, -0.062, 5,  25.978,-44.258, 12.659
705477.44937, 3,  -0.268,  7.222, -0.333, 4,  -0.062, -1.094, -0.023, 5,  26.624,-44.945,  8.304
705477.46924, 3,  -1.517,  7.731, -3.508, 4,  -0.034, -1.038, -0.001, 5,  29.309,-44.167,  8.307
705477.48910, 3,  -1.139, 13.134, -7.463, 4,   0.078, -0.995,  0.019, 5,  28.642,-44.183,  9.032
705477.50897, 3,  -0.340, 10.026, -3.218, 4,   0.112, -0.938,  0.058, 5,  25.940,-45.676,  9.030
705477.52884, 3,   0.727,  9.308, -0.208, 4,  -0.049, -0.852,  0.113, 5,  28.639,-44.177,  6.853
705477.54870, 3,   0.574,  8.392,  0.144, 4,  -0.131, -0.777,  0.148, 5,  28.622,-44.890,  6.128
705477.56854, 3,   0.754, 10.155, -1.704, 4,  -0.072, -0.710,  0.144, 5,  26.620,-44.937,  5.399
705477.58841, 3,   0.916,  9.660, -3.297, 4,   0.022, -0.643,  0.100, 5,  27.303,-44.208,  5.399
705477.60828, 3,   0.474,  9.818, -3.281, 4,   0.066, -0.544,  0.075, 5,  28.592,-46.321,  7.584
705477.62817, 3,  -0.091, 10.351, -2.591, 4,   0.056, -0.379,  0.069, 5,  27.271,-45.634,  5.402
705477.64804, 3,   0.627,  9.088, -1.634, 4,   0.017, -0.283,  0.068, 5,  27.254,-46.349,  5.403
705477.66791, 3,  -1.177, 10.347, -0.567, 4,  -0.031, -0.347,  0.061, 5,  27.939,-45.621,  6.856
705477.68777, 3,  -1.632,  9.488, -1.426, 4,  -0.029, -0.471,  0.047, 5,  26.604,-45.650,  5.400
705477.70761, 3,  -2.237,  8.614, -1.531, 4,   0.005, -0.639,  0.059, 5,  27.284,-44.917,  3.221
705477.72748, 3,  -3.986, 10.169, -2.965, 4,   0.046, -0.832,  0.069, 5,  27.299,-44.203,  3.220
705477.74734, 3,  -3.343, 10.543, -3.343, 4,   0.081, -0.992,  0.115, 5,  26.617,-44.934,  3.946
705477.76721, 3,  -2.077,  9.511, -1.223, 4,   0.070, -1.071,  0.202, 5,  26.601,-45.647,  3.947
705477.78708, 3,  -0.936,  9.866, -1.362, 4,   0.050, -1.067,  0.274, 5,  26.581,-46.355,  1.770
705477.80694, 3,  -1.620,  7.171, -1.529, 4,   0.089, -0.931,  0.322, 5,  25.916,-46.378,  3.947
705477.82681, 3,  -2.486,  8.444, -2.962, 4,   0.169, -0.700,  0.343, 5,  25.926,-45.653, -0.412
705477.84665, 3,  -1.369, 10.339, -3.465, 4,   0.249, -0.418,  0.351, 5,  25.214,-47.815,  1.773
705477.86651, 3,  -0.237, 10.356, -2.369, 4,   0.266, -0.044,  0.395, 5,  25.233,-47.107,  3.951
705477.88638, 3,   0.632, 10.225, -2.091, 4,   0.222,  0.403,  0.423, 5,  24.593,-45.688,  1.039
705477.90628, 3,  -0.189,  9.413, -1.553, 4,   0.204,  0.847,  0.414, 5,  23.212,-47.865,  2.496
705477.92615, 3,  -0.725,  9.988, -1.426, 4,   0.198,  1.210,  0.381, 5,  24.548,-47.835,  3.224
705477.94601, 3,  -0.438,  9.698, -1.213, 4,   0.178,  1.427,  0.326, 5,  25.221,-47.827,  6.857
705477.96588, 3,   1.484,  9.638, -2.314, 4,   0.150,  1.461,  0.284, 5,  22.565,-47.174,  5.399
705477.98572, 3,   1.225,  9.858, -2.984, 4,   0.127,  1.372,  0.235, 5,  22.597,-45.747,  5.394
705478.00558, 3,   0.940, 10.169, -2.309, 4,   0.104,  1.326,  0.185, 5,  21.233,-47.209,  6.848
705478.02545, 3,  -0.153,  8.997, -1.000, 4,   0.054,  1.276,  0.137, 5,  21.217,-47.926,  7.576
705478.04532, 3,  -1.512,  9.485, -1.254, 4,  -0.002,  1.137,  0.098, 5,  19.844,-49.382,  6.125
705478.06518, 3,  -1.996, 10.301, -1.582, 4,  -0.008,  0.909,  0.056, 5,  19.257,-45.824,  3.209
705478.08505, 3,  -1.577,  9.253, -2.029, 4,  -0.006,  0.674,  0.037, 5,  21.214,-47.922,  6.123
705478.10492, 3,  -0.660, 10.959, -3.020, 4,   0.010,  0.536,  0.062, 5,  20.546,-47.937,  5.397
705478.12475, 3,  -0.845,  9.480, -2.156, 4,   0.029,  0.531,  0.095, 5,  18.541,-47.984,  4.668
705478.14462, 3,  -1.196,  9.645, -2.046, 4,   0.022,  0.625,  0.102, 5,  21.898,-47.192,  6.123
705478.16449, 3,   0.543, 10.629, -2.256, 4,   0.026,  0.756,  0.096, 5,  19.231,-47.261,  7.571
705478.18436, 3,   1.007, 10.490, -1.716, 4,   0.033,  0.812,  0.080, 5,  19.231,-47.261,  7.571
705478.20425, 3,   1.486,  6.463, -1.823, 4,   0.027,  0.909,  0.072, 5,  20.549,-47.943,  7.576
705478.22412, 3,   1.711, 10.761, -4.585, 4,   0.046,  0.995,  0.052, 5,  19.914,-46.536,  9.023
705478.24396, 3,   1.790,  9.964, -2.283, 4,   0.083,  1.089,  0.024, 5,  19.199,-48.691,  9.027
705478.26382, 3,   0.196,  9.768, -0.560, 4,   0.012,  1.100, -0.030, 5,  19.882,-47.963,  9.027
705478.28369, 3,   0.175, 11.308, -1.060, 4,  -0.046,  1.050, -0.076, 5,  19.901,-47.250,  9.752
705478.30356, 3,   0.036,  9.657,  0.237, 4,  -0.015,  0.909, -0.097, 5,  19.183,-49.406,  9.755
705478.32342, 3,   0.684,  9.710, -2.268, 4,  -0.001,  0.737, -0.108, 5,  19.235,-47.269, 11.201
705478.34329, 3,  -0.380,  9.648, -3.273, 4,   0.035,  0.579, -0.117, 5,  20.604,-45.811, 11.928
705478.36316, 3,  -1.438, 10.043, -3.730, 4,   0.056,  0.434, -0.123, 5,  20.554,-47.951, 11.206
705478.38302, 3,  -1.395, 10.124, -2.905, 4,   0.026,  0.300, -0.126, 5,  21.237,-47.217,  9.753
705478.40286, 3,  -0.701,  9.801, -2.326, 4,  -0.008,  0.239, -0.101, 5,  21.255,-46.509, 11.929
705478.42273, 3,   0.416,  9.157, -2.981, 4,  -0.018,  0.234, -0.054, 5,  19.870,-48.682, 11.934
705478.44260, 3,   0.134,  8.810, -4.111, 4,   0.018,  0.224, -0.032, 5,  19.250,-46.556, 11.198
705478.46246, 3,   1.314,  8.437, -4.857, 4,   0.059,  0.240, -0.041, 5,  19.885,-47.968, 11.205
705478.48236, 3,   1.283,  9.980, -4.003, 4,   0.062,  0.303, -0.065, 5,  19.221,-47.987, 12.657
705478.50223, 3,   0.074,  9.456, -2.764, 4,   0.057,  0.383, -0.075, 5,  19.254,-46.562, 13.379
705478.52206, 3,   2.522, 10.179, -2.579, 4,   0.061,  0.448, -0.097, 5,  19.255,-46.564, 14.105
705478.54193, 3,   0.677,  8.265, -2.079, 4,   0.081,  0.445, -0.126, 5,  19.920,-46.547, 13.380
705478.56180, 3,   1.290,  9.672, -3.362, 4,   0.111,  0.430, -0.168, 5,  21.245,-47.229, 14.836
705478.58166, 3,   0.385, 10.225, -3.977, 4,   0.152,  0.364, -0.200, 5,  20.592,-46.535, 15.561
705478.60153, 3,  -0.091,  8.904, -3.101, 4,   0.147,  0.303, -0.191, 5,  20.610,-45.822, 16.286
705478.62140, 3,   0.153,  8.576, -3.194, 4,   0.088,  0.206, -0.198, 5,  20.610,-45.822, 16.286
705478.64126, 3,  -1.027, 11.701, -3.383, 4,   0.065,  0.085, -0.214, 5,  19.960,-45.131, 17.735
705478.66113, 3,  -0.383,  9.227, -1.290, 4,   0.046, -0.053, -0.205, 5,  21.962,-45.078, 16.286
705478.68097, 3,  -0.187,  9.677, -1.137, 4,  -0.008, -0.153, -0.176, 5,  21.329,-43.671, 17.734
705478.70083, 3,   0.000,  7.114, -3.001, 4,   0.035, -0.236, -0.164, 5,  21.964,-45.079, 17.012
705478.72070, 3,  -1.151, 10.787, -6.037, 4,   0.106, -0.300, -0.168, 5,  21.996,-43.652, 17.009
705478.74057, 3,   0.045,  9.578, -3.228, 4,   0.132, -0.324, -0.142, 5,  22.630,-45.062, 17.014
705478.76044, 3,   0.672, 12.436, -0.574, 4,   0.005, -0.312, -0.092, 5,  21.945,-45.790, 16.287
705478.78033, 3,   0.203,  8.468,  1.125, 4,  -0.099, -0.355, -0.071, 5,  23.979,-44.315, 16.287
705478.80020, 3,   1.725,  9.363, -2.955, 4,  -0.070, -0.400, -0.084, 5,  22.646,-44.348, 17.012
705478.82004, 3,   0.153,  8.253, -5.441, 4,   0.073, -0.394, -0.108, 5,  21.294,-45.091, 15.558
705478.83990, 3,   0.938,  8.983, -5.575, 4,   0.136, -0.332, -0.092, 5,  23.314,-44.331, 17.014
705478.85977, 3,   1.036,  9.784, -3.951, 4,   0.057, -0.250, -0.089, 5,  22.614,-45.775, 17.015
705478.87964, 3,   0.043,  9.236, -1.902, 4,  -0.045, -0.163, -0.091, 5,  23.282,-45.761, 17.743
705478.89950, 3,   0.725, 10.198, -1.756, 4,  -0.103, -0.080, -0.104, 5,  23.994,-43.600, 15.559
705478.91937, 3,   0.804, 10.734, -1.704, 4,  -0.090, -0.043, -0.102, 5,  25.317,-44.284, 17.017
705478.93924, 3,  -0.524,  9.868, -2.204, 4,  -0.043,  0.020, -0.126, 5,  24.648,-44.298, 16.289
705478.95907, 3,  -0.486, 10.689, -3.522, 4,   0.009,  0.116, -0.157, 5,  23.329,-43.617, 16.286
705478.97894, 3,  -0.823,  9.289, -3.204, 4,   0.039,  0.164, -0.145, 5,  23.329,-43.617, 16.286
705478.99881, 3,  -1.003,  7.755, -2.778, 4,  -0.010,  0.161, -0.124, 5,  23.282,-45.758, 17.017
705479.01868, 3,  -0.493,  9.160, -5.716, 4,  -0.026,  0.101, -0.111, 5,  23.311,-44.327, 14.833
705479.03854, 3,  -0.464, 10.904, -2.914, 4,  -0.028,  0.009, -0.100, 5,  23.978,-44.313, 15.561
705479.05844, 3,  -0.641,  9.837, -0.321, 4,  -0.094, -0.038, -0.071, 5,  24.614,-45.721, 14.838
705479.07831, 3,  -1.175, 10.093, -0.136, 4,  -0.160, -0.112, -0.060, 5,  23.293,-45.038, 13.383
705479.09814, 3,  -1.220,  9.184, -2.594, 4,  -0.089, -0.283, -0.074, 5,  23.994,-43.600, 15.559
705479.11801, 3,  -0.218,  9.325, -6.322, 4,   0.022, -0.493, -0.080, 5,  23.978,-44.312, 14.833
705479.13788, 3,   1.043, 10.043, -5.740, 4,   0.082, -0.611, -0.062, 5,  24.648,-44.298, 16.289
705479.15774, 3,   2.795,  9.169, -3.410, 4,   0.026, -0.578, -0.024, 5,  25.316,-44.283, 16.290
705479.17761, 3,   2.680,  9.495, -1.431, 4,  -0.088, -0.430, -0.015, 5,  25.980,-44.261, 14.111
705479.19748, 3,   2.508,  9.315, -0.481, 4,  -0.127, -0.306, -0.053, 5,  24.677,-42.863, 12.654
705479.21731, 3,   3.979, 10.528, -2.149, 4,  -0.088, -0.253, -0.087, 5,  26.015,-42.836, 14.833
705479.23718, 3,   3.314,  9.217, -6.047, 4,  -0.001, -0.257, -0.140, 5,  25.311,-44.276, 13.385
705479.25705, 3,   2.304, 10.619, -3.778, 4,   0.040, -0.257, -0.224, 5,  27.298,-44.942, 13.390
705479.27692, 3,   0.225,  8.763, -2.474, 4,  -0.001, -0.231, -0.299, 5,  26.680,-42.816, 13.383
705479.29678, 3,  -2.041,  9.748, -1.180, 4,  -0.121, -0.296, -0.327, 5,  25.995,-43.547, 13.383
705479.31665, 3,  -3.194,  7.389, -0.869, 4,  -0.158, -0.505, -0.335, 5,  27.328,-43.510, 11.934
705479.33655, 3,  -2.991,  8.581, -3.175, 4,  -0.148, -0.806, -0.308, 5,  27.994,-43.492, 11.208
705479.35641, 3,  -2.254, 12.845, -4.635, 4,  -0.061, -1.139, -0.247, 5,  28.680,-42.763, 11.934
705479.37625, 3,  -1.783,  8.260, -2.845, 4,  -0.027, -1.303, -0.162, 5,  29.312,-44.170,  9.760
705479.39612, 3,  -1.787,  9.567, -3.139, 4,  -0.093, -1.317, -0.101, 5,  28.024,-42.062,  9.752
705479.41598, 3,  -0.988, 11.119, -3.156, 4,  -0.061, -1.226, -0.042, 5,  27.940,-45.625,  8.308
705479.43585, 3,  -0.541,  8.655, -1.606, 4,  -0.028, -1.107,  0.021, 5,  27.986,-43.478,  5.399
705479.45572, 3,  -1.230,  9.454, -2.936, 4,  -0.037, -0.980,  0.048, 5,  28.659,-43.471,  9.030
705479.47558, 3,  -1.417, 10.538, -3.663, 4,   0.033, -0.835,  0.061, 5,  27.339,-42.789,  8.301
705479.49542, 3,  -1.084,  9.595, -2.314, 4,   0.097, -0.675,  0.090, 5,  27.339,-42.789,  8.301
705479.51529, 3,  -0.766,  9.858, -2.345, 4,   0.071, -0.577,  0.119, 5,  27.339,-42.789,  8.301
705479.53515, 3,  -0.447,  9.703, -1.938, 4,   0.072, -0.544,  0.124, 5,  27.972,-44.197,  7.579
705479.55502, 3,  -1.350,  9.763, -1.862, 4,   0.094, -0.531,  0.142
705479.57489, 3,   0.864,  9.787, -2.668, 4,   0.090, -0.606,  0.146, 5,  28.006,-42.770,  7.576
705479.59476, 3,  -0.024,  9.126, -1.847, 4,   0.066, -0.744,  0.152, 5,  27.336,-42.783,  6.122
705479.61462, 3,   1.022,  9.545, -1.907, 4,   0.022, -0.852,  0.172, 5,  27.336,-42.783,  6.122
705479.63452, 3,   0.261,  6.468, -1.366, 4,   0.009, -0.897,  0.189, 5,  27.303,-44.209,  6.125
705479.65436, 3,  -1.323,  8.734, -3.857, 4,   0.017, -0.908,  0.189, 5,  28.018,-42.052,  5.394
705479.67422, 3,  -2.132, 11.866, -4.393, 4,   0.073, -0.907,  0.172, 5,  25.964,-44.235,  3.217
705479.69409, 3,  -0.213,  9.978, -2.709, 4,   0.045, -0.875,  0.201, 5,  28.003,-42.764,  5.397
705479.71396, 3,   0.859, 10.540,  0.160, 4,  -0.059, -0.826,  0.277, 5,  25.331,-42.825,  3.214
705479.73382, 3,   0.158,  6.757, -0.751, 4,  -0.065, -0.729,  0.317, 5,  25.966,-44.238,  4.669
705479.75369, 3,  -2.041, 11.990, -4.044, 4,   0.001, -0.677,  0.293, 5,  25.281,-44.965,  2.492
705479.77295, 3,  -1.795, 10.710, -2.434, 4,   0.125, -0.588,  0.249, 5,  25.314,-43.539,  3.215
705479.79339, 3,  -0.909,  9.681,  0.718, 4,   0.078, -0.433,  0.293, 5,  25.281,-44.965,  2.492
705479.81326, 3,  -1.094,  8.396,  0.156, 4,   0.011, -0.322,  0.334, 5,  23.959,-44.283,  2.487
705479.83313, 3,  -1.933,  9.739, -2.290, 4,   0.094, -0.241,  0.333, 5,  23.958,-44.279,  1.761
705479.85300, 3,  -1.397,  9.552, -4.175, 4,   0.243, -0.081,  0.339, 5,  22.589,-45.737,  1.036
705479.87286, 3,  -0.689,  8.483, -3.905, 4,   0.288,  0.136,  0.342, 5,  22.592,-45.741,  2.489
705479.89273, 3,  -1.247,  9.102, -3.773, 4,   0.226,  0.428,  0.318, 5,  21.274,-45.058,  1.758
705479.91263, 3,  -1.673,  8.947, -2.187, 4,   0.175,  0.777,  0.309, 5,  23.276,-45.009,  1.762
705479.93246, 3,  -0.916,  9.815, -2.163, 4,   0.137,  1.026,  0.306, 5,  21.262,-45.778,  4.665
705479.95233, 3,  -0.967, 10.158, -1.235, 4,   0.127,  1.177,  0.310, 5,  23.262,-45.728,  3.943
705479.97220, 3,  -1.323, 10.368, -1.845, 4,   0.133,  1.279,  0.280, 5,  21.278,-45.065,  4.663
705479.99206, 3,  -0.742,  9.291, -3.027, 4,   0.150,  1.268,  0.249, 5,  21.927,-45.761,  3.940
705480.01193, 3,  -0.122,  9.921, -3.723, 4,   0.165,  1.183,  0.239, 5,  21.246,-46.495,  6.119
705480.03180, 3,  -1.228,  8.920, -2.812, 4,   0.152,  1.128,  0.221, 5,  21.948,-45.055,  6.844
705480.05166, 3,  -0.931, 10.682, -2.591, 4,   0.097,  1.087,  0.181, 5,  19.943,-45.102,  6.114
705480.07150, 3,   0.371,  9.275, -1.761, 4,   0.054,  0.988,  0.158, 5,  19.930,-45.821,  8.295
705480.09137, 3,   0.266,  7.954, -1.723, 4,   0.023,  0.901,  0.158, 5,  19.244,-46.545,  6.842
705480.11124, 3,  -1.000,  8.885, -1.706, 4,   0.046,  0.917,  0.131, 5,  20.599,-45.805,  9.023
705480.13110, 3,  -0.380,  9.095, -1.376, 4,   0.076,  0.979,  0.087, 5,  19.930,-45.819,  7.568
705480.15097, 3,   0.546, 11.995, -3.185, 4,   0.121,  1.010,  0.068, 5,  19.914,-46.536,  9.023
705480.17084, 3,   1.443,  9.291, -2.419, 4,   0.120,  1.006,  0.053, 5,  21.237,-47.217,  9.753
705480.19070, 3,  -0.634, 10.402, -2.725, 4,   0.061,  1.038,  0.041, 5,  21.251,-46.503,  9.024
705480.21057, 3,  -1.149,  9.966, -1.665, 4,   0.016,  1.089,  0.004, 5,  19.901,-47.250,  9.752
705480.23044, 3,  -0.794,  9.452, -0.345, 4,  -0.024,  1.048, -0.016, 5,  19.214,-47.977,  8.299
705480.25030, 3,  -0.242,  9.028, -1.809, 4,  -0.028,  0.966, -0.029, 5,  20.587,-46.526, 11.929
705480.27017, 3,  -0.584,  9.239, -4.154, 4,   0.033,  0.939, -0.036, 5,  19.267,-45.842, 11.197
705480.29004, 3,  -0.153, 10.672, -4.690, 4,   0.103,  0.922, -0.042, 5,  19.934,-45.827, 11.198
705480.30990, 3,  -1.663,  9.980, -2.886, 4,   0.078,  0.911, -0.048, 5,  19.270,-45.848, 13.377
705480.32977, 3,  -1.397,  9.559, -2.144, 4,  -0.001,  0.906, -0.056, 5,  19.904,-47.255, 11.931
705480.34961, 3,  -0.847,  8.983, -1.457, 4,  -0.028,  0.830, -0.056, 5,  20.622,-45.103, 13.379
705480.36948, 3,   1.586, 10.167, -2.991, 4,   0.005,  0.706, -0.041, 5,  20.557,-47.955, 12.660
705480.38934, 3,   0.837,  8.588, -3.293, 4,   0.056,  0.609, -0.043, 5,  19.254,-46.561, 12.653
705480.40921, 3,   1.938,  9.586, -3.960, 4,   0.086,  0.619, -0.065, 5,  20.607,-45.818, 14.107
705480.42908, 3,   0.931,  8.514, -1.685, 4,   0.092,  0.628, -0.091, 5,  20.586,-46.523, 10.477
705480.44894, 3,   2.240,  9.791, -2.979, 4,   0.046,  0.595, -0.119, 5,  19.923,-46.550, 14.832
705480.46881, 3,   1.909, 10.725, -2.886, 4,   0.054,  0.458, -0.172, 5,  18.602,-45.865, 13.377
705480.48868, 3,   0.153,  7.382, -1.225, 4,   0.056,  0.304, -0.212, 5,  20.589,-46.530, 13.382
705480.50854, 3,   0.416,  9.299, -3.766, 4,   0.020,  0.153, -0.263, 5,  19.920,-46.547, 13.380
705480.52841, 3,   0.349,  8.932, -3.769, 4,   0.065, -0.047, -0.277, 5,  21.240,-47.221, 11.932
705480.54828, 3,   0.718, 12.562, -3.683, 4,   0.056, -0.185, -0.266, 5,  21.259,-46.515, 14.108
705480.56814, 3,   1.065, 11.074, -1.271, 4,   0.018, -0.186, -0.240, 5,  20.590,-46.532, 14.108
705480.58801, 3,  -0.775, 10.210,  0.505, 4,  -0.045, -0.123, -0.208, 5,  21.942,-45.786, 14.108
705480.60785, 3,  -0.675,  7.633, -1.625, 4,  -0.039, -0.066, -0.227, 5,  21.228,-47.945, 15.565
705480.62771, 3,  -1.819,  8.183, -4.522, 4,   0.051, -0.120, -0.223, 5,  21.927,-46.503, 15.562
705480.64758, 3,   0.572,  9.550, -5.609, 4,   0.126, -0.212, -0.189, 5,  21.944,-45.787, 14.833
705480.66745, 3,   0.847,  9.983, -3.872, 4,   0.103, -0.253, -0.148, 5,  21.307,-44.374, 14.104
705480.68732, 3,   0.589, 10.007, -1.388, 4,  -0.006, -0.192, -0.130, 5,  21.927,-46.503, 15.562
705480.70718, 3,   1.457,  9.693, -1.866, 4,  -0.066, -0.107, -0.129, 5,  21.912,-47.215, 15.565
705480.72705, 3,   0.112,  8.104, -2.230, 4,  -0.045, -0.063, -0.130, 5,  21.277,-45.802, 14.832
705480.74689, 3,   1.213, 10.816, -4.037, 4,  -0.004, -0.037, -0.140, 5,  21.912,-47.215, 15.565
705480.76678, 3,  -0.373,  8.966, -1.728, 4,   0.022, -0.079, -0.142, 5,  22.609,-45.769, 14.110
705480.78665, 3,   0.323,  8.471, -2.761, 4,  -0.034, -0.132, -0.145, 5,  23.279,-45.753, 14.836
705480.80652, 3,   0.395, 12.074, -4.049, 4,  -0.029, -0.290, -0.130, 5,  23.279,-45.753, 14.836
705480.82638, 3,   2.654, 10.227, -1.878, 4,  -0.007, -0.488, -0.102, 5,  22.591,-46.481, 13.385
705480.84625, 3,   3.522,  9.861, -1.543, 4,  -0.063, -0.577, -0.093, 5,  23.311,-44.327, 14.833
705480.86612, 3,   2.953,  9.205, -2.596, 4,  -0.051, -0.575, -0.118, 5,  23.259,-46.463, 12.660
705480.88595, 3,   2.008,  8.265, -4.412, 4,   0.011, -0.559, -0.139, 5,  23.961,-45.024, 14.110
705480.90582, 3,   1.283, 10.942, -5.259, 4,   0.045, -0.567, -0.145, 5,  23.911,-47.160, 12.663
705480.92569, 3,   0.847,  9.107, -1.381, 4,   0.001, -0.614, -0.174, 5,  24.594,-46.431, 12.662
705480.94556, 3,  -1.247,  9.547,  0.263, 4,  -0.121, -0.652, -0.208, 5,  25.308,-44.270, 11.205
705480.96542, 3,  -1.232,  8.186, -0.641, 4,  -0.134, -0.709, -0.197, 5,  23.926,-46.449, 13.387
705480.98529, 3,  -1.290,  9.040, -3.687, 4,  -0.044, -0.806, -0.156, 5,  25.279,-45.703, 13.388
705481.00516, 3,  -1.680, 11.273, -6.800, 4,   0.073, -0.828, -0.129, 5,  25.293,-44.984, 11.206
705481.02499, 3,  -1.484,  9.363, -5.515, 4,   0.109, -0.722, -0.093, 5,  27.295,-44.934, 10.484
705481.04486, 3,  -2.709,  9.961, -2.075, 4,   0.007, -0.528, -0.042, 5,  24.608,-45.711, 10.481
705481.06476, 3,  -1.302,  9.301, -0.297, 4,  -0.094, -0.424,  0.020, 5,  25.926,-46.393, 10.484
705481.08462, 3,  -0.543,  9.523, -1.192, 4,  -0.117, -0.471,  0.063, 5,  26.593,-46.375,  9.760
705481.10449, 3,   1.560, 10.086, -3.462, 4,  -0.028, -0.576,  0.078, 5,  29.236,-47.745, 12.674
705481.12436, 3,   2.393,  7.731, -4.822, 4,   0.082, -0.580,  0.101, 5,  28.584,-47.047, 13.397
705481.14419, 3,   1.036, 10.315, -4.484, 4,   0.101, -0.454,  0.093, 5,  27.914,-47.060, 11.945
705481.16406, 3,   1.034,  8.975, -1.838, 4,   0.050, -0.300,  0.067, 5,  24.591,-46.426, 11.208
705481.18393, 3,   1.675,  9.583, -0.715, 4,  -0.056, -0.239,  0.051, 5,  25.946,-45.685, 12.662
705481.20380, 3,   1.251,  9.906, -0.921, 4,  -0.071, -0.266,  0.042, 5,  25.293,-44.983, 10.481
705481.22366, 3,   0.100,  9.866, -2.010, 4,  -0.028, -0.253,  0.019, 5,  24.591,-46.425, 10.483
705481.24353, 3,  -1.338,  8.468, -3.326, 4,   0.012, -0.201, -0.020, 5,  25.943,-45.679, 10.483
705481.26340, 3,  -1.807,  9.940, -4.338, 4,   0.034, -0.179, -0.035, 5,  25.272,-45.691,  8.304
705481.28326, 3,  -1.653, 11.241, -3.025, 4,   0.018, -0.163, -0.007, 5,  25.940,-45.676,  9.030
705481.30310, 3,  -1.429, 10.674, -0.290, 4,  -0.070, -0.163,  0.037, 5,  25.957,-44.963,  9.029
705481.32297, 3,  -1.898,  9.184,  0.275, 4,  -0.142, -0.187,  0.069, 5,  26.607,-45.657,  8.305
705481.34286, 3,  -2.137, 10.966, -1.898, 4,  -0.090, -0.231,  0.078, 5,  25.891,-47.816,  9.036
705481.36273, 3,  -2.694,  8.681, -4.542, 4,   0.059, -0.225,  0.095, 5,  25.890,-47.815,  8.310
705481.38260, 3,  -2.450,  8.423, -5.803, 4,   0.143, -0.158,  0.117, 5,  24.605,-45.708,  9.029
705481.40246, 3,  -1.579,  7.741, -4.877, 4,   0.164, -0.018,  0.157, 5,  24.588,-46.422,  9.030
705481.42233, 3,  -1.519,  8.542, -3.111, 4,   0.101,  0.205,  0.207, 5,  24.590,-46.423,  9.756
705481.44217, 3,  -0.558,  9.119, -1.720, 4,   0.040,  0.413,  0.238, 5,  23.221,-47.881,  9.033
705481.46203, 3,   0.584,  8.033, -1.761, 4,   0.012,  0.551,  0.238, 5,  23.239,-47.168,  9.758
705481.48190, 3,   1.297, 12.687, -2.883, 4,   0.023,  0.635,  0.219, 5,  23.254,-46.455,  9.755
705481.50177, 3,   1.225,  9.825, -0.696, 4,   0.045,  0.703,  0.186, 5,  24.590,-46.423,  9.756
705481.52164, 3,   1.443, 10.765, -1.632, 4,  -0.007,  0.775,  0.146, 5,  22.572,-47.188, 11.208
705481.54150, 3,   0.033, 10.024, -2.151, 4,   0.010,  0.730,  0.093, 5,  23.256,-46.457, 10.481
705481.56137, 3,  -0.598, 10.189, -2.967, 4,   0.042,  0.623,  0.052, 5,  24.611,-45.717, 12.660
705481.58124, 3,  -0.067,  9.552, -3.072, 4,   0.045,  0.444,  0.020, 5,  21.257,-46.512, 12.656
705481.60107, 3,  -1.024,  8.655, -2.852, 4,   0.028,  0.248, -0.002, 5,  23.242,-47.173, 11.937
705481.62094, 3,  -0.742,  9.485, -3.161, 4,   0.027,  0.182, -0.001, 5,  23.273,-45.743, 10.480
705481.64084, 3,  -1.038,  9.459, -3.025, 4,   0.051,  0.172,  0.007, 5,  23.241,-47.171, 11.209
705481.66070, 3,  -0.024,  9.827, -3.048, 4,   0.055,  0.186,  0.010, 5,  21.956,-45.067, 11.928
705481.68057, 3,   0.065,  7.803, -1.524, 4,   0.039,  0.213,  0.017, 5,  21.922,-46.494, 11.931
705481.70044, 3,   0.869,  8.657, -3.819, 4,   0.032,  0.277,  0.013, 5,  23.257,-46.460, 11.934
705481.72027, 3,   0.658,  9.710, -5.025, 4,   0.075,  0.326, -0.005, 5,  22.624,-45.055, 13.382
705481.74014, 3,   0.670, 11.246, -3.443, 4,   0.083,  0.406, -0.035, 5,  21.907,-47.206, 11.934
705481.76001, 3,   0.689, 11.146, -1.321, 4,  -0.004,  0.507, -0.053, 5,  22.624,-45.053, 12.656
705481.77988, 3,   0.447,  6.403, -0.175, 4,  -0.088,  0.544, -0.073, 5,  23.943,-45.735, 13.385
705481.79974, 3,  -0.211, 11.390, -3.695, 4,  -0.081,  0.469, -0.106, 5,  22.575,-47.192, 12.662
705481.81961, 3,  -0.237, 11.019, -2.725, 4,   0.004,  0.321, -0.131, 5,  22.591,-46.480, 12.659
705481.83948, 3,   0.184,  8.755, -0.979, 4,  -0.028,  0.160, -0.129, 5,  23.244,-47.177, 13.390
705481.85934, 3,  -0.328,  8.593, -2.615, 4,  -0.066, -0.043, -0.130, 5,  22.591,-46.481, 13.385
705481.87918, 3,  -1.850, 10.315, -4.515, 4,  -0.011, -0.242, -0.151, 5,  23.259,-46.465, 13.387
705481.89905, 3,  -1.242, 11.844, -3.137, 4,   0.028, -0.417, -0.151, 5,  19.266,-45.839,  9.746
705481.91894, 3,  -0.412,  6.791, -1.704, 4,  -0.023, -0.615, -0.103, 5,  23.911,-47.162, 13.390
705481.93881, 3,  -0.072, 10.691, -4.006, 4,  -0.057, -0.713, -0.064, 5,  23.293,-45.036, 12.657
705481.95868, 3,   0.285, 10.100, -4.003, 4,   0.010, -0.708, -0.051, 5,  23.274,-45.746, 11.932
705481.97854, 3,   0.873,  8.595, -3.522, 4,   0.018, -0.564, -0.016, 5,  23.293,-45.038, 13.383
705481.99838, 3,   0.569, 10.804, -3.013, 4,  -0.013, -0.360,  0.009, 5,  24.611,-45.717, 12.660
705482.01825, 3,   1.134,  9.342, -1.536, 4,  -0.016, -0.164,  0.015, 5,  23.941,-45.731, 11.932
705482.03812, 3,   0.218,  9.028, -1.704, 4,  -0.035, -0.011, -0.001, 5,  23.276,-45.750, 13.385
705482.05798, 3,  -0.043,  9.952, -3.147, 4,  -0.001,  0.094, -0.021, 5,  25.276,-45.697, 11.208
705482.07785, 3,  -0.376,  9.456, -2.182, 4,   0.027,  0.138, -0.042, 5,  24.609,-45.714, 11.934
705482.09772, 3,  -0.840,  7.284, -1.938, 4,  -0.004,  0.143, -0.053, 5,  25.928,-46.396, 11.937
705482.11758, 3,  -0.694, 12.613, -3.860, 4,  -0.024,  0.112, -0.064, 5,  23.924,-46.445, 11.934
705482.13742, 3,  -0.055,  9.875, -1.323, 4,  -0.011,  0.066, -0.049, 5,  23.959,-45.021, 12.657
705482.15729, 3,  -0.215, 10.727, -0.878, 4,  -0.077,  0.020, -0.029, 5,  23.973,-44.304, 11.929
705482.17715, 3,   0.385, 11.263, -1.984, 4,  -0.067, -0.075, -0.031, 5,  25.929,-46.399, 12.663
705482.19705, 3,   0.380,  9.167, -2.335, 4,  -0.018, -0.179, -0.035, 5,  24.611,-45.717, 12.660
705482.21692, 3,   0.680,  7.554, -3.814, 4,   0.005, -0.269, -0.030, 5,  25.276,-45.695, 10.483
705482.23678, 3,   0.486,  9.243, -5.434, 4,   0.020, -0.367, -0.040, 5,  22.604,-45.760, 10.478
705482.25665, 3,   0.347,  8.250, -4.032, 4,   0.022, -0.406, -0.047, 5,  24.626,-45.001, 11.932
705482.27649, 3,  -0.333,  9.220, -2.625, 4,  -0.039, -0.412, -0.024, 5,  23.972,-44.301, 10.477
705482.29635, 3,  -0.639, 11.447, -1.898, 4,  -0.085, -0.418, -0.004, 5,  25.975,-44.254, 11.205
705482.31622, 3,  -0.024, 10.591, -1.036, 4,  -0.105, -0.473, -0.013, 5,  25.293,-44.984, 11.206
705482.33609, 3,   1.048,  8.961, -0.692, 4,  -0.090, -0.528,  0.012, 5,  25.308,-44.270, 11.205
705482.35596, 3,  -0.244,  8.681, -2.611, 4,  -0.048, -0.532,  0.008, 5,  25.941,-45.677,  9.756
705482.37583, 3,  -0.105,  9.873, -4.731, 4,   0.054, -0.459, -0.013, 5,  25.290,-44.980,  9.029
705482.39570, 3,   0.172,  9.303, -3.249, 4,   0.086, -0.391, -0.016, 5,  25.273,-45.692,  9.030
705482.41553, 3,  -0.294,  7.894, -2.067, 4,   0.010, -0.308,  0.020, 5,  27.307,-44.217,  9.030
705482.43540, 3,  -0.871, 11.909, -2.505, 4,  -0.051, -0.283,  0.031, 5,  25.290,-44.980,  9.029
705482.45527, 3,  -0.565, 10.035, -1.000, 4,  -0.060, -0.346,  0.026, 5,  25.293,-44.983, 10.481
705482.47513, 3,  -0.196, 10.119, -0.359, 4,  -0.105, -0.435,  0.059, 5,  25.307,-44.267,  9.753
705482.49503, 3,   0.187,  9.720, -0.713, 4,  -0.074, -0.503,  0.092, 5,  23.972,-44.301, 10.477
705482.51490, 3,  -0.603,  9.437, -2.544, 4,  -0.012, -0.543,  0.084, 5,  24.637,-44.281,  9.026
705482.53476, 3,  -0.636, 10.160, -4.290, 4,   0.073, -0.564,  0.057, 5,  25.322,-43.553,  9.026
705482.55460, 3,  -0.658,  9.586, -4.161, 4,   0.111, -0.532,  0.058, 5,  25.288,-44.977,  7.576
705482.57447, 3,  -0.493,  8.248, -4.422, 4,   0.073, -0.407,  0.102, 5,  25.288,-44.978,  8.302
705482.59433, 3,  -0.881,  9.760, -3.405, 4,   0.027, -0.316,  0.124, 5,  25.987,-43.535,  8.299
705482.61420, 3,  -0.830, 12.215, -0.955, 4,   0.005, -0.234,  0.131, 5,  25.320,-43.552,  8.299
705482.63407, 3,  -0.211,  8.277,  0.522, 4,  -0.032, -0.130,  0.152, 5,  25.288,-44.978,  8.302
705482.65393, 3,  -0.919, 10.835, -1.627, 4,  -0.026, -0.049,  0.150, 5,  25.288,-44.978,  8.302
705482.67380, 3,  -1.811,  9.071, -1.641, 4,   0.093,  0.033,  0.125, 5,  25.288,-44.978,  8.302
705482.69364, 3,  -0.957,  9.485, -3.943, 4,   0.148,  0.140,  0.108, 5,  22.598,-45.750,  6.847
705482.71351, 3,  -1.153,  8.408, -5.197, 4,   0.182,  0.252,  0.109, 5,  25.290,-44.980,  9.029
705482.73337, 3,  -1.780,  9.511, -3.934, 4,   0.170,  0.427,  0.146, 5,  23.268,-45.737,  7.574
705482.75324, 3,  -1.486, 11.160, -1.464, 4,   0.088,  0.581,  0.183
705482.77314, 3,  -0.931, 10.792,  0.928, 4,  -0.002,  0.615,  0.190, 5,  23.918,-46.437,  8.302
705482.79300, 3,   0.718,  8.971, -0.852, 4,  -0.034,  0.537,  0.185, 5,  24.635,-44.279,  8.299
705482.81287, 3,   0.653, 10.784, -3.675, 4,   0.057,  0.424,  0.162, 5,  23.253,-46.454,  9.029
705482.83274, 3,  -0.371,  8.964, -3.568, 4,   0.174,  0.405,  0.140, 5,  23.933,-45.718,  6.848
705482.85257, 3,   0.404,  9.466, -3.467, 4,   0.165,  0.410,  0.109, 5,  23.970,-44.299,  9.750
705482.87244, 3,  -0.428,  8.241, -2.223, 4,   0.098,  0.402,  0.069, 5,  22.571,-47.185,  9.756
705482.89231, 3,  -0.627,  9.811, -2.907, 4,   0.049,  0.403,  0.061, 5,  21.936,-45.775,  9.750
705482.91217, 3,   0.287,  9.808, -2.548, 4,   0.049,  0.365,  0.057, 5,  23.303,-44.315,  9.750
705482.93204, 3,   0.134, 10.043, -2.213, 4,   0.037,  0.356,  0.034, 5,  23.289,-45.032, 11.203
705482.95191, 3,   0.524,  9.760, -2.936, 4,   0.026,  0.405,  0.021, 5,  22.603,-45.758,  9.752
705482.97174, 3,   0.416,  9.734, -1.893, 4,   0.024,  0.486,  0.013, 5,  21.239,-47.220, 11.205
705482.99161, 3,  -1.168,  9.016, -0.871, 4,   0.017,  0.599, -0.001, 5,  21.320,-43.654, 11.195
705483.01148, 3,  -0.689, 11.701, -2.816, 4,   0.023,  0.679, -0.038, 5,  22.621,-45.049, 11.201
705483.03135, 3,  -0.129,  7.104, -3.553, 4,   0.077,  0.659, -0.056, 5,  21.939,-45.779, 11.929
705483.05121, 3,   0.120,  9.858, -4.877, 4,   0.082,  0.639, -0.064, 5,  22.606,-45.763, 11.931
705483.07111, 3,  -0.584, 11.409, -2.697, 4,   0.062,  0.646, -0.082, 5,  23.274,-45.746, 11.932
705483.09098, 3,  -1.452, 10.083,  0.206, 4,  -0.029,  0.626, -0.101, 5,  24.677,-42.863, 12.654
705483.11081, 3,  -0.201, 10.248, -0.254, 4,  -0.100,  0.511, -0.108, 5,  23.956,-45.016, 11.203
705483.13068, 3,   0.096, 10.289, -2.101, 4,  -0.026,  0.325, -0.106, 5,  20.654,-43.677, 13.376
705483.15055, 3,   0.048,  9.444, -3.572, 4,   0.071,  0.204, -0.107, 5,  21.957,-45.070, 12.654
705483.17041, 3,  -0.404,  9.083, -4.305, 4,   0.098,  0.133, -0.136, 5,  21.321,-43.655, 11.923
705483.19028, 3,  -1.007,  8.435, -3.898, 4,   0.090,  0.106, -0.130, 5,  21.959,-45.073, 14.107
705483.21015, 3,  -0.091,  6.499, -3.989, 4,   0.053,  0.051, -0.111, 5,  23.343,-42.899, 14.105
705483.23002, 3,   1.792, 10.129, -4.233, 4,   0.002, -0.081, -0.093, 5,  21.991,-43.646, 14.104
705483.24988, 3,   1.122, 11.256, -1.828, 4,  -0.049, -0.192, -0.093, 5,  21.957,-45.071, 13.380
705483.26972, 3,   1.072,  9.851,  0.115, 4,  -0.133, -0.211, -0.104, 5,  22.591,-46.481, 13.385
705483.28959, 3,   1.263,  9.837, -1.297, 4,  -0.131, -0.229, -0.131, 5,  23.293,-45.036, 12.657
705483.30945, 3,   0.400,  9.370, -2.405, 4,  -0.033, -0.269, -0.168, 5,  22.675,-42.915, 14.104
705483.32932, 3,  -0.215, 10.497, -3.477, 4,   0.033, -0.218, -0.192, 5,  23.975,-44.307, 12.656
705483.34922, 3,   0.273,  7.301, -3.683, 4,   0.043, -0.184, -0.186, 5,  25.963,-44.974, 13.387
705483.36908, 3,  -0.167, 10.715, -5.070, 4,   0.007, -0.202, -0.169, 5,  25.294,-44.986, 11.934
705483.38895, 3,  -0.522, 10.701, -2.441, 4,  -0.022, -0.270, -0.153, 5,  24.661,-43.581, 14.108
705483.40879, 3,  -0.744,  9.533,  0.421, 4,  -0.129, -0.406, -0.126, 5,  24.628,-45.004, 12.659
705483.42864, 3,  -1.740,  9.571, -0.646, 4,  -0.192, -0.597, -0.101, 5,  23.976,-44.310, 14.108
705483.44851, 3,  -1.606, 10.024, -2.125, 4,  -0.131, -0.786, -0.095, 5,  24.643,-44.292, 13.383
705483.46838, 3,  -1.019,  9.296, -3.635, 4,  -0.043, -0.942, -0.082, 5,  25.325,-43.558, 11.203
705483.48824, 3,  -0.653, 10.318, -3.740, 4,  -0.004, -0.989, -0.041, 5,  26.675,-42.807,  9.752
705483.50811, 3,   0.309, 10.019, -2.436, 4,  -0.017, -0.942,  0.009, 5,  25.307,-44.267,  9.753
705483.52795, 3,   0.639,  9.966, -2.558, 4,  -0.046, -0.828,  0.051, 5,  25.322,-43.553,  9.026
705483.54781, 3,   1.816, 10.004, -2.673, 4,  -0.040, -0.722,  0.081, 5,  26.021,-42.110,  9.021
705483.56768, 3,   0.091,  9.361, -1.603, 4,  -0.016, -0.581,  0.093, 5,  25.322,-43.553,  9.026
705483.58755, 3,   0.414,  9.169, -1.572, 4,  -0.016, -0.391,  0.080, 5,  25.302,-44.260,  6.848
705483.60742, 3,   0.548, 11.414, -1.909, 4,  -0.001, -0.245,  0.057, 5,  24.620,-44.994,  8.301
705483.62731, 3,   0.916,  8.423, -0.452, 4,   0.016, -0.136,  0.045, 5,  24.669,-42.853,  8.296
705483.64718, 3,   0.129,  9.349, -2.199, 4,   0.010, -0.041,  0.021, 5,  24.681,-42.134,  6.114
705483.66702, 3,   0.153, 10.284, -3.996, 4,   0.061,  0.008, -0.010, 5,  25.334,-42.831,  6.119
705483.68688, 3,  -1.412,  6.808, -3.309, 4,   0.079,  0.020, -0.031, 5,  26.624,-44.945,  8.304
705483.70675, 3,  -2.187, 10.952, -5.228, 4,   0.044, -0.019, -0.021, 5,  25.957,-44.963,  9.029
705483.72662, 3,  -2.709, 10.741, -1.443, 4,   0.009, -0.135,  0.009, 5,  26.689,-42.093,  9.023
705483.74648, 3,  -1.292, 10.428,  0.213, 4,  -0.098, -0.325,  0.056, 5,  24.666,-42.847,  6.117
705483.76635, 3,  -0.036,  9.284,  0.196, 4,  -0.143, -0.624,  0.085, 5,  26.001,-42.813,  5.392
705483.78622, 3,  -0.304,  9.485, -1.835, 4,  -0.068, -0.845,  0.107, 5,  26.686,-42.087,  6.844
705483.80608, 3,  -1.007, 10.275, -3.594, 4,   0.043, -0.881,  0.111, 5,  25.301,-44.257,  5.396
705483.82592, 3,  -0.754,  9.724, -3.625, 4,   0.098, -0.799,  0.104, 5,  23.297,-44.305,  6.119
705483.84579, 3,  -1.385,  8.765, -2.761, 4,   0.097, -0.608,  0.131, 5,  26.622,-44.940,  6.851
705483.86565, 3,  -1.271,  8.193, -2.139, 4,   0.081, -0.402,  0.175, 5,  25.967,-44.240,  5.396
705483.88552, 3,  -1.993,  9.875, -2.137, 4,   0.076, -0.208,  0.191, 5,  23.964,-44.290,  6.119
705483.90539, 3,  -1.529,  9.576, -1.682, 4,   0.095, -0.013,  0.201, 5,  24.649,-43.561,  6.119
705483.92529, 3,  -0.711,  8.782, -2.034, 4,   0.117,  0.182,  0.227, 5,  22.614,-45.035,  5.392
705483.94515, 3,   0.689,  9.500, -3.336, 4,   0.143,  0.376,  0.232, 5,  23.332,-42.880,  6.842
705483.96499, 3,   1.017, 11.275, -2.943, 4,   0.150,  0.573,  0.217, 5,  21.245,-46.492,  4.666
705483.98486, 3,   0.254,  9.689, -2.089, 4,   0.123,  0.792,  0.189, 5,  24.622,-44.995,  9.027
705484.00472, 3,   0.048,  9.969, -1.433, 4,   0.071,  0.960,  0.153, 5,  25.304,-44.264,  8.301
705484.02459, 3,  -2.223,  6.197, -1.330, 4,   0.048,  1.026,  0.100, 5,  23.270,-45.740,  9.027
705484.04446, 3,  -1.323, 10.603, -4.020, 4,   0.037,  1.053,  0.057, 5,  22.597,-45.749,  6.120
705484.06429, 3,  -2.814, 11.660, -2.953, 4,   0.099,  0.922,  0.068, 5,  23.285,-45.024,  7.573
705484.08416, 3,  -2.036,  9.897, -0.656, 4,   0.045,  0.756,  0.092, 5,  22.649,-43.614,  7.568
705484.10403, 3,  -1.271,  9.629, -1.079, 4,  -0.055,  0.565,  0.103, 5,  21.950,-45.059,  8.296
705484.12389, 3,  -0.029, 10.373, -2.321, 4,  -0.035,  0.424,  0.126, 5,  23.921,-46.440,  9.755
705484.14376, 3,  -1.474,  5.642, -2.795, 4,   0.018,  0.384,  0.136, 5,  23.938,-45.726,  9.753
705484.16363, 3,  -0.634,  8.076, -6.028, 4,   0.046,  0.430,  0.129, 5,  23.923,-46.443, 11.206
705484.18350, 3,   0.376, 12.627, -4.709, 4,   0.072,  0.463,  0.128, 5,  22.600,-45.755,  8.299
705484.20339, 3,   1.955, 10.682,  0.203, 4,   0.001,  0.613,  0.151, 5,  21.281,-45.070,  6.842
705484.22323, 3,   2.749, 10.093,  0.943, 4,  -0.136,  0.789,  0.136, 5,  22.569,-47.183,  9.030
705484.24310, 3,   1.371,  9.559, -1.251, 4,  -0.099,  0.878,  0.064, 5,  21.266,-45.787,  8.296
705484.26296, 3,   0.146, 10.052, -3.620, 4,   0.027,  0.979, -0.004, 5,  21.288,-45.079, 10.474
705484.28283, 3,   0.321,  9.825, -3.563, 4,   0.092,  1.012, -0.036, 5,  25.882,-48.541, 14.122
705484.30270, 3,   0.663, 10.086, -2.122, 4,   0.040,  0.935, -0.058, 5,  24.530,-49.287, 14.122
705484.32256, 3,  -0.414,  9.645, -1.165, 4,  -0.046,  0.772, -0.097, 5,  23.894,-47.876, 13.391
705484.34243, 3,  -1.015,  9.394, -1.421, 4,  -0.077,  0.602, -0.135, 5,  21.956,-45.067, 11.928
705484.36230, 3,  -1.450, 11.375, -2.563, 4,  -0.046,  0.414, -0.152, 5,  19.286,-45.131, 11.923
705484.38213, 3,  -1.055,  7.482, -2.132, 4,  -0.015,  0.223, -0.135, 5,  21.956,-45.067, 11.928
705484.40200, 3,  -0.596,  9.023, -4.242, 4,  -0.022,  0.083, -0.112, 5,  21.938,-45.776, 10.477
705484.42187, 3,  -1.216, 10.897, -3.965, 4,   0.001,  0.033, -0.090, 5,  22.562,-47.911, 14.841
705484.44174, 3,  -0.057, 11.222, -4.477, 4,  -0.017,  0.050, -0.067, 5,  23.291,-45.033, 11.931
705484.46160, 3,  -1.048, 11.316, -0.524, 4,  -0.059,  0.099, -0.054, 5,  24.644,-44.293, 14.110
705484.48147, 3,   1.158,  5.300,  0.237, 4,  -0.072,  0.147, -0.043, 5,  20.557,-47.955, 12.660
705484.50137, 3,   1.888, 12.548, -4.345, 4,  -0.038,  0.189, -0.058, 5,  21.303,-44.366, 11.197
705484.52120, 3,   1.548,  7.982, -4.623, 4,   0.149,  0.248, -0.051, 5,  21.938,-45.776, 10.477
705484.54107, 3,   1.134,  9.959, -4.527, 4,   0.120,  0.338, -0.085, 5,  22.591,-46.481, 13.385
705484.56094, 3,   1.893,  8.782, -3.321, 4,   0.108,  0.329, -0.135, 5,  23.962,-45.026, 14.835
705484.58080, 3,   0.974,  8.849, -1.658, 4,   0.043,  0.289, -0.157, 5,  23.296,-45.042, 15.562
705484.60067, 3,   1.496, 11.040, -2.536, 4,  -0.004,  0.195, -0.186, 5,  23.264,-46.471, 16.292
705484.62054, 3,   1.127, 11.110, -0.012, 4,  -0.012,  0.009, -0.224, 5,  23.244,-47.176, 12.663
705484.64037, 3,  -0.773,  7.229,  0.091, 4,  -0.035, -0.160, -0.234, 5,  22.592,-46.483, 14.111
705484.66024, 3,   1.263, 10.538, -4.216, 4,   0.005, -0.347, -0.238, 5,  24.663,-43.582, 14.833
705484.68011, 3,   2.091,  9.581, -7.635, 4,   0.154, -0.659, -0.240, 5,  23.946,-45.740, 15.564
705484.69997, 3,   1.309,  9.488, -5.793, 4,   0.152, -0.779, -0.233, 5,  25.298,-44.992, 14.113
705484.71984, 3,  -1.012,  9.976, -1.754, 4,   0.021, -0.737, -0.238, 5,  24.608,-45.712, 11.206
705484.73971, 3,  -0.608,  9.210, -0.230, 4,  -0.114, -0.714, -0.214, 5,  24.591,-46.426, 11.208
705484.75897, 3,   0.081,  9.062, -1.816, 4,  -0.150, -0.878, -0.206, 5,  25.290,-44.980,  9.029
705484.77944, 3,  -0.519, 11.158, -3.271, 4,  -0.068, -1.018, -0.175, 5,  23.970,-44.299,  9.750
705484.79931, 3,  -0.799,  9.806, -3.159, 4,   0.004, -0.969, -0.142, 5,  23.972,-44.301, 10.477
705484.81918, 3,  -1.680,  8.447, -2.532, 4,  -0.007, -0.769, -0.106, 5,  23.956,-45.015, 10.478
705484.83904, 3,  -1.041,  9.756, -4.008, 4,   0.000, -0.594, -0.074, 5,  26.645,-44.238, 11.934
705484.85891, 3,  -0.541, 10.490, -2.905, 4,   0.017, -0.523, -0.030, 5,  25.259,-46.411, 11.209
705484.87878, 3,  -0.364,  9.509, -1.285, 4,  -0.011, -0.456,  0.008, 5,  25.311,-44.275, 12.659
705484.89864, 3,   0.017,  9.815, -1.661, 4,  -0.041, -0.402,  0.009, 5,  25.307,-44.267,  9.753
705484.91851, 3,   0.402,  8.753, -1.965, 4,  -0.002, -0.400,  0.010, 5,  23.970,-44.299,  9.750
705484.93835, 3,   0.945,  9.516, -4.070, 4,   0.045, -0.396,  0.009, 5,  25.320,-43.552,  8.299
705484.95760, 3,   0.718,  8.607, -4.008, 4,   0.076, -0.361, -0.009, 5,  25.958,-44.965,  9.755
705484.97808, 3,   0.916, 10.069, -3.718, 4,   0.051, -0.299, -0.023, 5,  25.970,-44.247,  8.301
705484.99795, 3,  -0.845,  8.990, -1.311, 4,  -0.004, -0.223, -0.023, 5,  25.288,-44.977,  7.576
705485.01782, 3,  -0.299,  9.473, -1.718, 4,  -0.061, -0.185, -0.031, 5,  24.623,-44.997,  9.753
705485.03768, 3,  -1.565,  9.605, -1.756, 4,  -0.061, -0.228, -0.035, 5,  27.962,-44.919, 11.211
705485.05758, 3,  -1.199, 10.598, -2.247, 4,  -0.027, -0.295, -0.040, 5,  26.608,-45.659,  9.032
705485.07742, 3,  -1.764, 10.753, -2.876, 4,  -0.001, -0.364, -0.036, 5,  25.972,-44.249,  9.027
705485.09728, 3,  -2.302,  7.152, -2.189, 4,   0.013, -0.401,  0.003, 5,  26.605,-45.653,  6.853
705485.11715, 3,  -4.113, 10.253, -3.762, 4,   0.012, -0.389,  0.030, 5,  27.304,-44.211,  6.851
705485.13702, 3,  -2.989, 11.107, -2.577, 4,   0.034, -0.340,  0.061, 5,  26.653,-43.512,  6.122
705485.15688, 3,  -1.649,  9.531, -0.017, 4,   0.001, -0.264,  0.135, 5,  27.272,-45.638,  6.854
705485.17675, 3,  -1.223,  9.456, -1.034, 4,  -0.029, -0.151,  0.200, 5,  25.270,-45.686,  6.851
705485.19662, 3,  -0.412,  9.265, -3.608, 4,   0.050, -0.007,  0.219, 5,  25.319,-43.547,  6.847
705485.21645, 3,  -0.383,  9.875, -6.135, 4,   0.161,  0.156,  0.208, 5,  26.627,-44.948,  9.756
705485.23632, 3,   1.603,  8.093, -5.207, 4,   0.185,  0.333,  0.210, 5,  25.960,-44.966, 10.481
705485.25619, 3,   1.029,  9.576, -1.531, 4,   0.079,  0.482,  0.199, 5,  25.293,-44.984, 11.206
705485.27606, 3,   2.273,  9.645, -0.199, 4,  -0.026,  0.587,  0.156, 5,  25.273,-45.692,  9.030
705485.29592, 3,   2.187,  9.540, -0.761, 4,  -0.065,  0.554,  0.107, 5,  24.635,-44.279,  8.299
705485.31579, 3,   2.429,  8.672, -2.249, 4,  -0.032,  0.419,  0.048, 5,  25.322,-43.553,  9.026
705485.33566, 3,   0.421, 11.282, -3.221, 4,   0.000,  0.287, -0.026, 5,  25.941,-45.677,  9.756
705485.35552, 3,  -1.402,  8.411, -1.768, 4,   0.000,  0.206, -0.082, 5,  25.302,-44.260,  6.848
705485.37539, 3,  -2.493, 10.361, -2.132, 4,  -0.063,  0.090, -0.108, 5,  23.936,-45.724,  9.027
705485.39526, 3,  -2.170,  8.727, -2.587, 4,  -0.081, -0.071, -0.092, 5,  24.600,-45.700,  6.123
705485.41512, 3,  -1.639,  9.899, -3.008, 4,  -0.076, -0.261, -0.057, 5,  25.958,-44.965,  9.755
705485.43499, 3,  -1.670, 11.335, -3.326, 4,  -0.044, -0.397, -0.026, 5,  25.273,-45.692,  9.030
705485.45486, 3,  -1.534,  7.200, -3.101, 4,  -0.027, -0.461,  0.003, 5,  24.600,-45.700,  6.123
705485.47469, 3,  -1.570,  9.167, -4.214, 4,  -0.004, -0.465,  0.047, 5,  25.237,-47.112,  6.129
705485.49456, 3,  -1.838, 10.839, -3.802, 4,   0.056, -0.452,  0.074, 5,  25.919,-46.382,  6.126
705485.51443, 3,  -1.115,  9.308, -2.563, 4,   0.051, -0.427,  0.106, 5,  24.619,-44.989,  6.848
705485.53429, 3,   0.278, 11.093, -1.685, 4,   0.009, -0.374,  0.128, 5,  25.955,-44.960,  7.576
705485.55416, 3,   1.419,  8.542,  0.321, 4,   0.023, -0.289,  0.155, 5,  25.925,-46.391,  9.758
705485.57403, 3,   1.352,  9.686, -3.553, 4,   0.031, -0.115,  0.166, 5,  25.275,-45.694,  9.756
705485.59390, 3,   2.194,  9.983, -5.343, 4,   0.123,  0.033,  0.113, 5,  24.586,-46.420,  8.304
705485.61376, 3,   1.591,  9.318, -4.051, 4,   0.149,  0.195,  0.079, 5,  24.600,-45.699,  5.397
705485.63363, 3,   0.543, 10.301, -2.122, 4,   0.054,  0.421,  0.058, 5,  25.240,-47.118,  8.308
705485.65350, 3,  -0.804,  9.681,  0.089, 4,  -0.044,  0.494,  0.008, 5,  23.935,-45.721,  7.574
705485.67336, 3,  -1.512,  9.701, -0.668, 4,  -0.084,  0.388, -0.029, 5,  25.240,-47.118,  8.308
705485.69323, 3,  -2.072, 10.251, -2.527, 4,  -0.043,  0.174, -0.042, 5,  25.240,-47.118,  8.308
705485.71310, 3,  -2.185,  9.196, -3.690, 4,   0.034, -0.048, -0.046, 5,  25.240,-47.118,  8.308
705485.73296, 3,  -2.706,  9.519, -4.659, 4,   0.049, -0.167, -0.018, 5,  26.561,-47.801,  9.764
705485.75283, 3,  -2.362,  9.612, -3.580, 4,   0.042, -0.156,  0.028, 5,  25.941,-45.677,  9.756
705485.77267, 3,  -3.159, 10.169, -3.051, 4,   0.006, -0.107,  0.059, 5,  25.925,-46.391,  9.758
705485.79253, 3,  -1.905,  7.123, -1.086, 4,  -0.020, -0.043,  0.104, 5,  24.586,-46.420,  8.304
705485.81240, 3,  -2.462,  8.791, -2.864, 4,  -0.004,  0.018,  0.144, 5,  26.610,-45.660,  9.758
705485.83227, 3,  -1.228, 11.344, -4.175, 4,   0.070,  0.116,  0.167, 5,  25.920,-46.384,  6.853
705485.85214, 3,  -0.615, 10.356, -1.606, 4,   0.103,  0.260,  0.191, 5,  23.918,-46.436,  7.576
705485.87200, 3,   0.493,  9.088, -2.429, 4,   0.042,  0.438,  0.213, 5,  23.203,-48.590,  7.582
705485.89184, 3,   1.493, 10.282, -2.455, 4,   0.032,  0.546,  0.211, 5,  24.591,-46.425, 10.483
705485.91171, 3,   0.940,  9.861, -0.885, 4,   0.050,  0.595,  0.181, 5,  23.920,-46.439,  9.029
705485.93160, 3,   1.012,  9.023, -1.852, 4,   0.007,  0.619,  0.140
705485.95147, 3,   1.242,  9.954, -1.828, 4,  -0.006,  0.584,  0.096, 5,  25.246,-47.125, 11.940
705485.97134, 3,   1.426,  9.205, -2.445, 4,   0.015,  0.537,  0.065, 5,  25.278,-45.699, 11.935
705485.99120, 3,   1.328, 10.392, -3.068, 4,   0.009,  0.474,  0.024, 5,  23.271,-45.741,  9.753
705486.01107, 3,   0.048,  9.141, -2.218, 4,   0.011,  0.424, -0.015, 5,  22.585,-46.471,  9.027
705486.03094, 3,  -0.459,  9.042, -2.448, 4,  -0.028,  0.378, -0.053, 5,  23.221,-47.881,  9.033
705486.05077, 3,  -0.400,  9.619, -3.491, 4,  -0.028,  0.273, -0.058, 5,  23.907,-47.156, 11.209
705486.07064, 3,  -0.187,  9.564, -3.685, 4,  -0.018,  0.079, -0.048, 5,  23.891,-47.870, 11.211
705486.09051, 3,  -0.266,  9.763, -2.603, 4,  -0.038, -0.088, -0.053, 5,  24.574,-47.136,  9.760
705486.11038, 3,  -0.132, 10.729, -2.101, 4,  -0.068, -0.185, -0.058, 5,  22.588,-46.474, 10.480
705486.13024, 3,   1.158,  8.061, -1.838, 4,  -0.067, -0.219, -0.036, 5,  24.577,-47.141, 11.938
705486.15011, 3,   0.828,  9.315, -3.539, 4,  -0.039, -0.241, -0.018, 5,  25.262,-46.417, 13.390
705486.16998, 3,   1.639, 10.906, -3.623, 4,   0.028, -0.204, -0.035, 5,  25.244,-47.124, 11.212
705486.18981, 3,   1.455,  9.799, -1.381, 4,   0.032, -0.090, -0.046, 5,  23.221,-47.881,  9.033
705486.20971, 3,   1.395,  9.940, -2.469, 4,  -0.024,  0.068, -0.051, 5,  24.574,-47.136,  9.760
705486.22958, 3,   0.682,  9.411, -2.984, 4,  -0.016,  0.128, -0.075, 5,  24.576,-47.139, 11.211
705486.24944, 3,  -0.567,  8.920, -2.089, 4,   0.002,  0.124, -0.098, 5,  23.872,-48.579,  9.761
705486.26931, 3,  -0.390,  9.942, -2.326, 4,  -0.002,  0.058, -0.114, 5,  24.576,-47.137, 10.486
705486.28918, 3,  -0.916,  9.332, -3.362, 4,   0.004, -0.076, -0.120, 5,  24.590,-46.423,  9.756
705486.30904, 3,  -1.187,  9.028, -3.963, 4,   0.029, -0.191, -0.106, 5,  26.598,-46.384, 13.391
705486.32888, 3,  -1.043,  9.595, -4.097, 4,   0.039, -0.257, -0.087, 5,  26.613,-45.665, 11.937
705486.34875, 3,  -1.840,  9.641, -2.230, 4,   0.009, -0.302, -0.047, 5,  27.280,-45.650, 11.938
705486.36861, 3,   0.050, 10.047, -1.462, 4,  -0.045, -0.307,  0.003, 5,  25.243,-47.121,  9.761
705486.38848, 3,   0.826, 10.636, -1.376, 4,  -0.059, -0.307,  0.040, 5,  25.909,-47.104,  9.761
705486.40835, 3,   1.299,  9.155, -2.594, 4,  -0.020, -0.258,  0.052, 5,  27.246,-47.073, 10.490
705486.42822, 3,   0.837,  8.375, -2.881, 4,   0.034, -0.116,  0.024, 5,  26.613,-45.665, 11.937
705486.44808, 3,  -1.247, 10.825, -3.316, 4,   0.059,  0.069, -0.004, 5,  25.224,-47.833,  9.036
705486.46792, 3,  -0.467,  8.210, -2.060, 4,   0.040,  0.215, -0.015, 5,  24.571,-47.133,  8.307
705486.48782, 3,  -0.656, 10.234, -3.204, 4,  -0.002,  0.229, -0.030, 5,  27.261,-46.361, 10.487
705486.50768, 3,  -0.794, 10.720, -2.701, 4,   0.016,  0.217, -0.024, 5,  27.248,-47.076, 11.943
705486.52755, 3,  -0.711, 10.210, -1.132, 4,  -0.001,  0.229, -0.018, 5,  27.916,-47.064, 13.397
705486.54742, 3,  -1.141, 10.045, -1.953, 4,  -0.031,  0.228, -0.015, 5,  25.926,-46.393, 10.484
705486.56728, 3,  -0.335,  9.839, -3.199, 4,  -0.007,  0.167, -0.020, 5,  26.581,-47.092, 11.942
705486.58715, 3,  -0.409,  9.665, -3.163, 4,   0.026,  0.116, -0.005, 5,  26.595,-46.378, 11.211
705486.60699, 3,   0.234,  9.442, -2.589, 4,   0.017,  0.081,  0.014, 5,  26.563,-47.803, 10.490
705486.62685, 3,   0.579,  9.768, -1.993, 4,  -0.029,  0.047,  0.014, 5,  25.929,-46.399, 12.663
705486.64672, 3,   1.127,  9.571, -3.321, 4,  -0.040,  0.019,  0.014, 5,  25.244,-47.124, 11.212
705486.66659, 3,   1.957, 10.174, -2.929, 4,  -0.026, -0.007, -0.004, 5,  25.943,-45.680, 11.208
705486.68646, 3,   1.426,  9.839, -1.689, 4,  -0.017, -0.010, -0.030, 5,  27.261,-46.362, 11.212
705486.70632, 3,   0.916,  8.999, -1.936, 4,  -0.043,  0.011, -0.053, 5,  27.263,-46.364, 11.940
705486.72619, 3,   0.548,  9.191, -2.465, 4,  -0.045, -0.003, -0.090, 5,  25.279,-45.703, 13.388
705486.74603, 3,   0.129,  9.617, -2.929, 4,  -0.015, -0.094, -0.115, 5,  27.296,-44.937, 11.937
705486.76589, 3,   0.258,  9.837, -2.922, 4,  -0.008, -0.169, -0.134, 5,  27.292,-44.931,  9.032
705486.78579, 3,  -0.383, 10.703, -2.331, 4,  -0.016, -0.213, -0.137, 5,  27.960,-44.916,  9.760
705486.80566, 3,   0.043,  7.557, -1.917, 4,  -0.031, -0.229, -0.128, 5,  26.628,-44.949, 10.483
705486.82552, 3,  -1.292, 10.911, -3.611, 4,  -0.037, -0.250, -0.130, 5,  27.940,-45.624,  7.582
705486.84539, 3,  -1.759, 11.476, -2.118, 4,  -0.006, -0.290, -0.128, 5,  29.277,-45.593,  8.310
705486.86526, 3,  -2.041,  9.090, -0.514, 4,  -0.046, -0.341, -0.102, 5,  29.282,-45.598, 10.489
705486.88509, 3,  -1.620,  8.980, -2.402, 4,  -0.073, -0.402, -0.067, 5,  29.263,-46.310,  9.764
705486.90496, 3,  -0.785, 11.344, -4.353, 4,   0.012, -0.449, -0.019, 5,  27.962,-44.917, 10.486
705486.92483, 3,  -0.773,  8.619, -4.199, 4,   0.070, -0.422,  0.021, 5,  25.987,-43.533,  7.573
705486.94470, 3,   0.660, 10.196, -3.781, 4,   0.031, -0.335,  0.052, 5,  28.609,-45.607,  7.582
705486.96456, 3,   0.459, 11.033, -1.692, 4,  -0.013, -0.242,  0.068, 5,  27.324,-43.504,  9.029
705486.98443, 3,   1.589,  7.035,  0.196, 4,  -0.050, -0.137,  0.092, 5,  27.274,-45.642,  8.307
705487.00427, 3,   1.019, 10.895, -3.984, 4,  -0.033, -0.079,  0.074, 5,  27.988,-43.481,  6.851
705487.02413, 3,  -0.041, 11.203, -3.551, 4,   0.106, -0.046,  0.032, 5,  27.306,-44.214,  7.578
705487.04400, 3,  -1.053,  7.822, -1.933, 4,   0.120,  0.050,  0.007, 5,  27.942,-45.627,  9.035
705487.06390, 3,  -0.421,  9.375, -3.766, 4,   0.064,  0.122, -0.008, 5,  29.279,-45.595,  9.036
705487.08376, 3,  -1.661,  9.229, -3.321, 4,   0.075,  0.103,  0.002, 5,  27.959,-44.914,  9.033
705487.10363, 3,  -0.660,  9.662, -2.838, 4,   0.045,  0.058,  0.006, 5,  27.974,-44.200,  9.032
705487.12350, 3,  -0.077, 10.583, -1.900, 4,  -0.005, -0.029,  0.006, 5,  27.275,-45.644,  9.033
705487.14336, 3,  -0.380,  6.090, -0.993, 4,  -0.022, -0.079,  0.030, 5,  26.608,-45.659,  9.032
705487.16320, 3,  -0.132,  9.803, -4.154, 4,  -0.011, -0.113,  0.034, 5,  27.274,-45.641,  7.581
705487.18307, 3,  -1.005, 11.014, -3.068, 4,   0.061, -0.130,  0.021, 5,  28.625,-44.896,  8.307
705487.20293, 3,  -0.536, 10.720, -2.158, 4,   0.034, -0.076,  0.034, 5,  27.989,-43.484,  7.578
705487.22280, 3,  -1.117,  9.198, -1.189, 4,  -0.029, -0.040,  0.041, 5,  26.604,-45.651,  6.126
705487.24267, 3,  -1.359, 10.548, -2.639, 4,  -0.018, -0.047,  0.036, 5,  29.265,-46.312, 10.490
705487.26254, 3,  -0.950,  9.751, -3.178, 4,   0.027, -0.066,  0.035, 5,  27.940,-45.625,  8.308
705487.28240, 3,  -0.220, 10.842, -2.828, 4,   0.032, -0.082,  0.054, 5,  28.008,-42.773,  9.029
705487.30227, 3,  -0.519,  8.722, -1.055, 4,   0.001, -0.058,  0.062, 5,  27.293,-44.933,  9.758
705487.32211, 3,  -0.065,  8.339, -1.876, 4,  -0.026, -0.030,  0.075, 5,  26.625,-44.946,  9.030
705487.34197, 3,   0.629, 10.004, -4.116, 4,   0.024, -0.064,  0.067, 5,  27.957,-44.913,  8.307
705487.36187, 3,   0.495,  9.961, -4.855, 4,   0.077, -0.074,  0.059, 5,  27.292,-44.931,  9.032
705487.38174, 3,   0.931,  8.609, -3.951, 4,   0.062, -0.022,  0.072, 5,  25.955,-44.960,  7.576
705487.40160, 3,  -0.955, 10.820, -2.474, 4,   0.001,  0.024,  0.059, 5,  28.625,-44.894,  7.581
705487.42147, 3,  -0.881,  8.870, -0.084, 4,  -0.045,  0.023,  0.047, 5,  26.591,-46.373,  9.033
705487.44131, 3,  -0.814, 10.650, -2.386, 4,  -0.076, -0.036,  0.030, 5,  27.940,-45.625,  8.308
705487.46117, 3,  -0.158, 10.682, -3.551, 4,  -0.005, -0.112,  0.030, 5,  31.885,-48.384,  9.775
705487.48104, 3,  -0.380,  8.399, -2.802, 4,   0.040, -0.092,  0.058, 5,  30.551,-48.419, 10.498
705487.50091, 3,  -0.883, 10.684, -2.606, 4,   0.018,  0.001,  0.079, 5,  29.900,-47.723, 11.221
705487.52078, 3,  -0.084,  9.691, -0.828, 4,  -0.004,  0.069,  0.072, 5,  27.924,-46.338,  7.584
705487.54064, 3,   0.577,  9.368, -2.302, 4,  -0.034,  0.086,  0.074, 5,  26.608,-45.659,  9.032
705487.56051, 3,  -0.057,  9.279, -3.125, 4,   0.012,  0.070,  0.086, 5,  27.293,-44.933,  9.758
705487.58038, 3,  -0.969,  9.255, -3.036, 4,   0.048,  0.062,  0.070, 5,  26.610,-45.660,  9.758
705487.60021, 3,  -0.479,  8.830, -3.147, 4,   0.032,  0.070,  0.053, 5,  26.607,-45.656,  7.579
705487.62008, 3,  -1.125, 10.404, -2.962, 4,   0.005,  0.055,  0.057, 5,  27.962,-44.917, 10.486
705487.63998, 3,  -0.129,  9.851, -2.271, 4,  -0.002,  0.069,  0.075, 5,  27.960,-44.916,  9.760
705487.65984, 3,  -1.000,  8.930, -1.431, 4,  -0.024,  0.083,  0.084, 5,  27.962,-44.919, 11.211
705487.67971, 3,  -0.524,  9.547, -2.704, 4,  -0.016,  0.089,  0.082, 5,  27.945,-45.631, 11.212
705487.69958, 3,  -1.137, 10.002, -3.580, 4,   0.016,  0.083,  0.079, 5,  27.275,-45.644,  9.033
705487.71941, 3,  -0.864, 10.856, -3.836, 4,   0.039,  0.103,  0.090, 5,  26.627,-44.948,  9.756
705487.73928, 3,  -0.711,  9.169, -1.905, 4,   0.013,  0.139,  0.104, 5,  25.960,-44.968, 11.206
705487.75915, 3,  -1.086,  9.411, -1.117, 4,  -0.040,  0.210,  0.120, 5,  25.943,-45.679, 10.483
705487.77902, 3,  -0.481, 10.610, -2.166, 4,  -0.046,  0.251,  0.114, 5,  25.926,-46.393, 10.484
705487.79888, 3,  -0.038,  7.375, -2.699, 4,   0.009,  0.262,  0.124, 5,  27.278,-45.648, 11.211
705487.81875, 3,  -1.299,  7.478, -4.443, 4,   0.031,  0.305,  0.134, 5,  25.278,-45.699, 11.935
705487.83862, 3,  -0.546, 12.194, -3.498, 4,   0.055,  0.359,  0.129, 5,  26.614,-45.668, 12.663
705487.85845, 3,   0.189,  9.363,  0.412, 4,   0.001,  0.405,  0.148, 5,  24.591,-46.425, 10.483
705487.87832, 3,   0.299,  9.954, -0.790, 4,  -0.101,  0.461,  0.179, 5,  23.273,-45.744, 11.205
705487.89819, 3,   0.419,  9.502, -2.347, 4,  -0.041,  0.456,  0.113, 5,  23.921,-46.440,  9.755
705487.91808, 3,  -0.278,  9.830, -3.166, 4,   0.046,  0.474,  0.082, 5,  24.625,-45.000, 11.205
705487.93795, 3,   0.179,  9.466, -3.304, 4,   0.079,  0.518,  0.080, 5,  23.293,-45.036, 12.657
705487.95782, 3,   0.194,  9.198, -3.125, 4,   0.049,  0.565,  0.057, 5,  23.940,-45.729, 11.205
705487.97768, 3,  -0.043,  9.504, -2.568, 4,   0.016,  0.615,  0.042, 5,  22.607,-45.766, 12.657
705487.99755, 3,  -0.191,  8.882, -2.144, 4,  -0.008,  0.603,  0.031, 5,  21.889,-47.917, 10.483
705488.01739, 3,   0.108, 11.198, -2.661, 4,  -0.011,  0.535,  0.020, 5,  23.291,-45.033, 11.931
705488.03726, 3,   0.112,  9.413, -1.929, 4,   0.004,  0.441,  0.004, 5,  22.591,-46.480, 12.659
705488.05712, 3,   1.419,  9.045, -3.139, 4,   0.012,  0.378, -0.003, 5,  22.591,-46.480, 12.659
705488.07699, 3,   1.522,  8.442, -3.525, 4,   0.035,  0.343, -0.015, 5,  23.943,-45.734, 12.659
705488.09686, 3,   0.522,  9.724, -3.429, 4,   0.051,  0.397, -0.045, 5,  21.909,-47.211, 13.387
705488.11672, 3,   0.787, 11.244, -2.670, 4,   0.031,  0.482, -0.073, 5,  23.259,-46.465, 13.387
705488.13656, 3,   0.036,  6.595, -0.814, 4,  -0.004,  0.524, -0.081, 5,  21.257,-46.512, 12.656
705488.15643, 3,   1.053, 12.584, -4.309, 4,  -0.004,  0.508, -0.101, 5,  22.559,-47.908, 13.390
705488.17629, 3,   0.364,  9.990, -1.967, 4,   0.071,  0.449, -0.137, 5,  22.607,-45.767, 13.383
705488.19616, 3,  -0.163,  9.473, -0.916, 4,   0.011,  0.456, -0.151, 5,  23.247,-47.182, 15.569
705488.21606, 3,   0.002,  9.047, -2.125, 4,  -0.005,  0.392, -0.168, 5,  21.243,-47.227, 14.111
705488.23592, 3,  -0.079,  9.136, -2.969, 4,   0.057,  0.261, -0.176, 5,  22.644,-44.347, 16.286
705488.25579, 3,   0.170,  9.186, -3.951, 4,   0.086,  0.152, -0.174, 5,  23.929,-46.454, 15.565
705488.27563, 3,  -0.890,  9.777, -4.183, 4,   0.064,  0.055, -0.183, 5,  23.344,-42.900, 14.830
705488.29549, 3,  -0.866,  8.889, -2.886, 4,   0.032, -0.022, -0.176, 5,  24.611,-45.718, 13.387
705488.31536, 3,  -1.149,  9.899, -2.565, 4,  -0.018, -0.075, -0.153, 5,  22.595,-46.487, 16.290
705488.33523, 3,  -0.553, 10.430, -1.993, 4,  -0.052, -0.171, -0.118, 5,  23.946,-45.738, 14.836
705488.35510, 3,   1.591,  9.923, -1.244, 4,  -0.065, -0.300, -0.071, 5,  23.926,-46.449, 13.387
705488.37496, 3,   2.627,  8.987, -1.641, 4,  -0.046, -0.362, -0.041, 5,  23.279,-45.753, 14.836
705488.39483, 3,   3.505, 11.311, -3.048, 4,   0.000, -0.360, -0.048, 5,  25.264,-46.419, 14.116
705488.41467, 3,   2.630,  8.664, -3.297, 4,   0.061, -0.256, -0.085, 5,  23.929,-46.452, 14.838
705488.43453, 3,   0.646, 13.773, -3.809, 4,   0.064, -0.138, -0.135, 5,  23.944,-45.737, 14.111
705488.45442, 3,   0.926,  4.372, -0.890, 4,   0.038, -0.130, -0.174, 5,  23.247,-47.180, 14.841
705488.47428, 3,   1.390, 11.261, -5.250, 4,  -0.043, -0.143, -0.212, 5,  24.631,-45.009, 14.836
705488.49418, 3,  -0.579,  9.794, -2.223, 4,   0.009, -0.127, -0.224, 5,  23.946,-45.738, 14.836
705488.51405, 3,  -2.051,  9.471, -0.770, 4,  -0.056, -0.036, -0.207, 5,  25.262,-46.416, 12.663
705488.53392, 3,  -2.075,  9.808, -1.455, 4,  -0.079, -0.083, -0.195, 5,  24.611,-45.718, 13.387
705488.55378, 3,  -2.768,  9.894, -2.924, 4,  -0.008, -0.258, -0.178, 5,  24.579,-47.145, 13.391
705488.57362, 3,  -2.099,  9.655, -3.840, 4,   0.034, -0.437, -0.146, 5,  25.296,-44.991, 13.387
705488.59349, 3,  -1.909,  9.327, -3.348, 4,   0.035, -0.572, -0.095, 5,  25.929,-46.399, 12.663
705488.61335, 3,  -2.060,  9.114, -2.768, 4,   0.004, -0.610, -0.041, 5,  25.311,-44.275, 12.659
705488.63322, 3,  -1.385,  9.653, -2.888, 4,  -0.008, -0.588,  0.019, 5,  25.299,-44.994, 14.838
705488.65308, 3,   0.139,  9.253, -2.491, 4,   0.007, -0.542,  0.067, 5,  24.660,-43.579, 13.382
705488.67295, 3,   1.835,  8.667, -2.402, 4,   0.026, -0.415,  0.106, 5,  24.660,-43.579, 13.382
705488.69282, 3,   2.747,  9.107, -2.503, 4,   0.049, -0.203,  0.129, 5,  24.660,-43.579, 13.382
705488.71265, 3,   1.005,  8.545, -2.946, 4,   0.073,  0.006,  0.104, 5,  24.660,-43.579, 13.382
705488.73252, 3,   1.933, 10.667, -3.788, 4,   0.084,  0.190,  0.052, 5,  25.282,-45.706, 14.839
705488.75239, 3,   1.455, 11.399, -2.606, 4,   0.065,  0.279,  0.010, 5,  24.628,-45.006, 13.385
705488.77225, 3,   0.519,  8.155, -0.737, 4,   0.000,  0.309, -0.020, 5,  24.626,-45.001, 11.932
705488.79215, 3,  -0.447, 10.268, -2.388, 4,  -0.055,  0.270, -0.069, 5,  24.660,-43.578, 12.656
705488.81202, 3,  -1.747,  9.004, -2.649, 4,  -0.043,  0.119, -0.104, 5,  26.631,-44.955, 12.662
705488.83188, 3,  -0.794, 11.730, -1.204, 4,  -0.066, -0.066, -0.090, 5,  26.012,-42.831, 12.656
705488.85172, 3,  -0.780,  7.516,  0.653, 4,  -0.105, -0.230, -0.049, 5,  25.313,-44.278, 14.111
705488.87159, 3,   0.187, 10.387, -2.498, 4,  -0.133, -0.358, -0.035, 5,  25.345,-42.848, 12.656
705488.89146, 3,  -0.304,  9.758, -3.869, 4,  -0.033, -0.454, -0.041, 5,  25.296,-44.989, 12.660
705488.91132, 3,  -0.775,  8.430, -3.221, 4,   0.011, -0.448, -0.018, 5,  23.958,-45.018, 11.931
705488.93119, 3,  -0.914,  9.275, -3.084, 4,  -0.018, -0.383, -0.003, 5,  24.626,-45.001, 11.932
705488.95106, 3,  -0.895,  9.377, -2.441, 4,  -0.024, -0.280,  0.008, 5,  26.643,-44.237, 11.206
705488.97092, 3,  -0.998,  8.897, -3.168, 4,  -0.033, -0.176,  0.031, 5,  25.975,-44.252, 10.480
705488.99076, 3,  -0.467, 10.002, -2.912, 4,  -0.018, -0.097,  0.048, 5,  25.975,-44.254, 11.205
705489.01063, 3,  -0.098, 10.227, -1.584, 4,  -0.008, -0.008,  0.063, 5,  26.660,-43.524, 11.205
705489.03049, 3,   1.000, 10.114, -1.426, 4,  -0.024,  0.147,  0.075, 5,  26.009,-42.827, 11.201
705489.05036, 3,  -0.500,  8.224, -1.515, 4,  -0.031,  0.245,  0.063, 5,  26.645,-44.238, 11.934
705489.07026, 3,   0.227, 10.605, -4.544, 4,   0.007,  0.279,  0.015, 5,  25.294,-44.986, 11.934
705489.09012, 3,  -0.617, 10.799, -3.955, 4,   0.062,  0.254, -0.024, 5,  25.293,-44.983, 10.481
705489.10996, 3,  -0.864,  6.820, -1.706, 4,   0.026,  0.250, -0.018, 5,  25.308,-44.270, 11.205
705489.12983, 3,  -1.192, 10.122, -2.792, 4,  -0.050,  0.228, -0.020
705489.14969, 3,  -0.897, 10.782, -1.701, 4,  -0.031,  0.134, -0.020, 5,  26.631,-44.955, 12.662
705489.16956, 3,  -0.558, 11.179, -0.768, 4,  -0.044,  0.009, -0.003, 5,  24.640,-44.286, 11.203
705489.18943, 3,   0.900,  9.899, -1.842, 4,  -0.066, -0.113,  0.004, 5,  25.308,-44.270, 11.205
705489.20930, 3,   1.213, 10.114, -2.910, 4,  -0.027, -0.207,  0.006, 5,  25.960,-44.966, 10.481
705489.22916, 3,   0.665,  9.736, -2.630, 4,   0.020, -0.207,  0.004, 5,  25.310,-44.272, 11.932
705489.24903, 3,  -0.122,  8.528, -1.912, 4,   0.006, -0.189, -0.016, 5,  26.662,-43.526, 11.932
705489.26887, 3,   0.486,  9.440, -2.943, 4,  -0.028, -0.193, -0.045, 5,  25.992,-43.539, 10.478
705489.28873, 3,   0.385,  9.196, -3.699, 4,  -0.001, -0.204, -0.045, 5,  25.323,-43.555,  9.752
705489.30860, 3,   0.218, 10.844, -3.788, 4,   0.018, -0.204, -0.053, 5,  25.960,-44.968, 11.206
705489.32847, 3,  -0.191, 10.404, -1.921, 4,   0.002, -0.146, -0.063, 5,  25.943,-45.680, 11.208
705489.34836, 3,  -0.510,  8.552, -1.216, 4,  -0.050, -0.085, -0.052, 5,  26.628,-44.949, 10.483
705489.36823, 3,   0.495,  9.930, -3.080, 4,  -0.054, -0.103, -0.053, 5,  25.955,-44.962,  8.302
705489.38810, 3,  -0.297,  8.090, -2.508, 4,  -0.011, -0.230, -0.052, 5,  25.293,-44.983, 10.481
705489.40793, 3,   0.050, 10.682, -2.579, 4,  -0.016, -0.319, -0.048, 5,  26.591,-46.373,  9.033
705489.42780, 3,   0.524, 11.115, -2.276, 4,  -0.024, -0.437, -0.063, 5,  27.292,-44.931,  9.032
