704818.87637, 3,  -0.012,  9.684, -2.515, 5,  25.153,-51.414, 16.309
704818.89624, 3,  -0.012,  9.684, -2.515, 4,   0.000, -0.007, -0.003, 5,  25.105,-53.560, 17.766
704818.91610, 3,  -0.045,  9.665, -2.422, 4,   0.000, -0.007, -0.003, 5,  22.450,-52.907, 17.033
704818.93597, 3,  -0.170,  9.693, -2.295, 4,   0.000, -0.007, -0.003, 5,  28.479,-52.054, 19.220
704818.95587, 3,  -0.304,  9.710, -2.266, 4,   0.000,  0.002,  0.006, 5,  27.774,-53.491, 17.044
704818.97570, 3,  -0.433,  9.739, -2.402, 4,   0.001,  0.006,  0.010, 5,  27.142,-52.086, 18.491
704818.99557, 3,  -0.266,  9.698, -2.422, 4,   0.005,  0.011,  0.017, 5,  27.142,-52.086, 18.491
704819.01544, 3,   0.053,  9.686, -2.199, 4,   0.001,  0.001,  0.023, 5,  29.100,-54.181, 20.680
704819.03530, 3,   0.115,  9.720, -2.206, 4,  -0.005, -0.021,  0.029, 5,  31.717,-56.252, 18.509
704819.05517, 3,   0.093,  9.674, -2.244, 4,  -0.004, -0.029,  0.032, 5,  29.750,-54.878, 20.683
704819.07504, 3,  -0.031,  9.703, -2.211, 4,   0.002, -0.021,  0.031, 5,  27.792,-52.782, 18.494
704819.09491, 3,  -0.067,  9.768, -2.175, 4,   0.004, -0.005,  0.029, 5,  27.124,-52.797, 17.767
704819.11477, 3,  -0.108,  9.748, -2.041, 4,   0.006,  0.007,  0.030, 5,  27.826,-51.357, 19.218
704819.13464, 3,  -0.416,  9.763, -2.146, 4,   0.006,  0.007,  0.034, 5,  27.777,-53.497, 19.223
704819.15451, 3,  -0.569,  9.744, -2.201, 4,   0.009,  0.012,  0.036, 5,  27.126,-52.798, 18.492
704819.17434, 3,  -0.514,  9.724, -2.101, 4,   0.007,  0.007,  0.046, 5,  27.759,-54.207, 17.773
704819.19421, 3,  -0.309,  9.770, -2.043, 4,   0.002, -0.003,  0.062, 5,  25.806,-52.116, 17.763
704819.21408, 3,  -0.093,  9.705, -2.173, 4,   0.001, -0.018,  0.073, 5,  27.144,-52.087, 19.218
704819.23397, 3,  -0.002,  9.662, -2.402, 4,   0.007, -0.008,  0.082, 5,  27.142,-52.086, 18.491
704819.25384, 3,   0.036,  9.677, -2.414, 4,   0.013,  0.012,  0.087, 5,  25.775,-53.546, 19.218
704819.27371, 3,  -0.100,  9.698, -2.209, 4,   0.012,  0.006,  0.093, 5,  27.094,-54.225, 18.497
704819.29357, 3,  -0.270,  9.701, -2.096, 4,   0.009, -0.000,  0.098, 5,  27.095,-54.227, 19.225
704819.31344, 3,  -0.112,  9.710, -2.302, 4,   0.011,  0.014,  0.103, 5,  27.097,-54.228, 19.949
704819.33331, 3,   0.251,  9.703, -2.304, 4,   0.020,  0.042,  0.108, 5,  26.476,-52.101, 18.489
704819.35318, 3,   0.301,  9.705, -2.075, 4,   0.021,  0.041,  0.113, 5,  25.775,-53.546, 19.218
704819.37301, 3,   0.053,  9.770, -2.058, 4,   0.020,  0.046,  0.117, 5,  27.092,-54.224, 17.772
704819.39288, 3,   0.036,  9.679, -2.192, 4,   0.023,  0.064,  0.118, 5,  27.129,-52.803, 20.673
704819.41275, 3,   0.498,  9.677, -2.345, 4,   0.024,  0.069,  0.119, 5,  25.761,-54.260, 19.946
704819.43261, 3,   0.952,  9.782, -2.381, 4,   0.022,  0.058,  0.124, 5,  26.413,-54.958, 19.949
704819.45248, 3,   0.550,  9.686, -2.027, 4,   0.015,  0.023,  0.122, 5,  26.476,-52.101, 18.489
704819.47235, 3,   0.491,  9.636, -2.020, 4,   0.010,  0.004,  0.115, 5,  25.810,-52.121, 19.940
704819.49221, 3,   0.871,  9.686, -2.548, 4,   0.017,  0.033,  0.113, 5,  23.772,-53.595, 19.215
704819.51211, 3,   1.146,  9.698, -2.441, 4,   0.026,  0.052,  0.104, 5,  25.740,-54.970, 17.770
704819.53198, 3,   1.015,  9.698, -2.151, 4,   0.023,  0.064,  0.095, 5,  25.078,-54.991, 19.948
704819.55185, 3,   0.876,  9.643, -2.374, 4,   0.016,  0.074,  0.089, 5,  25.125,-52.849, 19.217
704819.57168, 3,   0.727,  9.540, -2.649, 4,   0.015,  0.047,  0.076, 5,  25.108,-53.563, 19.218
704819.59155, 3,   0.955,  9.389, -2.501, 4,   0.010,  0.023,  0.064, 5,  24.408,-55.005, 19.221
704819.61142, 3,   0.050, 10.136, -0.416, 4,  -0.005,  0.069,  0.051, 5,  23.740,-55.022, 19.220
704819.63128, 3,   1.223,  9.540, -3.139, 4,  -0.005,  0.130,  0.047, 5,  25.775,-53.546, 19.218
704819.65115, 3,   0.668,  9.543, -3.352, 4,   0.035, -0.054,  0.047, 5,  24.442,-53.580, 19.942
704819.67102, 3,   0.029,  9.693, -1.905, 4,   0.033, -0.008,  0.041, 5,  24.442,-53.580, 19.942
704819.69088, 3,   0.053,  9.808, -1.685, 4,  -0.002,  0.086,  0.029, 5,  24.442,-53.580, 19.942
704819.71075, 3,   0.471,  9.701, -2.558, 4,  -0.007,  0.042,  0.036, 5,  24.442,-53.580, 19.942
704819.73062, 3,  -0.043,  9.602, -2.658, 4,   0.009, -0.036,  0.047, 5,  25.127,-52.850, 19.942
704819.75048, 3,  -0.337,  9.681, -2.197, 4,   0.013, -0.003,  0.051, 5,  24.408,-55.005, 19.221
704819.76974, 3,  -0.012,  9.748, -2.185, 4,   0.004,  0.035,  0.058, 5,  25.743,-54.973, 19.223
704819.79019, 3,  -0.237,  9.598, -2.343, 4,   0.004,  0.023,  0.073, 5,  25.078,-54.991, 19.948
704819.81008, 3,  -1.213,  9.832, -1.574, 4,   0.011,  0.018,  0.086, 5,  25.110,-53.564, 19.943
704819.82995, 3,  -0.318,  9.765, -3.541, 4,   0.020,  0.018,  0.104, 5,  24.442,-53.581, 20.670
704819.84982, 3,  -0.031,  9.394, -2.539, 4,   0.032, -0.066,  0.134, 5,  24.440,-53.578, 19.217
704819.86969, 3,   0.440,  9.399, -1.572, 4,   0.005,  0.012,  0.159, 5,  24.390,-55.716, 18.495
704819.88955, 3,   0.617,  9.868, -2.946, 4,  -0.011,  0.022,  0.167, 5,  24.442,-53.581, 20.670
704819.90942, 3,   0.124,  9.495, -3.374, 4,   0.013,  0.003,  0.178, 5,  23.758,-54.309, 19.943
704819.92929, 3,   0.952,  9.129, -2.912, 4,   0.022,  0.096,  0.189, 5,  24.457,-52.864, 19.215
704819.94915, 3,   0.869,  9.720, -2.656, 4,   0.006,  0.180,  0.186, 5,  24.426,-54.292, 19.945
704819.96899, 3,   1.579,  9.473, -2.838, 4,  -0.002,  0.246,  0.174, 5,  23.103,-53.609, 18.488
704819.98886, 3,   2.400,  9.361, -2.816, 4,   0.002,  0.265,  0.173, 5,  22.421,-54.340, 19.217
704820.00872, 3,   3.072,  9.490, -3.479, 4,   0.012,  0.307,  0.167, 5,  25.093,-54.276, 19.221
704820.02859, 3,   2.414,  9.425, -3.185, 4,   0.018,  0.424,  0.134, 5,  23.074,-55.040, 20.673
704820.04846, 3,   2.079,  9.433, -2.675, 4,   0.015,  0.535,  0.087, 5,  22.388,-55.766, 19.220
704820.06832, 3,   2.170,  9.535, -2.460, 4,   0.007,  0.558,  0.065, 5,  22.386,-55.765, 18.492
704820.08822, 3,   2.084,  8.858, -1.752, 4,   0.010,  0.543,  0.052, 5,  21.754,-54.356, 19.215
704820.10809, 3,   2.082, 10.746, -4.415, 4,   0.020,  0.542,  0.021, 5,  23.074,-55.038, 19.945
704820.12796, 3,   2.572,  8.880, -2.579, 4,   0.046,  0.543, -0.013, 5,  21.107,-53.668, 22.842
704820.14782, 3,   1.840,  9.162, -2.443, 4,   0.023,  0.487, -0.019, 5,  21.722,-55.786, 20.671
704820.16766, 3,   1.479,  9.385, -1.967, 4,   0.007,  0.519, -0.040, 5,  21.742,-55.077, 22.121
704820.18753, 3,   1.153, 10.102, -2.721, 4,   0.000,  0.591, -0.068, 5,  21.739,-55.074, 20.670
704820.20739, 3,   0.933,  9.660, -2.560, 4,   0.016,  0.657, -0.075, 5,  22.426,-54.346, 22.121
704820.22726, 3,   0.421,  9.471, -2.249, 4,   0.022,  0.652, -0.075, 5,  22.408,-55.058, 21.397
704820.24713, 3,   0.349,  9.581, -2.747, 4,   0.029,  0.584, -0.075, 5,  19.089,-54.427, 22.115
704820.26699, 3,   0.167,  9.521, -2.658, 4,   0.033,  0.493, -0.068, 5,  21.759,-54.362, 22.119
704820.28686, 3,   0.196,  9.693, -2.891, 4,   0.032,  0.408, -0.054, 5,  21.773,-53.648, 21.391
704820.30673, 3,   0.584,  9.562, -2.472, 4,   0.022,  0.353, -0.036, 5,  19.788,-52.988, 22.839
704820.32659, 3,   1.065,  9.423, -2.802, 4,   0.016,  0.355, -0.015, 5,  21.725,-55.792, 22.850
704820.34646, 3,   0.301,  9.593, -2.625, 4,   0.011,  0.424, -0.004, 5,  21.111,-53.673, 25.021
704820.36630, 3,   0.220,  9.679, -2.352, 4,   0.009,  0.542, -0.003, 5,  21.109,-53.670, 23.567
704820.38620, 3,   0.424,  9.763, -2.424, 4,   0.002,  0.557,  0.009, 5,  19.771,-53.699, 22.113
704820.40606, 3,   1.484,  9.243, -2.398, 4,   0.009,  0.487,  0.028, 5,  20.390,-55.824, 22.849
704820.42593, 3,   2.280,  9.200, -2.713, 4,   0.013,  0.398,  0.040, 5,  21.109,-53.670, 23.567
704820.44580, 3,   2.158,  9.502, -2.383, 4,   0.018,  0.361,  0.036, 5,  20.427,-54.401, 24.298
704820.46566, 3,   2.170,  9.727, -2.692, 4,   0.017,  0.373,  0.023, 5,  19.772,-53.703, 23.566
704820.48553, 3,   1.955,  9.837, -2.771, 4,   0.018,  0.409,  0.012, 5,  21.078,-55.098, 24.300
704820.50540, 3,   1.737,  9.581, -2.309, 4,   0.022,  0.463, -0.007, 5,  19.073,-55.145, 23.569
704820.52526, 3,   1.644,  9.236, -2.161, 4,   0.017,  0.460, -0.029, 5,  18.457,-53.026, 25.742
704820.54513, 3,   1.058,  9.421, -2.481, 4,   0.022,  0.453, -0.040, 5,  19.759,-54.419, 25.023
704820.56497, 3,   0.323,  9.916, -2.414, 4,   0.031,  0.437, -0.041, 5,  19.107,-53.722, 25.018
704820.58483, 3,   0.050,  9.696, -2.601, 4,   0.034,  0.398, -0.036, 5,  19.725,-55.844, 24.300
704820.60470, 3,   0.730,  9.181, -2.510, 4,   0.034,  0.367, -0.018, 5,  19.075,-55.148, 25.023
704820.62457, 3,   0.802,  9.619, -2.788, 4,   0.032,  0.369,  0.004, 5,  19.093,-54.436, 25.746
704820.64444, 3,   0.708,  9.447, -2.520, 4,   0.017,  0.393,  0.008, 5,  19.092,-54.433, 24.295
704820.66433, 3,   0.775,  9.476, -2.713, 4,   0.002,  0.402,  0.019, 5,  19.777,-53.709, 26.472
704820.68420, 3,   1.038,  9.612, -2.606, 4,  -0.004,  0.393,  0.040, 5,  18.407,-55.165, 25.023
704820.70407, 3,   1.309,  9.602, -2.005, 4,  -0.007,  0.373,  0.048, 5,  17.088,-54.483, 25.018
704820.72393, 3,   1.455,  9.641, -2.333, 4,  -0.004,  0.381,  0.051, 5,  18.411,-55.173, 27.928
704820.74380, 3,   1.373,  8.992, -2.989, 4,   0.013,  0.438,  0.053, 5,  18.393,-55.881, 26.477
704820.76364, 3,   1.716,  9.054, -3.113, 4,   0.029,  0.503,  0.058, 5,  19.110,-53.725, 26.471
704820.78350, 3,   1.948,  9.732, -2.529, 4,   0.021,  0.524,  0.062, 5,  18.427,-54.454, 26.474
704820.80337, 3,   1.936,  8.956, -1.857, 4,  -0.002,  0.520,  0.048, 5,  17.108,-53.778, 27.921
704820.82324, 3,   1.730,  9.404, -2.065, 4,  -0.020,  0.522,  0.026, 5,  15.109,-53.831, 30.096
704820.84310, 3,   2.450,  9.428, -2.029, 4,   0.004,  0.527,  0.035, 5,  17.743,-55.190, 27.927
704820.86297, 3,   3.051, 10.461, -2.508, 4,   0.018,  0.430,  0.026, 5,  17.743,-55.190, 27.927
704820.88284, 3,   3.068,  9.488, -2.075, 4,   0.037,  0.327,  0.006, 5,  16.443,-53.796, 28.644
704820.90271, 3,   2.398,  8.430, -1.024, 4,   0.037,  0.288, -0.020, 5,  17.761,-54.477, 28.650
704820.92257, 3,   2.194, 10.007, -1.680, 4,   0.026,  0.304, -0.053, 5,  17.763,-54.478, 29.376
704820.94247, 3,   2.187,  9.495, -1.723, 4,   0.035,  0.318, -0.067, 5,  17.126,-53.065, 28.644
704820.96234, 3,   2.924,  9.014, -1.823, 4,   0.034,  0.259, -0.068, 5,  16.426,-54.504, 27.194
704820.98217, 3,   2.692,  7.542, -0.998, 4,   0.022,  0.183, -0.078, 5,  16.460,-53.082, 28.642
704821.00204, 3,   1.500, 11.454, -3.441, 4,   0.012,  0.184, -0.098, 5,  16.443,-53.796, 28.644
704821.02191, 3,   0.474, 14.749, -1.546, 4,   0.020,  0.250, -0.128, 5,  15.773,-53.810, 27.919
704821.04177, 3,   1.058,  8.052,  1.708, 4,  -0.011,  0.289, -0.120, 5,  17.079,-55.208, 29.376
704821.06164, 3,   0.725,  8.550,  0.187, 4,  -0.084,  0.244, -0.078, 5,  17.078,-55.206, 28.650
704821.08151, 3,   1.732, 10.227, -1.405, 4,   0.005,  0.238, -0.079, 5,  16.460,-53.082, 28.642
704821.10138, 3,   3.127,  9.074, -2.694, 4,   0.081,  0.179, -0.091, 5,  17.096,-54.494, 29.375
704821.12124, 3,   2.438,  9.657, -3.852, 4,   0.120,  0.195, -0.041, 5,  17.157,-51.634, 27.188
704821.14111, 3,   0.826,  9.126, -3.929, 4,   0.112,  0.318, -0.058, 5,  17.110,-53.780, 28.645
704821.16095, 3,   0.979,  9.090, -2.812, 4,   0.060,  0.419, -0.103, 5,  17.128,-53.067, 29.370
704821.18081, 3,   2.804,  8.894, -1.082, 4,   0.004,  0.281, -0.103, 5,  16.393,-55.931, 27.197
704821.20068, 3,   3.190,  9.610, -1.842, 4,  -0.011,  0.211, -0.073, 5,  16.460,-53.082, 28.642
704821.22055, 3,   1.914,  9.102, -3.383, 4,   0.042,  0.312, -0.075, 5,  17.128,-53.067, 29.370
704821.24044, 3,   0.605,  8.739, -4.656, 4,   0.117,  0.463, -0.114, 5,  17.827,-51.625, 29.369
704821.26031, 3,   1.359,  9.485, -4.824, 4,   0.149,  0.502, -0.135, 5,  18.460,-53.029, 27.194
704821.28018, 3,   2.776,  8.686, -5.001, 4,   0.128,  0.431, -0.124, 5,  17.110,-53.780, 28.645
704821.30004, 3,   1.381,  9.076, -2.517, 4,   0.095,  0.288, -0.142, 5,  17.110,-53.780, 28.645
704821.31991, 3,   2.453,  9.720, -3.936, 4,   0.060,  0.250, -0.189, 5,  15.808,-52.385, 28.641
704821.33978, 3,   0.388,  9.102, -2.321, 4,   0.048,  0.250, -0.202, 5,  17.854,-50.191, 25.732
704821.35965, 3,   0.407,  9.385, -3.082, 4,   0.049,  0.177, -0.209, 5,  18.462,-53.033, 28.647
704821.37948, 3,   0.270,  8.765, -2.632, 4,   0.042,  0.156, -0.206, 5,  17.822,-51.617, 26.465
704821.39935, 3,   0.165,  9.827, -3.529, 4,   0.061,  0.157, -0.185, 5,  17.793,-53.050, 28.645
704821.41922, 3,   0.493, 10.169, -3.704, 4,   0.077,  0.183, -0.169, 5,  18.492,-51.605, 27.919
704821.43908, 3,   0.610,  9.145, -3.953, 4,   0.087,  0.116, -0.154, 5,  18.491,-51.601, 26.466
704821.45895, 3,   1.065,  9.535, -4.144, 4,   0.067,  0.047, -0.152, 5,  18.480,-52.322, 29.372
704821.47882, 3,   0.364,  9.818, -1.996, 4,   0.040,  0.036, -0.152, 5,  17.812,-52.341, 30.098
704821.49868, 3,   0.022, 10.981, -2.087, 4,   0.012,  0.066, -0.142, 5,  19.179,-50.877, 28.642
704821.51858, 3,  -0.543,  9.203, -1.625, 4,   0.016,  0.036, -0.129, 5,  18.495,-51.608, 29.370
704821.53845, 3,  -0.577,  7.616, -3.206, 4,   0.035, -0.052, -0.113, 5,  17.812,-52.339, 29.370
704821.55831, 3,   1.256,  8.667, -5.410, 4,   0.061, -0.197, -0.082, 5,  17.844,-50.912, 29.367
704821.57815, 3,   1.498,  9.890, -3.479, 4,   0.053, -0.346, -0.051, 5,  19.148,-52.307, 30.099
704821.59802, 3,   0.129, 10.746, -2.142, 4,  -0.016, -0.340, -0.037, 5,  18.544,-49.471, 29.364
704821.61789, 3,  -0.110, 11.457, -1.383, 4,  -0.067, -0.176, -0.032, 5,  18.512,-50.896, 29.369
704821.63775, 3,  -0.065,  8.119, -0.132, 4,  -0.070, -0.147, -0.016, 5,  20.515,-50.848, 30.099
704821.65762, 3,   1.572,  8.798, -2.965, 4,  -0.065, -0.292, -0.007, 5,  20.515,-50.848, 30.099
704821.67749, 3,   2.091,  8.356, -3.680, 4,  -0.013, -0.450,  0.032, 5,  19.197,-50.166, 29.366
704821.69735, 3,   2.204,  9.758, -3.166, 4,  -0.002, -0.573,  0.047, 5,  19.864,-50.151, 29.367
704821.71722, 3,   2.264, 10.727, -2.752, 4,  -0.034, -0.644,  0.040, 5,  18.544,-49.471, 29.364
704821.73706, 3,   2.343,  8.621, -2.127, 4,  -0.071, -0.578,  0.037, 5,  19.864,-50.151, 29.367
704821.75692, 3,   1.661,  7.959, -2.266, 4,  -0.082, -0.408,  0.023, 5,  21.184,-50.830, 29.372
704821.77679, 3,   2.544,  9.040, -2.137, 4,  -0.051, -0.250,  0.001, 5,  18.494,-51.607, 28.644
704821.79666, 3,   2.766,  9.294, -2.221, 4,  -0.043, -0.190, -0.013, 5,  20.581,-47.995, 29.364
704821.81655, 3,   2.343,  9.404, -1.888, 4,  -0.033, -0.149, -0.030
704821.83642, 3,   2.661, 11.100, -7.222, 4,  -0.013, -0.121, -0.051, 5,  19.179,-50.877, 28.642
704821.85629, 3,  -0.261, 12.672, -5.425, 4,   0.033, -0.065, -0.063, 5,  21.184,-50.830, 29.372
704821.87616, 3,  -0.057,  8.372,  2.960, 4,  -0.049, -0.075, -0.082, 5,  20.515,-50.847, 29.372
704821.89602, 3,  -0.179,  7.339,  4.403, 4,  -0.292, -0.283, -0.070, 5,  20.561,-48.705, 27.914
704821.91589, 3,  -0.948,  7.743,  0.368, 4,  -0.233, -0.302, -0.015, 5,  21.867,-50.102, 29.370
704821.93576, 3,   1.216, 10.306, -4.336, 4,  -0.068, -0.269, -0.032, 5,  21.213,-49.402, 27.916
704821.95562, 3,   3.051, 12.462, -7.693, 4,   0.090, -0.255, -0.008, 5,  21.896,-48.672, 27.916
704821.97546, 3,   4.621,  9.021, -1.883, 4,   0.070, -0.395,  0.019, 5,  20.532,-50.136, 30.096
704821.99533, 3,   2.943,  7.932, -1.393, 4,  -0.077, -0.485,  0.009, 5,  22.531,-50.082, 27.921
704822.01519, 3,   1.094,  9.837, -1.838, 4,  -0.125, -0.294, -0.040, 5,  23.212,-49.347, 25.740
704822.03506, 3,   1.931, 10.555, -3.288, 4,  -0.077, -0.091, -0.089, 5,  21.863,-50.095, 26.466
704822.05493, 3,   3.022,  9.172, -2.821, 4,  -0.026, -0.079, -0.108, 5,  21.860,-50.092, 25.014
704822.07479, 3,   2.419,  8.734, -3.742, 4,   0.005, -0.079, -0.133, 5,  20.576,-47.987, 26.460
704822.09469, 3,   0.632,  9.665, -4.568, 4,   0.028, -0.031, -0.168, 5,  21.860,-50.092, 25.014
704822.11456, 3,  -0.694,  9.547, -4.041, 4,   0.040,  0.080, -0.194, 5,  21.194,-50.108, 25.737
704822.13443, 3,  -0.957, 10.162, -2.017, 4,  -0.010,  0.056, -0.194, 5,  23.247,-47.922, 26.465
704822.15429, 3,  -0.682,  6.719,  0.311, 4,  -0.052, -0.054, -0.162, 5,  22.575,-47.935, 25.011
704822.17413, 3,  -0.431,  9.334, -3.773, 4,  -0.071, -0.208, -0.153, 5,  22.560,-48.650, 25.737
704822.19400, 3,   0.565, 11.019, -4.733, 4,   0.017, -0.383, -0.130, 5,  23.210,-49.345, 25.015
704822.21386, 3,   1.211, 14.563, -3.678, 4,   0.059, -0.473, -0.091, 5,  25.151,-52.151, 25.751
704822.23373, 3,   0.505,  9.717, -1.364, 4,   0.040, -0.444, -0.058, 5,  25.870,-49.998, 27.197
704822.25360, 3,   0.589,  8.377,  0.065, 4,  -0.041, -0.427, -0.074, 5,  23.210,-49.344, 24.289
704822.27346, 3,   0.988, 12.160, -1.601, 4,  -0.055, -0.494, -0.070, 5,  23.915,-47.908, 27.190
704822.29333, 3,   2.919, 10.921,  0.012, 4,  -0.013, -0.556, -0.051, 5,  23.911,-47.902, 24.286
704822.31320, 3,   2.177,  5.743, -3.075, 4,   0.024, -0.580, -0.053, 5,  22.574,-47.932, 23.557
704822.33306, 3,   0.581, 11.670, -7.167, 4,   0.095, -0.598, -0.085, 5,  25.278,-46.442, 23.557
704822.35293, 3,   0.682, 10.177, -4.290, 4,   0.123, -0.658, -0.133, 5,  23.958,-45.760, 23.552
704822.37280, 3,  -0.062, 10.311, -0.936, 4,   0.018, -0.735, -0.112, 5,  24.626,-45.743, 23.553
704822.39267, 3,   0.110,  8.851,  1.007, 4,  -0.052, -0.722, -0.037, 5,  24.576,-47.882, 22.835
704822.41253, 3,  -0.215, 10.335, -1.835, 4,  -0.051, -0.810, -0.056, 5,  25.294,-45.728, 23.555
704822.43240, 3,  -0.653,  9.251, -1.407, 4,   0.068, -0.804, -0.091, 5,  25.327,-44.301, 23.552
704822.45227, 3,  -1.129, 11.253, -4.599, 4,   0.167, -0.611, -0.043, 5,  26.599,-47.122, 24.289
704822.47213, 3,   0.112,  9.504, -4.058, 4,   0.231, -0.424,  0.007, 5,  26.648,-44.983, 24.283
704822.49200, 3,   1.539,  7.423, -3.668, 4,   0.204, -0.313,  0.029, 5,  24.625,-45.741, 22.829
704822.51187, 3,   1.156,  7.425, -4.838, 4,   0.154, -0.266,  0.046, 5,  26.660,-44.263, 22.101
704822.53173, 3,   0.761, 11.100, -5.901, 4,   0.143, -0.193,  0.020, 5,  25.327,-44.301, 23.552
704822.55160, 3,   2.252, 11.043, -1.768, 4,   0.137, -0.140,  0.007, 5,  25.296,-45.729, 24.283
704822.57147, 3,   3.393,  8.600, -0.737, 4,   0.081, -0.134, -0.005, 5,  26.012,-43.573, 24.278
704822.59130, 3,   1.254,  8.562, -4.838, 4,   0.062, -0.104, -0.046, 5,  26.630,-45.694, 23.557
704822.61117, 3,   0.179,  9.246, -3.364, 4,   0.136, -0.063, -0.115, 5,  24.609,-46.457, 23.555
704822.63104, 3,   0.938,  7.880, -3.661, 4,   0.147, -0.004, -0.151, 5,  25.325,-44.299, 22.827
704822.65091, 3,   2.484, 10.189, -3.800, 4,   0.089, -0.107, -0.151, 5,  26.611,-46.404, 22.105
704822.67080, 3,   2.398,  9.856, -1.311, 4,   0.050, -0.278, -0.164, 5,  25.978,-44.998, 23.553
704822.69067, 3,   1.318,  8.145, -0.098, 4,   0.007, -0.311, -0.186, 5,  27.362,-42.825, 23.552
704822.71054, 3,   0.002, 13.893, -3.527, 4,   0.040, -0.283, -0.205, 5,  28.662,-44.217, 22.832
704822.73040, 3,   0.002,  6.544, -1.395, 4,   0.160, -0.277, -0.231, 5,  25.992,-44.279, 22.099
704822.75027, 3,  -0.553,  7.619, -3.977, 4,   0.156, -0.215, -0.260, 5,  27.379,-42.114, 24.277
704822.77011, 3,  -0.890, 13.031, -9.839, 4,   0.166, -0.196, -0.278, 5,  29.317,-44.917, 23.560
704822.78997, 3,  -2.737, 13.452, -5.147, 4,   0.153, -0.146, -0.255, 5,  29.314,-44.911, 21.382
704822.80984, 3,  -1.680,  6.980,  2.582, 4,   0.022, -0.113, -0.200, 5,  29.330,-44.202, 22.833
704822.82971, 3,  -1.673,  8.064,  2.388, 4,  -0.188, -0.241, -0.136, 5,  26.709,-42.123, 22.095
704822.84957, 3,  -1.804, 11.072, -0.014, 4,  -0.100, -0.542, -0.129, 5,  26.707,-42.122, 21.370
704822.86944, 3,  -1.546, 11.285, -5.743, 4,   0.092, -0.765, -0.123, 5,  25.391,-41.443, 22.092
704822.88931, 3,  -1.914,  8.356, -4.676, 4,   0.172, -0.983, -0.084, 5,  26.677,-43.550, 22.099
704822.90918, 3,  -1.103,  9.306, -3.781, 4,   0.123, -1.078, -0.037, 5,  27.374,-42.107, 21.371
704822.92904, 3,  -0.675,  9.444, -1.211, 4,   0.017, -1.069,  0.050, 5,  28.073,-40.660, 20.644
704822.94894, 3,  -1.608, 10.213,  0.457, 4,  -0.056, -0.924,  0.095, 5,  28.107,-39.235, 21.367
704822.96881, 3,   1.596, 10.248, -1.067, 4,  -0.029, -0.738,  0.104, 5,  27.390,-41.391, 20.644
704822.98864, 3,   3.233,  9.995, -3.149, 4,   0.057, -0.622,  0.122, 5,  27.376,-42.108, 22.096
704823.00851, 3,   2.436,  8.806, -4.063, 4,   0.122, -0.394,  0.120, 5,  28.041,-42.090, 21.373
704823.02838, 3,   1.567,  9.260, -5.886, 4,   0.137, -0.020,  0.059, 5,  27.361,-42.821, 22.099
704823.04824, 3,   0.565, 10.256, -1.675, 4,   0.089,  0.263,  0.012, 5,  27.342,-43.533, 21.376
704823.06811, 3,  -1.962,  9.251,  0.837, 4,  -0.016,  0.316, -0.010, 5,  26.057,-41.426, 22.092
704823.08798, 3,   0.943, 12.019, -0.644, 4,  -0.081,  0.144, -0.046, 5,  26.709,-42.123, 22.095
704823.10784, 3,   1.218, 10.339,  0.110, 4,  -0.018, -0.178, -0.057, 5,  27.357,-42.818, 20.648
704823.12771, 3,   0.639,  7.054, -0.665, 4,  -0.059, -0.379, -0.057, 5,  26.056,-41.425, 21.367
704823.14758, 3,  -0.306,  9.124, -4.245, 4,  -0.049, -0.350, -0.067, 5,  26.688,-42.828, 18.466
704823.16745, 3,  -1.531,  9.710, -4.561, 4,   0.048, -0.222, -0.079, 5,  26.688,-42.828, 18.466
704823.18728, 3,  -1.050, 10.784, -4.381, 4,   0.029, -0.181, -0.079, 5,  26.688,-42.828, 18.466
704823.20715, 3,  -3.367, 11.411, -2.106, 4,  -0.051, -0.295, -0.052, 5,  26.688,-42.828, 18.466
704823.22702, 3,  -2.699,  9.629,  2.043, 4,  -0.138, -0.434, -0.047, 5,  26.054,-41.422, 19.913
704823.24691, 3,   0.316,  9.789,  0.105, 4,  -0.137, -0.599,  0.025, 5,  27.455,-38.538, 20.636
704823.26678, 3,  -0.117,  9.229, -3.302, 4,  -0.018, -0.703,  0.069, 5,  26.070,-40.706, 19.186
704823.28665, 3,  -1.842,  9.894, -4.623, 4,   0.127, -0.583,  0.020, 5,  27.423,-39.964, 20.641
704823.30651, 3,  -1.440,  8.841, -3.922, 4,   0.153, -0.372, -0.005, 5,  27.420,-39.960, 18.460
704823.32638, 3,  -0.096,  9.258, -3.242, 4,   0.092, -0.206,  0.036, 5,  26.038,-42.137, 20.642
704823.34625, 3,   0.294, 10.009, -2.917, 4,   0.055, -0.074,  0.090, 5,  26.772,-39.264, 19.910
704823.36612, 3,  -0.964,  8.703, -2.654, 4,   0.051, -0.038,  0.082, 5,  26.070,-40.706, 19.186
704823.38595, 3,  -0.682,  9.327, -3.084, 4,   0.056, -0.109,  0.045, 5,  26.723,-41.405, 19.914
704823.40582, 3,  -0.038,  9.406, -3.412, 4,   0.065, -0.180,  0.026, 5,  27.388,-41.388, 19.191
704823.42569, 3,  -1.094,  8.722, -2.778, 4,   0.060, -0.184,  0.035, 5,  28.075,-40.662, 21.370
704823.44555, 3,  -0.919, 10.148, -2.527, 4,   0.038, -0.181,  0.039, 5,  27.373,-42.105, 20.645
704823.46542, 3,   0.622, 10.768, -2.603, 4,   0.026, -0.273,  0.026, 5,  27.423,-39.963, 19.913
704823.48529, 3,   1.077,  9.112, -1.201, 4,   0.005, -0.383,  0.029, 5,  28.053,-41.370, 18.465
704823.50515, 3,   0.045,  8.703, -2.299, 4,  -0.001, -0.429,  0.017, 5,  27.422,-39.961, 19.188
704823.52505, 3,  -0.053, 11.749, -3.293, 4,   0.032, -0.472, -0.012, 5,  28.052,-41.368, 17.740
704823.54492, 3,  -0.316,  7.403, -2.182, 4,   0.038, -0.572, -0.023, 5,  27.419,-39.958, 17.735
704823.56475, 3,  -1.304, 10.323, -3.484, 4,  -0.013, -0.702, -0.021, 5,  27.353,-42.812, 17.743
704823.58465, 3,  -2.902, 10.220, -1.400, 4,  -0.010, -0.775, -0.016, 5,  28.053,-41.370, 18.465
704823.60449, 3,  -2.192, 10.942, -0.285, 4,  -0.049, -0.777,  0.034, 5,  28.737,-40.634, 17.012
704823.62435, 3,  -1.189, 11.486,  0.543, 4,  -0.073, -0.854,  0.086, 5,  28.767,-39.206, 16.283
704823.64422, 3,  -0.790,  9.937,  0.517, 4,  -0.024, -0.931,  0.122, 5,  28.064,-40.645, 14.107
704823.66409, 3,  -1.632, 10.406, -2.032, 4,   0.066, -0.812,  0.122, 5,  28.697,-42.055, 13.383
704823.68396, 3,  -1.697,  9.002, -3.046, 4,   0.156, -0.532,  0.146, 5,  28.049,-41.362, 15.561
704823.70382, 3,  -1.689,  9.031, -1.732, 4,   0.156, -0.231,  0.191, 5,  27.415,-39.951, 14.828
704823.72369, 3,  -0.409,  9.677, -1.050, 4,   0.076,  0.002,  0.203, 5,  28.047,-41.359, 14.108
704823.74356, 3,   0.282,  8.956, -1.601, 4,   0.028,  0.178,  0.208, 5,  26.752,-39.970, 17.007
704823.76281, 3,   0.687,  9.212, -2.936, 4,   0.045,  0.369,  0.206, 5,  27.385,-41.382, 17.012
704823.78326, 3,   1.074,  9.234, -3.845, 4,   0.083,  0.511,  0.174, 5,  27.350,-42.805, 15.564
704823.80313, 3,   0.778,  8.631, -3.450, 4,   0.078,  0.544,  0.136, 5,  27.368,-42.096, 17.014
704823.82302, 3,   0.404,  4.767, -3.977, 4,   0.031,  0.519,  0.101, 5,  26.047,-41.411, 15.556
704823.84289, 3,  -0.780,  8.975, -7.212, 4,  -0.017,  0.466,  0.076, 5,  26.065,-40.698, 16.281
704823.86276, 3,  -1.371, 12.215, -3.549, 4,  -0.054,  0.350,  0.037, 5,  26.733,-40.681, 16.283
704823.88263, 3,  -0.622, 13.859,  1.883, 4,  -0.198,  0.230,  0.042, 5,  26.048,-41.412, 16.283
704823.90249, 3,   1.565, 11.476,  4.530, 4,  -0.327,  0.019,  0.042, 5,  24.709,-41.438, 13.376
704823.92236, 3,   1.768, 11.294,  2.216, 4,  -0.268, -0.269,  0.045, 5,  25.397,-40.714, 15.555
704823.94223, 3,   0.450,  9.641, -2.735, 4,  -0.066, -0.416, -0.001, 5,  26.015,-42.838, 15.561
704823.96209, 3,   0.294,  8.380, -6.817, 4,   0.095, -0.412, -0.059, 5,  25.380,-41.428, 15.556
704823.98196, 3,  -0.672,  9.976, -6.631, 4,   0.106, -0.316, -0.053, 5,  24.727,-40.726, 14.101
704824.00180, 3,  -1.953,  9.366, -1.790, 4,  -0.051, -0.273, -0.037, 5,  27.380,-41.376, 14.107
704824.02166, 3,  -1.213,  8.700, -0.340, 4,  -0.219, -0.402, -0.024, 5,  26.065,-40.698, 16.281
704824.04153, 3,   0.383,  9.925, -1.354, 4,  -0.249, -0.667,  0.012, 5,  25.395,-40.710, 14.102
704824.06140, 3,   1.328, 10.627,  0.026, 4,  -0.172, -0.886,  0.031, 5,  24.057,-40.739, 12.646
704824.08126, 3,  -0.500,  9.344, -0.053, 4,  -0.138, -0.950, -0.018, 5,  25.375,-41.418, 11.925
704824.10116, 3,  -0.333,  9.913, -2.706, 4,  -0.087, -0.883, -0.041, 5,  25.377,-41.422, 12.651
704824.12103, 3,  -1.371,  9.605, -3.589, 4,   0.018, -0.806, -0.034, 5,  26.059,-40.688, 11.923
704824.14090, 3,  -1.615,  9.129, -3.185, 4,   0.037, -0.737, -0.029, 5,  26.743,-39.957, 11.195
704824.16076, 3,  -1.857, 10.672, -5.001, 4,   0.034, -0.707,  0.003, 5,  26.039,-41.397,  9.746
704824.18060, 3,  -0.103,  8.947, -3.288, 4,   0.022, -0.765,  0.054, 5,  25.391,-40.701, 10.471
704824.20047, 3,  -0.799,  9.172, -2.022, 4,  -0.026, -0.979,  0.079, 5,  26.071,-39.969,  9.016
704824.22033, 3,  -0.684, 10.880, -1.445, 4,  -0.081, -1.215,  0.078, 5,  24.684,-42.139,  7.567
704824.24020, 3,   0.206,  8.952, -0.672, 4,  -0.063, -1.410,  0.068, 5,  24.734,-39.999,  8.289
704824.26007, 3,   0.089,  9.763, -1.799, 4,  -0.041, -1.467,  0.084, 5,  24.686,-42.142,  9.019
704824.27993, 3,  -0.335,  9.870, -1.754, 4,   0.042, -1.368,  0.050, 5,  26.051,-40.675,  6.839
704824.29980, 3,  -0.251,  8.289, -0.598, 4,   0.077, -1.188,  0.040, 5,  22.678,-42.183,  6.111
704824.31967, 3,  -0.613,  9.765, -1.948, 4,   0.082, -1.047,  0.065, 5,  23.361,-41.449,  4.659
704824.33953, 3,  -1.417,  9.497, -1.768, 4,   0.094, -0.981,  0.097, 5,  24.664,-42.844,  4.665
704824.35940, 3,  -1.328,  8.607, -0.730, 4,   0.084, -0.968,  0.126, 5,  26.064,-39.955,  3.206
704824.37930, 3,  -1.474,  9.899, -0.227, 4,   0.040, -1.001,  0.129, 5,  24.026,-41.431,  3.206
704824.39914, 3,  -1.871, 10.076, -0.096, 4,   0.031, -1.040,  0.137, 5,  24.043,-40.717,  3.204
704824.41900, 3,  -2.221, 10.837, -0.392, 4,   0.046, -1.018,  0.150, 5,  24.695,-41.415,  3.934
704824.43887, 3,  -2.199, 10.497, -0.022, 4,   0.089, -0.881,  0.177, 5,  25.362,-41.397,  2.483
704824.45874, 3,  -1.125, 10.174, -0.806, 4,   0.123, -0.621,  0.211, 5,  23.993,-42.856,  2.484
704824.47860, 3,  -0.400,  8.243, -0.601, 4,   0.166, -0.319,  0.223, 5,  25.327,-42.818,  0.308
704824.49847, 3,  -1.137,  7.631, -3.740, 4,   0.225, -0.044,  0.217, 5,  22.672,-42.172,  1.753
704824.51834, 3,  -1.799,  7.920, -7.023, 4,   0.362,  0.243,  0.192, 5,  23.994,-42.857,  3.210
704824.53820, 3,  -2.429, 10.842, -8.083, 4,   0.477,  0.574,  0.195, 5,  22.008,-42.195,  3.931
704824.55807, 3,   0.005, 10.701, -4.238, 4,   0.419,  0.885,  0.217, 5,  22.662,-42.896,  6.114
704824.57794, 3,   1.649,  9.732, -0.273, 4,   0.180,  1.031,  0.214, 5,  24.010,-42.145,  3.207
704824.59777, 3,   1.960, 10.497,  0.811, 4,   0.026,  1.078,  0.195, 5,  23.329,-42.876,  4.663
704824.61764, 3,   0.522,  8.755, -0.148, 4,   0.021,  0.988,  0.107, 5,  24.666,-42.845,  5.391
704824.63751, 3,  -2.436,  9.263, -2.575, 4,   0.105,  0.779, -0.007, 5,  23.314,-43.591,  5.391
704824.65737, 3,  -3.991,  9.275, -4.714, 4,   0.197,  0.595, -0.069, 5,  23.314,-43.591,  5.391
704824.67727, 3,  -4.317,  9.026, -4.240, 4,   0.203,  0.424, -0.065, 5,  23.344,-42.163,  4.660
704824.69714, 3,  -4.484,  9.598, -2.041, 4,   0.105,  0.240, -0.020, 5,  22.662,-42.894,  5.388
704824.71701, 3,  -3.872, 10.342, -0.900, 4,   0.011,  0.061,  0.047, 5,  21.945,-45.050,  4.665
704824.73687, 3,  -2.637,  7.655, -1.409, 4,  -0.017, -0.193,  0.106, 5,  22.627,-44.319,  4.665
704824.75674, 3,  -0.048, 11.873, -2.412, 4,   0.015, -0.471,  0.155, 5,  24.010,-42.146,  3.934
704824.77658, 3,   0.074,  9.456, -2.701, 4,   0.065, -0.697,  0.196, 5,  22.614,-45.035,  5.392
704824.79644, 3,  -0.012,  9.387, -5.439, 4,   0.028, -0.765,  0.232, 5,  21.977,-43.623,  4.662
704824.81631, 3,  -0.538,  8.818, -3.415, 4,   0.121, -0.740,  0.223, 5,  23.312,-43.590,  4.665
704824.83618, 3,  -1.019,  7.578, -2.355, 4,   0.117, -0.603,  0.211, 5,  21.994,-42.909,  4.660
704824.85604, 3,   0.287,  9.801, -5.087, 4,   0.117, -0.470,  0.228, 5,  23.296,-44.302,  4.666
704824.87591, 3,   1.225, 10.729, -3.221, 4,   0.152, -0.344,  0.233, 5,  20.610,-45.082,  4.663
704824.89578, 3,   0.560,  9.361, -1.256, 4,   0.097, -0.099,  0.236, 5,  23.296,-44.302,  4.666
704824.91565, 3,   0.574, 10.217, -1.338, 4,   0.049,  0.200,  0.216, 5,  21.931,-45.767,  6.845
704824.93551, 3,  -0.565, 11.974, -1.570, 4,   0.078,  0.483,  0.184, 5,  21.944,-45.049,  3.938
704824.95541, 3,  -1.725,  8.002,  0.407, 4,   0.090,  0.667,  0.168, 5,  21.944,-45.049,  3.938
704824.97525, 3,  -2.687,  7.662, -1.759, 4,   0.079,  0.709,  0.148, 5,  20.596,-45.799,  6.844
704824.99511, 3,  -2.644, 13.137, -5.271, 4,   0.125,  0.715,  0.119, 5,  21.246,-46.494,  5.392
704825.01498, 3,  -1.019,  9.392, -2.271, 4,   0.137,  0.737,  0.115, 5,  21.933,-45.770,  7.571
704825.03485, 3,   0.313,  9.112, -1.476, 4,   0.023,  0.712,  0.179, 5,  19.978,-43.680,  7.564
704825.05471, 3,  -0.388, 10.990, -2.613, 4,  -0.022,  0.667,  0.195
704825.07458, 3,   0.696,  7.186, -2.615, 4,   0.023,  0.614,  0.158, 5,  21.249,-46.501,  8.298
704825.09445, 3,   1.507,  9.811, -5.492, 4,   0.049,  0.504,  0.108, 5,  20.580,-46.513,  6.845
704825.11431, 3,   1.012,  8.308, -3.905, 4,   0.105,  0.521,  0.073, 5,  21.948,-45.055,  6.844
704825.13418, 3,   1.017,  9.023, -4.477, 4,   0.078,  0.659,  0.043, 5,  20.580,-46.513,  6.845
704825.15405, 3,   0.723, 10.308, -4.365, 4,   0.070,  0.769, -0.008, 5,  19.960,-44.389,  6.839
704825.17392, 3,   0.256,  9.074, -3.726, 4,   0.057,  0.819, -0.046, 5,  19.281,-45.125,  9.018
704825.19375, 3,   0.045,  9.830, -2.457, 4,   0.011,  0.827, -0.057, 5,  20.615,-45.091,  8.295
704825.21362, 3,  -1.555, 10.081, -1.455, 4,   0.009,  0.789, -0.084, 5,  20.599,-45.805,  9.023
704825.23349, 3,  -2.835,  9.782, -1.283, 4,  -0.012,  0.698, -0.129, 5,  20.615,-45.090,  7.568
704825.25338, 3,  -4.106,  8.786, -2.051, 4,   0.012,  0.575, -0.129, 5,  23.300,-44.312,  8.298
704825.27325, 3,  -4.812,  8.317, -4.070, 4,   0.040,  0.404, -0.090, 5,  21.234,-47.214,  8.301
704825.29312, 3,  -3.254,  9.949, -4.240, 4,   0.055,  0.251, -0.035, 5,  20.599,-45.805,  9.023
704825.31298, 3,  -2.570, 10.478, -2.924, 4,   0.024,  0.172,  0.046, 5,  20.584,-46.521,  9.750
704825.33285, 3,  -0.759,  9.074, -1.034, 4,  -0.055,  0.179,  0.118, 5,  20.601,-45.807,  9.749
704825.35272, 3,   0.723, 10.612, -1.993, 4,  -0.068,  0.222,  0.155, 5,  20.602,-45.810, 11.200
704825.37258, 3,   1.563, 10.447, -2.060, 4,  -0.015,  0.298,  0.166, 5,  19.948,-45.110,  9.019
704825.39242, 3,   1.228,  6.580, -2.264, 4,   0.023,  0.461,  0.147, 5,  19.235,-47.267, 10.477
704825.41229, 3,   2.032, 10.026, -4.798, 4,   0.043,  0.632,  0.112, 5,  19.934,-45.827, 11.198
704825.43216, 3,   1.201, 10.337, -2.838, 4,   0.066,  0.792,  0.069, 5,  19.917,-46.539, 10.475
704825.45202, 3,  -1.048, 10.031, -1.053, 4,  -0.012,  0.948,  0.020, 5,  18.568,-47.287, 11.929
704825.47189, 3,  -1.146, 10.880,  0.110, 4,  -0.074,  0.995, -0.008, 5,  20.638,-44.388, 12.651
704825.49176, 3,   0.261,  9.698, -0.660, 4,  -0.062,  0.834, -0.009, 5,  18.600,-45.860, 11.925
704825.51162, 3,   0.651, 10.114, -2.888, 4,  -0.022,  0.573, -0.016, 5,  18.585,-46.579, 13.379
704825.53152, 3,   0.287, 10.067, -2.871, 4,   0.032,  0.406, -0.010, 5,  18.602,-45.863, 12.651
704825.55139, 3,   0.179,  9.327, -1.196, 4,   0.005,  0.384, -0.021, 5,  18.582,-46.573, 11.198
704825.57125, 3,   1.395, 10.856, -2.058, 4,  -0.041,  0.381, -0.029, 5,  17.915,-46.591, 11.925
704825.59112, 3,   1.933,  9.102, -2.527, 4,  -0.033,  0.349, -0.032, 5,  17.932,-45.877, 11.923
704825.61096, 3,   0.706,  9.114, -2.321, 4,  -0.040,  0.343, -0.045, 5,  17.235,-47.322, 12.653
704825.63082, 3,   0.299,  9.409, -2.230, 4,  -0.023,  0.365, -0.065, 5,  17.902,-47.307, 12.654
704825.65069, 3,   1.371,  9.744, -2.311, 4,  -0.007,  0.380, -0.086, 5,  18.617,-45.148, 11.923
704825.67056, 3,   2.376, 10.464, -3.221, 4,   0.005,  0.400, -0.114, 5,  17.966,-44.453, 12.646
704825.69043, 3,   2.481,  8.447, -2.699, 4,   0.015,  0.425, -0.134, 5,  16.600,-45.914, 13.373
704825.71029, 3,   1.094,  9.196, -1.854, 4,   0.010,  0.443, -0.158, 5,  17.284,-45.184, 13.373
704825.73016, 3,  -0.421, 11.383, -3.800, 4,   0.001,  0.414, -0.183, 5,  17.935,-45.883, 14.102
704825.75003, 3,  -0.081, 10.662, -0.680, 4,   0.004,  0.287, -0.216, 5,  17.917,-46.596, 13.377
704825.76989, 3,  -0.172,  7.375,  2.309, 4,  -0.044,  0.102, -0.222, 5,  18.636,-44.440, 14.101
704825.78976, 3,  -0.543, 13.151, -3.623, 4,  -0.072, -0.068, -0.235, 5,  19.937,-45.831, 12.653
704825.80963, 3,  -2.969,  8.353, -2.972, 4,   0.044, -0.259, -0.223, 5,  18.651,-43.724, 12.646
704825.82949, 3,  -2.079,  8.107, -5.082, 4,   0.032, -0.393, -0.179, 5,  17.949,-45.164, 11.922
704825.84936, 3,  -1.153,  8.349, -5.728, 4,   0.040, -0.466, -0.120, 5,  17.949,-45.164, 11.922
704825.86923, 3,   1.302, 10.062, -3.690, 4,  -0.008, -0.440, -0.075, 5,  19.984,-43.689, 11.922
704825.88909, 3,   2.728,  8.569, -1.326, 4,  -0.079, -0.364, -0.054, 5,  20.638,-44.388, 12.651
704825.90896, 3,   1.723,  9.849,  0.354, 4,  -0.140, -0.285, -0.062, 5,  19.321,-43.710, 14.099
704825.92883, 3,   2.388, 10.205, -2.355, 4,  -0.015, -0.218, -0.097, 5,  19.971,-44.408, 14.102
704825.94870, 3,   2.926, 10.052, -3.336, 4,   0.106, -0.191, -0.153, 5,  19.304,-44.423, 14.101
704825.96856, 3,   1.531, 10.134, -4.711, 4,   0.197, -0.113, -0.191, 5,  20.590,-46.532, 14.108
704825.98843, 3,  -0.823,  8.944, -2.254, 4,   0.170, -0.000, -0.235, 5,  22.578,-47.198, 15.567
704826.00827, 3,  -1.086,  9.296, -2.757, 4,   0.097,  0.011, -0.278, 5,  21.941,-45.784, 13.382
704826.02813, 3,   0.029,  9.500, -2.486, 4,   0.026, -0.132, -0.277, 5,  22.624,-45.053, 12.656
704826.04800, 3,  -0.335,  8.822, -1.230, 4,  -0.028, -0.275, -0.238, 5,  21.303,-44.366, 11.197
704826.06787, 3,  -1.283, 10.198, -0.675, 4,  -0.082, -0.388, -0.197, 5,  21.957,-45.071, 13.380
704826.08773, 3,  -2.582, 10.167, -1.831, 4,  -0.084, -0.516, -0.200, 5,  20.621,-45.099, 11.926
704826.10763, 3,  -2.634,  9.349, -3.697, 4,  -0.052, -0.626, -0.192, 5,  23.323,-43.607, 11.928
704826.12750, 3,  -1.917,  9.358, -3.309, 4,  -0.018, -0.681, -0.128, 5,  22.655,-43.623, 11.926
704826.14737, 3,  -0.577,  8.717, -3.259, 4,  -0.023, -0.630, -0.053, 5,  21.303,-44.366, 11.197
704826.16720, 3,   0.916, 10.933, -3.778, 4,  -0.040, -0.580, -0.005, 5,  21.954,-45.065, 11.200
704826.18710, 3,   0.672,  9.511, -3.336, 4,  -0.029, -0.566, -0.001, 5,  22.636,-44.333, 10.475
704826.20694, 3,   1.022,  8.818, -3.283, 4,  -0.043, -0.514,  0.002, 5,  23.955,-45.013,  9.752
704826.22680, 3,   0.802,  9.155, -4.250, 4,  -0.012, -0.474, -0.015, 5,  24.640,-44.284, 10.478
704826.24667, 3,  -0.445,  9.653, -3.331, 4,   0.010, -0.443, -0.020, 5,  23.322,-43.604, 10.475
704826.26654, 3,  -0.395,  7.262, -3.041, 4,   0.006, -0.461, -0.023, 5,  23.322,-43.604, 10.475
704826.28640, 3,  -0.299,  9.925, -4.757, 4,  -0.010, -0.609, -0.035, 5,  23.322,-43.604, 10.475
704826.30627, 3,  -1.031, 10.916, -3.773, 4,   0.017, -0.720, -0.040, 5,  23.322,-43.604, 10.475
704826.32614, 3,  -1.031, 10.493,  0.835, 4,  -0.029, -0.752, -0.013, 5,  22.633,-44.330,  9.023
704826.34600, 3,  -1.034, 10.660,  0.139, 4,  -0.104, -0.795,  0.036, 5,  23.970,-44.299,  9.750
704826.36587, 3,  -0.708,  8.772, -1.692, 4,  -0.056, -0.906,  0.061, 5,  24.637,-44.281,  9.026
704826.38577, 3,  -1.701, 10.260, -4.491, 4,   0.046, -0.992,  0.063, 5,  23.285,-45.024,  7.573
704826.40560, 3,   0.196,  9.205, -4.479, 4,   0.116, -0.933,  0.089, 5,  22.585,-46.471,  9.027
704826.42547, 3,   0.203,  8.626, -3.154, 4,   0.077, -0.765,  0.142, 5,  23.985,-43.585,  9.023
704826.44534, 3,   0.275,  9.586, -2.077, 4,   0.007, -0.575,  0.167, 5,  24.603,-45.705,  7.576
704826.46521, 3,   0.206,  9.708, -1.859, 4,  -0.017, -0.380,  0.175, 5,  23.950,-45.006,  6.847
704826.48507, 3,   0.512,  9.327, -1.790, 4,  -0.017, -0.231,  0.167, 5,  23.935,-45.723,  8.301
704826.50494, 3,  -0.797,  9.916, -1.697, 4,   0.009, -0.098,  0.142, 5,  24.620,-44.992,  7.574
704826.52481, 3,  -1.117,  9.985, -2.646, 4,   0.059,  0.051,  0.107, 5,  21.948,-45.055,  6.844
704826.54467, 3,  -0.084,  9.066, -2.917, 4,   0.086,  0.205,  0.096, 5,  24.637,-44.281,  9.026
704826.56454, 3,  -0.538,  9.547, -3.316, 4,   0.072,  0.364,  0.097, 5,  23.955,-45.013,  9.752
704826.58441, 3,  -0.888, 11.031, -2.216, 4,   0.037,  0.505,  0.097, 5,  23.300,-44.312,  8.298
704826.60427, 3,  -1.316,  9.074, -0.227, 4,  -0.017,  0.554,  0.085, 5,  22.583,-46.468,  7.574
704826.62411, 3,  -0.794,  8.916, -0.246, 4,  -0.061,  0.507,  0.079, 5,  23.282,-45.020,  6.120
704826.64398, 3,  -1.694,  9.028, -2.572, 4,  -0.020,  0.362,  0.073, 5,  22.632,-44.328,  8.296
704826.66384, 3,  -3.240,  8.873, -4.144, 4,   0.072,  0.188,  0.047, 5,  23.270,-45.740,  9.027
704826.68374, 3,  -2.709,  8.490, -5.109, 4,   0.103,  0.064,  0.041, 5,  23.935,-45.723,  8.301
704826.70361, 3,  -2.194,  9.459, -5.393, 4,   0.087,  0.003,  0.095, 5,  22.600,-45.755,  8.299
704826.72348, 3,  -1.948, 10.016, -3.051, 4,   0.038, -0.022,  0.155, 5,  21.935,-45.773,  9.024
704826.74334, 3,  -0.201, 10.289, -1.649, 4,  -0.031, -0.080,  0.196, 5,  21.916,-46.486,  8.299
704826.76321, 3,   0.419,  9.299, -1.120, 4,  -0.046, -0.181,  0.216, 5,  20.581,-46.518,  8.298
704826.78308, 3,   1.309,  9.040, -2.579, 4,   0.013, -0.239,  0.214, 5,  21.233,-47.209,  6.848
704826.80294, 3,   1.553, 10.409, -4.879, 4,   0.116, -0.171,  0.184, 5,  21.951,-45.061,  9.023
704826.82278, 3,   1.718,  8.743, -4.822, 4,   0.175,  0.029,  0.145, 5,  21.965,-44.345,  8.295
704826.84265, 3,   1.472,  9.002, -2.802, 4,   0.119,  0.237,  0.101, 5,  22.603,-45.758,  9.752
704826.86251, 3,  -0.115,  9.806, -1.079, 4,   0.044,  0.436,  0.052, 5,  21.936,-45.775,  9.750
704826.88238, 3,  -1.450,  9.590, -0.983, 4,   0.011,  0.620,  0.010, 5,  21.269,-45.790,  9.749
704826.90225, 3,  -1.938,  9.930, -1.869, 4,   0.018,  0.740, -0.021, 5,  22.585,-46.471,  9.027
704826.92211, 3,  -2.232, 10.342, -2.611, 4,   0.055,  0.775, -0.019, 5,  21.968,-44.348,  9.747
704826.94198, 3,  -2.807,  8.676, -3.211, 4,   0.075,  0.723,  0.004, 5,  22.620,-45.045,  9.750
704826.96188, 3,  -2.453,  9.868, -3.364, 4,   0.064,  0.658,  0.026, 5,  20.602,-45.808, 10.475
704826.98175, 3,  -1.682, 11.196, -3.264, 4,   0.049,  0.535,  0.064, 5,  19.901,-47.250,  9.752
704827.00161, 3,  -1.606,  8.088, -0.974, 4,   0.000,  0.391,  0.084, 5,  21.286,-45.078,  9.747
704827.02145, 3,   0.055, 10.112, -2.867, 4,  -0.039,  0.301,  0.097, 5,  21.271,-45.792, 10.475
704827.04132, 3,   0.713, 11.237, -3.465, 4,   0.010,  0.268,  0.108, 5,  21.922,-46.494, 11.931
704827.06118, 3,   1.122,  6.951, -2.450, 4,   0.035,  0.337,  0.103, 5,  19.299,-44.414, 10.469
704827.08105, 3,   1.725,  9.617, -5.125, 4,   0.031,  0.438,  0.086, 5,  21.271,-45.792, 10.475
704827.10092, 3,   0.928, 11.409, -4.568, 4,   0.076,  0.564,  0.047, 5,  21.904,-47.202,  9.755
704827.12078, 3,   0.388,  9.631, -0.775, 4,   0.040,  0.659,  0.006, 5,  19.966,-44.400, 11.195
704827.14065, 3,  -0.543,  9.404,  0.024, 4,  -0.060,  0.645, -0.015, 5,  20.589,-46.529, 12.656
704827.16052, 3,  -0.519,  9.540, -1.663, 4,  -0.050,  0.518, -0.036, 5,  20.604,-45.811, 11.928
704827.18039, 3,  -0.732, 11.225, -3.321, 4,   0.033,  0.360, -0.060, 5,  21.957,-45.071, 13.380
704827.20025, 3,  -0.098,  9.366, -2.381, 4,   0.070,  0.199, -0.067, 5,  21.255,-46.509, 11.929
704827.22009, 3,  -1.768,  8.868, -2.611, 4,   0.031,  0.134, -0.047, 5,  21.274,-45.799, 13.380
704827.23999, 3,  -1.802,  9.179, -3.864, 4,   0.007,  0.186, -0.040, 5,  19.270,-45.847, 12.651
704827.25985, 3,  -0.428,  9.653, -2.795, 4,   0.005,  0.227, -0.025, 5,  19.954,-45.119, 12.651
704827.27972, 3,  -1.503,  8.459, -2.534, 4,  -0.023,  0.229,  0.001, 5,  23.259,-46.465, 13.387
704827.29959, 3,  -0.366, 10.694, -3.214, 4,  -0.032,  0.259,  0.015, 5,  20.638,-44.388, 12.651
704827.31945, 3,   0.591,  9.361, -2.460, 4,  -0.002,  0.279,  0.041, 5,  20.622,-45.103, 13.379
704827.33932, 3,   2.187,  9.904, -2.800, 4,  -0.005,  0.328,  0.041, 5,  19.969,-44.405, 12.650
704827.35919, 3,   2.362, 10.280, -2.158, 4,   0.011,  0.394,  0.029, 5,  19.272,-45.850, 14.104
704827.37905, 3,   3.221,  8.786, -3.058, 4,   0.035,  0.472, -0.016, 5,  19.287,-45.135, 13.376
704827.39892, 3,   2.821, 11.897, -2.831, 4,   0.053,  0.597, -0.071, 5,  21.260,-46.516, 14.833
704827.41876, 3,   2.431,  6.051, -0.864, 4,   0.045,  0.650, -0.128, 5,  19.339,-42.998, 14.822
704827.43862, 3,  -0.641,  9.511, -4.106, 4,   0.012,  0.686, -0.198, 5,  20.576,-47.246, 14.836
704827.45849, 3,  -0.038, 11.349, -2.902, 4,   0.064,  0.596, -0.261, 5,  19.273,-45.851, 14.828
704827.47836, 3,  -0.641, 10.007, -2.101, 4,   0.022,  0.195, -0.299, 5,  19.940,-45.837, 15.558
704827.49823, 3,  -1.211,  8.526, -3.099, 4,  -0.018, -0.037, -0.284, 5,  20.624,-45.105, 14.105
704827.51809, 3,  -2.376,  9.942, -3.776, 4,   0.005, -0.136, -0.261, 5,  21.326,-43.665, 15.555
704827.53799, 3,  -2.321,  9.964, -2.764, 4,   0.012, -0.354, -0.239, 5,  21.373,-41.521, 14.096
704827.55786, 3,  -2.661,  9.571, -1.632, 4,  -0.043, -0.587, -0.186, 5,  21.992,-43.649, 15.556
704827.57772, 3,  -1.634,  9.078, -2.644, 4,  -0.063, -0.726, -0.113, 5,  20.622,-45.103, 13.379
704827.59759, 3,  -2.060,  9.162, -2.977, 4,  -0.028, -0.804, -0.058, 5,  21.321,-43.655, 11.923
704827.61743, 3,   0.569,  9.516, -3.845, 4,   0.022, -0.786, -0.001, 5,  21.307,-44.374, 14.104
704827.63729, 3,   1.914,  9.212, -3.357, 4,   0.045, -0.718,  0.054, 5,  21.956,-45.067, 11.928
704827.65716, 3,   3.635, 10.050, -3.187, 4,   0.037, -0.507,  0.086, 5,  21.989,-43.645, 13.377
704827.67703, 3,   3.149,  9.114, -2.213, 4,   0.023, -0.184,  0.069, 5,  22.624,-45.053, 12.656
704827.69690, 3,   1.771, 10.524, -1.295, 4,   0.000,  0.140,  0.010, 5,  21.306,-44.373, 13.377
704827.71676, 3,   1.235,  9.366, -0.897, 4,  -0.006,  0.290, -0.041, 5,  22.659,-43.633, 15.558
704827.73663, 3,   0.340,  9.456, -1.287, 4,  -0.010,  0.252, -0.092, 5,  22.607,-45.766, 12.657
704827.75589, 3,   0.359, 11.220, -3.092, 4,   0.013,  0.157, -0.147, 5,  21.323,-43.660, 13.376
704827.77636, 3,  -1.206,  8.198, -1.962, 4,   0.016,  0.025, -0.151, 5,  21.291,-45.087, 13.379
704827.79623, 3,  -2.429,  9.873, -2.761, 4,  -0.028, -0.003, -0.133, 5,  22.627,-45.058, 14.833
704827.81610, 3,  -2.338, 10.758, -1.747, 4,  -0.055, -0.062, -0.111, 5,  23.294,-45.039, 14.110
704827.83596, 3,  -1.960,  9.409, -1.129, 4,  -0.095, -0.182, -0.080, 5,  23.277,-45.752, 14.111
704827.85583, 3,  -1.201, 10.741, -1.811, 4,  -0.117, -0.275, -0.031, 5,  21.291,-45.087, 13.379
704827.87570, 3,  -0.103,  9.045, -2.213, 4,  -0.087, -0.350,  0.004, 5,  23.308,-44.324, 13.382
704827.89556, 3,   0.081,  9.222, -3.611, 4,  -0.040, -0.332,  0.040, 5,  23.311,-44.328, 15.561
704827.91543, 3,   0.136,  8.186, -4.259, 4,  -0.006, -0.212,  0.068, 5,  23.311,-44.327, 14.833
704827.93530, 3,  -1.196,  9.387, -3.771, 4,  -0.007, -0.071,  0.068, 5,  21.274,-45.798, 12.654
704827.95517, 3,   0.828, 10.593, -2.438, 4,  -0.055,  0.020,  0.045, 5,  24.663,-43.582, 14.833
704827.97503, 3,   1.278,  9.557, -1.787, 4,  -0.099,  0.024,  0.061, 5,  23.296,-45.041, 14.835
704827.99490, 3,   1.601, 10.172, -0.897, 4,  -0.106,  0.036,  0.058, 5,  21.957,-45.071, 13.380
704828.01474, 3,   2.149, 10.662, -1.965, 4,  -0.067, -0.005,  0.014, 5,  22.641,-44.342, 14.107
704828.03460, 3,   1.299,  8.514, -2.680, 4,   0.004, -0.025, -0.036, 5,  23.326,-43.613, 14.107
704828.05447, 3,   0.835,  8.329, -3.986, 4,   0.048, -0.003, -0.062, 5,  21.973,-44.357, 13.379
704828.07434, 3,  -0.203, 11.617, -3.529, 4,   0.059,  0.004, -0.096, 5,  23.308,-44.324, 13.382
704828.09420, 3,  -0.904,  8.990, -1.228, 4,   0.009, -0.014, -0.117, 5,  22.626,-45.056, 14.108
704828.11410, 3,  -1.268,  8.880, -1.062, 4,  -0.068, -0.070, -0.109, 5,  23.991,-43.596, 13.380
704828.13397, 3,  -1.646, 11.627, -3.096, 4,  -0.056, -0.170, -0.109, 5,  21.957,-45.070, 12.654
704828.15383, 3,  -1.385,  7.746, -2.733, 4,   0.016, -0.273, -0.087, 5,  24.007,-42.877, 11.926
704828.17370, 3,  -2.388, 10.186, -4.534, 4,   0.021, -0.311, -0.064, 5,  23.294,-45.039, 14.110
704828.19357, 3,  -0.926, 10.126, -3.771, 4,   0.044, -0.284, -0.030, 5,  23.325,-43.610, 12.654
704828.21341, 3,   0.744, 10.081, -1.254, 4,  -0.006, -0.279,  0.030, 5,  22.639,-44.341, 13.380
704828.23327, 3,   1.395,  9.777, -0.591, 4,  -0.068, -0.295,  0.070, 5,  23.943,-45.734, 12.659
704828.25314, 3,   1.295,  8.423, -2.079, 4,  -0.056, -0.333,  0.069, 5,  21.988,-43.640, 11.925
704828.27301, 3,   0.663, 10.911, -3.836, 4,   0.031, -0.344,  0.036
704828.29287, 3,   0.089,  8.562, -2.594, 4,   0.109, -0.333, -0.001, 5,  21.973,-44.356, 12.653
704828.31274, 3,   0.194,  7.825, -3.632, 4,   0.084, -0.289, -0.016, 5,  23.990,-43.591, 11.928
704828.33261, 3,  -0.759, 10.294, -3.939, 4,   0.053, -0.224, -0.027, 5,  23.305,-44.318, 11.201
704828.35247, 3,  -0.153,  9.935, -2.108, 4,   0.012, -0.142, -0.024, 5,  22.656,-43.626, 12.653
704828.37234, 3,   0.644,  9.205, -0.273, 4,  -0.070, -0.099, -0.014, 5,  24.640,-44.286, 11.203
704828.39224, 3,  -0.297, 10.009, -0.400, 4,  -0.093, -0.087,  0.001, 5,  23.322,-43.605, 11.200
704828.41211, 3,  -1.003,  9.966, -2.599, 4,  -0.034, -0.070, -0.007, 5,  24.640,-44.286, 11.203
704828.43194, 3,  -1.771,  7.432, -2.991, 4,   0.038, -0.080, -0.042, 5,  22.672,-42.909, 11.925
704828.45181, 3,  -1.438, 13.297, -6.812, 4,   0.078, -0.148, -0.046, 5,  25.328,-43.564, 13.383
704828.47168, 3,  -1.342,  7.899, -2.792, 4,   0.114, -0.163, -0.014, 5,  23.338,-42.889, 10.474
704828.49154, 3,  -0.878,  9.880, -1.591, 4,  -0.023, -0.115,  0.030, 5,  22.636,-44.334, 11.200
704828.51141, 3,  -1.182, 10.438, -1.448, 4,  -0.057, -0.063,  0.053, 5,  22.636,-44.334, 11.200
704828.53128, 3,  -1.211,  6.463, -1.651, 4,  -0.040, -0.086,  0.061, 5,  23.338,-42.889, 10.474
704828.55114, 3,  -1.077, 11.655, -5.482, 4,   0.016, -0.147,  0.065, 5,  23.352,-42.175,  9.744
704828.57101, 3,  -0.412, 10.100, -3.355, 4,   0.079, -0.162,  0.068, 5,  23.320,-43.602,  9.749
704828.59088, 3,   0.175, 10.698, -1.058, 4,   0.010, -0.093,  0.097, 5,  23.973,-44.304, 11.929
704828.61074, 3,   0.354,  9.370, -1.065, 4,  -0.044, -0.066,  0.115, 5,  23.322,-43.605, 11.200
704828.63058, 3,   1.005,  8.727, -2.362, 4,  -0.033, -0.113,  0.113, 5,  23.958,-45.018, 11.931
704828.65045, 3,   1.249,  9.325, -4.618, 4,   0.023, -0.178,  0.089, 5,  23.305,-44.318, 11.201
704828.67034, 3,   1.407,  8.700, -4.037, 4,   0.060, -0.195,  0.067, 5,  21.954,-45.065, 11.200
704828.69021, 3,   0.859, 10.452, -3.979, 4,   0.034, -0.171,  0.047, 5,  21.986,-43.637, 10.472
704828.71008, 3,   0.105,  8.774, -1.175, 4,  -0.024, -0.116,  0.020, 5,  23.300,-44.312,  8.298
704828.72995, 3,   0.505,  9.696, -1.895, 4,  -0.076, -0.090, -0.004, 5,  22.636,-44.333, 10.475
704828.74981, 3,  -0.244, 10.134, -2.919, 4,  -0.062, -0.142, -0.025, 5,  23.988,-43.590, 11.200
704828.76968, 3,  -1.555,  9.971, -2.000, 4,  -0.034, -0.186, -0.042, 5,  22.681,-42.188,  7.564
704828.78955, 3,  -2.216,  8.193, -0.598, 4,  -0.041, -0.176, -0.043, 5,  22.633,-44.330,  9.023
704828.80941, 3,  -3.001,  9.528, -2.367, 4,  -0.050, -0.173, -0.029, 5,  21.349,-42.223,  9.013
704828.82925, 3,  -3.539,  9.768, -3.807, 4,   0.029, -0.200, -0.001, 5,  22.652,-43.619,  9.747
704828.84912, 3,  -2.048, 10.478, -3.812, 4,   0.071, -0.208,  0.025, 5,  23.984,-43.582,  7.570
704828.86898, 3,  -0.732, 10.528, -2.623, 4,   0.057, -0.152,  0.072, 5,  21.999,-42.917,  7.565
704828.88885, 3,   0.266,  8.806, -1.165, 4,   0.028, -0.043,  0.150, 5,  23.302,-44.313,  9.024
704828.90872, 3,  -0.493,  7.669, -2.390, 4,   0.024,  0.012,  0.157, 5,  21.970,-44.351, 11.198
704828.92858, 3,  -1.653,  8.023, -5.413, 4,   0.081,  0.057,  0.119, 5,  23.317,-43.597,  7.570
704828.94845, 3,  -1.082, 13.189, -5.037, 4,   0.133,  0.128,  0.102, 5,  21.300,-44.362,  9.019
704828.96835, 3,  -0.072, 10.705, -0.553, 4,   0.073,  0.232,  0.117, 5,  21.970,-44.351, 11.198
704828.98822, 3,   1.409,  9.275,  0.562, 4,  -0.046,  0.328,  0.156, 5,  21.985,-43.636,  9.746
704829.00808, 3,   0.392, 10.643, -1.677, 4,  -0.018,  0.394,  0.157, 5,  22.636,-44.333, 10.475
704829.02792, 3,   0.625,  8.868, -4.625, 4,   0.114,  0.447,  0.103, 5,  21.967,-44.347,  9.021
704829.04779, 3,   0.452,  9.768, -5.633, 4,   0.163,  0.416,  0.042, 5,  21.951,-45.061,  9.023
704829.06765, 3,  -0.287,  8.765, -2.546, 4,   0.117,  0.425,  0.015, 5,  21.968,-44.348,  9.747
704829.08752, 3,  -1.192,  8.698, -0.737, 4,  -0.007,  0.417,  0.019, 5,  22.670,-42.906, 10.472
704829.10739, 3,  -1.976, 11.050, -1.208, 4,  -0.081,  0.261,  0.015, 5,  19.966,-44.398, 10.471
704829.12725, 3,  -1.759, 10.531, -1.488, 4,  -0.056,  0.008, -0.001, 5,  21.970,-44.350, 10.474
704829.14712, 3,  -1.869,  7.490, -2.512, 4,  -0.017, -0.203,  0.008, 5,  24.628,-45.004, 12.659
704829.16699, 3,  -0.969, 10.150, -4.908, 4,   0.026, -0.283,  0.046, 5,  23.892,-47.871, 11.938
704829.18685, 3,  -1.864,  9.550, -2.867, 4,   0.075, -0.229,  0.090, 5,  23.975,-44.307, 12.656
704829.20672, 3,  -0.569,  5.355, -2.594, 4,   0.031, -0.080,  0.122, 5,  22.636,-44.334, 11.200
704829.22659, 3,   0.208,  9.763, -5.245, 4,   0.013,  0.039,  0.139, 5,  22.636,-44.334, 11.200
704829.24646, 3,   1.713, 11.708, -4.987, 4,   0.079,  0.141,  0.158, 5,  22.636,-44.334, 11.200
704829.26632, 3,   2.271,  8.739,  0.957, 4,  -0.001,  0.290,  0.155, 5,  21.303,-44.366, 11.197
704829.28619, 3,   1.129, 12.541,  0.694, 4,  -0.121,  0.425,  0.134, 5,  19.965,-44.397,  9.744
704829.30606, 3,   0.703, 11.253, -0.177, 4,  -0.068,  0.477,  0.089, 5,  19.966,-44.398, 10.471
704829.32592, 3,  -0.129,  9.550, -1.862, 4,   0.002,  0.431,  0.029, 5,  21.323,-43.658, 12.650
704829.34579, 3,  -1.103, 10.595, -3.738, 4,   0.045,  0.376, -0.025, 5,  21.985,-43.636,  9.746
704829.36566, 3,  -3.211, 10.102, -1.503, 4,   0.028,  0.413, -0.045, 5,  19.952,-45.116, 11.925
704829.38552, 3,  -4.348,  8.454,  1.283, 4,  -0.060,  0.496, -0.019, 5,  19.984,-43.689, 11.922
704829.40539, 3,  -2.206,  9.947, -2.474, 4,  -0.095,  0.442,  0.025, 5,  20.634,-44.382, 10.472
704829.42526, 3,  -1.333, 10.088, -5.133, 4,   0.013,  0.314,  0.082, 5,  19.934,-45.825, 10.474
704829.44509, 3,   0.914,  8.748, -5.221, 4,   0.076,  0.300,  0.135, 5,  19.966,-44.400, 11.195
704829.46496, 3,   1.534, 10.150, -3.094, 4,   0.010,  0.387,  0.151, 5,  19.984,-43.689, 11.922
704829.48483, 3,   1.141,  9.923, -0.821, 4,  -0.074,  0.569,  0.134, 5,  18.631,-44.432, 11.194
704829.50470, 3,   2.393,  8.116, -0.103, 4,  -0.131,  0.692,  0.106, 5,  19.936,-45.828, 11.926
704829.52456, 3,   2.910, 10.497, -1.795, 4,  -0.094,  0.681,  0.058, 5,  19.272,-45.850, 14.104
704829.54446, 3,   2.517, 11.486, -3.525, 4,   0.007,  0.577, -0.007, 5,  18.651,-43.726, 13.373
704829.56433, 3,   0.629,  7.674, -0.723, 4,   0.056,  0.494, -0.079, 5,  19.284,-45.129, 11.195
704829.58419, 3,   0.756, 10.423, -3.101, 4,   0.040,  0.434, -0.140, 5,  20.003,-42.979, 13.373
704829.60406, 3,   0.371, 10.394, -2.706, 4,   0.051,  0.322, -0.176, 5,  20.607,-45.818, 14.107
704829.62393, 3,   0.436,  6.719, -1.354, 4,   0.015,  0.200, -0.170, 5,  20.622,-45.102, 12.653
704829.64376, 3,  -0.455, 11.801, -2.759, 4,  -0.052,  0.080, -0.167, 5,  17.966,-44.453, 12.646
704829.66363, 3,  -2.079, 10.186, -0.108, 4,  -0.054, -0.004, -0.176, 5,  18.634,-44.438, 13.374
704829.68349, 3,  -0.900, 11.098,  0.615, 4,  -0.092, -0.116, -0.161, 5,  20.656,-43.678, 14.102
704829.70336, 3,  -0.175,  7.772,  0.189, 4,  -0.060, -0.274, -0.137, 5,  21.306,-44.371, 12.651
704829.72323, 3,   0.321,  8.973, -3.850, 4,   0.011, -0.341, -0.106, 5,  19.302,-44.420, 12.648
704829.74309, 3,   1.000, 11.026, -7.234, 4,   0.149, -0.263, -0.107, 5,  19.336,-42.995, 13.371
704829.76296, 3,   0.134,  9.270, -3.379, 4,   0.141, -0.051, -0.112, 5,  21.323,-43.660, 13.376
704829.78283, 3,  -0.967,  9.969, -2.000, 4,  -0.002,  0.204, -0.098, 5,  20.668,-42.957, 11.194
704829.80269, 3,  -0.849, 10.016, -0.687, 4,  -0.077,  0.360, -0.096, 5,  19.319,-43.709, 13.373
704829.82259, 3,  -0.380,  9.782, -0.971, 4,  -0.067,  0.378, -0.086, 5,  20.001,-42.975, 11.920
704829.84243, 3,  -0.091,  9.428, -3.711, 4,   0.006,  0.327, -0.085, 5,  21.306,-44.371, 12.651
704829.86229, 3,  -0.993,  9.162, -4.671, 4,   0.079,  0.293, -0.104, 5,  19.989,-43.697, 14.825
704829.88216, 3,  -1.022,  8.626, -3.709, 4,   0.115,  0.303, -0.107, 5,  20.671,-42.961, 12.648
704829.90203, 3,  -0.005, 10.083, -3.484, 4,   0.067,  0.317, -0.097, 5,  18.633,-44.434, 11.922
704829.92190, 3,   0.639, 10.550, -2.929, 4,   0.023,  0.239, -0.086, 5,  20.688,-42.252, 14.098
704829.94176, 3,   0.333,  8.736, -0.983, 4,  -0.012,  0.127, -0.095, 5,  20.641,-44.394, 15.556
704829.96163, 3,   0.428,  9.717, -1.385, 4,  -0.018,  0.042, -0.117, 5,  20.609,-45.819, 14.832
704829.98150, 3,   0.854, 10.347, -2.974, 4,   0.022, -0.097, -0.124, 5,  20.020,-42.268, 14.096
704830.00136, 3,   1.967,  6.226, -3.144, 4,   0.055, -0.245, -0.112, 5,  21.976,-44.360, 14.830
704830.02123, 3,   4.130, 11.112, -6.001, 4,   0.061, -0.373, -0.114, 5,  23.325,-43.610, 12.654
704830.04107, 3,   4.336, 10.634, -2.706, 4,   0.044, -0.427, -0.123, 5,  21.973,-44.356, 12.653
704830.06093, 3,   3.139, 10.079, -0.203, 4,  -0.072, -0.369, -0.163, 5,  21.323,-43.660, 13.376
704830.08080, 3,   1.242,  8.853, -0.677, 4,  -0.150, -0.423, -0.240, 5,  21.291,-45.085, 12.653
704830.10070, 3,  -0.651,  8.270, -3.283, 4,  -0.116, -0.562, -0.305, 5,  21.954,-45.064, 10.475
704830.12056, 3,  -3.142,  9.832, -5.767, 4,  -0.026, -0.754, -0.360, 5,  21.954,-45.065, 11.200
704830.14043, 3,  -3.829,  8.607, -3.199, 4,  -0.021, -0.837, -0.350, 5,  23.972,-44.301, 10.477
704830.16030, 3,  -3.233, 12.175, -1.603, 4,  -0.106, -0.824, -0.251, 5,  26.674,-42.805,  9.026
704830.18017, 3,  -2.008, 11.167,  0.160, 4,  -0.153, -0.793, -0.148, 5,  23.338,-42.889, 10.474
704830.20003, 3,  -0.818, 10.055, -1.421, 4,  -0.137, -0.835, -0.069, 5,  24.622,-44.995,  9.027
704830.21990, 3,  -0.529,  9.310, -2.862, 4,  -0.044, -0.906, -0.032, 5,  23.967,-44.295,  7.571
704830.23974, 3,  -1.728,  8.609, -4.362, 4,   0.055, -0.906, -0.025, 5,  25.320,-43.552,  8.299
704830.25960, 3,  -2.584,  7.475, -4.843, 4,   0.103, -0.857, -0.005, 5,  23.969,-44.298,  9.024
704830.27947, 3,  -0.680,  9.643, -5.695, 4,   0.099, -0.790,  0.017, 5,  25.304,-44.263,  7.574
704830.29934, 3,   0.316, 10.727, -3.008, 4,   0.061, -0.710,  0.070, 5,  25.975,-44.252, 10.480
704830.31920, 3,   2.333,  9.057, -0.869, 4,  -0.008, -0.534,  0.130, 5,  26.004,-42.821,  8.298
704830.33907, 3,   0.816, 10.741, -1.766, 4,  -0.050, -0.345,  0.136, 5,  26.639,-44.231,  8.302
704830.35894, 3,   1.426,  8.798, -1.974, 4,   0.001, -0.253,  0.090, 5,  24.622,-44.995,  9.027
704830.37880, 3,   1.139,  7.710, -2.340, 4,   0.020, -0.240,  0.039, 5,  23.300,-44.312,  8.298
704830.39870, 3,   0.211, 11.371, -3.218, 4,   0.026, -0.255,  0.004, 5,  23.984,-43.582,  7.570
704830.41857, 3,  -0.215, 10.698, -2.232, 4,   0.023, -0.230, -0.023, 5,  25.337,-42.836,  7.571
704830.43844, 3,  -0.998, 10.406, -1.225, 4,  -0.034, -0.225, -0.027, 5,  23.950,-45.006,  6.847
704830.45827, 3,  -1.235,  9.715, -1.847, 4,  -0.044, -0.281, -0.014, 5,  25.319,-43.547,  6.847
704830.47814, 3,  -3.123,  9.308, -1.852, 4,  -0.013, -0.334,  0.006, 5,  25.969,-44.243,  6.848
704830.49801, 3,  -3.711,  9.007, -3.532, 4,   0.021, -0.397,  0.004, 5,  23.932,-45.715,  5.396
704830.51787, 3,  -4.487,  8.727, -3.482, 4,   0.037, -0.518,  0.026, 5,  24.651,-43.562,  6.845
704830.53774, 3,  -2.508,  9.562, -2.721, 4,   0.028, -0.666,  0.103, 5,  25.284,-44.969,  4.671
704830.55761, 3,  -1.503,  7.913, -0.749, 4,  -0.008, -0.825,  0.185, 5,  25.301,-44.257,  5.396
704830.57747, 3,  -0.127,  9.069, -2.350, 4,  -0.022, -0.941,  0.233, 5,  23.964,-44.290,  6.119
704830.59734, 3,   0.297, 10.299, -4.711, 4,   0.065, -0.963,  0.257, 5,  23.964,-44.289,  5.392
704830.61721, 3,   1.433,  7.913, -4.577, 4,   0.167, -0.814,  0.285, 5,  23.282,-45.018,  5.394
704830.63707, 3,   1.443, 13.005, -6.336, 4,   0.175, -0.604,  0.300, 5,  23.949,-45.004,  6.120
704830.65691, 3,   2.221, 11.225, -2.039, 4,   0.143, -0.349,  0.284, 5,  21.962,-44.339,  6.116
704830.67681, 3,   2.326,  8.492,  0.866, 4,   0.016, -0.124,  0.255, 5,  23.282,-45.018,  5.394
704830.69668, 3,  -0.012,  9.648, -0.464, 4,  -0.038,  0.062,  0.223, 5,  23.265,-45.732,  6.122
704830.71654, 3,  -1.534,  7.877, -1.330, 4,   0.035,  0.207,  0.168, 5,  23.247,-46.443,  4.671
704830.73641, 3,  -3.139,  9.753, -3.092, 4,   0.104,  0.267,  0.107, 5,  22.612,-45.033,  4.666
704830.75628, 3,  -3.360, 11.084, -2.768, 4,   0.134,  0.320,  0.096, 5,  22.598,-45.750,  6.847
704830.77614, 3,  -2.704,  9.495, -0.546, 4,   0.077,  0.445,  0.155, 5,  21.899,-47.194,  6.850
704830.79601, 3,  -3.029,  8.887, -0.428, 4,   0.004,  0.536,  0.211, 5,  22.581,-46.465,  6.848
704830.81588, 3,  -2.194, 10.918, -2.503, 4,   0.023,  0.564,  0.233, 5,  21.230,-47.205,  4.669
704830.83574, 3,  -1.641,  9.854, -3.936, 4,   0.103,  0.603,  0.233, 5,  21.281,-45.070,  6.842
704830.85558, 3,  -0.931,  9.227, -3.730, 4,   0.122,  0.674,  0.257, 5,  22.614,-45.036,  6.119
704830.87545, 3,  -0.045,  8.406, -3.137, 4,   0.090,  0.768,  0.280, 5,  20.580,-46.513,  6.845
704830.89531, 3,   0.450,  8.497, -3.029, 4,   0.038,  0.856,  0.277, 5,  21.948,-45.055,  6.844
704830.91518, 3,   0.189, 11.620, -1.646, 4,  -0.002,  0.845,  0.213, 5,  20.564,-47.226,  6.848
704830.93505, 3,   1.084,  9.521, -0.100, 4,  -0.029,  0.800,  0.137, 5,  18.597,-45.856,  9.746
704830.95492, 3,   0.634, 10.014, -0.804, 4,  -0.034,  0.750,  0.131, 5,  20.581,-46.518,  8.298
704830.97481, 3,  -0.254, 10.873, -2.675, 4,   0.020,  0.734,  0.090, 5,  19.246,-46.548,  7.568
704830.99468, 3,  -0.730,  8.054, -2.879, 4,   0.075,  0.700,  0.008, 5,  21.219,-47.929,  9.029
704831.01455, 3,   0.220,  8.975, -5.338, 4,   0.095,  0.696, -0.015, 5,  19.249,-46.553,  9.747
704831.03441, 3,  -1.534, 10.330, -4.441, 4,   0.100,  0.691, -0.020, 5,  21.252,-46.504,  9.750
704831.05428, 3,  -2.594,  6.875, -1.486, 4,   0.056,  0.686, -0.007, 5,  19.914,-46.536,  9.023
704831.07412, 3,  -1.991, 10.315, -3.754, 4,  -0.008,  0.563, -0.007, 5,  19.266,-45.839,  9.746
704831.09398, 3,  -2.266, 11.105, -2.395, 4,   0.002,  0.366,  0.006, 5,  19.235,-47.267, 10.477
704831.11385, 3,  -0.823,  9.808,  0.012, 4,  -0.027,  0.223,  0.035, 5,  19.901,-47.250,  9.752
704831.13372, 3,   1.153,  9.112, -0.854, 4,  -0.048,  0.156,  0.074, 5,  18.600,-45.860, 11.925
704831.15358, 3,   1.263, 10.131, -3.092, 4,   0.026,  0.193,  0.090, 5,  19.250,-46.556, 11.198
704831.17345, 3,   2.575, 10.344, -4.338, 4,   0.111,  0.356,  0.070, 5,  19.254,-46.561, 12.653
704831.19332, 3,   3.001,  9.385, -3.592, 4,   0.117,  0.542,  0.029, 5,  18.570,-47.290, 12.656
704831.21319, 3,   1.634,  9.916, -1.854, 4,   0.057,  0.704, -0.025, 5,  18.584,-46.574, 11.926
704831.23305, 3,   0.902, 10.155, -1.510, 4,   0.016,  0.801, -0.086, 5,  19.905,-47.258, 12.657
704831.25295, 3,  -0.890,  9.078, -0.493, 4,   0.002,  0.775, -0.153, 5,  19.269,-45.844, 11.925
704831.27279, 3,  -2.027,  9.454, -1.608, 4,   0.026,  0.712, -0.192, 5,  18.604,-45.866, 14.104
704831.29265, 3,  -1.534,  8.504, -4.274, 4,   0.078,  0.604, -0.203, 5,  20.622,-45.102, 12.653
704831.31252, 3,  -1.967, 10.382, -4.140, 4,   0.117,  0.480, -0.191, 5,  19.955,-45.122, 14.104
704831.33239, 3,  -1.869,  8.758, -3.355, 4,   0.105,  0.349, -0.173, 5,  19.292,-45.142, 16.281
704831.35225, 3,  -0.598, 10.035, -3.108, 4,   0.046,  0.268, -0.156, 5,  19.272,-45.850, 14.104
704831.37212, 3,  -0.684, 10.533, -4.020, 4,   0.042,  0.211, -0.128, 5,  19.273,-45.851, 14.828
704831.39199, 3,   0.814,  7.851, -2.544, 4,   0.032,  0.221, -0.096, 5,  19.293,-45.143, 17.007
704831.41185, 3,  -0.467, 11.052, -4.360, 4,   0.006,  0.227, -0.090, 5,  19.939,-45.834, 14.105
704831.43172, 3,  -0.053, 10.397, -1.436, 4,   0.028,  0.207, -0.100, 5,  19.275,-45.854, 16.283
704831.45156, 3,   1.213,  9.705, -1.290, 4,  -0.028,  0.123, -0.097, 5,  18.588,-46.584, 15.558
704831.47143, 3,   2.847,  9.074, -2.436, 4,  -0.055, -0.091, -0.073, 5,  21.945,-45.790, 16.287
704831.49129, 3,   3.587,  9.722, -3.515, 4,  -0.004, -0.305, -0.073, 5,  20.624,-45.105, 14.105
704831.51116, 3,   3.235,  8.640, -2.367, 4,   0.018, -0.424, -0.128
704831.53106, 3,   2.149,  9.222, -3.718, 4,  -0.010, -0.462, -0.181, 5,  19.957,-45.123, 14.828
704831.55092, 3,   0.306, 11.507, -3.718, 4,   0.004, -0.454, -0.218, 5,  20.609,-45.819, 14.832
704831.57079, 3,  -1.113,  7.590, -1.187, 4,  -0.008, -0.444, -0.253, 5,  21.272,-45.795, 11.928
704831.59066, 3,  -1.570,  9.734, -0.751, 4,  -0.094, -0.439, -0.252, 5,  21.257,-46.512, 12.656
704831.61052, 3,  -0.285, 11.531, -1.921, 4,  -0.089, -0.461, -0.206, 5,  21.306,-44.371, 12.651
704831.63039, 3,  -1.531,  9.083, -0.122, 4,  -0.061, -0.395, -0.153, 5,  22.670,-42.908, 11.197
704831.65026, 3,  -2.132, 11.524, -2.780, 4,  -0.066, -0.322, -0.129, 5,  21.954,-45.065, 11.200
704831.67009, 3,  -2.431,  9.165, -2.965, 4,  -0.008, -0.263, -0.107, 5,  23.341,-42.897, 13.379
704831.68996, 3,  -2.579, 10.789, -2.577, 4,  -0.008, -0.203, -0.065, 5,  21.956,-45.067, 11.928
704831.70983, 3,  -1.541,  7.793, -2.378, 4,  -0.029, -0.138, -0.014, 5,  21.306,-44.371, 12.651
704831.72970, 3,  -0.598,  8.913, -2.910, 4,  -0.056, -0.029,  0.026, 5,  21.939,-45.779, 11.929
704831.74895, 3,  -0.187, 10.593, -3.168, 4,  -0.040,  0.100,  0.045, 5,  21.274,-45.798, 12.654
704831.76943, 3,   1.256, 10.308, -1.819, 4,  -0.020,  0.257,  0.064, 5,  21.986,-43.639, 11.197
704831.78930, 3,   1.840,  9.844, -1.220, 4,  -0.041,  0.358,  0.065, 5,  22.639,-44.339, 12.654
704831.80916, 3,   1.507, 10.153, -1.388, 4,  -0.029,  0.349,  0.035, 5,  21.306,-44.371, 12.651
704831.82906, 3,   0.507, 10.579, -2.201, 4,   0.007,  0.219, -0.013, 5,  21.957,-45.070, 12.654
704831.84893, 3,   1.297,  9.088, -2.673, 4,   0.029,  0.022, -0.060, 5,  22.659,-43.631, 14.830
704831.86879, 3,  -0.227,  9.511, -3.946, 4,   0.021, -0.247, -0.097, 5,  21.973,-44.357, 13.379
704831.88863, 3,  -0.098,  9.031, -4.111, 4,   0.031, -0.373, -0.117, 5,  21.339,-42.946, 13.374
704831.90850, 3,  -2.034,  8.796, -3.797, 4,   0.015, -0.380, -0.114, 5,  22.020,-42.213, 11.920
704831.92836, 3,  -1.385,  9.708, -3.838, 4,  -0.006, -0.340, -0.085, 5,  21.973,-44.357, 13.379
704831.94823, 3,  -1.354,  9.466, -3.218, 4,  -0.038, -0.308, -0.059, 5,  21.291,-45.085, 12.653
704831.96810, 3,   1.050,  7.030, -0.598, 4,  -0.083, -0.284, -0.015, 5,  23.293,-45.036, 12.657
704831.98797, 3,   2.228, 11.390, -2.161, 4,  -0.100, -0.313,  0.003, 5,  22.656,-43.628, 13.379
704832.00783, 3,   1.771, 10.753, -1.809, 4,  -0.038, -0.328, -0.026, 5,  23.323,-43.607, 11.928
704832.02770, 3,   1.766, 10.509, -1.905, 4,   0.004, -0.272, -0.065, 5,  21.973,-44.357, 13.379
704832.04757, 3,   1.012,  8.865, -2.812, 4,   0.024, -0.235, -0.076, 5,  23.990,-43.591, 11.928
704832.06743, 3,   0.909,  8.920, -4.087, 4,   0.050, -0.242, -0.092, 5,  24.008,-42.882, 13.379
704832.08727, 3,  -0.780, 10.586, -3.922, 4,   0.029, -0.290, -0.137, 5,  24.008,-42.882, 13.379
704832.10717, 3,  -2.256,  9.255, -0.617, 4,  -0.043, -0.307, -0.150, 5,  24.008,-42.882, 13.379
704832.12703, 3,  -2.448, 10.114, -0.134, 4,  -0.136, -0.379, -0.111, 5,  22.655,-43.623, 11.926
704832.14690, 3,  -2.524,  9.748, -0.955, 4,  -0.122, -0.539, -0.069, 5,  23.293,-45.036, 12.657
704832.16677, 3,  -3.025,  9.722, -2.529, 4,  -0.049, -0.677, -0.026, 5,  22.668,-42.905,  9.746
704832.18664, 3,  -2.017,  9.289, -3.515, 4,   0.015, -0.688,  0.025, 5,  23.320,-43.602,  9.749
704832.20650, 3,  -1.330,  9.705, -3.503, 4,   0.050, -0.643,  0.087, 5,  22.633,-44.330,  9.023
704832.22637, 3,  -0.871,  9.653, -2.785, 4,   0.060, -0.509,  0.130, 5,  25.941,-45.677,  9.756
704832.24624, 3,  -0.675, 10.500, -2.649, 4,   0.059, -0.296,  0.155, 5,  24.655,-43.570,  9.750
704832.26610, 3,   0.409,  9.679, -2.386, 4,   0.064, -0.107,  0.163, 5,  23.988,-43.590, 11.200
704832.28594, 3,   0.211,  8.049, -1.941, 4,   0.072,  0.047,  0.164, 5,  23.325,-43.611, 13.380
704832.30581, 3,   0.488,  8.887, -3.386, 4,   0.075,  0.184,  0.146, 5,  24.672,-42.856,  9.749
704832.32567, 3,  -0.368, 12.376, -2.847, 4,   0.089,  0.288,  0.118, 5,  23.306,-44.319, 11.929
704832.34554, 3,   0.098,  8.822,  0.826, 4,   0.053,  0.367,  0.098, 5,  25.310,-44.272, 11.932
704832.36541, 3,   0.950,  9.464, -1.091, 4,  -0.027,  0.382,  0.093, 5,  27.299,-44.943, 14.116
704832.38527, 3,   1.211, 10.595, -3.338, 4,   0.011,  0.312,  0.084, 5,  27.249,-47.081, 13.396
704832.40517, 3,   0.385,  7.714, -2.907, 4,   0.062,  0.268,  0.046, 5,  24.660,-43.578, 12.656
704832.42504, 3,  -1.706, 10.770, -4.128, 4,   0.031,  0.224, -0.004, 5,  23.305,-44.318, 11.201
704832.44491, 3,  -2.429, 11.019, -1.960, 4,   0.005,  0.173, -0.025, 5,  23.973,-44.304, 11.929
704832.46477, 3,  -1.115,  9.033,  0.287, 4,  -0.065,  0.047, -0.003, 5,  23.972,-44.302, 11.201
704832.48464, 3,  -0.213,  9.660, -2.161, 4,  -0.103, -0.157,  0.035, 5,  23.322,-43.605, 11.200
704832.50448, 3,  -0.859, 10.313, -3.453, 4,  -0.031, -0.324,  0.057, 5,  23.958,-45.018, 11.931
704832.52434, 3,  -0.380,  8.980, -3.431, 4,   0.018, -0.361,  0.061, 5,  24.005,-42.874, 10.474
704832.54421, 3,  -0.514,  9.732, -2.969, 4,   0.004, -0.351,  0.074, 5,  23.338,-42.891, 11.198
704832.56408, 3,   0.199,  9.150, -2.405, 4,  -0.006, -0.357,  0.078, 5,  23.322,-43.604, 10.475
704832.58394, 3,  -0.469,  8.301, -2.436, 4,   0.007, -0.350,  0.100, 5,  22.002,-42.921,  9.744
704832.60381, 3,   0.067, 11.524, -3.455, 4,   0.039, -0.324,  0.090, 5,  22.653,-43.620, 10.474
704832.62368, 3,   0.285, 10.404, -2.402, 4,   0.078, -0.259,  0.086, 5,  21.954,-45.064, 10.475
704832.64354, 3,   1.945,  8.059, -0.333, 4,   0.056, -0.171,  0.126, 5,  22.638,-44.336, 11.928
704832.66341, 3,   1.223, 10.756, -1.976, 4,   0.037, -0.096,  0.112, 5,  22.670,-42.908, 11.197
704832.68331, 3,   0.404, 12.213, -3.398, 4,   0.081, -0.005,  0.068, 5,  22.685,-42.194, 10.469
704832.70315, 3,   0.584,  8.758, -0.421, 4,   0.073,  0.128,  0.039, 5,  21.968,-44.348,  9.747
704832.72301, 3,  -1.230, 10.830, -0.208, 4,  -0.004,  0.230,  0.026, 5,  20.647,-43.665,  8.292
704832.74288, 3,  -2.244,  9.337, -0.086, 4,  -0.032,  0.290,  0.042, 5,  21.298,-44.360,  8.293
704832.76275, 3,  -1.531,  8.011, -0.940, 4,  -0.048,  0.228,  0.041, 5,  21.317,-43.649,  9.018
704832.78261, 3,  -2.788, 11.672, -3.623, 4,  -0.017,  0.090,  0.024, 5,  20.683,-42.242, 10.466
704832.80248, 3,  -1.034, 10.253, -2.089, 4,   0.039,  0.028,  0.052, 5,  21.303,-44.366, 11.197
704832.82235, 3,  -0.163,  9.363, -0.596, 4,   0.010,  0.055,  0.109, 5,  19.313,-43.698,  9.015
704832.84221, 3,   0.108,  8.454, -1.354, 4,   0.005,  0.106,  0.133, 5,  20.015,-42.259, 10.464
704832.86208, 3,   1.053, 11.040, -3.630, 4,   0.050,  0.144,  0.114, 5,  19.998,-42.970,  9.741
704832.88195, 3,   1.072,  9.263, -3.785, 4,   0.101,  0.210,  0.097, 5,  19.966,-44.398, 10.471
704832.90178, 3,   2.587,  9.052, -3.237, 4,   0.100,  0.316,  0.090, 5,  20.033,-41.548, 11.916
704832.92165, 3,   1.529, 10.548, -2.596, 4,   0.067,  0.380,  0.065, 5,  17.979,-43.735, 10.466
704832.94152, 3,   0.620,  8.231, -1.517, 4,   0.064,  0.444,  0.040, 5,  20.052,-40.837, 12.640
704832.96142, 3,   2.154,  9.370, -3.482, 4,   0.055,  0.369,  0.013, 5,  17.361,-41.609, 10.458
704832.98128, 3,   1.555,  8.078, -4.735, 4,   0.066,  0.168, -0.026, 5,  17.329,-43.036, 10.463
704833.00115, 3,   0.077,  7.918, -4.209, 4,   0.033, -0.003, -0.089, 5,  16.695,-41.626, 10.457
704833.02102, 3,  -0.799,  8.717, -3.979, 4,  -0.007, -0.102, -0.136, 5,  16.704,-40.901,  6.097
704833.04088, 3,  -2.620, 10.567, -4.166, 4,  -0.037, -0.168, -0.145, 5,  16.054,-40.205,  6.822
704833.06075, 3,  -2.534, 11.057, -2.847, 4,  -0.040, -0.246, -0.128, 5,  15.388,-40.227,  8.273
704833.08062, 3,  -1.665,  9.882, -1.857, 4,  -0.055, -0.330, -0.106, 5,  15.399,-39.503,  4.640
704833.10045, 3,  -4.412,  9.559, -2.912, 4,  -0.054, -0.410, -0.075, 5,  15.417,-38.792,  5.363
704833.12032, 3,  -3.491,  8.231, -2.134, 4,   0.012, -0.406, -0.037, 5,  15.387,-40.222,  6.821
704833.14019, 3,  -2.283,  6.497, -2.005, 4,   0.059, -0.379,  0.029, 5,  16.704,-40.900,  5.371
704833.16005, 3,  -0.921, 11.488, -4.975, 4,   0.095, -0.345,  0.115, 5,  17.387,-40.172,  6.097
704833.17992, 3,  -0.459, 10.732, -2.864, 4,   0.116, -0.257,  0.179, 5,  16.655,-43.042,  6.104
704833.19979, 3,  -0.593,  9.921, -0.124, 4,   0.039, -0.112,  0.190, 5,  18.039,-40.871,  6.827
704833.21966, 3,  -0.048, 10.155, -0.893, 4,  -0.002,  0.066,  0.181, 5,  18.674,-42.282,  6.831
704833.23952, 3,   0.129,  9.669, -2.828, 4,   0.061,  0.307,  0.184, 5,  17.390,-40.176,  7.550
704833.25942, 3,   0.278,  9.471, -4.173, 4,   0.121,  0.553,  0.183, 5,  18.697,-41.579, 11.186
704833.27929, 3,   0.806,  8.784, -2.218, 4,   0.120,  0.753,  0.175, 5,  19.365,-41.562, 11.186
704833.29915, 3,   0.840, 10.296, -1.168, 4,   0.060,  0.861,  0.155, 5,  18.010,-42.307,  9.735
704833.31899, 3,   0.333, 10.191, -0.727, 4,   0.005,  0.871,  0.124, 5,  18.681,-42.294, 11.916
704833.33886, 3,  -0.826,  9.909, -0.613, 4,  -0.034,  0.823,  0.092, 5,  19.368,-41.566, 12.640
704833.35872, 3,  -0.608,  9.389, -1.244, 4,  -0.021,  0.689,  0.065, 5,  18.013,-42.311, 11.914
704833.37859, 3,  -0.105, 10.313, -2.316, 4,   0.005,  0.513,  0.054, 5,  17.982,-43.742, 13.371
704833.39846, 3,  -0.089,  8.583, -2.484, 4,   0.021,  0.382,  0.052, 5,  18.683,-42.297, 12.642
704833.41832, 3,   1.067, 10.459, -3.587, 4,  -0.010,  0.321,  0.041, 5,  19.368,-41.566, 12.640
704833.43819, 3,   1.103,  9.760, -3.132, 4,  -0.018,  0.300,  0.043, 5,  18.668,-43.010, 12.645
704833.45806, 3,  -0.201,  9.107, -1.505, 4,  -0.059,  0.373,  0.028, 5,  18.033,-41.603, 14.091
704833.47789, 3,  -0.665,  7.470, -0.481, 4,  -0.088,  0.485, -0.003, 5,  16.014,-42.365, 14.090
704833.49779, 3,   0.950, 12.325, -1.548, 4,  -0.068,  0.540, -0.003, 5,  17.334,-43.045, 14.095
704833.51763, 3,   0.483,  7.267, -2.577, 4,  -0.017,  0.481,  0.001, 5,  16.634,-44.489, 14.096
704833.53753, 3,   0.964,  8.693, -5.176, 4,   0.035,  0.405, -0.013, 5,  18.015,-42.316, 13.367
704833.55739, 3,  -1.007, 10.971, -5.762, 4,   0.122,  0.508, -0.041, 5,  18.002,-43.031, 14.821
704833.57726, 3,  -0.849, 10.110, -1.919, 4,   0.089,  0.538, -0.068, 5,  18.686,-42.302, 14.819
704833.59713, 3,  -0.759,  9.928, -0.833, 4,  -0.039,  0.498, -0.095, 5,  17.336,-43.048, 15.547
704833.61699, 3,   0.593, 11.000, -1.630, 4,  -0.077,  0.377, -0.068, 5,  17.332,-43.042, 12.642
704833.63686, 3,   0.211,  8.908, -1.761, 4,  -0.039,  0.261, -0.043, 5,  18.033,-41.603, 14.091
704833.65673, 3,   0.112,  9.710, -2.623, 4,   0.021,  0.213, -0.056, 5,  16.049,-40.939, 15.540
704833.67659, 3,   1.017,  9.435, -4.283, 4,   0.073,  0.155, -0.100, 5,  18.034,-41.605, 14.816
704833.69646, 3,   0.127,  8.980, -3.022, 4,   0.087,  0.163, -0.120, 5,  17.351,-42.336, 15.544
704833.71630, 3,   1.184,  9.868, -2.383, 4,   0.056,  0.239, -0.106, 5,  18.668,-43.011, 13.371
704833.73617, 3,   1.077,  8.045, -1.448, 4,   0.013,  0.311, -0.097, 5,  18.686,-42.302, 14.819
704833.75603, 3,   0.622, 11.029, -3.178, 4,   0.016,  0.373, -0.115, 5,  17.337,-43.050, 16.273
704833.77590, 3,   1.263,  8.801, -2.565, 4,   0.045,  0.442, -0.147, 5,  17.369,-41.623, 16.269
704833.79577, 3,   0.488,  9.081, -2.697, 4,   0.024,  0.552, -0.154, 5,  18.033,-41.603, 14.091
704833.81563, 3,  -0.335, 10.705, -3.991, 4,   0.050,  0.580, -0.169, 5,  18.004,-43.034, 16.275
704833.83553, 3,  -1.079,  8.420, -2.168, 4,   0.060,  0.492, -0.209, 5,  18.019,-42.322, 16.272
704833.85540, 3,  -1.357,  9.626, -3.082, 4,   0.031,  0.434, -0.220, 5,  18.689,-42.307, 17.000
704833.87526, 3,  -0.672, 11.617, -3.431, 4,   0.022,  0.314, -0.203, 5,  18.672,-43.018, 16.277
704833.89513, 3,  -0.826,  6.506, -1.271, 4,   0.004,  0.189, -0.174, 5,  18.723,-40.878, 16.997
704833.91500, 3,  -1.467, 10.402, -3.168, 4,  -0.040,  0.068, -0.161, 5,  18.687,-42.305, 16.273
704833.93483, 3,  -0.754,  9.964, -4.015, 4,   0.012, -0.036, -0.142, 5,  18.701,-41.586, 14.093
704833.95470, 3,  -0.763, 10.040, -2.876, 4,   0.005, -0.148, -0.112, 5,  19.389,-40.860, 16.270
704833.97457, 3,   1.675,  9.808, -2.692, 4,  -0.026, -0.268, -0.085, 5,  20.055,-40.843, 15.546
704833.99444, 3,   1.802,  8.748, -3.718, 4,  -0.032, -0.388, -0.086, 5,  20.692,-42.258, 17.003
704834.01430, 3,   2.570, 11.675, -4.460, 4,  -0.004, -0.422, -0.102, 5,  20.009,-42.990, 17.731
704834.03417, 3,   1.072,  8.815, -1.338, 4,   0.006, -0.366, -0.111, 5,  22.012,-42.938, 17.007
704834.05404, 3,   1.981,  9.200, -2.658, 4,  -0.050, -0.310, -0.125, 5,  20.689,-42.255, 15.550
704834.07390, 3,  -0.112,  7.344, -3.403, 4,  -0.029, -0.399, -0.158, 5,  21.391,-40.808, 14.819
704834.09377, 3,  -0.517,  6.906, -5.575, 4,   0.001, -0.461, -0.191, 5,  20.656,-43.678, 14.102
704834.11367, 3,  -1.034, 11.411, -5.169, 4,   0.010, -0.565, -0.176, 5,  22.708,-41.490, 14.824
704834.13350, 3,  -0.397, 10.952,  0.541, 4,  -0.054, -0.631, -0.134, 5,  22.023,-42.220, 14.099
704834.15337, 3,   0.048,  9.232,  0.928, 4,  -0.187, -0.589, -0.081, 5,  21.388,-40.805, 13.368
704834.17324, 3,  -0.811,  9.732, -2.958, 4,  -0.177, -0.617, -0.098, 5,  22.021,-42.216, 12.646
704834.19310, 3,  -0.156, 10.863, -4.817, 4,  -0.033, -0.697, -0.104, 5,  22.006,-42.929, 12.650
704834.21297, 3,  -0.038,  9.031, -3.044, 4,   0.026, -0.645, -0.071, 5,  22.676,-42.917, 14.828
704834.23284, 3,  -0.565,  9.354, -1.991, 4,  -0.027, -0.427, -0.045, 5,  23.344,-42.902, 15.558
704834.25271, 3,   0.416, 10.469, -1.802, 4,  -0.049, -0.237, -0.027, 5,  24.022,-42.165, 11.923
704834.27257, 3,   0.122,  8.157, -2.457, 4,  -0.041, -0.142, -0.015, 5,  22.656,-43.626, 12.653
704834.29244, 3,   0.486, 10.299, -4.264, 4,  -0.032, -0.112, -0.024, 5,  24.025,-42.171, 14.102
704834.31231, 3,  -0.536, 10.088, -1.302, 4,  -0.024, -0.115, -0.036, 5,  24.010,-42.883, 14.105
704834.33214, 3,  -0.943,  9.200, -0.132, 4,  -0.083, -0.064, -0.029, 5,  24.677,-42.863, 12.654
704834.35201, 3,  -0.459, 10.148, -2.242, 4,  -0.103, -0.074, -0.024, 5,  21.983,-43.634,  9.019
704834.37188, 3,   0.380, 10.162, -4.037, 4,  -0.020, -0.207, -0.032, 5,  24.677,-42.865, 13.380
704834.39177, 3,  -0.294,  9.031, -3.115, 4,   0.012, -0.322, -0.043, 5,  23.341,-42.897, 13.379
704834.41164, 3,  -0.345,  9.392, -3.321, 4,  -0.015, -0.302, -0.045, 5,  24.007,-42.877, 11.926
704834.43151, 3,  -1.266,  8.841, -3.501, 4,  -0.034, -0.261, -0.042, 5,  23.323,-43.607, 11.928
704834.45138, 3,  -1.460,  9.904, -2.931, 4,  -0.039, -0.242, -0.027, 5,  23.975,-44.308, 13.382
704834.47124, 3,  -0.364,  8.681, -2.603, 4,  -0.043, -0.295, -0.008, 5,  24.706,-41.432, 11.195
704834.49111, 3,  -0.022,  9.787, -3.187, 4,  -0.057, -0.397,  0.002, 5,  25.360,-42.136, 12.653
704834.51098, 3,   1.089, 10.158, -3.654, 4,  -0.026, -0.468,  0.001, 5,  24.654,-43.568,  9.024
704834.53081, 3,   1.333,  8.002, -2.568, 4,  -0.015, -0.477,  0.012, 5,  24.689,-42.146, 11.197
704834.55068, 3,   2.122, 11.959, -3.149, 4,  -0.022, -0.457,  0.009, 5,  24.657,-43.571, 10.477
704834.57055, 3,   0.491,  8.497, -1.139, 4,  -0.018, -0.473, -0.016, 5,  23.987,-43.587,  9.749
704834.59041, 3,   0.476,  8.289, -1.809, 4,  -0.043, -0.460, -0.046, 5,  24.689,-42.145, 10.472
704834.61028, 3,   0.048, 12.720, -5.704, 4,   0.037, -0.549, -0.087, 5,  25.337,-42.836,  7.571
704834.63015, 3,  -1.460,  6.451, -2.606, 4,   0.103, -0.647, -0.101, 5,  26.021,-42.110,  9.021
704834.65001, 3,  -2.359,  9.552, -3.015, 4,   0.004, -0.645, -0.095, 5,  26.006,-42.822,  9.024
704834.66988, 3,  -3.520, 11.091, -2.582, 4,  -0.028, -0.650, -0.087, 5,  25.987,-43.533,  7.573
704834.68978, 3,  -1.493, 10.016,  0.110, 4,  -0.051, -0.625, -0.032, 5,  26.688,-42.091,  8.296
704834.70965, 3,  -0.821, 10.263, -0.225, 4,  -0.085, -0.630,  0.046, 5,  25.337,-42.838,  8.298
704834.72948, 3,   0.383,  9.789, -2.759, 4,  -0.016, -0.647,  0.081, 5,  25.357,-42.130, 10.474
704834.74935, 3,   0.567,  9.679, -5.032, 4,   0.094, -0.630,  0.072
704834.76922, 3,   0.730,  9.650, -4.977, 4,   0.150, -0.537,  0.069, 5,  25.305,-44.266,  9.027
704834.78908, 3,   1.165,  9.098, -3.278, 4,   0.089, -0.402,  0.073, 5,  25.987,-43.535,  8.299
704834.80895, 3,  -0.045, 10.024, -1.534, 4,  -0.006, -0.275,  0.069, 5,  25.334,-42.830,  5.392
704834.82882, 3,   0.359, 10.117, -0.639, 4,  -0.046, -0.211,  0.061, 5,  24.654,-43.568,  9.024
704834.84868, 3,  -0.175, 10.612, -1.223, 4,  -0.050, -0.277,  0.050, 5,  25.319,-43.547,  6.847
704834.86855, 3,  -1.278,  8.748, -1.134, 4,  -0.016, -0.399,  0.030, 5,  25.319,-43.547,  6.847
704834.88842, 3,  -2.601,  8.490, -2.445, 4,   0.013, -0.494,  0.015, 5,  25.319,-43.547,  6.847
704834.90828, 3,  -2.670, 10.332, -3.649, 4,   0.059, -0.562,  0.039, 5,  24.651,-43.562,  6.845
704834.92815, 3,  -1.543,  9.169, -2.347, 4,   0.073, -0.549,  0.086, 5,  26.622,-44.940,  6.851
704834.94799, 3,  -1.225, 10.354, -1.563, 4,   0.035, -0.525,  0.133, 5,  24.635,-44.278,  7.573
704834.96789, 3,  -0.522,  8.093, -2.419, 4,   0.034, -0.515,  0.167, 5,  24.013,-42.151,  6.113
704834.98775, 3,  -0.366,  8.966, -4.075, 4,   0.066, -0.529,  0.180, 5,  25.334,-42.830,  5.392
704835.00762, 3,  -0.010, 11.866, -4.764, 4,   0.110, -0.505,  0.188, 5,  23.996,-42.860,  4.663
704835.02749, 3,   0.692, 10.691, -1.809, 4,   0.084, -0.386,  0.200, 5,  24.617,-44.986,  5.396
704835.04735, 3,   1.340,  9.689,  0.467, 4,  -0.022, -0.258,  0.214, 5,  24.663,-42.842,  3.938
704835.06722, 3,   0.261,  9.760, -0.464, 4,  -0.020, -0.187,  0.211, 5,  23.328,-42.874,  3.937
704835.08709, 3,  -1.041,  8.973, -2.891, 4,   0.066, -0.165,  0.166, 5,  24.629,-44.269,  3.941
704835.10695, 3,  -1.345,  8.497, -4.762, 4,   0.165, -0.164,  0.103, 5,  24.617,-44.986,  5.396
704835.12682, 3,  -2.017,  9.531, -4.161, 4,   0.180, -0.147,  0.093, 5,  23.314,-43.593,  6.117
704835.14666, 3,  -1.031,  9.188, -1.357, 4,   0.122, -0.048,  0.125, 5,  23.962,-44.287,  4.666
704835.16652, 3,  -1.323,  9.739, -0.629, 4,   0.034,  0.039,  0.163, 5,  23.294,-44.301,  3.940
704835.18639, 3,  -1.486,  9.990, -1.271, 4,   0.016,  0.108,  0.168, 5,  21.945,-45.050,  4.665
704835.20626, 3,  -1.507, 10.100, -2.340, 4,   0.045,  0.124,  0.167, 5,  23.282,-45.020,  6.120
704835.22612, 3,  -0.636,  8.545, -3.647, 4,   0.087,  0.125,  0.183, 5,  23.279,-45.015,  3.941
704835.24599, 3,   0.172, 10.725, -3.936, 4,   0.099,  0.129,  0.185, 5,  23.296,-44.302,  4.666
704835.26589, 3,  -0.392,  9.086, -1.321, 4,   0.088,  0.259,  0.179, 5,  21.910,-46.475,  3.941
704835.28576, 3,  -0.424, 10.753, -2.323, 4,   0.034,  0.430,  0.172, 5,  21.930,-45.764,  5.392
704835.30562, 3,  -1.263,  9.162, -1.594, 4,   0.028,  0.480,  0.155, 5,  22.630,-44.324,  6.844
704835.32549, 3,  -0.467,  7.269, -2.969, 4,   0.039,  0.453,  0.146, 5,  19.945,-45.103,  6.841
704835.34533, 3,  -0.900, 11.332, -4.314, 4,   0.056,  0.419,  0.129, 5,  21.295,-44.354,  6.114
704835.36519, 3,  -1.630,  9.949, -1.328, 4,   0.071,  0.458,  0.115, 5,  22.597,-45.749,  6.120
704835.38506, 3,  -0.548, 10.110, -0.512, 4,   0.006,  0.527,  0.131, 5,  22.618,-45.044,  9.024
704835.40493, 3,   0.952,  8.559, -3.142, 4,   0.016,  0.456,  0.131, 5,  21.965,-44.344,  7.568
704835.42479, 3,   0.244, 10.258, -5.470, 4,   0.105,  0.348,  0.108, 5,  20.615,-45.091,  8.295
704835.44466, 3,  -1.230,  7.973, -3.458, 4,   0.139,  0.383,  0.072, 5,  21.297,-44.356,  6.841
704835.46453, 3,  -1.223,  9.284, -3.321, 4,   0.059,  0.433,  0.037, 5,  20.630,-44.377,  8.293
704835.48440, 3,  -1.151,  9.732, -2.288, 4,   0.027,  0.405,  0.028, 5,  21.266,-45.787,  8.296
704835.50426, 3,   0.170,  9.471, -2.989, 4,   0.018,  0.344,  0.037, 5,  21.281,-45.070,  6.842
704835.52413, 3,  -0.622,  9.808, -1.945, 4,  -0.001,  0.272,  0.034, 5,  20.596,-45.799,  6.844
704835.54339, 3,  -1.117,  9.239, -2.271, 4,  -0.006,  0.256,  0.023, 5,  20.598,-45.802,  7.570
704835.56386, 3,  -1.862,  8.538, -2.393, 4,  -0.006,  0.259,  0.021, 5,  24.538,-48.560,  8.310
704835.58373, 3,  -0.675, 10.610, -3.015, 4,   0.015,  0.219,  0.026, 5,  21.918,-46.487,  9.026
704835.60360, 3,  -1.584,  9.607, -1.718, 4,   0.026,  0.161,  0.046, 5,  19.246,-46.548,  7.568
704835.62346, 3,  -0.644,  9.973, -2.156, 4,   0.010,  0.185,  0.059, 5,  19.931,-45.822,  9.021
704835.64333, 3,   0.328, 10.301, -3.371, 4,   0.029,  0.215,  0.075, 5,  21.236,-47.215,  9.027
704835.66320, 3,   0.036,  7.322, -3.321, 4,   0.059,  0.240,  0.091, 5,  21.249,-46.501,  8.298
704835.68306, 3,   0.945, 10.244, -4.826, 4,   0.049,  0.300,  0.082, 5,  20.583,-46.519,  9.024
704835.70293, 3,   0.017,  9.913, -1.804, 4,   0.040,  0.370,  0.062, 5,  19.930,-45.819,  7.568
704835.72280, 3,  -0.074, 10.076, -1.950, 4,  -0.026,  0.497,  0.043, 5,  21.266,-45.787,  8.296
704835.74263, 3,   0.017,  9.054, -1.653, 4,  -0.041,  0.524,  0.020, 5,  21.254,-46.506, 10.477
704835.76253, 3,  -0.194, 11.476, -2.960, 4,  -0.010,  0.437,  0.003, 5,  21.906,-47.203, 10.481
704835.78237, 3,   0.191,  7.650, -2.891, 4,   0.026,  0.376, -0.001, 5,  19.899,-47.249,  9.026
704835.80224, 3,  -0.586,  9.842, -2.855, 4,   0.010,  0.315, -0.010, 5,  20.570,-47.235, 10.480
704835.82213, 3,  -1.046,  9.638, -4.097, 4,   0.024,  0.263, -0.038, 5,  22.636,-44.334, 11.200
704835.84200, 3,  -1.292,  9.751, -2.101, 4,  -0.017,  0.238, -0.035, 5,  21.938,-45.778, 11.201
704835.86187, 3,  -1.701,  9.456, -0.632, 4,  -0.061,  0.201, -0.007, 5,  21.251,-46.503,  9.024
704835.88173, 3,  -0.321, 10.588, -2.314, 4,  -0.088,  0.140, -0.002, 5,  21.919,-46.489,  9.752
704835.90160, 3,   0.337,  8.786, -2.118, 4,  -0.043,  0.080,  0.014, 5,  20.587,-46.526, 11.929
704835.92147, 3,   0.945, 10.950, -3.120, 4,  -0.012,  0.102,  0.019, 5,  21.255,-46.509, 11.929
704835.94133, 3,   1.027,  8.566, -2.989, 4,   0.001,  0.158,  0.012, 5,  19.919,-46.542, 11.928
704835.96120, 3,   0.625,  8.674, -2.819, 4,  -0.002,  0.251, -0.021, 5,  22.588,-46.474, 10.480
704835.98104, 3,   1.251, 10.629, -4.405, 4,   0.010,  0.289, -0.051, 5,  21.938,-45.776, 10.477
704836.00091, 3,   0.881,  7.305, -2.582, 4,   0.015,  0.285, -0.063, 5,  21.239,-47.218, 10.480
704836.02077, 3,   0.591, 10.866, -3.326, 4,  -0.023,  0.267, -0.078, 5,  20.602,-45.808, 10.475
704836.04064, 3,   0.773, 10.447, -1.921, 4,  -0.029,  0.183, -0.113, 5,  21.938,-45.778, 11.201
704836.06051, 3,   0.000,  9.083, -1.381, 4,  -0.068,  0.117, -0.141, 5,  19.936,-45.828, 11.926
704836.08037, 3,   0.476, 10.301, -3.118, 4,  -0.052,  0.029, -0.144, 5,  21.938,-45.778, 11.201
704836.10024, 3,  -0.103,  9.531, -4.223, 4,   0.016, -0.121, -0.153, 5,  21.254,-46.507, 11.201
704836.12014, 3,  -0.770,  9.169, -2.491, 4,   0.027, -0.180, -0.142, 5,  20.587,-46.526, 11.929
704836.14000, 3,  -1.785,  9.473, -0.622, 4,  -0.008, -0.224, -0.124, 5,  23.941,-45.731, 11.932
704836.15987, 3,  -1.421,  9.643, -1.708, 4,  -0.035, -0.318, -0.112, 5,  21.257,-46.512, 12.656
704836.17971, 3,  -1.421, 10.308, -3.336, 4,  -0.018, -0.428, -0.085, 5,  23.305,-44.318, 11.201
704836.19957, 3,  -0.737,  8.942, -3.860, 4,   0.009, -0.517, -0.051, 5,  22.621,-45.049, 11.201
704836.21944, 3,   0.491,  8.267, -3.479, 4,   0.018, -0.478, -0.007, 5,  21.236,-47.215,  9.027
704836.23931, 3,   0.364,  9.622, -2.661, 4,   0.006, -0.341,  0.037, 5,  23.276,-45.749, 12.659
704836.25918, 3,   0.687, 10.356, -2.673, 4,   0.012, -0.185,  0.059, 5,  23.940,-45.728, 10.480
704836.27904, 3,   1.708,  9.389, -1.649, 4,   0.007, -0.013,  0.042, 5,  22.588,-46.475, 11.205
704836.29891, 3,   1.570, 11.091, -1.993, 4,  -0.004,  0.132,  0.018, 5,  23.274,-45.746, 11.932
704836.31878, 3,   1.177,  6.700, -1.469, 4,   0.018,  0.248, -0.015, 5,  22.588,-46.475, 11.205
704836.33864, 3,   0.225, 10.524, -4.912, 4,   0.026,  0.359, -0.064, 5,  22.621,-45.047, 10.477
704836.35851, 3,  -0.299, 10.476, -3.281, 4,   0.061,  0.376, -0.102, 5,  21.921,-46.492, 11.203
704836.37838, 3,  -0.400, 10.272,  0.079, 4,  -0.015,  0.372, -0.104, 5,  22.624,-45.053, 12.656
704836.39824, 3,  -0.931,  8.605, -0.998, 4,  -0.098,  0.270, -0.095, 5,  23.288,-45.029,  9.752
704836.41811, 3,  -1.797, 10.830, -3.005, 4,  -0.059,  0.068, -0.111, 5,  23.940,-45.728, 10.480
704836.43798, 3,  -2.378,  9.648, -2.828, 4,   0.011, -0.134, -0.117, 5,  23.289,-45.032, 11.203
704836.45784, 3,  -2.005, 10.074, -3.202, 4,  -0.018, -0.281, -0.093, 5,  24.606,-45.709,  9.755
704836.47771, 3,  -1.833,  9.574, -2.187, 4,  -0.046, -0.391, -0.056, 5,  24.640,-44.286, 11.203
704836.49758, 3,  -0.998,  8.648, -2.797, 4,  -0.048, -0.423,  0.003, 5,  23.956,-45.015, 10.478
704836.51745, 3,   0.081,  8.813, -3.230, 4,  -0.028, -0.405,  0.041, 5,  23.303,-44.315,  9.750
704836.53731, 3,   0.780,  9.693, -3.630, 4,   0.020, -0.345,  0.065, 5,  25.339,-42.839,  9.024
704836.55718, 3,   1.424,  9.114, -2.792, 4,   0.016, -0.209,  0.076, 5,  23.286,-45.027,  9.026
704836.57705, 3,   1.467, 11.634, -2.326, 4,  -0.012, -0.035,  0.072, 5,  24.606,-45.709,  9.755
704836.59688, 3,   0.373,  9.215,  0.053, 4,  -0.029,  0.116,  0.041, 5,  24.606,-45.709,  9.755
704836.61675, 3,   0.778, 11.565, -1.560, 4,  -0.049,  0.221,  0.001, 5,  23.286,-45.027,  9.026
704836.63662, 3,   1.278,  8.557, -1.668, 4,   0.002,  0.179, -0.021, 5,  24.608,-45.712, 11.206
704836.65648, 3,   0.763,  8.435, -3.025, 4,   0.028,  0.121, -0.045, 5,  25.308,-44.270, 11.205
704836.67635, 3,   0.414, 11.426, -4.740, 4,   0.046,  0.077, -0.069, 5,  25.310,-44.272, 11.932
704836.69625, 3,  -0.522,  9.863, -1.359, 4,   0.031,  0.064, -0.082, 5,  25.975,-44.252, 10.480
704836.71612, 3,  -0.287, 11.110, -0.488, 4,  -0.081,  0.030, -0.073, 5,  23.987,-43.587,  9.749
704836.73598, 3,  -0.572,  9.416,  0.017, 4,  -0.122, -0.115, -0.068, 5,  23.334,-42.885,  8.295
704836.75585, 3,  -1.134,  9.114, -2.041, 4,  -0.090, -0.305, -0.056, 5,  24.606,-45.709,  9.755
704836.77572, 3,  -1.117,  9.437, -4.972, 4,  -0.021, -0.488, -0.064, 5,  23.987,-43.587,  9.749
704836.79558, 3,  -1.357,  8.645, -4.532, 4,   0.031, -0.586, -0.071, 5,  22.632,-44.328,  8.296
704836.81542, 3,  -0.955,  8.284, -3.360, 4,   0.026, -0.496, -0.025, 5,  23.953,-45.012,  9.026
704836.83529, 3,  -1.031, 11.282, -2.859, 4,  -0.016, -0.355,  0.030, 5,  24.634,-44.275,  6.847
704836.85515, 3,  -0.225, 10.849, -1.323, 4,  -0.032, -0.279,  0.053, 5,  23.286,-45.027,  9.026
704836.87502, 3,   0.816,  6.145, -0.720, 4,  -0.045, -0.215,  0.076, 5,  24.635,-44.279,  8.299
704836.89489, 3,   0.424, 12.916, -4.903, 4,   0.009, -0.107,  0.078, 5,  23.300,-44.312,  8.298
704836.91475, 3,  -0.177,  9.930, -2.024, 4,   0.100,  0.001,  0.048, 5,  24.635,-44.279,  8.299
704836.93462, 3,  -0.196,  7.475,  0.132, 4,   0.045,  0.171,  0.026, 5,  23.936,-45.724,  9.027
704836.95449, 3,  -0.569, 11.488, -4.130, 4,   0.028,  0.204, -0.004, 5,  23.334,-42.885,  8.295
704836.97439, 3,   0.280,  6.298, -3.376, 4,   0.131,  0.186, -0.024, 5,  23.988,-43.590, 11.200
704836.99425, 3,   0.407,  9.959, -4.929, 4,   0.100,  0.149, -0.029, 5,  24.623,-44.997,  9.753
704837.01409, 3,  -0.335,  9.705, -2.606, 4,   0.055,  0.144, -0.038, 5,  24.673,-42.857, 10.475
704837.03396, 3,  -0.904,  9.392,  0.048, 4,  -0.041,  0.169, -0.037, 5,  23.969,-44.298,  9.024
704837.05382, 3,  -0.409, 10.000, -0.761, 4,  -0.099,  0.063, -0.038, 5,  25.352,-42.125,  8.295
704837.07369, 3,  -1.058,  9.949, -1.055, 4,  -0.052, -0.121, -0.040, 5,  24.638,-44.283,  9.752
704837.09356, 3,  -0.586,  9.693, -2.620, 4,   0.005, -0.251, -0.040, 5,  25.304,-44.264,  8.301
704837.11342, 3,  -1.486,  9.574, -4.061, 4,   0.051, -0.322, -0.058, 5,  24.635,-44.279,  8.299
704837.13329, 3,  -2.118,  9.035, -4.733, 4,   0.083, -0.285, -0.059, 5,  25.337,-42.836,  7.571
704837.15316, 3,  -2.292, 10.442, -3.697, 4,   0.062, -0.175, -0.019, 5,  24.001,-42.868,  7.568
704837.17302, 3,  -1.261,  9.504, -0.895, 4,   0.007, -0.066,  0.035, 5,  23.969,-44.298,  9.024
704837.19289, 3,  -0.766,  9.057, -0.412, 4,  -0.066, -0.026,  0.070, 5,  25.304,-44.264,  8.301
704837.21273, 3,  -0.100,  8.042, -3.613, 4,  -0.031, -0.070,  0.079, 5,  26.036,-41.394,  8.293
704837.23259, 3,   0.639, 10.880, -5.104, 4,   0.077, -0.129,  0.075, 5,  23.967,-44.296,  8.298
704837.25249, 3,   0.864,  8.401, -2.761, 4,   0.123, -0.107,  0.068, 5,  26.038,-41.396,  9.019
704837.27236, 3,   1.567, 10.940, -2.575, 4,   0.046,  0.012,  0.058, 5,  25.272,-45.689,  7.578
704837.29223, 3,   1.326,  9.825, -1.429, 4,   0.018,  0.089,  0.042, 5,  26.689,-42.093,  9.023
704837.31209, 3,   2.020,  9.016, -2.343, 4,  -0.031,  0.113,  0.029, 5,  25.958,-44.965,  9.755
704837.33196, 3,   0.098, 12.261, -3.785, 4,  -0.052,  0.059, -0.001, 5,  25.320,-43.552,  8.299
704837.35183, 3,   0.919,  9.631,  0.093, 4,  -0.066,  0.012, -0.041, 5,  22.646,-43.610,  6.116
704837.37169, 3,   0.100,  9.983,  0.254, 4,  -0.172, -0.059, -0.038, 5,  25.304,-44.263,  7.574
704837.39156, 3,  -0.761, 10.229, -1.139, 4,  -0.156, -0.162, -0.043, 5,  24.620,-44.992,  7.574
704837.41143, 3,  -2.615,  9.748, -2.938, 4,  -0.056, -0.328, -0.082, 5,  23.965,-44.292,  6.845
704837.43126, 3,  -3.510,  7.451, -3.814, 4,   0.006, -0.483, -0.090, 5,  25.302,-44.260,  6.848
704837.45113, 3,  -3.515,  9.246, -4.826, 4,   0.026, -0.604, -0.054, 5,  24.001,-42.868,  7.568
704837.47100, 3,  -2.034,  9.933, -3.496, 4,   0.024, -0.628,  0.017, 5,  24.632,-44.272,  5.394
704837.49086, 3,  -1.065,  9.327, -2.223, 4,  -0.032, -0.547,  0.091, 5,  25.319,-43.547,  6.847
704837.51073, 3,   0.677, 10.150, -2.771, 4,  -0.049, -0.412,  0.135, 5,  25.368,-41.406,  6.841
704837.53060, 3,   0.945,  8.920, -2.438, 4,   0.010, -0.223,  0.159, 5,  23.982,-43.579,  6.844
704837.55050, 3,   1.833,  8.042, -3.800, 4,   0.060,  0.013,  0.168, 5,  23.982,-43.579,  6.844
704837.57036, 3,   1.677, 10.691, -5.358, 4,   0.101,  0.185,  0.137, 5,  23.982,-43.579,  6.844
704837.59023, 3,   1.443,  8.540, -2.725, 4,   0.101,  0.338,  0.085, 5,  24.669,-42.851,  7.570
704837.61007, 3,   1.096, 11.452, -1.998, 4,   0.004,  0.470,  0.045, 5,  23.985,-43.585,  9.023
704837.62993, 3,  -0.244,  8.231,  0.555, 4,  -0.056,  0.486,  0.018, 5,  22.617,-45.042,  8.298
704837.64980, 3,  -0.993,  9.779, -0.371, 4,  -0.107,  0.373, -0.018, 5,  23.985,-43.585,  9.023
704837.66967, 3,  -1.936, 10.741, -2.924, 4,  -0.066,  0.119, -0.063, 5,  25.287,-44.974,  6.850
704837.68953, 3,  -1.242, 10.643, -2.364, 4,  -0.012, -0.124, -0.067, 5,  24.648,-43.558,  4.666
704837.70940, 3,  -2.027,  9.851, -1.474, 4,  -0.040, -0.291, -0.027, 5,  22.649,-43.614,  7.568
704837.72927, 3,  -1.285,  9.684, -1.613, 4,  -0.072, -0.408,  0.018, 5,  23.967,-44.296,  8.298
704837.74914, 3,  -1.634, 10.014, -3.269, 4,  -0.059, -0.539,  0.057, 5,  23.982,-43.579,  6.844
704837.76900, 3,  -0.718,  7.308, -3.089, 4,   0.006, -0.674,  0.085, 5,  23.997,-42.862,  5.389
704837.78887, 3,  -0.347,  8.832, -5.082, 4,   0.009, -0.763,  0.108, 5,  22.614,-45.035,  5.392
704837.80874, 3,  -0.457,  9.186, -4.975, 4,   0.044, -0.718,  0.142, 5,  22.646,-43.610,  6.116
704837.82860, 3,   0.854,  9.715, -3.226, 4,   0.033, -0.586,  0.178, 5,  22.646,-43.610,  6.116
704837.84847, 3,   1.266, 11.481, -1.720, 4,  -0.008, -0.423,  0.201, 5,  23.967,-44.295,  7.571
704837.86834, 3,   2.063,  8.461,  0.000, 4,  -0.039, -0.208,  0.212, 5,  23.265,-45.732,  6.122
704837.88820, 3,   0.854, 11.119, -1.766, 4,  -0.043, -0.020,  0.178, 5,  21.947,-45.053,  6.117
704837.90807, 3,   0.036,  9.717, -2.993, 4,   0.029,  0.062,  0.115, 5,  22.632,-44.327,  7.570
704837.92794, 3,  -0.124,  9.076, -2.132, 4,   0.068,  0.145,  0.090, 5,  21.948,-45.055,  6.844
704837.94780, 3,  -1.323, 10.885, -1.651, 4,   0.049,  0.185,  0.085, 5,  21.297,-44.356,  6.841
704837.96767, 3,  -1.452,  8.664, -0.907, 4,   0.020,  0.237,  0.087
704837.98754, 3,  -3.448, 10.837, -1.323, 4,  -0.002,  0.226,  0.091, 5,  20.612,-45.085,  6.116
704838.00737, 3,  -3.166, 10.014, -0.388, 4,   0.022,  0.195,  0.102, 5,  21.947,-45.053,  6.117
704838.02724, 3,  -1.931, 10.028, -0.940, 4,   0.029,  0.164,  0.157, 5,  19.943,-45.100,  5.388
704838.04711, 3,  -1.010,  9.236, -2.654, 4,   0.073,  0.173,  0.208, 5,  21.280,-45.067,  5.389
704838.06698, 3,  -0.414, 10.414, -3.931, 4,   0.120,  0.288,  0.225, 5,  18.575,-46.561,  6.116
704838.08684, 3,   0.371,  8.870, -3.053, 4,   0.136,  0.516,  0.224, 5,  19.975,-43.675,  6.111
704838.10671, 3,   0.129, 10.548, -2.869, 4,   0.089,  0.735,  0.217, 5,  19.943,-45.100,  5.388
704838.12661, 3,   0.225, 11.031, -1.986, 4,   0.066,  0.905,  0.186, 5,  19.260,-45.828,  5.388
704838.14647, 3,   0.383,  8.841, -1.046, 4,   0.043,  0.957,  0.164, 5,  18.594,-45.851,  7.567
704838.16634, 3,   1.086,  8.095, -2.134, 4,   0.031,  0.910,  0.128, 5,  18.628,-44.427,  9.016
704838.18621, 3,   0.366, 11.600, -3.874, 4,   0.070,  0.856,  0.076, 5,  17.943,-45.157,  8.290
704838.20607, 3,   0.141,  9.088, -0.909, 4,   0.075,  0.834,  0.043, 5,  17.308,-43.744,  7.559
704838.22594, 3,   0.184,  8.904, -0.258, 4,   0.011,  0.828,  0.029, 5,  17.963,-44.447, 10.468
704838.24578, 3,  -0.828,  9.277, -1.933, 4,   0.001,  0.689, -0.001, 5,  18.600,-45.860, 11.925
704838.26565, 3,   0.194, 10.591, -4.178, 4,   0.065,  0.543, -0.035, 5,  17.264,-45.889, 10.469
704838.28551, 3,  -0.199,  8.753, -2.974, 4,   0.100,  0.449, -0.041, 5,  17.279,-45.175,  9.741
704838.30538, 3,  -0.136,  8.978, -3.479, 4,   0.049,  0.438, -0.032, 5,  16.580,-46.622, 11.194
704838.32527, 3,  -1.347, 11.005, -2.398, 4,   0.013,  0.474, -0.036, 5,  17.297,-44.466, 11.919
704838.34514, 3,  -1.443, 10.732, -0.213, 4,  -0.023,  0.502, -0.045, 5,  16.647,-43.770, 11.916
704838.36500, 3,  -0.457,  9.485,  0.280, 4,  -0.084,  0.520, -0.024, 5,  16.614,-45.193, 10.466
704838.38487, 3,  -0.167, 10.263, -1.797, 4,  -0.063,  0.448, -0.010, 5,  17.934,-45.880, 12.650
704838.40477, 3,  -0.081, 10.627, -3.132, 4,   0.039,  0.426, -0.023, 5,  17.313,-43.752, 11.189
704838.42464, 3,   0.184,  7.423, -2.139, 4,   0.101,  0.520, -0.023, 5,  16.617,-45.201, 13.371
704838.44447, 3,   0.931,  8.688, -4.264, 4,   0.098,  0.570, -0.016, 5,  17.267,-45.897, 13.374
704838.46434, 3,  -0.057, 10.067, -4.719, 4,   0.128,  0.602, -0.052, 5,  17.967,-44.456, 14.099
704838.48421, 3,  -0.579,  9.504, -2.441, 4,   0.097,  0.685, -0.075, 5,  17.967,-44.456, 14.099
704838.50407, 3,  -0.005,  9.131, -1.086, 4,   0.009,  0.718, -0.081, 5,  15.965,-44.504, 14.096
704838.52394, 3,   0.041, 10.770, -1.634, 4,  -0.011,  0.661, -0.090, 5,  17.300,-44.472, 14.098
704838.54381, 3,   0.821,  9.296, -2.139, 4,   0.033,  0.587, -0.104, 5,  15.268,-45.949, 14.822
704838.56367, 3,   0.859,  9.674, -3.465, 4,   0.064,  0.553, -0.115, 5,  18.637,-44.441, 14.825
704838.58354, 3,   0.275,  9.406, -3.144, 4,   0.093,  0.538, -0.131, 5,  17.302,-44.475, 15.550
704838.60341, 3,   0.727, 11.392, -1.491, 4,   0.087,  0.532, -0.152, 5,  18.640,-44.446, 17.006
704838.62327, 3,   0.287,  7.772, -0.239, 4,   0.033,  0.416, -0.175, 5,  18.642,-44.450, 18.457
704838.64311, 3,   1.005,  8.700, -2.965, 4,   0.016,  0.257, -0.156, 5,  17.972,-44.463, 17.004
704838.66298, 3,   0.536, 10.978, -5.760, 4,   0.078,  0.001, -0.185, 5,  15.968,-44.508, 16.275
704838.68287, 3,  -0.780,  9.246, -0.931, 4,   0.075, -0.182, -0.212, 5,  17.302,-44.473, 14.822
704838.70274, 3,   0.007,  9.827, -0.294, 4,  -0.055, -0.213, -0.192, 5,  16.669,-43.065, 15.546
704838.72261, 3,  -1.792,  9.332, -1.761, 4,  -0.082, -0.299, -0.201, 5,  19.975,-44.414, 17.007
704838.74248, 3,   1.115, 10.808, -3.838, 4,   0.001, -0.312, -0.157, 5,  22.566,-47.920, 18.472
704838.76234, 3,   1.890,  9.014, -2.512, 4,   0.059, -0.310, -0.125, 5,  21.281,-45.811, 18.463
704838.78221, 3,   0.837,  9.181, -3.666, 4,   0.044, -0.333, -0.128, 5,  19.971,-44.408, 14.102
704838.80208, 3,  -0.182, 10.433, -4.147, 4,   0.043, -0.321, -0.161, 5,  18.637,-44.443, 15.553
704838.82194, 3,  -1.192,  7.523, -1.785, 4,   0.029, -0.307, -0.175, 5,  19.287,-45.135, 13.376
704838.84181, 3,   0.455, 10.196, -3.467, 4,  -0.033, -0.310, -0.150, 5,  19.987,-43.695, 14.101
704838.86165, 3,  -0.292, 10.414, -2.675, 4,  -0.020, -0.383, -0.135, 5,  18.016,-42.317, 14.093
704838.88151, 3,   0.531,  8.018, -0.861, 4,  -0.031, -0.343, -0.100, 5,  19.986,-43.694, 13.374
704838.90138, 3,  -0.895, 11.124, -2.498, 4,  -0.045, -0.261, -0.074, 5,  21.294,-45.090, 14.830
704838.92125, 3,  -0.737,  8.971, -2.501, 4,   0.011, -0.280, -0.080, 5,  20.609,-45.821, 15.559
704838.94111, 3,   0.474, 10.373, -2.216, 4,   0.006, -0.255, -0.060, 5,  21.326,-43.665, 15.555
704838.96098, 3,   0.871, 10.193, -1.486, 4,  -0.006, -0.149, -0.020, 5,  18.668,-43.011, 13.371
704838.98088, 3,   0.091,  7.420, -1.809, 4,  -0.020,  0.080, -0.004, 5,  19.319,-43.707, 12.646
704839.00075, 3,  -0.426, 11.177, -4.587, 4,  -0.006,  0.255, -0.021, 5,  19.954,-45.120, 13.377
704839.02061, 3,  -0.581, 10.083, -2.596, 4,   0.035,  0.293, -0.049, 5,  20.653,-43.672, 11.923
704839.04048, 3,  -0.522, 10.038, -0.050, 4,  -0.037,  0.355, -0.036, 5,  21.976,-44.360, 14.830
704839.06032, 3,  -0.256,  9.583, -1.318, 4,  -0.083,  0.381, -0.031, 5,  23.311,-44.327, 14.833
704839.08018, 3,  -0.366,  9.930, -3.797, 4,  -0.033,  0.272, -0.047, 5,  22.659,-43.633, 15.558
704839.10005, 3,  -0.014,  9.282, -3.300, 4,   0.026,  0.185, -0.041, 5,  19.319,-43.709, 13.373
704839.11992, 3,   0.065,  8.772, -1.464, 4,   0.012,  0.161, -0.026, 5,  19.986,-43.694, 13.374
704839.13978, 3,   0.967, 10.110, -4.601, 4,  -0.028,  0.118, -0.038, 5,  21.306,-44.373, 13.377
704839.15965, 3,   1.003,  8.918, -3.998, 4,  -0.008,  0.096, -0.054, 5,  21.375,-41.522, 14.821
