703322.60799, 3,   1.429,  9.540, -2.390
703322.64766, 3,   1.429,  9.540, -2.390
703322.66750, 3,   1.429,  9.540, -2.390
703322.68737, 3,   1.306,  9.574, -2.333, 4,  -0.015, -0.010, -0.041, 5, -25.638,-39.639, 21.951
703322.70723, 3,   1.426,  9.569, -2.333
703322.72649, 3,   1.464,  9.569, -2.412
703322.74697, 3,   1.503,  9.567, -2.376, 4,   0.002,  0.028,  0.014, 5, -23.969,-38.745, 22.049
703322.76687, 3,   1.421,  9.552, -2.276
703322.78673, 3,   1.412,  9.581, -2.316
703322.80660, 3,   1.376,  9.564, -2.486, 4,   0.002,  0.036,  0.012
703322.82647, 3,   1.314,  9.559, -2.441
703322.84630, 3,   1.287,  9.557, -2.302
703322.86617, 3,   1.397,  9.540, -2.347, 4,  -0.002,  0.004,  0.017, 5, -23.315,-37.775, 24.046
703322.88604, 3,   1.515,  9.567, -2.417
703322.90590, 3,   1.519,  9.516, -2.393
703322.92577, 3,   1.424,  9.562, -2.367, 4,   0.001, -0.001,  0.021
703322.94564, 3,   1.352,  9.557, -2.431
703322.96550, 3,   1.295,  9.545, -2.517
703322.98537, 3,   1.474,  9.502, -2.469, 4,   0.000,  0.001,  0.021, 5, -25.015,-37.680, 23.203
703323.00524, 3,   1.775,  9.500, -2.524
703323.02507, 3,   1.764,  9.492, -2.539
703323.04497, 3,   1.807,  9.459, -2.536, 4,  -0.004, -0.024,  0.019, 5, -25.122,-38.257, 21.861
703323.06484, 3,   1.819,  9.507, -2.620
703323.08471, 3,   1.711,  9.464, -2.438
703323.10457, 3,   1.680,  9.526, -2.364, 4,  -0.002, -0.013, -0.000, 5, -25.864,-39.839, 22.728
703323.12444, 3,   0.952,  9.619, -2.331
703323.14431, 3,   1.184,  9.531, -2.498
703323.16417, 3,   1.692,  9.667, -2.510, 4,   0.003, -0.003,  0.005, 5, -28.134,-37.410, 18.932
703323.18404, 3,   0.919,  9.662, -1.809
703323.20391, 3,   1.433,  9.552, -2.323
703323.22377, 3,   1.723,  9.595, -2.534, 4,   0.000,  0.038, -0.002, 5, -25.128,-38.399, 23.586
703323.24361, 3,   1.400,  9.590, -2.180
703323.26348, 3,   1.479,  9.610, -2.020
703323.28334, 3,   1.318,  9.559, -2.443, 4,   0.002,  0.030,  0.005, 5, -25.664,-37.216, 23.927
703323.30321, 3,   1.094,  9.593, -2.512
703323.32311, 3,   1.228,  9.555, -2.170
703323.34298, 3,   1.775,  9.509, -2.314, 4,  -0.003, -0.023,  0.015
703323.36284, 3,   2.206,  9.521, -2.508
703323.38271, 3,   1.929,  9.564, -2.402
703323.40258, 3,   1.785,  9.528, -2.498, 4,   0.001, -0.009,  0.006, 5, -23.495,-37.788, 24.480
703323.42244, 3,   1.586,  9.497, -2.608
703323.44228, 3,   1.445,  9.514, -2.457
703323.46215, 3,   1.448,  9.519, -2.522, 4,  -0.002, -0.015, -0.013
703323.48201, 3,   2.709,  8.437, -4.601
703323.50188, 3,   0.239,  9.969, -0.830
703323.52175, 3,  -0.285,  9.282, -0.569, 4,  -0.047,  0.188, -0.038, 5, -24.910,-39.160, 23.453
703323.54161, 3,   0.223,  9.413, -1.941
703323.56148, 3,   1.493,  9.887, -3.283
703323.58135, 3,   2.991,  9.222, -3.010, 4,   0.029, -0.063,  0.010, 5, -24.533,-38.634, 23.122
703323.60122, 3,   3.271,  9.473, -2.264
703323.62111, 3,   3.216,  9.830, -2.333
703323.64095, 3,   2.852,  9.466, -2.022, 4,  -0.003, -0.090, -0.032, 5, -24.567,-37.672, 22.731
703323.66082, 3,   2.065,  9.502, -2.256
703323.68068, 3,   1.488,  9.617, -2.125
703323.70055, 3,   1.302,  9.626, -1.744, 4,  -0.012,  0.076, -0.100, 5, -23.917,-38.368, 23.648
703323.72042, 3,   1.230,  9.681, -1.785
703323.74028, 3,   1.146,  9.629, -2.271
703323.76015, 3,   1.371,  9.626, -2.333, 4,   0.007, -0.055, -0.102, 5, -23.557,-38.026, 22.774
703323.78002, 3,   1.369,  9.689, -2.180
703323.79989, 3,   1.094,  9.605, -2.218
703323.81975, 3,   1.539,  8.495, -1.512, 4,  -0.007, -0.101, -0.093, 5, -23.663,-39.352, 24.333
703323.83959, 3,   1.996, 10.404, -4.013
703323.85946, 3,   1.431,  9.229, -2.075
703323.87932, 3,   0.455,  9.674, -0.928, 4,   0.006, -0.037, -0.104, 5, -24.460,-38.339, 23.541
703323.89922, 3,   0.971,  9.760, -1.409
703323.91909, 3,   0.735, 10.014, -2.843
703323.93895, 3,   0.105,  9.399, -2.735, 4,   0.011, -0.066, -0.086, 5, -24.161,-39.096, 23.694
703323.95882, 3,  -0.127,  9.500, -2.156
703323.97869, 3,   0.041,  9.569, -1.804
703323.99855, 3,   0.605,  9.119, -1.747, 4,   0.033, -0.136, -0.035
703324.01842, 3,   0.383,  9.997, -3.087
703324.03829, 3,  -0.378,  9.729, -2.556
703324.05812, 3,  -0.234,  9.882, -1.787, 4,   0.029, -0.027,  0.010, 5, -23.135,-39.061, 23.317
703324.07799, 3,  -0.278,  9.538, -0.986
703324.09786, 3,   0.120,  9.815, -2.996
703324.11773, 3,   0.907,  9.588, -2.764, 4,   0.008, -0.033,  0.096, 5, -25.056,-37.680, 22.389
703324.13759, 3,   0.591,  9.633, -1.503
703324.15746, 3,   0.715,  9.772, -2.235
703324.17733, 3,   1.436,  9.567, -2.761, 4,   0.003, -0.057,  0.140, 5, -25.063,-38.898, 24.289
703324.19722, 3,   1.735,  9.430, -2.835
703324.21709, 3,   1.804,  9.315, -3.226
703324.23696, 3,   2.182,  9.303, -3.237, 4,  -0.001, -0.073,  0.137, 5, -24.321,-38.521, 23.451
703324.25679, 3,   2.089,  9.289, -3.230
703324.27666, 3,   1.854,  9.500, -3.211
703324.29653, 3,   1.606,  9.224, -3.003, 4,  -0.001,  0.048,  0.085, 5, -24.156,-38.843, 23.686
703324.31640, 3,   1.651,  9.282, -2.996
703324.33626, 3,   1.558,  9.665, -2.910
703324.35613, 3,   1.373,  9.377, -2.584, 4,   0.004,  0.088,  0.048, 5, -25.781,-38.417, 24.806
703324.37600, 3,   1.496,  9.511, -2.962
703324.39586, 3,   1.189,  9.533, -2.611
703324.41573, 3,   1.283,  9.478, -2.390, 4,  -0.001,  0.050,  0.037, 5, -23.381,-38.358, 24.036
703324.43560, 3,   1.608,  9.461, -2.678
703324.45543, 3,   1.627,  9.624, -2.871
703324.47533, 3,   1.017,  9.497, -2.491, 4,   0.001,  0.090,  0.032, 5, -24.930,-37.959, 24.178
703324.49520, 3,   0.732,  9.514, -2.725
703324.51506, 3,   0.617,  9.507, -2.929
703324.53493, 3,   0.507,  9.406, -2.948, 4,  -0.002,  0.092,  0.046
703324.55480, 3,   0.701,  9.399, -2.761
703324.57467, 3,   1.034,  9.653, -2.685
703324.59453, 3,   0.909,  9.638, -2.685, 4,   0.002,  0.139,  0.082, 5, -24.399,-38.187, 23.784
703324.61440, 3,   1.180,  9.461, -3.058
703324.63427, 3,   2.101,  9.270, -3.458
703324.65413, 3,   2.623,  9.191, -3.553, 4,   0.016,  0.180,  0.100, 5, -25.256,-39.101, 24.179
703324.67397, 3,   2.560,  9.174, -3.293
703324.69384, 3,   2.692,  9.394, -3.427
703324.71370, 3,   2.319,  9.421, -4.041, 4,   0.019,  0.432,  0.049, 5, -25.195,-37.834, 24.176
703324.73357, 3,   1.826,  8.916, -3.833
703324.75344, 3,   1.663,  8.937, -3.529
703324.77333, 3,   1.536,  8.904, -4.678, 4,   0.019,  0.457, -0.014, 5, -25.575,-37.029, 23.109
703324.79320, 3,   1.134,  9.205, -4.336
703324.81307, 3,   1.462,  9.179, -4.264
703324.83294, 3,   1.385,  8.978, -3.429, 4,   0.014,  0.279, -0.037, 5, -27.089,-37.164, 22.719
703324.85280, 3,   1.400,  9.325, -4.475
703324.87264, 3,   1.768,  9.260, -4.355
703324.89251, 3,   2.008,  9.275, -4.479, 4,   0.049,  0.234, -0.065, 5, -28.455,-37.758, 20.673
703324.91237, 3,   1.838,  9.150, -4.499
703324.93224, 3,   2.455,  8.801, -4.991
703324.95211, 3,   1.677,  9.442, -3.295, 4,   0.062,  0.227, -0.113, 5, -25.699,-38.420, 23.204
703324.97197, 3,   2.197,  9.148, -5.099
703324.99184, 3,   1.962,  7.932, -3.247
703325.01171, 3,   1.917,  9.808, -5.441, 4,   0.062,  0.272, -0.179, 5, -25.230,-37.550, 23.018
703325.03157, 3,   3.065,  8.593, -3.508
703325.05144, 3,   2.491,  7.858, -3.319
703325.07131, 3,   3.218,  8.645, -6.343, 4,   0.106,  0.393, -0.273
703325.09118, 3,   3.218,  9.684, -4.094
703325.11104, 3,   2.902, 10.363, -2.192
703325.13091, 3,   2.529, 10.509, -1.218, 4,   0.042,  0.590, -0.377, 5, -22.057,-37.180, 25.446
703325.15078, 3,   1.546,  9.830, -1.512
703325.17064, 3,   0.407,  6.650, -1.912
703325.19051, 3,  -0.385,  9.806, -3.570, 4,   0.125,  0.599, -0.482
703325.21038, 3,  -0.878, 11.787, -3.639
703325.23024, 3,  -2.924, 10.069, -1.639
703325.25011, 3,  -2.455,  9.265, -1.024, 4,   0.061,  0.195, -0.414, 5, -20.320,-38.855, 27.518
703325.26998, 3,  -1.814, 10.071, -0.912
703325.28981, 3,  -0.443, 10.210, -1.725
703325.30968, 3,   0.514,  8.676, -2.792, 4,   0.064, -0.051, -0.262, 5, -23.131,-33.841, 27.075
703325.32958, 3,   0.778,  8.255, -2.642
703325.34945, 3,   1.000, 10.134, -3.628
703325.36931, 3,   1.036,  9.732, -3.910, 4,   0.049,  0.234, -0.205, 5, -22.298,-34.677, 29.361
703325.38918, 3,   0.357,  9.593, -3.233
703325.40905, 3,   0.455,  8.973, -2.926
703325.42891, 3,   0.278,  8.684, -3.393, 4,   0.018,  0.117, -0.222, 5, -20.320,-33.311, 32.465
703325.44878, 3,   0.304, 10.165, -4.695
703325.46865, 3,   0.672,  9.133, -4.592
703325.48848, 3,   0.053,  8.057, -2.735, 4,   0.059, -0.364, -0.229, 5, -17.812,-39.124, 34.306
703325.50835, 3,   0.718,  8.621, -5.855
703325.52822, 3,   1.105,  9.442, -4.106
703325.54808, 3,   0.967,  9.727, -5.161, 4,   0.038, -0.644, -0.211, 5, -15.823,-42.844, 30.312
703325.56795, 3,   0.330,  7.827, -5.326
703325.58782, 3,  -0.560,  8.104, -3.474
703325.60769, 3,   0.464,  8.925, -6.365, 4,  -0.014, -0.881, -0.187
703325.62758, 3,   1.015,  8.928, -3.831
703325.64745, 3,   1.878,  8.753, -5.779
703325.66732, 3,   2.036,  7.870, -4.558, 4,  -0.067, -1.091, -0.161, 5, -14.397,-46.129, 24.216
703325.68718, 3,   2.491, 11.230, -5.087
703325.70702, 3,   1.749,  9.449, -4.750
703325.72689, 3,  -0.266,  6.781, -4.178, 4,  -0.035, -0.612, -0.249
703325.74675, 3,  -2.082, 11.687, -4.625
703325.76662, 3,  -2.077, 11.359, -1.175
703325.78649, 3,  -1.113,  8.478,  0.270, 4,  -0.107, -0.490, -0.222, 5, -12.065,-45.593, 26.353
703325.80635, 3,  -0.218,  7.470, -0.514
703325.82622, 3,  -0.814, 14.000, -2.474
703325.84609, 3,  -2.230, 11.691, -2.189, 4,  -0.092, -0.613, -0.124, 5, -10.248,-41.756, 27.249
703325.86596, 3,  -0.919,  7.420,  1.385
703325.88582, 3,  -0.249, 10.423, -0.684
703325.90569, 3,  -0.897, 11.608, -1.105, 4,  -0.105, -0.858, -0.050, 5,  -7.533,-40.916, 26.987
703325.92556, 3,   0.794, 11.536,  1.139
703325.94542, 3,   1.232,  9.535, -0.132
703325.96529, 3,   0.636,  9.779, -1.608, 4,   0.000, -1.095,  0.008, 5,  -6.584,-39.369, 26.639
703325.98516, 3,  -0.802,  9.935, -2.852
703326.00502, 3,  -3.324,  8.648, -3.407
703326.02489, 3,  -3.728, 10.658, -2.539, 4,   0.019, -0.886,  0.062, 5,  -4.831,-38.332, 25.233
703326.04476, 3,  -0.754, 10.471, -1.170
703326.06462, 3,   0.560,  8.229,  0.084
703326.08449, 3,  -0.395, 10.107, -1.491, 4,  -0.039, -0.648,  0.170
703326.10436, 3,   0.682, 10.593, -1.998
703326.12420, 3,  -0.541,  9.330, -0.823
703326.14406, 3,  -1.067,  7.284, -2.972, 4,   0.150, -0.016,  0.138, 5,  -5.270,-40.051, 23.045
703326.16393, 3,  -1.476,  9.842, -5.243
703326.18380, 3,  -0.483, 10.449, -4.721
703326.20369, 3,   0.569, 10.292, -2.539, 4,   0.079,  0.113,  0.146, 5,  -7.530,-39.110, 22.029
703326.22356, 3,   0.940, 10.174,  0.010
703326.24343, 3,   1.189,  8.827, -1.419
703326.26329, 3,   3.032, 11.471, -1.591, 4,  -0.039, -0.165,  0.111
703326.28316, 3,  -0.979,  8.583,  0.708
703326.30303, 3,  -1.553,  9.617, -2.029
703326.32286, 3,  -3.154,  8.997, -3.989, 4,   0.066, -0.058,  0.032, 5,  -7.689,-38.672, 20.811
703326.34273, 3,  -3.412,  8.394, -3.570
703326.36260, 3,  -4.144,  9.354, -2.824
703326.38247, 3,  -2.905,  9.346, -1.393, 4,   0.027, -0.018,  0.123, 5,  -7.339,-40.811, 21.985
703326.40233, 3,  -0.806,  8.985, -1.673
703326.42220, 3,  -0.651,  7.956, -1.347
703326.44207, 3,  -1.998, 11.170, -6.456, 4,   0.193,  0.712,  0.138, 5,  -7.947,-40.254, 21.892
703326.46193, 3,  -1.445,  8.014, -5.614
703326.48183, 3,  -0.340,  9.078, -6.051
703326.50170, 3,   0.625,  9.270, -3.752, 4,   0.173,  1.376,  0.091, 5,  -9.705,-40.761, 20.189
703326.52153, 3,   0.735,  9.325, -3.068
703326.54140, 3,   0.658,  9.842, -3.453
703326.56127, 3,  -0.471, 10.646, -2.400, 4,   0.018,  1.229, -0.075, 5, -11.780,-40.530, 19.847
703326.58113, 3,  -1.211,  7.368, -2.460
703326.60100, 3,  -0.323, 11.447, -4.135
703326.62087, 3,  -4.432,  6.305, -3.989, 4,   0.044,  1.186, -0.209
703326.64074, 3,  -3.312, 11.885, -7.076
703326.66060, 3,  -4.417, 12.531, -3.723
703326.68047, 3,  -2.972,  7.712, -0.242, 4,   0.013,  1.440, -0.196, 5, -12.733,-37.224, 17.661
703326.70034, 3,  -1.716, 10.299, -3.106
703326.72020, 3,  -0.438, 10.906, -4.080
703326.74004, 3,  -0.703,  7.334, -3.967, 4,   0.070,  0.961, -0.223, 5, -12.276,-38.454, 17.609
703326.75994, 3,  -1.708,  9.143, -5.738
703326.77980, 3,  -1.632,  9.062, -4.822
703326.79967, 3,  -1.708,  8.803, -3.589, 4,   0.000,  0.360, -0.292
703326.81954, 3,  -1.295,  9.892, -2.082
703326.83941, 3,  -0.806,  9.430, -2.003
703326.85927, 3,   0.196,  8.516, -2.517, 4,  -0.046, -0.220, -0.236, 5, -12.520,-37.451, 17.021
703326.87914, 3,  -0.684,  9.042, -3.881
703326.89901, 3,  -1.644, 10.921, -3.254
703326.91887, 3,  -1.563,  8.932, -0.988, 4,  -0.019, -0.230, -0.214
703326.93871, 3,  -1.132,  5.980, -3.309
703326.95858, 3,  -1.460, 10.703, -5.623
703326.97844, 3,  -1.012, 12.546, -2.627, 4,  -0.072, -0.405, -0.125, 5, -13.258,-38.332, 19.101
703326.99831, 3,  -0.010, 10.344,  0.861
703327.01818, 3,   0.440,  8.294, -1.936
703327.03804, 3,   0.443,  9.653, -4.566, 4,  -0.073, -0.547, -0.070, 5, -11.537,-39.888, 17.375
703327.05794, 3,   0.569,  8.751, -4.915
703327.07781, 3,  -0.213, 10.382, -5.137
703327.09768, 3,  -0.498,  9.476, -3.692, 4,  -0.047, -0.564, -0.086, 5, -12.520,-39.699, 18.492
703327.11751, 3,  -1.211,  8.550, -3.513
703327.13741, 3,  -1.534,  9.825, -3.357
703327.15725, 3,  -0.184,  8.231, -2.359, 4,  -0.076, -0.607, -0.049, 5, -10.211,-40.256, 19.125
703327.17711, 3,  -0.579,  9.193, -4.075
703327.19698, 3,  -2.008,  9.184, -4.173
703327.21685, 3,  -2.199,  9.689, -3.903, 4,   0.004, -0.650, -0.023, 5, -10.091,-40.874, 19.565
703327.23671, 3,  -0.814,  5.324, -3.458
703327.25658, 3,  -1.455,  9.878, -6.095
703327.27645, 3,  -1.273, 13.933, -4.290, 4,   0.003, -0.397,  0.057
703327.29631, 3,  -0.962,  9.440,  0.048
703327.31618, 3,  -1.974,  7.480,  1.084
703327.33608, 3,  -1.814, 10.385, -4.577, 4,   0.020, -0.253,  0.083, 5,  -9.724,-40.150, 19.850
703327.35592, 3,  -1.998,  8.923, -4.939
703327.37578, 3,  -1.125,  9.727, -4.958
703327.39565, 3,  -1.084,  9.033, -3.295, 4,   0.075, -0.291,  0.089, 5, -10.504,-40.883, 19.411
703327.41552, 3,  -0.407,  9.394, -2.697
703327.43539, 3,  -0.304,  9.191, -3.336
703327.45525, 3,  -0.622, 10.169, -3.125, 4,  -0.004,  0.002,  0.115
703327.47512, 3,  -1.103, 10.172, -2.309
703327.49499, 3,  -1.493,  5.142, -2.223
703327.51485, 3,  -2.299,  8.425, -6.334, 4,   0.040,  0.152,  0.054, 5, -10.646,-41.603, 21.361
703327.53472, 3,  -2.187, 14.505, -4.805
703327.55456, 3,  -0.739,  9.153,  1.656
703327.57442, 3,  -0.510,  7.265,  0.333, 4,  -0.051,  0.110,  0.056, 5, -11.136,-41.612, 20.247
703327.59429, 3,  -0.967, 10.095, -6.016
703327.61416, 3,  -0.840, 10.880, -3.762
703327.63406, 3,  -0.615,  5.137, -1.596, 4,   0.052, -0.155,  0.007, 5, -10.663,-42.316, 21.310
703327.65392, 3,  -2.256, 10.368, -5.657
703327.67379, 3,  -1.541, 12.089, -4.362
703327.69366, 3,  -1.292,  6.843, -0.352, 4,  -0.038, -0.071,  0.039, 5, -10.158,-41.591, 20.966
703327.71352, 3,  -0.208, 12.347, -1.531
703327.73339, 3,  -0.481,  6.511, -1.043
703327.75326, 3,  -1.515,  8.868, -4.908, 4,   0.017, -0.048,  0.010, 5, -12.491,-42.691, 19.037
703327.77309, 3,  -2.350, 13.998, -4.161
703327.79296, 3,  -1.168,  7.303, -0.100
703327.81283, 3,  -0.770,  7.635, -2.675, 4,   0.042,  0.048,  0.029
703327.83269, 3,  -1.259,  6.635, -5.606
703327.85256, 3,  -1.756, 11.909, -6.465
703327.87243, 3,  -0.861, 11.098, -2.852, 4,   0.048,  0.166,  0.015, 5, -11.263,-40.993, 20.667
703327.89230, 3,  -0.718,  7.245, -0.081
703327.91219, 3,  -1.531,  9.062, -3.307
703327.93206, 3,  -0.491,  9.811, -2.824, 4,  -0.031,  0.240, -0.008, 5, -11.540,-41.624, 20.822
703327.95193, 3,  -0.569,  9.315, -1.692
703327.97176, 3,  -0.766, 11.744, -3.606
703327.99163, 3,  -1.053, 12.904, -2.400, 4,   0.034,  0.055, -0.072
703328.01150, 3,   0.596,  3.465, -1.764
703328.03136, 3,  -1.823,  7.913, -7.363
703328.05123, 3,  -2.008, 11.462, -6.307, 4,   0.046, -0.150, -0.065, 5, -11.482,-43.190, 21.167
703328.07110, 3,  -1.606, 11.423, -2.704
703328.09096, 3,  -0.622,  8.439,  0.158
703328.11083, 3,  -0.254, 10.873, -0.486, 4,  -0.142, -0.313, -0.013, 5,  -9.795,-41.583, 21.832
703328.13070, 3,  -0.828,  7.482, -1.484
703328.15057, 3,  -1.237, 13.318, -5.771
703328.17043, 3,  -1.335,  5.121, -4.817, 4,   0.120, -0.433, -0.011, 5,  -9.779,-40.340, 21.213
703328.19030, 3,  -0.766, 10.533, -4.678
703328.21017, 3,  -0.486, 10.160, -2.634
703328.23003, 3,  -1.031,  8.231, -2.962, 4,   0.005, -0.092,  0.045, 5,  -8.907,-41.565, 23.048
703328.24990, 3,  -0.809, 11.976, -3.211
703328.26977, 3,   0.660,  8.839,  0.890
703328.28963, 3,   0.737,  9.356,  1.029, 4,  -0.059, -0.201,  0.048, 5,  -9.981,-41.357, 22.025
703328.30950, 3,   0.361,  9.143, -2.869
703328.32937, 3,  -0.890,  8.176, -4.996
703328.34923, 3,  -2.053, 10.914, -5.953, 4,   0.083, -0.184,  0.001
703328.36910, 3,  -2.388,  5.499, -3.419
703328.38897, 3,  -3.036, 10.842, -3.510
703328.40881, 3,  -1.893, 12.912, -0.522, 4,  -0.101, -0.109,  0.108, 5,  -9.180,-40.985, 22.319
703328.42867, 3,  -1.144,  6.786,  1.895
703328.44854, 3,  -1.105,  9.454, -2.716
703328.46841, 3,  -1.137,  9.937, -3.948, 4,   0.016, -0.313,  0.120
703328.48830, 3,  -0.412,  8.224, -2.886
703328.50817, 3,  -0.928, 12.581, -4.647
703328.52804, 3,   0.481,  8.128, -2.139, 4,   0.057, -0.057,  0.143, 5, -11.516,-41.621, 20.470
703328.54790, 3,   0.567, 11.876, -2.601
703328.56777, 3,  -0.550,  6.621, -1.338
703328.58764, 3,  -1.079, 10.035, -2.003, 4,  -0.004,  0.081,  0.077, 5, -11.134,-41.754, 23.091
703328.60747, 3,  -0.443, 12.833, -2.077
703328.62734, 3,   0.455, 10.330, -0.780
703328.64721, 3,  -0.751,  5.169, -2.278, 4,   0.013, -0.024,  0.036, 5, -11.296,-40.903, 22.035
703328.66708, 3,  -1.909, 12.244, -6.382
703328.68694, 3,  -2.089,  9.131, -2.752
703328.70681, 3,  -1.708,  7.308, -3.281, 4,   0.027, -0.059,  0.039, 5, -12.285,-41.086, 22.945
703328.72668, 3,  -2.615, 13.077, -4.065
703328.74654, 3,  -1.474,  9.406, -0.589
703328.76644, 3,  -1.902,  6.580, -3.001, 4,   0.032,  0.030,  0.095, 5, -10.602,-39.807, 23.439
703328.78631, 3,  -2.364, 15.898, -5.078
703328.80617, 3,   0.199,  7.109,  0.991
703328.82601, 3,  -1.352,  8.837, -1.979, 4,   0.064,  0.297,  0.125, 5, -11.836,-41.197, 21.600
703328.84588, 3,  -0.462, 11.670, -3.374
703328.86574, 3,  -1.108,  6.820, -3.135
703328.88561, 3,  -1.687, 11.773, -4.046, 4,   0.079,  0.256,  0.050, 5, -12.549,-40.854, 22.754
703328.90548, 3,   0.328,  9.614, -1.043
703328.92535, 3,  -0.184,  6.879, -2.649
703328.94521, 3,  -1.290,  9.574, -3.118, 4,  -0.024,  0.077,  0.022, 5, -12.610,-39.526, 22.035
703328.96508, 3,  -1.208,  7.475, -3.304
703328.98495, 3,  -1.316, 15.273, -3.848
703329.00481, 3,   0.266,  6.382,  1.732, 4,  -0.039,  0.059,  0.031
703329.02465, 3,  -0.651, 11.777, -2.177
703329.04452, 3,  -0.416,  7.475, -2.204
703329.06441, 3,  -2.012, 12.311, -4.680, 4,   0.044,  0.216, -0.026, 5, -11.829,-40.500, 22.754
703329.08428, 3,  -1.529,  8.358, -2.472
703329.10415, 3,  -2.386,  8.944, -2.682
703329.12402, 3,  -1.778, 10.818, -1.716, 4,  -0.031,  0.251, -0.022, 5, -13.269,-39.626, 21.925
703329.14388, 3,  -0.924,  7.750, -1.651
703329.16375, 3,  -0.464, 15.601, -2.682
703329.18362, 3,  -0.550,  6.441,  1.474, 4,  -0.056,  0.194, -0.009
703329.20348, 3,  -0.739, 10.021, -2.410
703329.22335, 3,  -0.730,  5.458, -3.333
703329.24319, 3,  -1.328,  9.985, -6.561, 4,   0.075,  0.118, -0.069, 5, -12.494,-40.800, 21.591
703329.26305, 3,  -1.065, 12.290, -5.896
703329.28292, 3,   0.093,  7.147,  2.359
703329.30279, 3,   0.232, 12.146, -1.089, 4,  -0.133,  0.136, -0.087, 5, -11.925,-39.024, 20.572
703329.32265, 3,  -0.132,  6.389, -1.448
703329.34255, 3,  -0.646, 15.104, -3.606
703329.36242, 3,   0.663,  9.610,  0.239, 4,   0.011, -0.095, -0.139, 5, -11.957,-38.831, 22.066
703329.38229, 3,   1.244,  7.533, -0.555
703329.40215, 3,  -0.735,  8.569, -4.704
703329.42202, 3,  -2.099,  9.330, -4.305, 4,   0.044, -0.222, -0.141, 5, -12.599,-39.516, 22.166
703329.44189, 3,  -2.560,  8.416, -3.302
703329.46172, 3,  -0.814, 10.196, -2.273
703329.48159, 3,  -0.220,  8.152,  0.165, 4,  -0.066, -0.250, -0.078, 5, -12.288,-39.180, 21.631
703329.50146, 3,  -1.086,  8.471, -2.579
703329.52132, 3,  -2.445, 10.715, -4.204
703329.54119, 3,  -1.019, 11.036, -1.546, 4,   0.015, -0.217, -0.026
703329.56106, 3,   0.971,  6.406,  0.560
703329.58092, 3,   0.000, 11.225, -3.896
703329.60079, 3,  -0.701,  8.640, -2.859, 4,   0.016, -0.183, -0.013, 5, -11.588,-40.199, 20.970
703329.62069, 3,  -1.783,  9.868, -3.197
703329.64056, 3,  -1.321, 10.016, -2.685
703329.66039, 3,  -1.019,  9.394, -1.965, 4,  -0.011, -0.248,  0.012, 5, -11.954,-40.208, 22.015
703329.68026, 3,  -0.462,  6.702, -0.907
703329.70013, 3,  -1.517,  8.844, -3.606
703329.71999, 3,  -1.488, 14.967, -3.886, 4,   0.004, -0.346,  0.075, 5, -12.286,-39.503, 20.532
703329.73986, 3,  -0.337,  6.162,  0.581
703329.75973, 3,  -0.234,  9.490, -3.570
703329.77959, 3,  -0.438,  9.394, -3.611, 4,   0.027, -0.106,  0.125, 5, -10.928,-40.186, 21.988
703329.79946, 3,  -1.567, 12.065, -1.582
703329.81933, 3,  -0.881,  8.351, -0.761
703329.83919, 3,  -1.440, 10.045, -3.013, 4,   0.029,  0.068,  0.115, 5, -11.015,-39.767, 21.748
703329.85903, 3,  -0.933,  9.174, -2.118
703329.87890, 3,  -0.206,  5.843, -2.867
703329.89876, 3,  -1.850, 16.319, -4.245, 4,   0.011,  0.138,  0.106, 5, -12.663,-42.282, 22.119
703329.91866, 3,   0.787,  6.540,  1.768
703329.93853, 3,  -0.316,  9.555, -1.094
703329.95840, 3,   0.153, 10.282, -2.639, 4,  -0.041,  0.163,  0.052, 5, -12.427,-41.414, 21.782
703329.97826, 3,   0.311,  8.128, -2.735
703329.99813, 3,  -0.313, 10.863, -4.381
703330.01800, 3,  -1.452,  8.880, -2.840, 4,   0.022,  0.206, -0.023, 5, -11.304,-41.197, 22.462
703330.03786, 3,  -2.328, 13.256, -3.620
703330.05773, 3,  -0.615,  5.018, -0.445
703330.07760, 3,  -0.644, 16.824, -3.544, 4,  -0.066,  0.011, -0.034
703330.09743, 3,   0.546,  8.162,  0.881
703330.11730, 3,  -1.103,  7.013, -0.352
703330.13717, 3,  -0.912, 12.579, -5.128, 4,   0.001, -0.156, -0.033, 5, -11.194,-40.289, 23.105
703330.15704, 3,  -1.163,  9.629, -3.252
703330.17690, 3,  -0.919,  6.848, -2.173
703330.19680, 3,  -0.845, 10.665, -4.417, 4,   0.037, -0.012, -0.021
703330.21667, 3,  -0.067, 13.996, -2.821
703330.23653, 3,  -0.325,  3.242,  0.409
703330.25640, 3,  -0.768, 12.986, -3.448, 4,  -0.037,  0.092, -0.060, 5, -11.050,-41.614, 21.594
703330.27627, 3,  -0.682, 11.500, -0.816
703330.29610, 3,  -0.902,  8.468, -0.670
703330.31597, 3,  -1.775,  7.255, -3.290, 4,   0.017, -0.110, -0.072, 5, -11.078,-40.904, 22.514
703330.33584, 3,  -2.110, 11.359, -5.496
703330.35570, 3,  -0.967, 10.390, -0.797
703330.37557, 3,  -0.024,  8.973,  1.531, 4,  -0.011, -0.213, -0.018, 5, -11.208,-40.858, 22.028
703330.39544, 3,   0.065, 12.292, -1.608
703330.41531, 3,  -1.156,  2.314, -1.484
703330.43517, 3,  -2.632,  6.525, -7.248, 4,   0.103, -0.298, -0.015, 5,  -9.946,-40.163, 22.615
703330.45504, 3,  -1.527, 21.157, -8.081
703330.47491, 3,   1.153,  6.497,  4.175
703330.49477, 3,   1.165,  7.100,  1.797, 4,  -0.145, -0.278,  0.100, 5,  -9.978,-41.589, 22.704
703330.51464, 3,   0.660, 12.098, -2.335
703330.53451, 3,   0.024,  8.734, -1.220
703330.55437, 3,   0.723,  9.969, -2.309, 4,   0.084, -0.247,  0.056, 5,  -9.875,-39.838, 22.163
703330.57424, 3,  -0.041,  9.607, -2.917
703330.59411, 3,  -1.586,  7.298, -3.386
703330.61397, 3,  -2.699,  8.442, -5.358, 4,   0.109,  0.050,  0.017
703330.63384, 3,  -1.804, 15.537, -3.625
703330.65371, 3,   0.687,  5.396,  4.101
703330.67358, 3,   0.670,  7.097,  2.314, 4,  -0.081, -0.075,  0.053, 5,  -9.790,-41.061, 23.141
703330.69344, 3,  -1.883, 11.871, -5.338
703330.71270, 3,  -2.764, 10.981, -8.157
703330.73315, 3,  -2.441,  8.363, -4.001, 4,   0.171, -0.108,  0.025
703330.75301, 3,  -1.287,  9.203, -0.471
703330.77291, 3,  -0.412, 13.333, -0.397
703330.79278, 3,  -0.230,  4.219, -0.424, 4,  -0.052, -0.105,  0.072, 5,  -9.660,-41.547, 24.171
703330.81264, 3,  -1.101, 16.582, -4.637
703330.83251, 3,   0.132,  8.815,  0.084
703330.85238, 3,   0.213,  6.573, -0.960, 4,   0.055, -0.189,  0.107, 5,  -9.830,-41.151, 23.056
703330.87225, 3,  -0.754, 11.684, -4.369
703330.89211, 3,  -0.558,  8.083, -2.302
703330.91195, 3,  -0.816, 10.808, -1.950, 4,   0.053, -0.084,  0.112, 5,  -9.929,-41.464, 25.575
703330.93182, 3,  -0.211,  9.090, -1.469
703330.95168, 3,  -0.203, 10.466, -1.976
703330.97155, 3,  -0.177,  4.568, -2.579, 4,   0.024,  0.027,  0.100, 5, -10.359,-39.232, 24.454
703330.99142, 3,  -1.663, 14.438, -6.341
703331.01128, 3,  -1.027, 11.462, -1.874
703331.03115, 3,  -0.208,  7.485,  1.417, 4,  -0.007,  0.185,  0.089, 5, -10.326,-39.462, 23.477
703331.05105, 3,  -0.385,  7.576, -0.660
703331.07091, 3,  -0.847,  8.569, -4.094
703331.09078, 3,  -1.187, 10.801, -4.460, 4,   0.067,  0.032,  0.050, 5, -11.827,-38.982, 22.949
703331.11065, 3,  -0.680,  9.873, -2.924
703331.13048, 3,  -0.512,  8.475, -2.469
703331.15035, 3,  -0.976,  9.650, -1.766, 4,  -0.016,  0.136,  0.056, 5, -10.684,-39.565, 23.573
703331.17022, 3,  -0.481,  7.676, -2.204
703331.19009, 3,  -0.792, 14.283, -3.690
703331.20995, 3,  -1.029,  7.870, -0.313, 4,   0.013,  0.096,  0.049, 5, -12.601,-39.514, 21.585
703331.22982, 3,  -0.069, 10.107, -2.453
703331.24969, 3,  -0.139,  9.892, -2.883
703331.26955, 3,  -1.350,  7.825, -3.903, 4,   0.058,  0.077,  0.018
703331.28942, 3,  -0.885,  9.567, -3.817
703331.30929, 3,  -1.036, 11.459, -1.766
703331.32915, 3,  -0.194, 13.122,  0.091, 4,  -0.051,  0.138,  0.034, 5, -13.057,-40.242, 23.958
703331.34902, 3,  -0.022,  2.891, -0.622
703331.36889, 3,  -0.526, 14.154, -5.810
703331.38876, 3,  -0.055, 10.883, -3.080, 4,   0.056,  0.162, -0.000, 5, -11.992,-40.170, 24.933
703331.40862, 3,  -0.404,  8.801, -2.278
703331.42849, 3,  -0.100,  9.138, -1.711
703331.44836, 3,  -0.546,  9.973, -1.340, 4,  -0.041,  0.193, -0.050, 5, -12.611,-40.091, 23.178
703331.46822, 3,  -1.311, 10.627, -1.620
703331.48809, 3,  -0.237,  8.140, -1.886
703331.50796, 3,  -0.639, 10.528, -3.336, 4,  -0.004, -0.019, -0.094, 5, -12.897,-40.950, 22.754
703331.52782, 3,  -0.739,  4.711, -0.902
703331.54769, 3,  -2.137, 10.143, -4.647
703331.56753, 3,  -1.728, 14.036, -4.577, 4,  -0.020, -0.160, -0.067, 5, -10.429,-41.936, 22.810
703331.58739, 3,  -0.577,  6.686,  1.290
703331.60726, 3,  -0.337,  9.263, -2.213
703331.62716, 3,  -0.433, 10.875, -3.800, 4,  -0.026, -0.185, -0.021, 5, -11.949,-40.211, 22.757
703331.64703, 3,  -0.656,  7.985, -2.898
703331.66689, 3,  -1.323,  9.856, -4.305
703331.68676, 3,  -2.089,  8.451, -2.991, 4,   0.028,  0.028, -0.000, 5, -11.452,-40.013, 22.406
703331.70663, 3,  -1.919, 12.376, -2.819
703331.72649, 3,  -0.720,  6.071, -0.826
703331.74636, 3,  -1.043, 14.764, -2.331, 4,  -0.050,  0.003,  0.030, 5, -11.967,-39.505, 24.245
703331.76620, 3,  -0.380,  8.961,  0.677
703331.78606, 3,  -0.644, 10.734, -1.244
703331.80593, 3,  -0.538,  8.542, -3.718, 4,   0.038, -0.068,  0.031
703331.82580, 3,  -1.034,  8.997, -4.123
703331.84566, 3,  -0.725,  7.301, -3.771
703331.86553, 3,  -2.417,  9.064, -4.745, 4,   0.034,  0.110,  0.042, 5, -11.362,-40.204, 24.799
703331.88540, 3,  -1.898, 14.213, -2.646
703331.90527, 3,  -0.342,  4.896,  1.467
703331.92516, 3,  -0.364, 15.068, -1.883, 4,  -0.098,  0.044,  0.056
703331.94503, 3,   0.988,  8.229,  0.759
703331.96490, 3,   0.928,  6.322, -2.701
703331.98473, 3,  -0.706, 10.686, -7.616, 4,   0.099, -0.007,  0.023, 5, -12.575,-38.802, 22.987
703332.00460, 3,  -1.933,  7.820, -5.937
703332.02447, 3,  -2.099, 10.921, -3.738
703332.04433, 3,  -0.268,  9.507,  0.893, 4,  -0.061,  0.208,  0.021, 5, -11.673,-40.076, 24.638
703332.06420, 3,   1.058,  9.648,  0.625
703332.08407, 3,  -0.227,  5.039, -0.170
703332.10393, 3,  -0.481, 11.012, -4.999, 4,   0.002, -0.033, -0.025, 5, -11.401,-37.550, 24.300
703332.12380, 3,  -0.254, 12.141, -5.111
703332.14367, 3,   0.483,  7.999, -1.321
703332.16354, 3,   0.510,  9.176, -3.123, 4,   0.019,  0.039, -0.021, 5, -13.763,-39.450, 21.764
703332.18337, 3,  -0.536,  9.696, -3.405
703332.20327, 3,  -1.711,  9.562, -0.756
703332.22314, 3,  -0.627,  7.959, -0.048, 4,  -0.047, -0.051, -0.045, 5, -13.266,-39.532, 23.186
703332.24300, 3,  -0.498, 12.112, -3.568
703332.26287, 3,  -1.132,  7.588, -2.998
703332.28274, 3,  -1.574,  8.693, -4.312, 4,   0.040, -0.166, -0.024, 5, -13.031,-39.050, 23.473
703332.30260, 3,  -1.165, 14.067, -4.120
703332.32247, 3,  -0.340,  7.669,  2.166
703332.34234, 3,   0.373,  8.949, -1.216, 4,  -0.043,  0.032,  0.043
703332.36220, 3,  -0.077, 10.751, -3.575
703332.38207, 3,  -0.548,  8.597, -4.216
703332.40191, 3,  -1.165, 12.292, -4.506, 4,   0.088,  0.062, -0.009, 5, -13.391,-39.259, 23.331
703332.42178, 3,  -0.756,  7.336, -0.388
703332.44164, 3,  -0.727, 10.122, -3.010
703332.46151, 3,  -0.608,  9.095, -3.022, 4,  -0.018,  0.080, -0.008
703332.48141, 3,  -0.239, 14.075, -2.812
703332.50127, 3,  -0.735,  8.705, -0.031
703332.52114, 3,  -0.639,  7.817, -1.933, 4,  -0.008,  0.013, -0.006, 5, -14.366,-38.132, 21.513
703332.54101, 3,  -0.857,  9.832, -3.587
703332.56087, 3,  -0.943, 10.359, -4.030
703332.58074, 3,  -1.120,  7.643, -3.025, 4,   0.037,  0.039, -0.035, 5, -11.948,-40.215, 23.346
703332.60061, 3,  -0.945, 11.361, -2.546
703332.62044, 3,  -1.237, 10.598,  0.069
703332.64031, 3,  -0.139,  6.075, -2.144, 4,  -0.041,  0.022, -0.020, 5, -13.943,-40.262, 23.476
703332.66018, 3,  -0.663, 16.941, -5.355
703332.68005, 3,  -1.213,  6.351,  1.783
703332.69991, 3,  -0.658,  9.576, -2.144, 4,   0.005,  0.068, -0.016, 5, -12.421,-39.516, 24.010
703332.71978, 3,  -1.003, 11.050, -3.635
703332.73965, 3,  -1.383,  8.638, -1.988
703332.75951, 3,  -1.194,  8.983, -3.053, 4,   0.034,  0.052, -0.054, 5, -13.220,-39.244, 23.134
703332.77941, 3,  -1.869, 10.035, -4.006
703332.79928, 3,  -1.955, 13.007, -2.618
703332.81911, 3,  -1.151,  4.436, -1.311, 4,  -0.003, -0.067, -0.018, 5, -11.655,-38.635, 23.177
703332.83898, 3,  -0.998, 16.259, -6.853
703332.85885, 3,   0.029,  9.741,  0.170
703332.87871, 3,   0.359,  6.425, -0.079, 4,  -0.007, -0.101,  0.060, 5, -12.640,-39.430, 22.705
703332.89858, 3,   0.098, 10.122, -3.864
703332.91845, 3,   0.246, 14.371, -3.831
703332.93832, 3,  -0.002,  2.981, -0.060, 4,   0.068,  0.055,  0.002, 5, -13.254,-39.067, 24.200
703332.95818, 3,  -1.115,  8.918, -6.016
703332.97805, 3,  -1.067, 15.415, -5.681
703332.99792, 3,  -0.479,  2.529,  0.811, 4,   0.009,  0.137, -0.036
703333.01778, 3,  -0.749, 16.204, -4.561
703333.03762, 3,  -0.608, 10.428, -0.455
703333.05752, 3,  -0.347,  7.387, -0.450, 4,  -0.059, -0.038, -0.015, 5, -13.121,-38.817, 23.332
703333.07738, 3,  -0.656,  9.356, -3.970
703333.09725, 3,  -1.412,  9.791, -3.879
703333.11712, 3,  -1.046,  8.875, -1.819, 4,   0.059, -0.110, -0.022, 5, -11.510,-38.266, 24.301
703333.13698, 3,  -0.936,  7.195, -1.507
703333.15685, 3,  -1.979, 12.452, -6.781
703333.17672, 3,  -1.350,  5.149, -1.235, 4,  -0.001, -0.018, -0.003, 5, -12.656,-38.283, 24.925
703333.19659, 3,  -0.412, 10.792, -1.637
703333.21645, 3,   0.861, 12.469, -1.010
703333.23632, 3,   0.359,  7.487,  0.007, 4,  -0.063, -0.083,  0.048, 5, -13.101,-38.390, 24.487
703333.25616, 3,  -0.349,  8.691, -3.649
703333.27602, 3,  -0.486, 10.387, -4.865
703333.29589, 3,  -0.852,  9.126, -2.654, 4,   0.066, -0.146,  0.012, 5, -13.916,-38.849, 24.445
703333.31576, 3,  -0.936,  8.090, -2.694
703333.33562, 3,  -0.531, 13.239, -3.963
703333.35552, 3,  -0.567,  5.779, -1.306, 4,  -0.032, -0.104,  0.043, 5, -12.646,-37.535, 24.248
703333.37539, 3,  -0.476, 12.842, -2.173
703333.39526, 3,   0.036,  9.655,  0.091
703333.41512, 3,   0.644,  8.217, -1.242, 4,  -0.011, -0.209,  0.082, 5, -12.817,-37.811, 25.510
703333.43499, 3,  -0.766,  9.980, -4.544
703333.45486, 3,  -0.591,  9.667, -5.061
703333.47469, 3,  -1.988,  8.004, -1.775, 4,   0.073, -0.136,  0.081, 5, -12.216,-38.414, 23.419
703333.49456, 3,  -1.120, 10.091, -0.869
703333.51443, 3,  -0.491, 12.282, -1.670
703333.53429, 3,  -1.156,  4.333, -0.893, 4,   0.004, -0.024,  0.112
703333.55416, 3,   0.024, 12.964, -4.458
703333.57403, 3,  -0.309,  8.305, -0.849
703333.59389, 3,  -0.158,  9.942, -2.079, 4,   0.066,  0.084,  0.127, 5, -12.767,-36.673, 23.999
703333.61376, 3,  -1.079,  9.617, -3.226
703333.63366, 3,  -1.567,  9.366, -2.996
703333.65353, 3,  -1.601, 10.210, -2.177, 4,   0.064,  0.200,  0.099, 5, -13.899,-38.129, 25.647
703333.67339, 3,   0.601,  7.607, -1.723
703333.69323, 3,  -0.184, 11.335, -3.867
703333.71310, 3,  -1.390,  4.238, -2.807, 4,   0.062,  0.250,  0.078, 5, -14.905,-39.018, 24.924
703333.73296, 3,  -1.752, 11.615, -6.508
703333.75283, 3,  -1.122, 12.022, -3.324
703333.77270, 3,  -0.115,  6.568,  1.529, 4,  -0.043,  0.399,  0.064, 5, -15.251,-37.114, 24.918
703333.79256, 3,  -0.608,  9.890, -1.488
703333.81243, 3,  -1.034,  9.952, -2.242
703333.83230, 3,  -1.668, 11.021, -2.891, 4,   0.011,  0.219, -0.007, 5, -15.131,-39.433, 22.745
703333.85216, 3,  -0.629,  7.542, -1.366
703333.87203, 3,  -0.632,  8.968, -3.161
703333.89187, 3,  -0.380,  9.495, -3.034, 4,  -0.011,  0.215,  0.012, 5, -15.210,-38.866, 22.743
703333.91177, 3,  -0.400,  8.368, -2.362
703333.93163, 3,  -0.840, 11.727, -2.654
703333.95150, 3,   0.469,  8.540,  0.971, 4,  -0.063,  0.287, -0.003, 5, -15.231,-37.920, 22.495
703333.97137, 3,  -0.057,  8.435, -1.900
703333.99123, 3,   0.424,  7.832, -4.903
703334.01110, 3,  -0.854, 10.162, -5.496, 4,   0.049,  0.265, -0.092, 5, -16.460,-39.473, 21.861
703334.03097, 3,  -0.256, 11.431, -3.450
703334.05083, 3,  -0.730,  6.609,  0.196
703334.07070, 3,  -1.268,  6.245, -2.895, 4,  -0.083,  0.357, -0.145
703334.09057, 3,  -0.440, 12.938, -4.520
703334.11040, 3,  -0.560,  9.997, -0.132
703334.13027, 3,  -0.065,  9.698, -0.893, 4,  -0.051,  0.169, -0.170, 5, -14.287,-39.737, 21.295
703334.15014, 3,  -1.304,  7.994, -0.960
703334.17000, 3,  -1.914,  9.870, -2.797
703334.18987, 3,  -1.333,  9.105, -3.608, 4,   0.014, -0.082, -0.160
703334.20977, 3,  -0.301,  9.433, -4.144
703334.22964, 3,   0.902, 13.742, -0.969
703334.24950, 3,  -0.225,  1.450,  0.715, 4,  -0.052, -0.121, -0.092, 5, -13.560,-40.681, 22.313
703334.26937, 3,  -0.416, 15.115, -6.674
703334.28924, 3,  -0.146, 11.655, -1.711
703334.30910, 3,   1.400,  4.953, -0.476, 4,  -0.017, -0.098, -0.080, 5, -13.724,-40.486, 21.788
703334.32894, 3,   0.457, 12.333, -4.250
703334.34881, 3,   0.742,  9.748, -3.589
703334.36867, 3,  -0.653,  8.492, -1.993, 4,  -0.011, -0.138, -0.115, 5, -16.406,-41.025, 18.701
703334.38854, 3,  -0.390,  8.870, -2.704
703334.40841, 3,  -0.579, 13.022, -4.324
703334.42828, 3,  -1.347,  2.491, -0.045, 4,  -0.079, -0.221, -0.117, 5, -12.750,-40.375, 22.752
703334.44814, 3,  -0.986, 14.311, -3.534
703334.46801, 3,   0.766, 12.648, -2.199
703334.48791, 3,   0.189,  5.920,  0.572, 4,  -0.092, -0.258, -0.055, 5, -12.326,-41.272, 22.371
703334.50774, 3,  -0.512,  9.839, -3.367
703334.52764, 3,  -1.297,  8.894, -3.896
703334.54748, 3,  -0.802,  7.612, -2.187, 4,   0.015, -0.187, -0.034, 5, -10.963,-41.257, 24.568
703334.56734, 3,  -0.651, 11.275, -4.833
703334.58721, 3,  -0.919, 12.541, -2.876
703334.60708, 3,  -0.780,  4.259,  1.278, 4,  -0.097, -0.075,  0.001
703334.62694, 3,  -0.763,  1.584, -2.039
703334.64681, 3,  -0.950, 22.607, -7.360
703334.66668, 3,   1.141,  6.619,  2.216, 4,  -0.053, -0.172,  0.040, 5, -11.324,-41.116, 22.028
703334.68655, 3,  -0.426,  6.808, -1.192
703334.70580, 3,  -0.306, 12.426, -3.750
703334.72628, 3,  -1.084,  9.057, -1.596, 4,   0.005, -0.145,  0.039
703334.74612, 3,   0.313,  9.035, -2.721
703334.76598, 3,   0.134, 12.692, -3.087
703334.78588, 3,  -0.502,  3.276, -0.971, 4,  -0.011, -0.075,  0.043, 5, -10.381,-42.195, 23.404
703334.80575, 3,  -1.192, 14.656, -4.379
703334.82561, 3,   0.120, 11.189, -0.933
703334.84548, 3,   0.967,  4.087, -0.756, 4,  -0.008, -0.094,  0.042, 5, -11.192,-42.188, 22.032
703334.86535, 3,  -0.981,  6.561,  0.562
703334.88521, 3,  -0.797, 13.656, -8.739
703334.90508, 3,  -1.194,  8.035, -4.948, 4,   0.137, -0.148,  0.025, 5, -10.645,-41.605, 22.031
703334.92495, 3,  -0.861,  7.906, -1.527
703334.94482, 3,  -0.687, 13.807, -2.673
703334.96465, 3,  -1.213,  3.625,  0.199, 4,  -0.025,  0.070,  0.062, 5, -11.760,-41.634, 23.244
703334.98452, 3,  -1.759, 16.836, -3.628
703335.00439, 3,   0.321,  9.653,  1.316
703335.02425, 3,  -0.644,  5.788,  0.112, 4,   0.038,  0.060,  0.078, 5, -11.858,-41.792, 22.757
703335.04412, 3,  -1.019, 11.799, -7.238
703335.06402, 3,   0.404, 11.375, -5.219
703335.08388, 3,   1.012,  5.377,  0.529, 4,   0.090,  0.155,  0.049, 5, -10.912,-41.423, 23.386
703335.10375, 3,  -0.629, 11.045, -2.352
703335.12362, 3,  -1.857, 13.170, -3.115
703335.14349, 3,  -1.127,  5.551, -0.995, 4,  -0.014,  0.227, -0.053, 5, -12.640,-41.475, 24.019
703335.16335, 3,  -0.780, 14.003, -3.903
703335.18319, 3,  -0.055,  8.715, -0.223
703335.20306, 3,   0.239,  9.674, -0.558, 4,  -0.025, -0.068, -0.038, 5, -11.812,-40.363, 23.920
703335.22292, 3,  -0.747,  5.676, -3.594
703335.24279, 3,   0.244, 13.651, -7.219
703335.26266, 3,  -1.766, 10.002, -0.821, 4,   0.015, -0.063, -0.071
703335.28252, 3,  -0.876,  3.960,  2.682
703335.30239, 3,  -1.742, 16.405, -4.068
703335.32226, 3,  -0.440,  4.709, -1.472, 4,  -0.058, -0.157, -0.112, 5, -12.643,-40.932, 21.773
703335.34215, 3,  -1.290, 14.955, -5.535
703335.36202, 3,  -1.024,  7.420, -0.871
703335.38189, 3,  -0.847,  8.856, -1.929, 4,   0.000, -0.300, -0.027, 5, -11.900,-40.164, 23.428
703335.40172, 3,  -1.082,  9.476, -2.575
703335.42159, 3,  -1.316, 10.141, -3.288
703335.44146, 3,  -0.952, 12.206, -2.902, 4,  -0.001, -0.212,  0.018, 5, -11.801,-39.499, 23.334
703335.46133, 3,   0.333,  7.468,  3.501
703335.48119, 3,  -0.622,  9.899, -6.111
703335.50106, 3,  -0.105, 10.332, -5.891, 4,   0.053, -0.215,  0.034, 5, -11.937,-39.836, 24.986
703335.52093, 3,  -0.558, 12.079, -2.716
703335.54079, 3,  -0.493,  9.148,  0.940
703335.56066, 3,   0.727,  9.399, -0.012, 4,  -0.059, -0.127,  0.103, 5, -11.780,-40.732, 23.679
703335.58053, 3,  -0.184,  8.593, -1.711
703335.60036, 3,  -0.392, 10.904, -3.022
703335.62023, 3,  -0.081, 12.318, -3.628, 4,   0.069, -0.187,  0.050
703335.64013, 3,  -0.211,  6.664, -1.426
703335.66000, 3,  -1.247,  6.379, -3.704
703335.67986, 3,  -1.357, 11.914, -5.520, 4,   0.061, -0.080,  0.053, 5, -11.783,-40.742, 25.659
703335.69973, 3,  -3.374, 11.084, -2.108
703335.71960, 3,   0.325,  8.069,  0.550
703335.73946, 3,  -0.558,  9.937, -1.496, 4,  -0.041, -0.057,  0.110, 5, -13.625,-39.886, 25.998
703335.75933, 3,   0.385,  9.567, -2.345
703335.77920, 3,  -0.653, 11.512, -2.484
703335.79906, 3,  -1.038,  3.974, -3.491, 4,   0.086, -0.086,  0.075
703335.81890, 3,  -1.189, 12.421, -6.260
703335.83877, 3,  -1.627,  5.475, -1.663
703335.85863, 3,  -1.488, 12.558, -3.395, 4,   0.004,  0.027,  0.111, 5, -13.870,-38.841, 26.378
703335.87850, 3,  -0.325, 11.550,  0.464
703335.89837, 3,   1.594,  9.677,  2.606
703335.91827, 3,   1.055,  7.712, -2.132, 4,  -0.024,  0.006,  0.137
703335.93813, 3,   0.301,  8.411, -4.637
703335.95800, 3,  -1.053,  9.504, -5.102
703335.97787, 3,  -1.285, 10.883, -4.616, 4,   0.136,  0.250,  0.080, 5, -13.683,-38.358, 25.165
703335.99773, 3,  -1.366, 10.095, -3.221
703336.01760, 3,  -1.144,  6.999, -0.297
703336.03744, 3,  -1.199,  7.892,  0.110, 4,  -0.085,  0.371,  0.021, 5, -13.783,-38.690, 25.929
703336.05730, 3,  -1.036, 14.419, -1.847
703336.07717, 3,  -0.146,  6.664, -0.904
703336.09704, 3,  -0.881, 10.433, -5.657, 4,   0.051,  0.086, -0.032, 5, -16.293,-38.083, 22.415
703336.11690, 3,  -0.979, 12.632, -3.388
703336.13677, 3,  -1.536,  8.171,  0.251
703336.15664, 3,  -0.404,  3.958, -1.455, 4,  -0.028,  0.046, -0.035, 5, -13.388,-37.401, 24.290
703336.17651, 3,  -0.596, 15.563, -6.939
703336.19637, 3,  -1.239,  4.570, -1.326
703336.21627, 3,  -0.967,  8.901, -2.713, 4,   0.002, -0.052, -0.014, 5, -14.050,-38.696, 24.924
703336.23614, 3,  -0.909, 15.013, -3.491
703336.25597, 3,   0.986,  8.387,  0.833
703336.27584, 3,  -0.285,  7.827, -0.957, 4,  -0.031,  0.070,  0.014, 5, -13.670,-37.885, 25.168
703336.29571, 3,  -0.136,  8.183, -4.130
703336.31557, 3,  -0.574, 10.863, -3.398
703336.33544, 3,  -0.110,  9.495, -2.582, 4,   0.054,  0.143, -0.030
703336.35531, 3,  -1.117, 11.593, -4.609
703336.37517, 3,  -1.620,  5.080, -0.983
703336.39504, 3,  -0.206, 11.505, -0.421, 4,  -0.059,  0.085, -0.060, 5, -14.441,-38.136, 22.887
703336.41491, 3,   0.347, 12.108, -1.117
703336.43478, 3,   0.218,  8.073, -1.988
703336.45461, 3,  -0.507,  9.342, -3.261, 4,   0.016, -0.103, -0.073
703336.47448, 3,  -0.912, 10.086, -4.120
703336.49438, 3,  -1.306,  6.092, -3.733
703336.51424, 3,  -1.656,  8.282, -4.185, 4,   0.046, -0.070, -0.078, 5, -14.590,-39.240, 24.199
703336.53411, 3,  -0.663, 15.455, -2.802
703336.55398, 3,  -1.510,  3.278, -0.488
703336.57384, 3,  -1.402, 12.677, -5.391, 4,  -0.054, -0.107, -0.044, 5, -13.632,-39.738, 24.005
703336.59371, 3,  -0.105, 10.026, -0.562
703336.61358, 3,   0.311,  9.373, -0.323
703336.63344, 3,  -0.904,  9.282, -2.634, 4,  -0.046, -0.118, -0.002, 5, -13.927,-39.557, 26.363
703336.65331, 3,  -1.213, 10.509, -3.180
703336.67315, 3,  -0.249, 11.170, -1.914
703336.69302, 3,  -0.424,  7.487, -0.945, 4,  -0.000, -0.093, -0.005, 5, -11.797,-40.030, 25.433
703336.71288, 3,  -0.388, 12.579, -2.398
703336.73275, 3,  -0.735,  4.597, -0.373
703336.75262, 3,  -1.871, 13.563, -4.668, 4,   0.016, -0.256, -0.002, 5, -12.553,-37.721, 25.648
703336.77251, 3,  -1.426, 10.464, -2.154
703336.79238, 3,  -0.706,  8.442, -1.579
703336.81225, 3,  -0.218, 10.079, -2.103, 4,   0.010, -0.343,  0.096
703336.83211, 3,   0.610,  8.779, -3.082
703336.85198, 3,  -0.038, 11.789, -5.425
703336.87185, 3,  -0.998,  7.073, -2.094, 4,   0.044, -0.127,  0.124, 5, -13.246,-38.780, 25.697
703336.89168, 3,  -1.050, 11.134, -3.084
703336.91155, 3,  -0.294,  8.782, -3.752
703336.93142, 3,  -0.337, 15.386, -3.005, 4,   0.013,  0.141,  0.124, 5, -13.222,-38.115, 26.367
703336.95129, 3,   0.304,  9.478,  1.802
703336.97115, 3,  -0.055,  6.827,  0.268
703336.99102, 3,   0.096, 10.014, -4.068, 4,  -0.001,  0.222,  0.059
703337.01089, 3,  -0.120, 11.189, -3.608
703337.03075, 3,  -0.639,  9.227, -2.484
703337.05062, 3,  -0.526,  8.231, -2.352, 4,   0.020,  0.272, -0.005, 5, -13.487,-37.546, 25.647
703337.07052, 3,  -1.096, 13.180, -3.099
703337.09038, 3,  -0.849,  5.255, -1.752
703337.11022, 3,  -1.644, 16.601, -4.319, 4,  -0.026,  0.059, -0.036, 5, -13.171,-39.438, 25.226
703337.13009, 3,  -0.967,  8.932,  0.957
703337.14995, 3,   0.488,  6.755, -0.701
703337.16982, 3,  -0.069, 10.837, -5.298, 4,   0.014, -0.167, -0.020, 5, -13.173,-39.447, 26.474
703337.18969, 3,  -1.469, 10.155, -3.963
703337.20956, 3,  -0.670,  8.913, -1.529
703337.22942, 3,  -0.641, 11.421, -1.694, 4,   0.013, -0.135,  0.009, 5, -14.323,-39.136, 26.227
703337.24929, 3,  -1.192,  4.015, -0.701
703337.26916, 3,  -0.933, 10.382, -4.192
703337.28902, 3,  -0.837, 13.445, -2.790, 4,   0.047, -0.092,  0.040, 5, -13.861,-36.473, 25.644
703337.30889, 3,   0.720,  9.141, -0.936
703337.32873, 3,  -0.189,  7.695, -0.593
703337.34863, 3,  -0.711,  9.667, -4.566, 4,   0.027,  0.076,  0.038
703337.36849, 3,  -1.010, 10.363, -3.572
703337.38836, 3,  -0.407,  9.198, -1.287
703337.40823, 3,  -1.005, 12.450, -2.278, 4,   0.003,  0.184,  0.007, 5, -14.433,-38.004, 25.647
703337.42809, 3,  -1.424,  4.740,  0.349
703337.44796, 3,  -1.637, 10.380, -3.541
703337.46783, 3,  -0.751, 12.660, -3.178, 4,   0.009,  0.009,  0.013, 5, -15.186,-38.161, 25.645
703337.48770, 3,  -0.593,  9.492, -0.158
703337.50756, 3,  -0.696,  9.660, -0.893
703337.52743, 3,  -0.529,  3.965, -2.941, 4,   0.025, -0.038,  0.023
703337.54727, 3,  -1.232, 12.983, -7.425
703337.56713, 3,  -0.893,  7.504, -2.826
703337.58700, 3,  -0.723, 10.571, -2.692, 4,   0.029,  0.198,  0.026, 5, -13.412,-38.118, 25.648
703337.60687, 3,  -1.139,  8.557, -1.431
703337.62673, 3,  -1.302, 15.561, -1.321
703337.64663, 3,   0.266,  6.712,  1.842, 4,  -0.055,  0.167,  0.001, 5, -13.911,-38.838, 27.100
703337.66650, 3,  -0.029, 10.679, -2.721
703337.68636, 3,  -0.550,  7.906, -3.596
703337.70623, 3,  -0.869,  9.095, -3.293, 4,   0.097, -0.054, -0.039, 5, -14.891,-38.492, 25.305
703337.72610, 3,  -0.457, 21.954, -6.217
703337.74594, 3,  -0.084,  1.802,  4.664
703337.76580, 3,  -0.261, -1.457, -1.321, 4,  -0.043, -0.115, -0.024, 5, -13.914,-38.889, 26.804
703337.78567, 3,  -2.084, 13.831,-10.124
703337.80554, 3,  -0.491, 12.797, -4.738
703337.82540, 3,  -1.481,  5.580, -0.024, 4,   0.088, -0.074,  0.063, 5, -15.218,-37.614, 26.224
703337.84527, 3,  -1.708, 12.132, -3.082
703337.86514, 3,  -1.170, 10.201, -2.352
703337.88500, 3,  -0.301,  8.841,  0.086, 4,  -0.043,  0.153,  0.049, 5, -14.641,-39.661, 25.652
703337.90487, 3,   0.309,  8.858, -1.902
703337.92477, 3,   0.086, 10.849, -2.869
703337.94464, 3,  -0.629,  8.956, -2.103, 4,  -0.013,  0.189,  0.031, 5, -13.934,-39.815, 27.106
703337.96447, 3,  -1.448,  9.863,-10.311
703337.98434, 3,   0.337, 15.123, -0.273
703338.00421, 3,  -0.309,  5.513,  6.324, 4,  -0.191,  0.227,  0.047
703338.02407, 3,  -0.072, 11.213,  2.156
703338.04394, 3,  -1.426,  7.908, -1.816
703338.06381, 3,  -0.955, 10.208, -7.365, 4,   0.088, -0.125, -0.029, 5, -14.954,-37.733, 25.644
703338.08367, 3,   0.206, 11.268, -6.894
703338.10354, 3,  -0.081,  9.854, -4.204
703338.12341, 3,  -0.756, 11.557, -2.321, 4,  -0.022,  0.121,  0.034, 5, -15.324,-38.344, 24.475
703338.14327, 3,   0.005,  7.095, -0.373
703338.16314, 3,  -0.041, 15.872, -2.395
703338.18298, 3,  -0.900,  7.083,  1.615, 4,  -0.059,  0.145, -0.016
703338.20287, 3,  -0.605,  9.710, -1.991
703338.22274, 3,   0.074,  8.940, -3.953
703338.24261, 3,  -1.007, 12.581, -6.422, 4,   0.110,  0.098, -0.077, 5, -15.668,-39.447, 24.484
703338.26248, 3,  -1.697,  9.875, -0.636
703338.28234, 3,  -0.727,  1.974,  0.737
703338.30221, 3,  -0.775, 15.168, -5.700, 4,  -0.012,  0.125, -0.077, 5, -15.437,-37.222, 24.675
703338.32208, 3,  -0.823,  5.831, -1.845
703338.34194, 3,  -1.089, 15.309, -4.436
703338.36181, 3,  -0.747,  8.088,  0.852, 4,  -0.030, -0.035, -0.049, 5, -14.563,-38.095, 25.752
703338.38168, 3,   0.282,  9.045, -1.421
703338.40151, 3,   0.591, 13.086, -2.795
703338.42138, 3,  -0.359,  8.478, -1.479, 4,  -0.005, -0.216, -0.050, 5, -14.563,-38.005, 24.763
703338.44125, 3,  -0.546,  8.858, -3.984
703338.46111, 3,  -1.268,  8.188, -3.986
703338.48098, 3,  -1.036, 11.143, -5.664, 4,   0.051, -0.123, -0.028, 5, -14.970,-37.881, 25.311
703338.50024, 3,  -0.555,  9.662, -1.522
703338.52075, 3,  -0.823, 10.382,  1.208
703338.54061, 3,  -0.596, 10.775, -0.182, 4,  -0.079,  0.089,  0.028
703338.56048, 3,   0.955,  8.554, -1.036
703338.58035, 3,  -0.218, 13.754, -2.199
703338.60021, 3,  -0.627,  1.275, -1.503, 4,   0.109,  0.125, -0.027, 5, -16.583,-38.904, 25.055
703338.62005, 3,  -1.421, 12.450, -9.050
703338.63992, 3,  -1.596, 14.728, -5.714
703338.65978, 3,  -2.058,  3.525,  1.747, 4,  -0.008,  0.241, -0.043, 5, -15.450,-38.158, 21.825
703338.67965, 3,  -1.371,  7.480, -1.050
703338.69952, 3,  -0.912, 15.508, -2.742
703338.71938, 3,  -0.108,  7.372, -0.084, 4,  -0.045, -0.173, -0.021
703338.73925, 3,  -0.134,  8.997, -2.950
703338.75912, 3,  -0.184,  4.857, -4.831
703338.77902, 3,  -0.749, 14.984, -6.832, 4,   0.090, -0.235, -0.006, 5, -15.298,-39.255, 25.266
703338.79888, 3,  -0.471,  7.865, -1.517
703338.81875, 3,  -0.861, 10.906, -1.957
703338.83859, 3,  -0.577,  4.836,  3.496, 4,  -0.089,  0.004,  0.050, 5, -16.353,-40.602, 24.496
703338.85845, 3,   0.342,  8.152, -2.410
703338.87832, 3,  -1.500, 15.465, -7.461
703338.89819, 3,  -0.244,  6.772, -1.249, 4,   0.030,  0.025,  0.017, 5, -16.548,-40.910, 24.974
703338.91805, 3,   0.467,  8.131, -1.390
703338.93792, 3,   0.565, 13.541, -0.668
703338.95779, 3,  -0.708,  8.186,  0.735, 4,  -0.086,  0.010,  0.022, 5, -16.142,-39.140, 25.162
703338.97766, 3,  -0.148,  8.861, -2.761
703338.99752, 3,   0.057, 10.677, -3.482
703339.01739, 3,  -0.452,  4.018, -4.013, 4,   0.070, -0.048, -0.027, 5, -16.338,-39.903, 25.513
703339.03726, 3,  -1.256, 11.557, -7.437
703339.05709, 3,  -1.531, 15.790, -1.390
703339.07699, 3,  -0.818,  6.461,  4.135, 4,  -0.114,  0.082,  0.010
703339.09686, 3,  -0.620, 10.201,  0.189
703339.11672, 3,   0.218,  9.488, -1.795
703339.13659, 3,  -0.481,  7.664, -3.482, 4,   0.061, -0.135, -0.020, 5, -15.903,-38.272, 25.833
703339.15646, 3,  -0.814, 10.325, -6.518
703339.17632, 3,  -1.464, 11.409, -7.528
703339.19619, 3,  -1.314,  7.659, -2.431, 4,   0.067,  0.172, -0.009
703339.21606, 3,  -1.551,  7.245,  1.551
703339.23593, 3,  -1.149, 15.776, -2.565
703339.25579, 3,  -0.543,  6.647,  2.395, 4,  -0.107,  0.053,  0.011, 5, -17.409,-39.639, 25.645
703339.27563, 3,   0.258,  9.038, -2.838
703339.29550, 3,   0.337, 10.332, -7.408
703339.31536, 3,  -0.261, 10.363, -4.080, 4,   0.092, -0.138, -0.012, 5, -15.491,-39.601, 25.177
703339.33523, 3,   0.103,  7.198, -0.720
703339.35513, 3,  -1.146,  8.430, -1.388
703339.37499, 3,  -0.864, 10.263, -2.465, 4,  -0.069, -0.008, -0.001, 5, -15.276,-40.150, 26.378
703339.39486, 3,  -0.584, 11.911, -2.625
703339.41473, 3,  -0.103, 12.132,  0.337
703339.43459, 3,   0.098,  7.990,  0.426, 4,  -0.024, -0.087,  0.008, 5, -16.335,-39.336, 25.790
703339.45446, 3,  -0.749, 11.239, -3.616
703339.47433, 3,  -1.278,  5.877, -2.716
703339.49417, 3,  -1.965, 11.565, -4.798, 4,   0.098, -0.105,  0.004, 5, -15.625,-39.598, 25.986
703339.51403, 3,  -1.034,  8.203, -2.541
703339.53390, 3,  -1.072, 10.079, -1.807
703339.55377, 3,  -1.366,  8.619, -3.020, 4,   0.009,  0.002,  0.052, 5, -16.409,-39.232, 27.100
703339.57363, 3,  -0.601,  9.332, -3.470
703339.59350, 3,  -0.225, 13.120, -1.015
703339.61337, 3,  -1.084,  6.961,  0.763, 4,   0.029,  0.112,  0.063
703339.63326, 3,  -0.852, 11.799, -5.408
703339.65313, 3,  -0.727,  7.640, -4.018
703339.67300, 3,  -1.354,  6.968, -4.630, 4,   0.090,  0.132,  0.021, 5, -16.890,-39.432, 26.692
703339.69287, 3,  -0.596, 20.789, -2.489
703339.71270, 3,  -1.271,  2.424,  5.633
703339.73257, 3,   0.280,  6.920, -2.687, 4,  -0.055,  0.215,  0.016
703339.75244, 3,  -0.510, 12.519, -6.090
703339.77230, 3,  -0.881,  9.846, -4.441
703339.79217, 3,  -1.429,  4.319, -2.094, 4,   0.087,  0.218, -0.033, 5, -16.522,-38.976, 26.373
703339.81204, 3,  -1.321, 16.376, -4.506
703339.83190, 3,  -1.091,  5.827,  1.534
703339.85177, 3,  -2.390,  8.222, -1.225, 4,  -0.078,  0.060, -0.026, 5, -16.585,-38.948, 25.606
703339.87164, 3,  -0.572, 13.003, -4.089
703339.89147, 3,   0.160,  7.901, -0.282
703339.91137, 3,  -0.278, 10.117, -1.220, 4,   0.007, -0.150,  0.020
703339.93124, 3,  -0.227,  9.413, -7.748
703339.95110, 3,   0.359, 14.166, -4.982
703339.97097, 3,   0.433,  7.312,  1.694, 4,   0.008,  0.077,  0.025, 5, -17.961,-40.379, 26.375
703339.99084, 3,   0.309, 10.737, -2.146
703340.01071, 3,   1.163, 10.495, -0.285
703340.03057, 3,   0.239,  3.812, -0.773, 4,  -0.011,  0.089, -0.016, 5, -16.867,-39.490, 25.938
703340.05044, 3,  -0.067, 17.042, -7.559
703340.07031, 3,  -0.811,  6.171, -0.826
703340.09017, 3,  -1.362,  8.538, -1.027, 4,   0.033,  0.188, -0.098, 5, -17.163,-39.122, 27.429
703340.11004, 3,  -1.675,  8.497, -3.781
703340.12988, 3,  -1.285, 16.604, -3.599
703340.14974, 3,  -1.917,  7.068,  1.206, 4,  -0.042,  0.101, -0.098, 5, -17.186,-39.726, 24.922
703340.16961, 3,  -0.950,  5.920, -0.914
703340.18948, 3,  -0.395,  9.842, -4.740
703340.20938, 3,  -1.120, 12.785, -6.214, 4,   0.056, -0.046, -0.097, 5, -16.342,-39.761, 24.924
703340.22924, 3,  -1.151,  6.487, -2.606
703340.24911, 3,  -0.837, 12.201, -3.644
703340.26898, 3,  -1.469,  5.554,  0.811, 4,  -0.040,  0.127, -0.077
703340.28884, 3,  -0.802,  8.987, -2.568
703340.30871, 3,  -0.026, 14.747, -3.556
703340.32858, 3,  -0.436,  7.992, -1.405, 4,   0.022, -0.054, -0.092, 5, -16.629,-40.567, 26.134
703340.34841, 3,  -0.479,  9.208, -1.704
703340.36828, 3,  -1.060,  6.497, -2.934
703340.38815, 3,  -0.670, 11.701, -3.907, 4,   0.013, -0.252, -0.092, 5, -15.314,-37.552, 24.919
703340.40801, 3,  -0.859, 10.667, -1.098
703340.42788, 3,  -1.457,  3.398,  0.352
703340.44775, 3,  -0.744, 15.644, -4.893, 4,  -0.069, -0.248, -0.029, 5, -16.049,-38.892, 24.921
703340.46761, 3,  -1.048,  5.970, -2.034
703340.48748, 3,  -0.163, 13.881, -3.618
703340.50738, 3,   0.141,  8.071, -0.464, 4,  -0.068, -0.146,  0.035, 5, -15.579,-39.595, 25.648
703340.52725, 3,  -0.926, 12.306, -2.536
703340.54711, 3,  -0.593,  9.842, -0.230
703340.56698, 3,   0.323,  5.460, -1.371, 4,  -0.041, -0.173,  0.035, 5, -14.603,-39.902, 26.044
703340.58682, 3,   0.424, 10.627, -5.456
703340.60668, 3,  -0.792,  6.642, -3.398
703340.62655, 3,  -0.438, 15.759, -3.644, 4,  -0.006, -0.042,  0.034, 5, -16.563,-38.205, 24.931
703340.64642, 3,  -0.586,  2.434, -0.108
703340.66628, 3,   0.412, 17.738, -1.522
703340.68615, 3,   0.416,  5.106,  1.649, 4,  -0.064,  0.037,  0.045, 5, -16.258,-40.327, 27.103
703340.70602, 3,  -0.476, 12.065, -4.429
703340.72589, 3,  -0.220,  9.224, -4.199
703340.74575, 3,  -0.335,  6.566, -1.871, 4,   0.095, -0.095, -0.008, 5, -16.257,-38.138, 26.372
703340.76562, 3,  -1.673,  9.155, -5.106
703340.78552, 3,  -1.350, 10.933, -5.190
703340.80535, 3,  -0.144, 10.804, -0.615, 4,   0.002, -0.160,  0.013
703340.82522, 3,  -0.146,  7.030,  0.550
703340.84509, 3,  -0.115,  6.851, -1.546
703340.86495, 3,  -0.122, 13.792, -4.872, 4,   0.009, -0.246,  0.042, 5, -15.269,-38.081, 27.055
703340.88482, 3,   0.400, 11.050, -1.165
703340.90469, 3,  -1.261,  5.561, -1.979
703340.92455, 3,  -0.904, 10.449, -2.701, 4,   0.063, -0.115,  0.057
703340.94442, 3,  -1.096,  5.934, -0.924
703340.96429, 3,  -0.696,  9.825, -4.396
703340.98416, 3,  -1.060, 12.220, -3.642, 4,   0.016, -0.035,  0.100, 5, -15.453,-38.167, 25.160
703341.00402, 3,  -1.034, 11.320,  1.321
703341.02386, 3,  -0.029,  5.623,  1.117
703341.04373, 3,   0.313, 15.364, -3.084, 4,  -0.017,  0.082,  0.127, 5, -16.016,-37.045, 26.076
703341.06362, 3,  -0.122,  5.142, -1.663
703341.08349, 3,  -0.739,  7.858, -5.480
703341.10336, 3,  -1.192, 10.387, -6.341, 4,   0.116,  0.257,  0.054, 5, -15.991,-38.182, 26.271
703341.12322, 3,  -2.395, 14.993, -4.003
703341.14309, 3,  -1.266,  7.549,  1.656
703341.16296, 3,  -0.960,  9.287, -0.739, 4,  -0.096,  0.341,  0.032, 5, -15.970,-37.563, 26.277
703341.18282, 3,  -1.189,  6.207,  0.089
703341.20269, 3,  -0.835,  8.442, -2.761
703341.22253, 3,  -0.897, 12.983, -4.013, 4,   0.067, -0.053, -0.015, 5, -16.862,-39.478, 25.209
703341.24240, 3,  -0.974,  7.714, -5.058
703341.26226, 3,  -0.979,  9.588, -3.304
703341.28213, 3,  -1.048,  8.892, -2.572, 4,  -0.012,  0.015,  0.023, 5, -17.479,-38.918, 24.919
703341.30200, 3,  -1.759, 11.498, -1.156
703341.32186, 3,  -0.546, 10.129,  1.041
703341.34173, 3,   0.057,  8.767, -1.259, 4,  -0.028, -0.103,  0.063
703341.36163, 3,  -0.909,  6.738, -4.692
703341.38149, 3,  -1.366,  7.698, -6.559
703341.40136, 3,  -0.926, 14.757, -5.633, 4,   0.092, -0.037,  0.090, 5, -18.704,-38.243, 24.474
703341.42120, 3,  -0.055,  8.049,  2.087
703341.44106, 3,   0.912,  5.358, -0.603
703341.46093, 3,   1.400, 16.001, -5.436, 4,  -0.055,  0.202,  0.119
703341.48080, 3,   0.553,  7.750, -0.821
703341.50067, 3,   0.660, 10.153, -3.546
703341.52053, 3,   0.196,  8.573, -3.273, 4,   0.045,  0.424,  0.007, 5, -19.290,-38.263, 25.923
703341.54040, 3,  -0.488,  9.279, -3.888
703341.56027, 3,  -1.354,  6.291, -4.824
703341.58013, 3,  -0.653, 20.104, -4.434, 4,  -0.033,  0.457, -0.097, 5, -19.220,-37.410, 25.111
703341.60000, 3,  -1.125,  7.516,  3.836
703341.61987, 3,  -0.141,  5.927,  2.285
703341.63973, 3,   0.443, 10.418, -2.852, 4,  -0.108,  0.085, -0.145, 5, -19.919,-38.985, 24.910
703341.65960, 3,  -0.416, 12.242, -6.236
703341.67947, 3,  -0.376,  9.444, -4.817
703341.69933, 3,  -1.141,  8.045, -4.321, 4,   0.083, -0.029, -0.154, 5, -18.565,-37.910, 24.527
703341.71920, 3,  -1.280, 10.426, -3.539
703341.73907, 3,  -0.857,  5.922, -2.070
703341.75894, 3,  -1.831, 14.352, -3.582, 4,  -0.056, -0.009, -0.154, 5, -16.924,-38.158, 24.533
703341.77880, 3,  -1.606,  9.586,  0.849
703341.79867, 3,  -0.165,  7.375,  0.598
703341.81854, 3,   0.172, 14.283, -3.864, 4,  -0.015, -0.304, -0.114, 5, -17.915,-38.643, 24.492
703341.83840, 3,   0.050,  7.234, -2.862
703341.85827, 3,  -1.496,  8.179, -4.171
703341.87811, 3,  -1.479, 10.129, -4.178, 4,   0.059, -0.307, -0.062, 5, -17.278,-38.168, 24.962
703341.89797, 3,  -1.082, 10.268, -2.168
703341.91784, 3,  -0.455,  8.609, -4.755
703341.93774, 3,  -0.471, 17.398, -3.206, 4,  -0.081,  0.020,  0.017, 5, -17.230,-37.968, 25.397
703341.95760, 3,  -0.151,  4.800,  4.070
703341.97747, 3,   0.285,  9.150, -1.256
703341.99734, 3,   0.134, 12.156, -2.498, 4,  -0.011,  0.099, -0.028
703342.01721, 3,  -0.835,  7.078, -3.522
703342.03707, 3,  -0.881,  7.877, -5.925
703342.05694, 3,  -2.120, 12.194, -7.088, 4,   0.060,  0.059, -0.096, 5, -18.176,-38.231, 24.190
703342.07681, 3,  -0.569, 10.938, -0.684
703342.09664, 3,  -0.175,  2.522,  1.893
703342.11651, 3,   0.450, 16.343, -3.300, 4,  -0.163, -0.138, -0.059, 5, -17.346,-38.919, 23.465
703342.13638, 3,  -0.546, 12.017, -0.038
703342.15624, 3,  -0.081,  5.410, -0.541
703342.17611, 3,  -0.658, 11.225, -5.537, 4,   0.056, -0.384, -0.077, 5, -17.342,-38.919, 23.465
703342.19598, 3,  -0.256,  6.910, -3.919
703342.21588, 3,  -0.060, 10.533, -3.458
703342.23574, 3,  -1.472, 10.978, -2.807, 4,  -0.012, -0.299, -0.030, 5, -16.464,-39.053, 25.362
703342.25561, 3,  -0.510, 11.450, -0.491
703342.27548, 3,   0.141,  3.584,  0.605
703342.29473, 3,  -0.069, 15.860, -5.654, 4,  -0.037, -0.577,  0.010, 5, -15.704,-39.357, 24.687
703342.31518, 3,   1.172,  8.605, -1.981
703342.33505, 3,   0.663,  2.898, -2.855
703342.35491, 3,  -0.292, 17.958, -6.724, 4,   0.026, -0.454,  0.068, 5, -15.842,-37.614, 25.020
703342.37478, 3,  -1.216,  8.526,  0.280
703342.39465, 3,  -0.232,  9.009, -0.122
703342.41451, 3,  -0.615, 10.253, -1.610, 4,  -0.053, -0.057,  0.100, 5, -15.237,-38.443, 26.375
703342.43438, 3,  -0.852,  9.552, -1.452
703342.45425, 3,  -2.082,  5.427, -4.355
703342.47411, 3,  -1.306, 16.874, -6.080, 4,   0.061, -0.029,  0.050, 5, -15.543,-38.223, 25.366
703342.49401, 3,  -1.206, 10.416,  0.211
703342.51388, 3,  -0.160,  4.087,  1.359
703342.53372, 3,  -1.182, 12.526, -2.594, 4,  -0.075, -0.055,  0.097
703342.55358, 3,  -1.094, 11.964, -2.087
703342.57345, 3,  -1.902,  4.381, -0.079
703342.59332, 3,  -1.364, 11.919, -7.547, 4,   0.144, -0.321,  0.077, 5, -14.124,-40.083, 26.712
703342.61318, 3,  -0.536, 12.928, -7.650
703342.63305, 3,  -1.924,  4.936, -2.548
703342.65292, 3,  -0.330, 15.132, -2.390, 4,   0.044, -0.101,  0.162, 5, -15.257,-39.592, 27.823
703342.67278, 3,   0.151,  7.901,  2.417
703342.69265, 3,   1.132,  6.413,  1.649
703342.71252, 3,   0.280,  8.148, -4.585, 4,   0.038, -0.073,  0.143, 5, -15.376,-38.356, 26.909
703342.73239, 3,  -0.677, 11.785, -7.758
703342.75222, 3,  -0.610,  8.621, -3.044
703342.77209, 3,  -0.467,  8.731, -2.484, 4,   0.113,  0.151,  0.109, 5, -14.854,-38.869, 27.487
703342.79199, 3,  -1.024, 15.113, -1.900
703342.81185, 3,  -1.467,  2.501,  2.099
703342.83172, 3,  -1.283,  9.787, -3.144, 4,  -0.019,  0.130,  0.055, 5, -15.924,-39.320, 27.385
703342.85159, 3,  -0.290, 10.466, -3.194
703342.87145, 3,  -0.878,  7.267, -3.972
703342.89132, 3,  -2.053, 10.586, -4.599, 4,   0.055, -0.057,  0.068, 5, -18.407,-38.907, 27.678
703342.91119, 3,  -2.168,  7.868, -1.811
703342.93105, 3,  -1.754, 13.151, -0.723
703342.95092, 3,  -0.376,  4.948,  2.544, 4,  -0.063, -0.021,  0.122, 5, -17.020,-38.443, 27.097
703342.97076, 3,  -0.433,  8.533, -3.249
703342.99062, 3,  -1.268, 10.222, -6.231
703343.01049, 3,  -1.244, 14.797, -4.477, 4,   0.130, -0.031,  0.113, 5, -17.108,-38.211, 27.095
703343.03036, 3,  -0.086,  8.248,  0.017
703343.05023, 3,   1.053,  4.609,  0.782
703343.07012, 3,  -0.242,  9.703, -2.972, 4,  -0.026,  0.235,  0.146
703343.08999, 3,   0.416, 11.883, -2.455
703343.10986, 3,  -1.027,  9.251, -0.586
703343.12972, 3,  -0.744,  7.758, -1.883, 4,   0.069,  0.284,  0.047, 5, -17.451,-40.080, 26.563
703343.14959, 3,  -0.988,  7.245, -3.221
703343.16946, 3,  -1.426,  8.073, -6.891
703343.18929, 3,  -0.658, 14.962, -4.321, 4,   0.061,  0.293, -0.014
703343.20916, 3,  -0.912,  9.193,  2.412
703343.22903, 3,   1.060, 10.342,  0.383
703343.24890, 3,  -0.948,  9.394, -3.604, 4,  -0.046,  0.072, -0.008, 5, -18.167,-38.235, 26.369
703343.26876, 3,  -0.785,  8.114, -3.642
703343.28863, 3,  -1.163,  7.047, -4.659
703343.30850, 3,   0.287, 12.622, -6.626, 4,   0.114, -0.023, -0.047, 5, -18.546,-37.535, 27.809
703343.32836, 3,  -0.682, 15.202, -2.871
703343.34823, 3,  -1.596,  3.393,  2.316
703343.36813, 3,  -1.694, 10.387, -1.498, 4,  -0.066,  0.115, -0.013, 5, -17.346,-36.842, 27.040
703343.38799, 3,  -0.682,  9.389, -0.634
703343.40783, 3,   0.529, 12.608, -2.041
703343.42770, 3,  -0.211,  7.128, -3.699, 4,   0.057,  0.041, -0.015, 5, -17.625,-38.086, 27.538
703343.44756, 3,  -0.730,  5.207, -4.491
703343.46743, 3,  -0.940, 12.199, -5.712
703343.48730, 3,  -0.950,  9.729,  0.663, 4,  -0.030,  0.220, -0.023, 5, -17.610,-38.934, 27.043
703343.50717, 3,  -0.517,  7.968,  1.132
703343.52703, 3,  -0.620,  8.794, -2.180
703343.54690, 3,  -0.005, 15.623, -4.666, 4,  -0.039,  0.009, -0.020, 5, -19.719,-37.885, 24.776
703343.56677, 3,   0.864,  8.131, -3.108
703343.58663, 3,  -0.306,  4.728, -2.974
703343.60650, 3,  -0.589,  9.916, -3.316, 4,  -0.006,  0.062, -0.024
703343.62634, 3,  -1.766,  9.511, -1.149
703343.64623, 3,  -1.340, 13.094, -3.979
703343.66610, 3,  -0.294,  6.573, -0.447, 4,  -0.080, -0.015, -0.018, 5, -19.745,-38.988, 27.664
703343.68597, 3,   0.701,  9.425, -0.663
703343.70583, 3,  -0.330,  4.898, -3.537
703343.72570, 3,  -0.175, 14.517, -6.343, 4,   0.026, -0.140, -0.014
703343.74557, 3,  -0.043,  9.957, -1.036
703343.76544, 3,  -0.682,  9.145, -0.469
703343.78530, 3,  -0.842,  9.066, -3.048, 4,  -0.040,  0.119,  0.012, 5, -17.601,-38.899, 28.593
703343.80517, 3,   0.653,  7.920, -1.448
703343.82504, 3,  -0.940,  8.746, -1.350
703343.84487, 3,  -0.469, 11.036, -2.893, 4,   0.006,  0.120, -0.017, 5, -17.651,-38.646, 27.528
703343.86474, 3,  -1.369, 10.552, -3.290
703343.88461, 3,  -1.797,  8.509, -3.075
703343.90447, 3,  -0.486,  9.289, -2.328, 4,  -0.018,  0.126, -0.030, 5, -19.221,-37.549, 27.046
703343.92434, 3,  -0.852, 12.187, -0.378
703343.94424, 3,   1.141,  4.580,  0.598
703343.96411, 3,   0.895, 10.734, -4.886, 4,  -0.026, -0.031, -0.018, 5, -20.074,-36.375, 25.148
703343.98397, 3,  -0.589,  8.540, -6.171
703344.00384, 3,  -1.429, 11.627, -5.621
703344.02371, 3,  -0.335,  9.961,  0.294, 4,   0.013,  0.011, -0.006, 5, -20.558,-37.576, 24.767
703344.04354, 3,   0.029,  5.599,  1.311
703344.06341, 3,  -1.584,  4.075, -3.668
703344.08328, 3,  -0.234, 11.849, -6.920, 4,  -0.011,  0.016, -0.032, 5, -19.298,-36.832, 24.283
703344.10314, 3,  -0.275, 11.904, -2.589
703344.12301, 3,   1.007, 15.695,  0.342
703344.14288, 3,   4.747,  2.343,  0.907, 4,  -0.113,  0.063, -0.007, 5, -20.457,-36.862, 24.908
703344.16274, 3,   1.369,  9.193, -6.238
703344.18261, 3,  -1.347,  8.203, -0.055
703344.20248, 3,  -0.258,  7.700, -1.424, 4,   0.019, -0.054, -0.086, 5, -18.953,-37.257, 25.064
703344.22238, 3,  -1.199, 13.567, -3.884
703344.24224, 3,  -2.299,  4.307, -2.601
703344.26211, 3,  -2.340, 13.639, -4.678, 4,  -0.042, -0.030, -0.046
703344.28195, 3,  -0.723,  8.605,  3.032
703344.30181, 3,   1.819,  7.365,  2.785
703344.32168, 3,  -0.512,  8.361, -1.941, 4,  -0.053, -0.071,  0.018, 5, -18.973,-36.354, 24.666
703344.34155, 3,  -1.438,  9.346, -7.497
703344.36141, 3,  -2.615, 11.909, -8.246
703344.38128, 3,  -0.548,  8.332, -2.596, 4,   0.130, -0.000,  0.025, 5, -17.349,-36.833, 23.410
703344.40115, 3,  -0.763,  9.949, -0.081
703344.42101, 3,  -1.046,  5.700,  1.606
703344.44088, 3,  -0.136, 12.737, -2.204, 4,  -0.107,  0.041,  0.050, 5, -19.202,-36.394, 22.147
703344.46075, 3,   0.627, 10.801, -0.553
703344.48062, 3,   0.943,  9.066, -1.280
703344.50048, 3,   0.041,  8.325, -3.850, 4,   0.078, -0.001,  0.010, 5, -19.252,-36.447, 23.122
703344.52035, 3,  -0.854,  8.600, -5.293
703344.54022, 3,  -2.209, 11.005, -3.453
703344.56008, 3,  -0.866,  8.542,  0.108, 4,   0.014,  0.242, -0.025, 5, -18.839,-36.433, 22.928
703344.57995, 3,  -0.936, 11.038, -2.201
703344.59982, 3,  -1.448,  5.295, -2.623
703344.61968, 3,  -1.326, 13.345, -5.214, 4,  -0.026,  0.089, -0.054, 5, -19.189,-36.121, 23.456
703344.63955, 3,  -0.416, 16.530, -1.242
703344.65942, 3,  -1.180,  2.847,  3.592
703344.67928, 3,  -0.866,  8.191, -2.989, 4,  -0.063, -0.064, -0.019, 5, -17.877,-36.986, 24.533
703344.69915, 3,  -0.835, 11.210, -6.114
703344.71899, 3,   0.156, 10.581, -4.628
703344.73885, 3,   0.436,  8.423, -1.553, 4,   0.030, -0.104, -0.016, 5, -18.867,-37.195, 22.690
703344.75872, 3,  -0.045, 13.192, -1.110
703344.77859, 3,   0.057,  4.647, -0.785
703344.79849, 3,  -0.737, 15.398, -4.577, 4,  -0.011, -0.073, -0.026
703344.81835, 3,  -0.230,  9.169,  0.187
703344.83822, 3,   0.077,  6.324, -0.065
703344.85809, 3,  -0.869,  9.504, -3.797, 4,   0.027, -0.128, -0.016, 5, -20.491,-38.197, 23.367
703344.87795, 3,  -1.469, 10.014, -7.135
703344.89782, 3,  -0.230, 16.326, -2.675
703344.91769, 3,  -0.390, -0.852,  3.209, 4,  -0.014, -0.002,  0.008
703344.93752, 3,  -0.246, 10.024, -4.623
703344.95739, 3,  -1.972, 13.630, -6.867
703344.97726, 3,  -1.144, 15.036, -2.632, 4,   0.022,  0.035, -0.010, 5, -18.083,-36.322, 22.960
703344.99713, 3,  -0.258,  7.492,  2.534
703345.01699, 3,  -0.483,  7.600, -1.397
703345.03686, 3,  -1.189,  8.925, -4.329, 4,  -0.001, -0.044,  0.018, 5, -19.337,-36.829, 22.594
703345.05673, 3,   0.431, 13.778, -5.568
703345.07662, 3,  -0.175, 12.220, -3.826
703345.09649, 3,  -1.263,  8.475, -1.622, 4,   0.011, -0.025,  0.035, 5, -19.241,-38.257, 24.289
703345.11636, 3,  -1.187, 12.581, -0.538
703345.13622, 3,  -0.849,  7.714, -4.769
703345.15606, 3,   0.041, 13.821, -0.373, 4,  -0.018, -0.089,  0.040, 5, -18.065,-37.610, 24.915
703345.17593, 3,  -0.517,  6.970,  1.685
703345.19579, 3,   0.268, 10.782, -4.953
703345.21566, 3,  -0.409,  8.198, -4.161, 4,   0.069, -0.088,  0.056, 5, -18.427,-37.668, 24.188
703345.23553, 3,   0.730,  8.463, -4.671
703345.25540, 3,   0.562,  7.963, -2.335
703345.27526, 3,  -1.957, 11.864, -2.278, 4,  -0.012,  0.248,  0.047, 5, -19.708,-39.217, 23.947
703345.29513, 3,  -1.744,  9.660, -1.275
703345.31500, 3,  -1.165,  0.380, -1.254
703345.33486, 3,  -0.828, 20.365, -7.506, 4,   0.028,  0.146, -0.007
703345.35473, 3,  -1.201,  8.693, -0.287
703345.37460, 3,   0.156,  6.760, -0.079
703345.39446, 3,  -1.072, 11.182, -2.852, 4,  -0.037,  0.085,  0.015, 5, -18.585,-38.814, 24.191
703345.41433, 3,  -1.393,  9.887, -2.103
703345.43420, 3,  -0.105,  8.207, -1.809
703345.45406, 3,  -0.589,  9.660, -3.946, 4,   0.029,  0.049,  0.008
703345.47393, 3,  -1.165,  8.107, -3.120
703345.49380, 3,  -1.070, 11.170, -1.993
703345.51367, 3,  -1.373, 11.876, -3.376, 4,  -0.024,  0.224,  0.010, 5, -20.268,-38.336, 24.968
703345.53353, 3,   0.050,  7.671,  0.328
703345.55340, 3,   0.158, 16.367, -1.895
703345.57327, 3,  -0.854,  2.752,  0.826, 4,  -0.009,  0.139, -0.010, 5, -20.430,-39.908, 26.173
703345.59310, 3,  -0.615,  3.924, -5.207
703345.61297, 3,  -0.938, 15.757, -9.923
703345.63284, 3,  -1.105, 10.248, -2.118, 4,   0.088,  0.126, -0.044, 5, -20.573,-38.298, 25.629
703345.65273, 3,  -1.563,  4.022, -1.079
703345.67260, 3,  -0.246, 13.945, -2.144
703345.69247, 3,   0.517,  9.894,  0.895, 4,  -0.126,  0.202, -0.044, 5, -19.450,-39.685, 23.463
703345.71234, 3,   0.172,  9.820,  0.148
703345.73220, 3,  -0.345,  8.794, -2.232
703345.75207, 3,   0.756,  9.681, -4.458, 4,   0.057, -0.040, -0.132, 5, -19.933,-39.363, 24.615
703345.77194, 3,  -0.084,  6.109, -3.137
703345.79180, 3,  -1.783, 13.723, -7.738
703345.81164, 3,  -1.108,  8.523,  2.134, 4,  -0.055, -0.013, -0.102, 5, -20.065,-39.699, 23.462
703345.83151, 3,  -0.464,  4.168,  0.866
703345.85137, 3,  -1.103, 18.054, -5.661
703345.87124, 3,  -0.215,  6.954,  0.857, 4,  -0.072, -0.144, -0.077, 5, -17.926,-38.991, 22.797
703345.89111, 3,  -0.761,  7.243, -1.306
703345.91097, 3,  -0.237, 10.205, -4.886
703345.93087, 3,  -1.369,  9.586, -4.654, 4,   0.038, -0.156, -0.072, 5, -18.176,-40.144, 25.417
703345.95074, 3,  -0.569, 10.205, -3.032
703345.97061, 3,  -1.223,  6.796, -0.794
703345.99047, 3,  -0.536, 12.218, -2.441, 4,  -0.094, -0.202, -0.012
703346.01034, 3,   0.285,  6.709, -2.072
703346.03018, 3,  -0.323, 17.580, -3.618
703346.05004, 3,   0.057,  2.862,  2.230, 4,  -0.017, -0.279,  0.032, 5, -18.335,-39.659, 24.487
703346.06991, 3,  -0.491,  9.701, -4.386
703346.08978, 3,  -1.175, 10.804, -4.908
703346.10964, 3,  -0.826, 14.668, -2.666, 4,   0.037, -0.126,  0.032, 5, -19.099,-40.289, 23.990
703346.12951, 3,   0.519,  6.006,  1.230
703346.14938, 3,   0.127, 10.335, -1.493
703346.16924, 3,  -1.213,  6.755, -1.522, 4,  -0.004, -0.006,  0.031, 5, -17.911,-38.408, 23.369
703346.18911, 3,  -1.601,  9.595, -4.537
703346.20898, 3,  -2.094, 12.613, -3.283
703346.22888, 3,   0.184,  7.978,  1.017, 4,   0.031, -0.071,  0.056, 5, -17.409,-40.065, 23.468
703346.24871, 3,  -0.936,  7.076, -3.249
703346.26858, 3,  -1.065, 13.462, -4.235
703346.28784, 3,  -1.309,  8.837,  1.314, 4,   0.017,  0.011,  0.076, 5, -19.727,-40.166, 24.191
703346.30831, 3,   0.282,  2.108, -1.127
703346.32818, 3,  -0.234, 16.618, -8.803
703346.34805, 3,  -0.694,  5.647, -3.735, 4,   0.098,  0.221,  0.045
703346.36791, 3,  -0.368, 14.271, -3.060
703346.38778, 3,   0.122,  7.181,  0.416
703346.40765, 3,   1.299,  5.657, -1.938, 4,  -0.087,  0.329,  0.000, 5, -19.809,-39.691, 23.029
703346.42748, 3,  -0.806,  9.961, -5.171
703346.44738, 3,  -0.663, 26.328, -2.788
703346.46722, 3,  -0.794, -5.190,  8.621, 4,  -0.082,  0.026, -0.103, 5, -20.924,-37.865, 22.632
703346.48708, 3,  -1.094, 10.332, -5.714
703346.50698, 3,  -1.685, 15.271, -8.483
703346.52685, 3,  -0.842,  5.961,  0.024, 4,   0.067, -0.196, -0.093
703346.54672, 3,  -1.677, 12.246,  0.780
703346.56658, 3,  -2.378,  9.732, -1.888
703346.58645, 3,  -1.364,  7.076, -4.314, 4,  -0.024, -0.368,  0.024, 5, -17.931,-39.325, 24.390
703346.60632, 3,  -0.048, 12.914, -3.692
703346.62618, 3,   2.166, 10.248,  1.242
703346.64605, 3,   1.457,  5.879, -0.395, 4,  -0.021, -0.361,  0.087, 5, -19.254,-38.968, 24.199
703346.66592, 3,  -1.653, 12.175, -8.700
703346.68575, 3,  -0.514,  9.787, -5.628
703346.70562, 3,  -0.146,  0.981,  1.117, 4,   0.062, -0.116,  0.061, 5, -17.615,-39.459, 25.645
703346.72549, 3,  -0.115, 20.882, -3.989
703346.74536, 3,  -1.108, 10.086,  1.560
703346.76522, 3,  -0.778,  8.174, -1.022, 4,  -0.059, -0.009,  0.106, 5, -16.908,-37.529, 24.574
703346.78509, 3,   0.522,  9.200, -1.383
703346.80499, 3,  -0.196, 12.242, -1.675
703346.82485, 3,  -0.735,  8.514, -2.151, 4,   0.100,  0.012,  0.087, 5, -17.897,-37.939, 25.925
703346.84472, 3,  -1.493,  9.349, -5.819
703346.86459, 3,  -2.474,  6.099, -4.164
703346.88445, 3,  -1.254,  6.006, -3.986, 4,   0.090, -0.011,  0.089, 5, -18.495,-36.818, 26.228
703346.90429, 3,  -0.904, 17.384, -2.776
703346.92416, 3,   0.474,  6.803,  3.371
703346.94402, 3,   0.438,  7.219, -1.653, 4,  -0.013, -0.051,  0.181, 5, -16.763,-37.498, 26.863
703346.96389, 3,   0.115,  9.258, -4.577
703346.98376, 3,  -1.376, 12.340, -4.673
703347.00363, 3,  -1.127,  8.303, -1.792, 4,   0.154,  0.348,  0.131, 5, -16.824,-36.913, 25.919
703347.02349, 3,  -1.419, 10.464, -2.333
703347.04336, 3,  -0.849,  7.801, -3.352
703347.06323, 3,  -0.538, 16.003, -1.579, 4,  -0.009,  0.403,  0.096
703347.08312, 3,  -0.139,  8.152,  3.218
703347.10299, 3,  -0.230, 10.981,  0.060
703347.12283, 3,  -0.167,  7.714, -2.221, 4,   0.014,  0.122,  0.051, 5, -20.509,-35.435, 24.178
703347.14269, 3,  -1.027,  8.956, -6.501
703347.16256, 3,  -0.433,  7.025, -7.513
703347.18243, 3,  -0.945, 14.979, -4.302, 4,   0.077,  0.227,  0.011
703347.20229, 3,  -0.869,  6.176,  0.340
703347.22216, 3,   0.636,  8.329, -3.398
703347.24203, 3,  -0.213, 17.910, -2.316, 4,  -0.108,  0.605, -0.014, 5, -20.804,-36.584, 22.862
703347.26190, 3,  -0.591,  8.382,  4.393
703347.28176, 3,  -0.541,  8.227, -0.522
703347.30163, 3,  -1.912, 11.253, -5.319, 4,   0.037,  0.567, -0.161, 5, -21.420,-35.941, 20.311
703347.32150, 3,  -2.240,  8.968, -3.594
703347.34133, 3,  -1.835,  7.858, -1.890
703347.36121, 3,  -1.981, 10.878, -1.687, 4,  -0.026,  0.058, -0.172, 5, -19.897,-35.567, 21.950
703347.38108, 3,  -0.598,  5.728,  0.455
703347.40095, 3,  -0.883,  9.624, -3.924
703347.42081, 3,   0.304, 20.243, -4.156, 4,  -0.044, -0.271, -0.095, 5, -20.001,-36.411, 21.277
703347.44068, 3,  -0.275, -1.137,  5.480
703347.46055, 3,  -0.579, 12.239, -5.216
703347.48041, 3,  -0.165,  7.018, -7.210, 4,   0.034, -0.274, -0.063, 5, -19.879,-36.838, 20.944
703347.50028, 3,  -0.904, 14.457, -6.951
703347.52015, 3,   0.603, 10.497, -0.115
703347.54001, 3,   1.249,  8.717,  1.000, 4,  -0.069, -0.130, -0.021
703347.55985, 3,  -0.311,  3.513, -0.615
703347.57972, 3,  -1.082, 16.465, -6.810
703347.59959, 3,  -1.680, 11.840, -0.854, 4,   0.022, -0.015, -0.060, 5, -19.832,-34.695, 20.546
703347.61945, 3,  -0.400,  4.300,  3.288
703347.63932, 3,  -1.775, 10.416, -5.142
703347.65922, 3,  -2.386, 10.739, -5.621, 4,   0.053, -0.113, -0.034, 5, -22.356,-34.383, 21.031
703347.67908, 3,  -2.998,  6.269, -1.448
703347.69895, 3,   0.615, 12.062, -3.017
703347.71882, 3,   0.167,  8.485,  0.522, 4,  -0.056, -0.043,  0.079
703347.73868, 3,  -0.550,  7.042, -3.360
703347.75855, 3,  -0.617, 11.368, -6.492
703347.77839, 3,   0.170, 12.287, -2.450, 4,   0.053,  0.205,  0.064, 5, -20.834,-33.974, 22.076
703347.79825, 3,   0.117,  6.623,  3.168
703347.81812, 3,  -1.443, 12.634, -2.697
703347.83799, 3,  -1.170,  8.406, -2.809, 4,   0.015,  0.116,  0.018, 5, -22.104,-34.610, 21.994
703347.85786, 3,   1.086,  8.248, -3.654
703347.87772, 3,   1.460,  8.542, -5.602
703347.89759, 3,   0.010, 14.460, -2.103, 4,   0.031,  0.080,  0.002, 5, -21.883,-33.374, 23.354
703347.91746, 3,   1.158, -0.194,  0.565
703347.93735, 3,   0.574, 19.071, -7.930
703347.95722, 3,  -0.888,  9.789, -0.187, 4,  -0.033,  0.503, -0.075, 5, -21.364,-33.560, 23.444
703347.97709, 3,  -0.522, 10.655,  0.919
703347.99692, 3,  -2.725,  6.556,  2.821
703348.01679, 3,  -2.065,  9.545, -4.240, 4,  -0.028,  0.185, -0.185, 5, -22.377,-35.054, 23.016
703348.03666, 3,  -0.938, 12.057, -6.652
703348.05652, 3,  -1.371,  9.358, -4.589
703348.07639, 3,  -0.809,  8.932, -0.900, 4,  -0.008, -0.327, -0.122
703348.09626, 3,  -0.335,  7.848, -1.342
703348.11613, 3,  -1.548, 17.439, -4.853
703348.13599, 3,   0.005,  7.619,  1.835, 4,  -0.092,  0.014, -0.023, 5, -21.663,-34.843, 23.894
703348.15586, 3,   0.924,  6.272, -0.203
703348.17573, 3,   0.002, 10.026, -5.276
703348.19559, 3,  -0.981, 10.856, -4.671, 4,   0.011,  0.063, -0.095, 5, -19.957,-34.859, 23.753
703348.21543, 3,  -0.330, 10.026, -2.706
703348.23533, 3,  -0.486,  8.710, -1.000
703348.25519, 3,   0.447,  9.641, -1.536, 4,  -0.090, -0.573, -0.093
703348.27506, 3,   0.598,  8.619, -2.010
703348.29493, 3,  -0.502, 13.596, -2.491
703348.31479, 3,   0.385,  6.145,  1.433, 4,  -0.010, -0.839,  0.043, 5, -18.040,-34.662, 24.416
703348.33466, 3,   0.560,  9.887, -4.164
703348.35453, 3,  -0.239, 10.047, -5.812
703348.37440, 3,  -0.536, 14.503, -2.163, 4,   0.103, -0.416,  0.127, 5, -17.792,-35.321, 24.857
703348.39426, 3,   1.254,  4.288,  0.902
703348.41413, 3,  -0.239,  9.959, -3.721
703348.43397, 3,  -1.263, 10.402, -5.410, 4,   0.085, -0.085,  0.154, 5, -17.708,-35.231, 24.767
703348.45383, 3,  -0.553,  7.066, -2.850
703348.47370, 3,  -1.431, 13.876, -2.773
703348.49357, 3,  -1.206,  9.401,  0.893, 4,   0.013,  0.422,  0.166, 5, -18.567,-35.663, 23.401
703348.51346, 3,   0.658,  8.719, -1.905
703348.53333, 3,  -0.400,  9.744, -2.807
703348.55320, 3,  -2.237, 10.141, -2.139, 4,   0.081,  0.662,  0.044, 5, -18.991,-35.069, 22.531
703348.57307, 3,  -1.050,  9.760, -2.362
703348.59293, 3,  -0.890,  8.466, -2.857
703348.61280, 3,  -1.558, 11.447, -5.640, 4,   0.067,  0.958, -0.086
703348.63267, 3,  -3.436,  5.819,  0.562
703348.65253, 3,  -4.924, 11.402, -0.888
703348.67237, 3,  -2.874, 10.847, -1.261, 4,  -0.075,  0.761, -0.187, 5, -19.186,-35.580, 20.015
703348.69224, 3,  -2.032,  8.083, -1.898
703348.71210, 3,  -1.101, 10.076, -3.879
703348.73197, 3,  -2.374, 12.132, -2.438, 4,  -0.035,  0.074, -0.162
703348.75184, 3,  -0.577,  7.973, -0.215
703348.77170, 3,   1.390, 10.428, -2.838
703348.79160, 3,   1.507,  6.449, -2.780, 4,  -0.058, -0.038, -0.113, 5, -18.260,-36.464, 21.280
703348.81147, 3,  -0.072, 10.509, -5.207
703348.83134, 3,  -1.333, 12.828, -2.072
703348.85120, 3,  -1.840,  8.270,  0.639, 4,  -0.083,  0.074, -0.176, 5, -17.368,-36.108, 19.781
703348.87104, 3,  -2.101,  8.499, -1.551
703348.89091, 3,  -1.527, 10.423, -3.391
703348.91077, 3,  -0.890,  9.945, -3.307, 4,  -0.009, -0.805, -0.108
703348.93064, 3,  -0.400,  8.279, -2.146
703348.95051, 3,  -0.873, 10.885, -3.020
703348.97037, 3,  -1.249,  4.637, -1.993, 4,   0.033, -0.573,  0.062, 5, -17.682,-37.743, 20.319
703348.99024, 3,   0.885, 11.201, -5.728
703349.01011, 3,   2.390, 13.955, -3.218
703349.02997, 3,   3.486,  9.595,  1.551, 4,  -0.021, -0.025,  0.134, 5, -17.612,-37.076, 22.148
703349.04984, 3,   0.754,  3.326, -0.414
703349.06971, 3,  -1.883, 11.191, -4.618
703349.08958, 3,  -3.228, 12.120, -4.108, 4,   0.089,  0.221, -0.029, 5, -18.364,-36.803, 21.481
703349.10944, 3,  -1.256,  7.253, -0.787
703349.12931, 3,  -1.022, 11.160, -2.979
703349.14918, 3,  -1.577,  4.956, -1.651, 4,  -0.023, -0.259,  0.005, 5, -17.223,-37.399, 22.737
703349.16904, 3,  -2.106, 11.773, -4.999
703349.18891, 3,  -1.555, 11.519, -2.161
703349.20878, 3,   0.424,  8.332,  1.225, 4,  -0.023, -0.346,  0.128, 5, -18.039,-37.790, 21.132
703349.22864, 3,   0.711,  9.736, -1.610
703349.24851, 3,  -0.680,  8.734, -4.233
703349.26838, 3,  -0.785, 11.780, -4.625, 4,   0.083, -0.305,  0.158
703349.28824, 3,   0.014,  5.728,  0.390
703349.30811, 3,  -0.170, 10.751, -1.223
703349.32795, 3,  -0.665,  8.088, -3.733, 4,   0.008, -0.236,  0.190, 5, -18.777,-36.816, 22.968
703349.34781, 3,  -1.299, 12.491, -4.716
703349.36771, 3,  -0.845, 11.483, -1.584
703349.38758, 3,   0.177,  9.567,  0.711, 4,   0.027, -0.036,  0.245, 5, -19.868,-36.423, 22.588
703349.40745, 3,  -0.636,  6.721, -0.038
703349.42731, 3,  -1.500,  8.368, -4.482
703349.44718, 3,  -1.517, 11.086, -6.059, 4,   0.152,  0.178,  0.214
703349.46705, 3,  -0.732,  9.588, -3.852
703349.48691, 3,  -0.615, 13.318, -0.510
703349.50678, 3,  -0.577,  3.817,  1.498, 4,   0.009,  0.353,  0.252, 5, -20.537,-36.530, 22.836
703349.52665, 3,  -0.938, 14.704, -3.735
703349.54648, 3,   0.230,  8.770, -0.976
703349.56635, 3,   0.048,  6.934, -3.166, 4,   0.116,  0.355,  0.193, 5, -22.009,-34.561, 22.192
703349.58622, 3,  -0.835,  7.777, -3.996
703349.60609, 3,  -2.151, 12.093, -4.534
703349.62595, 3,  -1.096, 10.646, -0.816, 4,   0.046,  0.351,  0.149, 5, -21.173,-34.734, 19.826
703349.64582, 3,  -0.299,  6.769,  0.873
703349.66572, 3,  -0.144, 13.886, -0.914
703349.68558, 3,  -0.380,  3.572, -0.986, 4,   0.044,  0.164,  0.171, 5, -23.497,-35.165, 21.458
703349.70545, 3,  -0.933, 18.413, -8.554
703349.72532, 3,  -0.651,  9.633, -1.912
703349.74515, 3,  -0.522,  8.365, -0.809, 4,   0.090,  0.571,  0.161, 5, -23.515,-34.453, 21.651
703349.76502, 3,   0.048,  8.394, -0.763
703349.78489, 3,   0.505, 10.476, -2.201
703349.80475, 3,  -0.790, 10.552, -3.431, 4,   0.093,  0.722,  0.060
703349.82462, 3,  -1.950,  8.523, -4.211
703349.84449, 3,  -2.328, 10.055, -5.135
703349.86436, 3,  -2.881,  7.545, -2.020, 4,   0.106,  0.649,  0.002, 5, -23.837,-34.706, 20.451
703349.88422, 3,  -2.197, 15.644, -1.101
703349.90409, 3,  -1.469, 11.531,  1.517
703349.92396, 3,  -1.031,  8.116,  0.005, 4,   0.019,  0.450,  0.034
703349.94385, 3,   0.175,  7.640, -3.015
703349.96369, 3,   0.096, 10.339, -6.894
703349.98356, 3,   0.560, 11.328, -4.443, 4,   0.162,  0.408,  0.019, 5, -23.608,-34.311, 20.300
703350.00342, 3,   0.871,  6.418, -0.488
703350.02329, 3,   1.005,  5.920, -1.512
703350.04316, 3,   1.271, 11.983, -2.175, 4,   0.003,  0.842, -0.041, 5, -25.038,-34.531, 17.488
703350.06302, 3,  -0.727, 11.476,  0.146
703350.08228, 3,  -1.713, 11.294,  0.060
703350.10276, 3,  -2.288,  8.344, -1.988, 4,   0.068,  0.672, -0.145, 5, -23.517,-33.742, 17.435
703350.12263, 3,  -1.354,  9.681, -5.035
703350.14249, 3,  -1.254, 10.043, -3.807
703350.16236, 3,  -0.792,  8.763, -1.945, 4,   0.049,  0.260, -0.133, 5, -22.931,-34.317, 13.649
703350.18223, 3,  -0.301, 11.593, -0.888
703350.20206, 3,  -0.163,  7.710, -1.888
703350.22196, 3,  -0.254, 14.694, -4.144, 4,   0.044,  0.492, -0.086, 5, -22.797,-35.175, 16.034
703350.24183, 3,  -1.369,  4.537,  2.536
703350.26169, 3,  -1.639, 10.720, -2.060
703350.28156, 3,  -0.723,  7.906, -3.226, 4,   0.073,  0.657, -0.154, 5, -23.817,-33.598, 15.691
703350.30143, 3,  -0.603,  8.162, -5.379
703350.32130, 3,   0.378, 12.313, -3.209
703350.34116, 3,   0.565,  7.303,  0.215, 4,   0.033,  0.117, -0.128
703350.36103, 3,  -0.742, 12.151, -2.876
703350.38090, 3,  -0.103,  5.190, -2.551
703350.40076, 3,   0.806, 13.962, -4.482, 4,   0.025,  0.055, -0.067, 5, -23.166,-34.192, 14.728
703350.42060, 3,   1.113,  9.447,  1.050
703350.44047, 3,   0.680,  8.901,  1.409
703350.46033, 3,   0.299,  8.045, -1.287, 4,  -0.033,  0.346, -0.049
703350.48020, 3,  -0.560, 10.162, -4.903
703350.50007, 3,  -0.012, 10.107, -4.707
703350.51996, 3,   0.012,  7.121, -1.060, 4,   0.057,  0.396, -0.094, 5, -23.557,-35.484, 14.395
703350.53983, 3,  -0.266, 11.830, -2.170
703350.55970, 3,  -0.945,  3.388, -2.225
703350.57957, 3,  -1.409,  8.853, -7.040, 4,  -0.008,  0.510, -0.120, 5, -24.519,-34.988, 13.672
703350.59943, 3,  -1.756, 20.932, -3.092
703350.61927, 3,  -1.663,  5.384,  6.355
703350.63914, 3,  -1.239,  9.461, -0.282, 4,  -0.092,  0.258, -0.072, 5, -25.861,-35.542, 11.827
703350.65900, 3,  -1.400,  9.667, -1.630
703350.67887, 3,  -0.919, 10.686, -4.647
703350.69874, 3,   0.287,  6.726, -4.068, 4,   0.206, -0.164, -0.001, 5, -22.890,-35.840, 13.091
703350.71860, 3,   0.672,  9.210, -5.252
703350.73847, 3,   1.113,  7.439, -5.283
703350.75834, 3,   1.890, 14.448, -3.838, 4,   0.028,  0.406,  0.084, 5, -23.264,-36.563, 12.254
703350.77820, 3,   1.627, 10.426,  1.761
703350.79810, 3,   0.182,  8.308,  3.170
703350.81797, 3,  -3.328,  2.496,  5.719, 4,  -0.007,  0.996, -0.025, 5, -24.422,-35.924, 12.242
703350.83784, 3,  -2.467, 17.018,-11.335
703350.85767, 3,  -0.711, 12.486, -8.956
703350.87754, 3,  -1.634,  5.932, -1.708, 4,   0.202,  0.617, -0.124, 5, -24.677,-36.128, 10.916
703350.89741, 3,  -1.716, 13.711,  0.246
703350.91727, 3,  -1.914,  6.714, -0.007
703350.93714, 3,  -1.292, 15.654, -3.053, 4,  -0.012,  0.232, -0.048, 5, -24.318,-35.976, 11.337
703350.95701, 3,  -0.065, 10.646, -0.014
703350.97687, 3,   1.539,  5.142, -1.127
703350.99674, 3,   1.027,  7.760, -7.016, 4,   0.155,  0.419,  0.005
703351.01661, 3,   0.785, 15.135, -6.169
703351.03647, 3,  -0.069,  7.150,  1.512
703351.05634, 3,  -0.474,  9.449, -0.684, 4,   0.064,  1.067, -0.057, 5, -21.895,-36.569,  8.926
703351.07618, 3,  -1.563, 17.958, -2.302
703351.09608, 3,  -2.776,  2.477,  0.352
703351.11594, 3,  -0.919, 17.515, -6.796, 4,   0.125,  0.912, -0.173, 5, -22.556,-36.258,  7.672
703351.13581, 3,  -1.285,  9.645, -0.416
703351.15568, 3,  -1.972,  7.363,  1.347
703351.17554, 3,  -1.606,  9.145, -1.960, 4,   0.037,  0.568, -0.170, 5, -21.991,-36.856,  7.031
703351.19541, 3,  -0.593, 10.196, -3.623
703351.21528, 3,   1.673,  8.822, -3.036
703351.23514, 3,   1.426,  9.394, -3.663, 4,   0.130,  0.443, -0.144, 5, -21.390,-37.552,  6.172
703351.25501, 3,  -0.596, 14.012, -4.226
703351.27488, 3,  -0.751,  7.193,  0.634
703351.29471, 3,   1.362, 14.386, -1.555, 4,   0.056,  0.796, -0.216, 5, -20.174,-38.704,  4.578
703351.31458, 3,   2.457,  8.526, -0.347
703351.33445, 3,  -0.680, 11.581, -3.001
703351.35432, 3,  -3.271, 10.380, -1.582, 4,   0.144,  0.898, -0.351, 5, -19.270,-38.210,  4.578
703351.37421, 3,  -2.704,  7.535, -0.926
703351.39408, 3,  -0.514, 10.181, -4.606
703351.41395, 3,   0.010, 10.514, -1.622, 4,   0.095,  0.342, -0.374, 5, -19.847,-39.941,  3.998
703351.43381, 3,  -1.048, 15.520, -1.278
703351.45368, 3,   0.409,  7.064, -0.739
703351.47355, 3,   0.763, 15.984, -1.172, 4,   0.040,  0.250, -0.302, 5, -16.890,-39.517,  2.740
703351.49341, 3,  -0.352,  4.386,  0.438
703351.51325, 3,   0.297,  4.439, -5.743
703351.53312, 3,   0.227,  4.621, -9.858, 4,   0.152,  0.327, -0.319
703351.55298, 3,  -0.359, 10.689, -9.502
703351.57285, 3,  -0.383, 17.056, -0.914
703351.59272, 3,   0.452, 10.899,  6.025, 4,  -0.258,  0.371, -0.269, 5, -15.982,-40.263,  3.468
703351.61259, 3,  -0.077,  7.746,  1.362
703351.63245, 3,   0.167,  7.822,  0.038
703351.65235, 3,   0.069, 11.222, -6.832, 4,  -0.026,  0.105, -0.360, 5, -16.661,-41.000,  3.145
703351.67222, 3,  -1.431, 11.421, -6.135
703351.69208, 3,  -2.328,  7.590, -2.788
703351.71195, 3,  -1.627, 11.799, -1.306, 4,  -0.155, -0.134, -0.272, 5, -14.368,-41.838,  3.525
703351.73179, 3,  -0.400,  8.511,  0.112
703351.75165, 3,   0.505,  9.279,  0.081
703351.77152, 3,   0.512,  7.463,  2.244, 4,  -0.167, -0.396, -0.148, 5, -15.663,-41.640,  2.414
703351.79139, 3,   0.323,  4.759, -0.215
703351.81125, 3,  -0.747, 10.995, -8.597
703351.83112, 3,  -1.814, 11.813,-11.320, 4,   0.202, -0.319, -0.099, 5, -14.020,-41.937,  4.021
703351.85099, 3,  -0.359,  9.796, -2.733
703351.87086, 3,   0.902,  8.236,  2.130
703351.89072, 3,   0.055,  9.846, -0.699, 4,  -0.148,  0.277,  0.074, 5, -13.995,-41.066,  5.278
703351.91059, 3,   0.914,  9.870, -2.134
703351.93046, 3,   0.878, 11.127, -1.438
703351.95032, 3,  -1.433, 10.701, -2.639, 4,   0.041,  0.519, -0.038, 5, -14.001,-41.174,  4.108
703351.97019, 3,  -1.909, 10.923, -3.233
703351.99006, 3,  -2.835,  5.106, -2.436
703352.00992, 3,  -3.046, 11.806, -4.070, 4,   0.083,  0.278, -0.085, 5, -14.381,-40.375,  2.412
703352.02979, 3,  -1.062, 10.832, -1.914
703352.04966, 3,  -0.536, 12.012, -0.699
703352.06953, 3,  -1.266,  3.407, -0.479, 4,   0.021, -0.080,  0.021
703352.08939, 3,  -0.897,  9.031, -6.272
703352.10926, 3,   0.821, 15.639, -5.180
703352.12913, 3,  -0.213,  8.291,  0.895, 4,   0.041,  0.161,  0.104, 5, -14.018,-41.739,  1.793
703352.14899, 3,   0.510,  7.037,  0.842
703352.16883, 3,   0.744,  8.858, -3.943
703352.18870, 3,  -0.373,  8.908, -5.379, 4,   0.062,  0.653,  0.066
703352.20856, 3,  -1.984,  6.772, -5.642
703352.22846, 3,  -0.579, 16.417, -2.577
703352.24833, 3,  -1.452, 10.275,  2.802, 4,  -0.081,  0.698, -0.004, 5, -13.184,-40.623,  1.688
703352.26819, 3,  -1.945,  7.425, -0.995
703352.28806, 3,  -0.036, 10.507, -1.833
703352.30793, 3,   2.730, -1.984, -0.634, 4,   0.008,  0.085, -0.012, 5, -12.648,-40.910,  3.143
703352.32780, 3,  -0.069, 18.080, -5.805
703352.34766, 3,  -0.847,  9.160, -5.207
703352.36753, 3,   0.620,  5.070, -6.578, 4,   0.167,  0.260, -0.000, 5, -13.934,-40.158,  1.636
703352.38737, 3,  -1.273,  4.743, -3.228
703352.40723, 3,  -0.055, 11.435, -2.960
703352.42710, 3,   0.330, 18.468,  0.017, 4,  -0.052,  0.730, -0.010, 5, -13.327,-40.619, -0.201
703352.44697, 3,   0.428,  5.649,  4.530
703352.46683, 3,   0.098,  8.901, -3.283
703352.48670, 3,  -0.754,  9.471, -6.458, 4,   0.112,  0.888, -0.146, 5, -12.653,-42.950, -3.061
703352.50657, 3,  -2.278,  9.645, -0.871
703352.52646, 3,  -3.173, 18.226, -6.425
703352.54633, 3,  -2.163,  2.826,  0.316, 4,  -0.003,  0.563, -0.199, 5, -12.099,-41.374, -2.359
703352.56620, 3,  -3.053,  4.180, -0.424
703352.58607, 3,  -1.692, 11.878, -6.178
703352.60590, 3,  -0.555, 10.792, -2.424, 4,   0.011,  0.078, -0.171
703352.62577, 3,   0.120,  8.444, -1.290
703352.64564, 3,   0.160, 10.806, -4.367
703352.66550, 3,   0.184, 11.387, -3.963, 4,   0.022,  0.342, -0.126, 5, -10.741,-44.067, -3.188
703352.68537, 3,  -0.806, 10.009, -1.019
703352.70524, 3,  -2.120,  9.098, -0.464
703352.72510, 3,  -1.156,  9.449, -1.242, 4,   0.003,  0.611, -0.165
703352.74497, 3,   0.447,  9.935, -4.525
703352.76484, 3,   0.526,  8.767, -4.192
703352.78470, 3,  -0.311,  8.267, -1.474, 4,   0.039,  0.401, -0.238, 5, -10.120,-44.341, -3.038
703352.80460, 3,  -0.002, 10.878, -2.051
703352.82444, 3,   0.014, 11.198, -1.945
703352.84431, 3,   0.620,  9.614, -0.924, 4,   0.004,  0.218, -0.270, 5,  -9.431,-45.226, -3.096
703352.86417, 3,  -0.258,  8.243, -2.381
703352.88404, 3,   0.029, 11.012, -6.181
703352.90391, 3,  -1.534,  8.629, -4.843, 4,   0.089,  0.304, -0.323, 5,  -6.927,-45.059, -4.825
703352.92377, 3,  -1.878,  8.856, -2.321
703352.94364, 3,  -1.072, 11.416, -0.706
703352.96351, 3,  -0.871,  9.890, -0.663, 4,  -0.080,  0.166, -0.295, 5,  -7.249,-46.693, -4.820
703352.98337, 3,   0.005,  8.576, -1.060
703353.00324, 3,  -1.445, 20.672, -2.558
703353.02311, 3,  -0.622, 16.786,  3.998, 4,   0.059, -0.140, -0.247, 5,  -6.403,-46.736, -4.094
703353.04297, 3,   1.385,  8.676,  6.552
703353.06281, 3,   0.613, 10.713,  1.936
703353.08271, 3,   1.041, 13.091, -1.400, 4,   0.338, -0.377, -0.277, 5,  -5.199,-47.113, -4.416
703353.10258, 3,   1.768,  9.366, -3.857
703353.12244, 3,   1.603, 28.654, -3.757
703353.14231, 3,   3.159, -8.346,  6.269, 4,   0.634, -0.171, -0.269, 5,  -2.330,-48.296, -0.005
703353.16218, 3,  -0.598,  7.238, -8.157
703353.18204, 3,  -1.436,  7.439, -8.179
703353.20191, 3,  -1.149,  8.550, -7.135, 4,   0.891,  0.061, -0.386, 5,  -2.026,-48.758,  1.729
703353.22178, 3,  -2.323,  2.888, -7.612
703353.24164, 3,  -4.685, 23.529,-18.583
703353.26151, 3,  -4.154,  9.801, -4.274, 4,   0.477,  0.175, -0.271
703353.28135, 3,  -1.732,  0.323,  4.786
703353.30121, 3,  -1.249, 17.549, -0.041
703353.32108, 3,   0.079,  9.361,  1.986, 4,  -0.047,  0.061, -0.077, 5,  -0.195,-49.876,  4.886
703353.34095, 3,   0.921, 12.148, -7.174
703353.36082, 3,  -1.725,  9.772, -8.669
703353.38071, 3,  -0.517,  4.594, -0.864, 4,   0.046,  0.089, -0.061, 5,   2.361,-53.220,  6.311
703353.40058, 3,   1.019,  9.633,  2.046
703353.42045, 3,   1.275, 12.132, -0.400
703353.44031, 3,   0.084, 12.536, -3.673, 4,  -0.167,  0.098, -0.051, 5,   0.690,-52.422,  7.840
703353.46018, 3,  -0.749,  4.635, -2.347
703353.48002, 3,  -1.656,  8.887, -4.398
703353.49988, 3,  -4.094,  9.940,-10.124, 4,   0.114,  0.058, -0.130, 5,   2.060,-52.603,  9.081
703353.51975, 3,  -2.594, 13.917, -7.808
703353.53962, 3,  -0.785,  1.189,  3.182
703353.55948, 3,   0.110,  8.815, -1.464, 4,  -0.073,  0.046, -0.045, 5,   3.395,-51.830,  9.009
703353.57935, 3,  -1.364, 11.072, -6.121
703353.59922, 3,  -2.713,  4.355, -6.683
703353.61909, 3,  -1.917,  6.432, -4.831, 4,   0.119,  0.002, -0.075, 5,   1.741,-53.392, 10.461
703353.63895, 3,  -0.936,  1.302, -4.276
703353.65885, 3,  -0.313,  5.224, -6.485
703353.67869, 3,   0.550,  8.609,  0.335, 4,  -0.276, -0.101,  0.071, 5,   1.559,-53.539,  9.735
703353.69858, 3,   0.672, 14.740,  2.508
703353.71842, 3,  -0.438, 14.639,  1.673
703353.73829, 3,  -0.864,  9.966,  1.809, 4,  -0.595,  0.205,  0.161, 5,   0.482,-53.462,  7.983
703353.75815, 3,  -0.620,  8.834,  0.199
703353.77802, 3,  -0.031, 11.861, -1.957
703353.79789, 3,   1.046, 10.009, -2.244, 4,  -0.521, -0.128,  0.120
703353.81776, 3,   0.701,  7.401, -3.015
703353.83762, 3,   0.495, 10.397, -4.680
703353.85749, 3,  -1.333,  9.540, -3.599, 4,  -0.498, -0.100,  0.108, 5,  -0.151,-51.958,  4.691
703353.87675, 3,  -1.287, 11.062, -2.015
703353.89722, 3,  -1.895,  4.494, -1.046
703353.91709, 3,  -1.759,  6.504, -2.106, 4,  -0.397, -0.000,  0.089
703353.93693, 3,  -1.771, 11.713, -4.085
703353.95682, 3,   0.321,  8.509, -0.653
703353.97669, 3,   0.491,  2.938, -0.012, 4,  -0.120,  0.085,  0.072, 5,   0.900,-50.786,  4.886
703353.99656, 3,  -1.161,  9.014, -5.743
703354.01642, 3,  -1.673, 10.682, -7.750
703354.03629, 3,  -0.129, 10.126, -6.176, 4,   0.219,  0.120, -0.017, 5,  -1.782,-49.475,  3.185
703354.05616, 3,  -0.701,  8.571, -5.123
703354.07603, 3,  -1.163,  9.200, -3.350
703354.09589, 3,   0.026, 10.935, -0.002, 4,   0.032,  0.090, -0.014, 5,  -0.015,-50.577,  5.994
703354.11576, 3,   0.919,  6.899,  2.646
703354.13563, 3,   0.476, 14.005, -1.043
703354.15546, 3,   0.246, 13.448, -1.874, 4,   0.033,  0.215, -0.034, 5,   0.015,-48.714,  5.997
703354.17533, 3,  -0.440,  6.753, -1.591
703354.19520, 3,  -0.301,  6.841, -3.103
703354.21506, 3,  -0.313, 14.089, -3.494, 4,  -0.033,  0.248, -0.072, 5,   0.925,-48.132,  5.501
703354.23496, 3,  -0.924,  9.995, -1.113
703354.25483, 3,  -1.553,  8.894, -0.794
703354.27469, 3,  -1.457,  9.136, -2.687, 4,  -0.144,  0.252, -0.097, 5,   1.425,-47.682,  5.855
703354.29456, 3,  -1.718,  9.648, -4.056
703354.31443, 3,  -1.991, 10.449, -5.348
703354.33430, 3,  -2.326,  5.831, -3.276, 4,  -0.039,  0.130, -0.126
703354.35416, 3,  -3.029,  4.755, -4.740
703354.37400, 3,  -5.520,  6.781, -6.765
703354.39387, 3,  -6.583,  0.160, -6.721, 4,  -0.094,  0.106, -0.041, 5,   0.873,-44.133,  3.603
703354.41373, 3,   2.139, 38.058,  0.558
703354.43360, 3,   1.929,  6.205,  7.073
703354.45347, 3,   5.996,  1.960,  4.190, 4,  -0.343, -0.325,  0.123
703354.47333, 3,   1.809, 10.028, -0.246
703354.49320, 3,  -0.227, 13.165, -4.898
703354.51310, 3,  -1.512, 11.148, -7.561, 4,   0.054, -0.186, -0.030, 5,   0.237,-44.470,  2.518
703354.53296, 3,  -0.335,  9.593, -3.998
703354.55283, 3,  -0.330,  6.657, -2.814
703354.57270, 3,   1.316,  8.162,  0.108, 4,  -0.265, -0.108,  0.001, 5,   0.298,-45.157,  0.996
703354.59254, 3,  -0.586, 16.164,  0.658
703354.61240, 3,  -0.816,  8.550,  2.091
703354.63227, 3,  -0.725,  8.267, -0.636, 4,  -0.149,  0.230, -0.050, 5,   0.630,-43.408,  0.264
703354.65214, 3,  -1.065,  4.647, -0.498
703354.67200, 3,  -4.420, -2.981, -2.864
703354.69187, 3,  -1.493, 17.733,  2.395, 4,   0.082, -0.195, -0.057, 5,   0.992,-42.839,  0.075
703354.71174, 3,  -4.642, 24.591, -9.394
703354.73160, 3,   3.541,  0.227, -1.268
703354.75147, 3,   0.316, 10.409,  0.165, 4,  -0.037, -0.255,  0.121, 5,   0.630,-43.083, -0.031
703354.77134, 3,   0.005, 13.419,  4.147
703354.79120, 3,   1.196,  4.867,  5.547
703354.81107, 3,   1.139, 15.917, -3.735, 4,  -0.102, -0.096,  0.099, 5,  -0.571,-42.720, -5.681
703354.83094, 3,   1.907,  9.882, -0.933
703354.85081, 3,   2.206,  8.614,  0.000
703354.87067, 3,   0.115,  8.272,  0.754, 4,  -0.100, -0.112,  0.058, 5,   1.216,-42.682, -3.366
703354.89054, 3,  -0.407, 10.526,  2.558
703354.91041, 3,   0.804, 10.808,  5.123
703354.93027, 3,   1.847, 11.220,  2.137, 4,  -0.251, -0.358,  0.050, 5,   1.558,-41.486, -2.403
703354.95014, 3,   0.481, 10.588,  0.249
703354.97001, 3,  -1.115, 11.524,  0.601
703354.98987, 3,  -0.701, 11.177,  2.522, 4,  -0.153, -0.423,  0.030
703355.00974, 3,  -1.172,  7.691,  2.757
703355.02958, 3,   2.032,  8.339,  1.486
703355.04944, 3,   1.639,  6.841,  1.759, 4,   0.016, -0.536,  0.073, 5,   2.434,-39.642, -4.823
703355.06931, 3,  -0.079, 25.285,-16.530
703355.08921, 3,   0.414, -6.207,  1.311
703355.10908, 3,  -0.969, 15.029,  0.914, 4,   0.089, -0.537,  0.080, 5,   0.824,-38.313, -3.679
703355.12894, 3,   2.283, 10.215,  3.565
703355.14881, 3,   2.874, 12.407,  5.159
703355.16868, 3,   1.919, 10.028,  1.067, 4,  -0.011, -1.021,  0.093, 5,   0.789,-39.563, -4.921
703355.18854, 3,  -0.598, 11.486, -0.656
703355.20841, 3,  -1.783, 10.976, -2.716
703355.22828, 3,   0.462, 10.165,  1.206, 4,   0.108, -1.347,  0.147, 5,   0.908,-36.685, -4.530
703355.24811, 3,   1.127, 10.591,  3.486
703355.26798, 3,   1.498,  9.693,  4.149
703355.28785, 3,   0.589, 11.988,  0.301, 4,   0.047, -1.102,  0.249, 5,   4.337,-27.596,  4.633
703355.30771, 3,   0.759, 12.151, -0.823
703355.32758, 3,   2.422, 11.385,  1.842
703355.34745, 3,   3.683, 10.402,  2.675, 4,   0.075, -1.066,  0.247, 5,   1.027, -7.236, 33.737
703355.36732, 3,  -1.225,  9.203, -0.957
703355.38721, 3,  -7.927, 11.888, -3.182
703355.40708, 3,  -3.355,  8.954, -0.828, 4,   0.057, -1.210,  0.238, 5, -21.597,-38.976, 59.560
703355.42695, 3,  -0.498, 10.519, -0.328
703355.44681, 3,   1.163,  9.904,  1.055
703355.46665, 3,   3.429, 10.071,  0.129, 4,  -0.041, -1.071,  0.520, 5, -19.006,-55.394, 38.953
703355.48652, 3,   4.482, 10.055, -1.091
703355.50638, 3,   3.525,  9.744, -0.424
703355.52625, 3,   2.893,  9.021, -0.495, 4,  -0.053,  0.252,  0.456
703355.54612, 3,   1.144,  9.239, -1.024
703355.56598, 3,  -0.215,  8.707, -1.046
703355.58585, 3,  -0.627,  8.830, -0.955, 4,   0.017,  0.516,  0.302, 5, -26.367,-50.262, 32.611
703355.60572, 3,  -0.050,  9.870, -1.163
703355.62559, 3,   0.167,  9.270, -1.850
703355.64545, 3,  -0.158,  9.433, -1.359, 4,   0.163,  0.146,  0.256, 5, -35.384,-43.623, 22.708
703355.66535, 3,   0.388,  9.203, -1.417
703355.68519, 3,  -0.457,  8.538, -1.235
703355.70505, 3,   0.069,  8.765, -1.306, 4,   0.330,  0.289,  0.200, 5, -36.987,-41.324, 13.950
703355.72492, 3,   0.766,  8.889, -1.402
703355.74479, 3,   0.668,  8.363, -2.130
703355.76465, 3,   1.591, 10.296, -2.378, 4,   0.497,  0.464,  0.154, 5, -39.433,-41.176,  5.661
703355.78452, 3,   1.749,  9.119, -0.720
703355.80439, 3, -10.076,  7.248, -6.118
703355.82426, 3,  -6.530, 23.323,-24.732, 4,   0.661,  0.528,  0.067, 5, -38.165,-40.791,  6.197
703355.84412, 3,   0.029,  0.751,  9.959
703355.86399, 3,  -3.580,  4.144, -6.078
703355.88386, 3,   0.936,  5.870, -1.364, 4,   0.227, -0.097,  0.539, 5, -39.354,-36.685, 20.024
703355.90369, 3,   1.208, 16.006, -6.669
703355.92356, 3,   4.396, 13.479,  2.077
703355.94346, 3,   5.905,  8.315, -0.215, 4,   0.163,  0.272,  0.504, 5, -28.470,-34.435, 22.710
703355.96332, 3,   5.054,  6.882,  0.163
703355.98319, 3,   0.452, 10.516, -6.609
703356.00306, 3,   2.067, 10.308, -4.149, 4,   0.290,  0.972,  0.321, 5, -22.034,-37.451, 15.594
703356.02292, 3,   1.821,  8.463, -1.522
703356.04279, 3,   3.005,  8.844, -0.469
703356.06266, 3,   4.178, 11.141, -2.077, 4,   0.078,  0.877,  0.302
703356.08253, 3,   3.149,  9.839, -0.916
703356.10239, 3,   4.228,  9.167, -2.249
703356.12223, 3,   3.565,  9.543, -0.622, 4,   0.078,  1.159,  0.198, 5, -21.260,-41.457,  4.321
703356.14210, 3,   2.060, 10.777, -1.524
703356.16196, 3,   1.802,  9.992,  0.041
703356.18183, 3,   2.048, 10.050, -0.699, 4,   0.077,  0.999,  0.104
703356.20170, 3,   3.541,  8.054, -1.376
703356.22156, 3,   3.022,  8.392, -1.105
703356.24146, 3,   2.438, 10.258, -1.007, 4,   0.071,  0.573,  0.100, 5, -19.734,-40.785,  2.541
703356.26133, 3,   3.412, 12.077, -2.699
703356.28119, 3,   4.587,  9.191,  0.117
703356.30106, 3,   5.396,  8.171, -2.457, 4,   0.013,  0.416,  0.073, 5, -19.545,-40.103,  0.697
703356.32093, 3,   4.666,  8.473, -3.376
703356.34077, 3,   2.931, 10.253,  0.043
