703966.71033, 3,   1.192,  9.495, -2.692, 5, -31.268,-38.530, 16.905
703966.73019, 3,   1.192,  9.495, -2.692
703966.75006, 3,   1.338,  9.466, -2.809, 4,   0.002, -0.022,  0.025, 5, -28.613,-37.761, 20.158
703966.76993, 3,   1.287,  9.507, -2.795
703966.78979, 3,   1.228,  9.492, -2.742
703966.80963, 3,   1.242,  9.509, -2.682, 4,   0.000,  0.002,  0.004
703966.82950, 3,   1.251,  9.523, -2.682
703966.84940, 3,   1.144,  9.523, -2.654
703966.86926, 3,   1.065,  9.514, -2.584, 4,   0.000,  0.003,  0.004, 5, -28.293,-39.180, 20.886
703966.88913, 3,   1.027,  9.547, -2.572
703966.90900, 3,   1.053,  9.533, -2.603
703966.92886, 3,   1.072,  9.507, -2.606, 4,   0.002, -0.000,  0.014, 5, -27.283,-37.730, 21.268
703966.94873, 3,   1.077,  9.521, -2.620
703966.96860, 3,   1.060,  9.523, -2.680
703966.98846, 3,   1.113,  9.497, -2.651, 4,   0.004, -0.001,  0.024
703967.00833, 3,   1.201,  9.485, -2.613
703967.02817, 3,   1.196,  9.500, -2.663
703967.04803, 3,   1.206,  9.478, -2.709, 4,   0.007,  0.004,  0.033, 5, -28.600,-38.246, 21.756
703967.06790, 3,   1.182,  9.500, -2.735
703967.08777, 3,   1.172,  9.485, -2.735
703967.10764, 3,   1.244,  9.488, -2.718, 4,   0.009,  0.013,  0.039, 5, -28.302,-37.624, 21.400
703967.12753, 3,   1.295,  9.468, -2.713
703967.14740, 3,   1.304,  9.468, -2.687
703967.16727, 3,   1.330,  9.495, -2.800, 4,   0.009,  0.008,  0.043, 5, -27.432,-38.028, 20.740
703967.18713, 3,   1.314,  9.476, -2.797
703967.20700, 3,   1.342,  9.454, -2.670
703967.22687, 3,   1.431,  9.464, -2.680, 4,   0.009,  0.016,  0.044, 5, -28.595,-38.661, 21.362
703967.24670, 3,   1.472,  9.504, -2.747
703967.26657, 3,   1.407,  9.511, -2.697
703967.28644, 3,   1.266,  9.473, -2.603, 4,   0.011,  0.022,  0.042, 5, -26.337,-39.569, 22.740
703967.30630, 3,   1.247,  9.514, -2.666
703967.32617, 3,   1.316,  9.504, -2.627
703967.34604, 3,   1.280,  9.526, -2.716, 4,   0.012,  0.023,  0.047
703967.36591, 3,   1.311,  9.440, -2.776
703967.38577, 3,   1.493,  9.444, -2.809
703967.40564, 3,   1.732,  9.392, -2.919, 4,   0.007, -0.000,  0.051, 5, -28.558,-36.575, 20.055
703967.42554, 3,   1.819,  9.416, -3.194
703967.44540, 3,   1.797,  9.373, -2.886
703967.46524, 3,   1.517,  9.471, -2.709, 4,   0.007,  0.028,  0.038, 5, -29.243,-37.724, 19.914
703967.48511, 3,   1.531,  9.437, -2.656
703967.50497, 3,   1.768,  9.540, -2.510
703967.52484, 3,   1.639,  9.557, -2.532, 4,   0.007,  0.022,  0.028, 5, -28.691,-37.051, 20.680
703967.54471, 3,   1.603,  9.471, -2.666
703967.56457, 3,   1.692,  9.437, -2.649
703967.58444, 3,   1.563,  9.514, -2.575, 4,   0.004, -0.005,  0.017, 5, -28.877,-37.389, 21.263
703967.60431, 3,   1.711,  9.433, -2.804
703967.62418, 3,   1.680,  9.346, -2.888
703967.64404, 3,   1.670,  9.430, -3.237, 4,  -0.001, -0.035,  0.009, 5, -29.732,-37.791, 21.794
703967.66391, 3,   1.945,  9.270, -3.448
703967.68375, 3,   2.127,  9.299, -3.230
703967.70364, 3,   2.043,  9.368, -3.259, 4,  -0.009, -0.038, -0.010, 5, -29.301,-39.906, 20.543
703967.72351, 3,   1.816,  9.325, -3.228
703967.74338, 3,   1.467,  9.399, -3.142
703967.76324, 3,   1.029,  9.492, -3.123, 4,  -0.011,  0.013, -0.043, 5, -29.617,-38.841, 21.614
703967.78311, 3,   0.857,  9.401, -2.855
703967.80298, 3,   5.405,  7.877,-10.409
703967.82285, 3,  -1.137, 10.024,  1.070, 4,  -0.050,  0.031, -0.045, 5, -28.574,-37.764, 21.991
703967.84271, 3,   1.299,  9.464, -1.960
703967.86258, 3,   1.450,  9.002, -4.805
703967.88245, 3,   0.646,  9.593, -3.106, 4,  -0.006, -0.169, -0.027
703967.90228, 3,   1.225,  9.334, -1.972
703967.92215, 3,   1.852,  9.533, -2.821
703967.94202, 3,   1.931,  9.497, -3.771, 4,  -0.020, -0.216, -0.009, 5, -27.809,-37.079, 22.630
703967.96188, 3,   1.165,  9.306, -3.328
703967.98178, 3,   0.244,  9.215, -3.013
703968.00165, 3,   0.364,  9.433, -3.125, 4,  -0.024, -0.130, -0.021
703968.02151, 3,   0.916,  9.246, -3.395
703968.04138, 3,   1.199,  9.169, -3.494
703968.06125, 3,   0.845,  9.303, -3.436, 4,  -0.019, -0.247,  0.011, 5, -27.235,-37.485, 20.531
703968.08112, 3,   0.012,  9.504, -4.379
703968.10098, 3,  -0.285,  9.148, -4.183
703968.12082, 3,   0.223,  8.961, -3.989, 4,  -0.014, -0.411,  0.031, 5, -28.035,-37.752, 22.285
703968.14069, 3,   1.563,  9.081, -4.587
703968.16055, 3,   2.489,  8.830, -4.039
703968.18042, 3,   2.749,  9.272, -5.288, 4,  -0.020, -0.575,  0.047, 5, -26.193,-38.327, 23.448
703968.20029, 3,   3.103,  8.696, -5.941
703968.22015, 3,   3.039,  8.710, -5.972
703968.24002, 3,   2.125,  8.897, -5.432, 4,  -0.029, -0.375, -0.036, 5, -27.322,-37.741, 24.713
703968.25989, 3,   3.010,  8.820, -5.216
703968.27978, 3,   3.060,  7.542, -5.570
703968.29965, 3,   1.491,  9.040, -6.104, 4,  -0.074, -0.164, -0.150, 5, -26.585,-38.585, 25.191
703968.31952, 3,   1.512,  8.748, -4.324
703968.33939, 3,   1.493,  8.956, -3.884
703968.35922, 3,   0.474,  8.238, -3.886, 4,  -0.075,  0.043, -0.246, 5, -26.131,-37.955, 25.137
703968.37909, 3,  -0.651,  8.286, -3.159
703968.39896, 3,  -1.890, 10.476, -5.044
703968.41882, 3,  -0.060, 10.983, -3.297, 4,  -0.001, -0.053, -0.223
703968.43869, 3,   0.184,  9.720, -4.092
703968.45856, 3,  -0.730,  8.913, -2.170
703968.47842, 3,   0.584,  8.724, -1.998, 4,  -0.086, -0.279, -0.172, 5, -26.846,-38.441, 24.336
703968.49829, 3,   2.278, 10.464, -3.108
703968.51816, 3,   3.182,  9.820, -3.915
703968.53802, 3,   2.276,  9.236, -3.070, 4,  -0.093, -0.365, -0.173
703968.55792, 3,  -0.620,  9.622, -3.247
703968.57776, 3,  -1.390,  9.770, -2.515
703968.59763, 3,  -1.819,  9.229, -2.362, 4,  -0.104,  0.048, -0.234, 5, -25.385,-39.827, 23.119
703968.61749, 3,  -2.400,  9.717, -1.091
703968.63736, 3,  -2.247,  9.344, -1.175
703968.65723, 3,  -1.974, 10.347, -2.053, 4,  -0.053, -0.102, -0.133, 5, -26.624,-40.050, 22.591
703968.67709, 3,  -2.194,  9.957, -1.761
703968.69696, 3,  -1.440,  9.418, -2.364
703968.71683, 3,  -1.558,  9.315, -2.180, 4,   0.031, -0.058,  0.004, 5, -27.319,-41.306, 22.733
703968.73669, 3,  -0.811, 10.181, -3.307
703968.75656, 3,  -0.179,  9.672, -2.467
703968.77643, 3,   0.957, 10.019, -2.285, 4,   0.007,  0.106,  0.100, 5, -27.141,-41.147, 23.454
703968.79626, 3,   1.208, 10.167, -2.137
703968.81613, 3,   0.713,  9.861, -1.491
703968.83600, 3,   0.634,  9.590, -2.201, 4,   0.004,  0.279,  0.100, 5, -28.323,-40.614, 24.179
703968.85525, 3,   0.598,  9.753, -3.675
703968.87576, 3,   0.244,  8.554, -4.420
703968.89563, 3,   0.022,  9.701, -5.207, 4,   0.046,  0.335,  0.054, 5, -30.624,-39.955, 23.297
703968.91550, 3,  -0.258,  8.722, -4.326
703968.93536, 3,   0.019,  9.330, -4.326
703968.95523, 3,   0.258,  9.758, -4.228, 4,  -0.021,  0.265,  0.044, 5, -31.236,-39.304, 23.399
703968.97510, 3,   1.065,  7.731, -3.845
703968.99497, 3,   1.811,  7.944, -5.920
703969.01480, 3,   2.077, 10.251, -7.222, 4,   0.060,  0.287, -0.019, 5, -29.008,-37.543, 22.229
703969.03467, 3,   1.228,  9.028, -6.602
703969.05454, 3,   0.263,  7.982, -4.979
703969.07440, 3,  -0.818,  8.227, -4.843, 4,   0.023,  0.373, -0.120
703969.09427, 3,  -0.955,  9.234, -4.967
703969.11414, 3,  -0.256,  9.377, -4.441
703969.13404, 3,   1.084,  9.770, -3.817, 4,  -0.017, -0.082, -0.115, 5, -28.587,-38.342, 22.287
703969.15390, 3,   1.283,  8.466, -3.549
703969.17377, 3,   0.383,  7.406, -3.848
703969.19364, 3,  -0.232,  7.734, -3.982, 4,   0.010, -0.246, -0.120, 5, -27.153,-37.929, 22.192
703969.21350, 3,  -0.086,  9.988, -5.408
703969.23337, 3,   1.031, 11.842, -5.652
703969.25321, 3,   1.373,  8.913, -4.262, 4,  -0.003, -0.129, -0.131, 5, -27.727,-37.305, 20.284
703969.27307, 3,   2.158,  5.810, -4.508
703969.29294, 3,   1.996,  9.279, -3.577
703969.31281, 3,   0.182, 14.173, -0.543, 4,  -0.076,  0.515, -0.191, 5, -25.258,-38.681, 22.289
703969.33267, 3,  -1.189, 13.027, -0.024
703969.35254, 3,  -2.467,  6.386,  1.720
703969.37241, 3,  -2.161,  9.392, -1.156, 4,  -0.075,  0.320, -0.225, 5, -26.820,-38.899, 19.330
703969.39227, 3,  -2.690, 11.359, -1.570
703969.41217, 3,  -1.630,  9.480, -0.644
703969.43204, 3,  -0.278,  9.995, -1.201, 4,  -0.071, -0.232, -0.131, 5, -26.913,-42.097, 19.203
703969.45191, 3,   1.089, 10.359, -1.905
703969.47174, 3,   1.086,  9.303, -0.904
703969.49161, 3,   0.321,  9.468, -1.424, 4,  -0.019, -0.039, -0.081, 5, -29.506,-43.488, 21.136
703969.51148, 3,  -0.773,  9.342, -2.869
703969.53134, 3,  -0.467, 11.701, -4.235
703969.55121, 3,  -1.278,  9.825, -2.510, 4,   0.004,  0.049, -0.092, 5, -28.423,-44.504, 20.892
703969.57108, 3,  -1.043,  7.767, -0.452
703969.59094, 3,  -0.038,  9.832,  0.462
703969.61081, 3,   0.323, 10.624, -1.330, 4,  -0.096, -0.264, -0.044
703969.63068, 3,   0.124,  8.947, -3.194
703969.65055, 3,  -0.593,  9.488, -4.956
703969.67041, 3,  -0.926,  9.784, -5.011, 4,   0.114, -0.048, -0.054, 5, -28.578,-45.738, 22.011
703969.69025, 3,  -0.876,  7.652, -4.441
703969.71015, 3,  -0.608,  9.052, -4.898
703969.73001, 3,  -0.519,  9.669, -3.443, 4,   0.004,  0.024, -0.030, 5, -26.018,-42.706, 24.185
703969.74988, 3,  -0.093, 11.957, -2.579
703969.76975, 3,  -0.294, 10.093, -1.330
703969.78961, 3,  -0.639,  8.059, -2.429, 4,   0.070,  0.121, -0.039, 5, -26.202,-43.265, 23.997
703969.80948, 3,   0.261, 10.483, -4.137
703969.82935, 3,  -1.144,  8.291, -4.566
703969.84921, 3,  -0.830,  9.167, -5.252, 4,   0.124,  0.106, -0.060, 5, -25.334,-43.730, 24.191
703969.86908, 3,  -0.330, 12.227, -4.616
703969.88895, 3,  -0.656,  8.258,  0.354
703969.90882, 3,   0.402, 10.012, -1.345, 4,  -0.028,  0.076, -0.034, 5, -24.316,-44.649, 24.347
703969.92865, 3,  -0.452,  8.995, -2.680
703969.94852, 3,   0.002, 10.866, -4.046
703969.96839, 3,  -1.175,  6.820, -3.817, 4,   0.117,  0.187, -0.060, 5, -23.947,-43.407, 24.919
703969.98828, 3,   0.438,  8.652, -6.915
703970.00815, 3,  -1.199,  9.736, -5.226
703970.02802, 3,  -0.105, 10.516, -2.139, 4,  -0.036,  0.203, -0.076, 5, -23.827,-44.310, 23.955
703970.04788, 3,  -0.969,  9.890, -0.237
703970.06775, 3,  -0.519,  7.238, -1.558
703970.08762, 3,  -0.830,  8.810, -5.123, 4,  -0.039, -0.201, -0.084, 5, -22.707,-44.052, 25.502
703970.10748, 3,  -0.684, 10.141, -6.851
703970.12735, 3,  -2.015, 11.182, -4.202
703970.14719, 3,  -1.618,  8.502, -1.529, 4,  -0.004, -0.299, -0.032
703970.16706, 3,   0.318,  8.042, -2.780
703970.18692, 3,  -0.775,  9.736, -4.585
703970.20679, 3,  -0.024,  9.389, -3.673, 4,  -0.008, -0.171,  0.043, 5, -22.722,-44.667, 25.558
703970.22666, 3,  -0.297,  8.987, -2.644
703970.24652, 3,  -0.486,  9.633, -3.072
703970.26639, 3,   0.605, 10.148, -3.965, 4,   0.007, -0.036,  0.040
703970.28629, 3,   0.670,  9.887, -2.436
703970.30615, 3,   1.228,  7.332, -3.082
703970.32602, 3,   0.770, 10.461, -5.068, 4,   0.029,  0.112, -0.019, 5, -23.401,-45.053, 23.184
703970.34589, 3,  -0.881,  8.782, -4.135
703970.36572, 3,  -0.321,  9.779, -2.960
703970.38559, 3,  -0.967,  9.346, -2.395, 4,  -0.070,  0.097, -0.085, 5, -21.156,-44.243, 22.993
703970.40546, 3,  -1.017,  7.382, -2.041
703970.42533, 3,  -0.636, 10.569, -4.376
703970.44519, 3,  -1.929, 11.431, -2.948, 4,  -0.053, -0.171, -0.068, 5, -22.662,-44.093, 24.249
703970.46506, 3,  -1.357,  8.006, -1.012
703970.48493, 3,  -1.488,  9.760, -2.359
703970.50479, 3,  -1.378, 10.763, -2.883, 4,  -0.022, -0.222, -0.005, 5, -20.471,-45.850, 24.348
703970.52466, 3,  -0.517,  8.853, -2.611
703970.54450, 3,   0.072,  9.935, -3.249
703970.56442, 3,   0.167,  8.944, -2.718, 4,  -0.015, -0.159,  0.019, 5, -21.039,-45.045, 24.257
703970.58426, 3,  -0.127,  9.069, -3.065
703970.60413, 3,  -0.060,  8.920, -3.527
703970.62399, 3,   0.005,  6.238, -4.898, 4,   0.023, -0.142, -0.005, 5, -21.556,-44.075, 24.199
703970.64386, 3,  -1.182,  9.031, -6.544
703970.66373, 3,  -0.727, 15.293, -4.350
703970.68360, 3,  -0.115,  5.178,  1.637, 4,  -0.095, -0.070, -0.028
703970.70346, 3,  -0.553,  9.657, -1.658
703970.72333, 3,  -1.065, 13.833, -3.795
703970.74320, 3,  -0.900,  8.030, -0.201, 4,  -0.027, -0.150, -0.026, 5, -21.899,-45.453, 25.653
703970.76306, 3,  -1.407,  8.380, -2.551
703970.78293, 3,  -1.402, 10.351, -4.499
703970.80280, 3,  -1.563,  9.495, -3.661, 4,   0.044, -0.200, -0.008
703970.82263, 3,  -1.378,  8.782, -2.879
703970.84253, 3,  -1.194,  8.583, -3.285
703970.86240, 3,  -1.189, 10.906, -4.116, 4,  -0.011, -0.097,  0.044, 5, -20.358,-44.284, 25.270
703970.88227, 3,  -1.357,  9.708, -3.273
703970.90213, 3,  -1.218,  8.222, -4.070
703970.92200, 3,  -0.658, 12.345, -3.967, 4,   0.008, -0.175,  0.069, 5, -19.411,-45.816, 26.537
703970.94187, 3,  -0.201,  5.984, -1.579
703970.96173, 3,   0.328,  8.841, -3.766
703970.98160, 3,   0.641, 10.962, -2.443, 4,  -0.007, -0.246,  0.097, 5, -20.027,-45.363, 25.066
703971.00147, 3,   0.249,  8.717, -3.362
703971.02133, 3,  -0.692, 10.225, -4.795
703971.04117, 3,   0.110,  9.382, -3.522, 4,   0.084, -0.242,  0.072, 5, -20.714,-44.235, 26.384
703971.06104, 3,   0.280,  8.401, -3.269
703971.08090, 3,  -0.196,  8.495, -4.510
703971.10077, 3,  -0.337, 12.921, -3.881, 4,   0.026, -0.051,  0.074, 5, -20.042,-44.270, 26.529
703971.12064, 3,   0.029,  8.521, -0.502
703971.14054, 3,  -0.146,  6.343, -2.596
703971.16040, 3,  -1.053, 13.103, -5.822, 4,   0.004,  0.012,  0.036, 5, -19.186,-43.961, 25.856
703971.18027, 3,  -0.680,  9.193, -1.754
703971.20014, 3,  -0.976,  5.556, -2.670
703971.22000, 3,  -0.481, 14.833, -5.444, 4,  -0.021,  0.033,  0.016, 5, -19.809,-45.218, 25.845
703971.23987, 3,  -0.251,  8.382,  0.603
703971.25971, 3,  -0.613,  7.762, -1.041
703971.27957, 3,  -0.447, 11.864, -4.695, 4,  -0.022, -0.119,  0.027, 5, -20.169,-43.706, 26.227
703971.29944, 3,  -0.053,  7.571, -2.771
703971.31931, 3,  -0.826,  8.475, -4.326
703971.33917, 3,  -1.474,  8.631, -5.322, 4,   0.017, -0.234,  0.019
703971.35904, 3,  -1.084, 10.035, -4.345
703971.37891, 3,   0.273,  9.562, -1.558
703971.39878, 3,   0.017, 11.375, -0.620, 4,  -0.109, -0.211,  0.057, 5, -19.574,-43.016, 25.652
703971.41867, 3,  -0.462,  6.458, -2.709
703971.43854, 3,  -0.536, 10.392, -5.066
703971.45841, 3,  -0.644, 13.551, -2.508, 4,   0.029, -0.194,  0.053, 5, -18.951,-42.532, 26.848
703971.47824, 3,  -0.538,  7.513,  0.007
703971.49811, 3,  -1.000, 10.452, -3.599
703971.51798, 3,  -0.019, 10.392, -2.881, 4,   0.001, -0.127,  0.070, 5, -20.540,-43.141, 25.809
703971.53784, 3,  -0.493,  7.789, -1.833
703971.55771, 3,  -0.424,  9.042, -4.319
703971.57758, 3,  -0.459, 11.064, -5.228, 4,   0.039, -0.035,  0.072, 5, -20.370,-43.002, 27.103
703971.59744, 3,  -0.335,  9.485, -1.921
703971.61731, 3,  -0.885, 10.536, -1.402
703971.63718, 3,  -0.218,  7.348, -0.888, 4,  -0.001,  0.158,  0.053, 5, -20.201,-43.275, 26.711
703971.65705, 3,  -1.388,  5.554, -4.975
703971.67691, 3,  -2.197, 16.726, -8.846
703971.69675, 3,  -0.983,  9.076, -1.041, 4,   0.108,  0.090,  0.042
703971.71665, 3,   0.127,  6.504,  0.861
703971.73651, 3,   0.139, 14.113, -4.013
703971.75638, 3,  -0.421,  7.243, -2.383, 4,   0.027, -0.012,  0.071, 5, -19.855,-41.841, 27.634
703971.77625, 3,  -0.991,  9.593, -3.249
703971.79611, 3,  -0.670,  9.083, -4.874
703971.81598, 3,  -0.189, 10.411, -4.001, 4,   0.068,  0.018,  0.054, 5, -19.946,-42.180, 27.879
703971.83585, 3,   0.072,  8.126, -0.931
703971.85571, 3,  -0.266,  6.061, -3.060
703971.87558, 3,   0.112,  9.303, -6.360, 4,   0.017,  0.112,  0.032
703971.89545, 3,  -0.129, 16.199, -4.159
703971.91532, 3,   0.428,  6.485,  1.804
703971.93515, 3,   0.258,  8.370, -0.763, 4,  -0.070,  0.171, -0.001, 5, -21.254,-42.497, 26.375
703971.95502, 3,   0.572,  8.588, -4.745
703971.97489, 3,  -0.634, 10.502, -6.109
703971.99478, 3,  -1.917,  8.198, -2.613, 4,   0.016,  0.004, -0.066
703972.01465, 3,  -0.914, 12.383, -2.924
703972.03452, 3,  -0.258,  8.964, -0.060
703972.05438, 3,  -0.648, 11.375, -0.749, 4,  -0.118, -0.164, -0.038, 5, -20.692,-43.764, 25.644
703972.07425, 3,  -0.699,  5.207, -1.967
703972.09412, 3,  -1.153, 11.797, -7.317
703972.11398, 3,  -0.907, 11.191, -3.907, 4,  -0.004, -0.239,  0.009, 5, -20.528,-42.145, 27.101
703972.13385, 3,  -0.955, 10.507,  1.000
703972.15369, 3,   0.311,  6.712,  0.069
703972.17356, 3,   0.263, 11.110, -4.755, 4,  -0.059, -0.114,  0.056, 5, -20.586,-42.767, 25.949
703972.19342, 3,   0.177,  9.375, -4.656
703972.21329, 3,   0.182,  4.360, -2.515
703972.23316, 3,  -1.062, 13.728, -5.714, 4,   0.024,  0.073,  0.051, 5, -20.036,-43.980, 25.304
703972.25302, 3,  -0.569, 10.519, -1.998
703972.27292, 3,  -1.290,  4.089, -0.022
703972.29279, 3,  -1.144, 11.246, -6.109, 4,  -0.042,  0.078,  0.030, 5, -20.961,-43.726, 26.665
703972.31265, 3,  -0.424, 13.036, -2.833
703972.33252, 3,   0.065,  5.661,  0.957
703972.35239, 3,   0.148, 12.799, -2.926, 4,  -0.013, -0.049,  0.040, 5, -21.558,-42.365, 26.854
703972.37226, 3,   0.526,  6.863, -0.627
703972.39209, 3,  -0.598,  8.413, -4.798
703972.41196, 3,  -0.924, 11.888, -6.951, 4,   0.078,  0.007,  0.010
703972.43183, 3,   0.007,  7.430, -1.802
703972.45169, 3,  -0.723,  9.978, -2.512
703972.47156, 3,  -0.517,  9.196, -1.290, 4,  -0.096,  0.025,  0.018, 5, -20.415,-43.419, 25.652
703972.49143, 3,  -1.314,  3.747, -0.519
703972.51129, 3,  -0.388, 19.219, -7.104
703972.53116, 3,  -0.309,  4.666,  0.342, 4,   0.028, -0.048,  0.021
703972.55103, 3,  -0.723,  8.406, -3.711
703972.57092, 3,  -0.065, 13.407, -4.635
703972.59079, 3,   0.522,  6.193,  1.606, 4,  -0.013,  0.046, -0.005, 5, -20.432,-43.333, 25.316
703972.61063, 3,  -0.206, 10.933, -2.950
703972.63049, 3,  -0.636,  8.719, -3.561
703972.65036, 3,  -0.067,  9.904, -3.168, 4,  -0.001, -0.018, -0.043, 5, -19.713,-43.129, 26.378
703972.67023, 3,  -0.883,  5.834, -3.472
703972.69010, 3,  -0.452, 11.498, -4.331
703972.70996, 3,  -0.663, 11.471, -1.141, 4,  -0.068, -0.043, -0.019, 5, -20.691,-43.291, 26.370
703972.72983, 3,  -0.110,  8.442,  1.419
703972.74970, 3,   0.328,  8.873, -1.606
703972.76956, 3,  -0.136, 10.050, -5.444, 4,   0.027, -0.094, -0.032, 5, -20.892,-44.530, 25.999
703972.78943, 3,  -0.491,  8.858, -4.027
703972.80930, 3,   0.019,  9.344, -2.326
703972.82913, 3,  -1.472,  9.945, -3.503, 4,   0.008,  0.050, -0.024, 5, -19.704,-43.222, 26.762
703972.84903, 3,  -1.493,  9.531, -2.910
703972.86890, 3,  -0.215,  9.842, -3.730
703972.88877, 3,   0.189, 16.168, -2.003, 4,  -0.072, -0.112, -0.016
703972.90863, 3,   0.084,  6.812,  2.773
703972.92850, 3,  -0.732, 10.155, -1.792
703972.94837, 3,  -0.160,  7.561, -4.408, 4,   0.035, -0.294, -0.015, 5, -19.308,-43.253, 26.428
703972.96823, 3,  -0.790, 10.098, -6.676
703972.98810, 3,  -0.773, 10.241, -4.056
703973.00797, 3,  -0.352,  7.229, -1.771, 4,   0.038, -0.198,  0.039, 5, -19.368,-43.968, 26.625
703973.02783, 3,  -0.481, 14.388, -3.374
703973.04767, 3,  -0.656,  2.472,  0.876
703973.06754, 3,  -0.641, 10.102, -5.575, 4,   0.011, -0.217,  0.065
703973.08740, 3,  -0.084, 18.609, -3.328
703973.10727, 3,   1.144,  1.429,  5.549
703973.12714, 3,  -0.677, 12.292, -6.714, 4,   0.059, -0.050,  0.079, 5, -19.389,-44.971, 27.684
703973.14704, 3,  -0.294,  9.947, -6.374
703973.16690, 3,  -0.390,  7.236, -3.247
703973.18677, 3,  -0.589, 11.861, -2.568, 4,   0.062,  0.074,  0.060, 5, -20.703,-44.101, 27.632
703973.20664, 3,  -0.318,  7.332, -0.246
703973.22650, 3,  -0.519,  8.899, -3.541
703973.24637, 3,  -1.926,  7.592, -4.030, 4,  -0.006, -0.040,  0.028, 5, -19.569,-45.309, 27.650
703973.26624, 3,  -0.620, 15.561, -3.802
703973.28607, 3,   0.024,  8.686,  2.678
703973.30594, 3,  -0.182,  8.351,  0.694, 4,  -0.038, -0.082,  0.080, 5, -21.371,-44.151, 27.545
703973.32581, 3,   0.127,  9.086, -4.786
703973.34567, 3,  -1.038, 11.380, -6.042
703973.36554, 3,  -0.467,  8.710, -2.247, 4,   0.099,  0.046,  0.063, 5, -21.359,-43.553, 26.378
703973.38541, 3,   0.086,  8.971, -1.373
703973.40528, 3,  -0.158, 13.570, -1.876
703973.42517, 3,  -0.586,  4.063, -1.582, 4,  -0.034,  0.142,  0.056
703973.44504, 3,  -1.306, 13.079, -5.697
703973.46491, 3,   0.024, 10.816, -1.996
703973.48477, 3,   0.646,  6.508, -0.067, 4,  -0.021,  0.087,  0.049, 5, -21.371,-44.014, 25.652
703973.50461, 3,  -0.220, 11.797, -4.422
703973.52448, 3,  -0.225, 10.586, -3.639
703973.54434, 3,  -0.749,  7.155, -2.981, 4,   0.037,  0.059,  0.002, 5, -21.062,-44.064, 27.388
703973.56421, 3,  -0.328, 10.256, -4.671
703973.58408, 3,   0.558, 10.225, -1.974
703973.60394, 3,  -0.936,  6.772, -2.893, 4,  -0.017,  0.030, -0.003
703973.62381, 3,  -1.424, 14.477, -5.295
703973.64368, 3,   0.211,  7.138, -0.165
703973.66355, 3,  -0.074,  8.966, -0.943, 4,  -0.039, -0.036,  0.028, 5, -21.866,-44.417, 27.437
703973.68341, 3,  -0.014,  9.777, -0.914
703973.70331, 3,  -0.263,  5.518, -2.479
703973.72315, 3,  -1.376, 12.177, -5.961, 4,   0.088, -0.026,  0.030, 5, -18.114,-46.776, 27.847
703973.74301, 3,   0.091,  7.188, -3.048
703973.76288, 3,  -0.170, 12.979, -4.709
703973.78275, 3,  -0.883,  4.365,  0.462, 4,  -0.011,  0.254,  0.019, 5, -20.874,-43.819, 26.950
703973.80261, 3,  -0.792,  9.717, -3.199
703973.82248, 3,  -0.069, 13.847, -2.812
703973.84235, 3,   0.258,  7.061,  1.297, 4,  -0.031,  0.264, -0.026, 5, -21.718,-43.645, 25.308
703973.86221, 3,  -0.526,  7.815, -4.130
703973.88208, 3,  -1.074, 10.741, -5.626
703973.90195, 3,  -1.409,  9.511, -2.646, 4,   0.038, -0.017, -0.062, 5, -21.893,-43.756, 27.681
703973.92182, 3,  -0.005, 11.856, -2.656
703973.94168, 3,  -0.467, 10.849, -1.299
703973.96152, 3,  -0.579,  4.589, -0.232, 4,  -0.057, -0.100, -0.025, 5, -20.763,-44.759, 26.425
703973.98139, 3,  -0.079, 12.500, -4.460
703974.00128, 3,   0.414, 14.233, -3.029
703974.02115, 3,   0.007,  4.101,  0.668, 4,   0.015, -0.009,  0.031, 5, -22.281,-44.749, 25.652
703974.04102, 3,   0.744, 10.619, -5.396
703974.06088, 3,   0.677, 11.907, -4.477
703974.08075, 3,  -0.893,  6.623, -1.038, 4,   0.036,  0.115, -0.014
703974.10062, 3,  -0.483,  8.707, -2.673
703974.12049, 3,  -0.136, 13.015, -5.044
703974.14035, 3,  -0.967,  6.745, -1.725, 4,   0.009,  0.103, -0.076, 5, -20.708,-44.287, 27.396
703974.16022, 3,  -0.548,  7.631, -2.919
703974.18006, 3,  -0.474, 14.249, -4.089
703974.19992, 3,  -0.005,  6.875,  1.716, 4,  -0.044,  0.007, -0.073, 5, -20.805,-44.716, 26.381
703974.21979, 3,  -0.390,  8.932, -1.292
703974.23966, 3,  -0.840, 10.861, -4.331
703974.25952, 3,  -0.424,  7.537, -0.790, 4,   0.006, -0.216, -0.086
703974.27942, 3,   0.108,  9.287, -3.465
703974.29929, 3,  -0.859, 10.990, -6.843
703974.31915, 3,  -0.933,  8.057, -1.699, 4,  -0.020, -0.223, -0.037, 5, -19.659,-45.255, 28.123
703974.33902, 3,  -0.608,  8.820, -0.313
703974.35889, 3,   1.316, 13.330, -2.670
703974.37876, 3,   0.632,  9.098, -1.457, 4,  -0.055, -0.053,  0.011, 5, -19.617,-45.410, 27.110
703974.39859, 3,   0.402,  6.415, -2.998
703974.41846, 3,  -0.129, 12.201, -4.781
703974.43833, 3,  -1.500,  7.279, -0.964, 4,   0.041,  0.052, -0.028, 5, -20.622,-44.666, 27.834
703974.45819, 3,  -0.794,  8.487, -1.589
703974.47806, 3,  -0.278, 15.123, -2.902
703974.49793, 3,  -1.445,  0.646,  1.287, 4,  -0.017, -0.101, -0.037, 5, -20.976,-44.012, 28.415
703974.51779, 3,  -0.768, 14.989, -6.327
703974.53766, 3,  -0.024,  7.817, -0.562
703974.55753, 3,  -0.184, 10.710, -3.434, 4,   0.024, -0.241,  0.012, 5, -19.983,-43.988, 28.668
703974.57742, 3,  -0.864,  7.717, -3.525
703974.59729, 3,  -0.641,  8.763, -3.697
703974.61716, 3,  -0.474, 10.794, -2.673, 4,   0.034, -0.288,  0.054
703974.63700, 3,  -0.067,  6.374, -1.749
703974.65686, 3,   0.043, 12.507, -5.508
703974.67673, 3,  -0.421,  6.652, -2.489, 4,   0.022, -0.200,  0.094, 5, -18.387,-43.755, 28.363
703974.69660, 3,  -0.316, 12.548, -3.577
703974.71646, 3,   1.266, 11.926, -0.782
703974.73633, 3,   1.165,  6.714,  0.677, 4,  -0.033, -0.070,  0.152, 5, -20.827,-41.869, 28.706
703974.75620, 3,  -0.656, 10.215, -2.924
703974.77606, 3,   0.407, 11.375, -3.948
703974.79593, 3,   0.206,  7.446, -3.025, 4,   0.099,  0.040,  0.102
703974.81580, 3,  -0.608,  7.267, -4.477
703974.83566, 3,  -0.505, 12.340, -5.336
703974.85553, 3,  -0.507,  6.109, -1.945, 4,  -0.003,  0.190,  0.071, 5, -20.993,-42.963, 27.829
703974.87540, 3,  -1.639, 15.288, -2.723
703974.89527, 3,  -0.048,  7.920,  1.823
703974.91513, 3,  -0.455,  8.595, -3.293, 4,   0.000,  0.075,  0.052, 5, -20.926,-41.869, 27.972
703974.93500, 3,  -0.715,  8.255, -5.324
703974.95487, 3,  -0.878,  7.341, -4.551
703974.97473, 3,  -0.560, 11.801, -3.826, 4,   0.048, -0.027,  0.054, 5, -20.721,-41.197, 27.870
703974.99460, 3,  -1.216,  6.640,  1.098
703975.01447, 3,  -0.452, 12.842, -1.098
703975.03433, 3,  -0.328,  5.319, -1.548, 4,  -0.092, -0.091,  0.091, 5, -21.086,-41.399, 28.310
703975.05420, 3,   0.383, 17.523, -4.223
703975.07404, 3,   0.493,  9.404,  0.560
703975.09390, 3,  -0.708,  1.706, -0.160, 4,   0.000,  0.059,  0.125, 5, -22.145,-43.040, 28.262
703975.11377, 3,  -0.512, 16.056, -7.954
703975.13367, 3,  -0.144,  8.590, -1.141
703975.15354, 3,  -0.615,  5.752,  0.967, 4,  -0.008,  0.347,  0.078
703975.17340, 3,  -0.373, 11.093, -4.563
703975.19327, 3,  -0.005, 13.326, -1.565
703975.21314, 3,  -1.101,  2.278, -0.871, 4,  -0.012,  0.327, -0.013, 5, -23.297,-40.779, 27.820
703975.23300, 3,  -1.898, 15.494, -7.023
703975.25287, 3,  -1.385,  9.600, -1.259
703975.27274, 3,  -0.127,  8.846, -0.512, 4,  -0.021,  0.136, -0.005
703975.29257, 3,  -0.426,  7.920, -3.082
703975.31244, 3,   0.273, 10.246, -5.587
703975.33231, 3,   0.553,  6.549, -0.409, 4,   0.033,  0.086, -0.018, 5, -23.868,-42.366, 26.370
703975.35217, 3,  -0.376, 14.938, -4.853
703975.37204, 3,  -1.182,  6.231, -2.632
703975.39191, 3,  -0.641,  9.052, -3.587, 4,   0.016,  0.138, -0.047, 5, -23.761,-41.460, 26.126
703975.41178, 3,   0.215, 13.156, -5.056
703975.43167, 3,  -0.407, 11.380, -0.201
703975.45154, 3,  -0.117,  8.231, -0.321, 4,  -0.037,  0.102, -0.040, 5, -21.481,-42.592, 26.375
703975.47141, 3,   0.512,  9.748, -1.055
703975.49127, 3,  -0.033, 11.955, -4.269
703975.51111, 3,  -0.270, 12.000, -3.120, 4,   0.081,  0.123, -0.090, 5, -24.409,-42.084, 23.444
703975.53098, 3,   0.053,  7.719, -0.615
703975.55084, 3,  -0.459,  6.669, -2.034
703975.57071, 3,  -0.773,  9.198, -5.085, 4,   0.046,  0.103, -0.122, 5, -22.006,-42.662, 27.155
703975.59058, 3,  -0.093, 15.532, -4.642
703975.61044, 3,   0.256,  4.149,  2.850
703975.63031, 3,   0.110, 12.227, -4.068, 4,  -0.011, -0.074, -0.109, 5, -22.568,-43.527, 26.572
703975.65018, 3,  -0.452,  6.489, -4.032
703975.67005, 3,  -1.563,  9.260, -5.271
703975.68991, 3,  -0.464,  9.050, -3.972, 4,   0.057, -0.097, -0.103
703975.70981, 3,  -0.615, 14.431, -3.364
703975.72968, 3,  -0.979,  1.804, -0.474
703975.74951, 3,  -0.759, 14.623, -5.324, 4,  -0.060,  0.015, -0.084, 5, -21.521,-42.778, 24.922
703975.76938, 3,   0.211, 10.691, -0.464
703975.78925, 3,   0.074,  8.277,  2.807
703975.80911, 3,  -1.385,  9.966, -3.958, 4,  -0.063, -0.070, -0.061
703975.82898, 3,  -0.251,  8.112, -3.687
703975.84885, 3,   0.026, 10.332, -3.817
703975.86872, 3,  -0.835,  7.631, -1.888, 4,  -0.022, -0.095, -0.048, 5, -20.053,-44.695, 25.615
703975.88858, 3,  -0.136, 13.065, -2.666
703975.90845, 3,   0.426,  6.836, -2.371
703975.92832, 3,  -0.333, 11.696, -2.972, 4,  -0.048, -0.062, -0.044, 5, -20.694,-45.381, 26.382
703975.94818, 3,  -0.246,  8.573, -1.496
703975.96805, 3,  -0.242, 11.392, -2.369
703975.98789, 3,  -0.206,  8.136, -1.543, 4,  -0.017, -0.187, -0.044
703976.00778, 3,  -0.684, 11.021, -4.908
703976.02765, 3,  -0.057,  7.076, -2.331
703976.04752, 3,  -0.476, 10.000, -2.065, 4,  -0.018, -0.388, -0.014, 5, -19.402,-45.395, 26.627
703976.06738, 3,  -0.007, 10.588, -2.821
703976.08725, 3,  -0.739,  7.461, -1.601
703976.10712, 3,  -0.103, 11.562, -2.364, 4,  -0.026, -0.361,  0.060, 5, -19.255,-45.107, 27.116
703976.12699, 3,   1.436,  9.466, -1.536
703976.14685, 3,   0.373,  7.710, -2.725
703976.16672, 3,  -0.464, 11.084, -4.546, 4,   0.030, -0.142,  0.076, 5, -19.945,-44.083, 27.733
703976.18659, 3,  -0.534, 10.325, -2.326
703976.20642, 3,  -0.385,  6.475, -1.742
703976.22629, 3,  -0.703, 12.275, -4.298, 4,   0.019,  0.087,  0.062, 5, -19.981,-45.316, 25.844
703976.24616, 3,  -1.125,  5.750, -2.713
703976.26602, 3,  -0.112, 14.905, -4.551
703976.28592, 3,  -0.926,  8.743, -0.081, 4,  -0.044,  0.072,  0.046, 5, -20.950,-43.297, 27.982
703976.30579, 3,  -0.012, 11.177, -0.280
703976.32565, 3,  -0.400, 10.074, -0.703
703976.34552, 3,  -0.474,  5.714, -2.479, 4,   0.046, -0.215,  0.031
703976.36539, 3,  -0.352, 12.124, -7.035
703976.38526, 3,  -0.201,  7.640, -3.489
703976.40512, 3,  -0.995, 10.516, -3.338, 4,   0.064, -0.185,  0.080, 5, -19.832,-44.690, 29.042
703976.42496, 3,  -0.534,  9.471, -0.770
703976.44483, 3,   0.132, 10.670, -0.541
703976.46469, 3,   1.287,  7.049,  0.187, 4,  -0.019, -0.034,  0.128, 5, -20.685,-43.393, 28.555
703976.48456, 3,   0.763,  9.485, -5.111
703976.50443, 3,  -0.227, 10.016, -6.286
703976.52429, 3,  -1.589,  7.513, -3.345, 4,   0.148,  0.110,  0.085, 5, -20.702,-44.148, 28.557
703976.54416, 3,  -0.419, 12.993, -3.984
703976.56403, 3,  -1.048,  8.626,  0.804
703976.58393, 3,   0.280,  9.756, -1.318, 4,  -0.049,  0.195,  0.063, 5, -22.362,-42.714, 28.503
703976.60379, 3,  -0.615, 14.565, -2.711
703976.62366, 3,  -1.027,  7.190,  0.184
703976.64292, 3,  -1.505, 12.639, -2.747, 4,   0.052, -0.004,  0.057, 5, -20.877,-43.816, 28.027
703976.66336, 3,  -0.866,  5.484, -2.570
703976.68323, 3,  -0.596, 15.326, -3.855
703976.70310, 3,  -0.866,  5.039, -0.445, 4,   0.023,  0.016,  0.070, 5, -21.335,-42.592, 28.549
703976.72296, 3,  -0.948, 10.873, -5.121
703976.74283, 3,  -0.804,  5.511, -2.398
703976.76270, 3,  -0.065, 11.833, -4.640, 4,   0.035,  0.103,  0.083, 5, -22.342,-43.483, 27.829
703976.78256, 3,  -0.871, 14.381, -1.311
703976.80243, 3,   0.215,  1.115,  1.778
703976.82230, 3,  -0.660, 15.888, -6.257, 4,  -0.004,  0.200,  0.079, 5, -21.948,-41.853, 27.824
703976.84216, 3,   0.474,  8.660, -2.280
703976.86203, 3,  -0.189,  7.906, -1.819
703976.88190, 3,  -0.785,  9.308, -2.501, 4,   0.029,  0.226,  0.024
703976.90177, 3,  -1.548, 13.500, -5.913
703976.92163, 3,  -0.632,  4.108, -0.199
703976.94150, 3,  -0.366, 15.833, -4.108, 4,  -0.025,  0.203,  0.000, 5, -23.242,-41.919, 25.690
703976.96137, 3,  -1.306,  9.636, -0.187
703976.98123, 3,  -0.254,  8.516,  0.301
703977.00110, 3,   0.244, 12.368, -3.826, 4,  -0.005,  0.120, -0.009
703977.02097, 3,  -0.084,  7.990, -1.493
703977.04083, 3,   0.555,  8.160, -4.034
703977.06070, 3,  -0.785, 10.576, -7.006, 4,   0.071,  0.145, -0.030, 5, -24.033,-42.406, 25.836
703977.08057, 3,  -1.280,  5.695, -2.615
703977.10040, 3,   0.359, 14.503, -0.474
703977.12027, 3,   0.438, 11.064,  1.697, 4,  -0.094,  0.149, -0.064, 5, -23.190,-42.909, 27.718
703977.14017, 3,   0.921,  4.178, -0.888
703977.16004, 3,  -0.072,  8.554, -6.633
703977.17990, 3,  -0.443, 12.443, -6.044, 4,   0.097, -0.008, -0.120, 5, -22.873,-43.240, 26.373
703977.19977, 3,  -1.060,  6.465, -2.225
703977.21964, 3,  -1.823,  9.858, -2.654
703977.23950, 3,  -1.469, 12.620, -3.702, 4,  -0.048,  0.088, -0.110, 5, -24.010,-42.653, 26.370
703977.25937, 3,  -0.828,  5.054, -1.429
703977.27924, 3,   0.024, 16.173, -3.025
703977.29910, 3,  -0.491,  6.965,  0.392, 4,  -0.055,  0.062, -0.082, 5, -23.631,-43.793, 26.814
703977.31894, 3,  -0.797, 12.313, -4.458
703977.33881, 3,  -1.457,  7.820, -2.728
703977.35867, 3,  -1.199, 10.275,  0.928, 4,  -0.027, -0.030, -0.075, 5, -22.000,-42.366, 26.611
703977.37854, 3,   0.306,  7.518,  0.215
703977.39841, 3,   0.292, 12.538, -5.621
703977.41828, 3,  -2.218,  4.991, -4.032, 4,   0.022, -0.180, -0.034
703977.43817, 3,  -0.479, 10.875, -4.130
703977.45804, 3,   1.036, 11.404, -1.431
703977.47791, 3,   1.211,  5.623,  0.531, 4,  -0.092, -0.169,  0.051, 5, -20.668,-42.432, 25.790
703977.49777, 3,   1.311, 14.771, -5.358
703977.51764, 3,   0.823,  5.937, -0.806
703977.53751, 3,   1.048,  9.779, -2.252, 4,   0.017, -0.101, -0.006
703977.55734, 3,   0.117, 11.000, -4.082
703977.57721, 3,   0.156,  5.561, -2.687
703977.59708, 3,  -0.835,  9.885, -4.355, 4,  -0.002, -0.009, -0.044, 5, -22.101,-42.279, 26.373
703977.61695, 3,   0.737, 14.314, -0.950
703977.63681, 3,   1.113,  6.106,  2.634
703977.65668, 3,   0.220, 10.201, -3.611, 4,  -0.052, -0.059, -0.040, 5, -21.346,-42.915, 26.044
703977.67655, 3,   0.304,  6.485, -5.937
703977.69641, 3,  -1.723, 12.012, -5.470
703977.71631, 3,  -1.184,  5.827, -1.070, 4,   0.019, -0.040, -0.043, 5, -21.336,-42.593, 27.827
703977.73618, 3,  -0.593, 14.833, -3.269
703977.75604, 3,  -1.015,  5.054, -2.110
703977.77588, 3,  -1.515, 13.847, -3.237, 4,  -0.057, -0.110, -0.007, 5, -22.008,-42.603, 25.455
703977.79575, 3,  -0.754, 11.880,  1.668
703977.81561, 3,  -0.581,  3.022,  0.225
703977.83548, 3,  -0.474, 15.833, -7.071, 4,   0.029, -0.224,  0.049, 5, -21.977,-42.900, 25.647
703977.85535, 3,  -0.881,  7.523, -1.323
703977.87522, 3,  -1.048,  6.853, -2.991
703977.89508, 3,   0.139, 12.488, -1.711, 4,   0.012, -0.182,  0.125, 5, -21.063,-41.574, 25.497
703977.91495, 3,   1.452,  7.829, -0.837
703977.93482, 3,  -0.756,  8.841, -3.235
703977.95468, 3,   0.060, 12.160, -4.587, 4,   0.062, -0.061,  0.128, 5, -20.749,-40.433, 25.600
703977.97455, 3,   1.907,  7.171, -3.025
703977.99439, 3,   0.684,  7.887, -5.561
703978.01428, 3,   0.608, 15.910, -5.157, 4,   0.060,  0.135,  0.084, 5, -21.991,-42.365, 26.373
703978.03415, 3,  -0.864,  6.296,  4.247
703978.05402, 3,  -1.067,  7.619, -0.134
703978.07388, 3,  -1.065, 13.584, -4.061, 4,  -0.011,  0.157,  0.014
703978.09375, 3,  -0.625,  5.939, -2.187
703978.11362, 3,  -1.311, 14.972, -5.432
703978.13349, 3,  -1.981,  5.011, -2.323, 4,   0.043,  0.052,  0.021, 5, -22.159,-44.035, 26.974
703978.15335, 3,  -0.723, 11.000, -1.950
703978.17322, 3,  -0.079, 10.052, -1.888
703978.19309, 3,  -0.747,  4.199,  0.103, 4,  -0.052,  0.110,  0.044, 5, -23.375,-43.964, 24.922
703978.21292, 3,  -0.692, 14.070, -4.290
703978.23279, 3,  -0.555, 11.356, -4.709
703978.25266, 3,  -0.983,  2.448, -1.421, 4,   0.024,  0.138,  0.034, 5, -22.775,-43.336, 26.192
703978.27252, 3,  -1.141, 14.345, -4.175
703978.29242, 3,   0.366,  7.262, -1.089
703978.31229, 3,  -0.132, 17.336, -2.481, 4,  -0.088,  0.171,  0.063, 5, -22.968,-43.770, 24.635
703978.33215, 3,   0.017,  2.283,  3.405
703978.35202, 3,   0.158, 12.806, -3.190
703978.37189, 3,  -0.390,  7.021, -4.147, 4,   0.004,  0.038,  0.016, 5, -24.254,-43.364, 24.681
703978.39176, 3,  -0.897, 12.117, -5.693
703978.41162, 3,  -0.617, 12.304, -0.299
703978.43149, 3,   0.022,  1.979,  1.120, 4,  -0.060,  0.131,  0.025, 5, -22.678,-44.705, 24.875
703978.45133, 3,  -0.045, 20.894, -7.238
703978.47119, 3,  -1.019,  4.606,  3.252
703978.49106, 3,  -0.258, 15.467, -1.467, 4,   0.032,  0.124,  0.010, 5, -23.642,-43.494, 24.194
703978.51093, 3,  -0.029,  1.141,  1.110
703978.53079, 3,  -0.323, 15.438,-10.270
703978.55066, 3,  -1.132,  6.899, -4.597, 4,   0.160,  0.129, -0.030, 5, -22.975,-42.302, 26.707
703978.57056, 3,  -1.263, 11.043, -1.328
703978.59043, 3,   0.428,  5.614, -0.498
703978.61029, 3,   0.196, 12.419, -3.441, 4,  -0.037,  0.169, -0.038
703978.63016, 3,   0.732, 10.301, -3.498
703978.65003, 3,  -0.103,  7.801, -2.103
703978.66989, 3,  -0.249, 10.873, -3.733, 4,   0.059,  0.149, -0.067, 5, -23.195,-44.060, 25.984
703978.68973, 3,  -1.417,  4.142, -2.161
703978.70960, 3,  -1.572, 10.756, -7.308
703978.72946, 3,  -0.706, 14.041, -1.804, 4,  -0.038,  0.129, -0.062, 5, -24.693,-43.381, 25.642
703978.74933, 3,  -0.735,  1.505,  2.307
703978.76920, 3,  -1.342, 17.728, -3.295
703978.78906, 3,   0.167,  9.995,  3.115, 4,  -0.135,  0.019, -0.024, 5, -24.037,-43.701, 24.576
703978.80893, 3,   0.244,  4.912,  0.596
703978.82880, 3,  -1.027, 10.361, -7.147
703978.84866, 3,  -0.182, 16.161, -4.946, 4,   0.056,  0.015, -0.035, 5, -22.710,-45.851, 25.954
703978.86856, 3,   0.782,  2.946,  2.953
703978.88840, 3,  -0.285, 12.462, -4.099
703978.90827, 3,   0.581, 11.445, -2.122, 4,  -0.077,  0.153, -0.058, 5, -22.455,-44.467, 24.199
703978.92813, 3,   0.617,  4.211,  0.541
703978.94800, 3,   0.215, 19.662, -5.953
703978.96787, 3,  -0.208,  2.828,  1.850, 4,   0.027,  0.069, -0.115, 5, -21.400,-45.303, 26.241
703978.98774, 3,  -0.301, 12.239, -5.755
703979.00760, 3,  -1.228,  9.258, -6.202
703979.02747, 3,  -0.792, 11.280, -1.357, 4,   0.053, -0.022, -0.154, 5, -21.443,-46.390, 24.693
703979.04734, 3,  -0.419,  6.358,  1.455
703979.06720, 3,  -1.503, 14.584, -6.549
703979.08707, 3,  -1.184,  3.240, -2.754, 4,   0.017, -0.267, -0.123, 5, -21.399,-45.151, 24.495
703979.10694, 3,  -0.022, 14.438, -5.805
703979.12677, 3,  -0.237,  9.361, -0.010
703979.14667, 3,   0.316,  9.224, -0.395, 4,  -0.028, -0.127, -0.001
703979.16654, 3,   0.385, 12.079, -2.986
703979.18641, 3,  -0.407,  7.356, -1.752
703979.20627, 3,  -0.103,  8.136, -3.829, 4,   0.068,  0.042, -0.023, 5, -20.224,-44.702, 26.828
703979.22614, 3,  -0.639, 14.993, -4.996
703979.24601, 3,  -1.132,  0.347, -0.634
703979.26587, 3,  -1.646, 13.479, -5.391, 4,  -0.039, -0.088, -0.036
703979.28574, 3,   0.459, 12.787,  0.232
703979.30561, 3,  -0.120,  5.439,  4.089
703979.32547, 3,   0.548, 11.586, -3.132, 4,  -0.128, -0.354,  0.012, 5, -20.447,-44.273, 25.790
703979.34531, 3,   0.208,  9.715, -3.970
703979.36518, 3,   0.431,  8.573, -3.635
703979.38504, 3,  -1.050,  6.078, -4.376, 4,   0.047, -0.233,  0.042, 5, -19.606,-43.962, 25.667
703979.40491, 3,   0.940, 17.719, -4.972
703979.42478, 3,   0.287,  1.534,  2.941
703979.44468, 3,  -0.141, 14.553, -5.104, 4,  -0.090,  0.125,  0.052, 5, -20.717,-44.609, 25.082
703979.46454, 3,  -0.270, 11.201,  0.081
703979.48441, 3,   1.158,  5.657,  2.118
703979.50428, 3,   0.335, 13.974, -4.589, 4,  -0.001,  0.110, -0.020, 5, -21.225,-43.301, 26.520
703979.52414, 3,  -1.302,  4.984, -2.654
703979.54401, 3,  -1.055, 12.962, -5.925
703979.56388, 3,  -0.900,  7.568, -1.974, 4,   0.050,  0.005, -0.071, 5, -20.345,-43.990, 26.044
703979.58371, 3,  -1.287,  5.408, -3.362
703979.60358, 3,  -0.345, 14.958, -3.757
703979.62345, 3,   0.232, 11.385, -0.120, 4,  -0.087, -0.227, -0.031, 5, -20.151,-43.466, 25.456
703979.64331, 3,  -0.096, 10.729,  0.357
703979.66318, 3,  -0.577,  6.767,  1.369
703979.68305, 3,   0.486, 10.705, -4.611, 4,   0.061, -0.451,  0.011
703979.70292, 3,  -0.069,  9.167, -5.520
703979.72281, 3,  -1.531,  8.361, -5.972
703979.74268, 3,   0.701,  8.930, -2.493, 4,   0.108, -0.157,  0.098, 5, -19.530,-43.257, 25.652
703979.76255, 3,   0.084,  8.480, -2.065
703979.78241, 3,   0.960, 12.756, -1.845
703979.80225, 3,   0.998,  8.971,  1.895, 4,  -0.059,  0.128,  0.102
703979.82212, 3,   0.390,  9.736, -1.876
703979.84198, 3,  -0.615, -3.972, -4.700
703979.86185, 3,  -3.472, 17.786,-14.625, 4,   0.168,  0.016,  0.001, 5, -20.329,-44.746, 26.041
703979.88172, 3,  -1.761, 12.483, -4.207
703979.90158, 3,  -1.462, 11.064,  3.893
703979.92145, 3,  -1.187,  2.223,  3.429, 4,  -0.275, -0.043,  0.083, 5, -19.370,-43.816, 23.772
703979.94132, 3,  -0.022, 16.814, -2.749
703979.96119, 3,   1.230, 10.373,  1.409
703979.98105, 3,   0.050,  3.106,  0.014, 4,  -0.033, -0.296,  0.114, 5, -20.634,-44.621, 26.291
703980.00095, 3,  -0.103, 15.388, -7.466
703980.02082, 3,  -0.179,  8.502, -3.596
703980.04065, 3,  -0.438,  8.337, -3.020, 4,   0.058,  0.052,  0.113, 5, -20.906,-43.053, 25.652
703980.06052, 3,  -0.335,  9.751,  1.704
703980.08039, 3,   0.225,  6.544, -0.727
703980.10025, 3,   0.060, 13.828, -5.961, 4,  -0.020,  0.184,  0.083, 5, -20.430,-43.562, 26.379
703980.12012, 3,  -1.041, 10.478, -2.941
703980.13999, 3,  -1.137,  8.911, -0.981
703980.15985, 3,   0.895,  7.846, -1.316, 4,   0.004,  0.159,  0.042, 5, -21.657,-44.539, 25.751
703980.17972, 3,  -0.816, 14.718, -4.245
703980.19959, 3,  -1.759,  5.470,  0.730
703980.21946, 3,  -0.754,  3.486, -3.427, 4,   0.027,  0.077,  0.005, 5, -23.360,-43.350, 25.739
703980.23929, 3,  -1.232, 21.698,-10.098
703980.25916, 3,  -2.477,  2.462,  0.708
703980.27903, 3,  -0.325, 12.045,  0.371, 4,  -0.024, -0.056,  0.050, 5, -21.750,-42.877, 25.055
703980.29892, 3,   1.431, 14.359, -0.837
703980.31879, 3,   1.091,  9.389,  0.079
703980.33866, 3,   0.062,  7.822, -1.811, 4,   0.070, -0.025,  0.054
703980.35852, 3,   1.079,  8.830, -6.303
703980.37839, 3,   1.450, 11.600, -7.389
703980.39826, 3,   0.414, 10.165, -4.886, 4,   0.140,  0.156,  0.035, 5, -24.904,-42.427, 22.501
703980.41813, 3,  -0.191, 11.509, -1.646
703980.43799, 3,  -0.328,  5.190,  3.611
703980.45786, 3,  -0.421, 12.239, -2.948, 4,  -0.018,  0.205, -0.071, 5, -21.962,-42.656, 26.271
703980.47773, 3,   1.125, 11.727, -3.793
703980.49756, 3,  -0.469,  1.931, -4.008
703980.51743, 3,  -1.890, 12.976, -7.071, 4,   0.187,  0.072, -0.120, 5, -22.957,-42.763, 24.335
703980.53730, 3,  -1.218, 10.784, -3.955
703980.55716, 3,  -1.519, 10.265,  1.362
703980.57706, 3,  -0.735,  8.509,  1.177, 4,  -0.101,  0.032, -0.068, 5, -21.957,-42.604, 26.093
703980.59693, 3,  -0.715,  7.621, -4.192
703980.61679, 3,  -0.749, 13.732, -6.150
703980.63666, 3,  -0.412, 10.038, -2.099, 4,   0.032, -0.309,  0.004, 5, -21.294,-40.643, 26.173
703980.65653, 3,   1.330,  8.765, -1.905
703980.67640, 3,   0.876,  9.720, -2.448
703980.69623, 3,  -0.244,  8.535, -2.503, 4,  -0.025, -0.026,  0.043, 5, -20.660,-41.864, 24.918
703980.71610, 3,   1.539,  6.633, -0.912
703980.73597, 3,   1.634, 12.481, -4.738
703980.75583, 3,  -0.517,  6.525, -3.324, 4,   0.029,  0.253, -0.036, 5, -21.309,-41.194, 24.730
703980.77570, 3,  -2.551, 10.969, -3.759
703980.79557, 3,  -0.292, 12.641, -0.974
703980.81543, 3,  -0.294,  6.748,  2.706, 4,  -0.087,  0.258, -0.107, 5, -21.356,-41.495, 24.152
703980.83530, 3,  -0.799,  9.902, -1.883
703980.85517, 3,  -1.919,  7.633, -4.281
703980.87506, 3,  -1.393, 12.452, -5.879, 4,   0.082, -0.221, -0.135
703980.89493, 3,  -1.742,  8.466, -2.314
703980.91480, 3,  -1.031,  8.006, -0.873
703980.93464, 3,  -0.739,  8.897, -1.594, 4,  -0.070, -0.266, -0.000, 5, -22.569,-43.372, 23.604
703980.95450, 3,  -0.912, 15.242, -4.266
703980.97437, 3,  -0.096,  8.057,  0.258
703980.99424, 3,   0.079,  5.621, -1.321, 4,   0.017, -0.221,  0.096
703981.01410, 3,   0.352, 11.813, -6.367
703981.03397, 3,   0.239,  9.265, -3.060
703981.05384, 3,   0.476,  9.459, -2.376, 4,   0.040,  0.051,  0.102, 5, -20.465,-43.280, 25.648
703981.07370, 3,   0.950,  9.701, -0.476
703981.09357, 3,   0.112,  7.913, -1.905
703981.11344, 3,   0.352, 12.364, -3.127, 4,  -0.044,  0.219,  0.019, 5, -21.758,-43.309, 24.919
703981.13330, 3,  -0.747,  9.093, -1.728
703981.15320, 3,   0.129, 11.660, -2.273
703981.17304, 3,  -0.091,  8.645, -1.864, 4,  -0.043,  0.057, -0.045, 5, -22.682,-42.708, 21.060
703981.19291, 3,   2.460, 19.289, -2.637
703981.21277, 3,   0.388, -7.987,  3.415
703981.23264, 3,  -0.239, 14.630, -8.815, 4,   0.044, -0.091, -0.111, 5, -21.532,-43.301, 23.563
703981.25251, 3,  -0.359,  9.863, -6.367
703981.27237, 3,  -1.972,  3.393, -2.304
703981.29224, 3,  -0.668, 16.049, -3.927, 4,  -0.019, -0.064, -0.038, 5, -20.950,-43.002, 24.051
703981.31211, 3,  -1.318,  5.348,  0.120
703981.33197, 3,  -0.019, 10.981, -3.285
703981.35184, 3,   0.048,  7.602, -0.773, 4,  -0.057, -0.148, -0.022, 5, -20.709,-43.753, 23.471
703981.37171, 3,  -0.928, 12.268, -3.214
703981.39154, 3,  -0.084,  3.170, -1.945
703981.41141, 3,  -2.378, 17.518, -9.308, 4,   0.080, -0.040, -0.020
703981.43131, 3,   0.077,  3.833,  1.909
703981.45118, 3,   1.058, 14.362,  1.732
703981.47104, 3,  -0.919, 10.387, -0.426, 4,  -0.145,  0.002,  0.038, 5, -21.204,-42.163, 23.468
703981.49091, 3,  -0.646,  5.870, -1.615
703981.51078, 3,  -0.572, 13.797, -5.793
703981.53064, 3,   0.371,  2.886, -3.034, 4,   0.087, -0.264,  0.003
703981.55051, 3,   0.598, 12.144, -5.874
703981.57038, 3,   0.318, 12.680, -3.857
703981.59024, 3,  -0.902,  2.434, -0.857, 4,  -0.044, -0.016,  0.045, 5, -20.427,-42.889, 23.697
703981.61011, 3,  -0.768, 17.685, -1.955
703981.62995, 3,   0.407,  8.880,  1.431
703981.64981, 3,   0.488,  5.188, -0.507, 4,  -0.047, -0.030,  0.028, 5, -22.485,-42.093, 24.191
703981.66968, 3,  -1.261, 11.064, -6.217
703981.68955, 3,  -0.806,  9.337, -4.355
703981.70942, 3,  -0.787, 11.526, -1.773, 4,   0.035, -0.149,  0.026, 5, -20.026,-43.265, 22.745
703981.72931, 3,  -1.653,  8.023,  0.110
703981.74918, 3,  -0.632,  8.753, -1.845
703981.76905, 3,   0.225,  9.258, -4.353, 4,  -0.031, -0.163,  0.058, 5, -21.002,-42.946, 22.554
703981.78891, 3,  -0.574, 15.472, -3.790
703981.80878, 3,  -0.189,  4.568,  1.888
703981.82862, 3,  -0.778,  9.643, -5.508, 4,   0.021, -0.035,  0.090, 5, -21.660,-44.350, 22.746
703981.84848, 3,   0.311, 11.911, -5.905
703981.86835, 3,  -1.204,  6.796,  0.017
703981.88822, 3,   0.194, 12.931, -2.079, 4,   0.001,  0.029,  0.075, 5, -21.364,-43.440, 22.464
703981.90808, 3,  -0.038,  9.722, -0.713
703981.92795, 3,  -1.120,  6.446, -3.953
703981.94782, 3,  -1.371, 14.603, -6.355, 4,   0.103, -0.058,  0.041, 5, -21.373,-44.011, 24.200
703981.96769, 3,   2.350,  6.518,  0.830
703981.98755, 3,   0.342,  8.169, -1.091
703982.00745, 3,  -0.914, 11.512, -4.958, 4,   0.014,  0.139,  0.072, 5, -21.164,-44.476, 22.748
703982.02732, 3,  -0.883, 11.852, -2.687
703982.04718, 3,   0.261,  9.275,  0.330
703982.06702, 3,  -1.395,  4.039, -2.027, 4,   0.029,  0.163,  0.019
703982.08689, 3,  -1.512,  7.968, -6.542
703982.10675, 3,  -1.563, 11.605, -6.197
703982.12662, 3,  -1.565, 14.539, -1.644, 4,   0.019,  0.029,  0.029, 5, -20.575,-43.848, 22.896
703982.14649, 3,  -0.546,  5.791,  3.979
703982.16636, 3,   0.680, 10.028, -2.615
703982.18622, 3,  -0.112,  9.176, -3.393, 4,  -0.034, -0.053,  0.068, 5, -22.368,-45.140, 23.149
703982.20609, 3,   0.598, 13.625, -4.491
703982.22596, 3,  -0.072,  5.137, -0.895
703982.24582, 3,  -0.785, 11.818, -5.769, 4,   0.057,  0.081,  0.044, 5, -23.560,-45.139, 23.116
703982.26569, 3,  -0.519,  7.851, -4.999
703982.28556, 3,   0.462, 14.034, -2.888
703982.30542, 3,   0.158,  8.839,  2.390, 4,  -0.081,  0.175,  0.043, 5, -23.296,-46.341, 21.585
703982.32529, 3,   0.677,  7.109, -0.290
703982.34516, 3,  -1.034,  9.511, -5.910
703982.36502, 3,  -0.773,  9.835, -6.087, 4,   0.075,  0.028, -0.032, 5, -23.657,-46.675, 22.749
703982.38489, 3,  -0.732, 13.062, -3.190
703982.40476, 3,  -0.089,  8.528,  1.448
703982.42463, 3,  -1.560,  2.099, -1.323, 4,  -0.081,  0.083, -0.012
703982.44449, 3,  -0.723, 16.302, -5.379
703982.46436, 3,   0.309, 11.830,  1.127
703982.48423, 3,   0.380,  4.819,  1.924, 4,  -0.053,  0.024,  0.003, 5, -22.900,-46.611, 23.187
703982.50409, 3,  -0.629, 10.605, -5.267
703982.52393, 3,  -0.983,  8.772, -5.362
703982.54380, 3,  -0.921, 12.419, -4.159, 4,   0.071,  0.018, -0.015, 5, -24.155,-48.735, 22.807
703982.56366, 3,  -0.550,  8.277,  0.167
703982.58356, 3,   0.287,  5.934, -1.814
703982.60343, 3,  -0.849, 11.237, -6.669, 4,   0.011,  0.096, -0.016
703982.62329, 3,  -1.366, 14.448, -5.125
703982.64316, 3,   0.261,  8.164,  2.302
703982.66303, 3,   0.258,  6.123,  0.122, 4,  -0.069,  0.152,  0.008, 5, -25.287,-47.864, 23.476
703982.68290, 3,  -0.048, 15.333, -5.434
703982.70276, 3,  -0.663,  2.852,  0.481
703982.72263, 3,   0.163, 10.428, -5.444, 4,   0.046,  0.046, -0.024, 5, -25.473,-48.393, 23.483
703982.74247, 3,   0.390, 16.446, -3.618
703982.76233, 3,   0.273, -0.424, -1.144
703982.78220, 3,  -0.261, 18.485, -8.102, 4,  -0.002, -0.033, -0.027, 5, -24.162,-49.261, 26.007
703982.80207, 3,  -0.488,  9.318,  1.744
703982.82193, 3,   0.759,  8.358,  0.931
703982.84180, 3,   0.792,  8.751, -2.273, 4,  -0.044, -0.160, -0.005, 5, -24.150,-46.971, 24.585
703982.86170, 3,  -0.770,  6.748, -5.269
703982.88157, 3,  -0.797, 14.505, -6.989
703982.90143, 3,  -0.328, 10.895, -3.360, 4,   0.065, -0.088,  0.008, 5, -26.128,-48.413, 27.835
703982.92130, 3,   0.290,  6.020,  1.888
703982.94117, 3,   0.313,  8.722, -2.020
703982.96103, 3,   1.563, 18.169, -3.884, 4,  -0.031,  0.001,  0.007, 5, -24.739,-49.048, 27.158
703982.98087, 3,   0.665,  3.850,  2.678
703983.00074, 3,   0.041,  8.827, -3.943
703983.02060, 3,   0.940, 12.768, -4.680, 4,   0.058, -0.022, -0.042, 5, -23.656,-46.925, 27.596
703983.04047, 3,  -0.136,  2.149, -2.383
703983.06034, 3,  -1.493, 14.936, -7.001
703983.08020, 3,  -0.361,  6.693, -0.574, 4,  -0.006,  0.000, -0.045, 5, -23.038,-46.913, 28.996
703983.10007, 3,  -0.701,  7.370, -1.510
703983.11994, 3,  -0.366, 16.996, -4.518
703983.13980, 3,  -0.373,  3.371,  0.644, 4,  -0.015, -0.016, -0.032
703983.15970, 3,   0.562,  8.279, -4.211
703983.17957, 3,  -1.285, 14.359, -5.642
703983.19941, 3,  -1.070,  6.930,  1.493, 4,  -0.019, -0.012, -0.021, 5, -22.086,-46.272, 29.475
703983.21927, 3,  -0.761,  6.011, -0.514
703983.23914, 3,  -0.270, 17.281, -6.772
703983.25901, 3,  -0.842,  4.173,  0.605, 4,  -0.024, -0.180,  0.004
703983.27887, 3,   1.137, 16.640, -2.941
703983.29874, 3,   0.263,  4.561,  0.177
703983.31861, 3,   0.414,  9.176, -5.456, 4,   0.020, -0.152,  0.066, 5, -20.981,-44.879, 30.605
703983.33847, 3,  -0.280,  9.064, -6.176
703983.35834, 3,   0.424, 14.484, -1.893
703983.37821, 3,   0.053,  2.347,  3.484, 4,  -0.043,  0.132,  0.041, 5, -21.121,-43.082, 28.545
703983.39808, 3,   0.199, 15.417, -5.140
703983.41794, 3,  -2.077,  5.085, -3.314
703983.43781, 3,  -1.606,  8.361, -3.427, 4,   0.058, -0.001, -0.026, 5, -22.560,-43.997, 27.205
703983.45768, 3,  -0.002, 14.570, -2.182
703983.47754, 3,  -0.402,  5.645,  0.560
703983.49741, 3,  -1.287, 13.476, -4.087, 4,  -0.033, -0.114,  0.040, 5, -21.208,-42.732, 28.552
703983.51728, 3,  -1.228,  5.652, -1.003
703983.53714, 3,   0.031,  8.349, -1.919
703983.55701, 3,  -0.309, 12.909, -3.233, 4,   0.016, -0.136,  0.078, 5, -20.689,-43.622, 28.947
703983.57688, 3,  -0.677,  9.002, -3.343
703983.59674, 3,  -1.687,  3.740, -2.974
703983.61661, 3,  -0.273, 17.331, -6.561, 4,   0.053, -0.031,  0.104
703983.63648, 3,  -0.354,  5.233,  0.476
703983.65631, 3,   1.534, 10.100, -0.436
703983.67618, 3,  -0.266,  8.064, -3.087, 4,  -0.036,  0.186,  0.120, 5, -20.346,-41.855, 28.355
703983.69605, 3,   0.333, 10.019, -3.374
703983.71592, 3,  -0.538, 11.160, -2.804
703983.73581, 3,  -0.828,  8.195, -1.359, 4,   0.045,  0.245,  0.039, 5, -21.805,-41.553, 27.478
703983.75568, 3,  -0.045, 10.014, -3.360
703983.77555, 3,  -1.137,  7.372, -5.238
703983.79541, 3,  -0.431, 13.888, -5.563, 4,   0.008,  0.127,  0.006
703983.81528, 3,  -0.266,  4.223,  1.479
703983.83515, 3,   1.484, 15.807, -1.563
703983.85501, 3,  -0.926,  4.867,  0.132, 4,  -0.078,  0.024,  0.011, 5, -22.391,-42.235, 24.454
703983.87488, 3,   0.029, 12.615, -5.659
703983.89472, 3,  -0.445,  6.729, -3.716
703983.91459, 3,   0.002,  9.497, -2.735, 4,   0.042,  0.031,  0.013, 5, -21.982,-41.602, 27.246
703983.93445, 3,  -1.086,  8.093, -3.216
703983.95432, 3,  -0.969, 12.916, -2.795
703983.97419, 3,   0.754,  8.700,  0.890, 4,  -0.084,  0.110,  0.051, 5, -22.604,-41.144, 23.732
703983.99405, 3,   0.534,  7.482,  0.660
703984.01395, 3,   0.452,  5.949, -3.147
703984.03321, 3,  -0.751, 14.579, -6.552, 4,   0.082,  0.078,  0.011, 5, -23.793,-42.653, 24.191
703984.05368, 3,  -0.194,  5.291, -5.937
703984.07355, 3,  -0.191, 16.317, -3.840
703984.09342, 3,  -0.134,  2.651,  1.280, 4,  -0.062,  0.292,  0.001, 5, -23.059,-41.913, 24.625
703984.11325, 3,   0.699, 17.410, -2.101
703984.13312, 3,  -1.335,  7.128,  1.314
703984.15299, 3,  -0.096, 13.424, -0.900, 4,  -0.016,  0.206, -0.063
703984.17286, 3,  -0.325,  4.558, -1.421
703984.19272, 3,  -0.723, 13.603, -6.987
703984.21259, 3,  -0.668, 11.849, -3.226, 4,   0.097,  0.012, -0.081, 5, -22.205,-42.607, 24.709
703984.23246, 3,  -1.376,  2.307,  0.246
703984.25232, 3,  -1.476, 12.957, -5.140
703984.27219, 3,  -1.247,  8.475, -1.668, 4,  -0.026, -0.022, -0.065, 5, -22.845,-43.335, 24.754
703984.29209, 3,   0.562, 13.117, -2.017
703984.31195, 3,   0.345,  6.724, -2.697
703984.33179, 3,  -0.658, 11.268, -5.350, 4,   0.068, -0.023, -0.039
703984.35166, 3,   0.292,  9.535, -2.749
703984.37152, 3,  -0.074, 10.435, -2.359
703984.39139, 3,  -0.596,  7.056, -1.213, 4,  -0.028,  0.129, -0.027, 5, -22.461,-43.083, 24.908
703984.41126, 3,  -0.931,  9.643, -3.455
703984.43113, 3,  -0.754,  9.691, -2.668
703984.45099, 3,   0.744, 11.859,  0.335, 4,  -0.039,  0.071, -0.037, 5, -22.095,-44.136, 24.144
703984.47086, 3,   0.785, 11.261, -0.613
703984.49073, 3,   0.806,  8.260, -3.249
703984.51059, 3,   0.579,  5.977, -3.924, 4,   0.040,  0.012, -0.076, 5, -22.676,-42.599, 24.635
703984.53046, 3,   0.050, 13.828, -4.771
703984.55033, 3,  -0.529,  6.695, -1.675
703984.57016, 3,  -0.627, 15.132, -3.422, 4,  -0.013,  0.138, -0.093, 5, -20.349,-44.038, 25.214
703984.59006, 3,  -1.306,  1.780, -1.641
703984.60993, 3,  -0.572, 17.317, -3.862
703984.62980, 3,  -0.443, 11.758,  1.084, 4,  -0.070, -0.014, -0.085, 5, -21.225,-45.377, 24.203
703984.64966, 3,  -0.591,  4.341, -1.228
703984.66953, 3,  -0.414,  8.614, -5.812
703984.68940, 3,  -1.079, 13.091, -5.255, 4,   0.058, -0.147, -0.078
703984.70926, 3,  -0.361, 10.866, -1.218
703984.72913, 3,   0.759,  6.977,  1.888
703984.74900, 3,  -0.438,  7.793, -4.049, 4,  -0.082,  0.020, -0.049, 5, -19.594,-44.684, 25.278
703984.76886, 3,  -0.055, 10.397, -3.678
703984.78873, 3,   0.043, 13.285, -1.232
703984.80857, 3,   0.261,  5.365,  1.462, 4,  -0.037, -0.010, -0.052
703984.82843, 3,   0.818, 13.787, -4.034
703984.84830, 3,  -1.323,  5.927, -4.362
703984.86820, 3,   0.378, 11.337, -4.465, 4,   0.046, -0.025, -0.105, 5, -20.706,-44.038, 24.287
703984.88807, 3,  -2.228,  5.755, -1.804
703984.90793, 3,  -1.409, 11.476, -4.180
703984.92780, 3,  -2.101,  7.298, -4.807, 4,  -0.054, -0.096, -0.075, 5, -20.024,-43.309, 23.471
703984.94767, 3,  -0.019, 17.269, -1.436
703984.96753, 3,   0.541,  2.247,  5.123
703984.98740, 3,  -0.244, 15.257, -2.673, 4,  -0.095, -0.258,  0.016
703985.00727, 3,  -1.302,  8.272, -3.429
703985.02710, 3,  -1.574,  6.377, -2.773
703985.04697, 3,  -0.234,  8.296, -4.463, 4,   0.086, -0.165,  0.053, 5, -18.690,-43.713, 24.939
703985.06684, 3,   0.967, 15.958, -4.192
703985.08670, 3,   0.404,  6.219, -0.462
703985.10657, 3,   1.625, 14.886, -0.826, 4,  -0.072,  0.018,  0.083, 5, -20.424,-43.411, 24.493
703985.12644, 3,   0.500,  7.652,  1.823
703985.14631, 3,   1.598,  5.336, -0.282
703985.16620, 3,   0.304, 14.680, -6.717, 4,   0.072, -0.109, -0.004, 5, -18.114,-43.320, 24.930
703985.18607, 3,  -0.069,  6.719, -3.096
703985.20594, 3,   0.010,  9.940, -3.194
703985.22580, 3,  -0.727,  9.595, -3.716, 4,   0.010, -0.130, -0.036, 5, -19.255,-42.728, 24.927
703985.24564, 3,  -0.254,  6.485, -1.941
703985.26551, 3,  -0.531, 12.936, -1.072
703985.28537, 3,   0.900, 10.720, -0.153, 4,  -0.048, -0.243, -0.009, 5, -19.199,-42.249, 24.054
703985.30524, 3,  -1.505,  8.198, -1.845
703985.32511, 3,  -1.144,  9.026, -4.491
703985.34497, 3,  -0.761, 11.703, -4.211, 4,   0.081, -0.250,  0.009
703985.36484, 3,  -0.170,  8.128, -1.309
703985.38471, 3,  -1.500,  6.042, -2.460
703985.40458, 3,  -0.208, 15.453, -4.752, 4,  -0.010, -0.147,  0.084, 5, -19.110,-43.016, 25.652
703985.42444, 3,  -1.117,  4.604, -0.672
703985.44434, 3,  -0.696, 13.012, -3.278
703985.46418, 3,  -0.467,  5.147, -0.730, 4,  -0.006, -0.123,  0.154, 5, -19.592,-41.693, 26.093
703985.48404, 3,  -0.187, 13.632, -5.580
703985.50391, 3,  -0.065,  9.251, -2.556
703985.52378, 3,  -0.266,  7.262, -1.563, 4,   0.027,  0.011,  0.173
703985.54364, 3,   0.380, 11.687, -2.711
703985.56351, 3,   0.191,  9.849, -1.127
703985.58338, 3,   0.447, 10.796, -2.792, 4,   0.019,  0.112,  0.152, 5, -19.965,-40.744, 24.974
703985.60324, 3,   0.005,  6.061, -0.428
703985.62311, 3,  -0.756, 15.434, -4.144
703985.64298, 3,  -0.402,  7.535,  1.239, 4,  -0.002,  0.082,  0.139, 5, -19.678,-41.444, 23.801
703985.66285, 3,   1.151, 10.387, -0.249
703985.68271, 3,   1.122,  5.738, -2.189
703985.70255, 3,   0.254, 10.775, -6.939, 4,   0.102,  0.053,  0.095, 5, -19.998,-41.835, 24.200
703985.72245, 3,  -0.708, 11.289, -6.767
703985.74231, 3,  -0.615,  1.586, -1.567
703985.76218, 3,  -1.699, 12.359, -4.386, 4,   0.042,  0.256,  0.067, 5, -21.483,-41.162, 24.382
703985.78205, 3,  -0.007, 15.556, -0.766
703985.80191, 3,   0.294,  4.865,  1.823
703985.82178, 3,   1.117, 15.391, -0.153, 4,  -0.050,  0.221,  0.045, 5, -21.271,-41.156, 24.577
703985.84165, 3,  -0.134,  0.768, -0.826
703985.86151, 3,   0.230, 16.525, -8.236
703985.88138, 3,  -0.579,  3.927, -5.642, 4,   0.174,  0.157,  0.016
703985.90125, 3,  -0.601, 12.227, -5.245
703985.92112, 3,  -0.804,  5.712, -1.682
703985.94095, 3,  -0.278, 15.884, -5.094, 4,  -0.035,  0.291,  0.002, 5, -22.673,-42.487, 24.831
703985.96082, 3,   0.132,  9.641,  0.625
703985.98069, 3,   0.232,  5.580,  0.952
703986.00055, 3,   0.641, 15.642, -5.011, 4,  -0.004,  0.173, -0.032
703986.02045, 3,  -0.055,  3.175, -1.321
703986.04032, 3,  -1.134, 12.608, -6.642
703986.06018, 3,  -1.108,  6.621, -2.639, 4,   0.063,  0.255, -0.055, 5, -22.215,-41.884, 23.706
703986.08005, 3,  -0.627,  8.112, -4.405
703986.09992, 3,  -0.519, 17.642, -1.965
703986.11979, 3,   0.469,  5.267,  4.606, 4,  -0.152,  0.287, -0.087, 5, -21.860,-41.745, 24.042
703986.13965, 3,  -0.823,  8.633, -0.579
703986.15952, 3,  -0.134,  9.701, -4.130
703986.17936, 3,   0.603, 11.722, -6.183, 4,   0.125,  0.105, -0.165, 5, -22.649,-41.284, 22.636
703986.19922, 3,   0.014,  7.674, -4.561
703986.21909, 3,  -0.857, 11.923, -6.410
703986.23896, 3,  -0.474,  9.093, -1.941, 4,  -0.030,  0.206, -0.175, 5, -22.122,-43.753, 23.917
703986.25882, 3,  -0.806,  2.704, -0.084
703986.27869, 3,   0.290, 17.623, -3.084
703986.29859, 3,  -0.735,  5.432,  1.247, 4,  -0.064,  0.125, -0.205, 5, -23.735,-41.769, 19.983
703986.31845, 3,  -2.173,  8.609, -5.858
703986.33832, 3,  -1.838, 10.849, -5.587
703986.35819, 3,  -0.852,  8.992, -2.424, 4,   0.057, -0.172, -0.218, 5, -19.815,-43.979, 23.230
703986.37806, 3,   0.000,  6.360, -0.675
703986.39789, 3,  -0.601, 12.603, -3.505
703986.41776, 3,  -1.481,  6.092, -3.589, 4,  -0.089, -0.349, -0.117
703986.43763, 3,   0.033, 16.360, -3.958
703986.45749, 3,   0.029, 11.194,  1.244
703986.47736, 3,   0.337,  5.334,  2.192, 4,  -0.105, -0.407, -0.004, 5, -20.331,-44.557, 23.619
703986.49723, 3,   1.065, 13.429, -4.094
703986.51709, 3,   0.366,  8.916, -3.273
703986.53696, 3,   0.234,  8.468, -2.008, 4,   0.039, -0.260,  0.007
703986.55683, 3,  -0.110,  9.976, -2.187
703986.57669, 3,  -1.292,  8.069, -3.211
703986.59659, 3,  -0.522, 12.266, -2.501, 4,  -0.052, -0.092, -0.002, 5, -19.066,-44.008, 23.532
703986.61643, 3,   0.847, 13.175,  0.744
703986.63630, 3,   1.871,  3.374,  1.622
703986.65616, 3,   0.251, 12.038, -4.348, 4,  -0.058, -0.186, -0.021, 5, -18.906,-44.797, 23.871
703986.67603, 3,  -0.871,  9.626, -5.137
703986.69590, 3,  -0.713,  8.095, -2.745
703986.71576, 3,  -1.634,  9.155, -2.690, 4,   0.014, -0.290,  0.001, 5, -18.022,-43.214, 22.752
703986.73563, 3,   0.388, 15.893, -2.173
703986.75550, 3,  -0.794,  1.563, -0.677
703986.77536, 3,  -1.041, 17.561, -6.616, 4,  -0.026, -0.248,  0.056, 5, -16.872,-43.715, 24.550
703986.79523, 3,  -1.125,  5.611,  0.849
703986.81510, 3,  -0.304, 11.012, -3.604
703986.83496, 3,  -0.596, 12.101, -4.716, 4,   0.023, -0.217,  0.118, 5, -19.339,-42.622, 25.310
703986.85480, 3,  -1.297,  6.018, -0.325
703986.87470, 3,  -1.251,  8.291, -3.807
703986.89457, 3,  -0.644,  8.413, -4.015, 4,   0.016, -0.061,  0.152, 5, -19.350,-43.108, 25.934
703986.91443, 3,  -0.378,  9.858, -1.756
703986.93430, 3,  -1.074, 14.211, -0.574
703986.95417, 3,  -0.096, 10.217,  1.074, 4,  -0.084,  0.094,  0.151, 5, -18.713,-42.520, 24.199
703986.97403, 3,   0.301,  8.576, -0.024
703986.99390, 3,   0.352,  8.193, -2.424
703987.01377, 3,  -0.029, 10.978, -4.329, 4,   0.094,  0.037,  0.123, 5, -19.339,-42.537, 24.687
703987.03363, 3,  -0.857,  8.207, -4.539
703987.05350, 3,  -1.716,  5.870, -3.919
703987.07334, 3,  -0.057, 21.313, -3.860, 4,   0.038,  0.226,  0.093
703987.09320, 3,  -0.467, -1.596,  3.249
703987.11307, 3,   0.321, 15.632, -4.300
703987.13294, 3,  -0.770, 11.710, -4.286, 4,   0.035,  0.159,  0.076, 5, -20.668,-42.278, 23.903
703987.15284, 3,  -0.617,  8.100, -4.187
703987.17270, 3,  -0.754, 12.854, -3.360
703987.19257, 3,  -0.641,  5.046,  0.806, 4,   0.049,  0.139,  0.046, 5, -20.840,-41.859, 24.821
703987.21244, 3,   0.189, 14.304, -3.769
703987.23230, 3,  -0.380,  7.123, -2.936
703987.25217, 3,  -1.847,  3.721, -2.838, 4,   0.024,  0.175,  0.031, 5, -21.428,-42.491, 23.564
703987.27204, 3,  -0.761, 15.424, -3.829
703987.29187, 3,  -0.407, 10.610, -2.962
703987.31174, 3,  -1.060,  8.506, -0.024, 4,  -0.038,  0.115,  0.031, 5, -22.131,-41.890, 24.481
703987.33161, 3,  -0.828,  9.940, -0.732
703987.35147, 3,   0.012,  6.875, -1.780
703987.37134, 3,   0.634,  9.397, -5.216, 4,   0.093,  0.124,  0.010, 5, -22.693,-42.372, 22.249
703987.39121, 3,  -0.696,  7.750, -5.865
703987.41108, 3,  -1.512, 10.727, -2.548
703987.43094, 3,  -0.318,  9.291, -0.960, 4,  -0.046,  0.404, -0.036, 5, -21.123,-41.307, 23.987
703987.45084, 3,  -1.110, 14.027, -1.687
703987.47071, 3,   0.424,  9.672,  2.570
703987.49057, 3,  -0.507,  4.350, -0.955, 4,  -0.077,  0.248, -0.095, 5, -20.288,-42.696, 23.045
703987.51044, 3,  -1.024, 14.941, -4.494
703987.53028, 3,   0.287,  7.978, -3.192
703987.55014, 3,  -0.139, 12.531, -4.350, 4,   0.074, -0.059, -0.121, 5, -20.660,-41.904, 21.962
703987.57001, 3,   0.055, 11.375, -1.747
703987.58988, 3,  -0.744,  2.443,  0.438
703987.60974, 3,   0.505, 15.206, -2.364, 4,  -0.090, -0.129, -0.117
703987.62900, 3,   0.416, 10.918, -0.756
703987.64948, 3,   1.366, 11.249, -0.660
703987.66935, 3,  -1.993, -3.226, -3.046, 4,   0.044, -0.217, -0.118, 5, -21.202,-44.330, 22.945
703987.68921, 3,  -0.479, 21.590,-11.375
703987.70908, 3,  -1.170,  8.540, -3.044
703987.72898, 3,  -0.706,  6.403,  0.682, 4,  -0.007, -0.036, -0.060, 5, -21.405,-45.427, 23.470
703987.74881, 3,  -0.002, 10.698, -2.524
703987.76868, 3,   0.220, 10.301, -3.829
703987.78855, 3,   0.589, 16.348, -2.510, 4,  -0.042, -0.026, -0.068, 5, -20.209,-43.797, 24.698
703987.80841, 3,  -0.246,  5.238,  3.838
703987.82828, 3,  -0.258, 11.012, -3.348
703987.84815, 3,  -1.196,  5.554, -3.912, 4,   0.044, -0.092, -0.083, 5, -19.044,-44.957, 22.325
703987.86802, 3,  -0.993, 17.448, -5.484
703987.88788, 3,   1.644,  0.759,  2.402
703987.90775, 3,   0.493, 15.809, -3.613, 4,  -0.011, -0.093, -0.075, 5, -18.565,-43.796, 23.476
703987.92762, 3,  -1.584,  3.235, -2.419
703987.94748, 3,  -2.027,  7.212, -4.037
703987.96735, 3,   0.983, 22.550, -2.788, 4,  -0.004, -0.208, -0.075, 5, -19.916,-43.932, 23.474
703987.98719, 3,   0.225, -1.543,  4.360
703988.00705, 3,  -1.749, 11.253, -3.692
703988.02695, 3,  -1.273,  8.514, -5.147, 4,  -0.007, -0.350, -0.080, 5, -18.692,-43.466, 23.965
703988.04682, 3,   0.502, 12.687, -2.879
703988.06668, 3,   0.452,  8.746, -1.103
703988.08655, 3,  -1.790, 10.282, -4.051, 4,  -0.015, -0.328,  0.011, 5, -18.697,-43.660, 24.930
703988.10642, 3,  -2.656, 10.923, -3.817
703988.12629, 3,  -1.842, 12.101, -2.606
703988.14615, 3,  -0.029,  9.772,  2.070, 4,  -0.013, -0.187,  0.081
703988.16602, 3,   0.550,  9.002, -0.036
703988.18589, 3,  -0.620,  8.626, -6.252
703988.20575, 3,  -1.728,  8.894, -4.979, 4,   0.129, -0.134,  0.074, 5, -18.094,-42.693, 25.372
703988.22559, 3,  -1.931,  6.779, -3.687
703988.24546, 3,  -1.328, 15.065, -3.671
703988.26532, 3,  -2.369,  2.077, -0.290, 4,  -0.015, -0.094,  0.133
703988.28519, 3,  -0.737, 15.625, -4.924
703988.30509, 3,   1.510, 10.837,  0.000
703988.32495, 3,  -0.065, 12.144,  1.448, 4,  -0.083, -0.113,  0.184, 5, -18.164,-43.506, 25.807
703988.34482, 3,  -0.182,  5.850,  0.723
703988.36469, 3,  -1.086,  4.702, -3.403
703988.38456, 3,  -0.591, 12.799, -9.947, 4,   0.104, -0.112,  0.146, 5, -19.141,-43.719, 25.418
703988.40442, 3,   1.036, 17.276, -2.977
703988.42429, 3,  -0.581,  5.221,  2.276
703988.44413, 3,   0.421,  2.288,  2.060, 4,  -0.160,  0.164,  0.213, 5, -19.200,-42.484, 24.199
703988.46399, 3,   0.885, 21.217, -7.327
703988.48386, 3,  -0.122,  7.999,  0.053
703988.50373, 3,   0.534,  6.140,  0.335, 4,   0.031,  0.108,  0.164, 5, -18.944,-42.387, 24.199
703988.52359, 3,  -0.280, 11.734, -5.815
703988.54346, 3,  -0.349,  8.928, -5.939
703988.56333, 3,  -1.287, 10.347, -5.137, 4,   0.070,  0.209,  0.085, 5, -17.902,-44.753, 25.714
703988.58323, 3,  -1.213,  9.693,  0.053
703988.60309, 3,  -2.144,  6.353,  2.615
703988.62296, 3,  -0.735, 14.627, -3.544, 4,  -0.093,  0.194,  0.032, 5, -22.633,-42.940, 22.803
703988.64280, 3,  -1.898, 10.074, -2.821
703988.66266, 3,  -0.450,  0.273, -2.242
703988.68253, 3,  -0.388, 19.327, -6.004, 4,   0.071,  0.064,  0.017
703988.70240, 3,  -0.869,  6.104,  0.526
703988.72226, 3,  -0.498, 11.380, -1.108
703988.74213, 3,  -2.237,  3.333, -2.924, 4,  -0.017,  0.135,  0.012, 5, -20.689,-43.282, 24.007
703988.76200, 3,  -0.407, 20.033, -5.367
703988.78186, 3,  -0.237,  2.453,  1.649
703988.80173, 3,  -1.228, 12.208, -2.996, 4,   0.042,  0.102,  0.026
703988.82160, 3,  -1.065, 13.570, -3.979
703988.84146, 3,  -0.380, 10.306, -1.771
703988.86133, 3,  -0.036,  8.930, -0.124, 4,   0.016,  0.211,  0.030, 5, -19.984,-43.265, 24.583
703988.88123, 3,   0.306,  6.939,  2.465
703988.90107, 3,  -0.459, 12.703, -5.939
703988.92093, 3,  -0.960, 13.476, -6.999, 4,   0.125,  0.241, -0.025, 5, -19.656,-44.389, 23.476
703988.94080, 3,  -0.948,  3.223, -1.725
703988.96067, 3,  -0.469, 10.504, -2.096
703988.98053, 3,   0.940, 15.565, -2.496, 4,  -0.054,  0.222, -0.060, 5, -21.283,-41.966, 26.190
703989.00040, 3,   0.797,  4.877,  1.235
703989.02026, 3,  -0.110,  8.270, -2.060
703989.04013, 3,  -0.409, 11.122, -3.525, 4,   0.013,  0.061, -0.147, 5, -19.553,-42.531, 23.950
703989.06000, 3,  -0.081,  8.791, -4.812
703989.07987, 3,  -0.711,  7.169, -4.422
703989.09973, 3,  -0.744, 12.926, -4.534, 4,   0.035, -0.057, -0.133, 5, -19.206,-42.973, 23.613
703989.11957, 3,   0.285,  8.918, -0.945
703989.13944, 3,   0.907, 14.314, -1.826
703989.15933, 3,  -0.967,  3.946, -0.840, 4,  -0.075, -0.045, -0.083, 5, -18.797,-43.947, 23.677
703989.17920, 3,   0.354, 13.735, -3.632
703989.19907, 3,  -0.392,  8.676, -3.927
703989.21893, 3,   0.244, 10.141, -1.953, 4,   0.005, -0.038, -0.080, 5, -18.214,-43.927, 21.771
703989.23880, 3,   1.546, 12.232, -0.495
703989.25867, 3,  -0.129,  7.121, -0.651
703989.27853, 3,  -0.869,  6.970, -4.889, 4,  -0.019,  0.088, -0.119, 5, -18.964,-43.806, 25.368
703989.29840, 3,  -0.522, 15.747, -3.010
703989.31827, 3,   0.644,  6.899,  1.340
703989.33814, 3,  -0.505,  9.411, -2.527, 4,  -0.044, -0.036, -0.107
703989.35797, 3,  -1.012, 11.957, -5.532
703989.37784, 3,  -0.313,  4.589,  0.060
703989.39771, 3,  -0.218, 12.105, -2.948, 4,  -0.018, -0.237, -0.095, 5, -17.397,-45.107, 23.238
703989.41757, 3,  -1.103,  7.442, -2.319
703989.43744, 3,  -1.436, 10.074, -4.455
703989.45734, 3,  -2.154,  8.495, -6.430, 4,   0.068, -0.365, -0.049, 5, -16.748,-45.935, 23.589
703989.47720, 3,   0.112, 18.095, -2.919
703989.49707, 3,  -0.199,  4.896,  3.884
703989.51694, 3,   0.495, 10.729, -2.024, 4,  -0.074, -0.319,  0.078, 5, -17.255,-44.624, 24.350
703989.53680, 3,   0.163,  8.724, -3.991
703989.55667, 3,  -1.239,  9.294, -3.625
703989.57651, 3,   0.476, 11.567, -3.321, 4,   0.079, -0.193,  0.092, 5, -17.458,-45.674, 25.044
703989.59638, 3,   0.313, 11.119, -0.124
703989.61624, 3,  -1.457,  2.984, -3.103
703989.63611, 3,  -0.876, 10.737, -4.704, 4,   0.037, -0.048,  0.093, 5, -15.852,-43.878, 24.741
703989.65598, 3,   0.715, 12.495, -1.409
703989.67584, 3,   1.017,  6.042, -0.756
703989.69571, 3,   1.005,  8.947, -3.991, 4,  -0.021, -0.021,  0.117, 5, -16.714,-44.617, 25.659
703989.71558, 3,  -0.694, 14.012, -5.898
703989.73547, 3,   0.981,  5.133, -1.742
703989.75534, 3,   0.397, 14.374, -0.818, 4,  -0.050,  0.094,  0.074, 5, -17.250,-46.388, 24.403
703989.77521, 3,  -0.483,  2.520,  1.586
703989.79508, 3,  -1.232, 10.842, -5.262
703989.81491, 3,  -1.137, 18.954, -6.647, 4,   0.039,  0.042,  0.027, 5, -17.419,-44.334, 24.249
703989.83478, 3,  -1.649,  4.365,  1.847
703989.85465, 3,  -0.086, 13.201, -0.045
703989.87451, 3,  -0.237,  8.346, -2.225, 4,  -0.039, -0.023,  0.095
703989.89438, 3,  -0.617, 10.026, -3.371
703989.91425, 3,  -1.323,  9.722, -3.714
703989.93411, 3,  -1.117,  6.169, -3.589, 4,   0.090, -0.000,  0.097, 5, -19.272,-43.295, 24.974
703989.95398, 3,  -0.323,  5.049, -4.539
703989.97385, 3,  -0.991, 18.568, -6.193
703989.99371, 3,   1.306, 11.868,  0.964, 4,  -0.030,  0.230,  0.105
703990.01361, 3,   2.563,  0.622,  3.336
703990.03345, 3,  -0.043, 11.330, -5.113
703990.05331, 3,   0.725, 13.302, -4.814, 4,   0.081,  0.224,  0.011, 5, -17.781,-42.725, 24.202
703990.07318, 3,  -2.084,  4.472, -3.867
703990.09305, 3,  -0.742, 12.555, -4.427
703990.11292, 3,  -0.636,  8.284, -0.325, 4,  -0.002,  0.238,  0.017, 5, -18.962,-43.376, 24.202
703990.13278, 3,  -0.010,  9.502, -2.079
703990.15265, 3,  -0.122, 13.201, -1.529
703990.17252, 3,  -0.342,  8.920,  0.330, 4,  -0.011,  0.181, -0.012, 5, -20.308,-42.758, 25.349
703990.19238, 3,   1.196,  8.356, -4.336
703990.21225, 3,   0.438,  9.176, -7.205
703990.23209, 3,  -0.931,  8.873, -4.003, 4,   0.096,  0.133, -0.063, 5, -18.604,-43.329, 26.009
703990.25198, 3,  -0.299, 11.462, -0.742
703990.27182, 3,  -0.134,  7.925, -1.371
703990.29169, 3,  -0.211,  6.465, -2.319, 4,  -0.115,  0.187, -0.066, 5, -17.116,-44.337, 23.479
703990.31159, 3,  -0.682, 11.514, -3.221
703990.33145, 3,  -0.352, 13.852, -2.189
703990.35132, 3,   1.618, 10.409, -2.039, 4,   0.007,  0.021, -0.100, 5, -18.286,-44.888, 23.724
703990.37119, 3,  -0.605,  4.475, -0.723
703990.39105, 3,   0.041, 13.393, -5.166
703990.41092, 3,   0.433,  7.339, -3.321, 4,   0.027,  0.085, -0.141
703990.43079, 3,  -0.519, 10.347, -2.962
703990.45065, 3,  -0.443, 11.275, -2.422
703990.47052, 3,  -0.811,  4.338, -2.151, 4,  -0.034,  0.094, -0.173, 5, -16.840,-44.176, 22.899
703990.49036, 3,  -1.007, 16.053, -5.044
703990.51022, 3,  -0.696,  8.014, -1.168
703990.53009, 3,  -0.347,  8.351, -2.503, 4,  -0.004, -0.108, -0.160
703990.54996, 3,  -0.383,  9.086, -3.503
703990.56982, 3,  -0.869, 11.868, -4.147
703990.58972, 3,   0.483,  9.916, -0.220, 4,  -0.042, -0.219, -0.129, 5, -16.725,-44.995, 24.602
703990.60959, 3,  -0.285,  7.009,  0.424
703990.62946, 3,  -0.890,  7.743, -2.737
703990.64932, 3,  -1.814,  7.643, -3.568, 4,  -0.052, -0.300, -0.106, 5, -16.011,-45.306, 24.014
703990.66919, 3,   0.129, 12.921, -4.161
703990.68906, 3,   0.263, 11.804, -1.670
703990.70889, 3,   0.706,  8.286,  0.459, 4,  -0.087, -0.282, -0.023, 5, -15.378,-44.583, 23.482
703990.72876, 3,   0.756,  7.607, -0.067
703990.74863, 3,   0.160,  4.197, -4.477
703990.76849, 3,  -0.426, 13.146, -7.377, 4,   0.068, -0.244, -0.035, 5, -15.053,-45.470, 23.831
703990.78836, 3,  -0.811, 14.448, -4.223
703990.80823, 3,  -0.971,  5.226, -1.519
703990.82810, 3,   0.211, 14.914, -1.613, 4,  -0.115, -0.235,  0.024, 5, -14.752,-46.326, 24.985
703990.84796, 3,  -0.904,  4.807,  2.831
703990.86783, 3,   0.273, 11.505, -0.821
703990.88773, 3,  -0.007,  7.913, -2.091, 4,  -0.011, -0.315,  0.028, 5, -14.731,-45.422, 25.072
703990.90759, 3,  -1.306,  6.123, -5.207
703990.92746, 3,  -1.534, 17.647,-10.370
703990.94730, 3,  -0.711, 11.239, -1.405, 4,   0.070, -0.224,  0.060, 5, -14.119,-45.976, 25.488
703990.96716, 3,   0.340,  2.374,  4.257
703990.98703, 3,  -0.026,  8.270, -1.496
703991.00690, 3,   0.653, 18.398, -3.204, 4,  -0.067, -0.142,  0.089, 5, -15.210,-46.248, 24.704
703991.02676, 3,  -0.256,  5.458,  0.057
703991.04663, 3,  -1.058,  7.712, -4.668
703991.06650, 3,  -1.618,  9.971, -4.850, 4,   0.120, -0.246,  0.065
703991.08637, 3,  -0.486,  8.973, -2.242
703991.10623, 3,  -0.672, 10.457, -0.986
703991.12610, 3,   0.455, 10.394, -0.502, 4,  -0.021, -0.166,  0.142, 5, -15.811,-46.014, 24.507
703991.14597, 3,  -0.581,  7.011, -3.202
703991.16586, 3,  -0.311, 16.891, -6.169
703991.18570, 3,  -0.012,  9.342,  0.601, 4,   0.112, -0.172,  0.143, 5, -15.868,-44.688, 23.886
703991.20557, 3,   1.067,  7.903,  0.837
703991.22543, 3,  -1.306,  5.042, -4.242
703991.24530, 3,  -2.295, 11.785, -7.576, 4,   0.158, -0.086,  0.155, 5, -16.472,-45.323, 27.022
703991.26517, 3,  -0.574, 10.983, -3.974
703991.28503, 3,   0.622, 11.567, -0.407
703991.30490, 3,  -0.888,  4.697,  0.179, 4,  -0.005,  0.057,  0.215, 5, -17.659,-44.638, 26.099
703991.32477, 3,  -1.005, 10.016, -5.425
703991.34464, 3,   0.019, 12.163, -2.725
703991.36450, 3,  -0.010,  7.901, -0.065, 4,   0.048,  0.186,  0.199, 5, -17.151,-44.385, 26.376
703991.38437, 3,  -0.029, 12.213, -0.543
703991.40421, 3,  -0.567,  8.971, -1.656
703991.42407, 3,  -0.553,  9.129, -4.817, 4,   0.042,  0.309,  0.120, 5, -18.082,-43.884, 25.656
703991.44397, 3,  -0.488,  7.281, -0.964
703991.46384, 3,  -0.074, 11.268, -2.022
703991.48370, 3,  -0.986,  7.669, -3.343, 4,  -0.034,  0.314,  0.069, 5, -18.175,-44.371, 26.242
703991.50357, 3,  -0.818, 14.331, -4.439
703991.52344, 3,  -1.972,  8.401,  0.368
703991.54331, 3,   0.790,  8.435,  0.706, 4,  -0.035,  0.169,  0.036, 5, -17.766,-43.597, 26.384
703991.56317, 3,   0.249,  9.729, -1.905
703991.58304, 3,  -0.325, 11.761, -4.826
703991.60291, 3,  -0.694,  9.191, -5.087, 4,   0.076,  0.117,  0.012
703991.62277, 3,  -0.866, 10.722, -2.637
703991.64261, 3,  -0.971,  3.170, -0.672
703991.66248, 3,  -1.062, 17.767, -1.493, 4,  -0.090,  0.174,  0.014, 5, -18.689,-43.430, 25.459
703991.68234, 3,   1.105, 10.500, -1.445
703991.70221, 3,   0.244,  6.389,  0.141
703991.72208, 3,   0.352, 11.234, -3.872, 4,   0.029, -0.012,  0.003, 5, -18.698,-43.953, 26.379
703991.74197, 3,   0.890,  9.672, -4.721
703991.76184, 3,   0.938, 10.679, -4.573
703991.78171, 3,   0.871,  5.003, -3.022, 4,   0.105,  0.172,  0.004, 5, -16.106,-45.651, 26.010
703991.80158, 3,   0.615,  8.923, -3.888
703991.82144, 3,  -0.029, 11.615, -4.245
703991.84131, 3,   0.491, 17.018, -0.943, 4,  -0.012,  0.533, -0.104, 5, -18.677,-42.902, 26.039
703991.86115, 3,   0.203,  6.628,  4.759
703991.88101, 3,  -1.598,  2.338, -2.584
703991.90088, 3,  -2.266,  8.183, -8.289, 4,   0.126,  0.426, -0.271, 5, -20.419,-43.423, 25.075
703991.92075, 3,  -2.656,  7.848, -9.476
703991.94061, 3,  -2.132, 19.841, -4.621
703991.96048, 3,   0.321, 10.394,  0.933, 4,  -0.156,  0.131, -0.234, 5, -19.354,-43.298, 25.652
703991.98035, 3,  -1.775, -1.625,  4.865
703992.00021, 3,  -1.931, 16.953, -4.494
703992.02011, 3,   0.718, 13.204, -1.993, 4,  -0.158, -0.414, -0.174, 5, -18.503,-44.653, 23.479
703992.03998, 3,  -2.158,  5.958,  0.328
703992.05985, 3,   0.172, 11.641, -4.606
703992.07971, 3,   1.043, 10.253, -4.561, 4,  -0.046, -0.521, -0.045, 5, -18.062,-45.071, 24.779
703992.09955, 3,   1.409,  7.497,  0.103
703992.11942, 3,   0.806,  7.195, -1.644
703992.13928, 3,   1.577, 11.074, -4.369, 4,  -0.059, -0.127,  0.033
703992.15915, 3,  -0.313,  6.705, -4.453
703992.17902, 3,   1.445, 17.515, -8.047
703992.19888, 3,   0.148,  9.744,  0.287, 4,  -0.021,  0.146, -0.051, 5, -17.462,-44.095, 22.495
703992.21875, 3,   0.378,  1.787,  5.669
703992.23862, 3,  -0.237, 13.048, -4.123
703992.25848, 3,  -0.857,  7.887, -4.783, 4,  -0.020, -0.033, -0.184
703992.27835, 3,  -1.792,  9.074, -4.259
703992.29822, 3,  -0.467, 16.123, -4.494
703992.31809, 3,  -1.905,  0.770,  1.053, 4,  -0.078, -0.546, -0.147, 5, -16.725,-45.044, 24.649
703992.33795, 3,  -1.239,  8.770, -1.773
703992.35782, 3,   1.752, 17.329, -3.159
703992.37769, 3,   0.885,  7.253,  2.046, 4,  -0.096, -0.839,  0.036, 5, -15.388,-44.817, 23.248
703992.39755, 3,   0.024,  7.705, -1.429
703992.41742, 3,  -0.840, 12.861, -7.293
703992.43729, 3,   0.256,  8.573, -2.345, 4,   0.113, -0.638,  0.115, 5, -15.350,-45.396, 26.442
703992.45715, 3,   0.756,  9.083, -1.242
703992.47702, 3,   0.692, 10.548, -1.146
703992.49689, 3,   0.306,  2.434, -2.101, 4,   0.072, -0.092,  0.173, 5, -15.245,-44.424, 26.534
703992.51675, 3,  -0.139, 17.463, -8.830
703992.53659, 3,   0.768,  6.379,  0.292
703992.55646, 3,   1.182,  9.703,  0.211, 4,   0.097,  0.092,  0.153, 5, -16.029,-43.887, 26.778
703992.57633, 3,   0.089, 12.814, -3.630
703992.59622, 3,  -0.665,  9.904, -1.598
703992.61609, 3,  -1.149,  4.563, -0.380, 4,   0.136,  0.143,  0.045, 5, -16.698,-44.038, 27.505
703992.63596, 3,  -1.670, 10.720, -5.838
703992.65582, 3,  -2.194,  6.719, -5.231
703992.67569, 3,  -3.197, 14.632, -5.176, 4,   0.095,  0.019,  0.083
703992.69556, 3,  -1.096, 13.249, -0.199
703992.71542, 3,   1.036,  2.422,  4.214
703992.73529, 3,  -1.436, 12.151, -3.101, 4,  -0.057, -0.134,  0.167, 5, -17.148,-42.154, 28.177
703992.75516, 3,  -1.898,  9.715, -4.314
703992.77499, 3,  -1.216,  7.234, -3.826
703992.79486, 3,  -0.751, 14.589, -5.896, 4,   0.148, -0.040,  0.245
703992.81473, 3,   0.486,  5.484, -1.175
703992.83460, 3,   0.782,  9.650,  0.668
703992.85446, 3,   0.993, 10.698, -1.531, 4,  -0.038,  0.400,  0.236, 5, -19.829,-40.036, 26.154
703992.87436, 3,   1.651,  6.145, -0.201
703992.89423, 3,   0.368, 11.672, -5.054
703992.91409, 3,  -1.689,  5.896, -6.114, 4,   0.140,  0.483,  0.076, 5, -19.427,-40.550, 26.373
703992.93396, 3,  -1.924,  9.023, -2.967
703992.95383, 3,  -0.541,  8.294, -1.362
703992.97369, 3,   0.742, 14.955, -1.809, 4,  -0.037,  0.351,  0.006, 5, -19.345,-41.113, 25.693
703992.99353, 3,  -0.306,  4.477, -0.782
703993.01340, 3,  -0.127, 16.362, -5.771
703993.03326, 3,  -1.551, 10.117, -1.127, 4,  -0.003,  0.230, -0.044, 5, -21.104,-41.867, 25.645
703993.05313, 3,  -1.156,  0.431, -0.105
703993.07300, 3,  -0.902, 18.544, -5.149
703993.09287, 3,  -0.665,  7.566, -0.536, 4,  -0.054,  0.082, -0.041, 5, -21.326,-42.029, 25.645
703993.11273, 3,  -0.912,  8.944, -1.775
703993.13260, 3,  -1.278,  9.107, -1.462
703993.15247, 3,   0.234,  4.936, -2.867, 4,  -0.005,  0.067, -0.017
703993.17236, 3,  -0.601, 11.990, -4.709
703993.19223, 3,  -0.038, 11.861, -2.422
703993.21210, 3,   0.912,  5.958,  0.093, 4,  -0.034,  0.383,  0.001, 5, -21.396,-41.066, 23.372
703993.23193, 3,   0.567,  8.894, -1.594
703993.25180, 3,  -0.455, 13.314, -3.281
703993.27167, 3,  -0.340,  2.039,  2.721, 4,  -0.032,  0.548, -0.128, 5, -22.269,-42.323, 23.906
703993.29153, 3,  -1.237, 10.332, -5.365
703993.31140, 3,  -2.197, 12.431, -5.803
703993.33127, 3,  -1.878,  7.518, -2.632, 4,  -0.018,  0.156, -0.219
703993.35114, 3,  -0.933, 16.336, -0.579
703993.37100, 3,  -1.766,  7.655,  3.202
703993.39087, 3,   0.103,  9.835, -0.869, 4,  -0.161, -0.345, -0.146, 5, -20.444,-42.792, 23.953
703993.41074, 3,   0.323,  6.989, -2.898
703993.43060, 3,   1.041, 12.747, -4.209
703993.45050, 3,   0.806,  9.232, -3.922, 4,   0.044, -0.491, -0.081, 5, -20.642,-42.604, 24.887
703993.47034, 3,  -0.022,  6.473, -4.240
703993.49020, 3,   0.794, 12.218, -2.477
703993.51007, 3,   0.306,  6.561,  0.677, 4,  -0.066, -0.111, -0.047, 5, -18.440,-43.224, 23.053
703993.52994, 3,   2.024, 13.218, -0.436
703993.54981, 3,   1.259,  7.083, -2.388
703993.56967, 3,  -0.450, 10.280, -5.719, 4,   0.079,  0.026, -0.129, 5, -19.035,-45.053, 24.599
703993.58954, 3,  -1.673,  4.264, -4.465
703993.60941, 3,  -0.206, 17.853, -5.214
703993.62927, 3,  -0.443,  4.494,  1.072, 4,  -0.066, -0.130, -0.131, 5, -19.193,-44.154, 23.878
703993.64914, 3,  -0.962, 12.376, -2.819
703993.66901, 3,  -0.203,  9.500, -2.713
703993.68884, 3,  -0.311, 12.105, -0.708, 4,  -0.035, -0.492, -0.077
703993.70871, 3,  -0.103,  9.712, -2.398
703993.72858, 3,   0.019,  9.784, -4.508
703993.74847, 3,   0.160,  8.284, -3.190, 4,   0.058, -0.452,  0.008, 5, -15.872,-44.594, 25.621
703993.76834, 3,  -0.648,  9.133, -1.864
703993.78821, 3,   0.019, 10.299, -2.367
703993.80808, 3,   0.007, 10.691,  0.617, 4,  -0.009, -0.209,  0.052, 5, -17.017,-44.246, 27.110
703993.82794, 3,  -1.108,  5.393, -3.604
703993.84781, 3,  -0.603, 13.979, -4.388
703993.86768, 3,   0.246,  8.095, -0.500, 4,   0.062, -0.283,  0.056
703993.88754, 3,   0.900,  9.035, -2.268
703993.90741, 3,  -0.723, 11.084, -3.974
703993.92725, 3,  -0.194,  8.770, -1.484, 4,   0.059, -0.154,  0.077, 5, -14.165,-44.423, 27.116
703993.94711, 3,  -0.895,  7.906, -3.113
703993.96698, 3,  -0.993, 11.426, -3.647
703993.98685, 3,  -0.897,  6.530, -1.919, 4,   0.031, -0.099,  0.096
703994.00671, 3,  -1.938, 10.995, -3.113
703994.02661, 3,  -0.651, 13.376, -1.711
703994.04648, 3,  -0.033,  6.686,  2.381, 4,  -0.007, -0.152,  0.154, 5, -16.238,-43.413, 26.385
703994.06635, 3,  -0.562, 12.993, -3.058
703994.08621, 3,  -0.749,  6.619, -3.568
703994.10608, 3,  -0.692,  8.968, -3.910, 4,   0.146, -0.103,  0.188, 5, -17.348,-43.208, 27.402
703994.12595, 3,  -1.354,  8.191, -4.984
703994.14578, 3,  -1.000, 14.048, -4.441
703994.16565, 3,  -1.412,  4.661, -0.065, 4,   0.005,  0.216,  0.241, 5, -17.415,-42.204, 27.834
703994.18552, 3,  -0.668, 15.482, -3.276
703994.20538, 3,  -0.708,  8.511,  0.952
703994.22525, 3,  -0.534,  8.145, -1.316, 4,   0.025,  0.312,  0.213, 5, -17.979,-41.612, 26.566
703994.24512, 3,  -0.785, 10.225, -4.668
703994.26498, 3,  -0.718,  9.899, -4.886
703994.28485, 3,  -0.782,  8.774, -3.180, 4,   0.095,  0.345,  0.157, 5, -20.529,-41.704, 24.907
703994.30475, 3,  -0.115, 11.091, -0.864
703994.32462, 3,   0.122,  5.425,  0.440
703994.34448, 3,  -0.596, 11.373, -2.276, 4,  -0.063,  0.374,  0.113
703994.36432, 3,  -0.491, 11.435, -1.962
703994.38419, 3,   0.526,  7.942, -1.555
703994.40405, 3,  -0.400,  8.638, -4.271, 4,   0.083,  0.292,  0.052, 5, -21.291,-40.683, 23.236
703994.42392, 3,  -0.033,  9.368, -4.929
703994.44379, 3,   0.735,  9.428, -3.582
703994.46365, 3,   0.232,  8.480, -1.132, 4,  -0.003,  0.356,  0.017, 5, -20.535,-42.566, 25.073
703994.48352, 3,   0.419, 12.591, -1.677
703994.50339, 3,  -0.378,  7.372, -1.761
703994.52325, 3,   0.072, 15.137, -4.374, 4,  -0.010,  0.410, -0.059
703994.54312, 3,  -0.727,  7.762, -0.019
703994.56299, 3,  -0.077,  9.590, -2.833
703994.58286, 3,  -0.502,  8.813, -4.070, 4,   0.031,  0.313, -0.122, 5, -20.351,-41.788, 23.468
703994.60272, 3,  -1.519,  8.571, -3.970
703994.62198, 3,  -1.161, 11.617, -3.388
703994.64246, 3,  -0.641, 11.096,  0.522, 4,  -0.023,  0.271, -0.142, 5, -20.345,-41.327, 23.596
703994.66232, 3,  -1.184,  4.577, -0.636
703994.68219, 3,  -1.220, 15.537, -4.692
703994.70206, 3,  -0.167,  9.107, -0.230, 4,  -0.011,  0.137, -0.143, 5, -20.006,-42.555, 24.922
703994.72192, 3,  -1.139, 10.378, -1.364
703994.74179, 3,  -1.512,  6.286, -1.890
703994.76166, 3,  -1.292, 10.579, -4.408, 4,   0.041, -0.035, -0.139, 5, -19.519,-42.731, 24.736
703994.78153, 3,  -0.215, 12.304, -4.692
703994.80139, 3,  -0.538,  8.377, -1.199
703994.82123, 3,   0.172,  5.099, -0.323, 4,  -0.048, -0.135, -0.067, 5, -19.038,-43.158, 24.158
703994.84110, 3,  -0.988, 11.194, -4.891
703994.86096, 3,  -0.452, 10.447, -4.367
703994.88086, 3,   3.383, 15.840, -0.144, 4,  -0.028, -0.153, -0.012
703994.90073, 3,   1.828,  0.715,  3.431
703994.92059, 3,   0.730,  9.284, -6.039
703994.94046, 3,   0.457, 11.026, -7.573, 4,   0.106, -0.111, -0.078, 5, -16.226,-45.227, 25.620
703994.96033, 3,  -0.491,  6.753, -4.214
703994.98019, 3,  -0.514,  9.222, -3.360
703995.00006, 3,  -1.101,  6.116, -3.759, 4,  -0.042, -0.051, -0.035, 5, -18.700,-43.947, 25.175
703995.01993, 3,   0.165, 17.527, -4.300
703995.03980, 3,  -0.345,  6.765,  3.175
703995.05963, 3,   0.491,  7.959,  0.412, 4,  -0.134, -0.134,  0.022
703995.07950, 3,   1.464,  8.246, -1.010
703995.09937, 3,   1.244, 11.454, -6.559
703995.11923, 3,  -0.079, 10.256, -3.379, 4,   0.071, -0.010, -0.005, 5, -19.096,-44.244, 25.070
703995.13910, 3,  -1.091,  6.808, -0.558
703995.15897, 3,  -0.179,  8.514, -2.244
703995.17886, 3,  -0.636,  9.253, -0.596, 4,  -0.126,  0.142, -0.021, 5, -18.610,-43.848, 24.930
703995.19873, 3,   0.347, 13.139, -1.893
703995.21860, 3,   0.586,  7.896, -0.132
703995.23846, 3,   0.115,  6.994, -2.881, 4,  -0.030, -0.049, -0.057, 5, -18.648,-45.093, 23.666
703995.25833, 3,  -0.668, 11.246, -5.434
703995.27820, 3,  -0.498,  7.836, -2.910
703995.29804, 3,  -0.464,  9.038, -2.036, 4,   0.014, -0.157, -0.050, 5, -18.179,-44.649, 24.782
703995.31790, 3,  -0.199, 15.056, -3.170
703995.33777, 3,  -0.615,  5.721, -1.357
703995.35764, 3,  -0.019, 15.561, -2.486, 4,  -0.039, -0.274,  0.006, 5, -17.818,-44.164, 23.959
703995.37750, 3,  -0.869,  9.626, -0.254
703995.39737, 3,  -0.560,  6.207, -1.819
703995.41724, 3,  -1.194, 13.969, -5.496, 4,   0.064, -0.258,  0.088
703995.43710, 3,  -0.792,  9.861, -1.998
703995.45700, 3,   0.081,  7.016, -0.328
703995.47687, 3,   0.347, 17.448, -3.357, 4,   0.021,  0.051,  0.136, 5, -16.969,-44.185, 24.492
703995.49674, 3,  -1.826, -2.079, -0.275
703995.51657, 3,  -0.634, 17.171, -6.334
703995.53644, 3,  -0.098, 12.089, -1.819, 4,   0.048,  0.205,  0.104
703995.55631, 3,  -0.641,  7.025,  0.706
703995.57617, 3,   0.033, 10.902, -3.494
703995.59604, 3,  -0.366,  9.782, -3.893, 4,   0.011,  0.242,  0.063, 5, -19.060,-43.904, 25.545
703995.61591, 3,  -0.158,  8.897, -0.912
703995.63577, 3,  -0.644,  9.602, -2.656
703995.65564, 3,  -0.400,  7.860, -3.561, 4,   0.029,  0.253,  0.014, 5, -18.414,-44.652, 24.207
703995.67551, 3,  -1.015, 10.227, -4.041
703995.69537, 3,  -0.424,  9.389, -4.242
703995.71524, 3,   1.158,  7.267,  2.053, 4,  -0.066,  0.167,  0.021, 5, -19.360,-43.251, 24.924
703995.73511, 3,   0.493, 10.000, -0.835
703995.75497, 3,  -0.165,  8.243, -3.403
703995.77484, 3,  -1.089,  9.050, -5.025, 4,   0.051,  0.080, -0.038, 5, -21.021,-43.814, 23.663
703995.79471, 3,  -0.347,  8.274, -4.288
703995.81458, 3,   0.519, 14.335, -2.503
703995.83444, 3,  -0.194,  1.596, -0.211, 4,  -0.023,  0.235, -0.038, 5, -19.731,-44.351, 25.613
703995.85431, 3,  -0.022, 17.408, -6.772
703995.87418, 3,  -1.436,  5.518,  1.254
703995.89404, 3,  -1.237, 12.079, -1.484, 4,  -0.030,  0.276, -0.100, 5, -19.518,-44.257, 23.476
703995.91391, 3,  -0.593, 10.165, -2.000
703995.93378, 3,  -0.857,  7.674, -2.311
703995.95364, 3,  -0.708, 11.005, -5.073, 4,   0.043,  0.097, -0.150, 5, -18.149,-43.355, 24.841
703995.97348, 3,  -1.070,  8.928, -2.972
703995.99335, 3,  -0.613,  6.360, -0.282
703996.01321, 3,  -1.840, 10.780, -2.879, 4,  -0.044,  0.024, -0.138, 5, -18.947,-44.897, 23.000
703996.03311, 3,  -0.268, 13.292, -3.438
703996.05298, 3,   0.335,  6.884,  1.120
703996.07285, 3,   0.620, 10.129, -3.192, 4,  -0.032, -0.104, -0.100
703996.09271, 3,  -0.084,  8.913, -2.857
703996.11258, 3,  -0.065,  7.992, -3.936
703996.13245, 3,  -0.572, 10.906, -4.037, 4,   0.017, -0.129, -0.083, 5, -17.514,-44.630, 24.069
703996.15231, 3,   0.584,  9.610, -0.847
703996.17218, 3,   0.505,  4.912, -1.874
703996.19202, 3,   0.744, 16.822, -5.212, 4,  -0.057, -0.109, -0.070, 5, -17.949,-44.023, 24.303
703996.21188, 3,   0.165,  8.535,  0.227
703996.23175, 3,   0.486,  8.296, -0.443
703996.25162, 3,   0.093, 10.493, -4.271, 4,  -0.023, -0.112, -0.092
703996.27148, 3,  -0.833,  9.090, -2.907
703996.29135, 3,  -0.158,  9.533, -2.244
703996.31125, 3,  -0.263, 11.715, -1.976, 4,  -0.032, -0.167, -0.080, 5, -15.924,-45.158, 24.364
703996.33112, 3,  -0.847,  5.487, -0.787
703996.35098, 3,  -0.598, 12.211, -3.393
703996.37085, 3,   0.048,  9.354, -1.902, 4,  -0.035, -0.325, -0.037, 5, -17.169,-45.094, 24.936
703996.39072, 3,  -0.251,  9.289, -1.766
703996.41055, 3,  -0.237, 10.148, -1.653
703996.43042, 3,  -0.376, 10.756, -2.364, 4,  -0.013, -0.354,  0.020, 5, -16.589,-43.288, 25.555
703996.45029, 3,  -0.306,  8.736, -2.046
703996.47015, 3,  -0.632,  7.478, -2.675
703996.49002, 3,  -0.603, 10.658, -4.769, 4,   0.023, -0.286,  0.079, 5, -18.057,-44.067, 23.036
703996.50989, 3,   0.278,  8.650, -3.438
703996.52976, 3,   1.089, 14.541, -2.362
703996.54962, 3,   0.663,  7.901,  1.098, 4,  -0.063, -0.056,  0.132, 5, -15.750,-44.974, 24.992
703996.56949, 3,   0.438, 10.062, -1.350
703996.58936, 3,   0.306,  6.908, -1.330
703996.60925, 3,  -0.842,  9.662, -4.833, 4,   0.095,  0.042,  0.063
703996.62912, 3,  -0.900, 11.050, -5.554
703996.64896, 3,  -1.275, 11.320, -3.060
703996.66882, 3,  -1.357,  6.870, -0.471, 4,  -0.024,  0.086,  0.058, 5, -16.536,-44.609, 25.465
703996.68869, 3,   0.167, 14.711, -0.110
703996.70856, 3,   0.323,  8.317,  1.627
703996.72842, 3,  -1.184,  6.080, -1.539, 4,   0.002, -0.069,  0.066, 5, -16.704,-43.890, 23.483
703996.74829, 3,  -1.440, 10.117, -5.781
703996.76816, 3,  -0.974, 12.596, -5.872
703996.78803, 3,  -1.019,  9.648, -3.338, 4,   0.092, -0.029,  0.065, 5, -17.371,-44.067, 25.278
703996.80789, 3,  -0.610, 10.112, -0.301
703996.82776, 3,  -0.656,  5.379,  1.397
703996.84763, 3,  -0.680,  7.997, -1.529, 4,  -0.071,  0.012,  0.093, 5, -17.368,-43.913, 24.207
703996.86749, 3,   0.134, 12.486, -4.231
703996.88736, 3,   0.431,  6.497, -3.190
703996.90723, 3,  -0.412, 10.914, -4.982, 4,   0.064,  0.046,  0.089, 5, -18.187,-44.650, 25.362
703996.92709, 3,  -0.376, 10.028, -1.950
703996.94696, 3,   0.725,  6.700,  2.352
703996.96683, 3,  -1.108,  6.975, -3.855, 4,  -0.061,  0.186,  0.032, 5, -19.333,-44.005, 23.523
703996.98669, 3,   0.682, 23.005, -6.195
703997.00656, 3,  -1.299, -2.912, -0.584
703997.02643, 3,  -0.725, 19.815, -4.714, 4,  -0.020, -0.003,  0.005, 5, -18.715,-44.431, 23.956
703997.04630, 3,  -0.349, 11.923, -0.560
703997.06616, 3,   0.400,  4.219,  3.441
703997.08603, 3,  -0.237,  9.899, -1.787, 4,  -0.102, -0.133,  0.031, 5, -18.452,-44.073, 23.772
703997.10587, 3,  -0.345, 15.369, -4.190
703997.12573, 3,  -0.234,  5.130, -1.627
703997.14560, 3,  -0.852, 10.871, -6.145, 4,   0.095, -0.075,  0.057
703997.16547, 3,  -1.254,  5.807, -3.845
703997.18536, 3,  -1.225,  9.193,  1.689
703997.20523, 3,  -0.151, 14.512, -3.221, 4,  -0.020,  0.114,  0.091, 5, -20.915,-42.566, 21.127
703997.22510, 3,   1.105,  6.379,  0.957
703997.24497, 3,  -0.569,  7.001, -4.185
703997.26483, 3,  -0.871, 13.165, -8.102, 4,   0.157,  0.131,  0.031
703997.28470, 3,   0.550,  8.954, -3.204
703997.30457, 3,  -0.816,  6.336, -1.560
703997.32443, 3,   0.098, 11.825, -4.101, 4,  -0.030,  0.194,  0.041, 5, -18.692,-43.517, 25.218
703997.34427, 3,  -0.684,  7.537, -2.008
703997.36414, 3,  -0.093, 15.910, -2.309
703997.38400, 3,   2.158,  9.299,  2.489, 4,  -0.061,  0.049,  0.028, 5, -19.337,-42.778, 24.921
703997.40387, 3,   1.271,  9.511, -3.027
703997.42374, 3,   1.031, 13.735, -5.008
703997.44360, 3,  -1.122,  3.101, -1.469, 4,   0.086, -0.008, -0.033, 5, -18.002,-42.555, 26.285
703997.46350, 3,   0.684, 11.703, -4.180
703997.48337, 3,   1.383, 16.223, -2.800
703997.50324, 3,  -0.660, -0.536,  0.534, 4,  -0.021,  0.061, -0.036, 5, -18.530,-42.085, 24.925
703997.52310, 3,  -0.677, 15.218, -5.001
703997.54297, 3,  -0.230, 13.816, -2.685
703997.56281, 3,   0.476,  3.927,  2.142, 4,   0.023,  0.030, -0.035, 5, -18.755,-43.950, 25.713
703997.58267, 3,  -0.577, 10.744, -4.522
703997.60254, 3,  -0.754, 13.338, -3.958
703997.62241, 3,  -1.668,  7.375, -1.242, 4,   0.083,  0.118, -0.084, 5, -19.550,-43.773, 23.672
703997.64227, 3,  -2.228, 13.082, -3.374
703997.66214, 3,  -1.933,  0.835, -0.246
703997.68201, 3,  -1.103, 14.845, -5.169, 4,   0.000,  0.003, -0.056
703997.70187, 3,  -0.826, 14.139, -2.857
703997.72174, 3,   0.821,  7.379,  2.407
703997.74164, 3,  -0.859,  7.114,  0.368, 4,  -0.079, -0.065,  0.012, 5, -19.040,-43.434, 26.190
703997.76151, 3,  -0.397, 12.615, -4.408
703997.78134, 3,  -0.340,  7.375, -3.685
703997.80121, 3,  -0.069,  7.686, -4.446, 4,   0.118, -0.013,  0.019
703997.82108, 3,   0.129, 11.141, -5.286
703997.84094, 3,   0.419,  8.849, -1.352
703997.86081, 3,   0.955, 13.819, -0.335, 4,  -0.088,  0.132,  0.052, 5, -18.388,-43.900, 25.316
703997.88068, 3,   0.852,  5.030,  4.245
703997.90054, 3,   0.720, 10.966, -2.745
703997.92041, 3,   0.031,  9.016, -4.853, 4,   0.052,  0.070, -0.034, 5, -17.487,-43.057, 24.353
703997.94028, 3,  -0.933,  7.509, -4.996
703997.96014, 3,  -0.859,  6.894, -5.422
703997.98001, 3,  -0.160, 14.290, -5.908, 4,   0.035,  0.037, -0.059, 5, -17.390,-43.161, 26.292
703997.99988, 3,   0.419,  8.559,  0.223
703998.01971, 3,   0.718, 15.278,  1.553
703998.03961, 3,  -0.376,  9.334,  4.061, 4,  -0.194,  0.006, -0.064, 5, -18.243,-43.459, 25.177
703998.05948, 3,  -1.395,  2.280, -2.053
703998.07935, 3,  -1.299, 14.335, -8.411
703998.09921, 3,  -0.206, 12.256, -4.446, 4,   0.145, -0.170, -0.065, 5, -17.900,-43.642, 25.224
703998.11908, 3,  -0.672,  4.900, -0.249
703998.13895, 3,  -0.830, 11.052, -3.331
703998.15881, 3,  -0.818,  7.389, -3.185, 4,  -0.056, -0.008,  0.005, 5, -15.758,-45.110, 26.193
703998.17868, 3,   0.022, 10.962, -0.514
703998.19855, 3,   1.711, 18.106, -0.340
703998.21841, 3,  -0.050, -1.251,  1.728, 4,   0.005,  0.070,  0.015, 5, -18.022,-43.312, 24.930
703998.23825, 3,  -2.410,  8.681, -6.363
703998.25812, 3,  -0.591, 15.350, -8.858
703998.27799, 3,   1.189,  4.309,  0.818, 4,   0.108,  0.042, -0.010, 5, -17.773,-44.073, 25.221
703998.29785, 3,   0.775,  7.466, -1.397
703998.31775, 3,   0.010, 16.405, -6.669
703998.33762, 3,  -0.854,  5.408, -0.625, 4,  -0.008,  0.074, -0.032
703998.35748, 3,   0.273,  9.665, -1.223
703998.37735, 3,  -0.208, 10.794, -2.290
703998.39722, 3,   0.744, 10.978, -2.565, 4,  -0.013, -0.051, -0.025, 5, -17.802,-43.449, 23.232
703998.41708, 3,  -0.352,  9.878, -4.740
703998.43695, 3,  -0.089, 10.423,  0.538
703998.45682, 3,   1.311,  7.786,  1.280, 4,  -0.112, -0.062, -0.040, 5, -18.640,-43.286, 25.449
703998.47665, 3,   0.933, 12.711, -1.986
703998.49652, 3,  -1.919,  1.134, -3.656
703998.51639, 3,  -1.893, 12.309, -7.884, 4,   0.072, -0.100, -0.099, 5, -16.953,-43.327, 22.168
703998.53626, 3,  -0.246, 15.793, -3.568
703998.55612, 3,   0.445,  8.485,  0.534
703998.57599, 3,  -0.100,  5.429,  2.058, 4,  -0.153, -0.066, -0.005, 5, -17.735,-44.353, 24.493
703998.59586, 3,   1.146, 13.412, -1.117
703998.61575, 3,  -0.194,  8.688, -0.768
703998.63562, 3,  -1.536,  5.862, -4.001, 4,   0.024, -0.076, -0.039, 5, -17.392,-44.962, 24.014
703998.65549, 3,  -1.266, 12.471, -5.850
703998.67535, 3,  -2.378,  7.446, -4.668
703998.69519, 3,  -1.529, 15.654, -3.147, 4,  -0.003, -0.176,  0.024, 5, -19.363,-43.953, 22.028
703998.71506, 3,  -0.481,  6.989,  2.393
703998.73492, 3,   0.814, 10.057,  0.866
703998.75479, 3,  -0.060, 10.059, -2.601, 4,  -0.064, -0.154,  0.099, 5, -16.191,-43.172, 24.365
703998.77466, 3,  -1.216, 11.581, -5.171
703998.79453, 3,   0.065,  7.604, -2.125
703998.81439, 3,  -0.239, 11.134, -4.132, 4,   0.081, -0.013,  0.101, 5, -18.384,-43.561, 23.860
703998.83426, 3,  -1.010,  5.480, -3.151
703998.85413, 3,  -0.603, 12.361, -2.828
703998.87399, 3,   0.026, 11.431,  0.287, 4,  -0.070,  0.140,  0.097
703998.89389, 3,   0.388,  7.518,  1.058
703998.91376, 3,  -0.349, 12.751, -3.570
703998.93359, 3,  -0.079,  6.243, -2.204, 4,   0.058, -0.000,  0.020, 5, -17.455,-43.962, 24.843
703998.95346, 3,  -0.766, 11.399, -4.755
703998.97333, 3,  -1.503,  9.724, -2.991
703998.99319, 3,   0.598,  9.212, -0.893, 4,  -0.012,  0.021,  0.026
703999.01306, 3,  -0.933,  8.707, -0.928
703999.03292, 3,  -0.057, 15.063, -1.945
703999.05279, 3,   0.790,  5.822,  2.314, 4,  -0.023, -0.039,  0.005, 5, -18.466,-43.462, 23.476
703999.07266, 3,  -0.309,  5.405, -2.352
703999.09252, 3,  -1.230, 10.289, -6.982
703999.11239, 3,  -1.754, 13.658, -6.018, 4,   0.176, -0.057, -0.004, 5, -18.433,-43.942, 25.656
703999.13223, 3,  -1.668,  4.970, -1.417
703999.15210, 3,  -0.574, 11.375, -1.175
703999.17199, 3,  -0.701, 10.859, -1.132, 4,  -0.066,  0.052,  0.074, 5, -18.048,-44.548, 25.359
703999.19186, 3,  -0.194, 16.113,  0.792
703999.21173, 3,  -0.739, -0.474,  1.440
703999.23159, 3,  -0.249, 13.902, -7.044, 4,   0.099,  0.114,  0.054, 5, -18.021,-43.314, 25.374
703999.25146, 3,   0.065, 11.431, -7.090
703999.27133, 3,  -0.428,  8.231, -1.936
703999.29119, 3,  -0.060, 15.017, -0.179, 4,  -0.017,  0.282,  0.041, 5, -18.536,-42.802, 26.381
703999.31106, 3,  -1.263,  4.798,  1.706
703999.33093, 3,  -1.641,  8.490, -3.120
703999.35080, 3,  -0.591, 13.369, -4.654, 4,   0.038,  0.103, -0.038, 5, -18.254,-43.690, 26.146
703999.37066, 3,   0.883,  9.569, -0.907
703999.39050, 3,  -0.603,  6.817, -4.599
703999.41037, 3,  -0.132, 13.101, -5.783, 4,   0.024, -0.040, -0.017
703999.43023, 3,   0.560,  7.169,  1.641
703999.45010, 3,   1.149,  8.506, -0.053
703999.47000, 3,  -0.682,  9.574, -3.750, 4,  -0.070,  0.061, -0.045, 5, -18.674,-42.661, 24.785
703999.48986, 3,  -0.569, 10.466, -5.097
703999.50973, 3,  -1.589,  6.286, -4.446
703999.52960, 3,   0.660, 18.918, -3.644, 4,   0.002, -0.005, -0.078
703999.54946, 3,  -0.574,  5.884,  0.833
703999.56933, 3,   0.158,  9.751, -0.995
703999.58920, 3,   0.081,  8.966, -2.493, 4,  -0.089,  0.010, -0.073, 5, -19.235,-42.198, 22.128
703999.60903, 3,  -0.909,  9.282, -2.826
703999.62890, 3,  -0.225, 12.648, -4.075
703999.64877, 3,  -0.883,  9.763, -2.328, 4,   0.001,  0.008, -0.083, 5, -19.028,-44.664, 23.146
703999.66864, 3,  -1.481,  5.827, -2.323
703999.68850, 3,  -0.852, 12.572, -1.656
703999.70837, 3,   0.725, 10.366, -0.036, 4,  -0.064,  0.004, -0.057, 5, -19.351,-43.256, 24.200
703999.72824, 3,   0.065,  8.648, -1.610
703999.74813, 3,  -1.110, 10.220, -3.747
703999.76800, 3,  -0.077, 10.835, -3.582, 4,   0.071, -0.062, -0.074, 5, -18.054,-44.643, 23.674
703999.78787, 3,  -0.179,  7.839, -3.934
703999.80773, 3,  -0.703, 12.507, -3.331
703999.82757, 3,  -0.641,  6.870,  0.022, 4,  -0.026, -0.080, -0.041, 5, -17.012,-43.904, 24.594
703999.84744, 3,  -1.187,  7.810, -3.905
703999.86731, 3,   0.249, 16.692, -5.056
703999.88717, 3,   0.342,  4.929,  1.417, 4,   0.007, -0.222, -0.012, 5, -16.443,-43.893, 25.809
703999.90704, 3,  -0.036, 10.883, -3.194
703999.92691, 3,  -0.244, 10.538, -3.915
703999.94677, 3,   0.141,  6.520, -1.534, 4,   0.046, -0.245, -0.005, 5, -16.170,-44.556, 25.026
703999.96664, 3,   0.395, 11.780, -4.312
703999.98651, 3,  -0.479,  9.672, -2.910
704000.00637, 3,  -0.562,  6.654, -2.508, 4,  -0.007, -0.160,  0.030, 5, -16.684,-43.184, 24.205
704000.02624, 3,  -0.766, 13.192, -4.305
704000.04614, 3,   0.093, 10.729,  0.010
704000.06597, 3,   0.510,  9.818,  1.658, 4,  -0.063, -0.073,  0.060
704000.08584, 3,  -0.237,  8.442, -2.572
704000.10571, 3,  -0.773, 11.277, -4.604
704000.12558, 3,   0.022,  6.461, -3.848, 4,   0.082, -0.042,  0.003, 5, -16.835,-43.617, 25.800
704000.14544, 3,  -0.883, 13.251, -4.195
704000.16531, 3,  -0.352,  3.089,  0.584
704000.18518, 3,  -1.637, 11.507, -3.829, 4,  -0.073, -0.023,  0.018, 5, -17.760,-43.826, 24.832
704000.20504, 3,   0.907, 13.869, -1.024
704000.22491, 3,   0.639,  6.205,  2.340
704000.24478, 3,  -0.924,  8.562, -2.326, 4,  -0.016, -0.154,  0.017, 5, -16.626,-44.424, 24.208
704000.26464, 3,  -1.419,  9.069, -5.427
704000.28448, 3,  -0.699, 13.692, -7.834
704000.30435, 3,  -0.629,  8.751, -0.940, 4,   0.089, -0.170,  0.049, 5, -17.535,-45.198, 25.648
704000.32424, 3,  -1.139,  9.789, -0.644
704000.34411, 3,  -0.301,  6.480, -1.419
704000.36398, 3,   0.158, 18.592, -3.963, 4,  -0.038, -0.053,  0.095, 5, -16.466,-43.175, 25.421
704000.38385, 3,  -0.287,  6.887,  2.907
704000.40371, 3,   0.177,  7.468, -1.790
